1 1 1 100 1
1 2 1 100 1
1 3 1 100 1
1 1 2 100 0.492833
2 1 2 100 0.507167
2 2 2 100 1
1 1 3 100 0.494505
3 1 3 100 0.505495
0 2 3 100 0.0264806
1 2 3 100 0.245645
2 2 3 100 0.0355097
3 2 3 100 0.692364
0 3 3 100 0.148781
2 3 3 100 0.157366
3 3 3 100 0.693853
0 4 3 100 0.0178902
1 4 3 100 2.66665e-05
3 4 3 100 0.982083
3 5 3 100 1
3 6 3 100 1
1 1 4 100 0.4
2 1 4 100 0.0521058
4 1 4 100 0.547894
0 2 4 100 0.011862
1 2 4 100 0.39387
2 2 4 100 0.000147323
3 2 4 100 0.00107976
4 2 4 100 0.593041
0 3 4 100 4.45686e-06
1 3 4 100 0.4
3 3 4 100 0.000134912
4 3 4 100 0.599861
0 4 4 100 0.0254291
1 4 4 100 0.25
3 4 4 100 0.000325751
4 4 4 100 0.724245
4 5 4 100 1
1 1 5 100 0.141873
2 1 5 100 0.000958875
5 1 5 100 0.857168
0 2 5 100 0.00577746
1 2 5 100 0.00184295
2 2 5 100 0.141014
5 2 5 100 0.851365
0 3 5 100 0.0936692
1 3 5 100 0.0466833
2 3 5 100 0.293652
3 3 5 100 2.70782e-05
4 3 5 100 0.000933514
5 3 5 100 0.565035
2 4 5 100 0.333333
3 4 5 100 0.166667
5 4 5 100 0.5
1 5 5 100 3.75108e-06
2 5 5 100 0.333334
3 5 5 100 0.666662
2 6 5 100 0.33215
3 6 5 100 0.333333
4 6 5 100 0.334517
4 7 5 100 0.666668
5 7 5 100 0.333331
0 8 5 100 0.5
4 8 5 100 0.5
0 9 5 100 0.322866
1 9 5 100 1.16884e-05
4 9 5 100 0.677123
4 10 5 100 0.500001
5 10 5 100 0.499999
4 11 5 100 1
0 12 5 100 0.0180975
5 12 5 100 0.981902
5 13 5 100 1
1 1 6 100 0.666667
6 1 6 100 0.333333
0 2 6 100 0.00275732
1 2 6 100 0.329451
2 2 6 100 0.333337
4 2 6 100 0.00112113
6 2 6 100 0.333333
0 3 6 100 0.166347
1 3 6 100 1.09343e-05
2 3 6 100 0.333653
3 3 6 100 0.139398
6 3 6 100 0.360591
0 4 6 100 0.127722
1 4 6 100 0.166667
3 4 6 100 0.0178158
5 4 6 100 0.0211283
6 4 6 100 0.666667
1 5 6 100 0.2
6 5 6 100 0.8
1 6 6 100 0.25
6 6 6 100 0.75
0 7 6 100 0.113903
3 7 6 100 4.46858e-05
5 7 6 100 0.0643785
6 7 6 100 0.821674
6 8 6 100 1
6 9 6 100 1
1 1 7 100 0.333849
3 1 7 100 0.158751
6 1 7 100 0.0555556
7 1 7 100 0.451845
0 2 7 100 0.085824
1 2 7 100 0.17775
2 2 7 100 0.111543
3 2 7 100 0.109535
4 2 7 100 0.00208783
5 2 7 100 0.00791968
6 2 7 100 0.0617634
7 2 7 100 0.443578
0 3 7 100 0.269312
1 3 7 100 0.0595626
2 3 7 100 0.0664194
3 3 7 100 0.00115402
4 3 7 100 0.0743974
5 3 7 100 0.0637025
6 3 7 100 0.152184
7 3 7 100 0.313268
0 4 7 100 0.117936
1 4 7 100 0.0540302
2 4 7 100 8.2803e-05
3 4 7 100 0.112464
4 4 7 100 0.161397
5 4 7 100 0.0563386
6 4 7 100 0.166283
7 4 7 100 0.331468
0 5 7 100 0.113858
3 5 7 100 0.117752
4 5 7 100 0.245818
5 5 7 100 0.108846
6 5 7 100 0.0591799
7 5 7 100 0.354546
0 6 7 100 0.00995383
3 6 7 100 0.0631768
4 6 7 100 0.124116
5 6 7 100 0.0701566
6 6 7 100 0.00647616
7 6 7 100 0.726121
0 7 7 100 0.00556826
5 7 7 100 0.0714286
7 7 7 100 0.923003
5 8 7 100 0.142857
7 8 7 100 0.857143
5 9 7 100 0.333333
7 9 7 100 0.666667
7 10 7 100 1
7 11 7 100 1
7 12 7 100 1
0 1 8 100 2.16024e-06
1 1 8 100 0.454546
2 1 8 100 1.00986e-06
3 1 8 100 0.0159419
8 1 8 100 0.529509
0 2 8 100 0.0951477
1 2 8 100 0.375486
2 2 8 100 0.0748161
6 2 8 100 0.0912847
8 2 8 100 0.363266
0 3 8 100 0.239837
1 3 8 100 0.325673
2 3 8 100 0.0401513
3 3 8 100 0.0237712
4 3 8 100 0.00665323
5 3 8 100 0.0909091
6 3 8 100 0.272636
7 3 8 100 0.000364313
8 3 8 100 5.5222e-06
0 4 8 100 0.167346
1 4 8 100 0.0909469
2 4 8 100 0.120485
3 4 8 100 0.183923
4 4 8 100 0.00096818
5 4 8 100 0.0685309
6 4 8 100 0.272623
7 4 8 100 0.00426731
8 4 8 100 0.0909091
0 5 8 100 0.0110058
2 5 8 100 0.00408368
3 5 8 100 0.182517
4 5 8 100 0.16603
5 5 8 100 0.0909091
6 5 8 100 0.181818
8 5 8 100 0.363636
0 6 8 100 0.0809043
1 6 8 100 0.0002436
3 6 8 100 0.0908994
4 6 8 100 0.0909091
5 6 8 100 0.0909091
6 6 8 100 0.181811
7 6 8 100 0.00944593
8 6 8 100 0.454877
3 7 8 100 0.111111
4 7 8 100 0.111115
5 7 8 100 0.111111
6 7 8 100 0.111111
8 7 8 100 0.555552
0 8 8 100 0.141743
4 8 8 100 0.285736
5 8 8 100 0.0011101
6 8 8 100 0.142857
8 8 8 100 0.428554
0 9 8 100 2.59586e-06
2 9 8 100 0.0477259
3 9 8 100 0.152271
4 9 8 100 0.4
6 9 8 100 0.2
8 9 8 100 0.2
0 10 8 100 0.199148
4 10 8 100 0.400852
6 10 8 100 0.2
8 10 8 100 0.2
0 11 8 100 0.101052
4 11 8 100 0.250001
5 11 8 100 0.148954
6 11 8 100 0.249999
8 11 8 100 0.249994
6 12 8 100 3.76849e-05
7 12 8 100 0.0203456
8 12 8 100 0.979617
8 13 8 100 1
8 14 8 100 1
8 15 8 100 1
8 16 8 100 1
0 1 9 100 2.38644e-06
1 1 9 100 0.182175
2 1 9 100 0.0586478
4 1 9 100 0.117647
5 1 9 100 0.0589996
9 1 9 100 0.582528
0 2 9 100 0.0882341
1 2 9 100 0.178498
2 2 9 100 0.0896161
3 2 9 100 0.00127548
4 2 9 100 0.0588482
5 2 9 100 0.0905817
6 2 9 100 0.0771025
7 2 9 100 3.10446e-06
9 2 9 100 0.415841
0 3 9 100 0.146339
1 3 9 100 0.178186
2 3 9 100 0.112501
3 3 9 100 0.0320965
4 3 9 100 0.0640104
6 3 9 100 0.113939
7 3 9 100 0.0588477
9 3 9 100 0.294081
0 4 9 100 0.0588214
1 4 9 100 0.117109
2 4 9 100 1.56814e-05
3 4 9 100 0.0569997
4 4 9 100 0.117531
5 4 9 100 0.0640299
6 4 9 100 0.178508
7 4 9 100 0.228539
8 4 9 100 0.000151721
9 4 9 100 0.178294
0 5 9 100 0.193523
1 5 9 100 0.0586775
2 5 9 100 0.0589872
3 5 9 100 0.0485546
4 5 9 100 0.0010311
5 5 9 100 0.0591946
6 5 9 100 0.128907
7 5 9 100 0.210391
8 5 9 100 0.0642224
9 5 9 100 0.176511
0 6 9 100 0.0199
1 6 9 100 0.000348396
2 6 9 100 0.136948
3 6 9 100 0.0001686
4 6 9 100 0.108821
5 6 9 100 0.0912955
6 6 9 100 0.0646483
7 6 9 100 0.207435
8 6 9 100 0.120369
9 6 9 100 0.250067
0 7 9 100 0.000275119
2 7 9 100 0.142855
3 7 9 100 7.97619e-07
4 7 9 100 0.0844081
5 7 9 100 0.0714321
6 7 9 100 0.0714286
7 7 9 100 0.214007
8 7 9 100 0.201315
9 7 9 100 0.214278
0 8 9 100 0.153781
2 8 9 100 0.153858
3 8 9 100 4.05998e-06
4 8 9 100 0.0769231
5 8 9 100 0.0769519
6 8 9 100 0.0769292
7 8 9 100 0.0769427
8 8 9 100 0.15384
9 8 9 100 0.230769
0 9 9 100 0.0827259
2 9 9 100 3.08505e-06
3 9 9 100 0.166655
4 9 9 100 0.0833118
6 9 9 100 0.0466491
7 9 9 100 0.166405
8 9 9 100 0.250009
9 9 9 100 0.204241
0 10 9 100 0.00132387
1 10 9 100 1.27207e-05
3 10 9 100 1.27207e-05
4 10 9 100 0.10061
5 10 9 100 4.6907e-05
6 10 9 100 0.0105015
7 10 9 100 0.11112
8 10 9 100 0.333333
9 10 9 100 0.443039
0 11 9 100 0.00224972
1 11 9 100 8.89531e-06
2 11 9 100 0.000169812
5 11 9 100 4.88e-06
8 11 9 100 0.3309
9 11 9 100 0.666667
0 12 9 100 2.04535e-05
1 12 9 100 5.28819e-05
8 12 9 100 0.33326
9 12 9 100 0.666667
9 13 9 100 1
0 14 9 100 0.000681355
1 14 9 100 5.65719e-06
3 14 9 100 5.65719e-06
5 14 9 100 4.56485e-05
9 14 9 100 0.999262
0 15 9 100 0.333333
9 15 9 100 0.666667
9 16 9 100 1
1 1 10 100 0.623632
6 1 10 100 0.25
8 1 10 100 0.0013676
10 1 10 100 0.125
0 2 10 100 0.373825
1 2 10 100 0.37509
2 2 10 100 0.125206
6 2 10 100 0.125
8 2 10 100 0.000879967
0 3 10 100 0.00210722
1 3 10 100 0.338509
2 3 10 100 0.153189
3 3 10 100 0.0069404
5 3 10 100 6.96415e-05
6 3 10 100 0.372894
8 3 10 100 0.00129794
10 3 10 100 0.124993
1 4 10 100 0.0985034
2 4 10 100 0.00398438
3 4 10 100 2.22718e-05
4 4 10 100 0.00777126
5 4 10 100 0.237693
6 4 10 100 0.374978
7 4 10 100 0.00830924
8 4 10 100 0.0264965
9 4 10 100 0.117229
10 4 10 100 0.125013
0 5 10 100 0.124931
3 5 10 100 9.53675e-05
5 5 10 100 0.125058
6 5 10 100 0.12616
7 5 10 100 1.67489e-05
8 5 10 100 0.12496
9 5 10 100 0.248848
10 5 10 100 0.249931
0 6 10 100 0.348305
3 6 10 100 7.18963e-05
5 6 10 100 0.114732
6 6 10 100 0.125002
7 6 10 100 0.0265108
8 6 10 100 0.12511
9 6 10 100 0.0102678
10 6 10 100 0.25
6 7 10 100 0.252896
8 7 10 100 0.0684488
9 7 10 100 0.303914
10 7 10 100 0.374741
6 8 10 100 0.2
9 8 10 100 9.11497e-05
10 8 10 100 0.799908
0 9 10 100 0.233966
5 9 10 100 0.00289862
7 9 10 100 0.25
8 9 10 100 0.013136
10 9 10 100 0.5
2 10 10 100 0.25
3 10 10 100 0.25
10 10 10 100 0.5
2 11 10 100 0.5
3 11 10 100 0.5
2 12 10 100 0.5
3 12 10 100 0.5
0 13 10 100 0.5
2 13 10 100 0.5
0 14 10 100 0.0292416
2 14 10 100 0.5
5 14 10 100 0.470758
0 15 10 100 0.466081
1 15 10 100 0.0101006
3 15 10 100 0.0339732
5 15 10 100 0.485668
8 15 10 100 0.00417692
2 16 10 100 0.5
10 16 10 100 0.5
2 17 10 100 0.5
10 17 10 100 0.5
2 18 10 100 1
4 19 10 100 1
0 20 10 100 0.484283
5 20 10 100 0.218121
8 20 10 100 0.297595
10 21 10 100 1
10 22 10 100 1
1 1 11 100 0.701076
5 1 11 100 0.0326919
9 1 11 100 1.7916e-05
11 1 11 100 0.266214
0 2 11 100 0.0330829
1 2 11 100 0.599939
2 2 11 100 5.64513e-05
3 2 11 100 0.1
5 2 11 100 0.000217284
9 2 11 100 3.11085e-06
11 2 11 100 0.266701
1 3 11 100 0.39056
2 3 11 100 6.25239e-05
3 3 11 100 0.309111
4 3 11 100 0.100228
6 3 11 100 3.7079e-05
8 3 11 100 0.1
9 3 11 100 1.26499e-06
11 3 11 100 0.1
1 4 11 100 0.100003
2 4 11 100 0.199906
3 4 11 100 0.101001
4 4 11 100 0.299237
7 4 11 100 6.51153e-05
8 4 11 100 0.1
9 4 11 100 0.0997872
11 4 11 100 0.1
0 5 11 100 0.0997521
1 5 11 100 0.0995019
2 5 11 100 0.199956
3 5 11 100 0.000502934
4 5 11 100 0.300028
6 5 11 100 8.6524e-05
7 5 11 100 3.08084e-05
8 5 11 100 0.100058
9 5 11 100 0.0999999
10 5 11 100 8.35992e-05
11 5 11 100 0.1
0 6 11 100 0.10133
1 6 11 100 0.0999846
2 6 11 100 0.100603
3 6 11 100 0.00160913
4 6 11 100 0.272701
5 6 11 100 0.00482872
6 6 11 100 0.0015937
7 6 11 100 2.78675e-05
8 6 11 100 0.117389
9 6 11 100 0.199932
11 6 11 100 0.1
0 7 11 100 0.102531
1 7 11 100 0.1
2 7 11 100 0.121234
4 7 11 100 0.0938564
5 7 11 100 0.00827586
6 7 11 100 0.00806822
7 7 11 100 0.00130437
8 7 11 100 0.115835
9 7 11 100 0.281611
10 7 11 100 0.0672838
11 7 11 100 0.1
0 8 11 100 0.249943
1 8 11 100 0.124768
2 8 11 100 0.106491
3 8 11 100 0.0052196
6 8 11 100 0.000289096
7 8 11 100 0.0132894
8 8 11 100 0.0722235
9 8 11 100 0.125
10 8 11 100 0.179589
11 8 11 100 0.123187
0 9 11 100 0.109707
1 9 11 100 0.125
5 9 11 100 1.53106e-05
8 9 11 100 0.250003
9 9 11 100 0.0148133
10 9 11 100 0.125
11 9 11 100 0.375461
1 10 11 100 0.125
8 10 11 100 0.25
10 10 11 100 0.125002
11 10 11 100 0.499998
1 11 11 100 0.166667
8 11 11 100 0.333333
10 11 11 100 0.166667
11 11 11 100 0.333333
8 12 11 100 0.333426
10 12 11 100 0.333333
11 12 11 100 0.333241
10 13 11 100 4.27862e-05
11 13 11 100 0.999957
11 14 11 100 1
11 15 11 100 1
1 1 12 100 0.188523
2 1 12 100 0.470587
12 1 12 100 0.34089
0 2 12 100 0.10565
1 2 12 100 0.118645
2 2 12 100 0.416393
3 2 12 100 0.0654044
4 2 12 100 0.000751976
5 2 12 100 3.5947e-05
7 2 12 100 0.0120567
12 2 12 100 0.281063
0 3 12 100 0.113674
1 3 12 100 0.126541
2 3 12 100 0.266041
3 3 12 100 0.0850843
4 3 12 100 0.118491
5 3 12 100 0.0571839
6 3 12 100 0.0151889
8 3 12 100 0.0414044
11 3 12 100 0.0588236
12 3 12 100 0.117568
0 4 12 100 0.116146
1 4 12 100 0.0588246
2 4 12 100 0.176472
3 4 12 100 0.127625
4 4 12 100 0.167615
5 4 12 100 0.0588285
6 4 12 100 0.0987227
7 4 12 100 0.0594353
8 4 12 100 3.15869e-05
9 4 12 100 0.0671342
11 4 12 100 0.058854
12 4 12 100 0.0103115
0 5 12 100 0.0586953
1 5 12 100 0.0589811
2 5 12 100 0.0588235
3 5 12 100 0.0589383
4 5 12 100 0.24109
5 5 12 100 0.111968
6 5 12 100 0.11596
9 5 12 100 0.117022
10 5 12 100 0.00215388
11 5 12 100 0.117544
12 5 12 100 0.0588236
0 6 12 100 0.155408
2 6 12 100 0.0591203
3 6 12 100 0.0587816
4 6 12 100 0.122564
5 6 12 100 0.0721984
6 6 12 100 0.0588236
7 6 12 100 0.118169
8 6 12 100 0.000484627
9 6 12 100 0.114157
10 6 12 100 0.00369678
11 6 12 100 0.118951
12 6 12 100 0.117647
0 7 12 100 0.157746
1 7 12 100 1.50426e-05
3 7 12 100 0.0685911
4 7 12 100 0.175766
5 7 12 100 0.018361
6 7 12 100 0.0589071
7 7 12 100 0.0597674
8 7 12 100 0.0588184
9 7 12 100 0.107271
10 7 12 100 0.000465838
11 7 12 100 0.0588368
12 7 12 100 0.235453
0 8 12 100 0.0347542
3 8 12 100 0.0588301
4 8 12 100 0.10629
5 8 12 100 0.0662561
6 8 12 100 0.0813002
7 8 12 100 0.0586404
8 8 12 100 0.107923
9 8 12 100 0.0741831
11 8 12 100 0.117706
12 8 12 100 0.294117
0 9 12 100 0.0714202
2 9 12 100 6.35025e-05
4 9 12 100 0.00273396
5 9 12 100 7.52448e-05
6 9 12 100 0.0114364
8 9 12 100 0.271427
9 9 12 100 0.14405
10 9 12 100 0.0714929
11 9 12 100 0.142857
12 9 12 100 0.284444
0 10 12 100 4.43834e-06
6 10 12 100 0.0714286
8 10 12 100 0.214086
9 10 12 100 0.142857
10 10 12 100 0.142857
11 10 12 100 0.0716234
12 10 12 100 0.357143
6 11 12 100 0.0833662
8 11 12 100 0.163314
9 11 12 100 0.166667
10 11 12 100 0.248009
11 11 12 100 0.0886438
12 11 12 100 0.25
0 12 12 100 0.270729
4 12 12 100 7.10754e-06
5 12 12 100 1.0305e-06
6 12 12 100 0.0909091
9 12 12 100 0.000410475
10 12 12 100 0.274274
11 12 12 100 1.32578e-05
12 12 12 100 0.363656
0 13 12 100 0.0999874
5 13 12 100 1.36017e-05
9 13 12 100 0.1
10 13 12 100 0.3
12 13 12 100 0.499999
0 14 12 100 0.166666
5 14 12 100 0.00030016
6 14 12 100 0.166666
9 14 12 100 0.166367
12 14 12 100 0.500001
7 15 12 100 0.00824376
10 15 12 100 0.25
12 15 12 100 0.741756
5 16 12 100 0.000661659
10 16 12 100 0.332072
12 16 12 100 0.667266
0 17 12 100 0.0231619
1 17 12 100 7.00155e-06
3 17 12 100 6.73958e-06
4 17 12 100 5.62723e-06
11 17 12 100 0.00639218
12 17 12 100 0.970426
12 18 12 100 1
12 19 12 100 1
12 20 12 100 1
0 1 13 100 1.09115e-06
1 1 13 100 0.700001
4 1 13 100 0.0737979
9 1 13 100 1.52094e-06
13 1 13 100 0.226199
0 2 13 100 5.04026e-06
1 2 13 100 0.299731
2 2 13 100 0.235541
3 2 13 100 0.1
4 2 13 100 0.000616026
6 2 13 100 0.1
9 2 13 100 0.0356891
10 2 13 100 0.029035
13 2 13 100 0.199382
0 3 13 100 0.109044
1 3 13 100 0.196275
2 3 13 100 0.299981
3 3 13 100 0.100028
5 3 13 100 1.04013e-06
6 3 13 100 0.09463
7 3 13 100 1.42547e-05
9 3 13 100 2.6454e-05
13 3 13 100 0.2
0 4 13 100 0.0743273
1 4 13 100 0.0881615
2 4 13 100 0.295185
3 4 13 100 0.0169019
4 4 13 100 0.0118618
6 4 13 100 0.130463
8 4 13 100 0.00208808
9 4 13 100 0.0949449
12 4 13 100 0.0860664
13 4 13 100 0.2
0 5 13 100 0.166589
2 5 13 100 0.1
3 5 13 100 0.102911
4 5 13 100 0.000344566
5 5 13 100 0.116571
6 5 13 100 0.100241
8 5 13 100 0.0115743
9 5 13 100 0.102028
12 5 13 100 0.0999956
13 5 13 100 0.199746
0 6 13 100 0.000297445
2 6 13 100 0.1
3 6 13 100 4.37701e-05
5 6 13 100 0.0999562
6 6 13 100 0.1
7 6 13 100 0.100001
8 6 13 100 0.100003
9 6 13 100 0.1
10 6 13 100 0.0999999
12 6 13 100 0.0999966
13 6 13 100 0.199701
0 7 13 100 0.099648
2 7 13 100 0.0995704
3 7 13 100 9.73198e-05
4 7 13 100 3.43719e-06
5 7 13 100 0.100115
6 7 13 100 0.10041
7 7 13 100 0.1
8 7 13 100 0.10012
9 7 13 100 0.10002
12 7 13 100 0.100015
13 7 13 100 0.2
0 8 13 100 0.105374
5 8 13 100 0.10814
6 8 13 100 0.11113
7 8 13 100 0.11685
8 8 13 100 0.106379
10 8 13 100 0.11882
11 8 13 100 2.46923e-05
12 8 13 100 0.111058
13 8 13 100 0.222225
0 9 13 100 0.102899
6 9 13 100 0.0172279
7 9 13 100 0.142165
8 9 13 100 0.263249
9 9 13 100 0.00375629
10 9 13 100 0.13361
11 9 13 100 0.00376228
12 9 13 100 2.92472e-06
13 9 13 100 0.333328
0 10 13 100 0.116644
8 10 13 100 0.125204
9 10 13 100 0.00519835
10 10 13 100 0.121404
11 10 13 100 0.011933
12 10 13 100 0.119861
13 10 13 100 0.499756
0 11 13 100 0.124906
8 11 13 100 0.124992
9 11 13 100 4.82593e-06
10 11 13 100 7.64029e-06
12 11 13 100 0.125089
13 11 13 100 0.625
8 12 13 100 0.2
9 12 13 100 4.66222e-05
12 12 13 100 0.193892
13 12 13 100 0.606061
0 13 13 100 0.249874
8 13 13 100 0.00257315
11 13 13 100 0.000125752
12 13 13 100 2.90761e-06
13 13 13 100 0.747424
13 14 13 100 1
13 15 13 100 1
4 16 13 100 4.00209e-05
13 16 13 100 0.99996
0 17 13 100 1
13 18 13 100 1
1 1 14 100 0.249945
2 1 14 100 0.333442
3 1 14 100 1.46463e-05
4 1 14 100 0.0832141
8 1 14 100 0.00333234
10 1 14 100 0.0158114
14 1 14 100 0.31424
0 2 14 100 0.0875312
1 2 14 100 0.0833496
2 2 14 100 0.329114
3 2 14 100 5.65723e-06
4 2 14 100 0.0885109
6 2 14 100 0.0781497
9 2 14 100 2.97495e-05
10 2 14 100 0.083073
12 2 14 100 1.81868e-06
13 2 14 100 0.0833334
14 2 14 100 0.166901
0 3 14 100 0.0827402
2 3 14 100 0.416509
3 3 14 100 0.00124961
6 3 14 100 0.166681
9 3 14 100 0.0833376
12 3 14 100 0.0833334
13 3 14 100 0.0828158
14 3 14 100 0.0833333
0 4 14 100 1.1015e-05
1 4 14 100 0.0833333
2 4 14 100 0.416432
4 4 14 100 0.000115942
6 4 14 100 0.25
7 4 14 100 0.0833565
9 4 14 100 0.083333
10 4 14 100 7.76961e-05
12 4 14 100 0.0833404
0 5 14 100 0.327044
2 5 14 100 0.166667
4 5 14 100 0.00627027
5 5 14 100 0.0833334
6 5 14 100 0.0833524
7 5 14 100 0.0833334
9 5 14 100 0.0833334
12 5 14 100 0.166667
0 6 14 100 0.0832401
2 6 14 100 4.76232e-06
3 6 14 100 0.00214021
5 6 14 100 0.411107
6 6 14 100 0.0834462
7 6 14 100 0.120821
8 6 14 100 0.210864
9 6 14 100 0.00504406
12 6 14 100 0.0833334
0 7 14 100 0.0838933
4 7 14 100 3.91722e-05
5 7 14 100 0.246258
6 7 14 100 0.166667
7 7 14 100 0.0833695
8 7 14 100 0.170628
9 7 14 100 0.0833333
12 7 14 100 0.165811
3 8 14 100 1.19347e-05
5 8 14 100 0.167666
6 8 14 100 0.0833334
7 8 14 100 0.108285
8 8 14 100 0.169926
9 8 14 100 0.220797
12 8 14 100 0.0833141
14 8 14 100 0.166667
0 9 14 100 0.186573
3 9 14 100 1.89712e-06
4 9 14 100 0.00186155
6 9 14 100 0.0833334
8 9 14 100 0.166319
9 9 14 100 0.0833315
10 9 14 100 0.145702
11 9 14 100 1.99707e-05
12 9 14 100 0.0833334
14 9 14 100 0.249525
0 10 14 100 0.00831657
3 10 14 100 2.03769e-06
5 10 14 100 0.0909089
6 10 14 100 0.0909092
7 10 14 100 0.0809316
9 10 14 100 0.183702
10 10 14 100 0.0910617
12 10 14 100 0.18144
14 10 14 100 0.272728
0 11 14 100 0.199829
3 11 14 100 6.77938e-06
6 11 14 100 1.51681e-06
8 11 14 100 0.0942615
9 11 14 100 0.199993
10 11 14 100 0.105843
11 11 14 100 0.100008
12 11 14 100 0.100039
13 11 14 100 1.77761e-05
14 11 14 100 0.2
8 12 14 100 0.1
10 12 14 100 0.1
11 12 14 100 0.129809
12 12 14 100 0.20041
14 12 14 100 0.469781
0 13 14 100 0.173809
10 13 14 100 0.111109
11 13 14 100 0.111177
12 13 14 100 0.0356316
13 13 14 100 0.0127155
14 13 14 100 0.555558
0 14 14 100 0.00817358
8 14 14 100 0.125
11 14 14 100 0.125
14 14 14 100 0.741826
8 15 14 100 0.166667
13 15 14 100 0.166693
14 15 14 100 0.66664
0 16 14 100 7.23767e-06
6 16 14 100 0.00136164
8 16 14 100 0.248556
13 16 14 100 0.25
14 16 14 100 0.500075
13 17 14 100 1
12 18 14 100 0.000300169
13 18 14 100 0.9997
14 19 14 100 1
14 20 14 100 1
14 21 14 100 1
14 22 14 100 1
1 1 15 100 0.529185
6 1 15 100 0.0909092
15 1 15 100 0.379906
0 2 15 100 0.249294
1 2 15 100 0.0913676
2 2 15 100 0.290918
4 2 15 100 0.005089
6 2 15 100 0.0909091
8 2 15 100 0.000238979
12 2 15 100 1.57434e-05
13 2 15 100 1.31762e-06
15 2 15 100 0.272166
0 3 15 100 0.0644216
1 3 15 100 0.181818
2 3 15 100 0.181818
3 3 15 100 0.000568937
4 3 15 100 0.184282
6 3 15 100 0.00228056
7 3 15 100 0.0159649
8 3 15 100 0.00741233
9 3 15 100 0.00054976
13 3 15 100 2.80857e-05
15 3 15 100 0.360855
0 4 15 100 0.108459
1 4 15 100 0.181877
2 4 15 100 0.121163
4 4 15 100 0.224534
5 4 15 100 0.000335587
6 4 15 100 5.55819e-06
7 4 15 100 0.00685611
13 4 15 100 0.084053
14 4 15 100 3.43419e-05
15 4 15 100 0.272682
0 5 15 100 0.068708
1 5 15 100 0.0909091
2 5 15 100 0.0909091
4 5 15 100 0.0318368
5 5 15 100 0.249837
6 5 15 100 0.0915578
7 5 15 100 0.0203407
8 5 15 100 3.18258e-05
9 5 15 100 4.41364e-06
10 5 15 100 4.30759e-06
12 5 15 100 0.264951
13 5 15 100 0.0909091
14 5 15 100 1.11699e-06
0 6 15 100 0.0909088
2 6 15 100 0.0909091
4 6 15 100 0.0836389
5 6 15 100 0.0982633
6 6 15 100 0.0909091
7 6 15 100 0.000107315
9 6 15 100 0.090909
12 6 15 100 0.272727
13 6 15 100 0.0909091
14 6 15 100 0.0907179
2 7 15 100 0.0909091
4 7 15 100 0.0905607
5 7 15 100 0.181818
6 7 15 100 0.0909091
7 7 15 100 0.0910504
8 7 15 100 9.91921e-06
9 7 15 100 9.54085e-05
11 7 15 100 0.0908038
12 7 15 100 0.181677
13 7 15 100 0.0912573
14 7 15 100 0.0909091
0 8 15 100 0.236465
2 8 15 100 0.0909091
5 8 15 100 0.162671
6 8 15 100 0.110056
7 8 15 100 0.181817
8 8 15 100 5.48836e-05
10 8 15 100 0.000140493
11 8 15 100 0.0360553
12 8 15 100 0.0909225
14 8 15 100 0.0909068
15 8 15 100 1.22485e-06
0 9 15 100 5.79936e-06
3 9 15 100 1.64985e-05
4 9 15 100 2.41661e-06
5 9 15 100 0.0908703
6 9 15 100 0.0899019
7 9 15 100 0.181818
8 9 15 100 0.105052
9 9 15 100 0.000122384
10 9 15 100 0.0762466
11 9 15 100 3.88211e-05
12 9 15 100 0.0909092
13 9 15 100 0.274107
14 9 15 100 0.0909087
0 10 15 100 0.00382787
3 10 15 100 0.000313358
4 10 15 100 0.00137482
5 10 15 100 0.0105745
6 10 15 100 0.171243
7 10 15 100 0.181844
8 10 15 100 0.0816219
9 10 15 100 0.00395807
12 10 15 100 0.0909107
13 10 15 100 0.272726
14 10 15 100 0.181605
0 11 15 100 0.162482
4 11 15 100 4.26507e-05
7 11 15 100 0.0915145
8 11 15 100 0.0909091
9 11 15 100 0.0165746
10 11 15 100 4.9959e-05
11 11 15 100 0.0936216
12 11 15 100 0.0909091
13 11 15 100 0.362935
14 11 15 100 5.1639e-05
15 11 15 100 0.0909091
0 12 15 100 0.276453
3 12 15 100 1.02326e-05
8 12 15 100 0.102201
10 12 15 100 0.126249
11 12 15 100 0.218718
12 12 15 100 0.090518
13 12 15 100 0.181141
14 12 15 100 0.00436043
15 12 15 100 0.000349844
0 13 15 100 0.0908753
5 13 15 100 0.090909
7 13 15 100 0.0909091
8 13 15 100 0.0884779
9 13 15 100 0.00243114
11 13 15 100 0.181826
13 13 15 100 0.0909012
14 13 15 100 3.37163e-05
15 13 15 100 0.363636
0 14 15 100 0.199999
10 14 15 100 0.100014
11 14 15 100 0.194972
12 14 15 100 0.00490235
13 14 15 100 0.0999861
14 14 15 100 0.1
15 14 15 100 0.300126
0 15 15 100 9.54426e-05
5 15 15 100 0.1
6 15 15 100 3.04356e-06
7 15 15 100 0.1
10 15 15 100 0.1
14 15 15 100 0.0999998
15 15 15 100 0.599902
0 16 15 100 0.124951
5 16 15 100 0.125
10 16 15 100 0.125
14 16 15 100 5.19082e-05
15 16 15 100 0.624997
2 17 15 100 0.125
5 17 15 100 0.125
15 17 15 100 0.75
0 18 15 100 7.58068e-06
2 18 15 100 0.2
15 18 15 100 0.799993
10 19 15 100 0.055682
12 19 15 100 0.500017
14 19 15 100 0.000191784
15 19 15 100 0.444109
12 20 15 100 0.500001
15 20 15 100 0.499999
12 21 15 100 1
12 22 15 100 1
0 23 15 100 2.93355e-05
13 23 15 100 0.999971
15 24 15 100 1
7 25 15 100 0.000167934
15 25 15 100 0.999832
7 26 15 100 0.0018706
15 26 15 100 0.998129
1 1 16 100 0.333333
4 1 16 100 0.5
16 1 16 100 0.166667
1 2 16 100 0.166663
2 2 16 100 0.166672
4 2 16 100 0.416666
6 2 16 100 0.000107935
8 2 16 100 0.0831564
9 2 16 100 6.90306e-05
16 2 16 100 0.166667
0 3 16 100 0.290923
1 3 16 100 0.0836573
2 3 16 100 0.199933
3 3 16 100 3.75817e-06
4 3 16 100 0.257132
5 3 16 100 0.0717863
6 3 16 100 0.000446772
8 3 16 100 0.0833334
9 3 16 100 0.000514352
10 3 16 100 0.000991748
13 3 16 100 0.000222176
14 3 16 100 1.51113e-05
16 3 16 100 0.0110416
0 4 16 100 0.0522443
1 4 16 100 0.0622233
2 4 16 100 0.0811167
3 4 16 100 0.0130831
4 4 16 100 0.166667
5 4 16 100 0.0833335
6 4 16 100 0.0660755
7 4 16 100 0.101339
8 4 16 100 0.104507
9 4 16 100 0.166633
10 4 16 100 0.0193631
11 4 16 100 4.78002e-05
12 4 16 100 0.0833334
16 4 16 100 3.3443e-05
0 5 16 100 0.255671
1 5 16 100 1.56538e-05
3 5 16 100 0.0231672
4 5 16 100 0.00744963
5 5 16 100 0.168729
7 5 16 100 0.0959779
8 5 16 100 0.0837314
9 5 16 100 0.0825742
10 5 16 100 0.00710234
11 5 16 100 1.16224e-06
12 5 16 100 0.108913
13 5 16 100 0.166667
0 6 16 100 0.0833106
5 6 16 100 0.25
6 6 16 100 2.93926e-05
7 6 16 100 0.0833333
9 6 16 100 0.166637
11 6 16 100 0.0833559
12 6 16 100 0.166667
13 6 16 100 0.166667
0 7 16 100 0.164152
2 7 16 100 8.78768e-06
5 7 16 100 0.166644
6 7 16 100 8.15118e-06
8 7 16 100 3.6584e-06
9 7 16 100 0.166667
11 7 16 100 0.0025164
12 7 16 100 0.166667
13 7 16 100 0.333334
2 8 16 100 0.000340711
5 8 16 100 0.151056
6 8 16 100 0.0150862
7 8 16 100 0.0829926
8 8 16 100 0.0170454
9 8 16 100 0.150146
11 8 16 100 0.0833332
12 8 16 100 0.162109
13 8 16 100 0.333334
16 8 16 100 0.00455812
0 9 16 100 0.142777
5 9 16 100 7.42309e-05
6 9 16 100 0.0834213
7 9 16 100 0.0833334
8 9 16 100 0.0834875
9 9 16 100 0.0834129
10 9 16 100 0.00577636
11 9 16 100 0.0010124
12 9 16 100 0.0164736
13 9 16 100 0.203
14 9 16 100 0.0833077
15 9 16 100 0.000440623
16 9 16 100 0.213484
0 10 16 100 0.0204957
6 10 16 100 6.29679e-06
7 10 16 100 0.107865
8 10 16 100 0.0909091
9 10 16 100 0.0909091
10 10 16 100 0.0739823
13 10 16 100 0.181818
14 10 16 100 0.252125
15 10 16 100 7.09974e-05
16 10 16 100 0.181818
0 11 16 100 0.0909089
4 11 16 100 5.09602e-06
6 11 16 100 4.04345e-05
8 11 16 100 0.00826127
9 11 16 100 0.0908732
10 11 16 100 0.0910167
12 11 16 100 0.0534258
13 11 16 100 0.0909094
14 11 16 100 0.31069
16 11 16 100 0.26387
0 12 16 100 0.181754
9 12 16 100 0.0909091
10 12 16 100 0.0909091
13 12 16 100 0.0909091
14 12 16 100 0.181852
15 12 16 100 6.42264e-05
16 12 16 100 0.363603
9 13 16 100 0.0999999
10 13 16 100 0.0406315
12 13 16 100 0.0593685
13 13 16 100 0.1
14 13 16 100 0.2
16 13 16 100 0.5
0 14 16 100 0.13805
1 14 16 100 1.61e-06
11 14 16 100 0.00923161
12 14 16 100 0.108917
13 14 16 100 1.8215e-06
14 14 16 100 0.243797
16 14 16 100 0.5
1 15 16 100 7.69914e-06
4 15 16 100 8.5228e-05
6 15 16 100 4.42221e-05
10 15 16 100 0.00113385
12 15 16 100 0.166667
13 15 16 100 0.166667
14 15 16 100 0.332062
16 15 16 100 0.333333
0 16 16 100 0.192881
10 16 16 100 1.38576e-05
13 16 16 100 0.333334
14 16 16 100 0.113863
15 16 16 100 0.0265742
16 16 16 100 0.333334
8 17 16 100 0.25
16 17 16 100 0.75
0 18 16 100 0.333332
16 18 16 100 0.666668
8 19 16 100 0.268616
16 19 16 100 0.731384
1 1 17 100 0.750799
15 1 17 100 0.124201
17 1 17 100 0.125
0 2 17 100 0.109006
1 2 17 100 0.125389
2 2 17 100 0.124995
3 2 17 100 0.0350058
4 2 17 100 0.125
5 2 17 100 0.103617
7 2 17 100 0.00194675
12 2 17 100 3.78015e-05
15 2 17 100 0.124716
16 2 17 100 0.125041
17 2 17 100 0.125246
1 3 17 100 0.125
2 3 17 100 0.125
4 3 17 100 0.125
5 3 17 100 0.125
12 3 17 100 0.125
15 3 17 100 0.12478
16 3 17 100 0.124936
17 3 17 100 0.125285
1 4 17 100 0.000477404
2 4 17 100 0.125
4 4 17 100 0.125
5 4 17 100 0.125356
6 4 17 100 0.124949
8 4 17 100 5.06938e-05
9 4 17 100 0.0227738
12 4 17 100 0.125
15 4 17 100 0.124644
16 4 17 100 0.125
17 4 17 100 0.101749
0 5 17 100 0.124984
2 5 17 100 0.0985589
3 5 17 100 0.0264386
4 5 17 100 0.124475
5 5 17 100 0.249997
6 5 17 100 0.12553
7 5 17 100 1.61126e-05
9 5 17 100 0.124995
12 5 17 100 5.39658e-06
16 5 17 100 0.125
0 6 17 100 0.13669
3 6 17 100 1.13265e-05
4 6 17 100 0.240516
5 6 17 100 0.125
7 6 17 100 0.113299
8 6 17 100 0.0151119
9 6 17 100 0.125
11 6 17 100 0.115984
15 6 17 100 0.00338752
16 6 17 100 0.125
0 7 17 100 2.76255e-05
3 7 17 100 0.0694459
4 7 17 100 0.124992
5 7 17 100 0.155821
6 7 17 100 0.113934
7 7 17 100 0.00174419
8 7 17 100 0.00543669
9 7 17 100 0.125008
10 7 17 100 0.136792
11 7 17 100 0.125
12 7 17 100 0.00447542
13 7 17 100 0.125
15 7 17 100 0.00543669
16 7 17 100 0.00688566
0 8 17 100 2.63232e-06
4 8 17 100 0.151614
5 8 17 100 1.68457e-05
6 8 17 100 0.250018
8 8 17 100 0.00623284
9 8 17 100 0.125
10 8 17 100 0.243728
11 8 17 100 0.138078
13 8 17 100 0.082753
15 8 17 100 0.00255603
0 9 17 100 3.12885e-06
2 9 17 100 1.03993e-05
3 9 17 100 0.000265783
4 9 17 100 0.00045726
6 9 17 100 0.24999
8 9 17 100 0.124276
9 9 17 100 0.125
11 9 17 100 0.25
12 9 17 100 0.124997
13 9 17 100 0.125
4 10 17 100 0.125
6 10 17 100 0.25
8 10 17 100 0.124848
11 10 17 100 0.125
12 10 17 100 0.125152
13 10 17 100 0.128906
14 10 17 100 0.121094
0 11 17 100 0.307402
1 11 17 100 1.33948e-05
3 11 17 100 0.000121638
6 11 17 100 0.142859
7 11 17 100 0.120764
8 11 17 100 0.141977
12 11 17 100 0.000911961
13 11 17 100 0.000197724
14 11 17 100 0.142857
16 11 17 100 0.142895
0 12 17 100 0.285642
6 12 17 100 0.285715
8 12 17 100 7.21504e-05
11 12 17 100 0.142857
14 12 17 100 0.142857
16 12 17 100 0.142857
0 13 17 100 0.285621
6 13 17 100 0.142857
7 13 17 100 2.66788e-06
8 13 17 100 0.142857
10 13 17 100 0.142857
11 13 17 100 0.142947
12 13 17 100 7.75747e-05
15 13 17 100 0.0574806
17 13 17 100 0.085299
0 14 17 100 0.166351
3 14 17 100 1.78536e-05
6 14 17 100 0.166667
7 14 17 100 0.000297356
8 14 17 100 0.166667
10 14 17 100 0.166667
16 14 17 100 0.166667
17 14 17 100 0.166667
8 15 17 100 0.2
10 15 17 100 0.2
11 15 17 100 0.2
16 15 17 100 0.2
17 15 17 100 0.2
0 16 17 100 0.499966
4 16 17 100 5.21308e-06
8 16 17 100 0.25
11 16 17 100 0.249995
16 16 17 100 3.38432e-05
0 17 17 100 0.0552088
7 17 17 100 0.194541
10 17 17 100 0.000250013
11 17 17 100 0.196273
13 17 17 100 0.0537269
17 17 17 100 0.5
0 18 17 100 0.687651
11 18 17 100 5.73527e-05
12 18 17 100 0.00194924
13 18 17 100 0.310342
7 19 17 100 0.333333
13 19 17 100 0.333333
17 19 17 100 0.333333
7 20 17 100 0.333333
15 20 17 100 0.333333
17 20 17 100 0.333333
0 21 17 100 0.0259072
3 21 17 100 0.000139157
7 21 17 100 0.307234
16 21 17 100 5.16249e-05
17 21 17 100 0.666668
13 22 17 100 0.5
17 22 17 100 0.5
0 23 17 100 0.5
13 23 17 100 0.5
13 24 17 100 0.5
17 24 17 100 0.5
17 25 17 100 1
8 1 18 100 0.142857
11 1 18 100 0.142857
18 1 18 100 0.714286
0 2 18 100 0.426728
2 2 18 100 0.000312287
5 2 18 100 5.34252e-05
8 2 18 100 0.00147699
11 2 18 100 0.000351517
14 2 18 100 9.54842e-05
18 2 18 100 0.570983
0 3 18 100 0.142857
7 3 18 100 0.142821
8 3 18 100 0.000588461
11 3 18 100 0.142874
12 3 18 100 1.75136e-05
13 3 18 100 0.142269
15 3 18 100 1.90335e-05
18 3 18 100 0.428554
3 4 18 100 0.0207409
7 4 18 100 0.107063
11 4 18 100 0.285714
13 4 18 100 0.142857
14 4 18 100 0.0357943
18 4 18 100 0.40783
0 5 18 100 0.285418
3 5 18 100 0.00104942
4 5 18 100 0.142843
5 5 18 100 0.000323779
6 5 18 100 5.12763e-06
9 5 18 100 2.56357e-05
12 5 18 100 0.142857
13 5 18 100 0.142857
14 5 18 100 0.141952
16 5 18 100 0.142669
0 6 18 100 0.142861
1 6 18 100 0.142857
4 6 18 100 0.142857
8 6 18 100 0.00186386
11 6 18 100 0.111867
12 6 18 100 0.142857
13 6 18 100 0.17198
16 6 18 100 0.142857
1 7 18 100 0.142857
4 7 18 100 0.142857
5 7 18 100 1.49942e-06
12 7 18 100 0.142857
13 7 18 100 0.285714
14 7 18 100 0.142856
16 7 18 100 0.142857
0 8 18 100 2.66571e-06
1 8 18 100 0.142857
4 8 18 100 0.142857
9 8 18 100 2.76269e-06
12 8 18 100 0.142857
13 8 18 100 0.284456
14 8 18 100 0.144109
16 8 18 100 0.142857
1 9 18 100 0.142857
4 9 18 100 0.142857
5 9 18 100 0.0420172
8 9 18 100 0.0419939
9 9 18 100 0.0167047
10 9 18 100 0.0431998
13 9 18 100 0.284655
14 9 18 100 0.142862
16 9 18 100 0.142852
1 10 18 100 0.28568
4 10 18 100 0.14169
5 10 18 100 2.51369e-06
8 10 18 100 7.67794e-05
10 10 18 100 0.142032
12 10 18 100 1.79296e-05
13 10 18 100 0.143665
14 10 18 100 0.00135018
17 10 18 100 0.142857
18 10 18 100 0.142629
0 11 18 100 0.285578
1 11 18 100 0.142857
2 11 18 100 1.64857e-05
8 11 18 100 0.00424602
10 11 18 100 3.61661e-06
11 11 18 100 0.0211384
13 11 18 100 0.142857
14 11 18 100 0.117589
17 11 18 100 0.142857
18 11 18 100 0.142857
1 12 18 100 0.285714
2 12 18 100 8.2331e-06
8 12 18 100 0.00791445
14 12 18 100 0.190052
15 12 18 100 0.0464859
17 12 18 100 0.157027
18 12 18 100 0.312797
1 13 18 100 0.333333
14 13 18 100 2.34087e-05
17 13 18 100 0.166667
18 13 18 100 0.499977
0 14 18 100 0.0265892
1 14 18 100 0.166667
8 14 18 100 0.00268662
11 14 18 100 0.137391
16 14 18 100 2.44068e-05
17 14 18 100 0.166667
18 14 18 100 0.499976
1 15 18 100 0.25
13 15 18 100 0.228561
15 15 18 100 0.021405
17 15 18 100 3.29733e-05
18 15 18 100 0.500001
1 16 18 100 0.25
17 16 18 100 0.25
18 16 18 100 0.5
1 17 18 100 0.333333
17 17 18 100 0.333333
18 17 18 100 0.333333
1 18 18 100 0.5
17 18 18 100 0.5
13 19 18 100 0.5
17 19 18 100 0.5
13 20 18 100 0.5
18 20 18 100 0.5
13 21 18 100 0.5
18 21 18 100 0.5
18 22 18 100 1
18 23 18 100 1
18 24 18 100 1
1 1 19 100 0.545455
19 1 19 100 0.454545
0 2 19 100 0.000486227
1 2 19 100 0.383538
2 2 19 100 0.0710469
5 2 19 100 0.09087
13 2 19 100 5.01262e-05
14 2 19 100 7.18667e-06
19 2 19 100 0.454002
0 3 19 100 0.266268
1 3 19 100 0.18171
2 3 19 100 0.000163993
3 3 19 100 0.089085
4 3 19 100 0.00246259
5 3 19 100 0.0909091
6 3 19 100 0.0255205
9 3 19 100 0.000127793
10 3 19 100 0.0653886
12 3 19 100 0.0908065
19 3 19 100 0.187558
0 4 19 100 0.038557
1 4 19 100 0.181287
2 4 19 100 0.0916681
3 4 19 100 0.0677151
4 4 19 100 0.0146206
5 4 19 100 0.187862
6 4 19 100 0.013278
7 4 19 100 0.0741987
9 4 19 100 0.0194774
10 4 19 100 0.010473
11 4 19 100 0.0525411
12 4 19 100 0.160042
13 4 19 100 5.9434e-06
15 4 19 100 2.32099e-05
16 4 19 100 0.0875139
17 4 19 100 0.000736668
0 5 19 100 0.0877909
2 5 19 100 0.09677
3 5 19 100 0.0916932
4 5 19 100 0.0964228
5 5 19 100 6.93391e-05
6 5 19 100 0.273382
7 5 19 100 0.090905
10 5 19 100 0.0811439
14 5 19 100 0.0909092
16 5 19 100 0.0909092
18 5 19 100 5.02668e-06
0 6 19 100 0.0912194
2 6 19 100 0.0907767
3 6 19 100 0.0909093
4 6 19 100 0.0910347
5 6 19 100 5.13062e-06
6 6 19 100 0.0909075
7 6 19 100 0.0909193
8 6 19 100 0.000250454
10 6 19 100 0.181269
11 6 19 100 7.14513e-06
14 6 19 100 0.0909093
16 6 19 100 0.181793
0 7 19 100 0.00744866
3 7 19 100 0.174347
4 7 19 100 0.0909302
6 7 19 100 0.181817
7 7 19 100 0.0908995
8 7 19 100 1.29174e-06
10 7 19 100 0.181841
14 7 19 100 0.0909092
16 7 19 100 0.181805
18 7 19 100 9.66194e-07
0 8 19 100 0.192064
2 8 19 100 3.11885e-05
3 8 19 100 0.0909092
5 8 19 100 0.00263112
6 8 19 100 0.258469
7 8 19 100 7.07609e-06
8 8 19 100 0.00126305
10 8 19 100 0.181825
12 8 19 100 2.62349e-05
13 8 19 100 1.41813e-06
14 8 19 100 0.0909092
15 8 19 100 5.58333e-05
16 8 19 100 0.1818
18 8 19 100 6.9162e-06
0 9 19 100 0.272666
3 9 19 100 0.0908882
6 9 19 100 0.181818
7 9 19 100 0.0885292
8 9 19 100 0.0909185
9 9 19 100 0.0909092
10 9 19 100 1.73467e-05
14 9 19 100 0.0909092
15 9 19 100 3.51125e-05
16 9 19 100 0.0909039
17 9 19 100 0.0024052
3 10 19 100 0.0907856
6 10 19 100 0.181818
7 10 19 100 1.37147e-05
8 10 19 100 0.09093
9 10 19 100 0.0911309
10 10 19 100 0.0909108
11 10 19 100 1.19497e-05
12 10 19 100 0.000291055
13 10 19 100 5.3403e-06
14 10 19 100 0.181818
16 10 19 100 0.0953472
17 10 19 100 0.176937
0 11 19 100 0.187941
3 11 19 100 7.23895e-06
7 11 19 100 0.112673
8 11 19 100 0.0888104
9 11 19 100 0.00256294
10 11 19 100 0.0629975
13 11 19 100 0.181809
14 11 19 100 0.181818
17 11 19 100 0.0904719
19 11 19 100 0.0909091
0 12 19 100 0.168727
5 12 19 100 1.24045e-05
6 12 19 100 0.00344401
8 12 19 100 0.0863429
9 12 19 100 3.32147e-05
10 12 19 100 0.116167
11 12 19 100 0.0656649
12 12 19 100 0.0445095
13 12 19 100 0.0920157
14 12 19 100 0.181805
15 12 19 100 0.0413158
16 12 19 100 0.0158908
17 12 19 100 0.0909093
18 12 19 100 0.00225305
19 12 19 100 0.0909093
8 13 19 100 0.090909
10 13 19 100 0.0909091
11 13 19 100 0.00647881
12 13 19 100 0.0844303
13 13 19 100 0.0909091
14 13 19 100 0.0909091
15 13 19 100 0.0909091
16 13 19 100 0.0909091
17 13 19 100 0.0909091
19 13 19 100 0.272727
0 14 19 100 0.213374
6 14 19 100 0.109908
10 14 19 100 0.110553
11 14 19 100 0.000636875
12 14 19 100 0.11112
13 14 19 100 0.000558329
14 14 19 100 0.00771506
15 14 19 100 0.111115
16 14 19 100 0.112315
17 14 19 100 0.111594
19 14 19 100 0.111111
0 15 19 100 0.00123246
6 15 19 100 0.125
12 15 19 100 0.125027
13 15 19 100 0.0029484
14 15 19 100 0.125027
15 15 19 100 0.250004
16 15 19 100 0.247021
19 15 19 100 0.123739
0 16 19 100 0.355512
6 16 19 100 0.125
8 16 19 100 4.9914e-06
12 16 19 100 0.125
14 16 19 100 3.98275e-06
15 16 19 100 0.250093
16 16 19 100 0.0119402
17 16 19 100 0.00633561
18 16 19 100 0.00110978
19 16 19 100 0.125
7 17 19 100 2.65344e-05
12 17 19 100 0.142857
15 17 19 100 0.285715
16 17 19 100 0.142949
18 17 19 100 4.42855e-06
19 17 19 100 0.428448
12 18 19 100 0.142857
15 18 19 100 0.142857
16 18 19 100 0.14682
19 18 19 100 0.567465
0 19 19 100 0.199048
8 19 19 100 2.2868e-06
11 19 19 100 0.000659841
12 19 19 100 1.12935e-05
13 19 19 100 0.173003
15 19 19 100 0.199998
16 19 19 100 0.2
17 19 19 100 0.0272767
19 19 19 100 0.2
8 20 19 100 1.26961e-05
12 20 19 100 8.63757e-06
15 20 19 100 0.212368
16 20 19 100 0.199991
17 20 19 100 1.30376e-05
19 20 19 100 0.587607
16 21 19 100 0.25
19 21 19 100 0.75
0 22 19 100 0.333127
5 22 19 100 7.93658e-06
6 22 19 100 0.000148545
12 22 19 100 2.34427e-05
13 22 19 100 4.10872e-06
17 22 19 100 0.333333
18 22 19 100 2.24043e-05
19 22 19 100 0.333333
17 23 19 100 0.333333
19 23 19 100 0.666667
12 24 19 100 2.30585e-05
17 24 19 100 0.333333
19 24 19 100 0.666644
19 25 19 100 1
13 1 20 100 0.000276791
20 1 20 100 0.999723
0 2 20 100 0.0054496
2 2 20 100 0.0136574
4 2 20 100 0.00541683
11 2 20 100 0.000108812
18 2 20 100 0.142857
20 2 20 100 0.83251
0 3 20 100 0.13907
5 3 20 100 0.0195319
6 3 20 100 0.142857
9 3 20 100 0.00378637
18 3 20 100 0.142857
20 3 20 100 0.551897
0 4 20 100 0.079106
1 4 20 100 0.00055809
2 4 20 100 0.00532522
3 4 20 100 0.0414362
5 4 20 100 0.016446
6 4 20 100 0.129535
9 4 20 100 4.52566e-05
10 4 20 100 0.137644
12 4 20 100 0.157301
18 4 20 100 0.142855
20 4 20 100 0.289748
0 5 20 100 0.269523
2 5 20 100 0.00886365
4 5 20 100 0.000990157
6 5 20 100 0.00151637
7 5 20 100 0.141867
10 5 20 100 0.142857
12 5 20 100 0.142857
18 5 20 100 0.142857
20 5 20 100 0.148668
0 6 20 100 0.133383
2 6 20 100 0.00847695
3 6 20 100 0.13585
5 6 20 100 0.0143232
6 6 20 100 0.135212
7 6 20 100 0.14313
8 6 20 100 0.0001385
10 6 20 100 0.142876
12 6 20 100 0.286258
14 6 20 100 0.000308868
15 6 20 100 1.4828e-05
17 6 20 100 2.05314e-05
19 6 20 100 6.80712e-06
0 7 20 100 0.135755
4 7 20 100 0.0010163
5 7 20 100 0.141408
6 7 20 100 0.285714
7 7 20 100 0.142857
8 7 20 100 3.71578e-05
10 7 20 100 0.14329
12 7 20 100 0.142857
13 7 20 100 0.00696516
14 7 20 100 0.000100054
3 8 20 100 0.147394
4 8 20 100 0.00368712
5 8 20 100 0.0295108
6 8 20 100 0.228875
7 8 20 100 0.142857
10 8 20 100 0.161961
12 8 20 100 0.142857
15 8 20 100 0.142857
3 9 20 100 0.142857
4 9 20 100 0.142823
6 9 20 100 0.285634
8 9 20 100 0.13133
9 9 20 100 0.154438
10 9 20 100 2.54715e-05
15 9 20 100 0.142857
19 9 20 100 3.43084e-05
0 10 20 100 0.269727
3 10 20 100 0.142857
4 10 20 100 0.143701
6 10 20 100 0.285014
9 10 20 100 0.139808
10 10 20 100 0.00302438
14 10 20 100 2.65686e-05
17 10 20 100 0.0158171
19 10 20 100 2.45805e-05
0 11 20 100 0.141539
4 11 20 100 0.285714
7 11 20 100 0.00131546
8 11 20 100 0.142857
12 11 20 100 2.68481e-06
14 11 20 100 0.142857
19 11 20 100 0.142857
20 11 20 100 0.142857
0 12 20 100 0.142828
3 12 20 100 0.142857
4 12 20 100 0.142857
8 12 20 100 0.142857
13 12 20 100 2.74829e-05
14 12 20 100 0.142857
19 12 20 100 0.142857
20 12 20 100 0.142857
2 13 20 100 0.000167435
3 13 20 100 0.166549
4 13 20 100 0.329931
6 13 20 100 0.000115247
7 13 20 100 8.47275e-06
9 13 20 100 0.154824
10 13 20 100 0.0104457
12 13 20 100 0.00460096
15 13 20 100 0.166667
17 13 20 100 2.335e-05
18 13 20 100 2.4401e-06
19 13 20 100 0.166666
0 14 20 100 0.30433
1 14 20 100 6.72643e-06
3 14 20 100 0.166661
4 14 20 100 0.166629
9 14 20 100 0.166667
10 14 20 100 8.25742e-05
15 14 20 100 0.0020958
16 14 20 100 0.0268614
19 14 20 100 0.166667
0 15 20 100 0.166667
9 15 20 100 0.16671
10 15 20 100 0.156812
14 15 20 100 0.0143702
15 15 20 100 0.152253
16 15 20 100 0.00985477
19 15 20 100 0.166667
20 15 20 100 0.166667
9 16 20 100 0.166667
10 16 20 100 0.166669
15 16 20 100 0.166667
19 16 20 100 0.333331
20 16 20 100 0.166667
9 17 20 100 0.166667
10 17 20 100 0.166662
12 17 20 100 9.4776e-06
15 17 20 100 2.52689e-06
16 17 20 100 5.36389e-06
19 17 20 100 0.499987
20 17 20 100 0.166667
0 18 20 100 0.166482
7 18 20 100 0.000129961
9 18 20 100 0.118061
12 18 20 100 5.43736e-05
16 18 20 100 0.0180802
17 18 20 100 0.030525
19 18 20 100 0.5
20 18 20 100 0.166667
1 19 20 100 0.333334
4 19 20 100 0.000183669
10 19 20 100 0.333332
19 19 20 100 0.33315
1 20 20 100 0.5
19 20 20 100 0.5
1 21 20 100 0.5
19 21 20 100 0.5
1 22 20 100 1
1 23 20 100 1
1 24 20 100 1
1 25 20 100 1
0 26 20 100 1.11188e-05
19 26 20 100 0.999989
0 27 20 100 1
19 28 20 100 1
19 29 20 100 1
19 30 20 100 1
19 31 20 100 1
19 32 20 100 1
19 33 20 100 1
1 1 21 100 0.600001
3 1 21 100 0.00858515
4 1 21 100 0.2
8 1 21 100 0.191413
0 2 21 100 0.00220476
1 2 21 100 0.197792
2 2 21 100 0.2
3 2 21 100 0.0135491
4 2 21 100 0.386451
7 2 21 100 4.42712e-05
8 2 21 100 0.000324119
10 2 21 100 3.08112e-06
13 2 21 100 0.199632
0 3 21 100 0.199801
1 3 21 100 0.2
2 3 21 100 0.0407652
4 3 21 100 0.359434
7 3 21 100 2.46875e-06
13 3 21 100 0.199998
0 4 21 100 0.00187907
1 4 21 100 0.2
4 4 21 100 0.391983
6 4 21 100 9.84899e-05
7 4 21 100 5.84815e-05
8 4 21 100 0.00801726
12 4 21 100 1.19733e-05
13 4 21 100 0.197922
18 4 21 100 4.17652e-05
20 4 21 100 0.199988
1 5 21 100 0.2
4 5 21 100 0.4
15 5 21 100 0.2
20 5 21 100 0.2
0 6 21 100 0.380938
1 6 21 100 0.00011038
3 6 21 100 0.00011038
4 6 21 100 0.2
5 6 21 100 0.2
7 6 21 100 0.0186687
12 6 21 100 0.000110978
15 6 21 100 0.2
17 6 21 100 5.24119e-05
18 6 21 100 8.9665e-06
0 7 21 100 0.521836
1 7 21 100 0.0372478
5 7 21 100 0.0405509
10 7 21 100 0.19999
12 7 21 100 8.45181e-05
16 7 21 100 0.000180415
17 7 21 100 0.000102912
19 7 21 100 6.78839e-06
20 7 21 100 0.200001
2 8 21 100 0.2
6 8 21 100 0.2
10 8 21 100 0.199997
13 8 21 100 0.2
16 8 21 100 2.60244e-06
20 8 21 100 0.2
0 9 21 100 0.198607
2 9 21 100 0.200001
5 9 21 100 0.00139231
6 9 21 100 0.200001
10 9 21 100 0.199998
13 9 21 100 0.200001
2 10 21 100 0.200051
7 10 21 100 0.199949
10 10 21 100 0.199999
13 10 21 100 0.2
20 10 21 100 0.2
2 11 21 100 0.2
8 11 21 100 0.2
10 11 21 100 0.199975
13 11 21 100 0.184969
16 11 21 100 2.46571e-05
18 11 21 100 0.0150305
20 11 21 100 0.2
0 12 21 100 0.377137
1 12 21 100 4.52421e-05
2 12 21 100 0.2
3 12 21 100 4.52421e-05
5 12 21 100 1.34249e-05
6 12 21 100 0.00338986
7 12 21 100 0.000115834
8 12 21 100 0.200078
12 12 21 100 0.0186687
13 12 21 100 0.0227765
16 12 21 100 0.000149497
17 12 21 100 0.000304197
18 12 21 100 5.20413e-05
19 12 21 100 0.177224
0 13 21 100 0.200002
3 13 21 100 0.077987
7 13 21 100 0.199912
8 13 21 100 0.200082
9 13 21 100 8.77902e-05
12 13 21 100 2.17913e-06
13 13 21 100 0.2
14 13 21 100 0.00142697
16 13 21 100 0.00115397
20 13 21 100 0.119346
2 14 21 100 0.0348354
4 14 21 100 0.2
7 14 21 100 0.199981
8 14 21 100 0.199816
9 14 21 100 0.165183
13 14 21 100 0.2
14 14 21 100 0.000184447
0 15 21 100 0.0139148
4 15 21 100 0.2
7 15 21 100 0.2
9 15 21 100 0.200055
12 15 21 100 0.2
15 15 21 100 0.18603
0 16 21 100 0.199798
4 16 21 100 0.2
7 16 21 100 0.19999
10 16 21 100 0.000154104
12 16 21 100 0.200004
15 16 21 100 1.08047e-05
16 16 21 100 0.00112562
21 16 21 100 0.198917
9 17 21 100 0.25
12 17 21 100 0.25
14 17 21 100 0.0617301
15 17 21 100 0.188269
21 17 21 100 0.25
4 18 21 100 0.25
12 18 21 100 0.25
16 18 21 100 0.25
21 18 21 100 0.249999
0 19 21 100 0.263962
4 19 21 100 0.249708
6 19 21 100 1.68287e-05
8 19 21 100 2.08653e-05
11 19 21 100 8.48447e-05
16 19 21 100 0.236203
19 19 21 100 3.37031e-06
21 19 21 100 0.250001
0 20 21 100 0.25
4 20 21 100 0.25
21 20 21 100 0.5
0 21 21 100 0.190065
4 21 21 100 0.25
5 21 21 100 9.42445e-05
13 21 21 100 2.87184e-05
16 21 21 100 0.0413744
17 21 21 100 0.0184369
21 21 21 100 0.5
21 22 21 100 1
21 23 21 100 1
21 24 21 100 1
21 25 21 100 1
21 26 21 100 1
1 1 22 100 0.272727
2 1 22 100 0.00539467
3 1 22 100 0.175731
8 1 22 100 0.181818
19 1 22 100 0.000692222
22 1 22 100 0.363636
0 2 22 100 0.181371
1 2 22 100 0.0909331
2 2 22 100 0.0915069
3 2 22 100 0.0909092
7 2 22 100 0.000329116
8 2 22 100 0.181554
10 2 22 100 0.000213222
21 2 22 100 4.06502e-05
22 2 22 100 0.363144
0 3 22 100 0.0908878
1 3 22 100 0.181818
2 3 22 100 0.0742978
3 3 22 100 0.0165161
4 3 22 100 0.0912679
6 3 22 100 0.00245773
7 3 22 100 0.000960751
8 3 22 100 0.0909092
9 3 22 100 0.18059
14 3 22 100 2.45676e-05
22 3 22 100 0.27027
0 4 22 100 0.090838
1 4 22 100 0.179998
2 4 22 100 0.00181152
3 4 22 100 0.0909143
4 4 22 100 0.0909092
5 4 22 100 0.0909266
8 4 22 100 0.0909092
9 4 22 100 0.0909092
10 4 22 100 0.0909092
14 4 22 100 5.36692e-05
17 4 22 100 3.63408e-06
21 4 22 100 0.0909084
22 4 22 100 0.0909092
0 5 22 100 0.090909
1 5 22 100 0.0909091
2 5 22 100 0.00266035
3 5 22 100 0.179158
4 5 22 100 0.0915182
5 5 22 100 0.0900583
6 5 22 100 0.0917805
9 5 22 100 0.0908884
10 5 22 100 0.181209
22 5 22 100 0.090909
0 6 22 100 0.0800076
1 6 22 100 0.0902926
2 6 22 100 1.01455e-05
3 6 22 100 0.0909091
4 6 22 100 0.0909091
6 6 22 100 0.000360931
7 6 22 100 0.171159
9 6 22 100 0.0880168
10 6 22 100 0.199789
11 6 22 100 0.00289234
13 6 22 100 0.00370637
18 6 22 100 6.34569e-06
21 6 22 100 0.0909091
22 6 22 100 0.0910315
0 7 22 100 0.0825205
1 7 22 100 0.0909091
3 7 22 100 0.0909091
4 7 22 100 0.090909
5 7 22 100 0.0909117
6 7 22 100 0.0798226
7 7 22 100 0.181137
8 7 22 100 0.00928333
9 7 22 100 0.0909775
10 7 22 100 0.0876863
11 7 22 100 0.00282631
12 7 22 100 0.0101121
20 7 22 100 0.000872607
21 7 22 100 0.0909091
22 7 22 100 0.000213541
0 8 22 100 0.0906543
1 8 22 100 0.0909091
2 8 22 100 1.38826e-06
3 8 22 100 2.7759e-06
5 8 22 100 0.0912083
7 8 22 100 0.195308
9 8 22 100 0.0909056
10 8 22 100 0.0748613
11 8 22 100 0.00908063
12 8 22 100 0.0960903
13 8 22 100 0.0861143
19 8 22 100 4.92842e-06
21 8 22 100 0.0909091
22 8 22 100 0.0839502
4 9 22 100 0.0909016
5 9 22 100 0.0909091
7 9 22 100 0.0909091
9 9 22 100 0.0909091
10 9 22 100 0.0909091
12 9 22 100 0.0909166
13 9 22 100 0.0909091
14 9 22 100 0.0909037
16 9 22 100 0.0909144
21 9 22 100 0.090909
22 9 22 100 0.0909091
0 10 22 100 0.0909091
4 10 22 100 0.0909019
5 10 22 100 0.0909092
7 10 22 100 0.0631406
8 10 22 100 0.0277686
9 10 22 100 0.0909092
10 10 22 100 0.0909092
11 10 22 100 0.0909092
12 10 22 100 0.0909138
14 10 22 100 0.0106583
16 10 22 100 0.181818
18 10 22 100 0.0802104
20 10 22 100 1.68498e-06
21 10 22 100 4.04738e-05
0 11 22 100 0.0908557
3 11 22 100 0.000134264
4 11 22 100 0.0909092
5 11 22 100 0.0877251
7 11 22 100 1.68717e-05
8 11 22 100 0.00219056
9 11 22 100 0.0917177
11 11 22 100 0.181519
12 11 22 100 0.0909092
13 11 22 100 2.6457e-05
14 11 22 100 0.0908824
16 11 22 100 0.090909
18 11 22 100 0.0912779
21 11 22 100 1.7093e-05
22 11 22 100 0.0909092
0 12 22 100 0.186542
4 12 22 100 0.0928532
9 12 22 100 8.22572e-06
11 12 22 100 0.0909092
12 12 22 100 0.2679
13 12 22 100 0.000264346
14 12 22 100 0.0887919
16 12 22 100 0.181818
17 12 22 100 4.12946e-06
18 12 22 100 3.10342e-05
22 12 22 100 0.0908782
0 13 22 100 0.181668
4 13 22 100 0.0909092
7 13 22 100 0.00161346
10 13 22 100 0.0132527
11 13 22 100 0.0909092
12 13 22 100 0.181771
13 13 22 100 0.0847764
14 13 22 100 0.0909841
15 13 22 100 0.0960099
16 13 22 100 0.00103198
18 13 22 100 0.166494
20 13 22 100 7.49607e-05
21 13 22 100 3.86282e-06
22 13 22 100 0.000501656
0 14 22 100 0.180744
5 14 22 100 0.000760086
6 14 22 100 0.000231666
7 14 22 100 1.08162e-06
11 14 22 100 0.0907854
12 14 22 100 0.181817
13 14 22 100 2.18946e-05
14 14 22 100 0.000103995
15 14 22 100 0.0909093
16 14 22 100 0.181793
18 14 22 100 0.0910861
19 14 22 100 0.000230443
21 14 22 100 0.0908368
22 14 22 100 0.0906788
0 15 22 100 0.399889
2 15 22 100 1.42213e-06
5 15 22 100 5.21158e-05
8 15 22 100 5.21158e-05
9 15 22 100 0.0779048
12 15 22 100 0.1
14 15 22 100 0.122095
15 15 22 100 0.1
16 15 22 100 0.1
18 15 22 100 4.27932e-06
19 15 22 100 0.0999999
0 16 22 100 0.189997
2 16 22 100 2.86226e-06
5 16 22 100 2.63003e-05
6 16 22 100 2.91614e-05
7 16 22 100 0.00994611
11 16 22 100 0.1
14 16 22 100 0.200021
15 16 22 100 0.1
16 16 22 100 0.2
21 16 22 100 0.0999775
22 16 22 100 0.1
0 17 22 100 0.311089
2 17 22 100 3.04949e-06
4 17 22 100 0.000122173
11 17 22 100 0.0815126
12 17 22 100 0.0993399
13 17 22 100 9.14956e-05
14 17 22 100 0.206873
15 17 22 100 0.000520137
16 17 22 100 0.0998781
17 17 22 100 0.00056896
18 17 22 100 0.0685209
19 17 22 100 0.0314795
22 17 22 100 0.1
0 18 22 100 0.187089
3 18 22 100 0.000241198
6 18 22 100 1.35555e-06
8 18 22 100 1.78538e-05
11 18 22 100 0.000297272
12 18 22 100 0.0808207
13 18 22 100 0.00229847
14 18 22 100 0.000231391
15 18 22 100 0.0116206
16 18 22 100 0.200005
17 18 22 100 0.0168872
18 18 22 100 0.105385
19 18 22 100 0.194335
20 18 22 100 0.00099229
21 18 22 100 0.0997684
22 18 22 100 0.10001
0 19 22 100 0.000329916
1 19 22 100 3.9748e-06
3 19 22 100 0.00029199
4 19 22 100 0.000187868
12 19 22 100 0.0970792
14 19 22 100 0.00232016
16 19 22 100 0.1
17 19 22 100 0.118287
19 19 22 100 0.2
21 19 22 100 0.1
22 19 22 100 0.3815
0 20 22 100 0.111111
10 20 22 100 5.75559e-06
12 20 22 100 0.0815421
16 20 22 100 0.111111
18 20 22 100 0.029569
19 20 22 100 0.222222
20 20 22 100 4.49304e-05
21 20 22 100 0.148503
22 20 22 100 0.29589
16 21 22 100 0.125
19 21 22 100 0.375
20 21 22 100 4.2739e-05
21 21 22 100 0.125
22 21 22 100 0.374957
0 22 22 100 0.163503
10 22 22 100 3.66687e-06
17 22 22 100 0.00310899
19 22 22 100 0.166667
20 22 22 100 5.05623e-05
21 22 22 100 0.166667
22 22 22 100 0.5
19 23 22 100 0.25
22 23 22 100 0.75
0 24 22 100 0.333333
19 24 22 100 0.333333
22 24 22 100 0.333333
22 25 22 100 1
22 26 22 100 1
22 27 22 100 1
1 1 23 100 0.111111
16 1 23 100 0.666666
23 1 23 100 0.222223
0 2 23 100 0.202046
1 2 23 100 0.11745
5 2 23 100 0.00633858
7 2 23 100 9.98068e-06
9 2 23 100 0.00696497
10 2 23 100 0.00108439
15 2 23 100 3.06986e-05
16 2 23 100 0.443818
22 2 23 100 3.51135e-05
23 2 23 100 0.222222
0 3 23 100 0.1071
1 3 23 100 0.00370841
2 3 23 100 0.12096
3 3 23 100 0.0991888
4 3 23 100 6.14907e-05
6 3 23 100 0.0898927
9 3 23 100 0.00178456
12 3 23 100 0.000139255
14 3 23 100 0.000311352
15 3 23 100 0.108735
16 3 23 100 0.247607
17 3 23 100 0.00743839
19 3 23 100 3.83254e-06
20 3 23 100 0.111111
23 3 23 100 0.101958
0 4 23 100 0.0416242
1 4 23 100 0.101162
2 4 23 100 0.112362
3 4 23 100 0.171957
4 4 23 100 0.00713227
6 4 23 100 0.000747768
7 4 23 100 0.00268934
8 4 23 100 0.00968781
10 4 23 100 0.000298503
11 4 23 100 0.0176141
12 4 23 100 0.0934757
13 4 23 100 3.10593e-06
14 4 23 100 0.000261897
16 4 23 100 0.221922
17 4 23 100 0.107674
20 4 23 100 0.111388
0 5 23 100 0.111031
2 5 23 100 0.11113
3 5 23 100 0.111111
7 5 23 100 0.111111
8 5 23 100 0.111111
12 5 23 100 0.00245792
13 5 23 100 0.111111
16 5 23 100 0.108653
17 5 23 100 0.111111
18 5 23 100 6.08287e-05
20 5 23 100 0.111111
0 6 23 100 0.221514
1 6 23 100 0.00024448
2 6 23 100 0.111111
3 6 23 100 0.111111
5 6 23 100 0.00024448
7 6 23 100 0.222222
8 6 23 100 0.111111
13 6 23 100 0.111111
14 6 23 100 0.000219436
20 6 23 100 0.106686
22 6 23 100 0.00442518
0 7 23 100 4.08821e-06
2 7 23 100 2.77699e-05
3 7 23 100 0.102779
4 7 23 100 0.00833217
5 7 23 100 0.00643095
7 7 23 100 0.326348
8 7 23 100 0.111065
9 7 23 100 3.27885e-05
11 7 23 100 0.111111
12 7 23 100 0.000534242
13 7 23 100 0.111111
19 7 23 100 2.19907e-06
20 7 23 100 0.111111
22 7 23 100 0.111111
0 8 23 100 0.110673
5 8 23 100 0.000114987
6 8 23 100 1.12116e-05
7 8 23 100 0.222242
8 8 23 100 0.111111
12 8 23 100 0.110751
13 8 23 100 0.111168
14 8 23 100 0.000269386
15 8 23 100 0.000329076
21 8 23 100 0.22221
22 8 23 100 0.111111
23 8 23 100 9.01267e-06
0 9 23 100 0.104773
1 9 23 100 0.108197
4 9 23 100 0.111102
7 9 23 100 0.222222
8 9 23 100 0.111111
9 9 23 100 4.11411e-05
10 9 23 100 9.2312e-06
13 9 23 100 0.0062963
17 9 23 100 0.00291423
21 9 23 100 0.222222
22 9 23 100 0.111111
0 10 23 100 0.110335
1 10 23 100 0.111144
4 10 23 100 0.111111
5 10 23 100 2.4474e-06
7 10 23 100 0.111111
8 10 23 100 0.00465447
10 10 23 100 0.1072
15 10 23 100 0.111111
21 10 23 100 0.22222
22 10 23 100 0.111111
0 11 23 100 0.108267
1 11 23 100 0.111113
4 11 23 100 0.111106
10 11 23 100 0.111111
13 11 23 100 0.111111
15 11 23 100 0.111111
17 11 23 100 0.113958
18 11 23 100 0.000224175
21 11 23 100 0.110887
22 11 23 100 0.111111
0 12 23 100 0.0732438
1 12 23 100 0.111111
3 12 23 100 7.13026e-05
4 12 23 100 7.58167e-06
5 12 23 100 0.0364986
6 12 23 100 1.29823e-06
10 12 23 100 0.221516
13 12 23 100 0.111346
14 12 23 100 0.00112336
15 12 23 100 0.000208229
16 12 23 100 2.42494e-05
17 12 23 100 0.221906
19 12 23 100 4.66437e-06
21 12 23 100 5.49817e-06
22 12 23 100 0.222216
23 12 23 100 0.000716003
0 13 23 100 9.42194e-06
1 13 23 100 0.111111
7 13 23 100 0.111111
9 13 23 100 2.6125e-05
10 13 23 100 0.194426
11 13 23 100 0.0274144
13 13 23 100 0.111111
14 13 23 100 7.26879e-06
17 13 23 100 0.217898
19 13 23 100 0.00432405
22 13 23 100 0.11145
23 13 23 100 0.111111
0 14 23 100 0.18814
1 14 23 100 0.121814
5 14 23 100 0.0107029
7 14 23 100 0.222222
9 14 23 100 0.0107029
10 14 23 100 0.00183103
11 14 23 100 0.111111
12 14 23 100 0.000156742
13 14 23 100 0.110623
17 14 23 100 0.111111
21 14 23 100 0.000474249
22 14 23 100 0.111111
0 15 23 100 0.296501
2 15 23 100 6.862e-06
3 15 23 100 0.00114281
4 15 23 100 0.000200296
7 15 23 100 0.222222
10 15 23 100 0.00139188
11 15 23 100 0.11111
15 15 23 100 0.109719
16 15 23 100 0.00456413
18 15 23 100 0.0309197
20 15 23 100 0.222222
0 16 23 100 1.43551e-06
2 16 23 100 1.15961e-05
6 16 23 100 0.111123
8 16 23 100 0.111111
11 16 23 100 0.111111
15 16 23 100 0.111111
18 16 23 100 0.111111
19 16 23 100 0.111098
20 16 23 100 0.222222
22 16 23 100 0.111099
0 17 23 100 0.0872227
2 17 23 100 0.111111
3 17 23 100 1.31274e-05
9 17 23 100 0.000105241
10 17 23 100 3.27067e-05
11 17 23 100 0.107066
14 17 23 100 0.00446944
16 17 23 100 0.110428
18 17 23 100 0.13538
19 17 23 100 0.219707
20 17 23 100 0.111684
22 17 23 100 0.00224238
23 17 23 100 0.110539
0 18 23 100 0.111111
15 18 23 100 0.111111
16 18 23 100 0.111111
18 18 23 100 0.111111
19 18 23 100 0.111111
20 18 23 100 0.111111
21 18 23 100 0.111111
23 18 23 100 0.222222
0 19 23 100 0.308801
2 19 23 100 0.111108
11 19 23 100 0.000154098
15 19 23 100 0.111111
16 19 23 100 0.111111
17 19 23 100 0.00366188
21 19 23 100 0.111111
22 19 23 100 0.0207184
23 19 23 100 0.222222
0 20 23 100 0.125
2 20 23 100 0.125
15 20 23 100 0.125
19 20 23 100 0.125
20 20 23 100 0.125
23 20 23 100 0.375
19 21 23 100 0.333333
20 21 23 100 0.166667
21 21 23 100 0.166667
23 21 23 100 0.333333
16 22 23 100 0.166667
19 22 23 100 0.333333
21 22 23 100 0.166667
23 22 23 100 0.333333
0 23 23 100 0.166232
15 23 23 100 0.000424812
16 23 23 100 0.166667
19 23 23 100 0.166677
20 23 23 100 0.166667
23 23 23 100 0.333333
18 24 23 100 0.00829368
19 24 23 100 0.32504
21 24 23 100 0.666667
15 25 23 100 0.333322
18 25 23 100 1.17267e-05
21 25 23 100 0.666667
0 26 23 100 0.333329
10 26 23 100 3.80164e-06
21 26 23 100 0.666667
15 27 23 100 0.333333
21 27 23 100 0.666667
0 28 23 100 0.332809
15 28 23 100 0.333846
19 28 23 100 1.16929e-05
21 28 23 100 0.333333
5 29 23 100 5.4895e-05
15 29 23 100 0.333334
22 29 23 100 0.333278
23 29 23 100 0.333333
0 30 23 100 0.333333
23 30 23 100 0.666667
23 31 23 100 1
23 32 23 100 1
23 33 23 100 1
23 34 23 100 1
23 35 23 100 1
0 1 24 100 9.69522e-07
1 1 24 100 0.537456
5 1 24 100 0.153847
6 1 24 100 0.0769233
10 1 24 100 0.076923
11 1 24 100 0.00100588
24 1 24 100 0.153844
0 2 24 100 0.220111
1 2 24 100 0.231076
2 2 24 100 7.73573e-05
3 2 24 100 0.165438
4 2 24 100 3.65585e-06
5 2 24 100 0.153849
6 2 24 100 0.0753817
10 2 24 100 2.06971e-05
18 2 24 100 0.0770428
19 2 24 100 1.58291e-05
20 2 24 100 4.27241e-05
21 2 24 100 1.7776e-05
24 2 24 100 0.0769232
0 3 24 100 0.0693469
1 3 24 100 0.153846
2 3 24 100 0.0777324
3 3 24 100 0.153846
4 3 24 100 0.00756778
5 3 24 100 0.154143
6 3 24 100 0.0769232
7 3 24 100 0.0766234
10 3 24 100 0.0760932
13 3 24 100 1.96194e-05
17 3 24 100 2.76063e-06
18 3 24 100 0.0769232
20 3 24 100 9.23563e-06
24 3 24 100 0.0769232
0 4 24 100 0.170177
1 4 24 100 0.0769231
2 4 24 100 0.0769231
3 4 24 100 7.30416e-05
4 4 24 100 0.0687962
5 4 24 100 0.165367
6 4 24 100 0.065402
7 4 24 100 0.0763699
8 4 24 100 0.000638647
9 4 24 100 0.0769231
11 4 24 100 2.69021e-06
12 4 24 100 0.000553263
16 4 24 100 0.000129334
19 4 24 100 0.144799
23 4 24 100 0.0769231
0 5 24 100 0.221272
2 5 24 100 0.0861863
3 5 24 100 0.0769233
4 5 24 100 9.6042e-06
5 5 24 100 1.50485e-05
6 5 24 100 0.0769083
8 5 24 100 0.153837
9 5 24 100 0.0771399
10 5 24 100 0.0797839
12 5 24 100 9.06871e-06
15 5 24 100 0.0768906
16 5 24 100 0.00654086
19 5 24 100 0.00286077
20 5 24 100 0.0646679
22 5 24 100 3.07086e-05
23 5 24 100 0.0769241
0 6 24 100 0.0773367
2 6 24 100 0.148938
3 6 24 100 0.230769
4 6 24 100 0.0806675
6 6 24 100 0.0764881
8 6 24 100 0.0769231
9 6 24 100 0.0769259
10 6 24 100 0.0769231
15 6 24 100 1.30903e-05
17 6 24 100 2.722e-06
19 6 24 100 0.076923
20 6 24 100 0.0769138
21 6 24 100 2.722e-06
23 6 24 100 0.00117277
0 7 24 100 0.076923
2 7 24 100 0.0757817
3 7 24 100 0.230769
4 7 24 100 0.0769231
6 7 24 100 0.0769231
7 7 24 100 0.00113998
8 7 24 100 0.153846
9 7 24 100 0.153814
10 7 24 100 0.0769231
11 7 24 100 3.16165e-05
20 7 24 100 1.439e-06
23 7 24 100 0.076923
0 8 24 100 0.0707882
3 8 24 100 0.153846
4 8 24 100 0.0769242
5 8 24 100 0.0769231
7 8 24 100 0.0168983
8 8 24 100 0.0769057
9 8 24 100 0.229939
10 8 24 100 0.00167186
11 8 24 100 0.0608029
12 8 24 100 2.13662e-05
13 8 24 100 0.00828784
14 8 24 100 0.0769231
16 8 24 100 4.73868e-05
18 8 24 100 0.00167186
22 8 24 100 0.0714263
23 8 24 100 0.0769231
0 9 24 100 0.0753403
3 9 24 100 0.0769027
4 9 24 100 0.0769417
5 9 24 100 0.0769231
8 9 24 100 0.0608809
9 9 24 100 0.230771
10 9 24 100 1.26508e-05
11 9 24 100 0.0769231
12 9 24 100 0.0163219
14 9 24 100 0.0769231
15 9 24 100 0.0769231
17 9 24 100 1.44483e-05
18 9 24 100 1.26508e-05
20 9 24 100 0.00128568
21 9 24 100 0.000225336
22 9 24 100 0.0766751
23 9 24 100 0.0769231
0 10 24 100 0.0921329
4 10 24 100 1.25761e-06
5 10 24 100 0.230777
7 10 24 100 6.66596e-06
8 10 24 100 5.39254e-05
9 10 24 100 0.153846
11 10 24 100 0.0768692
12 10 24 100 0.00027678
15 10 24 100 0.0775966
16 10 24 100 0.0769231
17 10 24 100 0.131114
18 10 24 100 0.00662952
19 10 24 100 6.44207e-06
20 10 24 100 3.28431e-06
23 10 24 100 0.153762
0 11 24 100 0.153846
1 11 24 100 3.05586e-05
3 11 24 100 4.8892e-05
4 11 24 100 0.0769231
6 11 24 100 0.168238
7 11 24 100 0.0624515
9 11 24 100 0.0591534
10 11 24 100 0.0740022
11 11 24 100 0.0177689
15 11 24 100 0.0785602
16 11 24 100 0.0769231
17 11 24 100 0.0773358
18 11 24 100 0.0765113
19 11 24 100 1.22544e-06
21 11 24 100 0.0012836
23 11 24 100 0.0769219
0 12 24 100 0.154829
1 12 24 100 4.10523e-06
4 12 24 100 0.0769231
6 12 24 100 0.153842
7 12 24 100 0.0769231
9 12 24 100 2.91562e-06
12 12 24 100 0.000676002
13 12 24 100 0.0767977
17 12 24 100 0.229498
18 12 24 100 0.0769231
19 12 24 100 1.20517e-06
21 12 24 100 8.56239e-07
22 12 24 100 0.000282084
23 12 24 100 0.153297
0 13 24 100 0.153372
3 13 24 100 9.42374e-07
4 13 24 100 0.0769232
5 13 24 100 2.83596e-06
6 13 24 100 0.153846
7 13 24 100 0.076926
10 13 24 100 0.00144613
12 13 24 100 0.00825102
15 13 24 100 0.028779
17 13 24 100 0.123304
18 13 24 100 0.066213
20 13 24 100 0.0769232
21 13 24 100 0.0769231
23 13 24 100 0.080166
24 13 24 100 0.0769231
0 14 24 100 0.147031
2 14 24 100 9.58695e-06
3 14 24 100 0.000180755
4 14 24 100 2.83742e-05
6 14 24 100 0.0674322
8 14 24 100 3.98976e-05
9 14 24 100 0.00990226
10 14 24 100 0.0715646
12 14 24 100 0.0769231
14 14 24 100 0.00630523
16 14 24 100 0.0769339
17 14 24 100 0.0769232
18 14 24 100 0.0769621
19 14 24 100 0.00673379
20 14 24 100 0.0769256
21 14 24 100 0.0753351
23 14 24 100 0.153846
24 14 24 100 0.0769232
0 15 24 100 0.0769231
2 15 24 100 1.00528e-06
4 15 24 100 4.83723e-06
6 15 24 100 0.0195592
7 15 24 100 0.0769231
11 15 24 100 0.0573648
12 15 24 100 0.0769231
15 15 24 100 0.0769231
16 15 24 100 8.76698e-06
17 15 24 100 0.153845
19 15 24 100 0.0769095
20 15 24 100 0.0769231
21 15 24 100 0.0769231
23 15 24 100 0.153846
24 15 24 100 0.0769221
0 16 24 100 0.153841
3 16 24 100 4.91913e-06
12 16 24 100 0.153846
15 16 24 100 0.0769231
16 16 24 100 0.000431366
17 16 24 100 0.0769231
19 16 24 100 0.0769247
20 16 24 100 0.0769231
21 16 24 100 0.153415
23 16 24 100 0.153845
24 16 24 100 0.0769225
0 17 24 100 0.230234
6 17 24 100 1.85392e-05
8 17 24 100 1.02187e-05
9 17 24 100 2.8421e-05
10 17 24 100 8.59927e-07
11 17 24 100 1.02187e-05
13 17 24 100 0.0769239
14 17 24 100 0.0769231
15 17 24 100 0.0770285
17 17 24 100 2.17524e-05
18 17 24 100 0.076931
19 17 24 100 0.0769231
20 17 24 100 0.0772324
21 17 24 100 0.153868
23 17 24 100 0.0769216
24 17 24 100 0.0769246
0 18 24 100 0.0908342
9 18 24 100 8.86354e-06
12 18 24 100 0.0909092
14 18 24 100 0.0909158
15 18 24 100 0.0909092
16 18 24 100 6.64558e-06
17 18 24 100 0.0909092
18 18 24 100 0.090924
19 18 24 100 0.0868174
21 18 24 100 0.094986
22 18 24 100 0.0909088
23 18 24 100 7.47673e-05
24 18 24 100 0.181796
0 19 24 100 0.181735
12 19 24 100 0.09087
14 19 24 100 0.0906836
15 19 24 100 0.0909092
16 19 24 100 0.000829028
17 19 24 100 0.0912161
18 19 24 100 0.181818
20 19 24 100 0.0901191
21 19 24 100 1.00654e-06
24 19 24 100 0.181818
0 20 24 100 0.0614567
2 20 24 100 2.45946e-06
11 20 24 100 0.000398588
14 20 24 100 0.0247272
15 20 24 100 0.0907939
16 20 24 100 0.0915469
17 20 24 100 0.156694
18 20 24 100 0.0909266
19 20 24 100 0.0909467
20 20 24 100 0.000371678
22 20 24 100 0.210319
24 20 24 100 0.181817
0 21 24 100 3.07443e-06
2 21 24 100 2.61218e-06
12 21 24 100 8.03587e-06
13 21 24 100 3.38471e-05
15 21 24 100 0.0999987
16 21 24 100 0.00155883
17 21 24 100 0.0999946
18 21 24 100 0.0999995
19 21 24 100 0.00151421
20 21 24 100 0.1
21 21 24 100 0.0999661
22 21 24 100 0.200001
23 21 24 100 0.0969638
24 21 24 100 0.199956
0 22 24 100 0.109938
5 22 24 100 0.0980421
8 22 24 100 4.64311e-05
13 22 24 100 2.77429e-05
16 22 24 100 0.0130664
17 22 24 100 0.111112
18 22 24 100 0.111111
20 22 24 100 0.000958636
21 22 24 100 0.111252
22 22 24 100 0.111111
23 22 24 100 0.111111
24 22 24 100 0.222223
0 23 24 100 0.222205
4 23 24 100 1.53385e-05
5 23 24 100 0.11107
10 23 24 100 1.33546e-06
13 23 24 100 1.69922e-05
14 23 24 100 2.62969e-05
18 23 24 100 0.111111
19 23 24 100 0.222006
22 23 24 100 0.222438
23 23 24 100 0.111111
0 24 24 100 0.0229686
5 24 24 100 0.0890872
12 24 24 100 3.46106e-05
18 24 24 100 0.111111
19 24 24 100 0.221222
22 24 24 100 0.222222
23 24 24 100 0.111133
24 24 24 100 0.222221
0 25 24 100 0.28545
6 25 24 100 0.142857
9 25 24 100 5.97456e-05
17 25 24 100 0.00012589
20 25 24 100 0.142857
21 25 24 100 7.87133e-05
23 25 24 100 0.142857
24 25 24 100 0.285715
0 26 24 100 0.141418
6 26 24 100 0.142857
14 26 24 100 0.00140157
22 26 24 100 0.142857
23 26 24 100 0.142857
24 26 24 100 0.428609
0 27 24 100 0.248857
8 27 24 100 3.30416e-05
20 27 24 100 0.000883185
21 27 24 100 0.000154793
22 27 24 100 0.250001
24 27 24 100 0.500071
22 28 24 100 0.333333
24 28 24 100 0.666667
23 29 24 100 0.333332
24 29 24 100 0.666668
23 30 24 100 1
24 31 24 100 1
1 1 25 100 0.375
3 1 25 100 0.124996
6 1 25 100 0.375
12 1 25 100 0.125003
1 2 25 100 0.125002
3 2 25 100 0.125
4 2 25 100 0.125004
5 2 25 100 2.74757e-05
6 2 25 100 0.374967
7 2 25 100 0.125
12 2 25 100 0.125
0 3 25 100 0.249927
1 3 25 100 0.125
2 3 25 100 7.29387e-05
3 3 25 100 0.117459
4 3 25 100 0.132013
6 3 25 100 0.125
7 3 25 100 0.125528
12 3 25 100 0.125
0 4 25 100 0.091987
1 4 25 100 0.124966
2 4 25 100 0.00126718
3 4 25 100 2.99723e-06
4 4 25 100 0.125032
5 4 25 100 0.000249732
6 4 25 100 0.250003
7 4 25 100 0.33644
10 4 25 100 0.0373866
12 4 25 100 0.00955798
13 4 25 100 0.0229794
14 4 25 100 2.91522e-05
20 4 25 100 5.83232e-05
21 4 25 100 3.9486e-05
2 5 25 100 0.124998
3 5 25 100 0.113078
4 5 25 100 0.125
6 5 25 100 0.125
7 5 25 100 0.250119
10 5 25 100 0.0118039
12 5 25 100 0.125
24 5 25 100 0.125
0 6 25 100 0.000203387
2 6 25 100 0.125
4 6 25 100 0.125
5 6 25 100 0.124948
7 6 25 100 0.250755
9 6 25 100 2.1786e-06
10 6 25 100 0.124344
12 6 25 100 0.00134724
13 6 25 100 0.00027911
14 6 25 100 0.00192229
15 6 25 100 0.120936
17 6 25 100 0.000262644
24 6 25 100 0.125
0 7 25 100 0.124877
2 7 25 100 0.125056
8 7 25 100 0.0724404
9 7 25 100 0.125
10 7 25 100 0.052504
11 7 25 100 1.88989e-05
14 7 25 100 0.125
16 7 25 100 0.125
17 7 25 100 0.125
21 7 25 100 1.44297e-06
23 7 25 100 0.000100451
24 7 25 100 0.125002
0 8 25 100 0.1249
8 8 25 100 6.12275e-05
9 8 25 100 0.125
10 8 25 100 0.125
11 8 25 100 0.125038
14 8 25 100 0.125
16 8 25 100 0.125
17 8 25 100 0.125
24 8 25 100 0.125
0 9 25 100 0.234944
2 9 25 100 0.125
9 9 25 100 0.125056
10 9 25 100 0.13648
11 9 25 100 0.125
14 9 25 100 0.0034013
16 9 25 100 0.125
21 9 25 100 0.000100295
22 9 25 100 1.75783e-05
24 9 25 100 0.125
0 10 25 100 0.125
2 10 25 100 0.125
10 10 25 100 0.135582
11 10 25 100 0.125921
12 10 25 100 0.11285
14 10 25 100 0.0959666
16 10 25 100 0.125
19 10 25 100 0.00156811
20 10 25 100 0.0281123
24 10 25 100 0.125
0 11 25 100 0.0438601
1 11 25 100 1.2364e-05
2 11 25 100 0.117354
3 11 25 100 0.00770311
8 11 25 100 7.00116e-06
9 11 25 100 0.124987
11 11 25 100 0.125006
12 11 25 100 0.129491
13 11 25 100 0.000787185
14 11 25 100 0.0758252
18 11 25 100 0.124937
21 11 25 100 1.45931e-05
23 11 25 100 0.125
24 11 25 100 0.125015
3 12 25 100 4.98447e-05
9 12 25 100 0.0990423
11 12 25 100 0.0260187
12 12 25 100 0.248958
14 12 25 100 0.125
18 12 25 100 0.124889
22 12 25 100 0.00104204
23 12 25 100 0.125
24 12 25 100 0.25
4 13 25 100 3.37835e-06
11 13 25 100 3.42496e-05
12 13 25 100 0.285231
13 13 25 100 0.124957
14 13 25 100 0.125
16 13 25 100 7.64616e-06
17 13 25 100 0.0311748
23 13 25 100 0.249998
24 13 25 100 0.125
25 13 25 100 0.0585939
0 14 25 100 0.124986
12 14 25 100 0.250384
13 14 25 100 0.125
14 14 25 100 0.124999
18 14 25 100 0.124617
23 14 25 100 0.250015
0 15 25 100 0.318979
8 15 25 100 1.14074e-05
12 15 25 100 0.125061
13 15 25 100 0.125152
14 15 25 100 0.0498949
16 15 25 100 0.00215084
18 15 25 100 0.125
21 15 25 100 0.000812026
22 15 25 100 1.45187e-05
23 15 25 100 0.125
24 15 25 100 0.127924
0 16 25 100 0.248367
5 16 25 100 2.66107e-05
6 16 25 100 0.125025
7 16 25 100 1.05544e-05
10 16 25 100 4.0344e-05
12 16 25 100 0.124966
13 16 25 100 6.41218e-05
14 16 25 100 0.00111457
17 16 25 100 0.00235822
18 16 25 100 0.247615
20 16 25 100 0.000249733
21 16 25 100 0.000169074
23 16 25 100 1.94586e-06
24 16 25 100 0.124992
25 16 25 100 0.125
0 17 25 100 0.124948
5 17 25 100 2.07104e-06
6 17 25 100 0.125
9 17 25 100 3.40845e-05
13 17 25 100 0.125401
15 17 25 100 0.125
17 17 25 100 2.24387e-05
18 17 25 100 0.159436
21 17 25 100 1.4843e-05
22 17 25 100 2.60148e-06
23 17 25 100 0.21538
24 17 25 100 0.124759
6 18 25 100 0.125
13 18 25 100 0.125009
15 18 25 100 0.125
18 18 25 100 0.125
23 18 25 100 0.25
25 18 25 100 0.249991
0 19 25 100 3.71472e-06
6 19 25 100 0.142857
13 19 25 100 0.141105
17 19 25 100 0.142857
18 19 25 100 0.142857
19 19 25 100 0.00175252
22 19 25 100 2.07943e-05
23 19 25 100 0.142857
25 19 25 100 0.28569
0 20 25 100 1.92254e-06
15 20 25 100 0.166664
17 20 25 100 0.166667
18 20 25 100 0.00408755
21 20 25 100 0.162579
23 20 25 100 0.166667
25 20 25 100 0.333334
0 21 25 100 0.168978
11 21 25 100 8.63523e-05
21 21 25 100 0.127758
23 21 25 100 0.216007
25 21 25 100 0.48717
13 22 25 100 9.09017e-05
17 22 25 100 0.000229432
18 22 25 100 6.5283e-06
21 22 25 100 0.166449
22 22 25 100 0.00297104
23 22 25 100 0.330173
25 22 25 100 0.50008
13 23 25 100 2.99821e-05
18 23 25 100 0.000149312
22 23 25 100 0.00217158
23 23 25 100 0.25
25 23 25 100 0.747649
0 24 25 100 0.000464935
12 24 25 100 1.51118e-05
17 24 25 100 1.33721e-05
23 24 25 100 0.250058
25 24 25 100 0.749449
22 25 25 100 1.62273e-05
23 25 25 100 0.249984
25 25 25 100 0.75
25 26 25 100 1
25 27 25 100 1
1 1 26 100 0.5
2 1 26 100 0.25
26 1 26 100 0.25
0 2 26 100 0.249968
1 2 26 100 0.25
2 2 26 100 0.25
3 2 26 100 3.20075e-05
26 2 26 100 0.25
1 3 26 100 0.5
2 3 26 100 0.25
16 3 26 100 0.25
0 4 26 100 0.000416349
1 4 26 100 0.280054
2 4 26 100 0.468693
3 4 26 100 1.40109e-05
5 4 26 100 0.00082564
9 4 26 100 0.000138599
21 4 26 100 0.000348639
23 4 26 100 0.24947
24 4 26 100 3.94025e-05
2 5 26 100 0.499949
4 5 26 100 0.25
6 5 26 100 5.11029e-05
23 5 26 100 0.25
2 6 26 100 0.5
4 6 26 100 0.25
23 6 26 100 0.25
0 7 26 100 0.499214
5 7 26 100 3.39483e-06
8 7 26 100 0.250001
11 7 26 100 0.250001
12 7 26 100 8.02026e-05
14 7 26 100 0.000665162
20 7 26 100 3.60297e-05
0 8 26 100 6.13192e-06
2 8 26 100 0.244131
7 8 26 100 7.74823e-05
8 8 26 100 0.24978
10 8 26 100 0.00586896
11 8 26 100 0.46184
12 8 26 100 0.000136399
13 8 26 100 0.00719133
15 8 26 100 0.030968
0 9 26 100 0.47902
1 9 26 100 0.00379587
2 9 26 100 0.108195
6 9 26 100 0.0150258
7 9 26 100 0.00149859
8 9 26 100 0.250263
10 9 26 100 0.000149024
11 9 26 100 0.0138112
12 9 26 100 0.0364933
14 9 26 100 0.000116762
17 9 26 100 0.0541573
22 9 26 100 0.000116762
23 9 26 100 0.000804166
24 9 26 100 0.0364933
25 9 26 100 6.00375e-05
0 10 26 100 0.249998
8 10 26 100 0.250001
11 10 26 100 0.250001
25 10 26 100 0.249999
7 11 26 100 0.00171052
8 11 26 100 0.235545
11 11 26 100 0.248289
13 11 26 100 0.264455
25 11 26 100 0.25
0 12 26 100 0.212838
12 12 26 100 0.0184482
13 12 26 100 0.250085
15 12 26 100 0.20047
19 12 26 100 0.0681588
25 12 26 100 0.25
0 13 26 100 0.489641
5 13 26 100 3.02611e-05
12 13 26 100 4.68606e-05
14 13 26 100 0.000151226
19 13 26 100 0.26013
25 13 26 100 0.25
13 14 26 100 0.25
14 14 26 100 0.00028156
19 14 26 100 0.248945
20 14 26 100 0.25
21 14 26 100 0.000772951
25 14 26 100 0.25
13 15 26 100 0.249999
19 15 26 100 0.25
20 15 26 100 0.25
25 15 26 100 0.25
9 16 26 100 0.25
19 16 26 100 0.239532
20 16 26 100 0.260263
22 16 26 100 5.39675e-06
23 16 26 100 0.000199818
25 16 26 100 0.25
9 17 26 100 0.25
14 17 26 100 0.000288225
20 17 26 100 0.00080302
22 17 26 100 0.249712
23 17 26 100 0.0295634
24 17 26 100 0.219634
25 17 26 100 0.25
0 18 26 100 0.249994
1 18 26 100 0.25
16 18 26 100 0.000662981
18 18 26 100 0.000662981
20 18 26 100 5.37709e-06
24 18 26 100 0.498674
1 19 26 100 0.25
24 19 26 100 0.5
26 19 26 100 0.25
0 20 26 100 0.250494
1 20 26 100 0.249502
6 20 26 100 6.24168e-06
24 20 26 100 0.499998
1 21 26 100 0.25
24 21 26 100 0.5
26 21 26 100 0.25
0 22 26 100 0.210019
1 22 26 100 0.25
10 22 26 100 4.91298e-05
25 22 26 100 0.0616946
26 22 26 100 0.478238
0 23 26 100 0.229764
4 23 26 100 0.0172013
5 23 26 100 0.00301481
19 23 26 100 1.88763e-05
26 23 26 100 0.750001
1 24 26 100 0.333333
26 24 26 100 0.666667
22 25 26 100 1.25154e-05
26 25 26 100 0.999987
26 26 26 100 1
26 27 26 100 1
26 28 26 100 1
2 1 27 100 0.99843
24 1 27 100 0.00156951
0 2 27 100 0.0070979
2 2 27 100 0.646358
3 2 27 100 0.333333
9 2 27 100 0.00688734
11 2 27 100 5.04938e-05
24 2 27 100 0.00627331
0 3 27 100 0.666667
25 3 27 100 0.333333
3 4 27 100 0.333333
12 4 27 100 0.333333
25 4 27 100 0.333333
0 5 27 100 0.332908
3 5 27 100 0.333334
12 5 27 100 0.333334
24 5 27 100 0.000424137
0 6 27 100 0.0104827
1 6 27 100 7.86716e-06
3 6 27 100 0.322838
12 6 27 100 0.333333
14 6 27 100 4.40185e-06
25 6 27 100 0.333333
3 7 27 100 0.333334
7 7 27 100 0.000747087
14 7 27 100 0.332584
25 7 27 100 0.333334
3 8 27 100 0.333333
7 8 27 100 3.80666e-05
14 8 27 100 0.333295
25 8 27 100 0.333333
4 9 27 100 0.016934
5 9 27 100 0.23719
7 9 27 100 0.000271767
9 9 27 100 0.0792099
14 9 27 100 0.332125
25 9 27 100 0.333334
27 9 27 100 0.000935017
11 10 27 100 0.333333
16 10 27 100 0.333333
25 10 27 100 0.333333
0 11 27 100 0.331513
10 11 27 100 0.00123845
11 11 27 100 0.333333
18 11 27 100 1.90149e-05
24 11 27 100 6.04165e-05
25 11 27 100 0.000563169
26 11 27 100 0.333273
11 12 27 100 0.333333
16 12 27 100 4.12122e-06
24 12 27 100 1.38072e-05
26 12 27 100 0.333315
27 12 27 100 0.333333
11 13 27 100 0.333333
24 13 27 100 9.77303e-05
26 13 27 100 0.333236
27 13 27 100 0.333333
0 14 27 100 0.355765
4 14 27 100 0.000491224
8 14 27 100 0.268109
9 14 27 100 0.039682
10 14 27 100 0.00284415
13 14 27 100 9.74315e-05
24 14 27 100 0.000168382
27 14 27 100 0.332842
2 15 27 100 4.60694e-06
7 15 27 100 0.00158162
9 15 27 100 0.0660862
10 15 27 100 0.263864
11 15 27 100 0.336616
14 15 27 100 0.000331357
21 15 27 100 2.36521e-05
24 15 27 100 0.000101253
27 15 27 100 0.331392
10 16 27 100 0.0101387
11 16 27 100 0.316792
12 16 27 100 0.00600319
14 16 27 100 0.333334
20 16 27 100 0.000250387
24 16 27 100 0.00014932
26 16 27 100 0.333333
0 17 27 100 0.62893
10 17 27 100 0.00121211
11 17 27 100 0.00301702
14 17 27 100 0.365784
15 17 27 100 1.17104e-05
17 17 27 100 7.05283e-06
24 17 27 100 0.000715526
25 17 27 100 0.000322407
12 18 27 100 5.47704e-06
14 18 27 100 0.333324
17 18 27 100 9.43893e-06
20 18 27 100 0.333195
24 18 27 100 0.000132267
26 18 27 100 0.333333
0 19 27 100 0.0291611
1 19 27 100 3.78295e-06
3 19 27 100 0.000457245
14 19 27 100 0.303711
20 19 27 100 0.333319
24 19 27 100 1.42658e-05
26 19 27 100 0.333333
14 20 27 100 4.6792e-05
19 20 27 100 0.0532939
20 20 27 100 0.333234
21 20 27 100 0.279993
24 20 27 100 9.96716e-05
26 20 27 100 0.333333
0 21 27 100 0.636449
6 21 27 100 0.000363947
15 21 27 100 1.76603e-05
21 21 27 100 0.0284415
22 21 27 100 6.13588e-06
24 21 27 100 0.0013873
26 21 27 100 0.333334
0 22 27 100 0.333316
1 22 27 100 1.78459e-05
23 22 27 100 0.666666
0 23 27 100 0.664106
8 23 27 100 0.00210646
9 23 27 100 0.000158395
10 23 27 100 6.27755e-06
13 23 27 100 1.32905e-05
23 23 27 100 0.333333
24 23 27 100 0.000276527
9 24 27 100 0.333218
11 24 27 100 0.000115071
23 24 27 100 0.666667
9 25 27 100 0.333333
22 25 27 100 0.000111277
23 25 27 100 0.666555
0 26 27 100 0.0010444
2 26 27 100 2.80792e-05
9 26 27 100 0.332261
23 26 27 100 0.333333
27 26 27 100 0.333333
0 27 27 100 9.36679e-06
9 27 27 100 0.499991
27 27 27 100 0.5
19 28 27 100 1
19 29 27 100 1
19 30 27 100 1
19 31 27 100 1
23 32 27 100 0.833563
24 32 27 100 0.166437
27 33 27 100 1
0 34 27 100 0.969921
10 34 27 100 0.00126688
25 34 27 100 0.0288118
27 35 27 100 1
27 36 27 100 1
1 1 28 100 0.75
10 1 28 100 0.25
0 2 28 100 5.82141e-06
1 2 28 100 0.499994
3 2 28 100 0.25
4 2 28 100 0.000141794
10 2 28 100 0.249858
0 3 28 100 0.285353
2 3 28 100 9.33894e-06
3 3 28 100 0.714434
12 3 28 100 0.000193729
15 3 28 100 3.80788e-06
23 3 28 100 6.05212e-06
2 4 28 100 0.25
3 4 28 100 0.749928
5 4 28 100 7.2313e-05
2 5 28 100 0.25
3 5 28 100 0.442245
4 5 28 100 0.057755
5 5 28 100 0.25
0 6 28 100 0.00040949
2 6 28 100 0.249513
3 6 28 100 0.0847409
4 6 28 100 5.2708e-06
5 6 28 100 0.165263
6 6 28 100 0.499967
16 6 28 100 2.7898e-05
26 6 28 100 8.06068e-06
28 6 28 100 6.49974e-05
0 7 28 100 0.186484
2 7 28 100 0.24946
5 7 28 100 0.00118677
6 7 28 100 0.249995
8 7 28 100 0.285838
9 7 28 100 0.0224797
10 7 28 100 0.00393994
12 7 28 100 0.000546075
13 7 28 100 3.73929e-05
16 7 28 100 8.98623e-06
21 7 28 100 2.34092e-05
0 8 28 100 0.249981
2 8 28 100 9.33894e-06
7 8 28 100 0.249993
10 8 28 100 0.25
11 8 28 100 0.25
23 8 28 100 1.71849e-05
7 9 28 100 0.5
10 9 28 100 0.25
11 9 28 100 0.25
0 10 28 100 0.249993
7 10 28 100 0.499995
10 10 28 100 0.25
14 10 28 100 7.19297e-06
16 10 28 100 5.34072e-06
0 11 28 100 0.227657
5 11 28 100 0.25
6 11 28 100 0.000157007
7 11 28 100 0.022186
11 11 28 100 0.249994
14 11 28 100 5.94523e-06
27 11 28 100 0.25
5 12 28 100 0.249968
8 12 28 100 0.250001
11 12 28 100 0.250001
13 12 28 100 2.9731e-05
23 12 28 100 2.9761e-05
27 12 28 100 0.249971
5 13 28 100 0.25
8 13 28 100 0.25
11 13 28 100 0.25
27 13 28 100 0.25
5 14 28 100 0.25
11 14 28 100 0.25
13 14 28 100 0.25
27 14 28 100 0.25
13 15 28 100 0.499978
15 15 28 100 2.26844e-05
20 15 28 100 0.25
27 15 28 100 0.25
0 16 28 100 0.249998
13 16 28 100 0.485259
14 16 28 100 0.00636387
15 16 28 100 0.00492253
20 16 28 100 0.250001
21 16 28 100 0.00345599
0 17 28 100 0.482377
3 17 28 100 7.77035e-05
12 17 28 100 0.017207
13 17 28 100 0.250024
15 17 28 100 0.000338217
28 17 28 100 0.249977
0 18 28 100 0.00452793
2 18 28 100 0.0018875
3 18 28 100 9.79996e-06
16 18 28 100 0.246149
18 18 28 100 0.240777
19 18 28 100 6.04913e-06
20 18 28 100 0.25
26 18 28 100 0.000568157
27 18 28 100 0.00384484
28 18 28 100 0.25223
16 19 28 100 0.0561802
18 19 28 100 0.0357228
19 19 28 100 0.184854
20 19 28 100 0.25
24 19 28 100 0.223242
28 19 28 100 0.250001
0 20 28 100 0.249792
2 20 28 100 8.49018e-06
4 20 28 100 1.01079e-05
8 20 28 100 2.39751e-05
9 20 28 100 1.50235e-05
10 20 28 100 2.63312e-06
16 20 28 100 1.29654e-05
18 20 28 100 3.17012e-05
19 20 28 100 0.252149
21 20 28 100 0.247963
24 20 28 100 0.249926
25 20 28 100 6.48314e-05
0 21 28 100 0.249988
17 21 28 100 0.0211276
20 21 28 100 0.249923
22 21 28 100 0.228884
23 21 28 100 7.73962e-05
28 21 28 100 0.25
17 22 28 100 0.25
20 22 28 100 0.25
24 22 28 100 0.25
28 22 28 100 0.25
17 23 28 100 0.333334
20 23 28 100 0.333334
24 23 28 100 0.333332
0 24 28 100 0.333194
9 24 28 100 3.31819e-05
14 24 28 100 3.31819e-05
20 24 28 100 0.333334
24 24 28 100 0.333406
0 25 28 100 0.333333
17 25 28 100 0.106801
22 25 28 100 0.333333
25 25 28 100 0.226533
8 26 28 100 0.333336
11 26 28 100 0.000929561
15 26 28 100 0.0034192
19 26 28 100 0.00022168
24 26 28 100 0.333108
27 26 28 100 0.328986
0 27 28 100 0.00250645
2 27 28 100 1.7985e-05
8 27 28 100 0.333334
18 27 28 100 0.00013043
26 27 28 100 0.0518888
28 27 28 100 0.612122
8 28 28 100 0.333301
13 28 28 100 3.23128e-05
28 28 28 100 0.666666
28 29 28 100 1
28 30 28 100 1
0 31 28 100 0.5
25 31 28 100 1.16422e-05
28 31 28 100 0.499988
12 32 28 100 1.71582e-05
28 32 28 100 0.999983
7 33 28 100 7.68647e-05
23 33 28 100 1.27683e-05
28 33 28 100 0.99991
7 34 28 100 0.000101839
28 34 28 100 0.999898
12 35 28 100 2.73247e-05
28 35 28 100 0.999973
28 36 28 100 1
1 1 29 100 0.2
2 1 29 100 0.1
4 1 29 100 0.4
8 1 29 100 0.1
19 1 29 100 0.0999997
29 1 29 100 0.1
0 2 29 100 0.399778
1 2 29 100 0.0165873
2 2 29 100 0.100488
3 2 29 100 0.100024
4 2 29 100 0.169809
5 2 29 100 0.00320526
6 2 29 100 0.00999904
9 2 29 100 0.1
10 2 29 100 2.63682e-05
13 2 29 100 1.76908e-05
14 2 29 100 5.7822e-06
16 2 29 100 1.99493e-06
24 2 29 100 2.67695e-06
26 2 29 100 5.36872e-05
27 2 29 100 1.04e-06
29 2 29 100 0.1
0 3 29 100 0.113614
1 3 29 100 0.1
2 3 29 100 0.0999943
3 3 29 100 0.104746
4 3 29 100 0.200012
5 3 29 100 0.0880663
6 3 29 100 1.54243e-05
7 3 29 100 9.03606e-06
8 3 29 100 0.000831726
9 3 29 100 0.0922387
12 3 29 100 4.38451e-06
15 3 29 100 0.000460598
17 3 29 100 5.64209e-06
24 3 29 100 0.1
28 3 29 100 1.46403e-06
29 3 29 100 0.1
0 4 29 100 0.0851462
1 4 29 100 0.1
2 4 29 100 0.124001
3 4 29 100 0.0862694
4 4 29 100 0.213731
5 4 29 100 0.0999991
10 4 29 100 5.9376e-06
11 4 29 100 0.0134795
16 4 29 100 0.000971706
17 4 29 100 0.0749503
18 4 29 100 0.000990746
19 4 29 100 0.1
23 4 29 100 1.17494e-05
24 4 29 100 0.1
25 4 29 100 0.000418562
27 4 29 100 2.43082e-05
0 5 29 100 0.180519
1 5 29 100 0.1
2 5 29 100 0.1
4 5 29 100 0.2
5 5 29 100 0.110734
6 5 29 100 4.12639e-05
7 5 29 100 3.45691e-06
8 5 29 100 0.00866308
10 5 29 100 3.45691e-06
16 5 29 100 1.59148e-05
17 5 29 100 0.0999641
19 5 29 100 0.1
20 5 29 100 3.79608e-06
22 5 29 100 4.67174e-05
24 5 29 100 4.89891e-06
26 5 29 100 0.1
0 6 29 100 0.00338542
2 6 29 100 0.0999971
4 6 29 100 0.395371
5 6 29 100 0.00122471
6 6 29 100 1.87821e-05
8 6 29 100 1.61917e-06
9 6 29 100 0.0999984
12 6 29 100 0.1
13 6 29 100 0.1
19 6 29 100 0.1
26 6 29 100 0.1
29 6 29 100 2.92863e-06
0 7 29 100 0.0796232
1 7 29 100 8.93714e-06
2 7 29 100 7.79412e-06
4 7 29 100 0.199992
5 7 29 100 0.000136517
7 7 29 100 0.111114
8 7 29 100 0.109115
9 7 29 100 0.1
11 7 29 100 1.97899e-06
12 7 29 100 0.1
13 7 29 100 0.1
21 7 29 100 0.082299
23 7 29 100 0.017701
26 7 29 100 0.1
0 8 29 100 0.00480244
4 8 29 100 0.0903659
5 8 29 100 9.65491e-06
6 8 29 100 0.00591363
7 8 29 100 0.195188
8 8 29 100 0.109634
9 8 29 100 0.110291
10 8 29 100 0.0998403
12 8 29 100 0.183796
13 8 29 100 0.1
16 8 29 100 0.000120937
19 8 29 100 9.18338e-06
23 8 29 100 2.91096e-05
26 8 29 100 0.1
3 9 29 100 2.57742e-05
5 9 29 100 1.55543e-05
6 9 29 100 0.00345017
7 9 29 100 0.0999742
8 9 29 100 0.287287
9 9 29 100 0.1
12 9 29 100 0.2
13 9 29 100 0.101583
16 9 29 100 0.098401
26 9 29 100 0.1
27 9 29 100 0.00926291
0 10 29 100 0.199473
5 10 29 100 1.21187e-05
8 10 29 100 0.2
11 10 29 100 0.0999042
12 10 29 100 0.2
13 10 29 100 0.100062
14 10 29 100 2.10655e-06
16 10 29 100 0.0999767
19 10 29 100 9.57567e-05
22 10 29 100 0.000142826
27 10 29 100 0.1
28 10 29 100 0.000331479
7 11 29 100 0.1
8 11 29 100 0.2
11 11 29 100 3.09634e-05
13 11 29 100 0.300199
14 11 29 100 0.0999691
17 11 29 100 0.1
26 11 29 100 0.0998011
27 11 29 100 0.1
0 12 29 100 0.203646
2 12 29 100 3.85882e-06
3 12 29 100 0.000648295
7 12 29 100 0.1
9 12 29 100 0.10121
10 12 29 100 5.01902e-06
11 12 29 100 0.01478
12 12 29 100 0.0779809
14 12 29 100 0.1
16 12 29 100 0.100358
17 12 29 100 0.10217
18 12 29 100 0.00678392
22 12 29 100 8.48154e-06
23 12 29 100 0.0905421
25 12 29 100 0.00123974
27 12 29 100 0.100623
0 13 29 100 0.0968074
5 13 29 100 0.00319232
7 13 29 100 0.1
8 13 29 100 0.1
9 13 29 100 0.1
13 13 29 100 0.1
14 13 29 100 0.1
15 13 29 100 5.55459e-05
16 13 29 100 0.0999446
17 13 29 100 0.0987458
20 13 29 100 0.0997995
25 13 29 100 0.00125436
26 13 29 100 0.000199576
27 13 29 100 0.1
0 14 29 100 0.0999009
5 14 29 100 1.17863e-06
6 14 29 100 0.1
7 14 29 100 0.1
8 14 29 100 0.0999808
9 14 29 100 0.1
11 14 29 100 6.58738e-06
13 14 29 100 0.1
14 14 29 100 0.1
20 14 29 100 0.2
26 14 29 100 0.000110081
27 14 29 100 0.1
0 15 29 100 0.0895208
2 15 29 100 3.83148e-06
5 15 29 100 1.74576e-06
6 15 29 100 0.100023
8 15 29 100 0.1
9 15 29 100 0.1
13 15 29 100 0.0999942
16 15 29 100 0.0104545
17 15 29 100 8.80663e-05
19 15 29 100 0.0999772
20 15 29 100 0.185428
22 15 29 100 0.014488
23 15 29 100 1.86161e-05
27 15 29 100 0.1
28 15 29 100 1.44516e-06
29 15 29 100 0.1
0 16 29 100 0.103407
5 16 29 100 3.35638e-05
6 16 29 100 0.100002
8 16 29 100 0.10002
13 16 29 100 0.0998507
14 16 29 100 0.0966116
17 16 29 100 4.32833e-05
18 16 29 100 0.1
19 16 29 100 0.1
20 16 29 100 0.100032
28 16 29 100 0.1
29 16 29 100 0.1
0 17 29 100 0.167842
2 17 29 100 6.47224e-06
6 17 29 100 0.100006
9 17 29 100 0.0934739
11 17 29 100 0.00318838
12 17 29 100 0.0994969
14 17 29 100 0.0999987
15 17 29 100 0.0998879
16 17 29 100 0.0066445
17 17 29 100 0.00695481
18 17 29 100 0.100127
19 17 29 100 0.00153432
20 17 29 100 2.79874e-06
21 17 29 100 0.000579484
22 17 29 100 0.000162959
23 17 29 100 0.00654003
27 17 29 100 0.0135306
28 17 29 100 0.100024
29 17 29 100 0.1
0 18 29 100 0.00644568
6 18 29 100 0.111111
7 18 29 100 1.0864e-05
12 18 29 100 0.0146982
15 18 29 100 0.111111
17 18 29 100 0.0755849
18 18 29 100 0.111143
19 18 29 100 0.250776
20 18 29 100 0.111621
21 18 29 100 0.0122207
23 18 29 100 0.0841656
28 18 29 100 0.111111
0 19 29 100 0.111126
15 19 29 100 0.111264
18 19 29 100 6.03454e-05
19 19 29 100 0.222222
20 19 29 100 0.192934
23 19 29 100 0.222222
25 19 29 100 0.0127007
26 19 29 100 0.00365829
27 19 29 100 0.0127007
28 19 29 100 0.111111
0 20 29 100 0.109162
10 20 29 100 0.000189063
15 20 29 100 0.111111
18 20 29 100 0.111111
20 20 29 100 0.324226
21 20 29 100 0.111111
23 20 29 100 0.222222
25 20 29 100 0.000152861
26 20 29 100 0.0091071
28 20 29 100 0.0016075
0 21 29 100 0.113431
10 21 29 100 0.000148442
14 21 29 100 3.29997e-06
15 21 29 100 0.111107
20 21 29 100 0.222238
21 21 29 100 0.111182
23 21 29 100 0.222211
26 21 29 100 0.111111
29 21 29 100 0.108567
12 22 29 100 0.000772128
13 22 29 100 6.7522e-06
15 22 29 100 0.111111
20 22 29 100 0.216479
21 22 29 100 0.116082
22 22 29 100 0.00211326
23 22 29 100 0.11112
24 22 29 100 0.111073
26 22 29 100 0.113202
29 22 29 100 0.218041
0 23 29 100 0.000619993
4 23 29 100 5.61584e-05
9 23 29 100 1.43283e-05
15 23 29 100 0.110477
19 23 29 100 0.11111
20 23 29 100 0.111055
21 23 29 100 0.111111
23 23 29 100 0.111111
24 23 29 100 0.111111
26 23 29 100 0.111111
29 23 29 100 0.222223
0 24 29 100 0.132352
12 24 29 100 4.24486e-05
15 24 29 100 0.111111
17 24 29 100 0.00719796
19 24 29 100 0.111072
21 24 29 100 0.111111
24 24 29 100 0.082672
26 24 29 100 0.111111
29 24 29 100 0.33333
0 25 29 100 0.378354
5 25 29 100 1.47969e-05
11 25 29 100 0.111761
12 25 29 100 0.00096816
15 25 29 100 0.124032
16 25 29 100 0.000746417
17 25 29 100 0.00247679
22 25 29 100 0.125513
23 25 29 100 0.000807395
24 25 29 100 0.00363329
25 25 29 100 9.16827e-06
26 25 29 100 1.83288e-06
27 25 29 100 0.00167041
28 25 29 100 1.48296e-05
29 25 29 100 0.249997
9 26 29 100 0.142826
11 26 29 100 0.142857
15 26 29 100 0.142857
16 26 29 100 3.09129e-05
22 26 29 100 0.142857
29 26 29 100 0.428571
9 27 29 100 0.142852
11 27 29 100 0.142857
15 27 29 100 0.142857
16 27 29 100 5.09692e-06
23 27 29 100 0.142857
29 27 29 100 0.428572
0 28 29 100 0.165728
5 28 29 100 2.91459e-06
9 28 29 100 8.80342e-05
11 28 29 100 4.47874e-06
15 28 29 100 0.166667
23 28 29 100 0.166667
27 28 29 100 0.000716539
28 28 29 100 0.000125585
29 28 29 100 0.500001
0 29 29 100 0.332257
9 29 29 100 0.166566
13 29 29 100 0.000861782
14 29 29 100 3.59294e-05
16 29 29 100 0.000101049
22 29 29 100 8.8293e-06
28 29 29 100 0.000168948
29 29 29 100 0.500001
0 30 29 100 8.24202e-06
3 30 29 100 1.51615e-05
9 30 29 100 0.179505
11 30 29 100 8.2203e-06
12 30 29 100 0.200039
18 30 29 100 0.0185919
23 30 29 100 0.00181105
25 30 29 100 0.00364219
26 30 29 100 0.196379
29 30 29 100 0.4
10 31 29 100 0.25
12 31 29 100 0.25
24 31 29 100 0.000353347
26 31 29 100 0.25
29 31 29 100 0.249647
10 32 29 100 0.314323
12 32 29 100 0.338187
26 32 29 100 0.333333
28 32 29 100 0.0141571
26 33 29 100 0.5
29 33 29 100 0.5
0 34 29 100 9.66888e-06
29 34 29 100 0.99999
1 1 30 100 0.5
6 1 30 100 0.249999
21 1 30 100 0.250001
0 2 30 100 0.247895
1 2 30 100 0.244312
2 2 30 100 0.25
8 2 30 100 0.00767836
10 2 30 100 0.00011573
14 2 30 100 3.43609e-06
21 2 30 100 0.249996
0 3 30 100 0.250011
2 3 30 100 0.249988
13 3 30 100 0.25
21 3 30 100 0.25
1 4 30 100 0.25
2 4 30 100 0.25
13 4 30 100 0.25
21 4 30 100 0.24794
22 4 30 100 0.00205991
1 5 30 100 0.25
2 5 30 100 0.25
13 5 30 100 0.25
17 5 30 100 6.15166e-06
24 5 30 100 9.37569e-05
25 5 30 100 0.2499
1 6 30 100 0.25
2 6 30 100 0.249758
6 6 30 100 0.000236316
9 6 30 100 0.000250565
13 6 30 100 0.00319379
16 6 30 100 0.00167778
17 6 30 100 0.247846
18 6 30 100 8.87524e-06
19 6 30 100 0.000463706
25 6 30 100 0.246565
0 7 30 100 0.493536
3 7 30 100 0.000793356
5 7 30 100 0.249981
6 7 30 100 0.0002978
8 7 30 100 0.00452657
9 7 30 100 0.000872209
11 7 30 100 1.79099e-05
12 7 30 100 5.21942e-05
17 7 30 100 0.249922
1 8 30 100 0.0193515
4 8 30 100 0.249995
5 8 30 100 0.249986
11 8 30 100 1.42582e-05
15 8 30 100 4.78622e-06
17 8 30 100 0.25
26 8 30 100 0.230649
0 9 30 100 0.25
4 9 30 100 0.250575
7 9 30 100 1.87119e-05
17 9 30 100 0.25
25 9 30 100 0.000191175
26 9 30 100 0.0365947
28 9 30 100 0.212621
0 10 30 100 0.25
4 10 30 100 0.25
5 10 30 100 0.249991
11 10 30 100 8.65301e-06
17 10 30 100 0.25
4 11 30 100 0.25
5 11 30 100 0.249767
11 11 30 100 0.000248783
17 11 30 100 0.249984
30 11 30 100 0.25
4 12 30 100 0.25
5 12 30 100 0.248659
11 12 30 100 0.00134124
17 12 30 100 0.25
30 12 30 100 0.25
0 13 30 100 0.249312
4 13 30 100 0.25
5 13 30 100 0.20797
11 13 30 100 0.04203
18 13 30 100 0.000539731
19 13 30 100 7.7532e-06
28 13 30 100 0.00013902
30 13 30 100 0.250001
5 14 30 100 0.0455759
11 14 30 100 0.204424
21 14 30 100 0.238969
29 14 30 100 0.25
30 14 30 100 0.261031
5 15 30 100 0.00794372
11 15 30 100 0.243395
23 15 30 100 0.25
27 15 30 100 2.42386e-05
29 15 30 100 0.248636
30 15 30 100 0.25
0 16 30 100 0.00326018
15 16 30 100 0.00966464
17 16 30 100 0.237061
23 16 30 100 0.25
29 16 30 100 0.25
30 16 30 100 0.250014
0 17 30 100 0.249213
3 17 30 100 0.000102125
8 17 30 100 0.000582687
9 17 30 100 0.000102125
17 17 30 100 0.25
23 17 30 100 0.249269
26 17 30 100 0.000730941
29 17 30 100 0.25
0 18 30 100 3.47389e-06
4 18 30 100 8.44368e-05
18 18 30 100 0.134447
19 18 30 100 0.250001
23 18 30 100 0.249994
26 18 30 100 0.115548
30 18 30 100 0.249923
13 19 30 100 1.6614e-05
19 19 30 100 0.25
25 19 30 100 0.25
30 19 30 100 0.499983
0 20 30 100 0.250009
8 20 30 100 6.9135e-06
19 20 30 100 0.25
23 20 30 100 0.25
25 20 30 100 0.249984
0 21 30 100 0.243829
1 21 30 100 0.00330739
10 21 30 100 0.00250158
19 21 30 100 0.25
23 21 30 100 0.000361671
25 21 30 100 0.25
30 21 30 100 0.25
16 22 30 100 0.000179049
19 22 30 100 0.249999
23 22 30 100 0.25
25 22 30 100 0.249821
30 22 30 100 0.25
0 23 30 100 3.0743e-06
19 23 30 100 0.25
20 23 30 100 0.243388
23 23 30 100 0.25
25 23 30 100 0.0066085
30 23 30 100 0.25
19 24 30 100 0.333333
23 24 30 100 0.333333
30 24 30 100 0.333333
7 25 30 100 0.000153559
20 25 30 100 0.333135
23 25 30 100 0.33318
27 25 30 100 0.000198032
30 25 30 100 0.333333
14 26 30 100 0.000263533
20 26 30 100 0.666667
23 26 30 100 0.33307
0 27 30 100 0.0061249
5 27 30 100 0.0676688
11 27 30 100 0.171481
12 27 30 100 0.0676688
20 27 30 100 0.666667
21 27 30 100 0.0184631
22 27 30 100 0.00192626
20 28 30 100 1
20 29 30 100 1
20 30 30 100 1
0 31 30 100 0.999748
3 31 30 100 1.03656e-05
9 31 30 100 1.03656e-05
24 31 30 100 0.000230883
20 32 30 100 1
4 1 31 100 0.499682
10 1 31 100 0.249721
16 1 31 100 0.000318354
27 1 31 100 0.000278964
31 1 31 100 0.25
0 2 31 100 0.249995
4 2 31 100 0.499485
10 2 31 100 0.249807
12 2 31 100 5.26286e-06
16 2 31 100 0.000514943
27 2 31 100 0.000193507
0 3 31 100 0.22574
4 3 31 100 0.250455
5 3 31 100 0.0241835
9 3 31 100 1.23448e-05
10 3 31 100 5.45805e-05
11 3 31 100 0.00226551
12 3 31 100 0.247208
13 3 31 100 2.54042e-05
14 3 31 100 4.4525e-06
18 3 31 100 1.7285e-05
19 3 31 100 2.98438e-05
30 3 31 100 3.42175e-06
31 3 31 100 0.25
2 4 31 100 5.53859e-05
8 4 31 100 0.25
9 4 31 100 0.25
13 4 31 100 0.244143
28 4 31 100 0.000692453
31 4 31 100 0.255108
8 5 31 100 0.250013
9 5 31 100 0.25
15 5 31 100 0.25
31 5 31 100 0.249987
0 6 31 100 0.25
8 6 31 100 0.249959
15 6 31 100 0.25
20 6 31 100 1.14907e-05
25 6 31 100 2.97179e-05
31 6 31 100 0.25
0 7 31 100 0.24797
1 7 31 100 0.00203038
8 7 31 100 0.25
9 7 31 100 0.25
27 7 31 100 0.245657
28 7 31 100 0.00434272
0 8 31 100 0.246565
10 8 31 100 0.250001
14 8 31 100 0.25
15 8 31 100 0.250001
26 8 31 100 0.000643742
30 8 31 100 0.0027899
14 9 31 100 0.25
15 9 31 100 0.5
28 9 31 100 0.25
0 10 31 100 0.249904
4 10 31 100 0.000118133
7 10 31 100 1.19517e-05
14 10 31 100 8.24434e-05
15 10 31 100 0.49946
16 10 31 100 0.000422579
28 10 31 100 0.250001
0 11 31 100 0.249495
14 11 31 100 0.25
15 11 31 100 0.500001
17 11 31 100 0.00030534
18 11 31 100 0.000199262
0 12 31 100 0.247125
1 12 31 100 0.00287484
12 12 31 100 0.214885
15 12 31 100 0.25
16 12 31 100 0.0351154
28 12 31 100 0.25
13 13 31 100 0.250001
15 13 31 100 0.499998
28 13 31 100 0.250001
13 14 31 100 0.25
21 14 31 100 0.0116221
22 14 31 100 0.25
27 14 31 100 0.238378
28 14 31 100 0.25
0 15 31 100 0.246902
8 15 31 100 0.23369
12 15 31 100 3.6478e-06
13 15 31 100 0.25
20 15 31 100 0.00309712
27 15 31 100 0.249997
28 15 31 100 0.0160221
31 15 31 100 0.000287433
13 16 31 100 0.499916
14 16 31 100 8.36345e-05
22 16 31 100 0.25
29 16 31 100 0.25
13 17 31 100 0.500001
22 17 31 100 0.249998
29 17 31 100 0.250001
0 18 31 100 0.185031
5 18 31 100 6.0723e-06
11 18 31 100 0.0006847
13 18 31 100 0.25
15 18 31 100 0.0758617
18 18 31 100 0.172823
25 18 31 100 0.0324683
26 18 31 100 2.52805e-05
27 18 31 100 2.19214e-05
29 18 31 100 0.283077
13 19 31 100 0.247842
14 19 31 100 0.00215792
19 19 31 100 0.25
29 19 31 100 0.25
31 19 31 100 0.25
0 20 31 100 0.248441
2 20 31 100 0.17054
7 20 31 100 0.0793879
11 20 31 100 9.9084e-05
13 20 31 100 1.86765e-05
19 20 31 100 0.25
24 20 31 100 0.000232546
25 20 31 100 0.00123382
26 20 31 100 9.22326e-05
28 20 31 100 0.000342104
31 20 31 100 0.249612
0 21 31 100 3.78844e-06
7 21 31 100 0.492617
13 21 31 100 8.15098e-05
16 21 31 100 0.00549349
17 21 31 100 0.00134819
19 21 31 100 0.250456
31 21 31 100 0.25
0 22 31 100 0.249666
7 22 31 100 0.25
8 22 31 100 3.02467e-05
19 22 31 100 0.25
25 22 31 100 0.000151437
29 22 31 100 0.000151437
31 22 31 100 0.25
7 23 31 100 0.25
9 23 31 100 0.25
11 23 31 100 0.000243516
15 23 31 100 0.00145811
18 23 31 100 1.73389e-05
27 23 31 100 0.247765
29 23 31 100 0.000516176
31 23 31 100 0.25
0 24 31 100 0.249876
9 24 31 100 0.249748
10 24 31 100 1.82002e-05
19 24 31 100 0.000203854
27 24 31 100 3.08065e-05
28 24 31 100 0.250001
29 24 31 100 0.000122019
31 24 31 100 0.250001
7 25 31 100 0.333332
28 25 31 100 0.333334
31 25 31 100 0.333334
0 26 31 100 0.0173296
9 26 31 100 0.000116274
12 26 31 100 8.22493e-06
19 26 31 100 0.315879
22 26 31 100 1.71618e-05
28 26 31 100 0.333334
31 26 31 100 0.333316
21 27 31 100 0.332709
25 27 31 100 0.000624685
28 27 31 100 0.333333
31 27 31 100 0.333333
0 28 31 100 0.499323
17 28 31 100 0.000409535
18 28 31 100 0.000267258
28 28 31 100 0.5
22 29 31 100 0.5
28 29 31 100 0.5
11 30 31 100 0.379703
15 30 31 100 0.0150017
18 30 31 100 0.00135376
22 30 31 100 0.500002
27 30 31 100 0.000577848
29 30 31 100 0.103362
0 31 31 100 0.499921
10 31 31 100 0.500001
29 31 31 100 7.80454e-05
0 32 31 100 0.5
22 32 31 100 0.5
10 33 31 100 1
10 34 31 100 1
3 1 32 100 0.6
13 1 32 100 0.2
32 1 32 100 0.2
0 2 32 100 0.196875
1 2 32 100 0.000177355
2 2 32 100 0.000115148
3 2 32 100 0.338894
4 2 32 100 0.000530434
6 2 32 100 0.00151393
7 2 32 100 0.000565878
13 2 32 100 0.199462
15 2 32 100 4.4834e-06
16 2 32 100 3.03299e-06
19 2 32 100 0.0492574
25 2 32 100 0.0124436
27 2 32 100 3.2717e-06
30 2 32 100 0.000331875
32 2 32 100 0.199823
3 3 32 100 0.399988
6 3 32 100 1.20957e-05
13 3 32 100 0.2
26 3 32 100 0.2
32 3 32 100 0.2
0 4 32 100 0.388777
1 4 32 100 5.22265e-05
3 4 32 100 0.200014
5 4 32 100 0.2
6 4 32 100 0.0111576
11 4 32 100 0.199995
31 4 32 100 4.95019e-06
3 5 32 100 0.2
5 5 32 100 0.2
10 5 32 100 0.2
11 5 32 100 0.2
26 5 32 100 0.2
4 6 32 100 0.148214
5 6 32 100 0.2
10 6 32 100 0.2
11 6 32 100 0.2
26 6 32 100 0.2
29 6 32 100 0.0013754
32 6 32 100 0.05041
0 7 32 100 0.398113
5 7 32 100 0.2
7 7 32 100 0.000136661
8 7 32 100 2.39522e-05
9 7 32 100 0.000561999
10 7 32 100 0.200008
11 7 32 100 0.00186303
12 7 32 100 0.00116004
13 7 32 100 0.000831775
14 7 32 100 7.65357e-05
15 7 32 100 3.71253e-06
17 7 32 100 3.09898e-06
18 7 32 100 9.71459e-06
19 7 32 100 5.23072e-06
23 7 32 100 2.33681e-06
25 7 32 100 2.38718e-06
27 7 32 100 0.000216789
29 7 32 100 0.196981
5 8 32 100 0.2
6 8 32 100 0.000223898
10 8 32 100 0.199776
14 8 32 100 0.0113296
22 8 32 100 0.0202152
24 8 32 100 0.0491318
25 8 32 100 0.119323
26 8 32 100 0.2
29 8 32 100 0.2
0 9 32 100 0.191245
4 9 32 100 0.190989
7 9 32 100 0.0146255
10 9 32 100 3.41112e-05
13 9 32 100 0.000116272
20 9 32 100 5.47997e-06
26 9 32 100 0.161512
28 9 32 100 0.0384879
29 9 32 100 0.2
30 9 32 100 0.202985
0 10 32 100 0.395985
8 10 32 100 0.148746
9 10 32 100 0.0512328
11 10 32 100 0.00370312
12 10 32 100 2.0995e-05
13 10 32 100 2.45809e-05
24 10 32 100 0.000274087
29 10 32 100 0.200013
30 10 32 100 0.2
4 11 32 100 0.2
12 11 32 100 0.2
15 11 32 100 0.2
29 11 32 100 0.2
31 11 32 100 0.2
4 12 32 100 0.2
12 12 32 100 0.2
17 12 32 100 0.199515
18 12 32 100 0.000485372
29 12 32 100 0.2
31 12 32 100 0.2
0 13 32 100 0.0087328
4 13 32 100 0.187056
8 13 32 100 0.00202682
11 13 32 100 0.00233509
12 13 32 100 0.190527
15 13 32 100 0.00211992
17 13 32 100 0.2
18 13 32 100 0.00736011
19 13 32 100 4.55999e-06
29 13 32 100 0.2
31 13 32 100 0.199837
0 14 32 100 0.395946
3 14 32 100 7.22106e-05
9 14 32 100 0.000828462
10 14 32 100 1.18275e-05
11 14 32 100 0.0027417
12 14 32 100 0.000834361
14 14 32 100 0.000389086
15 14 32 100 1.74753e-05
17 14 32 100 0.200029
18 14 32 100 0.000110993
19 14 32 100 0.00370788
20 14 32 100 5.949e-05
21 14 32 100 2.82336e-06
23 14 32 100 9.35943e-06
25 14 32 100 9.56119e-06
26 14 32 100 0.000109764
29 14 32 100 0.19512
31 14 32 100 0.2
0 15 32 100 0.186786
10 15 32 100 0.020178
13 15 32 100 0.37979
17 15 32 100 0.2
20 15 32 100 0.00432531
22 15 32 100 0.00892078
31 15 32 100 0.2
0 16 32 100 0.380606
13 16 32 100 0.200007
14 16 32 100 0.000654661
16 16 32 100 9.09993e-06
19 16 32 100 0.2
21 16 32 100 0.00268795
23 16 32 100 0.00455146
27 16 32 100 0.0114756
29 16 32 100 8.05377e-06
31 16 32 100 0.2
13 17 32 100 0.2
17 17 32 100 0.2
19 17 32 100 0.2
30 17 32 100 0.2
31 17 32 100 0.2
11 18 32 100 0.000176985
13 18 32 100 0.2
17 18 32 100 0.2
19 18 32 100 0.2
30 18 32 100 0.2
31 18 32 100 0.199823
0 19 32 100 0.36773
4 19 32 100 7.90952e-05
8 19 32 100 2.97676e-05
9 19 32 100 1.94188e-05
11 19 32 100 4.61139e-05
12 19 32 100 1.94188e-05
16 19 32 100 0.199959
18 19 32 100 0.0314386
19 19 32 100 0.197321
21 19 32 100 2.87717e-06
24 19 32 100 0.00335562
30 19 32 100 0.2
9 20 32 100 2.09771e-06
11 20 32 100 0.2
12 20 32 100 2.09771e-06
16 20 32 100 0.199995
19 20 32 100 0.2
24 20 32 100 2.50574e-05
30 20 32 100 0.399975
11 21 32 100 0.200001
16 21 32 100 0.199996
18 21 32 100 2.1858e-06
19 21 32 100 0.199999
21 21 32 100 8.46837e-05
30 21 32 100 0.399917
0 22 32 100 0.579109
3 22 32 100 2.97323e-05
7 22 32 100 3.97415e-05
8 22 32 100 6.96534e-06
9 22 32 100 9.40105e-06
11 22 32 100 0.2
12 22 32 100 2.04891e-05
14 22 32 100 0.00119041
16 22 32 100 0.199251
17 22 32 100 3.25189e-06
18 22 32 100 7.16745e-06
20 22 32 100 0.00739186
21 22 32 100 0.000729972
26 22 32 100 0.000157179
27 22 32 100 0.0120531
19 23 32 100 2.4939e-05
21 23 32 100 0.199974
28 23 32 100 0.400001
31 23 32 100 0.2
32 23 32 100 0.2
24 24 32 100 0.2
28 24 32 100 0.399981
29 24 32 100 1.92497e-05
31 24 32 100 0.2
32 24 32 100 0.2
24 25 32 100 0.2
28 25 32 100 0.4
31 25 32 100 0.2
32 25 32 100 0.2
24 26 32 100 0.2
28 26 32 100 0.4
31 26 32 100 0.2
32 26 32 100 0.2
14 27 32 100 5.70344e-05
24 27 32 100 0.333334
25 27 32 100 0.0277904
31 27 32 100 0.305485
32 27 32 100 0.333334
15 28 32 100 1.12893e-05
24 28 32 100 0.333252
25 28 32 100 7.00953e-05
28 28 32 100 0.333333
32 28 32 100 0.333333
28 29 32 100 0.333333
32 29 32 100 0.666667
5 30 32 100 0.333325
19 30 32 100 3.08101e-05
28 30 32 100 0.333311
32 30 32 100 0.333333
5 31 32 100 0.333333
28 31 32 100 0.333333
32 31 32 100 0.333333
10 32 32 100 0.330307
28 32 32 100 0.33636
32 32 32 100 0.333333
22 33 32 100 0.000862243
32 33 32 100 0.999138
17 1 33 100 0.499999
24 1 33 100 0.500001
0 2 33 100 0.0385732
16 2 33 100 0.00383506
17 2 33 100 0.457592
24 2 33 100 0.5
0 3 33 100 0.498295
4 3 33 100 0.00169592
17 3 33 100 0.500002
27 3 33 100 6.87417e-06
16 4 33 100 0.000271267
17 4 33 100 0.499729
24 4 33 100 0.5
17 5 33 100 0.5
28 5 33 100 0.500001
17 6 33 100 1.62986e-05
24 6 33 100 0.499984
28 6 33 100 0.5
0 7 33 100 0.494367
5 7 33 100 0.00546747
23 7 33 100 8.27321e-06
24 7 33 100 0.500003
31 7 33 100 0.000154693
2 8 33 100 4.59879e-05
26 8 33 100 0.499955
28 8 33 100 0.499999
2 9 33 100 5.68978e-06
7 9 33 100 0.499999
26 9 33 100 0.499995
2 10 33 100 9.6111e-06
7 10 33 100 0.5
26 10 33 100 0.49999
0 11 33 100 0.466226
7 11 33 100 0.500002
27 11 33 100 0.0337477
28 11 33 100 1.2176e-05
32 11 33 100 1.2176e-05
2 12 33 100 0.000132733
7 12 33 100 0.500001
26 12 33 100 0.499866
7 13 33 100 0.5
30 13 33 100 0.00606385
33 13 33 100 0.493936
12 14 33 100 0.5
33 14 33 100 0.5
12 15 33 100 1
12 16 33 100 1
12 17 33 100 0.999305
13 17 33 100 0.000694994
12 18 33 100 1
6 19 33 100 0.00643189
12 19 33 100 0.991167
16 19 33 100 0.00237089
18 19 33 100 3.03777e-05
9 20 33 100 0.00279006
14 20 33 100 0.99721
3 21 33 100 1
3 22 33 100 1
3 23 33 100 1
3 24 33 100 1
3 25 33 100 0.999917
10 25 33 100 8.33629e-05
0 26 33 100 1
17 27 33 100 0.995697
25 27 33 100 0.0043032
21 28 33 100 0.999801
25 28 33 100 0.000198746
21 29 33 100 1
21 30 33 100 1
21 31 33 100 1
21 32 33 100 1
22 33 33 100 1
26 34 33 100 0.995098
30 34 33 100 0.00490225
26 35 33 100 1
0 36 33 100 0.999497
5 36 33 100 0.000180802
23 36 33 100 0.000104218
31 36 33 100 0.000218041
26 37 33 100 1
26 38 33 100 1
8 1 34 100 0.5
34 1 34 100 0.5
8 2 34 100 0.500001
34 2 34 100 0.499999
0 3 34 100 2.93701e-06
2 3 34 100 0.249072
8 3 34 100 0.000683294
10 3 34 100 0.249304
12 3 34 100 4.51357e-06
24 3 34 100 1.28904e-05
25 3 34 100 2.18237e-05
28 3 34 100 3.30611e-06
29 3 34 100 0.00089549
34 3 34 100 0.5
0 4 34 100 0.249993
4 4 34 100 6.8032e-06
5 4 34 100 0.25
10 4 34 100 0.25
34 4 34 100 0.25
0 5 34 100 0.249935
3 5 34 100 2.51342e-05
5 5 34 100 0.00474163
6 5 34 100 0.245297
34 5 34 100 0.500002
0 6 34 100 0.25
5 6 34 100 0.25
10 6 34 100 0.25
34 6 34 100 0.25
3 7 34 100 6.43404e-06
5 7 34 100 0.250001
11 7 34 100 0.250001
32 7 34 100 0.000858315
34 7 34 100 0.499134
0 8 34 100 3.61333e-05
5 8 34 100 0.250001
17 8 34 100 0.250001
21 8 34 100 0.24446
28 8 34 100 0.00550037
31 8 34 100 0.250001
0 9 34 100 0.249993
7 9 34 100 3.18401e-05
17 9 34 100 0.447576
20 9 34 100 1.35136e-05
21 9 34 100 0.0523853
31 9 34 100 0.250001
5 10 34 100 0.25
12 10 34 100 0.25
27 10 34 100 0.25
31 10 34 100 0.25
0 11 34 100 6.4318e-06
1 11 34 100 1.71528e-05
2 11 34 100 0.249897
5 11 34 100 0.249983
8 11 34 100 0.000103645
10 11 34 100 8.84158e-05
12 11 34 100 0.208833
19 11 34 100 0.0410133
27 11 34 100 0.25
30 11 34 100 5.76204e-05
0 12 34 100 0.497086
2 12 34 100 0.25
4 12 34 100 2.68843e-05
12 12 34 100 0.250015
25 12 34 100 2.99829e-05
29 12 34 100 0.00284178
0 13 34 100 0.499939
10 13 34 100 5.23572e-05
12 13 34 100 0.25
13 13 34 100 4.55538e-05
26 13 34 100 0.000146442
30 13 34 100 0.249816
2 14 34 100 0.250001
12 14 34 100 0.250001
14 14 34 100 0.249012
22 14 34 100 0.000987401
26 14 34 100 6.61126e-06
30 14 34 100 0.249992
0 15 34 100 0.249392
2 15 34 100 0.249998
7 15 34 100 2.5532e-06
12 15 34 100 0.250187
15 15 34 100 4.80236e-05
19 15 34 100 2.75526e-05
26 15 34 100 3.53706e-06
30 15 34 100 0.250341
2 16 34 100 0.249999
13 16 34 100 0.0517675
14 16 34 100 0.448246
26 16 34 100 1.29131e-05
30 16 34 100 0.249975
0 17 34 100 0.249914
2 17 34 100 0.212245
7 17 34 100 0.0208185
13 17 34 100 0.0169365
14 17 34 100 0.25
16 17 34 100 0.25
20 17 34 100 8.5457e-05
7 18 34 100 0.00836491
14 18 34 100 0.25
16 18 34 100 0.25
17 18 34 100 0.241635
19 18 34 100 0.000102137
31 18 34 100 0.249898
14 19 34 100 0.25
