1 1 100 1 1
1 1 100 2 1
1 2 100 2 0.336503
2 2 100 2 0.663497
2 0 100 3 1
1 1 100 3 0.382823
2 1 100 3 0.306133
3 1 100 3 0.311044
2 2 100 3 1
1 3 100 3 0.277756
2 3 100 3 0.361161
3 3 100 3 0.361083
2 4 100 3 1
1 5 100 3 0.333333
2 5 100 3 0.333333
3 5 100 3 0.333333
2 0 100 4 0.552277
3 0 100 4 0.447723
1 1 100 4 0.413054
2 1 100 4 0.380804
3 1 100 4 0.103117
4 1 100 4 0.103025
2 2 100 4 0.184107
3 2 100 4 0.815893
3 3 100 4 0.464499
4 3 100 4 0.535501
2 4 100 4 0.934226
3 4 100 4 0.0657739
1 5 100 4 0.250967
2 5 100 4 0.250967
3 5 100 4 0.247098
4 5 100 4 0.250967
1 6 100 4 0.000336608
2 6 100 4 0.0169009
3 6 100 4 0.386791
4 6 100 4 0.595972
1 7 100 4 0.251418
2 7 100 4 0.241512
3 7 100 4 0.250408
4 7 100 4 0.256662
2 0 100 5 0.0245946
3 0 100 5 0.886574
4 0 100 5 0.0888313
1 1 100 5 0.999042
2 1 100 5 0.000848451
3 1 100 5 0.00010983
1 2 100 5 0.990801
2 2 100 5 0.00280136
3 2 100 5 0.00639719
2 3 100 5 0.334201
3 3 100 5 0.000266141
4 3 100 5 0.332983
5 3 100 5 0.33255
1 4 100 5 0.187603
2 4 100 5 0.203166
3 4 100 5 0.205397
4 4 100 5 0.19839
5 4 100 5 0.205444
4 5 100 5 1
1 6 100 5 0.20033
2 6 100 5 0.20033
3 6 100 5 0.198681
4 6 100 5 0.20033
5 6 100 5 0.20033
1 7 100 5 0.199087
2 7 100 5 0.183122
3 7 100 5 0.198422
4 7 100 5 0.198429
5 7 100 5 0.22094
4 8 100 5 1
1 9 100 5 0.169744
2 9 100 5 0.209234
3 9 100 5 0.205366
4 9 100 5 0.206418
5 9 100 5 0.209238
2 0 100 6 0.0728888
3 0 100 6 0.485169
4 0 100 6 0.441942
3 1 100 6 0.995514
4 1 100 6 0.00448639
4 2 100 6 1
1 3 100 6 0.226719
2 3 100 6 0.147125
3 3 100 6 0.155389
4 3 100 6 0.153408
5 3 100 6 0.158679
6 3 100 6 0.158679
4 4 100 6 1
3 5 100 6 0.570595
4 5 100 6 0.429405
2 6 100 6 0.0858931
3 6 100 6 0.300571
4 6 100 6 0.306889
5 6 100 6 0.306647
1 7 100 6 0.0274852
2 7 100 6 0.191483
3 7 100 6 0.192993
4 7 100 6 0.202052
5 7 100 6 0.192993
6 7 100 6 0.192993
1 8 100 6 0.244121
2 8 100 6 0.242767
3 8 100 6 0.0227951
4 8 100 6 0.00138174
5 8 100 6 0.244366
6 8 100 6 0.244569
1 9 100 6 0.235357
2 9 100 6 0.171853
3 9 100 6 0.117852
4 9 100 6 0.117852
5 9 100 6 0.121713
6 9 100 6 0.235373
2 0 100 7 0.31863
3 0 100 7 0.328083
4 0 100 7 0.00242789
5 0 100 7 0.113063
6 0 100 7 0.237794
7 0 100 7 1.49597e-06
1 1 100 7 0.478993
2 1 100 7 0.142677
3 1 100 7 0.139213
4 1 100 7 0.0598652
5 1 100 7 0.059555
6 1 100 7 0.0598439
7 1 100 7 0.0598531
1 2 100 7 0.126501
2 2 100 7 0.483606
3 2 100 7 0.389893
1 3 100 7 0.201255
2 3 100 7 0.197619
3 3 100 7 0.00207769
4 3 100 7 0.200967
5 3 100 7 0.202014
6 3 100 7 0.196068
2 4 100 7 0.0142891
3 4 100 7 0.168513
4 4 100 7 0.814322
5 4 100 7 0.00287656
1 5 100 7 0.198294
2 5 100 7 0.164329
3 5 100 7 0.1712
4 5 100 7 0.149104
5 5 100 7 0.160165
6 5 100 7 0.0078054
7 5 100 7 0.149103
2 6 100 7 0.106513
3 6 100 7 0.236937
4 6 100 7 0.301594
5 6 100 7 0.151411
6 6 100 7 0.102667
7 6 100 7 0.100877
1 7 100 7 0.116477
2 7 100 7 0.0776749
3 7 100 7 0.0637651
4 7 100 7 0.0780259
5 7 100 7 0.155304
6 7 100 7 0.236982
7 7 100 7 0.271772
1 8 100 7 0.112026
2 8 100 7 0.112026
3 8 100 7 1.29734e-06
4 8 100 7 0.112218
5 8 100 7 0.223823
6 8 100 7 0.215855
7 8 100 7 0.224051
1 9 100 7 0.151021
2 9 100 7 0.000377363
3 9 100 7 0.00270443
4 9 100 7 0.176984
5 9 100 7 0.223006
6 9 100 7 0.00102836
7 9 100 7 0.444878
1 10 100 7 0.167256
2 10 100 7 0.00244872
3 10 100 7 0.165818
4 10 100 7 0.166872
5 10 100 7 0.162279
6 10 100 7 0.167842
7 10 100 7 0.167484
1 11 100 7 0.134027
2 11 100 7 0.144944
3 11 100 7 0.141591
4 11 100 7 0.143164
5 11 100 7 0.144068
6 11 100 7 0.14587
7 11 100 7 0.146336
3 12 100 7 1
1 13 100 7 9.47179e-05
2 13 100 7 4.70078e-05
4 13 100 7 0.0127977
5 13 100 7 0.310665
6 13 100 7 0.338197
7 13 100 7 0.338198
1 0 100 8 3.48152e-06
2 0 100 8 0.0068311
3 0 100 8 0.394136
4 0 100 8 0.290741
5 0 100 8 0.166669
6 0 100 8 0.141619
1 1 100 8 0.371475
2 1 100 8 0.306673
3 1 100 8 0.19956
4 1 100 8 0.122126
6 1 100 8 0.000165901
1 2 100 8 5.37349e-06
2 2 100 8 0.48373
3 2 100 8 0.493806
4 2 100 8 0.000720977
5 2 100 8 0.0217294
7 2 100 8 8.21777e-06
4 3 100 8 0.993107
5 3 100 8 0.00689324
3 4 100 8 0.000561516
4 4 100 8 0.00750182
5 4 100 8 0.776354
6 4 100 8 0.215579
7 4 100 8 4.20289e-06
4 5 100 8 0.361454
5 5 100 8 0.638546
1 6 100 8 0.0773336
2 6 100 8 0.154671
3 6 100 8 0.159754
4 6 100 8 0.215519
5 6 100 8 0.155957
6 6 100 8 0.0820974
7 6 100 8 0.0773336
8 6 100 8 0.0773336
1 7 100 8 0.115223
2 7 100 8 0.127031
3 7 100 8 0.0574821
4 7 100 8 0.0589871
5 7 100 8 0.00157226
6 7 100 8 0.178814
7 7 100 8 0.230445
8 7 100 8 0.230445
1 8 100 8 0.166558
6 8 100 8 0.167162
7 8 100 8 0.333145
8 8 100 8 0.333134
1 9 100 8 0.0992884
2 9 100 8 0.0992885
3 9 100 8 0.0992885
4 9 100 8 0.113369
5 9 100 8 0.197513
6 9 100 8 0.192685
7 9 100 8 0.0992784
8 9 100 8 0.0992884
2 10 100 8 0.000383146
3 10 100 8 0.00126046
4 10 100 8 0.0414636
5 10 100 8 0.234549
6 10 100 8 0.249225
7 10 100 8 0.240153
8 10 100 8 0.232966
2 11 100 8 0.00393148
3 11 100 8 0.256687
4 11 100 8 0.263701
5 11 100 8 0.224539
6 11 100 8 0.243718
7 11 100 8 0.00742263
1 12 100 8 0.112592
2 12 100 8 0.101647
3 12 100 8 0.0021115
4 12 100 8 2.4326e-05
5 12 100 8 0.00102237
6 12 100 8 0.115649
7 12 100 8 0.329507
8 12 100 8 0.337448
1 0 100 9 6.16336e-06
2 0 100 9 0.158755
3 0 100 9 0.475838
4 0 100 9 0.121655
6 0 100 9 0.159044
7 0 100 9 0.0847015
1 1 100 9 0.428573
2 1 100 9 0.142855
4 1 100 9 0.142858
5 1 100 9 0.142858
6 1 100 9 0.142858
2 2 100 9 0.701197
3 2 100 9 0.298803
4 3 100 9 0.534518
5 3 100 9 0.465435
7 3 100 9 4.60243e-05
1 4 100 9 1
1 5 100 9 1.86291e-05
2 5 100 9 0.584081
4 5 100 9 0.137073
6 5 100 9 0.000382761
7 5 100 9 0.278444
2 6 100 9 0.0733164
4 6 100 9 0.071073
5 6 100 9 0.155807
6 6 100 9 0.14215
7 6 100 9 0.162522
8 6 100 9 0.213219
9 6 100 9 0.181913
3 7 100 9 0.077444
4 7 100 9 0.077444
5 7 100 9 0.0774594
6 7 100 9 0.232388
7 7 100 9 0.226296
8 7 100 9 0.154888
9 7 100 9 0.15408
2 8 100 9 0.332861
3 8 100 9 0.333569
4 8 100 9 0.333569
1 9 100 9 0.319
2 9 100 9 0.125628
3 9 100 9 0.159502
4 9 100 9 0.00494537
8 9 100 9 0.159503
9 9 100 9 0.231422
1 10 100 9 0.128464
2 10 100 9 0.871536
3 11 100 9 0.152139
4 11 100 9 0.0351833
5 11 100 9 0.0452106
6 11 100 9 0.738186
7 11 100 9 0.0292806
2 12 100 9 0.00276017
3 12 100 9 0.240376
4 12 100 9 0.250794
5 12 100 9 0.250801
6 12 100 9 0.000194665
7 12 100 9 0.247072
8 12 100 9 0.00800156
1 13 100 9 0.0826845
2 13 100 9 0.0101907
3 13 100 9 0.0821697
4 13 100 9 0.0829582
5 13 100 9 0.165205
6 13 100 9 0.156518
7 13 100 9 0.165385
8 13 100 9 0.163612
9 13 100 9 0.0912768
1 14 100 9 0.288862
2 14 100 9 0.120083
3 14 100 9 0.00831215
4 14 100 9 8.88134e-06
5 14 100 9 6.49378e-06
7 14 100 9 0.0036774
8 14 100 9 0.284555
9 14 100 9 0.294495
1 16 100 9 0.000205962
7 16 100 9 2.16971e-06
8 16 100 9 0.0234227
9 16 100 9 0.976369
2 0 100 10 0.21143
3 0 100 10 0.197322
4 0 100 10 0.105701
5 0 100 10 0.208086
6 0 100 10 0.101579
7 0 100 10 0.00267402
9 0 100 10 0.173208
1 1 100 10 0.322652
2 1 100 10 0.303938
3 1 100 10 0.273853
4 1 100 10 0.0995542
9 1 100 10 2.34875e-06
2 2 100 10 1.89079e-05
3 2 100 10 0.188956
4 2 100 10 0.313174
5 2 100 10 0.308261
6 2 100 10 0.154701
7 2 100 10 0.0347387
9 2 100 10 0.00014985
1 3 100 10 0.116169
3 3 100 10 0.861322
5 3 100 10 0.0119511
6 3 100 10 0.0105576
1 4 100 10 0.0967927
2 4 100 10 0.0968168
3 4 100 10 0.0968018
6 4 100 10 0.0938144
7 4 100 10 0.203447
8 4 100 10 0.193597
9 4 100 10 0.131086
10 4 100 10 0.0876444
1 5 100 10 0.0715057
2 5 100 10 0.071661
4 5 100 10 0.147265
5 5 100 10 0.21483
6 5 100 10 0.208643
7 5 100 10 0.143011
8 5 100 10 0.0715153
9 5 100 10 6.35709e-05
10 5 100 10 0.0715055
1 6 100 10 0.0890258
3 6 100 10 0.105112
4 6 100 10 0.258738
5 6 100 10 0.0891029
6 6 100 10 0.0935
7 6 100 10 0.0890259
8 6 100 10 0.0890138
9 6 100 10 0.0890415
10 6 100 10 0.09744
3 7 100 10 0.000201734
4 7 100 10 0.499676
5 7 100 10 0.49653
9 7 100 10 0.00359227
1 8 100 10 0.0713687
3 8 100 10 0.140361
4 8 100 10 0.0826583
5 8 100 10 0.165111
6 8 100 10 0.165142
7 8 100 10 0.127739
8 8 100 10 0.0825325
9 8 100 10 0.082545
10 8 100 10 0.0825427
1 9 100 10 0.0606569
2 9 100 10 0.0591179
4 9 100 10 0.0606287
5 9 100 10 0.0606613
6 9 100 10 0.186925
7 9 100 10 0.208015
8 9 100 10 0.182012
9 9 100 10 0.0606613
10 9 100 10 0.121322
5 10 100 10 0.000108773
7 10 100 10 0.217388
8 10 100 10 0.262052
9 10 100 10 0.260226
10 10 100 10 0.260226
1 11 100 10 0.143199
2 11 100 10 0.142888
8 11 100 10 0.141122
9 11 100 10 0.286394
10 11 100 10 0.286398
1 12 100 10 0.153152
2 12 100 10 0.165505
3 12 100 10 0.00162338
4 12 100 10 0.0230697
5 12 100 10 0.0788955
6 12 100 10 0.0820291
7 12 100 10 0.0830222
8 12 100 10 0.0849188
9 12 100 10 0.161523
10 12 100 10 0.166262
2 13 100 10 1
1 14 100 10 0.16374
2 14 100 10 0.165432
3 14 100 10 0.166213
4 14 100 10 0.00271058
5 14 100 10 2.74904e-06
6 14 100 10 4.33617e-06
7 14 100 10 0.00319684
8 14 100 10 0.166091
9 14 100 10 0.166305
10 14 100 10 0.166305
1 15 100 10 0.257998
2 15 100 10 0.246944
3 15 100 10 0.238963
4 15 100 10 0.255918
5 15 100 10 0.000177467
1 17 100 10 0.00316522
2 17 100 10 0.36972
3 17 100 10 0.62181
4 17 100 10 0.00526646
5 17 100 10 3.83362e-05
2 0 100 11 0.0579466
3 0 100 11 0.323888
5 0 100 11 0.175051
6 0 100 11 0.127152
8 0 100 11 2.15254e-05
9 0 100 11 0.315938
11 0 100 11 3.89763e-06
1 1 100 11 0.333917
2 1 100 11 0.166628
3 1 100 11 0.166351
4 1 100 11 2.38368e-06
8 1 100 11 0.0831593
9 1 100 11 0.0833139
10 1 100 11 0.0833139
11 1 100 11 0.0833139
1 2 100 11 0.125262
2 2 100 11 0.125262
3 2 100 11 0.14367
4 2 100 11 0.125148
5 2 100 11 0.125207
6 2 100 11 0.12511
7 2 100 11 0.123628
8 2 100 11 0.106714
2 3 100 11 0.2435
3 3 100 11 0.365263
4 3 100 11 0.264397
5 3 100 11 0.121756
8 3 100 11 0.00508389
1 4 100 11 0.155749
2 4 100 11 0.00130011
4 4 100 11 0.422041
5 4 100 11 0.42091
5 5 100 11 0.00139939
6 5 100 11 0.290018
7 5 100 11 0.236185
8 5 100 11 0.236185
9 5 100 11 0.236214
3 6 100 11 0.000793245
5 6 100 11 0.00011519
6 6 100 11 0.199488
7 6 100 11 0.199519
8 6 100 11 0.199858
9 6 100 11 0.200738
10 6 100 11 0.199488
1 7 100 11 0.240251
2 7 100 11 0.240251
3 7 100 11 0.00072335
4 7 100 11 0.00015644
5 7 100 11 3.7584e-05
6 7 100 11 0.00939672
7 7 100 11 0.00313376
8 7 100 11 0.025547
10 7 100 11 0.240251
11 7 100 11 0.240251
4 8 100 11 0.00277017
5 8 100 11 0.132665
6 8 100 11 0.266429
7 8 100 11 0.265338
8 8 100 11 0.200135
11 8 100 11 0.132662
3 9 100 11 1.36583e-05
4 9 100 11 0.240422
5 9 100 11 0.246926
6 9 100 11 0.246926
7 9 100 11 0.246907
9 9 100 11 0.018805
8 10 100 11 0.999969
10 10 100 11 3.06078e-05
1 11 100 11 0.102287
2 11 100 11 0.0689966
7 11 100 11 0.103106
8 11 100 11 0.103104
9 11 100 11 0.210086
10 11 100 11 0.20621
11 11 100 11 0.206212
4 12 100 11 0.125452
5 12 100 11 0.145758
6 12 100 11 0.145759
7 12 100 11 0.145758
8 12 100 11 0.145695
9 12 100 11 3.83687e-06
10 12 100 11 0.145811
11 12 100 11 0.145764
1 13 100 11 0.112576
2 13 100 11 0.122643
3 13 100 11 0.0613584
4 13 100 11 0.0626079
5 13 100 11 3.7685e-06
6 13 100 11 0.0216526
7 13 100 11 0.0325047
8 13 100 11 0.0978418
9 13 100 11 0.121044
10 13 100 11 0.182075
11 13 100 11 0.185693
2 0 100 12 0.066762
3 0 100 12 0.0830585
4 0 100 12 0.0619309
5 0 100 12 0.136824
6 0 100 12 0.0836879
7 0 100 12 0.244755
8 0 100 12 0.0830586
10 0 100 12 0.0738468
11 0 100 12 0.166076
1 1 100 12 0.424207
2 1 100 12 0.339314
3 1 100 12 0.161707
4 1 100 12 0.0747713
1 2 100 12 0.30035
2 2 100 12 0.399308
3 2 100 12 0.300342
1 3 100 12 4.99342e-05
3 3 100 12 0.310013
4 3 100 12 0.330883
5 3 100 12 0.311829
7 3 100 12 0.0472252
1 4 100 12 0.0779772
2 4 100 12 0.0810443
3 4 100 12 0.156356
4 4 100 12 0.233663
5 4 100 12 0.234536
6 4 100 12 0.21642
7 4 100 12 2.68407e-06
2 5 100 12 0.00366906
5 5 100 12 0.70259
6 5 100 12 0.286811
7 5 100 12 0.00692953
3 6 100 12 0.511959
4 6 100 12 0.487997
8 6 100 12 4.41821e-05
4 7 100 12 0.0346699
7 7 100 12 0.163031
8 7 100 12 0.160458
9 7 100 12 0.160474
10 7 100 12 0.160456
11 7 100 12 0.160456
12 7 100 12 0.160456
5 8 100 12 0.0155189
6 8 100 12 0.157495
7 8 100 12 0.155561
8 8 100 12 0.134132
9 8 100 12 0.134898
10 8 100 12 0.134132
11 8 100 12 0.134132
12 8 100 12 0.134132
2 9 100 12 1.85871e-05
4 9 100 12 0.000189284
5 9 100 12 0.012116
7 9 100 12 0.987676
6 10 100 12 0.1123
8 10 100 12 0.224582
9 10 100 12 0.224588
10 10 100 12 0.213929
11 10 100 12 0.1123
12 10 100 12 0.1123
2 11 100 12 0.00293403
4 11 100 12 0.910538
10 11 100 12 0.0865281
4 12 100 12 0.00841393
5 12 100 12 0.181068
6 12 100 12 0.18098
7 12 100 12 0.0912135
8 12 100 12 0.176115
9 12 100 12 0.0905641
10 12 100 12 0.0905339
11 12 100 12 0.0905778
12 12 100 12 0.0905339
7 13 100 12 0.0237979
11 13 100 12 0.488101
12 13 100 12 0.488101
1 14 100 12 0.186911
2 14 100 12 0.148807
3 14 100 12 0.000421027
4 14 100 12 0.0006504
5 14 100 12 0.000451029
6 14 100 12 2.69017e-05
7 14 100 12 0.00135343
8 14 100 12 0.000559126
9 14 100 12 0.212522
10 14 100 12 0.231979
11 14 100 12 9.34692e-05
12 14 100 12 0.216226
2 15 100 12 2.03232e-05
3 15 100 12 0.000146259
4 15 100 12 9.53257e-06
5 15 100 12 1.17904e-05
6 15 100 12 0.000146552
7 15 100 12 0.000255848
8 15 100 12 0.499576
9 15 100 12 0.49971
10 15 100 12 9.18772e-05
11 15 100 12 3.16558e-05
2 16 100 12 1.47847e-06
3 16 100 12 4.69719e-07
4 16 100 12 0.00390468
5 16 100 12 0.118839
6 16 100 12 0.123098
7 16 100 12 0.12441
8 16 100 12 0.13161
9 16 100 12 0.241853
10 16 100 12 0.129821
11 16 100 12 0.00204784
12 16 100 12 0.124414
2 17 100 12 7.9716e-05
3 17 100 12 0.000143915
7 17 100 12 4.04267e-06
9 17 100 12 4.29787e-05
10 17 100 12 0.999729
1 18 100 12 0.195269
2 18 100 12 0.185957
3 18 100 12 0.00023232
4 18 100 12 0.0536716
5 18 100 12 0.00302999
6 18 100 12 5.58719e-06
7 18 100 12 1.13612e-05
8 18 100 12 6.61155e-06
9 18 100 12 0.00385992
10 18 100 12 0.167392
11 18 100 12 0.195278
12 18 100 12 0.195286
2 19 100 12 0.0836508
10 19 100 12 0.916349
1 20 100 12 0.260935
2 20 100 12 0.213962
3 20 100 12 0.00316155
4 20 100 12 3.27303e-07
8 20 100 12 2.75692e-06
9 20 100 12 1.7773e-05
10 20 100 12 6.98067e-05
11 20 100 12 0.260916
12 20 100 12 0.260935
1 0 100 13 6.78032e-07
2 0 100 13 0.0644146
3 0 100 13 0.0562781
4 0 100 13 0.156159
5 0 100 13 0.158729
6 0 100 13 0.0514749
7 0 100 13 0.000206343
8 0 100 13 0.138771
9 0 100 13 0.107123
10 0 100 13 3.3288e-06
11 0 100 13 0.107104
12 0 100 13 0.159735
13 0 100 13 7.13977e-07
1 1 100 13 0.383363
2 1 100 13 0.15603
3 1 100 13 0.153847
4 1 100 13 0.153614
5 1 100 13 0.153146
1 2 100 13 0.184644
2 2 100 13 0.33184
3 2 100 13 0.346976
4 2 100 13 0.115635
6 2 100 13 0.0208556
8 2 100 13 4.92336e-05
2 3 100 13 0.195742
3 3 100 13 0.00109292
5 3 100 13 0.177494
6 3 100 13 0.175931
7 3 100 13 0.27375
8 3 100 13 0.175989
1 4 100 13 0.0523759
2 4 100 13 0.0559766
3 4 100 13 0.165983
4 4 100 13 0.0956951
5 4 100 13 0.105176
6 4 100 13 0.147307
7 4 100 13 0.165994
8 4 100 13 0.0523758
9 4 100 13 0.0543645
10 4 100 13 0.0523759
11 4 100 13 0.0523758
1 5 100 13 2.19079e-05
3 5 100 13 0.108049
5 5 100 13 0.223449
6 5 100 13 0.125495
7 5 100 13 0.156354
8 5 100 13 0.138045
12 5 100 13 0.123159
13 5 100 13 0.125427
5 6 100 13 0.11669
6 6 100 13 0.114388
7 6 100 13 0.114348
8 6 100 13 0.17877
9 6 100 13 0.132759
10 6 100 13 0.114348
12 6 100 13 0.114348
13 6 100 13 0.114348
4 7 100 13 0.240374
5 7 100 13 0.252711
6 7 100 13 0.164811
7 7 100 13 0.114792
8 7 100 13 8.84552e-06
9 7 100 13 0.113645
10 7 100 13 0.113659
3 8 100 13 0.000180028
6 8 100 13 0.0394962
7 8 100 13 0.0617757
8 8 100 13 0.120595
9 8 100 13 0.415653
10 8 100 13 0.286647
11 8 100 13 0.0756534
1 9 100 13 0.0652763
3 9 100 13 0.000402912
4 9 100 13 0.0792377
6 9 100 13 0.0652551
7 9 100 13 0.131367
8 9 100 13 0.134648
9 9 100 13 0.00110743
10 9 100 13 0.0654377
11 9 100 13 0.195835
12 9 100 13 0.130875
13 9 100 13 0.130557
4 10 100 13 0.0160687
6 10 100 13 1.53501e-05
7 10 100 13 0.00085004
8 10 100 13 1.08568e-05
9 10 100 13 0.000152163
10 10 100 13 0.139503
11 10 100 13 0.284574
12 10 100 13 0.279863
13 10 100 13 0.278963
4 11 100 13 0.122645
6 11 100 13 0.167575
8 11 100 13 0.00616885
9 11 100 13 0.0568138
10 11 100 13 0.646797
1 12 100 13 0.0793701
2 12 100 13 0.0780372
4 12 100 13 0.126027
6 12 100 13 0.0793701
7 12 100 13 0.0822119
8 12 100 13 0.0793701
9 12 100 13 0.0781246
10 12 100 13 0.0796243
11 12 100 13 0.0794295
12 12 100 13 0.0796957
13 12 100 13 0.158739
2 13 100 13 0.200286
3 13 100 13 0.199525
10 13 100 13 0.199845
12 13 100 13 0.200172
13 13 100 13 0.200172
1 14 100 13 0.124987
2 14 100 13 9.88071e-06
6 14 100 13 0.124725
7 14 100 13 0.124988
8 14 100 13 0.124985
9 14 100 13 0.124987
10 14 100 13 0.124988
11 14 100 13 0.000820984
12 14 100 13 0.124522
13 14 100 13 0.124988
1 15 100 13 0.261182
2 15 100 13 0.00293629
3 15 100 13 0.162697
4 15 100 13 0.000523579
5 15 100 13 0.001326
6 15 100 13 2.58766e-06
7 15 100 13 0.0368393
8 15 100 13 2.01049e-06
9 15 100 13 6.40799e-05
10 15 100 13 0.00688111
11 15 100 13 0.25946
12 15 100 13 0.00689679
13 15 100 13 0.261189
1 16 100 13 0.0372598
2 16 100 13 0.074325
3 16 100 13 0.0639756
4 16 100 13 0.0962092
5 16 100 13 0.0745722
6 16 100 13 0.111141
7 16 100 13 0.0730162
8 16 100 13 0.0734755
9 16 100 13 0.0729849
10 16 100 13 0.0938177
11 16 100 13 0.0806386
12 16 100 13 0.0740431
13 16 100 13 0.0745408
1 17 100 13 0.000313151
2 17 100 13 0.000711059
3 17 100 13 0.0226964
4 17 100 13 0.0530306
5 17 100 13 0.000111988
6 17 100 13 0.00010826
7 17 100 13 9.91501e-05
8 17 100 13 0.000129633
9 17 100 13 6.63524e-05
10 17 100 13 0.325181
11 17 100 13 0.597532
12 17 100 13 1.07878e-05
13 17 100 13 9.15459e-06
2 18 100 13 5.72139e-06
4 18 100 13 5.07486e-06
5 18 100 13 3.45978e-05
12 18 100 13 0.999955
1 19 100 13 0.202414
2 19 100 13 0.198687
3 19 100 13 0.198274
4 19 100 13 0.00333965
5 19 100 13 1.23456e-06
6 19 100 13 3.27262e-07
7 19 100 13 2.43506e-07
8 19 100 13 8.42728e-07
9 19 100 13 2.46591e-07
10 19 100 13 0.00195895
11 19 100 13 0.0916248
12 19 100 13 0.101243
13 19 100 13 0.202455
2 0 100 14 0.13567
3 0 100 14 0.0424057
4 0 100 14 4.82304e-06
5 0 100 14 0.123036
6 0 100 14 0.0441388
7 0 100 14 0.0428186
8 0 100 14 0.0873076
9 0 100 14 0.0442014
10 0 100 14 0.0881135
11 0 100 14 0.147224
12 0 100 14 0.131938
13 0 100 14 0.113141
1 1 100 14 0.498035
2 1 100 14 0.249016
3 1 100 14 0.251143
4 1 100 14 0.00104197
5 1 100 14 0.000764699
1 2 100 14 0.130872
2 2 100 14 0.195846
3 2 100 14 0.20142
4 2 100 14 0.259907
6 2 100 14 0.0654361
7 2 100 14 0.0654361
8 2 100 14 0.0654421
9 2 100 14 0.0156181
10 2 100 14 1.25783e-06
12 2 100 14 2.11423e-05
1 3 100 14 0.230986
3 3 100 14 0.218676
4 3 100 14 0.0751987
5 3 100 14 0.0651795
9 3 100 14 0.40996
5 4 100 14 0.191816
6 4 100 14 0.188418
7 4 100 14 0.185637
8 4 100 14 0.186862
9 4 100 14 0.123755
10 4 100 14 0.123513
1 5 100 14 0.0924926
2 5 100 14 0.0924387
4 5 100 14 0.0192366
5 5 100 14 0.185033
6 5 100 14 0.184986
7 5 100 14 0.184999
8 5 100 14 0.093212
10 5 100 14 0.0924929
11 5 100 14 0.0551089
2 6 100 14 0.000586668
3 6 100 14 0.245261
4 6 100 14 0.251224
9 6 100 14 3.87047e-05
10 6 100 14 5.43026e-06
11 6 100 14 0.251486
12 6 100 14 0.125707
14 6 100 14 0.125692
2 7 100 14 1.25686e-05
4 7 100 14 0.20352
5 7 100 14 0.15927
6 7 100 14 0.251973
7 7 100 14 0.251944
8 7 100 14 0.12559
12 7 100 14 0.00768978
13 7 100 14 2.35282e-06
1 8 100 14 0.149043
2 8 100 14 0.0749878
3 8 100 14 0.00030697
5 8 100 14 0.0136382
6 8 100 14 0.0739545
7 8 100 14 0.0745213
8 8 100 14 0.0900895
9 8 100 14 0.0745212
10 8 100 14 2.35823e-05
11 8 100 14 0.00221493
12 8 100 14 0.148614
13 8 100 14 0.149043
14 8 100 14 0.149043
3 9 100 14 0.110163
4 9 100 14 0.175159
5 9 100 14 0.164617
6 9 100 14 0.0544292
7 9 100 14 0.0550436
8 9 100 14 1.02817e-05
9 9 100 14 0.0550442
10 9 100 14 0.110316
11 9 100 14 0.110087
12 9 100 14 0.0550436
13 9 100 14 0.0550436
14 9 100 14 0.0550436
2 10 100 14 0.000110081
4 10 100 14 0.00663702
5 10 100 14 0.020962
9 10 100 14 0.248007
10 10 100 14 0.490942
11 10 100 14 0.230704
12 10 100 14 0.00263834
4 11 100 14 0.000137606
6 11 100 14 0.658046
7 11 100 14 0.00724415
8 11 100 14 0.28361
11 11 100 14 0.0507848
12 11 100 14 3.49856e-05
13 11 100 14 0.000142728
1 12 100 14 0.0941377
2 12 100 14 0.0941377
3 12 100 14 0.0940127
4 12 100 14 6.69762e-06
5 12 100 14 0.028875
8 12 100 14 1.8788e-05
10 12 100 14 0.0937461
11 12 100 14 3.05077e-05
12 12 100 14 0.188296
13 12 100 14 0.218464
14 12 100 14 0.188275
3 13 100 14 0.0713144
4 13 100 14 0.0716094
5 13 100 14 0.0716094
6 13 100 14 0.0146
7 13 100 14 0.214828
8 13 100 14 0.189995
9 13 100 14 0.214216
10 13 100 14 0.143633
13 13 100 14 0.00819497
1 14 100 14 0.0631326
2 14 100 14 0.0631345
8 14 100 14 0.000555846
9 14 100 14 0.126252
10 14 100 14 0.126764
11 14 100 14 0.241328
12 14 100 14 0.189366
13 14 100 14 0.0631965
14 14 100 14 0.126271
6 15 100 14 0.103672
8 15 100 14 0.0805742
12 15 100 14 0.815754
1 16 100 14 0.13071
2 16 100 14 0.132359
3 16 100 14 7.55248e-05
4 16 100 14 0.0816387
5 16 100 14 3.30345e-05
6 16 100 14 0.000710261
7 16 100 14 0.000281055
8 16 100 14 0.000202229
9 16 100 14 5.14696e-05
10 16 100 14 0.00197348
11 16 100 14 0.129024
12 16 100 14 0.000215146
13 16 100 14 0.261306
14 16 100 14 0.26142
1 17 100 14 0.233662
2 17 100 14 0.215874
3 17 100 14 0.219282
4 17 100 14 0.174434
5 17 100 14 0.124362
6 17 100 14 0.021859
7 17 100 14 0.00147983
8 17 100 14 3.13334e-06
9 17 100 14 2.60057e-06
10 17 100 14 3.49509e-05
11 17 100 14 5.47516e-05
12 17 100 14 0.00894851
13 17 100 14 6.14512e-07
14 17 100 14 3.36011e-06
1 18 100 14 0.200106
2 18 100 14 0.000154272
3 18 100 14 0.123163
4 18 100 14 0.110382
5 18 100 14 0.00221473
6 18 100 14 1.19503e-07
7 18 100 14 0.000121672
8 18 100 14 6.16877e-05
9 18 100 14 1.92474e-07
10 18 100 14 0.000737569
11 18 100 14 0.003375
12 18 100 14 0.0835448
13 18 100 14 0.238064
14 18 100 14 0.238075
1 19 100 14 0.263758
2 19 100 14 0.203682
3 19 100 14 0.120327
4 19 100 14 0.00020814
5 19 100 14 2.05744e-07
6 19 100 14 1.01295e-06
7 19 100 14 0.000910837
8 19 100 14 0.000646487
9 19 100 14 1.54943e-05
11 19 100 14 1.05744e-05
12 19 100 14 0.00260742
13 19 100 14 0.203118
14 19 100 14 0.204713
2 20 100 14 0.00447745
5 20 100 14 4.58999e-05
10 20 100 14 0.0142214
13 20 100 14 0.981255
2 21 100 14 0.986688
10 21 100 14 0.00357527
11 21 100 14 0.00101291
13 21 100 14 0.00872383
1 22 100 14 0.000728792
3 22 100 14 3.26222e-06
6 22 100 14 4.44388e-07
7 22 100 14 0.00563396
8 22 100 14 0.191011
9 22 100 14 0.20134
10 22 100 14 2.02786e-07
11 22 100 14 0.201346
12 22 100 14 0.199591
13 22 100 14 5.35605e-06
14 22 100 14 0.200339
7 23 100 14 0.999864
11 23 100 14 0.000136397
1 24 100 14 0.000176449
2 24 100 14 2.04943e-06
3 24 100 14 2.88466e-06
4 24 100 14 3.16206e-06
5 24 100 14 4.40844e-06
6 24 100 14 0.50693
7 24 100 14 0.491595
8 24 100 14 5.20787e-05
9 24 100 14 4.52178e-05
10 24 100 14 3.87477e-05
12 24 100 14 0.000369299
13 24 100 14 0.000773437
14 24 100 14 7.26151e-06
11 25 100 14 1
1 26 100 14 2.77861e-06
3 26 100 14 2.46333e-07
4 26 100 14 4.55519e-07
5 26 100 14 1.00487e-06
6 26 100 14 0.00496737
7 26 100 14 0.0427118
8 26 100 14 0.236903
9 26 100 14 0.237074
10 26 100 14 0.237311
12 26 100 14 0.236913
13 26 100 14 0.00411418
14 26 100 14 1.30673e-06
11 27 100 14 0.999817
13 27 100 14 0.000183312
11 28 100 14 1
4 29 100 14 0.0138961
12 29 100 14 0.953661
13 29 100 14 0.0324428
12 30 100 14 0.00155683
13 30 100 14 0.998443
2 31 100 14 0.835644
11 31 100 14 0.164356
11 32 100 14 1
12 33 100 14 1.94768e-06
13 33 100 14 0.261705
14 33 100 14 0.738293
2 0 100 15 0.00368517
3 0 100 15 0.071349
4 0 100 15 0.0718578
5 0 100 15 0.186112
6 0 100 15 0.0023392
7 0 100 15 0.0718508
8 0 100 15 0.21553
9 0 100 15 0.0171872
10 0 100 15 0.0670568
11 0 100 15 0.000969994
12 0 100 15 0.143678
13 0 100 15 0.0718243
14 0 100 15 0.0765592
1 1 100 15 0.583742
2 1 100 15 0.249205
3 1 100 15 0.0833913
4 1 100 15 0.0833917
6 1 100 15 0.000239896
11 1 100 15 4.45077e-06
12 1 100 15 2.64595e-05
1 2 100 15 0.0819439
2 2 100 15 0.244207
3 2 100 15 0.24581
4 2 100 15 0.233339
5 2 100 15 0.0732141
6 2 100 15 0.0395178
7 2 100 15 0.0409699
8 2 100 15 0.0409566
11 2 100 15 4.17451e-05
3 3 100 15 0.319631
5 3 100 15 0.362446
9 3 100 15 0.317923
4 4 100 15 0.146145
5 4 100 15 0.146491
6 4 100 15 0.292281
7 4 100 15 0.268409
8 4 100 15 0.14614
9 4 100 15 0.000534593
5 5 100 15 0.174699
6 5 100 15 0.341862
7 5 100 15 0.34841
8 5 100 15 0.135024
11 5 100 15 5.00478e-06
3 6 100 15 3.7369e-05
4 6 100 15 0.0728742
5 6 100 15 0.216062
6 6 100 15 0.216012
7 6 100 15 0.233407
8 6 100 15 0.261607
4 7 100 15 0.0863504
5 7 100 15 0.0378385
6 7 100 15 0.165584
7 7 100 15 0.165584
8 7 100 15 0.190394
9 7 100 15 0.105921
11 7 100 15 0.0827448
13 7 100 15 0.0827918
15 7 100 15 0.0827918
6 8 100 15 0.0637224
7 8 100 15 0.066554
9 8 100 15 0.233897
10 8 100 15 0.254805
11 8 100 15 0.253559
12 8 100 15 0.127463
1 9 100 15 0.102561
2 9 100 15 0.102561
3 9 100 15 0.103136
7 9 100 15 6.70474e-06
8 9 100 15 0.0718335
10 9 100 15 0.00450533
11 9 100 15 3.95963e-06
12 9 100 15 2.39082e-05
13 9 100 15 0.205123
14 9 100 15 0.205123
15 9 100 15 0.205123
7 10 100 15 2.21988e-05
9 10 100 15 0.476376
10 10 100 15 0.0113144
13 10 100 15 0.170767
14 10 100 15 0.17076
15 10 100 15 0.17076
5 11 100 15 0.0999079
6 11 100 15 0.1
8 11 100 15 0.1
9 11 100 15 0.1
10 11 100 15 0.100043
11 11 100 15 0.100009
12 11 100 15 0.0999933
13 11 100 15 0.100046
14 11 100 15 0.1
15 11 100 15 0.1
10 12 100 15 0.197107
11 12 100 15 0.201756
12 12 100 15 0.299411
13 12 100 15 0.100576
14 12 100 15 0.100575
15 12 100 15 0.100575
4 13 100 15 0.0617926
5 13 100 15 0.0668329
6 13 100 15 0.0668329
7 13 100 15 0.0668329
9 13 100 15 0.0678596
10 13 100 15 0.0668318
11 13 100 15 0.133666
12 13 100 15 0.135187
13 13 100 15 0.0668321
14 13 100 15 0.133666
15 13 100 15 0.133666
10 14 100 15 0.201117
11 14 100 15 0.100733
12 14 100 15 0.100676
13 14 100 15 0.201352
14 14 100 15 0.194769
15 14 100 15 0.201352
1 15 100 15 0.166821
2 15 100 15 0.166821
3 15 100 15 0.165895
13 15 100 15 0.166821
14 15 100 15 0.166821
15 15 100 15 0.166821
12 16 100 15 1
2 0 100 16 0.154112
3 0 100 16 0.228815
4 0 100 16 1.74991e-06
5 0 100 16 0.232428
6 0 100 16 0.0161525
7 0 100 16 0.153071
9 0 100 16 0.0547533
10 0 100 16 0.00788739
11 0 100 16 1.89097e-06
13 0 100 16 0.0762842
14 0 100 16 0.000207902
15 0 100 16 0.0762826
16 0 100 16 2.20843e-06
1 1 100 16 0.367658
2 1 100 16 0.245781
3 1 100 16 0.1568
4 1 100 16 0.168297
5 1 100 16 0.0612896
6 1 100 16 0.000165335
10 1 100 16 7.01683e-06
14 1 100 16 1.38691e-06
1 2 100 16 0.118513
2 2 100 16 0.118624
3 2 100 16 0.289044
4 2 100 16 0.236581
5 2 100 16 0.237231
6 2 100 16 6.76401e-06
2 3 100 16 0.00204179
4 3 100 16 0.095799
5 3 100 16 0.191622
6 3 100 16 0.194307
7 3 100 16 0.191592
8 3 100 16 0.0958128
9 3 100 16 0.0957791
10 3 100 16 0.095682
11 3 100 16 6.49458e-06
13 3 100 16 0.0373554
14 3 100 16 2.16781e-06
1 4 100 16 0.0901841
2 4 100 16 0.0958092
4 4 100 16 0.180471
6 4 100 16 0.000190856
7 4 100 16 4.23925e-05
8 4 100 16 0.090184
9 4 100 16 0.0921986
10 4 100 16 0.0901841
11 4 100 16 0.090184
14 4 100 16 0.0901841
15 4 100 16 0.0901841
16 4 100 16 0.0901841
2 5 100 16 7.97417e-05
5 5 100 16 0.00385656
6 5 100 16 0.520613
7 5 100 16 0.236929
8 5 100 16 0.23838
9 5 100 16 7.05678e-05
10 5 100 16 5.00221e-05
14 5 100 16 2.16356e-05
2 6 100 16 0.135251
3 6 100 16 0.144223
4 6 100 16 0.144223
5 6 100 16 5.17664e-06
6 6 100 16 0.000195237
8 6 100 16 1.15336e-05
9 6 100 16 0.144201
14 6 100 16 0.14266
15 6 100 16 0.144223
16 6 100 16 0.145008
2 7 100 16 3.77929e-05
6 7 100 16 0.228517
7 7 100 16 0.000311119
10 7 100 16 0.771134
4 8 100 16 0.0148864
5 8 100 16 0.0536443
7 8 100 16 0.0587703
8 8 100 16 0.0608771
9 8 100 16 0.116045
11 8 100 16 0.0552462
12 8 100 16 0.172124
13 8 100 16 0.117204
14 8 100 16 0.11718
15 8 100 16 0.11718
16 8 100 16 0.116842
1 9 100 16 0.0669521
2 9 100 16 0.0632747
6 9 100 16 0.0696934
7 9 100 16 0.0669521
8 9 100 16 0.1305
9 9 100 16 0.0669506
10 9 100 16 0.134167
11 9 100 16 0.1339
12 9 100 16 0.0669521
13 9 100 16 0.0669521
14 9 100 16 0.066754
16 9 100 16 0.0669521
2 10 100 16 2.09655e-06
5 10 100 16 1.08294e-05
9 10 100 16 0.00943327
10 10 100 16 0.247025
11 10 100 16 0.279966
12 10 100 16 0.27218
13 10 100 16 0.191383
1 11 100 16 0.302092
3 11 100 16 0.302092
4 11 100 16 0.302092
5 11 100 16 4.21322e-06
9 11 100 16 0.00367006
12 11 100 16 0.09005
2 12 100 16 3.77521e-06
4 12 100 16 2.2897e-06
5 12 100 16 0.173022
6 12 100 16 0.172983
7 12 100 16 0.171207
8 12 100 16 0.172943
9 12 100 16 0.207121
10 12 100 16 2.17106e-05
13 12 100 16 0.102697
6 13 100 16 0.0586881
7 13 100 16 0.0586895
8 13 100 16 0.117379
9 13 100 16 0.117379
10 13 100 16 0.176065
11 13 100 16 0.230338
12 13 100 16 0.0653832
13 13 100 16 0.0586895
14 13 100 16 8.55224e-07
15 13 100 16 0.0586988
16 13 100 16 0.0586895
12 14 100 16 0.114244
13 14 100 16 0.111411
14 14 100 16 0.331855
15 14 100 16 0.22122
16 14 100 16 0.221271
12 15 100 16 1
13 16 100 16 0.0019126
14 16 100 16 0.335122
15 16 100 16 0.331483
16 16 100 16 0.331483
7 17 100 16 0.0810969
9 17 100 16 0.138623
10 17 100 16 0.78028
1 18 100 16 0.00276237
2 18 100 16 4.58406e-07
6 18 100 16 0.000108628
9 18 100 16 3.0144e-07
10 18 100 16 9.74217e-06
11 18 100 16 0.00788979
12 18 100 16 0.146119
13 18 100 16 0.213598
14 18 100 16 0.202285
15 18 100 16 0.213614
16 18 100 16 0.213614
1 19 100 16 2.28313e-06
6 19 100 16 1.91508e-06
9 19 100 16 4.34531e-06
10 19 100 16 0.00245351
11 19 100 16 1.06519e-05
12 19 100 16 0.995481
16 19 100 16 0.00204669
6 20 100 16 0.000121332
10 20 100 16 1.37851e-05
13 20 100 16 0.999865
2 0 100 17 0.215863
3 0 100 17 0.0443756
5 0 100 17 0.0469992
6 0 100 17 0.140997
7 0 100 17 0.0322717
8 0 100 17 0.0752521
9 0 100 17 0.0469936
10 0 100 17 0.00929587
11 0 100 17 0.0469991
12 0 100 17 0.0918183
13 0 100 17 0.100512
14 0 100 17 0.0545999
15 0 100 17 4.9959e-05
16 0 100 17 0.0939725
1 1 100 17 0.534022
2 1 100 17 0.0895773
3 1 100 17 0.155979
4 1 100 17 0.140211
5 1 100 17 0.0786265
15 1 100 17 0.00158411
1 2 100 17 0.119699
2 2 100 17 0.242361
3 2 100 17 0.238368
4 2 100 17 0.159542
5 2 100 17 0.119699
6 2 100 17 0.120317
7 2 100 17 1.26225e-05
15 2 100 17 1.56431e-06
2 3 100 17 0.217953
3 3 100 17 0.203188
5 3 100 17 0.00103736
7 3 100 17 1.69071e-05
8 3 100 17 2.1539e-05
9 3 100 17 3.49506e-05
10 3 100 17 0.192583
11 3 100 17 0.192583
12 3 100 17 0.192583
1 4 100 17 0.094986
2 4 100 17 0.189979
3 4 100 17 0.189973
4 4 100 17 0.342689
5 4 100 17 0.0988321
6 4 100 17 0.0835028
8 4 100 17 1.35999e-06
9 4 100 17 2.29848e-05
12 4 100 17 7.42629e-06
15 4 100 17 5.9731e-06
3 5 100 17 0.000432674
4 5 100 17 1.16218e-05
5 5 100 17 0.196938
6 5 100 17 0.0984232
7 5 100 17 0.227528
8 5 100 17 0.178321
9 5 100 17 0.0984127
10 5 100 17 0.011469
13 5 100 17 1.70159e-05
14 5 100 17 0.0928443
15 5 100 17 0.095602
2 6 100 17 0.0142372
5 6 100 17 0.144521
7 6 100 17 0.00351442
8 6 100 17 0.142356
10 6 100 17 0.26821
11 6 100 17 0.142386
12 6 100 17 0.142386
14 6 100 17 0.142386
15 6 100 17 4.3336e-06
3 7 100 17 0.347635
4 7 100 17 0.303463
6 7 100 17 0.168959
9 7 100 17 0.174179
10 7 100 17 1.50939e-05
13 7 100 17 6.42152e-06
15 7 100 17 0.00574356
1 8 100 17 0.00197446
2 8 100 17 0.00127044
3 8 100 17 0.00354616
4 8 100 17 0.0382541
6 8 100 17 0.0218176
7 8 100 17 0.180471
8 8 100 17 0.214579
11 8 100 17 0.180468
12 8 100 17 0.180468
13 8 100 17 0.175641
14 8 100 17 1.94586e-06
15 8 100 17 0.0015076
5 9 100 17 0.0619512
6 9 100 17 0.0625276
7 9 100 17 0.123672
8 9 100 17 0.062528
9 9 100 17 0.187565
10 9 100 17 0.125055
11 9 100 17 0.12503
12 9 100 17 0.0625277
13 9 100 17 0.126727
14 9 100 17 0.062415
2 10 100 17 5.05055e-05
5 10 100 17 0.0181147
8 10 100 17 0.490862
11 10 100 17 9.7735e-05
16 10 100 17 0.245437
17 10 100 17 0.245437
6 11 100 17 0.00560669
7 11 100 17 0.449675
8 11 100 17 0.314186
9 11 100 17 0.225064
14 11 100 17 0.00546935
1 12 100 17 0.0772595
3 12 100 17 0.0772722
4 12 100 17 0.0140991
5 12 100 17 0.0706513
6 12 100 17 0.0772603
7 12 100 17 0.0772603
8 12 100 17 1.13025e-05
12 12 100 17 0.000550316
13 12 100 17 4.19541e-05
14 12 100 17 0.0673197
15 12 100 17 0.229233
16 12 100 17 0.154521
17 12 100 17 0.15452
2 13 100 17 2.19838e-05
9 13 100 17 0.250479
10 13 100 17 0.252431
11 13 100 17 0.248534
12 13 100 17 0.124267
16 13 100 17 0.124267
4 14 100 17 0.027099
5 14 100 17 0.107307
7 14 100 17 0.10799
8 14 100 17 0.107987
9 14 100 17 0.107991
10 14 100 17 0.104617
11 14 100 17 0.107991
12 14 100 17 0.112992
14 14 100 17 0.107991
15 14 100 17 0.107991
16 14 100 17 4.4845e-05
1 15 100 17 0.0131707
3 15 100 17 0.0736029
4 15 100 17 0.0735534
10 15 100 17 0.000644228
13 15 100 17 0.176792
14 15 100 17 0.14718
15 15 100 17 0.147107
16 15 100 17 0.14718
17 15 100 17 0.22077
4 16 100 17 0.000547339
5 16 100 17 0.0276508
8 16 100 17 0.000393695
9 16 100 17 0.320331
10 16 100 17 0.325461
15 16 100 17 3.71017e-05
16 16 100 17 4.40688e-05
17 16 100 17 0.325535
10 17 100 17 0.138817
11 17 100 17 0.163071
12 17 100 17 0.162636
13 17 100 17 0.210203
14 17 100 17 0.162636
15 17 100 17 0.081318
17 17 100 17 0.0813179
1 18 100 17 0.111837
2 18 100 17 0.111837
10 18 100 17 0.00963851
11 18 100 17 0.111238
12 18 100 17 0.111837
13 18 100 17 0.0962657
14 18 100 17 0.111836
15 18 100 17 0.111837
16 18 100 17 0.111837
17 18 100 17 0.111837
1 19 100 17 0.112274
2 19 100 17 9.43607e-05
3 19 100 17 4.6494e-07
4 19 100 17 0.198293
5 19 100 17 0.116199
6 19 100 17 0.202482
7 19 100 17 0.0323224
8 19 100 17 0.00127946
9 19 100 17 8.6553e-06
10 19 100 17 2.92719e-07
11 19 100 17 1.56585e-05
12 19 100 17 5.32661e-06
13 19 100 17 8.68856e-05
14 19 100 17 0.00107621
15 19 100 17 0.111149
16 19 100 17 0.112364
17 19 100 17 0.112349
2 20 100 17 8.64891e-06
3 20 100 17 0.00025845
4 20 100 17 1.4322e-05
5 20 100 17 0.470975
6 20 100 17 0.525441
7 20 100 17 0.00013637
8 20 100 17 4.804e-05
9 20 100 17 2.23322e-05
10 20 100 17 0.000193825
12 20 100 17 4.42133e-05
13 20 100 17 0.000405494
14 20 100 17 0.00245054
15 20 100 17 1.21836e-06
2 21 100 17 0.0463565
4 21 100 17 9.47827e-05
5 21 100 17 0.000180149
6 21 100 17 0.000152117
7 21 100 17 0.946404
8 21 100 17 0.00368564
10 21 100 17 0.000602953
11 21 100 17 0.000192277
12 21 100 17 2.47383e-05
13 21 100 17 0.00225998
15 21 100 17 4.64857e-05
2 22 100 17 0.00571758
3 22 100 17 0.660085
4 22 100 17 0.0179283
11 22 100 17 0.0132057
14 22 100 17 0.00129439
15 22 100 17 0.301769
4 23 100 17 3.93238e-06
5 23 100 17 0.000459462
6 23 100 17 0.0215144
7 23 100 17 0.205719
8 23 100 17 0.19337
9 23 100 17 0.193006
10 23 100 17 0.193125
11 23 100 17 1.15851e-05
12 23 100 17 0.190721
13 23 100 17 0.00205119
14 23 100 17 6.03796e-06
15 23 100 17 1.23539e-05
16 23 100 17 2.2715e-07
2 24 100 17 0.000225401
4 24 100 17 2.63087e-07
5 24 100 17 1.52017e-05
6 24 100 17 7.90633e-06
7 24 100 17 1.09548e-06
8 24 100 17 8.61121e-06
9 24 100 17 5.69744e-06
10 24 100 17 2.26663e-05
11 24 100 17 1.47702e-06
12 24 100 17 0.00175551
13 24 100 17 0.198176
14 24 100 17 0.200056
15 24 100 17 0.19961
16 24 100 17 0.200052
17 24 100 17 0.200063
13 25 100 17 1
2 26 100 17 0.0295234
14 26 100 17 0.970477
14 27 100 17 1
2 28 100 17 0.000109194
3 28 100 17 0.00385876
14 28 100 17 0.996032
1 29 100 17 0.000387325
11 29 100 17 3.55865e-07
13 29 100 17 0.00370028
14 29 100 17 5.70124e-06
15 29 100 17 0.3319
16 29 100 17 0.332003
17 29 100 17 0.332003
3 0 100 18 0.140731
4 0 100 18 0.127936
5 0 100 18 0.0856583
6 0 100 18 0.000248443
8 0 100 18 0.100823
10 0 100 18 0.0538807
11 0 100 18 0.144253
12 0 100 18 0.00452828
14 0 100 18 0.14266
15 0 100 18 0.0522639
16 0 100 18 0.0952649
17 0 100 18 0.0517536
1 1 100 18 0.435489
2 1 100 18 0.241531
3 1 100 18 0.213689
4 1 100 18 0.109287
14 1 100 18 4.39392e-06
2 2 100 18 0.179054
4 2 100 18 0.105115
5 2 100 18 0.21373
6 2 100 18 0.201013
7 2 100 18 0.200582
8 2 100 18 0.100507
3 3 100 18 0.00645511
4 3 100 18 0.956819
8 3 100 18 0.0322441
10 3 100 18 0.003499
11 3 100 18 0.00046429
12 3 100 18 0.000519038
3 4 100 18 0.108811
4 4 100 18 0.122991
5 4 100 18 0.138988
6 4 100 18 0.203336
7 4 100 18 0.105903
9 4 100 18 2.81518e-06
10 4 100 18 0.00222737
11 4 100 18 0.105903
12 4 100 18 0.105903
13 4 100 18 0.105903
14 4 100 18 2.8498e-05
16 4 100 18 4.23833e-06
3 5 100 18 0.404984
4 5 100 18 0.357501
6 5 100 18 0.236885
16 5 100 18 0.000630581
1 6 100 18 0.0929515
2 6 100 18 0.0929515
5 6 100 18 0.0947958
6 6 100 18 0.0929515
7 6 100 18 0.0933329
8 6 100 18 0.14892
9 6 100 18 0.19865
10 6 100 18 0.185447
3 7 100 18 0.0190982
4 7 100 18 8.61738e-05
5 7 100 18 0.107998
6 7 100 18 0.108751
7 7 100 18 0.217503
8 7 100 18 0.22312
9 7 100 18 0.214652
10 7 100 18 0.108782
16 7 100 18 9.1824e-06
3 8 100 18 0.011822
5 8 100 18 5.07591e-05
6 8 100 18 0.0003721
9 8 100 18 0.403109
10 8 100 18 0.27517
11 8 100 18 0.144982
12 8 100 18 0.163001
13 8 100 18 0.00149234
3 9 100 18 0.00626815
5 9 100 18 1.12601e-05
6 9 100 18 4.04223e-06
9 9 100 18 0.48297
10 9 100 18 0.468462
11 9 100 18 0.0422854
4 10 100 18 0.112104
5 10 100 18 0.220207
6 10 100 18 0.232073
7 10 100 18 0.232699
8 10 100 18 0.158946
9 10 100 18 2.07452e-05
10 10 100 18 0.00246319
11 10 100 18 7.10513e-05
12 10 100 18 0.0413985
14 10 100 18 1.63536e-05
16 10 100 18 1.2672e-06
8 11 100 18 3.00877e-05
11 11 100 18 0.139435
12 11 100 18 0.32577
13 11 100 18 0.270793
14 11 100 18 0.263972
1 12 100 18 0.0984112
2 12 100 18 0.0984113
3 12 100 18 0.196711
4 12 100 18 0.204308
5 12 100 18 0.0984112
6 12 100 18 0.099457
7 12 100 18 0.0984302
8 12 100 18 0.0984113
12 12 100 18 0.00261756
14 12 100 18 0.00482446
16 12 100 18 1.15836e-06
17 12 100 18 5.59621e-06
4 13 100 18 0.0180237
6 13 100 18 0.000218918
11 13 100 18 0.0980428
12 13 100 18 0.0980516
13 13 100 18 0.293111
14 13 100 18 0.196072
15 13 100 18 0.100355
16 13 100 18 0.0980823
18 13 100 18 0.0980427
4 14 100 18 0.00011184
5 14 100 18 5.89222e-06
6 14 100 18 0.00737471
11 14 100 18 0.479553
12 14 100 18 0.479553
14 14 100 18 0.033298
15 14 100 18 0.00010369
4 15 100 18 1.826e-05
6 15 100 18 0.0692037
13 15 100 18 0.0715213
14 15 100 18 0.000991735
15 15 100 18 0.214564
16 15 100 18 0.214571
17 15 100 18 0.214565
18 15 100 18 0.214564
7 16 100 18 0.191092
8 16 100 18 0.191092
9 16 100 18 0.191092
10 16 100 18 0.191092
14 16 100 18 0.0307913
15 16 100 18 0.186587
16 16 100 18 0.0182534
6 17 100 18 0.000515119
9 17 100 18 0.00642517
10 17 100 18 0.24516
12 17 100 18 0.24516
13 17 100 18 0.24516
14 17 100 18 0.24516
16 17 100 18 0.0124187
11 18 100 18 0.497877
12 18 100 18 0.497685
16 18 100 18 0.00442248
17 18 100 18 1.54419e-05
1 19 100 18 0.0526562
2 19 100 18 0.0526562
3 19 100 18 5.94666e-05
6 19 100 18 2.50905e-06
10 19 100 18 9.0602e-06
11 19 100 18 0.0526562
12 19 100 18 0.0526562
13 19 100 18 0.052656
14 19 100 18 0.0526562
15 19 100 18 0.104781
16 19 100 18 0.157968
17 19 100 18 0.210619
18 19 100 18 0.210625
1 20 100 18 0.233725
2 20 100 18 0.233725
3 20 100 18 0.149902
4 20 100 18 0.0686228
5 20 100 18 0.00032237
6 20 100 18 2.44998e-06
8 20 100 18 1.2181e-07
9 20 100 18 2.22168e-05
11 20 100 18 2.8978e-05
12 20 100 18 4.53964e-06
13 20 100 18 0.000120736
14 20 100 18 0.000212029
15 20 100 18 0.0775272
16 20 100 18 0.0797336
17 20 100 18 0.0779206
18 20 100 18 0.07813
4 21 100 18 0.0789675
15 21 100 18 5.12528e-05
16 21 100 18 0.920981
16 22 100 18 1
4 23 100 18 6.00604e-07
5 23 100 18 1.78543e-06
6 23 100 18 4.97971e-07
7 23 100 18 1.67737e-06
8 23 100 18 3.8308e-07
9 23 100 18 7.5382e-07
10 23 100 18 1.50327e-06
11 23 100 18 0.00245377
12 23 100 18 0.050603
13 23 100 18 0.18838
14 23 100 18 0.18899
15 23 100 18 0.189376
16 23 100 18 0.00157503
17 23 100 18 0.18938
18 23 100 18 0.189234
6 24 100 18 0.367492
16 24 100 18 0.632508
16 25 100 18 0.0217938
18 25 100 18 0.978206
2 0 100 19 0.0597229
3 0 100 19 0.0728702
5 0 100 19 0.000769016
7 0 100 19 0.210499
9 0 100 19 0.072506
10 0 100 19 0.0164384
11 0 100 19 0.097824
12 0 100 19 0.0728786
14 0 100 19 0.123553
15 0 100 19 0.0428132
16 0 100 19 0.0843811
18 0 100 19 0.145745
1 1 100 19 0.317028
2 1 100 19 0.335113
3 1 100 19 0.317062
4 1 100 19 0.000240029
14 1 100 19 0.0305422
15 1 100 19 1.46451e-05
2 2 100 19 0.00266035
3 2 100 19 0.124562
8 2 100 19 0.872778
4 3 100 19 2.44034e-06
8 3 100 19 0.166686
9 3 100 19 0.166687
10 3 100 19 0.166687
12 3 100 19 0.166687
13 3 100 19 0.166569
14 3 100 19 0.166681
1 4 100 19 0.28641
2 4 100 19 0.286408
3 4 100 19 0.427101
11 4 100 19 8.0275e-06
15 4 100 19 7.32304e-05
2 5 100 19 0.0110026
4 5 100 19 0.385736
5 5 100 19 0.381853
6 5 100 19 0.202773
9 5 100 19 5.69368e-05
14 5 100 19 0.0185783
1 6 100 19 0.114128
2 6 100 19 0.114128
3 6 100 19 0.00061187
4 6 100 19 0.0912633
5 6 100 19 0.00109393
6 6 100 19 0.10802
7 6 100 19 0.114128
10 6 100 19 2.97439e-06
11 6 100 19 3.77703e-06
13 6 100 19 7.89172e-05
15 6 100 19 3.02818e-05
16 6 100 19 0.114127
17 6 100 19 0.114128
18 6 100 19 0.114128
19 6 100 19 0.114128
4 7 100 19 0.251885
5 7 100 19 0.248876
6 7 100 19 0.12519
8 7 100 19 0.123929
9 7 100 19 0.124438
10 7 100 19 0.124438
11 7 100 19 0.00114586
18 7 100 19 9.70327e-05
7 8 100 19 2.43078e-05
11 8 100 19 3.10122e-05
15 8 100 19 5.053e-05
17 8 100 19 0.553698
19 8 100 19 0.446196
2 9 100 19 0.36819
7 9 100 19 0.00486105
9 9 100 19 0.00466185
12 9 100 19 0.000583988
14 9 100 19 0.621703
2 10 100 19 0.00106091
3 10 100 19 0.0012937
4 10 100 19 0.0224291
6 10 100 19 0.212321
8 10 100 19 0.114439
9 10 100 19 0.108705
10 10 100 19 0.107377
11 10 100 19 8.5058e-05
14 10 100 19 0.00179138
15 10 100 19 0.104379
16 10 100 19 0.108714
17 10 100 19 0.108702
19 10 100 19 0.108704
7 11 100 19 0.00278773
14 11 100 19 0.914677
17 11 100 19 0.0825351
7 12 100 19 0.151185
11 12 100 19 0.847189
12 12 100 19 0.000517482
15 12 100 19 0.000664781
18 12 100 19 0.000443421
1 13 100 19 0.000215386
5 13 100 19 0.111165
6 13 100 19 0.115697
7 13 100 19 0.22233
8 13 100 19 0.327632
9 13 100 19 0.22225
11 13 100 19 0.00070006
15 13 100 19 9.52946e-06
3 14 100 19 1.13775e-05
6 14 100 19 0.000135654
10 14 100 19 0.118625
11 14 100 19 0.18938
12 14 100 19 0.188228
13 14 100 19 0.188228
14 14 100 19 0.122372
15 14 100 19 0.150051
16 14 100 19 0.0428645
17 14 100 19 0.000102769
9 15 100 19 0.00245588
10 15 100 19 0.000362739
15 15 100 19 0.458653
16 15 100 19 0.538529
1 16 100 19 0.0615489
3 16 100 19 0.061549
12 16 100 19 0.0615491
13 16 100 19 0.0615491
14 16 100 19 0.0615513
15 16 100 19 0.0651884
16 16 100 19 0.0615491
17 16 100 19 0.184271
18 16 100 19 0.184647
19 16 100 19 0.196597
4 17 100 19 0.492145
5 17 100 19 0.507855
2 18 100 19 0.126873
3 18 100 19 0.126873
4 18 100 19 0.126871
5 18 100 19 0.126873
10 18 100 19 0.111942
11 18 100 19 0.126849
13 18 100 19 0.12687
14 18 100 19 0.126849
10 19 100 19 0.012389
15 19 100 19 0.987577
17 19 100 19 3.43109e-05
1 20 100 19 0.50967
6 20 100 19 0.49033
2 21 100 19 1.09927e-05
3 21 100 19 0.000418893
4 21 100 19 4.40675e-05
5 21 100 19 7.79999e-06
6 21 100 19 3.88496e-05
7 21 100 19 1.47079e-05
8 21 100 19 1.17149e-06
9 21 100 19 0.00341203
10 21 100 19 0.236993
11 21 100 19 0.249566
12 21 100 19 0.00495463
13 21 100 19 0.248183
14 21 100 19 0.245438
15 21 100 19 0.0108996
16 21 100 19 1.38819e-05
17 21 100 19 3.23388e-06
18 21 100 19 5.90413e-07
1 22 100 19 0.0738743
2 22 100 19 0.0738726
3 22 100 19 0.0186438
4 22 100 19 9.26372e-06
5 22 100 19 0.000111239
6 22 100 19 0.0582417
7 22 100 19 0.0738582
8 22 100 19 0.0738666
9 22 100 19 0.0738648
10 22 100 19 0.0738614
11 22 100 19 0.073849
12 22 100 19 0.0737996
13 22 100 19 0.014022
14 22 100 19 0.000423298
15 22 100 19 0.0222217
16 22 100 19 0.0738625
17 22 100 19 0.0738721
18 22 100 19 0.0738765
19 22 100 19 0.0738692
1 23 100 19 6.85014e-05
3 23 100 19 4.00967e-06
4 23 100 19 5.66796e-06
5 23 100 19 3.51658e-05
6 23 100 19 0.00232891
7 23 100 19 0.00747079
8 23 100 19 0.000137324
9 23 100 19 0.000182824
10 23 100 19 0.000239429
11 23 100 19 0.000300307
12 23 100 19 0.00035147
13 23 100 19 0.988148
14 23 100 19 7.58907e-05
15 23 100 19 5.89308e-05
16 23 100 19 0.00011005
17 23 100 19 3.04037e-06
18 23 100 19 2.90404e-06
19 23 100 19 0.000477067
3 24 100 19 3.98681e-05
7 24 100 19 0.00475997
11 24 100 19 0.0577062
14 24 100 19 0.00111191
15 24 100 19 0.936382
19 25 100 19 1
2 0 100 20 0.00217467
4 0 100 20 0.0169798
5 0 100 20 0.0714071
6 0 100 20 0.142462
7 0 100 20 0.0711171
9 0 100 20 0.138805
11 0 100 20 0.0714587
12 0 100 20 0.0712508
13 0 100 20 6.05951e-06
14 0 100 20 0.213649
15 0 100 20 0.0515696
16 0 100 20 0.0714096
17 0 100 20 0.00658985
18 0 100 20 2.70853e-06
19 0 100 20 0.0711186
1 1 100 20 0.333063
2 1 100 20 0.33305
3 1 100 20 0.333063
6 1 100 20 0.000732843
7 1 100 20 8.51719e-05
17 1 100 20 6.99586e-06
1 2 100 20 0.167818
2 2 100 20 0.163304
3 2 100 20 3.97803e-05
4 2 100 20 0.167818
5 2 100 20 0.167847
6 2 100 20 0.167818
7 2 100 20 0.165328
15 2 100 20 1.03641e-05
16 2 100 20 1.75143e-05
7 3 100 20 0.151943
11 3 100 20 0.304681
17 3 100 20 0.0294802
18 3 100 20 0.513896
2 4 100 20 0.00054273
3 4 100 20 0.936262
7 4 100 20 0.020517
17 4 100 20 0.0426785
2 5 100 20 4.2588e-06
3 5 100 20 0.108299
4 5 100 20 0.111404
5 5 100 20 0.111404
6 5 100 20 0.111645
8 5 100 20 0.111404
13 5 100 20 0.111404
15 5 100 20 0.111404
16 5 100 20 0.111626
17 5 100 20 0.111404
3 6 100 20 1
7 7 100 20 0.408274
8 7 100 20 0.246471
9 7 100 20 0.203722
10 7 100 20 0.141494
17 7 100 20 3.78395e-05
2 8 100 20 0.000788662
9 8 100 20 0.300043
10 8 100 20 0.391862
11 8 100 20 0.307241
16 8 100 20 1.19798e-05
18 8 100 20 5.35636e-05
9 9 100 20 0.224397
13 9 100 20 0.142495
17 9 100 20 0.57402
18 9 100 20 0.059088
3 10 100 20 0.108922
6 10 100 20 5.81404e-06
12 10 100 20 0.30689
13 10 100 20 0.264982
15 10 100 20 0.151433
16 10 100 20 0.15086
17 10 100 20 4.45757e-05
19 10 100 20 0.0168641
4 11 100 20 0.0673875
7 11 100 20 2.62893e-05
8 11 100 20 0.0921787
9 11 100 20 0.116617
10 11 100 20 0.116536
11 11 100 20 0.113145
13 11 100 20 0.028773
14 11 100 20 0.117286
15 11 100 20 0.116616
16 11 100 20 0.116617
17 11 100 20 0.114085
18 11 100 20 0.00034667
19 11 100 20 0.000384744
4 12 100 20 0.013874
5 12 100 20 0.0765658
6 12 100 20 0.0765659
7 12 100 20 0.077044
8 12 100 20 0.152884
9 12 100 20 0.0765659
10 12 100 20 0.0765659
11 12 100 20 0.0765659
12 12 100 20 0.0737475
14 12 100 20 6.14301e-06
16 12 100 20 0.000137748
17 12 100 20 0.0697729
18 12 100 20 0.0765659
19 12 100 20 0.0765728
20 12 100 20 0.0765659
4 13 100 20 6.17928e-05
9 13 100 20 0.0535597
12 13 100 20 0.946379
5 14 100 20 0.110586
6 14 100 20 0.110804
7 14 100 20 0.110586
8 14 100 20 0.110586
10 14 100 20 0.110586
11 14 100 20 0.110586
12 14 100 20 0.110769
13 14 100 20 0.110593
15 14 100 20 0.110586
17 14 100 20 0.00426717
18 14 100 20 8.08397e-06
19 14 100 20 4.24172e-05
1 15 100 20 0.061652
2 15 100 20 0.0612714
3 15 100 20 0.0601056
4 15 100 20 0.061652
8 15 100 20 0.000182594
9 15 100 20 2.38123e-05
10 15 100 20 0.0616522
11 15 100 20 0.0616522
12 15 100 20 0.000237255
13 15 100 20 0.0835572
14 15 100 20 0.0616522
15 15 100 20 0.0616522
16 15 100 20 0.0616905
18 15 100 20 0.123302
19 15 100 20 0.116413
20 15 100 20 0.123304
1 16 100 20 0.323078
2 16 100 20 0.323078
3 16 100 20 0.0308482
4 16 100 20 0.161539
17 16 100 20 0.161445
18 16 100 20 1.18087e-05
4 17 100 20 0.000903071
9 17 100 20 5.04033e-06
12 17 100 20 0.276886
13 17 100 20 0.443721
14 17 100 20 0.27809
16 17 100 20 8.10933e-06
19 17 100 20 0.000387581
5 18 100 20 0.000427895
11 18 100 20 0.00489427
15 18 100 20 0.217502
18 18 100 20 0.777176
1 19 100 20 0.143341
2 19 100 20 0.143341
16 19 100 20 0.143324
17 19 100 20 0.283313
18 19 100 20 0.143341
20 19 100 20 0.143341
3 20 100 20 0.249531
4 20 100 20 0.249531
5 20 100 20 0.249532
7 20 100 20 0.251406
8 21 100 20 0.250126
9 21 100 20 0.250126
10 21 100 20 0.250126
11 21 100 20 0.249621
1 22 100 20 0.120793
2 22 100 20 0.120791
3 22 100 20 0.120745
4 22 100 20 0.120676
5 22 100 20 0.120556
6 22 100 20 0.120051
7 22 100 20 0.000567046
9 22 100 20 4.28214e-06
11 22 100 20 2.39461e-05
12 22 100 20 3.08173e-05
13 22 100 20 0.000638355
15 22 100 20 1.27189e-05
16 22 100 20 4.85745e-07
17 22 100 20 9.53726e-05
18 22 100 20 0.0334148
19 22 100 20 0.1208
20 22 100 20 0.120799
1 23 100 20 1.15482e-05
2 23 100 20 8.05735e-07
3 23 100 20 9.99499e-07
4 23 100 20 1.48934e-05
5 23 100 20 3.02999e-07
8 23 100 20 1.37635e-07
12 23 100 20 0.00649048
13 23 100 20 0.0713427
14 23 100 20 0.131839
15 23 100 20 0.131874
16 23 100 20 0.131872
17 23 100 20 0.129912
18 23 100 20 0.132872
19 23 100 20 0.131885
20 23 100 20 0.131884
12 24 100 20 7.58409e-07
13 24 100 20 7.45274e-06
14 24 100 20 1.34796e-06
15 24 100 20 3.32418e-06
16 24 100 20 9.4522e-06
17 24 100 20 0.0048421
18 24 100 20 0.322653
19 24 100 20 0.336239
20 24 100 20 0.336244
3 0 100 21 0.172115
4 0 100 21 0.000422266
6 0 100 21 0.212276
7 0 100 21 0.0361287
8 0 100 21 0.046073
9 0 100 21 1.12498e-06
12 0 100 21 0.0855573
13 0 100 21 0.0898592
14 0 100 21 0.0444182
15 0 100 21 0.0480709
16 0 100 21 0.130315
17 0 100 21 0.0897756
18 0 100 21 0.0449362
19 0 100 21 5.18711e-05
1 1 100 21 0.578429
2 1 100 21 0.385513
6 1 100 21 0.000106412
7 1 100 21 0.0359087
12 1 100 21 4.36156e-05
1 2 100 21 0.0112055
3 2 100 21 0.00024988
6 2 100 21 0.0112261
8 2 100 21 0.1889
9 2 100 21 0.188832
10 2 100 21 0.188832
11 2 100 21 0.188832
12 2 100 21 0.188832
13 2 100 21 0.000189702
14 2 100 21 0.0328902
16 2 100 21 5.40485e-06
17 2 100 21 5.75838e-06
1 3 100 21 0.234255
2 3 100 21 0.278907
3 3 100 21 0.0103183
4 3 100 21 0.238165
5 3 100 21 0.238165
6 3 100 21 0.000131444
8 3 100 21 4.47656e-06
12 3 100 21 5.38753e-05
1 4 100 21 0.0523663
2 4 100 21 0.0523663
3 4 100 21 0.00656954
4 4 100 21 0.0502671
5 4 100 21 0.0523663
7 4 100 21 0.0527387
8 4 100 21 0.00135157
9 4 100 21 0.104716
10 4 100 21 0.104728
11 4 100 21 0.104733
12 4 100 21 0.0523658
13 4 100 21 0.103659
14 4 100 21 0.0523402
18 4 100 21 0.0523663
19 4 100 21 0.0523337
20 4 100 21 0.0523663
21 4 100 21 0.0523663
2 5 100 21 0.0752161
3 5 100 21 0.0907384
4 5 100 21 0.182344
5 5 100 21 0.0907542
7 5 100 21 0.181414
8 5 100 21 0.109738
9 5 100 21 0.0907384
10 5 100 21 0.0907384
11 5 100 21 0.0875603
14 5 100 21 0.000758658
4 6 100 21 0.0909231
5 6 100 21 0.275248
6 6 100 21 0.0916003
7 6 100 21 0.266714
8 6 100 21 0.0917494
9 6 100 21 0.0917549
10 6 100 21 0.0917548
14 6 100 21 0.000233821
17 6 100 21 2.21138e-05
2 7 100 21 0.000132393
3 7 100 21 7.38279e-06
4 7 100 21 0.000174888
6 7 100 21 0.72466
11 7 100 21 0.215167
12 7 100 21 0.000346399
13 7 100 21 3.04052e-05
16 7 100 21 0.0594809
1 8 100 21 0.38794
2 8 100 21 0.198547
3 8 100 21 0.198225
4 8 100 21 0.206171
6 8 100 21 3.73901e-05
8 8 100 21 0.00907913
6 9 100 21 9.71944e-06
11 9 100 21 0.00962016
14 9 100 21 0.226828
15 9 100 21 0.488796
17 9 100 21 0.274746
7 10 100 21 0.104637
8 10 100 21 0.261864
9 10 100 21 0.0954712
10 10 100 21 0.095456
11 10 100 21 0.156561
12 10 100 21 0.0954567
13 10 100 21 0.0954567
14 10 100 21 0.0950243
16 10 100 21 7.35513e-05
12 11 100 21 0.207703
13 11 100 21 0.207834
14 11 100 21 0.20742
16 11 100 21 0.207703
17 11 100 21 0.169304
18 11 100 21 3.5737e-05
6 12 100 21 0.00258133
7 12 100 21 0.000199091
9 12 100 21 0.472512
10 12 100 21 0.47162
12 12 100 21 0.0439762
13 12 100 21 0.00910208
16 12 100 21 9.42399e-06
2 13 100 21 0.199902
3 13 100 21 0.200317
4 13 100 21 0.19819
12 13 100 21 3.85281e-05
13 13 100 21 0.200271
14 13 100 21 0.20128
17 13 100 21 2.05547e-06
15 14 100 21 0.624256
17 14 100 21 0.375717
20 14 100 21 2.72718e-05
5 15 100 21 0.126552
6 15 100 21 0.126574
15 15 100 21 0.359872
16 15 100 21 0.253104
17 15 100 21 0.126724
18 15 100 21 0.00717499
7 16 100 21 1.2508e-05
8 16 100 21 3.22598e-06
11 16 100 21 0.247951
12 16 100 21 0.24792
14 16 100 21 0.24792
15 16 100 21 0.24792
16 16 100 21 0.00139532
18 16 100 21 0.00687807
6 17 100 21 0.000110226
12 17 100 21 0.00038002
13 17 100 21 3.50041e-05
17 17 100 21 0.249922
19 17 100 21 0.249851
20 17 100 21 0.249851
21 17 100 21 0.249851
4 18 100 21 0.00850659
6 18 100 21 0.00182626
8 18 100 21 0.885346
9 18 100 21 0.00669932
12 18 100 21 0.0105996
14 18 100 21 0.0870222
7 19 100 21 2.00656e-06
9 19 100 21 1.41976e-05
10 19 100 21 4.95091e-06
11 19 100 21 9.41788e-07
12 19 100 21 9.26206e-07
16 19 100 21 1.2058e-06
17 19 100 21 0.0591172
18 19 100 21 0.231479
19 19 100 21 0.236439
20 19 100 21 0.236471
21 19 100 21 0.236471
1 20 100 21 0.199972
2 20 100 21 0.200083
3 20 100 21 0.199996
4 20 100 21 0.199972
5 20 100 21 0.199972
10 20 100 21 3.70644e-06
6 21 100 21 5.90269e-06
16 21 100 21 0.165905
17 21 100 21 0.166856
18 21 100 21 0.166808
19 21 100 21 0.166809
20 21 100 21 0.166809
21 21 100 21 0.166809
8 22 100 21 0.48228
9 22 100 21 0.51772
7 23 100 21 4.66753e-06
9 23 100 21 5.78086e-05
10 23 100 21 0.136158
11 23 100 21 0.144293
12 23 100 21 0.144292
13 23 100 21 0.144291
14 23 100 21 0.144288
15 23 100 21 0.144204
16 23 100 21 0.141417
17 23 100 21 6.92193e-05
18 23 100 21 0.000921633
19 23 100 21 3.66078e-06
20 23 100 21 5.81736e-07
7 24 100 21 5.13579e-07
10 24 100 21 1.71453e-05
11 24 100 21 3.51638e-06
12 24 100 21 5.22712e-06
13 24 100 21 7.90871e-06
14 24 100 21 1.17466e-05
15 24 100 21 1.80069e-05
16 24 100 21 0.00365466
17 24 100 21 0.000173812
18 24 100 21 0.247757
19 24 100 21 0.249447
20 24 100 21 0.249448
21 24 100 21 0.249455
2 0 100 22 0.0471452
4 0 100 22 0.0471083
5 0 100 22 0.184923
6 0 100 22 0.0471452
7 0 100 22 0.0351671
9 0 100 22 0.136735
10 0 100 22 0.0471439
12 0 100 22 0.0488979
14 0 100 22 0.101801
15 0 100 22 0.0902375
16 0 100 22 0.0471191
17 0 100 22 0.0523593
18 0 100 22 0.041529
19 0 100 22 0.00275121
20 0 100 22 0.0699375
1 1 100 22 0.272727
6 1 100 22 0.0909091
7 1 100 22 0.0909091
8 1 100 22 0.0909091
9 1 100 22 0.0909091
10 1 100 22 0.0909091
11 1 100 22 0.0909091
12 1 100 22 0.0909091
13 1 100 22 0.0909091
1 2 100 22 0.0756655
2 2 100 22 0.151551
3 2 100 22 0.0910128
4 2 100 22 0.0764115
7 2 100 22 3.50018e-05
10 2 100 22 0.0756655
11 2 100 22 0.0756655
12 2 100 22 0.0756655
13 2 100 22 0.0756655
14 2 100 22 0.0756655
16 2 100 22 0.0756655
17 2 100 22 0.0756655
18 2 100 22 0.0756655
1 3 100 22 0.12112
2 3 100 22 0.242246
3 3 100 22 0.235262
4 3 100 22 0.121126
5 3 100 22 0.230955
6 3 100 22 0.0410544
11 3 100 22 5.67877e-06
15 3 100 22 0.00822988
3 4 100 22 0.289071
5 4 100 22 0.0254908
6 4 100 22 0.338778
12 4 100 22 0.00724736
19 4 100 22 0.339413
4 5 100 22 0.00010106
6 5 100 22 0.872832
7 5 100 22 0.00250977
9 5 100 22 0.00975123
12 5 100 22 3.52741e-05
16 5 100 22 0.000138209
17 5 100 22 8.70669e-06
20 5 100 22 0.114623
1 6 100 22 0.0998267
3 6 100 22 0.0998268
4 6 100 22 0.0998268
6 6 100 22 0.0998268
7 6 100 22 0.199655
8 6 100 22 0.199653
9 6 100 22 0.0998267
10 6 100 22 0.0998267
11 6 100 22 1.51418e-06
12 6 100 22 0.00169199
16 6 100 22 2.91108e-05
18 6 100 22 1.3532e-06
19 6 100 22 6.71981e-06
2 7 100 22 0.103024
3 7 100 22 0.104548
4 7 100 22 0.174216
5 7 100 22 0.103122
6 7 100 22 0.103035
11 7 100 22 1.91201e-05
13 7 100 22 0.102979
14 7 100 22 0.103014
15 7 100 22 0.103024
16 7 100 22 0.103019
1 8 100 22 0.323946
2 8 100 22 0.323003
7 8 100 22 0.234219
9 8 100 22 0.0170213
12 8 100 22 0.000126639
14 8 100 22 0.00522192
19 8 100 22 2.70368e-05
20 8 100 22 0.0964358
3 9 100 22 0.915142
5 9 100 22 0.000166471
7 9 100 22 0.0834148
9 9 100 22 0.000415514
11 9 100 22 5.71503e-05
13 9 100 22 0.000407203
14 9 100 22 8.80961e-05
17 9 100 22 0.000252955
20 9 100 22 5.57476e-05
4 10 100 22 0.0516217
5 10 100 22 0.188893
6 10 100 22 0.172595
7 10 100 22 0.241691
20 10 100 22 1.07583e-05
21 10 100 22 0.172595
22 10 100 22 0.172595
7 11 100 22 0.00184367
8 11 100 22 0.118605
9 11 100 22 0.118605
10 11 100 22 0.119042
11 11 100 22 0.237207
12 11 100 22 0.118605
13 11 100 22 0.118605
14 11 100 22 0.16749
1 12 100 22 2.56394e-06
4 12 100 22 5.72739e-06
8 12 100 22 0.0956695
9 12 100 22 0.0956695
10 12 100 22 0.0956695
12 12 100 22 0.0905526
13 12 100 22 0.0956197
14 12 100 22 0.0956695
15 12 100 22 0.0956695
17 12 100 22 0.0950376
18 12 100 22 0.0773494
19 12 100 22 0.0928751
20 12 100 22 0.0702098
14 13 100 22 1.61435e-05
15 13 100 22 0.423599
16 13 100 22 0.282048
17 13 100 22 0.145727
18 13 100 22 0.14861
3 14 100 22 2.08573e-05
4 14 100 22 4.55638e-05
7 14 100 22 0.0771795
8 14 100 22 0.0771795
9 14 100 22 0.00210009
10 14 100 22 0.0592554
11 14 100 22 0.0771586
12 14 100 22 0.075382
13 14 100 22 0.0771795
15 14 100 22 0.0771793
16 14 100 22 0.0791424
17 14 100 22 0.0876684
19 14 100 22 0.0789702
20 14 100 22 0.0771795
21 14 100 22 0.0771795
22 14 100 22 0.0771795
15 15 100 22 0.0933624
16 15 100 22 0.0215068
17 15 100 22 0.820309
18 15 100 22 0.0648223
12 16 100 22 0.000384181
18 16 100 22 0.513989
19 16 100 22 0.4856
20 16 100 22 2.6655e-05
12 17 100 22 1.04171e-05
15 17 100 22 3.02472e-05
16 17 100 22 0.229331
17 17 100 22 0.230636
18 17 100 22 0.268044
19 17 100 22 0.271948
1 18 100 22 0.136497
2 18 100 22 0.136497
3 18 100 22 0.136497
4 18 100 22 0.136497
13 18 100 22 7.09656e-05
18 18 100 22 0.00812288
20 18 100 22 0.172822
21 18 100 22 0.136497
22 18 100 22 0.136497
18 19 100 22 2.31665e-05
20 19 100 22 2.59294e-05
21 19 100 22 0.499975
22 19 100 22 0.499975
4 20 100 22 0.160563
5 20 100 22 0.160573
7 20 100 22 0.160911
8 20 100 22 0.160573
10 20 100 22 0.196686
11 20 100 22 0.160573
20 20 100 22 6.49315e-05
21 20 100 22 5.49019e-05
4 21 100 22 0.124759
6 21 100 22 0.12476
7 21 100 22 0.124772
8 21 100 22 0.12476
9 21 100 22 0.12486
16 21 100 22 0.00172468
17 21 100 22 1.48145e-05
20 21 100 22 0.12483
21 21 100 22 0.12476
22 21 100 22 0.12476
1 22 100 22 0.146698
2 22 100 22 0.146698
3 22 100 22 0.146698
7 22 100 22 0.000326586
9 22 100 22 2.06296e-05
17 22 100 22 3.05305e-06
19 22 100 22 0.11958
20 22 100 22 0.14663
21 22 100 22 0.146648
22 22 100 22 0.146698
11 23 100 22 0.249993
12 23 100 22 0.249993
13 23 100 22 0.249993
14 23 100 22 0.250021
11 24 100 22 0.00156364
12 24 100 22 0.19159
13 24 100 22 0.194277
14 24 100 22 8.17594e-07
15 24 100 22 0.222854
16 24 100 22 0.193878
17 24 100 22 0.192413
18 24 100 22 0.00341356
19 24 100 22 8.70642e-06
20 24 100 22 1.982e-06
10 25 100 22 1.03943e-06
11 25 100 22 3.26431e-06
12 25 100 22 7.2365e-06
13 25 100 22 1.35962e-06
14 25 100 22 6.92887e-06
15 25 100 22 1.53029e-06
16 25 100 22 0.0911188
17 25 100 22 0.000576919
18 25 100 22 0.180647
19 25 100 22 0.180371
20 25 100 22 0.18242
21 25 100 22 0.182422
22 25 100 22 0.182422
4 26 100 22 0.000596595
7 26 100 22 0.71431
10 26 100 22 0.000115785
16 26 100 22 0.00751855
20 26 100 22 0.277459
7 27 100 22 0.530521
20 27 100 22 0.469479
7 28 100 22 1.27648e-06
16 28 100 22 0.000216397
17 28 100 22 0.199271
18 28 100 22 0.200061
19 28 100 22 0.200061
20 28 100 22 0.000268947
21 28 100 22 0.200061
22 28 100 22 0.200061
2 0 100 23 0.252951
3 0 100 23 6.85376e-06
4 0 100 23 2.86487e-06
7 0 100 23 3.1353e-06
8 0 100 23 9.51724e-06
10 0 100 23 0.0846175
13 0 100 23 0.0849779
14 0 100 23 0.0851031
15 0 100 23 0.165893
17 0 100 23 0.0852124
19 0 100 23 0.154418
20 0 100 23 0.0852168
22 0 100 23 0.00158647
23 0 100 23 1.04788e-06
1 1 100 23 0.101168
3 1 100 23 0.101168
4 1 100 23 0.193278
9 1 100 23 0.0985148
10 1 100 23 0.101198
11 1 100 23 0.101168
12 1 100 23 0.101168
13 1 100 23 0.101168
14 1 100 23 0.101168
7 2 100 23 0.946162
15 2 100 23 0.0538378
2 3 100 23 3.27966e-05
3 3 100 23 0.228677
4 3 100 23 0.256164
5 3 100 23 0.256164
6 3 100 23 0.256164
12 3 100 23 0.000164386
15 3 100 23 0.00263472
3 4 100 23 0.000275451
5 4 100 23 0.501064
6 4 100 23 0.49773
12 4 100 23 3.39626e-05
15 4 100 23 0.00089724
7 5 100 23 0.991815
8 5 100 23 0.00818524
1 6 100 23 0.973581
3 6 100 23 0.0263209
8 6 100 23 9.82393e-05
2 7 100 23 0.000639822
6 7 100 23 0.134711
7 7 100 23 0.344149
8 7 100 23 0.340136
9 7 100 23 0.177219
13 7 100 23 0.00314531
2 8 100 23 0.00304078
4 8 100 23 0.00861164
5 8 100 23 0.099005
6 8 100 23 0.099005
7 8 100 23 0.197969
8 8 100 23 0.197923
9 8 100 23 0.19801
10 8 100 23 0.103152
11 8 100 23 0.0932804
20 8 100 23 2.73788e-06
2 9 100 23 0.241836
3 9 100 23 0.68898
6 9 100 23 0.0429946
7 9 100 23 0.0261893
2 10 100 23 0.000567178
4 10 100 23 0.299586
5 10 100 23 0.296781
6 10 100 23 0.0712444
10 10 100 23 0.288265
13 10 100 23 0.0435563
4 11 100 23 0.864952
8 11 100 23 0.12713
11 11 100 23 0.000350917
19 11 100 23 0.00756707
3 12 100 23 0.00139026
4 12 100 23 0.933219
8 12 100 23 0.0638264
14 12 100 23 0.00156484
3 13 100 23 0.0903622
4 13 100 23 0.0903648
5 13 100 23 0.180724
6 13 100 23 0.0915166
7 13 100 23 0.0903623
8 13 100 23 0.0903622
11 13 100 23 0.0955871
12 13 100 23 0.0903929
13 13 100 23 0.0903623
14 13 100 23 0.0899651
14 14 100 23 0.45404
16 14 100 23 0.0486927
18 14 100 23 0.497267
2 15 100 23 0.000161681
3 15 100 23 0.572674
12 15 100 23 0.427164
1 16 100 23 0.198534
2 16 100 23 0.0987072
3 16 100 23 0.102988
9 16 100 23 0.0992668
10 16 100 23 0.0992668
11 16 100 23 0.0992666
12 16 100 23 0.0992884
15 16 100 23 0.00407759
22 16 100 23 0.0993379
23 16 100 23 0.0992668
3 17 100 23 0.00666969
6 17 100 23 0.0982561
7 17 100 23 0.0995974
8 17 100 23 0.0996289
9 17 100 23 0.102242
10 17 100 23 0.0996289
11 17 100 23 0.199251
12 17 100 23 0.198974
13 17 100 23 0.0957516
6 18 100 23 1.82101e-05
13 18 100 23 0.217342
16 18 100 23 0.26088
17 18 100 23 0.26088
18 18 100 23 0.26088
3 19 100 23 8.08819e-06
7 19 100 23 4.64093e-06
8 19 100 23 1.27123e-05
12 19 100 23 0.0636913
13 19 100 23 0.243622
14 19 100 23 0.2335
15 19 100 23 0.23449
16 19 100 23 0.224671
15 20 100 23 0.221656
16 20 100 23 0.226208
17 20 100 23 0.111755
18 20 100 23 0.110828
20 20 100 23 0.110828
21 20 100 23 0.110828
23 20 100 23 0.107897
14 21 100 23 0.495554
16 21 100 23 0.252487
18 21 100 23 0.251959
1 22 100 23 0.139642
2 22 100 23 0.138928
3 22 100 23 0.135866
6 22 100 23 0.000187994
13 22 100 23 0.000770572
19 22 100 23 0.16568
21 22 100 23 0.139642
22 22 100 23 0.139642
23 22 100 23 0.139642
1 23 100 23 0.0584207
2 23 100 23 0.0584207
3 23 100 23 0.000365808
15 23 100 23 0.0584207
16 23 100 23 0.0584674
17 23 100 23 0.123278
18 23 100 23 0.11684
19 23 100 23 0.0584207
20 23 100 23 0.116841
21 23 100 23 0.116841
22 23 100 23 0.116841
23 23 100 23 0.116841
17 24 100 23 0.180082
18 24 100 23 0.20498
19 24 100 23 0.20498
20 24 100 23 0.204978
21 24 100 23 0.20498
18 25 100 23 1.60106e-05
19 25 100 23 0.243675
20 25 100 23 0.248109
21 25 100 23 0.248269
22 25 100 23 0.259256
23 25 100 23 0.000675095
1 26 100 23 1.29343e-05
13 26 100 23 4.69079e-06
16 26 100 23 1.36002e-06
17 26 100 23 0.00124372
18 26 100 23 7.58014e-07
19 26 100 23 2.11663e-06
20 26 100 23 5.86297e-06
21 26 100 23 0.00486186
22 26 100 23 0.476853
23 26 100 23 0.517014
2 27 100 23 0.917574
20 27 100 23 0.0824259
13 28 100 23 1
2 29 100 23 0.00894649
13 29 100 23 0.991054
12 30 100 23 8.17823e-05
14 30 100 23 0.957275
15 30 100 23 0.000372192
16 30 100 23 0.000279845
17 30 100 23 0.000141842
18 30 100 23 0.0370778
19 30 100 23 0.00477163
2 0 100 24 0.0363301
3 0 100 24 4.11666e-06
4 0 100 24 6.72602e-05
6 0 100 24 0.0407316
7 0 100 24 0.117689
8 0 100 24 0.00519003
9 0 100 24 0.040697
11 0 100 24 0.049727
12 0 100 24 0.151572
13 0 100 24 0.079812
14 0 100 24 0.0371586
15 0 100 24 0.0809559
16 0 100 24 0.0407299
17 0 100 24 0.0495435
18 0 100 24 0.0708773
20 0 100 24 0.0400165
21 0 100 24 0.00409752
22 0 100 24 0.1548
1 1 100 24 0.285263
2 1 100 24 0.0715838
3 1 100 24 0.0712308
7 1 100 24 0.000585568
10 1 100 24 0.0712987
11 1 100 24 6.68681e-06
12 1 100 24 0.0721359
13 1 100 24 0.0713159
14 1 100 24 0.0713159
15 1 100 24 0.0713159
16 1 100 24 0.0713159
17 1 100 24 0.0713159
18 1 100 24 0.0713159
1 2 100 24 0.145656
2 2 100 24 0.217015
3 2 100 24 0.132409
4 2 100 24 0.145526
5 2 100 24 0.145655
6 2 100 24 0.213722
11 2 100 24 8.40431e-06
20 2 100 24 7.95134e-06
2 3 100 24 0.0902233
3 3 100 24 0.148197
4 3 100 24 4.63978e-05
7 3 100 24 0.75989
11 3 100 24 0.00129704
21 3 100 24 0.000345617
3 4 100 24 0.124849
4 4 100 24 0.248279
5 4 100 24 0.248263
6 4 100 24 0.254476
10 4 100 24 0.124133
1 5 100 24 0.0968725
2 5 100 24 0.193703
3 5 100 24 0.193741
4 5 100 24 0.193751
8 5 100 24 0.0996762
9 5 100 24 0.125365
10 5 100 24 0.0968742
12 5 100 24 1.32182e-05
18 5 100 24 2.35295e-06
22 5 100 24 2.30651e-06
5 6 100 24 0.124893
6 6 100 24 0.124898
7 6 100 24 0.234567
8 6 100 24 0.237634
9 6 100 24 0.1249
10 6 100 24 0.1249
11 6 100 24 0.0234201
12 6 100 24 0.00473173
22 6 100 24 5.56598e-05
2 7 100 24 0.00166731
7 7 100 24 0.0119052
11 7 100 24 0.272322
12 7 100 24 0.107057
13 7 100 24 0.107057
14 7 100 24 1.27375e-06
17 7 100 24 0.0833078
19 7 100 24 0.107057
20 7 100 24 0.107057
21 7 100 24 0.202569
5 8 100 24 0.0887829
7 8 100 24 0.106088
8 8 100 24 0.0887583
9 8 100 24 0.185083
10 8 100 24 0.0888025
11 8 100 24 0.086259
12 8 100 24 0.00106555
13 8 100 24 0.0887829
14 8 100 24 0.0887829
15 8 100 24 0.0887829
16 8 100 24 0.0887829
17 8 100 24 1.17942e-05
19 8 100 24 1.01514e-06
20 8 100 24 5.63598e-06
22 8 100 24 1.07415e-05
3 9 100 24 2.40432e-06
5 9 100 24 0.0891183
6 9 100 24 0.0891222
7 9 100 24 0.0891222
8 9 100 24 0.187411
9 9 100 24 0.188666
10 9 100 24 0.0891222
11 9 100 24 0.0892745
17 9 100 24 7.7262e-06
23 9 100 24 0.0891221
24 9 100 24 0.0890321
1 10 100 24 0.425087
2 10 100 24 0.425233
3 10 100 24 9.29094e-05
7 10 100 24 8.11481e-05
9 10 100 24 0.12579
11 10 100 24 0.0224375
17 10 100 24 0.000425585
20 10 100 24 0.000724123
22 10 100 24 9.2994e-05
23 10 100 24 5.1149e-06
24 10 100 24 3.09813e-05
3 11 100 24 0.00227851
4 11 100 24 2.48989e-05
6 11 100 24 1.95069e-05
7 11 100 24 0.248196
8 11 100 24 0.248191
10 11 100 24 0.248191
11 11 100 24 0.253066
17 11 100 24 3.29705e-05
3 12 100 24 0.106913
4 12 100 24 0.0537565
5 12 100 24 0.0537589
6 12 100 24 0.0537566
7 12 100 24 0.0537566
8 12 100 24 0.098823
9 12 100 24 0.0650072
10 12 100 24 0.0538958
12 12 100 24 0.0840428
13 12 100 24 0.0537566
14 12 100 24 0.107512
15 12 100 24 0.0537683
16 12 100 24 0.0537565
18 12 100 24 0.0537565
19 12 100 24 0.0537334
20 12 100 24 2.32163e-06
22 12 100 24 3.7806e-06
3 13 100 24 1.89311e-06
4 13 100 24 0.122227
8 13 100 24 1.9524e-06
11 13 100 24 0.125188
12 13 100 24 0.00150182
19 13 100 24 0.125159
20 13 100 24 0.125168
21 13 100 24 0.125242
22 13 100 24 0.125192
23 13 100 24 0.125159
24 13 100 24 0.125159
16 14 100 24 0.500998
17 14 100 24 0.498987
21 14 100 24 1.4879e-05
5 15 100 24 0.064635
6 15 100 24 0.0646351
8 15 100 24 0.0646351
9 15 100 24 0.0646351
10 15 100 24 0.0646351
11 15 100 24 0.0646351
12 15 100 24 0.0301097
13 15 100 24 0.129305
14 15 100 24 0.0646351
15 15 100 24 0.0646372
16 15 100 24 0.0646351
17 15 100 24 0.064967
18 15 100 24 0.0646351
19 15 100 24 0.0646343
20 15 100 24 0.064631
2 16 100 24 2.1411e-05
11 16 100 24 1.73713e-05
12 16 100 24 0.0772899
13 16 100 24 0.131543
14 16 100 24 0.0657992
15 16 100 24 0.0657734
17 16 100 24 0.06579
18 16 100 24 0.131754
19 16 100 24 0.131608
20 16 100 24 0.197367
21 16 100 24 0.133036
10 17 100 24 0.165617
11 17 100 24 0.16605
12 17 100 24 0.16605
15 17 100 24 0.000139303
21 17 100 24 0.000895467
22 17 100 24 0.169148
23 17 100 24 0.16605
24 17 100 24 0.16605
1 18 100 24 0.0714131
2 18 100 24 0.0714131
3 18 100 24 0.0714091
4 18 100 24 0.0714131
5 18 100 24 3.94867e-06
7 18 100 24 7.58987e-07
8 18 100 24 5.43297e-06
12 18 100 24 5.91618e-06
15 18 100 24 3.05599e-06
17 18 100 24 7.84805e-06
18 18 100 24 0.0716024
19 18 100 24 0.0714131
20 18 100 24 0.0714131
21 18 100 24 0.0714126
22 18 100 24 0.142831
23 18 100 24 0.142826
24 18 100 24 0.142826
12 19 100 24 0.000148635
13 19 100 24 0.00568143
14 19 100 24 0.0122745
21 19 100 24 0.140473
23 19 100 24 0.420651
24 19 100 24 0.420772
14 20 100 24 0.410599
15 20 100 24 0.383221
16 20 100 24 0.205292
17 20 100 24 0.000825324
22 20 100 24 6.22816e-05
15 21 100 24 0.200024
16 21 100 24 0.200024
17 21 100 24 0.200024
21 21 100 24 0.199955
22 21 100 24 0.199974
7 22 100 24 2.96105e-05
8 22 100 24 9.27866e-06
14 22 100 24 0.241318
15 22 100 24 0.0349621
16 22 100 24 0.241324
17 22 100 24 0.482357
4 23 100 24 0.496217
5 23 100 24 0.496217
6 23 100 24 0.00756536
1 24 100 24 0.142965
2 24 100 24 0.142965
3 24 100 24 0.142965
18 24 100 24 0.142207
19 24 100 24 0.142965
20 24 100 24 0.142965
21 24 100 24 0.142965
9 25 100 24 0.000773579
18 25 100 24 0.418352
20 25 100 24 0.00443161
22 25 100 24 0.576442
1 26 100 24 0.000955642
2 26 100 24 1.23563e-06
3 26 100 24 7.04249e-07
4 26 100 24 1.65457e-06
6 26 100 24 6.04357e-07
13 26 100 24 1.5343e-06
14 26 100 24 1.02063e-05
15 26 100 24 7.16116e-07
16 26 100 24 1.71659e-06
17 26 100 24 7.96684e-07
18 26 100 24 6.91419e-05
19 26 100 24 0.000139386
20 26 100 24 4.40664e-06
21 26 100 24 0.000151227
22 26 100 24 2.5082e-05
23 26 100 24 0.499311
24 26 100 24 0.499325
1 27 100 24 0.00662382
2 27 100 24 0.00734319
3 27 100 24 0.0190107
4 27 100 24 0.000199372
5 27 100 24 2.55994e-05
16 27 100 24 2.33749e-05
17 27 100 24 0.00819357
19 27 100 24 0.00176522
20 27 100 24 5.24341e-05
21 27 100 24 0.00113029
23 27 100 24 0.000125612
24 27 100 24 0.955507
3 28 100 24 4.22573e-07
4 28 100 24 0.0043603
15 28 100 24 0.000234962
16 28 100 24 0.240304
17 28 100 24 0.24041
18 28 100 24 0.240409
19 28 100 24 0.239028
20 28 100 24 0.0334613
21 28 100 24 0.00178893
22 28 100 24 2.94827e-06
15 29 100 24 7.22831e-07
16 29 100 24 5.00277e-06
17 29 100 24 6.72055e-07
18 29 100 24 0.0338756
19 29 100 24 0.00122282
20 29 100 24 0.00277699
21 29 100 24 0.226756
22 29 100 24 0.248718
23 29 100 24 0.243202
24 29 100 24 0.243442
18 30 100 24 1
3 31 100 24 0.0017263
4 31 100 24 0.236798
5 31 100 24 0.000135904
17 31 100 24 0.00163923
18 31 100 24 4.49919e-07
19 31 100 24 0.397698
20 31 100 24 0.361998
21 31 100 24 3.36781e-06
24 31 100 24 4.87645e-07
2 0 100 25 0.0906437
3 0 100 25 0.0906474
5 0 100 25 0.0453394
6 0 100 25 0.00426361
7 0 100 25 0.0453412
8 0 100 25 0.0453021
9 0 100 25 0.086524
11 0 100 25 0.135905
13 0 100 25 0.0453381
14 0 100 25 0.0452524
15 0 100 25 0.0898431
16 0 100 25 0.0453382
17 0 100 25 0.0453345
18 0 100 25 0.0481992
20 0 100 25 0.0453387
21 0 100 25 0.045967
23 0 100 25 0.0453382
24 0 100 25 8.43173e-05
1 1 100 25 0.248666
2 1 100 25 0.198933
3 1 100 25 0.198933
4 1 100 25 0.15487
5 1 100 25 0.0497333
6 1 100 25 0.049396
7 1 100 25 0.0497333
8 1 100 25 0.0497333
19 1 100 25 1.97679e-06
3 2 100 25 6.24967e-05
4 2 100 25 0.0857328
5 2 100 25 0.195595
6 2 100 25 0.195616
7 2 100 25 0.0978081
8 2 100 25 0.0955118
9 2 100 25 0.140037
10 2 100 25 0.0978081
11 2 100 25 0.0918254
17 2 100 25 3.27197e-06
2 3 100 25 0.00175892
4 3 100 25 0.000866778
6 3 100 25 0.00140583
11 3 100 25 0.949005
14 3 100 25 0.00166197
19 3 100 25 0.0453018
1 4 100 25 0.167781
2 4 100 25 7.08877e-06
3 4 100 25 0.167781
4 4 100 25 0.167827
5 4 100 25 0.00941984
6 4 100 25 0.167781
7 4 100 25 0.167781
8 4 100 25 0.151617
16 4 100 25 3.49863e-06
2 5 100 25 0.0848979
4 5 100 25 0.788393
15 5 100 25 0.12671
1 6 100 25 0.182007
2 6 100 25 0.181983
3 6 100 25 0.0910036
4 6 100 25 0.273505
5 6 100 25 0.267918
7 6 100 25 0.000424721
9 6 100 25 0.00313978
16 6 100 25 1.8546e-05
6 7 100 25 0.999068
14 7 100 25 0.000931939
4 8 100 25 0.00041598
8 8 100 25 0.103486
9 8 100 25 0.895338
11 8 100 25 0.000225711
15 8 100 25 0.00053456
11 9 100 25 1
2 10 100 25 4.06812e-05
6 10 100 25 0.154282
7 10 100 25 0.307809
8 10 100 25 0.311557
9 10 100 25 0.0141694
10 10 100 25 0.169257
12 10 100 25 0.042842
16 10 100 25 4.37545e-05
8 11 100 25 4.16821e-05
9 11 100 25 0.138214
10 11 100 25 0.130995
12 11 100 25 0.225585
13 11 100 25 0.140313
15 11 100 25 0.130978
16 11 100 25 0.130975
17 11 100 25 0.10283
21 11 100 25 6.78615e-05
9 12 100 25 0.0083954
10 12 100 25 0.0519232
11 12 100 25 0.0575263
12 12 100 25 0.114547
13 12 100 25 0.184651
14 12 100 25 0.172717
15 12 100 25 0.115027
16 12 100 25 0.11501
17 12 100 25 0.114737
18 12 100 25 0.0654578
24 12 100 25 7.45506e-06
11 13 100 25 0.000279072
17 13 100 25 0.20262
18 13 100 25 0.32171
19 13 100 25 0.47527
22 13 100 25 0.00010099
23 13 100 25 1.99801e-05
9 14 100 25 1
17 15 100 25 3.199e-05
20 15 100 25 0.999968
9 16 100 25 1.17085e-05
10 16 100 25 0.199312
12 16 100 25 0.199312
14 16 100 25 0.199312
15 16 100 25 0.0034295
16 16 100 25 0.199312
18 16 100 25 0.199312
4 17 100 25 5.24699e-06
7 17 100 25 0.131257
8 17 100 25 0.131257
9 17 100 25 0.028434
13 17 100 25 0.0327353
16 17 100 25 0.00247626
17 17 100 25 2.35619e-05
19 17 100 25 0.148586
20 17 100 25 8.55638e-06
21 17 100 25 0.131257
22 17 100 25 0.131438
24 17 100 25 0.131264
25 17 100 25 0.131257
14 18 100 25 0.136965
15 18 100 25 0.137386
16 18 100 25 0.27215
17 18 100 25 0.175234
18 18 100 25 0.137422
19 18 100 25 0.137386
20 18 100 25 0.00336944
22 18 100 25 5.38138e-06
23 18 100 25 8.20536e-05
19 19 100 25 0.00206171
20 19 100 25 0.157647
21 19 100 25 0.168061
22 19 100 25 0.168061
23 19 100 25 0.168061
24 19 100 25 0.168049
25 19 100 25 0.168061
7 20 100 25 0.87014
18 20 100 25 0.12986
17 21 100 25 0.00206107
18 21 100 25 0.0453357
20 21 100 25 0.540884
22 21 100 25 0.411719
9 22 100 25 8.2208e-05
12 22 100 25 0.00146734
15 22 100 25 2.04443e-05
20 22 100 25 0.116782
21 22 100 25 0.176017
22 22 100 25 0.176053
23 22 100 25 0.177546
24 22 100 25 0.176017
25 22 100 25 0.176017
9 23 100 25 0.00033698
16 23 100 25 1.6308e-06
17 23 100 25 0.0757465
18 23 100 25 0.184116
19 23 100 25 0.209522
20 23 100 25 0.209522
21 23 100 25 0.21608
22 23 100 25 0.10465
24 23 100 25 2.41127e-05
5 24 100 25 0.0985646
6 24 100 25 0.0985647
7 24 100 25 0.0985647
8 24 100 25 0.0985647
9 24 100 25 0.112952
10 24 100 25 0.0985647
11 24 100 25 0.0985647
12 24 100 25 0.0985647
22 24 100 25 0.0985307
23 24 100 25 0.0985642
10 25 100 25 0.0515976
11 25 100 25 0.0515979
12 25 100 25 0.0515979
13 25 100 25 0.0757845
14 25 100 25 0.0515979
15 25 100 25 0.0515979
16 25 100 25 0.0515979
17 25 100 25 0.0515979
21 25 100 25 0.0476258
22 25 100 25 0.0516226
23 25 100 25 0.154308
24 25 100 25 0.15468
25 25 100 25 0.154794
2 26 100 25 3.51181e-05
19 26 100 25 0.166661
21 26 100 25 0.166661
22 26 100 25 0.166661
23 26 100 25 0.166661
24 26 100 25 0.166661
25 26 100 25 0.166661
8 27 100 25 0.000652678
9 27 100 25 0.0852353
10 27 100 25 0.137428
11 27 100 25 0.137393
12 27 100 25 0.137123
13 27 100 25 0.134528
14 27 100 25 0.137607
15 27 100 25 0.137605
16 27 100 25 2.21747e-07
17 27 100 25 0.0906225
18 27 100 25 0.00180159
19 27 100 25 9.26468e-07
21 27 100 25 1.5449e-07
23 27 100 25 2.58147e-07
24 27 100 25 1.48709e-06
16 28 100 25 0.89587
23 28 100 25 0.10413
1 29 100 25 4.33411e-06
8 29 100 25 3.81056e-05
9 29 100 25 0.000112556
10 29 100 25 7.76137e-06
11 29 100 25 6.14955e-06
12 29 100 25 5.25355e-06
13 29 100 25 4.80448e-06
14 29 100 25 4.70245e-06
15 29 100 25 4.93509e-06
17 29 100 25 7.45295e-05
18 29 100 25 4.60833e-05
23 29 100 25 0.00055519
24 29 100 25 0.499558
25 29 100 25 0.499577
2 0 100 26 0.0461801
4 0 100 26 0.0569172
5 0 100 26 0.0936285
7 0 100 26 0.0844758
8 0 100 26 0.0418586
10 0 100 26 0.0469103
11 0 100 26 5.85908e-07
12 0 100 26 0.0467394
13 0 100 26 0.046932
14 0 100 26 0.00317992
15 0 100 26 0.0469132
17 0 100 26 0.0418181
18 0 100 26 0.0468745
19 0 100 26 0.0938103
20 0 100 26 0.0786275
21 0 100 26 0.0783264
22 0 100 26 0.0440724
23 0 100 26 0.0934599
24 0 100 26 0.00927524
1 1 100 26 1
1 2 100 26 0.250206
2 2 100 26 0.246912
10 2 100 26 6.38711e-05
14 2 100 26 3.13308e-05
17 2 100 26 0.25139
18 2 100 26 0.25139
20 2 100 26 6.80111e-06
1 3 100 26 0.109959
2 3 100 26 0.120067
3 3 100 26 0.219919
4 3 100 26 0.109959
5 3 100 26 0.219919
6 3 100 26 0.109959
7 3 100 26 0.109959
14 3 100 26 0.000258384
2 4 100 26 0.0646942
3 4 100 26 0.0691986
4 4 100 26 0.123064
5 4 100 26 0.0691986
6 4 100 26 0.189678
7 4 100 26 0.138132
8 4 100 26 0.0691986
9 4 100 26 0.0691986
11 4 100 26 0.069231
12 4 100 26 0.0691986
13 4 100 26 0.0691985
23 4 100 26 9.55264e-06
1 5 100 26 0.145402
2 5 100 26 0.145402
3 5 100 26 0.145402
4 5 100 26 0.145402
7 5 100 26 0.0281075
10 5 100 26 2.3797e-06
21 5 100 26 5.48133e-05
22 5 100 26 0.128299
23 5 100 26 0.145347
24 5 100 26 0.116581
1 6 100 26 0.14298
2 6 100 26 0.141197
3 6 100 26 0.14298
8 6 100 26 0.14298
9 6 100 26 0.14298
14 6 100 26 0.000764484
21 6 100 26 0.000156111
25 6 100 26 0.14298
26 6 100 26 0.14298
2 7 100 26 0.000703335
7 7 100 26 0.000169858
8 7 100 26 0.251093
9 7 100 26 0.248581
10 7 100 26 0.4971
11 7 100 26 0.00179656
22 7 100 26 4.9395e-05
25 7 100 26 4.17454e-05
26 7 100 26 0.000464996
4 8 100 26 0.00106195
5 8 100 26 0.127893
6 8 100 26 0.127909
7 8 100 26 0.127924
11 8 100 26 0.127909
12 8 100 26 0.127909
13 8 100 26 0.127909
14 8 100 26 0.230671
22 8 100 26 7.14528e-06
23 8 100 26 0.000808301
5 9 100 26 0.000886424
7 9 100 26 0.000847132
8 9 100 26 0.298236
9 9 100 26 0.301471
10 9 100 26 0.301471
14 9 100 26 0.0371289
15 9 100 26 0.0597692
19 9 100 26 2.92711e-05
20 9 100 26 3.16199e-06
22 9 100 26 1.41707e-05
23 9 100 26 0.000143254
2 10 100 26 9.27396e-06
7 10 100 26 5.92037e-06
11 10 100 26 0.140979
12 10 100 26 0.146543
14 10 100 26 0.284131
15 10 100 26 0.27733
16 10 100 26 0.151
23 10 100 26 2.75979e-06
4 11 100 26 0.250412
5 11 100 26 0.25041
6 11 100 26 0.25041
7 11 100 26 0.0023326
14 11 100 26 0.00341442
15 11 100 26 0.00246584
16 11 100 26 0.237983
17 11 100 26 0.00226647
18 11 100 26 0.000221593
19 11 100 26 8.49834e-05
5 12 100 26 0.0997256
6 12 100 26 0.0997139
7 12 100 26 0.00057836
12 12 100 26 3.50534e-06
14 12 100 26 0.000410146
15 12 100 26 0.0997139
16 12 100 26 0.10151
17 12 100 26 0.0997139
18 12 100 26 0.0997155
19 12 100 26 0.0997235
20 12 100 26 0.0997149
21 12 100 26 0.0997219
22 12 100 26 0.099724
24 12 100 26 3.10604e-05
1 13 100 26 0.111106
2 13 100 26 0.110807
3 13 100 26 0.111106
7 13 100 26 0.000425564
8 13 100 26 0.0119708
11 13 100 26 0.110249
14 13 100 26 2.83757e-06
15 13 100 26 0.0998789
16 13 100 26 0.111106
17 13 100 26 0.111106
18 13 100 26 0.111106
21 13 100 26 1.27631e-05
23 13 100 26 0.111124
7 14 100 26 0.00159648
8 14 100 26 0.236327
13 14 100 26 0.00154725
14 14 100 26 0.353321
17 14 100 26 0.406221
23 14 100 26 0.000987364
1 15 100 26 0.0587605
2 15 100 26 0.058762
3 15 100 26 0.0587607
4 15 100 26 0.0587606
7 15 100 26 1.09075e-06
8 15 100 26 7.917e-07
9 15 100 26 0.0587607
10 15 100 26 0.0587607
11 15 100 26 0.0600113
14 15 100 26 5.13431e-06
15 15 100 26 0.0587607
16 15 100 26 0.0587607
17 15 100 26 0.0587627
18 15 100 26 0.0587607
19 15 100 26 0.0587607
20 15 100 26 0.0586862
21 15 100 26 0.0587629
24 15 100 26 0.0587605
25 15 100 26 0.0587508
26 15 100 26 0.0586507
2 16 100 26 3.51245e-06
7 16 100 26 0.000197249
8 16 100 26 0.000142682
12 16 100 26 2.86363e-06
16 16 100 26 0.00129885
19 16 100 26 0.23358
20 16 100 26 0.233235
21 16 100 26 0.273553
22 16 100 26 0.257986
7 17 100 26 0.000367723
12 17 100 26 0.930975
21 17 100 26 0.0686573
7 18 100 26 4.85254e-05
13 18 100 26 3.40043e-05
14 18 100 26 0.000704997
19 18 100 26 0.999021
20 18 100 26 0.000191237
7 19 100 26 2.57497e-05
14 19 100 26 0.000103133
20 19 100 26 0.984963
21 19 100 26 0.0149082
10 20 100 26 4.7464e-06
13 20 100 26 0.111167
14 20 100 26 0.111168
15 20 100 26 0.111168
16 20 100 26 0.111251
17 20 100 26 0.111168
18 20 100 26 0.111121
19 20 100 26 0.221364
20 20 100 26 0.111589
11 21 100 26 0.00165553
13 21 100 26 0.0992118
14 21 100 26 0.0971651
16 21 100 26 0.0986555
17 21 100 26 0.0992119
18 21 100 26 0.0992119
19 21 100 26 1.42724e-06
21 21 100 26 0.00846518
22 21 100 26 0.099574
23 21 100 26 0.0992119
24 21 100 26 0.0992119
25 21 100 26 0.0992119
26 21 100 26 0.0992119
8 22 100 26 0.241565
12 22 100 26 0.00876411
15 22 100 26 0.0003761
20 22 100 26 0.749251
21 22 100 26 4.39929e-05
7 23 100 26 1.17183e-06
14 23 100 26 4.69346e-06
18 23 100 26 8.24856e-05
21 23 100 26 0.0972484
22 23 100 26 0.200588
23 23 100 26 0.100294
24 23 100 26 0.200607
25 23 100 26 0.200588
26 23 100 26 0.200588
1 24 100 26 0.000891825
2 24 100 26 0.00356461
5 24 100 26 0.000241002
8 24 100 26 0.0465293
11 24 100 26 3.43298e-05
12 24 100 26 7.84551e-06
13 24 100 26 5.55322e-05
14 24 100 26 9.56775e-05
15 24 100 26 5.75336e-05
16 24 100 26 8.48464e-05
17 24 100 26 0.000406575
18 24 100 26 7.51564e-05
19 24 100 26 8.10609e-06
20 24 100 26 5.66352e-05
21 24 100 26 0.19011
22 24 100 26 0.189406
23 24 100 26 0.000157128
24 24 100 26 0.189405
25 24 100 26 0.189406
26 24 100 26 0.189406
3 25 100 26 0.131636
4 25 100 26 0.131637
6 25 100 26 0.131637
7 25 100 26 0.131638
8 25 100 26 0.210173
9 25 100 26 0.131637
10 25 100 26 0.131637
14 25 100 26 6.29301e-06
11 26 100 26 0.333332
12 26 100 26 0.333374
13 26 100 26 0.333294
2 27 100 26 0.000266574
7 27 100 26 0.0176637
22 27 100 26 0.98207
1 28 100 26 4.6388e-07
5 28 100 26 3.8842e-05
6 28 100 26 6.30744e-05
7 28 100 26 1.02055e-06
8 28 100 26 2.119e-05
9 28 100 26 1.39261e-06
10 28 100 26 7.16962e-07
11 28 100 26 6.3859e-07
12 28 100 26 7.96975e-07
13 28 100 26 1.65329e-06
14 28 100 26 8.99025e-06
15 28 100 26 1.36877e-06
20 28 100 26 3.49062e-07
21 28 100 26 7.04031e-07
22 28 100 26 0.00123405
23 28 100 26 0.258759
24 28 100 26 0.221472
25 28 100 26 0.259328
26 28 100 26 0.259065
5 29 100 26 0.000683893
6 29 100 26 0.0382445
7 29 100 26 0.116619
8 29 100 26 0.119977
9 29 100 26 0.119977
10 29 100 26 0.119978
11 29 100 26 0.119978
12 29 100 26 0.119977
13 29 100 26 0.119973
14 29 100 26 0.0894763
15 29 100 26 6.76343e-05
22 29 100 26 1.14839e-05
23 29 100 26 8.67892e-06
24 29 100 26 0.0350278
7 30 100 26 7.4509e-07
8 30 100 26 0.000740303
9 30 100 26 0.249765
10 30 100 26 0.249827
11 30 100 26 7.01979e-05
12 30 100 26 4.04951e-06
13 30 100 26 7.2629e-05
14 30 100 26 2.31454e-05
15 30 100 26 3.75146e-07
16 30 100 26 3.73265e-07
17 30 100 26 3.8794e-07
18 30 100 26 4.58124e-05
20 30 100 26 0.249794
21 30 100 26 0.249654
22 30 100 26 3.4654e-07
23 30 100 26 2.08054e-06
4 31 100 26 1.19987e-06
7 31 100 26 1.75538e-06
8 31 100 26 6.49792e-06
9 31 100 26 1.17518e-06
10 31 100 26 2.28187e-05
11 31 100 26 0.125568
12 31 100 26 0.125601
13 31 100 26 0.120802
14 31 100 26 0.125638
15 31 100 26 0.125604
16 31 100 26 0.125604
17 31 100 26 0.125604
18 31 100 26 0.125503
20 31 100 26 3.70512e-05
21 31 100 26 4.09048e-06
23 31 100 26 4.77395e-07
1 32 100 26 0.00143801
2 32 100 26 2.72124e-06
5 32 100 26 0.0140051
6 32 100 26 0.970503
7 32 100 26 1.64879e-05
8 32 100 26 3.62759e-06
13 32 100 26 9.90631e-05
14 32 100 26 0.000454936
22 32 100 26 0.00275057
23 32 100 26 0.00592763
24 32 100 26 5.80303e-05
25 32 100 26 4.37857e-05
26 32 100 26 0.00469705
2 0 100 27 0.0655924
3 0 100 27 0.111212
5 0 100 27 0.0483755
6 0 100 27 0.00175277
10 0 100 27 0.109886
12 0 100 27 0.0549968
13 0 100 27 0.0548125
14 0 100 27 0.109934
16 0 100 27 0.109519
18 0 100 27 0.0544508
19 0 100 27 0.00481159
20 0 100 27 0.0546571
21 0 100 27 0.055
23 0 100 27 0.055
24 0 100 27 0.11
1 1 100 27 0.332473
2 1 100 27 0.225996
3 1 100 27 0.221649
4 1 100 27 0.219441
6 1 100 27 2.61563e-06
11 1 100 27 5.49883e-05
12 1 100 27 5.91449e-06
13 1 100 27 0.000376176
19 1 100 27 1.25773e-06
1 2 100 27 0.854987
4 2 100 27 0.017037
5 2 100 27 0.127976
2 3 100 27 0.0772857
4 3 100 27 0.0772764
5 3 100 27 0.152291
6 3 100 27 0.229396
7 3 100 27 0.231829
8 3 100 27 0.154554
9 3 100 27 0.0772559
19 3 100 27 0.000106003
21 3 100 27 5.30985e-06
1 4 100 27 0.255155
2 4 100 27 0.353089
3 4 100 27 0.127659
4 4 100 27 0.127657
5 4 100 27 0.127659
9 4 100 27 0.00648531
10 4 100 27 6.03225e-05
13 4 100 27 3.45021e-06
14 4 100 27 0.00223134
3 5 100 27 0.17447
4 5 100 27 0.178503
5 5 100 27 0.16301
6 5 100 27 0.17843
9 5 100 27 0.127019
10 5 100 27 0.178505
15 5 100 27 3.11626e-06
16 5 100 27 5.99131e-05
2 6 100 27 2.43091e-05
3 6 100 27 5.1418e-05
11 6 100 27 0.333226
12 6 100 27 0.33334
13 6 100 27 0.333358
1 7 100 27 0.136561
3 7 100 27 0.00125756
4 7 100 27 0.00270327
8 7 100 27 0.160316
15 7 100 27 0.699161
4 8 100 27 0.244384
5 8 100 27 0.266754
6 8 100 27 0.244325
7 8 100 27 0.244361
14 8 100 27 0.000126742
16 8 100 27 4.88069e-05
2 9 100 27 5.74407e-06
3 9 100 27 5.46821e-06
6 9 100 27 0.110738
7 9 100 27 0.221479
8 9 100 27 0.221479
9 9 100 27 0.247823
11 9 100 27 0.110728
12 9 100 27 0.087743
8 10 100 27 0.469583
9 10 100 27 0.265198
10 10 100 27 0.265198
14 10 100 27 1.11795e-05
16 10 100 27 1.03824e-05
10 11 100 27 0.195852
11 11 100 27 0.097973
12 11 100 27 0.118318
13 11 100 27 0.0979985
15 11 100 27 0.0979729
20 11 100 27 0.097973
21 11 100 27 0.0979663
22 11 100 27 0.097973
23 11 100 27 0.097973
11 12 100 27 0.499996
12 12 100 27 0.499996
15 12 100 27 7.29555e-06
3 13 100 27 8.51695e-06
11 13 100 27 0.0838142
13 13 100 27 0.24576
14 13 100 27 0.167661
15 13 100 27 0.167624
16 13 100 27 0.0836892
25 13 100 27 0.0838144
26 13 100 27 0.0838144
27 13 100 27 0.0838144
3 14 100 27 2.47672e-06
6 14 100 27 1.83641e-06
10 14 100 27 0.000156335
14 14 100 27 2.18924e-05
16 14 100 27 0.140303
17 14 100 27 0.278124
18 14 100 27 0.278123
19 14 100 27 0.265424
20 14 100 27 0.0378429
9 15 100 27 0.0829683
10 15 100 27 0.0827889
11 15 100 27 0.0829684
12 15 100 27 0.0829684
13 15 100 27 0.0876235
17 15 100 27 0.165844
18 15 100 27 0.165937
19 15 100 27 0.0829684
20 15 100 27 0.0829684
21 15 100 27 0.0829652
1 16 100 27 0.000422176
2 16 100 27 0.000682877
5 16 100 27 3.04434e-05
10 16 100 27 0.00056039
12 16 100 27 1.99506e-05
13 16 100 27 0.00378374
14 16 100 27 0.331439
15 16 100 27 0.331531
16 16 100 27 0.331531
1 17 100 27 0.14708
3 17 100 27 0.182469
4 17 100 27 0.171251
5 17 100 27 9.56736e-06
15 17 100 27 7.63005e-06
16 17 100 27 7.91137e-05
17 17 100 27 3.86737e-06
18 17 100 27 1.68483e-05
19 17 100 27 0.183235
20 17 100 27 0.315848
4 18 100 27 0.000370059
5 18 100 27 0.0584274
17 18 100 27 0.941203
3 19 100 27 0.000250919
10 19 100 27 0.00201274
17 19 100 27 0.661675
20 19 100 27 0.336061
5 20 100 27 3.75716e-05
6 20 100 27 4.54914e-05
16 20 100 27 0.000310684
18 20 100 27 0.00982117
21 20 100 27 0.989785
11 21 100 27 0.130667
12 21 100 27 0.130667
14 21 100 27 0.00607449
19 21 100 27 0.130667
20 21 100 27 0.240425
21 21 100 27 0.230831
22 21 100 27 0.130667
14 22 100 27 0.191056
22 22 100 27 0.00734216
23 22 100 27 0.200377
25 22 100 27 0.20046
26 22 100 27 0.200388
27 22 100 27 0.200377
5 23 100 27 8.4517e-07
15 23 100 27 0.0816121
16 23 100 27 0.0818876
17 23 100 27 0.0818876
18 23 100 27 0.0818876
21 23 100 27 0.0191165
22 23 100 27 0.162315
23 23 100 27 0.163775
24 23 100 27 0.163775
25 23 100 27 0.163742
20 24 100 27 0.000186002
22 24 100 27 0.199963
24 24 100 27 0.199962
25 24 100 27 0.199963
26 24 100 27 0.199963
27 24 100 27 0.199963
6 25 100 27 5.9286e-05
20 25 100 27 0.00246142
26 25 100 27 0.498739
27 25 100 27 0.49874
19 26 100 27 0.981163
20 26 100 27 0.000361981
22 26 100 27 0.018461
25 26 100 27 1.43868e-05
14 27 100 27 0.240976
15 27 100 27 0.253572
26 27 100 27 0.252726
27 27 100 27 0.252726
3 28 100 27 0.0151661
10 28 100 27 0.984834
1 29 100 27 3.13479e-07
2 29 100 27 1.1163e-06
10 29 100 27 3.22947e-06
13 29 100 27 4.71561e-06
14 29 100 27 0.000923259
15 29 100 27 8.81785e-06
16 29 100 27 0.0948158
17 29 100 27 0.100788
18 29 100 27 0.10079
19 29 100 27 0.100748
20 29 100 27 3.95405e-07
21 29 100 27 0.000833955
22 29 100 27 0.0980396
23 29 100 27 0.100789
24 29 100 27 0.100789
25 29 100 27 0.0998851
26 29 100 27 0.10079
27 29 100 27 0.10079
3 30 100 27 0.00627862
9 30 100 27 0.00196174
14 30 100 27 0.989884
15 30 100 27 0.0001012
20 30 100 27 0.00157918
24 30 100 27 0.000195185
10 31 100 27 1.15914e-06
14 31 100 27 4.34856e-06
15 31 100 27 1.26212e-06
16 31 100 27 2.73559e-05
17 31 100 27 1.32502e-06
18 31 100 27 2.31598e-07
19 31 100 27 5.884e-05
20 31 100 27 7.43912e-07
21 31 100 27 0.143122
22 31 100 27 0.14321
23 31 100 27 0.14321
24 31 100 27 0.143193
25 31 100 27 0.14321
26 31 100 27 0.140748
27 31 100 27 0.14321
10 32 100 27 0.71645
13 32 100 27 0.00140737
14 32 100 27 0.279979
24 32 100 27 0.00216279
9 33 100 27 1
4 34 100 27 0.18982
5 34 100 27 0.806157
6 34 100 27 0.000327898
7 34 100 27 0.000300989
8 34 100 27 0.000296251
9 34 100 27 0.00308036
11 34 100 27 7.89154e-06
18 34 100 27 5.24879e-06
19 34 100 27 4.38267e-06
4 35 100 27 0.00263659
5 35 100 27 0.166315
6 35 100 27 0.212123
7 35 100 27 0.212125
8 35 100 27 0.212126
9 35 100 27 0.194669
11 35 100 27 4.30865e-06
2 36 100 27 0.000434445
10 36 100 27 0.000406376
13 36 100 27 0.00110103
14 36 100 27 0.998054
24 36 100 27 4.25489e-06
10 37 100 27 1
4 39 100 27 0.395938
5 39 100 27 0.097221
6 39 100 27 0.000505702
7 39 100 27 0.000386167
8 39 100 27 0.000286696
9 39 100 27 0.505662
10 40 100 27 0.181324
14 40 100 27 0.45857
24 40 100 27 0.360106
24 41 100 27 1
3 0 100 28 0.0616752
4 0 100 28 8.68238e-07
5 0 100 28 0.000635273
6 0 100 28 0.000101023
7 0 100 28 0.18432
8 0 100 28 0.11672
9 0 100 28 0.118212
10 0 100 28 0.0616755
11 0 100 28 0.0561639
13 0 100 28 0.0616196
16 0 100 28 0.000804301
18 0 100 28 0.00111792
20 0 100 28 0.0617972
21 0 100 28 0.061673
22 0 100 28 0.0452437
23 0 100 28 0.0566839
25 0 100 28 0.0616761
27 0 100 28 0.0498802
1 1 100 28 0.142581
8 1 100 28 4.7124e-05
9 1 100 28 0.00216488
18 1 100 28 0.142582
19 1 100 28 0.142582
20 1 100 28 0.142298
21 1 100 28 0.142582
22 1 100 28 0.142582
24 1 100 28 0.142582
2 2 100 28 0.110524
3 2 100 28 0.110523
4 2 100 28 0.221048
5 2 100 28 0.221083
6 2 100 28 0.220725
7 2 100 28 0.110282
8 2 100 28 0.00486159
9 2 100 28 0.000113342
18 2 100 28 0.000834454
27 2 100 28 5.96331e-06
6 3 100 28 0.000631969
17 3 100 28 0.997801
18 3 100 28 0.00156695
2 4 100 28 9.33693e-05
7 4 100 28 0.000985262
8 4 100 28 0.164618
9 4 100 28 0.164483
10 4 100 28 0.164622
11 4 100 28 0.164622
12 4 100 28 0.164622
13 4 100 28 0.164621
20 4 100 28 6.6559e-06
23 4 100 28 0.0113268
5 5 100 28 5.20678e-05
7 5 100 28 0.164033
8 5 100 28 0.171244
10 5 100 28 0.164038
11 5 100 28 0.163891
12 5 100 28 0.163163
13 5 100 28 0.136484
14 5 100 28 0.0299056
15 5 100 28 0.00521246
23 5 100 28 0.00197824
6 6 100 28 0.000458223
7 6 100 28 0.000577438
9 6 100 28 0.513892
10 6 100 28 0.484756
11 6 100 28 0.000304441
20 6 100 28 1.21028e-05
9 7 100 28 0.124287
10 7 100 28 0.123535
11 7 100 28 0.134501
12 7 100 28 0.12353
13 7 100 28 0.123537
14 7 100 28 0.123537
15 7 100 28 0.123537
16 7 100 28 0.123535
9 8 100 28 0.000512238
12 8 100 28 0.499531
13 8 100 28 0.499502
17 8 100 28 0.000454958
4 9 100 28 0.000277121
16 9 100 28 0.499861
17 9 100 28 0.499862
1 10 100 28 0.500142
2 10 100 28 0.499858
7 11 100 28 2.54653e-05
8 11 100 28 0.301227
10 11 100 28 1.23034e-05
11 11 100 28 0.000330873
12 11 100 28 0.00190706
13 11 100 28 0.0597606
14 11 100 28 0.290662
15 11 100 28 0.346074
7 12 100 28 0.936273
13 12 100 28 0.0637266
8 13 100 28 0.00319511
11 13 100 28 0.111075
12 13 100 28 0.111075
14 13 100 28 0.22215
15 13 100 28 0.22215
16 13 100 28 0.111078
17 13 100 28 0.219276
2 14 100 28 0.00419126
7 14 100 28 0.811347
13 14 100 28 0.184461
4 15 100 28 0.315208
5 15 100 28 0.31225
6 15 100 28 0.315508
8 15 100 28 0.0448268
16 15 100 28 0.0122072
1 16 100 28 0.24958
2 16 100 28 0.24958
3 16 100 28 0.49916
6 16 100 28 0.00167496
10 16 100 28 5.33174e-06
5 17 100 28 1.259e-05
6 17 100 28 0.00264061
7 17 100 28 0.000530122
16 17 100 28 0.485168
17 17 100 28 0.511648
6 18 100 28 2.36465e-05
18 18 100 28 0.999716
27 18 100 28 0.000260631
6 19 100 28 0.000260889
18 19 100 28 0.140655
19 19 100 28 0.155708
20 19 100 28 0.140655
21 19 100 28 0.140655
22 19 100 28 0.140654
23 19 100 28 0.140665
24 19 100 28 0.140655
26 19 100 28 9.35405e-05
4 20 100 28 0.000254298
5 20 100 28 2.86293e-05
6 20 100 28 0.00011829
8 20 100 28 0.000120691
25 20 100 28 0.14271
26 20 100 28 0.285589
27 20 100 28 0.285589
28 20 100 28 0.285589
1 21 100 28 0.125107
2 21 100 28 0.125105
3 21 100 28 0.125107
4 21 100 28 0.124251
18 21 100 28 0.125107
19 21 100 28 0.125107
20 21 100 28 0.125107
21 21 100 28 0.125107
4 22 100 28 0.989056
7 22 100 28 0.00231517
21 22 100 28 0.0056246
25 22 100 28 0.00300462
3 23 100 28 8.07502e-06
4 23 100 28 0.332855
5 23 100 28 0.333562
6 23 100 28 0.333562
8 23 100 28 1.32066e-05
4 24 100 28 2.58758e-05
5 24 100 28 6.15706e-05
19 24 100 28 0.146604
20 24 100 28 0.164127
22 24 100 28 0.196641
23 24 100 28 0.164175
24 24 100 28 0.164176
26 24 100 28 0.164064
27 24 100 28 0.000125584
5 25 100 28 0.486699
6 25 100 28 0.480204
9 25 100 28 0.000372328
20 25 100 28 0.000126263
22 25 100 28 0.0324726
27 25 100 28 0.000125614
1 26 100 28 0.151028
2 26 100 28 0.151028
6 26 100 28 4.86956e-06
18 26 100 28 0.0701469
22 26 100 28 0.000171507
25 26 100 28 0.151025
26 26 100 28 0.151028
27 26 100 28 0.174538
28 26 100 28 0.151028
15 27 100 28 2.40305e-05
23 27 100 28 0.247854
24 27 100 28 0.247854
25 27 100 28 0.248001
26 27 100 28 0.247854
28 27 100 28 0.00841327
6 28 100 28 0.000127188
18 28 100 28 0.00436379
22 28 100 28 0.00041733
27 28 100 28 0.505888
28 28 100 28 0.489203
14 29 100 28 0.250341
15 29 100 28 0.248976
16 29 100 28 0.250341
17 29 100 28 0.250341
1 30 100 28 8.21663e-06
3 30 100 28 2.71482e-07
4 30 100 28 1.5631e-05
5 30 100 28 9.78238e-07
6 30 100 28 4.77271e-06
8 30 100 28 4.53604e-05
13 30 100 28 1.31384e-05
14 30 100 28 6.60508e-06
15 30 100 28 3.00025e-06
16 30 100 28 6.99665e-05
17 30 100 28 2.02138e-05
18 30 100 28 7.19201e-05
19 30 100 28 0.165906
20 30 100 28 6.03237e-06
21 30 100 28 0.166821
22 30 100 28 0.166809
23 30 100 28 0.16682
24 30 100 28 0.16682
25 30 100 28 0.164554
26 30 100 28 0.0020032
27 30 100 28 4.71856e-07
18 31 100 28 5.8985e-05
20 31 100 28 4.8051e-06
21 31 100 28 0.00031063
22 31 100 28 7.08365e-05
23 31 100 28 0.375497
24 31 100 28 0.000198972
25 31 100 28 0.000186843
26 31 100 28 0.000144026
27 31 100 28 1.39382e-05
28 31 100 28 0.623514
5 32 100 28 0.0162431
8 32 100 28 0.931976
17 32 100 28 0.0506578
22 32 100 28 0.00112256
7 34 100 28 0.0018688
8 34 100 28 0.00117607
21 34 100 28 0.000358613
22 34 100 28 0.837385
27 34 100 28 0.159211
22 35 100 28 0.499442
27 35 100 28 0.500558
1 0 100 29 8.63315e-07
2 0 100 29 0.0683895
3 0 100 29 1.60067e-05
5 0 100 29 0.0551468
9 0 100 29 0.0670873
12 0 100 29 0.0684967
13 0 100 29 0.127068
16 0 100 29 2.10819e-06
17 0 100 29 0.203682
18 0 100 29 0.000684052
19 0 100 29 0.0684343
21 0 100 29 2.10588e-06
22 0 100 29 0.0677737
24 0 100 29 0.000616897
25 0 100 29 0.136609
26 0 100 29 0.0678067
27 0 100 29 0.0681835
1 1 100 29 0.504419
2 1 100 29 0.168876
3 1 100 29 0.168876
4 1 100 29 0.157829
3 2 100 29 0.999919
15 2 100 29 3.83221e-05
17 2 100 29 1.62231e-05
21 2 100 29 2.61267e-05
2 3 100 29 0.17057
3 3 100 29 0.17057
4 3 100 29 0.147149
6 3 100 29 0.17057
7 3 100 29 0.17057
8 3 100 29 0.17057
13 3 100 29 2.08962e-06
4 4 100 29 0.999092
5 4 100 29 0.00090848
5 5 100 29 0.162565
10 5 100 29 0.837336
25 5 100 29 9.91201e-05
11 6 100 29 0.242392
12 6 100 29 0.242393
13 6 100 29 0.242393
14 6 100 29 0.211189
15 6 100 29 0.061633
5 7 100 29 0.0344116
6 7 100 29 0.554664
7 7 100 29 0.0588638
8 7 100 29 0.053635
9 7 100 29 0.298425
8 8 100 29 0.0390255
9 8 100 29 0.560755
22 8 100 29 0.30023
27 8 100 29 0.0999894
4 9 100 29 0.126628
5 9 100 29 0.126612
6 9 100 29 0.126628
7 9 100 29 0.126576
8 9 100 29 0.126624
9 9 100 29 0.126628
10 9 100 29 0.126628
11 9 100 29 0.097376
14 9 100 29 0.0163007
5 10 100 29 0.00183435
13 10 100 29 0.997572
17 10 100 29 0.000593198
1 11 100 29 0.0131431
7 11 100 29 0.000413113
11 11 100 29 0.232486
15 11 100 29 0.749551
20 11 100 29 0.00440685
4 12 100 29 0.0105978
6 12 100 29 0.162005
7 12 100 29 0.162005
8 12 100 29 0.162001
9 12 100 29 0.162005
10 12 100 29 0.162005
13 12 100 29 0.0173771
16 12 100 29 0.162005
17 13 100 29 1
10 14 100 29 3.99236e-06
11 14 100 29 0.249329
12 14 100 29 0.249407
13 14 100 29 0.249407
14 14 100 29 0.249407
26 14 100 29 0.00244692
5 15 100 29 0.99068
13 15 100 29 0.00931418
17 15 100 29 5.5386e-06
5 16 100 29 0.000159091
14 16 100 29 0.999645
25 16 100 29 0.000195829
3 17 100 29 5.1287e-06
9 17 100 29 2.68421e-05
11 17 100 29 1.5601e-06
15 17 100 29 0.142906
16 17 100 29 0.142908
17 17 100 29 3.69262e-05
18 17 100 29 0.142908
19 17 100 29 0.143036
20 17 100 29 0.142281
21 17 100 29 0.1429
22 17 100 29 0.142909
25 17 100 29 8.1051e-05
2 18 100 29 0.500381
3 18 100 29 0.499604
18 18 100 29 1.57517e-05
4 19 100 29 0.142687
15 19 100 29 0.142655
16 19 100 29 0.145371
17 19 100 29 0.00218927
18 19 100 29 0.140599
19 19 100 29 0.142687
23 19 100 29 0.142411
24 19 100 29 0.141402
9 20 100 29 0.00856462
18 20 100 29 0.00235176
20 20 100 29 0.470426
22 20 100 29 0.00442108
25 20 100 29 0.512426
27 20 100 29 0.00181027
6 21 100 29 0.249606
7 21 100 29 0.249731
8 21 100 29 0.249717
9 21 100 29 0.250402
18 21 100 29 4.19091e-06
19 21 100 29 2.76515e-06
22 21 100 29 0.000377652
25 21 100 29 4.18498e-06
27 21 100 29 0.000154635
5 22 100 29 8.70906e-05
10 22 100 29 0.10052
11 22 100 29 0.100522
12 22 100 29 0.100522
14 22 100 29 0.100522
15 22 100 29 0.0946121
18 22 100 29 0.100522
20 22 100 29 0.100522
21 22 100 29 0.100522
23 22 100 29 0.100717
24 22 100 29 0.100522
25 22 100 29 0.000410983
15 23 100 29 1
1 24 100 29 0.142833
5 24 100 29 6.99744e-06
25 24 100 29 6.12385e-05
26 24 100 29 0.142874
27 24 100 29 0.142877
28 24 100 29 0.285674
29 24 100 29 0.285674
8 25 100 29 0.444925
25 25 100 29 0.555075
20 26 100 29 0.0200795
21 26 100 29 0.24498
22 26 100 29 0.24498
23 26 100 29 0.24498
24 26 100 29 0.24498
17 27 100 29 1
16 28 100 29 0.000131421
17 28 100 29 4.5403e-05
18 28 100 29 0.19996
19 28 100 29 0.19996
20 28 100 29 0.19996
21 28 100 29 0.19996
22 28 100 29 0.19996
25 28 100 29 2.37226e-05
26 29 100 29 0.25
27 29 100 29 0.25
28 29 100 29 0.25
29 29 100 29 0.25
23 30 100 29 0.2
24 30 100 29 0.2
25 30 100 29 0.2
26 30 100 29 0.2
27 30 100 29 0.2
28 31 100 29 1
15 32 100 29 6.76202e-05
16 32 100 29 9.64123e-05
18 32 100 29 9.06733e-06
19 32 100 29 1.06983e-05
20 32 100 29 1.37433e-05
21 32 100 29 2.01725e-05
22 32 100 29 0.0005353
23 32 100 29 0.000663531
24 32 100 29 0.00011018
25 32 100 29 0.000125323
26 32 100 29 0.000139801
27 32 100 29 0.00154365
28 32 100 29 0.000140225
29 32 100 29 0.996524
28 33 100 29 1
15 34 100 29 4.57062e-05
16 34 100 29 6.56694e-05
18 34 100 29 4.14155e-06
19 34 100 29 4.75655e-06
20 34 100 29 5.29677e-06
21 34 100 29 6.70063e-06
22 34 100 29 0.000159506
23 34 100 29 0.00015575
24 34 100 29 1.99379e-05
25 34 100 29 1.8827e-05
26 34 100 29 1.82166e-05
27 34 100 29 0.000200517
29 34 100 29 0.999295
4 35 100 29 0.0139329
10 35 100 29 0.854739
12 35 100 29 0.00403494
13 35 100 29 0.028789
16 35 100 29 0.011276
17 35 100 29 0.0872286
17 36 100 29 1
17 37 100 29 0.949445
19 37 100 29 0.0505553
15 38 100 29 0.0541863
16 38 100 29 0.925014
18 38 100 29 2.28894e-05
19 38 100 29 3.63211e-05
20 38 100 29 2.48209e-05
21 38 100 29 2.36625e-05
22 38 100 29 0.0202312
23 38 100 29 0.000455153
24 38 100 29 2.60706e-06
27 38 100 29 2.65888e-06
17 40 100 29 1
2 0 100 30 0.243922
3 0 100 30 0.235103
6 0 100 30 0.00825806
8 0 100 30 0.0117146
16 0 100 30 0.00825806
18 0 100 30 0.255644
19 0 100 30 0.000171126
25 0 100 30 0.236928
1 1 100 30 0.247931
3 1 100 30 0.256206
4 1 100 30 0.247931
5 1 100 30 0.247931
4 2 100 30 0.000115625
7 2 100 30 2.5977e-05
17 2 100 30 0.333288
19 2 100 30 0.333281
20 2 100 30 0.333289
2 3 100 30 0.340825
25 3 100 30 0.659175
6 4 100 30 0.491354
7 4 100 30 0.508646
6 5 100 30 0.150775
29 5 100 30 0.849225
6 6 100 30 0.000187783
16 6 100 30 0.999812
6 7 100 30 0.125755
7 7 100 30 0.125755
8 7 100 30 0.245459
9 7 100 30 0.125755
10 7 100 30 0.125755
14 7 100 30 0.125755
15 7 100 30 0.125755
18 7 100 30 1.22958e-05
9 8 100 30 0.333333
10 8 100 30 0.333333
11 8 100 30 0.333333
12 9 100 30 0.249975
13 9 100 30 0.250008
14 9 100 30 0.250008
15 9 100 30 0.250008
11 10 100 30 0.333328
12 10 100 30 0.333345
13 10 100 30 0.333328
18 11 100 30 1
5 12 100 30 1
23 13 100 30 1
3 14 100 30 0.00142151
4 14 100 30 0.00119572
16 14 100 30 0.4901
17 14 100 30 0.507282
19 15 100 30 1
1 16 100 30 0.251554
2 16 100 30 0.251561
4 16 100 30 0.250876
5 16 100 30 0.245991
25 16 100 30 1.65326e-05
18 17 100 30 1
3 18 100 30 1
8 19 100 30 4.0425e-05
18 19 100 30 0.119564
21 19 100 30 0.440198
22 19 100 30 0.440198
19 20 100 30 0.424097
23 20 100 30 0.575903
20 21 100 30 0.1
21 21 100 30 0.1
22 21 100 30 0.1
23 21 100 30 0.0999998
24 21 100 30 0.2
25 21 100 30 0.1
26 21 100 30 0.1
27 21 100 30 0.1
28 21 100 30 0.0999999
12 22 100 30 8.48223e-05
29 22 100 30 0.999915
30 23 100 30 1
2 24 100 30 0.000458152
25 24 100 30 0.999542
19 25 100 30 1
19 26 100 30 1
19 27 100 30 1
19 28 100 30 1
26 29 100 30 0.2
27 29 100 30 0.2
