2 0.495182 0.0708788 0.0889429 0.140439 0.116665 0.0357493 0.039059 0.0087079 0.00218799 0.00218743 
3 0.50283 0.0698056 0.0837449 0.141905 0.115155 0.0352077 0.0384672 0.00857596 0.00215484 0.00215428 
4 0.930969 0.0206413 0.0332902 0.00605278 0.00679537 0.000645048 0.000642724 0.000963957 0 0 
5 0.737072 0.0945722 0.0419004 0.033185 0.0332272 0.0422777 0.00521479 0.00327538 0.0082268 0.00104839 
6 0.779968 0.0852127 0.0368724 0.0292028 0.0292399 0.023871 0.00458901 0.00288233 0.00723958 0.000922581 
7 0.981326 0.0167294 0 0 0.000972113 0 0 0.000972113 0 0 
8 0.338045 0.229474 0.076562 0.15117 0.094145 0.0769149 0.00314515 0.0099667 0.00945415 0.0111237 
9 0.163954 0.184909 0.123909 0.0684375 0.319849 0.0455907 0.0624147 0.0309353 0 0 
10 0.495182 0.0708788 0.0850333 0.144349 0.116665 0.0357493 0.039059 0.0087079 0.00218799 0.00218743 
11 0.950061 0.0424665 0.00328748 0.00180025 0.00180228 0.000282418 0 0.000299884 0 0 
12 0.980697 0.00850071 0.00377589 0.00265394 0.00328379 0.000311713 0.00031059 0.000465822 0 0 
13 0.507527 0.0739185 0.0850333 0.128964 0.116665 0.0357493 0.039059 0.0087079 0.00218799 0.00218743 
14 0.290002 0.200649 0.0969134 0.142439 0.104777 0.000501821 0.110714 0.0325991 0.0142717 0.00713343 
15 0.317677 0.251726 0.063726 0.155821 0.0970418 0.0792815 0.00324193 0.0102734 0.00974505 0.0114659 
16 0.371406 0.228755 0.0591741 0.144691 0.0901102 0.0736186 0.00301036 0.00953956 0.00904897 0.010647 
17 0.347725 0.22597 0.0609145 0.151679 0.104701 0.0758165 0.0030989 0.00982013 0.00931512 0.0109601 
18 0.67565 0.183913 0.0384087 0.0304195 0.0304582 0.0248656 0.00478022 0.00300243 0.00754123 0.000961021 
19 0.924863 0.0573583 0.00782166 0.00428335 0.00428817 0.000671959 0 0.000713517 0 0 
20 0.403537 0.119696 0.0730628 0.148046 0.0639146 0.104367 0.0556974 0.0124912 0.0186788 0.000508457 
21 0.901085 0.0394226 0.0207964 0.0146171 0.0180861 0.00171682 0.00171063 0.00256561 0 0 
22 0.209469 0.16634 0.113034 0.0644702 0.301307 0.0429477 0.0588055 0.0436257 0 0 
23 0.967207 0.0246523 0.00358148 0.00196132 0.00196353 0.000307687 0 0.000326716 0 0 
24 0.3186 0.233806 0.0618237 0.166095 0.109068 0.0769175 0.00314515 0.0099667 0.00945415 0.0111237 
25 0.421334 0.116131 0.0708818 0.158552 0.0601394 0.088194 0.0540348 0.0121183 0.0181213 0.000493279 
26 0.900669 0.0398384 0.0207964 0.0146171 0.0180861 0.00171682 0.00171064 0.00256561 0 0 
27 0.290002 0.200649 0.0973941 0.157343 0.104777 0.000501821 0.0953294 0.0325988 0.0142717 0.00713343 
28 0.412732 0.125886 0.0730628 0.148046 0.0619898 0.0909077 0.0556974 0.0124912 0.0186788 0.000508457 
29 0.495182 0.0708788 0.0850333 0.135163 0.125851 0.0357493 0.039059 0.0087079 0.00218799 0.00218743 
30 0.905362 0.0577283 0.0243548 0.00540074 0.00540683 0.000847253 0 0.000899652 0 0 
31 0.764694 0.105671 0.0354542 0.0280796 0.0281153 0.0229529 0.00441251 0.00277148 0.00696114 0.000887097 
32 0.943206 0.0414793 0.00673744 0.00368962 0.00369377 0.000578817 0 0.000614614 0 0 
33 0.287733 0.210636 0.0954451 0.155432 0.10319 0.000494218 0.093885 0.0321049 0.0140555 0.00702535 
34 0.162691 0.174707 0.11999 0.0684375 0.319855 0.0588127 0.0645719 0.0309353 0 0 
35 0.413387 0.125231 0.0730628 0.148046 0.0619898 0.0909077 0.0556974 0.0124912 0.0186788 0.000508457 
36 0.328015 0.247912 0.0627604 0.15346 0.0955714 0.0780803 0.00319281 0.0101177 0.00959739 0.0112922 
37 0.290002 0.200649 0.0969134 0.148051 0.11455 0.000501821 0.0953294 0.0325988 0.0142717 0.00713343 
38 0.910756 0.0355353 0.0187746 0.013196 0.0163278 0.00154991 0.00154432 0.00231617 0 0 
39 0.689574 0.0459157 0.0799865 0.033935 0.0763612 0.0233097 0.038722 0.00843466 0.00376103 0 
40 0.750067 0.0967287 0.0419004 0.033185 0.0332272 0.0271261 0.00521479 0.00327538 0.0082268 0.00104839 
41 0.965105 0.02941 0.00241306 0.00132146 0.00132295 0.000207307 0 0.000220128 0 0 
42 0.556577 0.06226 0.0746914 0.126793 0.102476 0.0314014 0.0343086 0.00764883 0.00192188 0.00192139 
43 0.721962 0.157632 0.0329531 0.0260739 0.0261071 0.0213134 0.00409733 0.00257351 0.00646391 0.000823733 
44 0.42179 0.00018784 0.140653 0.0524124 0.291183 0 8.73715e-05 0.0936856 0 0 
45 0.290002 0.200649 0.0969134 0.142745 0.119855 0.000501821 0.0953294 0.0325988 0.0142717 0.00713343 
46 0.653268 0.0606867 0.0963242 0.0348909 0.0785122 0.0239663 0.0398128 0.00867225 0.00386697 0 
47 0.507827 0.0711879 0.0829317 0.139603 0.113183 0.0346822 0.037893 0.00844796 0.00212268 0.00212213 
48 0.894585 0.0894683 0.00701577 0.00384177 0.00384609 0.000602685 0 0.000639959 0 0 
49 0.507039 0.0744064 0.0850333 0.128964 0.116665 0.0357493 0.039059 0.0087079 0.00218799 0.00218743 
50 0.636811 0.0507393 0.0933589 0.0499684 0.0857595 0.0261786 0.0434878 0.00947277 0.00422392 0 
51 0.36003 0.208419 0.119356 0.0259551 0.0940011 0.0679542 0.0522398 0 0.0720451 0 
52 0.318715 0.250687 0.0637278 0.155821 0.0970418 0.0792815 0.00324193 0.0102734 0.00974505 0.0114659 
53 0.437172 0.00019026 0.140653 0.0519856 0.276226 0 8.73715e-05 0.0936856 0 0 
54 0.509704 0.071742 0.0850333 0.128964 0.116665 0.0357493 0.039059 0.0087079 0.00218799 0.00218743 
55 0.495182 0.0708788 0.0850375 0.14417 0.11684 0.0357493 0.039059 0.0087079 0.00218799 0.00218743 
56 0.969055 0.0141315 0.00587726 0.00413091 0.0051113 0.000485188 0.00048344 0.000725063 0 0 
57 0.242111 0.262855 0.103415 0.145095 0.0850822 0.0995793 0.0285524 0.00949014 0.0238202 0 
58 0.247809 0.257156 0.103415 0.145095 0.0850822 0.0995793 0.0285524 0.00949014 0.0238202 0 
59 0.403537 0.119696 0.0730628 0.148046 0.0773744 0.0909077 0.0556974 0.0124912 0.0186788 0.000508457 
60 0.237268 0.252313 0.103415 0.145095 0.100467 0.0995793 0.0285524 0.00949014 0.0238202 0 
61 0.887496 0.0387614 0.0356329 0.0143956 0.0178121 0.00169081 0.00168472 0.00252673 0 0 
62 0.237268 0.252313 0.103415 0.1451 0.100462 0.0995793 0.0285524 0.00949013 0.0238202 0 
63 0.929535 0.0520513 0.00810097 0.00443632 0.00444132 0.000695958 0 0.000739 0 0 
64 0.237269 0.267696 0.103415 0.145095 0.0850822 0.0995793 0.0285524 0.00949014 0.0238202 0 
65 0.495182 0.0708788 0.0850333 0.128964 0.132049 0.0357496 0.039059 0.0087079 0.00218799 0.00218743 
66 0.510561 0.0708847 0.0850333 0.128964 0.116665 0.0357493 0.039059 0.0087079 0.00218799 0.00218743 
67 0.907544 0.0494697 0.032422 0.00454461 0.00454965 0.000712933 0 0.000757024 0 0 
68 0.750665 0.0961311 0.0419004 0.033185 0.0332272 0.0271261 0.00521479 0.00327538 0.0082268 0.00104839 
69 0.889175 0.0381833 0.0201757 0.014181 0.0324714 0.00166557 0.00165957 0.00248902 0 0 
70 0.906653 0.0450093 0.0168971 0.0118764 0.014695 0.00139492 0.00138989 0.00208456 0 0 
71 0.495182 0.0708788 0.0850333 0.128969 0.132045 0.0357493 0.039059 0.0087079 0.00218799 0.00218743 
72 0.393846 1.41013e-07 0 0 0.606153 0 0 0 0 0 
73 0.290002 0.200649 0.0979264 0.15681 0.104777 0.000501821 0.0953294 0.0325988 0.0142717 0.00713343 
74 0.657123 0.0495596 0.0980899 0.0359096 0.0807879 0.024661 0.0409668 0.00892362 0.00397906 0 
75 0.509276 0.0721695 0.0850333 0.128964 0.116665 0.0357493 0.039059 0.0087079 0.00218799 0.00218743 
76 0.778567 0.113783 0.0295004 0.0233001 0.0233297 0.019046 0.00366145 0.00229973 0.00577626 0.000736102 
77 0.24074 0.263049 0.104591 0.145095 0.0850822 0.0995793 0.0285524 0.00949014 0.0238202 0 
78 0.403537 0.120772 0.0851894 0.150228 0.0619898 0.0909077 0.0556974 0.0124912 0.0186788 0.000508457 
79 0.524021 0.069919 0.0824949 0.125115 0.113183 0.0346822 0.037893 0.00844796 0.00212268 0.00212213 
80 0.90545 0.0376825 0.019879 0.0139722 0.0172882 0.00164108 0.00163517 0.00245242 0 0 
81 0.36003 0.208419 0.119356 0.0259551 0.0940011 0.0679542 0.0522398 0 0.0720451 0 
82 0.290002 0.200649 0.0969134 0.14246 0.12014 0.000501821 0.0953294 0.0325988 0.0142717 0.00713343 
83 0.332697 0.236707 0.063726 0.155821 0.0970418 0.0792815 0.00324193 0.0102734 0.00974505 0.0114659 
84 0.495182 0.0708788 0.0851778 0.144204 0.116665 0.0357493 0.039059 0.0087079 0.00218799 0.00218743 
85 0.842724 0.1174 0.013946 0.00979495 0.0121196 0.00115045 0.0011463 0.00171922 0 0 
86 0.498622 0.107088 0.0801039 0.121488 0.109902 0.0336769 0.0367947 0.0082031 0.00206115 0.00206062 
87 0.912208 0.0492867 0.0168042 0.00438011 0.0159193 0.000679844 0 0.000721814 0 0 
88 0.237268 0.252313 0.103415 0.145099 0.100464 0.0995793 0.0285524 0.00949013 0.0238202 0 
89 0.6675 0.0464796 0.0962992 0.0348909 0.0785122 0.0239663 0.0398128 0.00867225 0.00386697 0 
90 0.403537 0.119696 0.0730628 0.16343 0.0619901 0.0909077 0.0556974 0.0124912 0.0186788 0.000508457 
91 0.733027 0.0960272 0.0425456 0.0490795 0.0337384 0.0275435 0.00529501 0.00332577 0.00835336 0.00106452 
92 0.636811 0.0507393 0.089831 0.0383399 0.100916 0.0261786 0.0434878 0.00947277 0.00422392 0 
93 0.762248 0.0992386 0.0378826 0.0300028 0.030041 0.024525 0.00471474 0.0029613 0.00743793 0.000947857 
94 0.495462 0.0681249 0.122227 0.121488 0.109902 0.0336769 0.0367947 0.00820309 0.00206115 0.00206062 
95 0.371962 0.211871 0.103971 0.0259551 0.0940011 0.0679542 0.0522398 0 0.0720451 0 
96 0.418911 0.119707 0.0730628 0.148046 0.0619898 0.0909077 0.0556974 0.0124912 0.0186788 0.000508457 
97 0.869347 0.0744714 0.0153705 0.0121678 0.0121833 0.00994625 0.00191209 0.00120097 0.00301649 0.000384409 
98 0.502831 0.0698049 0.0837449 0.142161 0.114898 0.0352077 0.0384672 0.00857596 0.00215484 0.00215428 
99 0.290002 0.200649 0.100148 0.154588 0.104777 0.000501821 0.0953294 0.0325988 0.0142717 0.00713343 
100 0.911272 0.0357551 0.0185174 0.0130152 0.0161041 0.00152867 0.00152317 0.00228445 0 0 
101 0.646729 0.0562055 0.089831 0.0381116 0.0857595 0.0261786 0.0434878 0.00947277 0.00422392 0 
102 0.642926 0.0600092 0.089831 0.0381116 0.0857595 0.0261786 0.0434878 0.00947277 0.00422392 0 
103 0.737072 0.0945722 0.041942 0.0482948 0.0332272 0.0271261 0.00521479 0.00327538 0.0082268 0.00104839 
104 0.652195 0.0507396 0.089831 0.0381116 0.0857595 0.0261786 0.0434878 0.00947277 0.00422392 0 
105 0.495182 0.0708788 0.0850333 0.128965 0.131401 0.0363979 0.039059 0.0087079 0.00218799 0.00218743 
106 0.636811 0.0507393 0.0898348 0.0534921 0.0857598 0.0261786 0.0434878 0.00947277 0.00422392 0 
107 0.886252 0.0762956 0.0247132 0.00548017 0.00548634 0.000859713 0 0.000912882 0 0 
108 0.650536 0.0523993 0.089831 0.0381116 0.0857595 0.0261786 0.0434878 0.00947277 0.00422392 0 
109 0.876094 0.0394913 0.0474251 0.0139723 0.0172882 0.00164108 0.00163517 0.00245242 0 0 
110 0.745463 0.0989763 0.042545 0.0336955 0.0337384 0.0275435 0.00529501 0.00332577 0.00835336 0.00106452 
111 0.408146 0.130463 0.073071 0.148046 0.0619898 0.0909077 0.0556974 0.0124912 0.0186788 0.000508457 
112 0.403537 0.119696 0.0730628 0.148046 0.0619981 0.106284 0.0556974 0.0124912 0.0186788 0.000508457 
113 0.237268 0.252313 0.103415 0.14828 0.0972827 0.0995793 0.0285524 0.00949013 0.0238202 0 
114 0.885765 0.0393577 0.0207965 0.0300016 0.0180862 0.00171682 0.00171064 0.00256561 0 0 
115 0.944005 0.0435218 0.00548776 0.00300525 0.00300864 0.000471455 0 0.000500613 0 0 
116 0.90531 0.0386462 0.0195909 0.0137697 0.0170377 0.00161729 0.00161147 0.00241688 0 0 
117 0.495182 0.0708788 0.100418 0.128964 0.116665 0.0357493 0.039059 0.0087079 0.00218799 0.00218743 
118 0.948269 0.0496936 0 0 0.00101885 0 0 0.00101885 0 0 
119 0.412587 0.133019 0.0719573 0.145803 0.0610506 0.0895303 0.0548535 0.0123019 0.0183958 0.000500753 
120 0.899539 0.0612808 0.0104689 0.0057331 0.00664266 0.0153809 0 0.000955015 0 0 
121 0.744823 0.0382197 0.0656069 0.0278343 0.0626333 0.0191192 0.0317607 0.00691831 0.00308489 0 
122 0.788539 0.085068 0.0345678 0.0273776 0.0274124 0.0223791 0.0043022 0.00270219 0.00678711 0.000864919 
123 0.502833 0.0849548 0.0837449 0.12701 0.114897 0.0352077 0.0384672 0.00857596 0.00215484 0.00215428 
124 0.252644 0.252321 0.103415 0.145095 0.0850822 0.0995793 0.0285524 0.00949014 0.0238202 0 
125 0.651301 0.0516341 0.089831 0.0381116 0.0857595 0.0261786 0.0434878 0.00947277 0.00422392 0 
126 0.418904 0.119713 0.0730628 0.148046 0.0619898 0.0909077 0.0556974 0.0124912 0.0186788 0.000508457 
127 0.737211 0.107228 0.042545 0.0336955 0.0337384 0.0275435 0.00529501 0.00332577 0.00835336 0.00106452 
128 0.652832 0.0485025 0.086482 0.0495375 0.0829605 0.0250236 0.0415692 0.00905485 0.00403757 0 
129 0.636811 0.0507393 0.089831 0.0388207 0.0962569 0.0303567 0.0434878 0.00947277 0.00422392 0 
130 0.747731 0.0967085 0.042545 0.0336955 0.0337384 0.0275435 0.00529501 0.00332577 0.00835336 0.00106452 
131 0.418874 0.119744 0.0730627 0.148046 0.0619898 0.0909077 0.0556974 0.0124912 0.0186788 0.000508456 
132 0.769873 0.121399 0.0297381 0.0235506 0.0235806 0.0192508 0.00370082 0.00232446 0.00583837 0.000744017 
133 0.508735 0.0727104 0.0850333 0.128964 0.116665 0.0357493 0.039059 0.0087079 0.00218799 0.00218743 
134 0.403537 0.119696 0.0730627 0.148046 0.0638587 0.104423 0.0556974 0.0124912 0.0186788 0.000508456 
135 0.738694 0.104961 0.05288 0.030848 0.0308872 0.0252159 0.00484755 0.00304472 0.00764745 0.000974557 
136 0.733027 0.0973664 0.0565904 0.0336955 0.0337384 0.0275435 0.00529501 0.00332577 0.00835336 0.00106452 
137 0.744132 0.0924642 0.0406685 0.0469091 0.0322552 0.0263283 0.00506141 0.00317905 0.00798483 0.00101755 
138 0.317677 0.236342 0.063726 0.156525 0.111722 0.0792815 0.00324193 0.0102734 0.00974505 0.0114659 
139 0.421342 0.131048 0.0708824 0.143627 0.0601394 0.088194 0.0540348 0.0121183 0.0181213 0.000493279 
140 0.885765 0.0393577 0.0207964 0.017872 0.0302158 0.00171682 0.00171064 0.00256561 0 0 
141 0.3021 0.203936 0.0969134 0.142439 0.104777 0.000501821 0.0953294 0.0325988 0.0142717 0.00713343 
142 0.420221 0.117244 0.0708828 0.158496 0.0601943 0.088194 0.0540348 0.0121183 0.0181213 0.000493279 
143 0.752228 0.107085 0.0465038 0.0280827 0.0281153 0.0229529 0.00441251 0.00277148 0.00696114 0.000887097 
144 0.262642 0.2571 0.100329 0.140764 0.0825424 0.0966067 0.0277001 0.00920685 0.0231091 0 
145 0.740996 0.0931607 0.0414715 0.047411 0.0327388 0.0267213 0.00513695 0.00322649 0.00810401 0.00103274 
146 0.317677 0.236342 0.063726 0.171206 0.0970418 0.0792815 0.00324193 0.0102734 0.00974505 0.0114659 
147 0.418808 0.119809 0.0730628 0.148046 0.0619898 0.0909077 0.0556974 0.0124912 0.0186788 0.000508457 
148 0.328033 0.241886 0.0687692 0.15346 0.0955714 0.0780803 0.00319281 0.0101177 0.00959739 0.0112922 
149 0.510251 0.068763 0.082495 0.125115 0.128089 0.034701 0.037893 0.00844796 0.00212268 0.00212213 
150 0.906987 0.0377696 0.019311 0.013573 0.0167943 0.00159419 0.00158845 0.00238235 0 0 
151 0.403537 0.119696 0.0730737 0.16342 0.0619898 0.0909077 0.0556974 0.0124912 0.0186788 0.000508456 
152 0.766246 0.0893044 0.0395061 0.0312887 0.0313285 0.0255761 0.0049168 0.00308822 0.00775669 0.000988479 
153 0.440025 0.160109 0.0633217 0.128307 0.0537245 0.0787867 0.0482711 0.0108257 0.0161883 0.000440662 
154 0.529877 0.0644839 0.104544 0.116426 0.105323 0.0322737 0.0352616 0.0078613 0.00197527 0.00197476 
155 0.412573 0.117884 0.0749912 0.157919 0.0610506 0.0895303 0.0548535 0.0123019 0.0183958 0.000500753 
156 0.509849 0.0715971 0.0850333 0.128964 0.116665 0.0357493 0.039059 0.0087079 0.00218799 0.00218743 
157 0.642303 0.0499813 0.0884699 0.0380872 0.0935114 0.0313291 0.0428289 0.00932924 0.00415992 0 
158 0.642313 0.0499709 0.0887272 0.0524284 0.0844601 0.0257819 0.0428289 0.00932924 0.00415992 0 
159 0.876099 0.0523272 0.0345848 0.0139722 0.0172882 0.00164108 0.00163517 0.00245242 0 0 
160 0.495182 0.0708788 0.0850333 0.128964 0.116665 0.0357765 0.0544164 0.0087079 0.00218799 0.00218743 
161 0.495468 0.0835326 0.0825087 0.126754 0.126463 0.0346881 0.037893 0.00844796 0.00212268 0.00212213 
162 0.50283 0.0698058 0.0837449 0.127073 0.12987 0.035324 0.0384672 0.00857596 0.00215484 0.00215428 
163 0.90927 0.0370211 0.0187746 0.013196 0.0163278 0.00154991 0.00154432 0.00231617 0 0 
164 0.332956 0.236447 0.063726 0.155821 0.0970418 0.0792815 0.00324193 0.0102734 0.00974505 0.0114659 
165 0.743341 0.0932546 0.0538573 0.0337255 0.0322499 0.0263283 0.00506141 0.00317905 0.00798483 0.00101755 
166 0.934015 0.0505173 0.00680482 0.00372651 0.00373071 0.000584605 0 0.00062076 0 0 
167 0.317677 0.236342 0.063726 0.155926 0.112321 0.0792816 0.00324193 0.0102734 0.00974505 0.0114659 
168 0.748394 0.0960449 0.042545 0.0336955 0.0337383 0.0275435 0.00529501 0.00332577 0.00835336 0.00106452 
169 0.748371 0.096068 0.042545 0.0336955 0.0337384 0.0275435 0.00529501 0.00332577 0.00835336 0.00106452 
170 0.748371 0.096068 0.042545 0.0336955 0.0337384 0.0275435 0.00529501 0.00332577 0.00835336 0.00106452 
171 0.317677 0.236342 0.0637263 0.171205 0.0970418 0.0792815 0.00324193 0.0102734 0.00974505 0.0114659 
172 0.237285 0.26768 0.103415 0.145095 0.0850822 0.0995793 0.0285524 0.00949013 0.0238202 0 
173 0.495182 0.0708788 0.0850333 0.129046 0.131968 0.0357493 0.039059 0.0087079 0.00218799 0.00218743 
174 0.403537 0.119696 0.0884473 0.148046 0.0619898 0.0909077 0.0556974 0.0124912 0.0186788 0.000508457 
175 0.861884 0.115699 0.00986205 0.00540074 0.00540683 0.000847253 0 0.000899652 0 0 
176 0.627162 0.0499706 0.118773 0.0375342 0.0844601 0.0257819 0.0428289 0.00932924 0.00415992 0 
177 0.404561 0.134056 0.0730627 0.148046 0.0619898 0.0909077 0.0556974 0.0124912 0.0186788 0.000508456 
178 0.665566 0.0504747 0.0858679 0.0364302 0.081976 0.0250236 0.0415692 0.00905485 0.00403757 0 
179 0.642326 0.0651099 0.0884699 0.0375342 0.0844601 0.0257819 0.0428289 0.00932924 0.00415992 0 
180 0.162691 0.174707 0.11999 0.0684376 0.335232 0.0455923 0.0624147 0.0309353 0 0 
181 0.890805 0.0376213 0.019879 0.0139722 0.0319941 0.00164108 0.00163517 0.00245242 0 0 
182 0.162691 0.190091 0.11999 0.0684375 0.319849 0.0455907 0.0624147 0.0309353 0 0 
183 0.636811 0.0507393 0.089831 0.0406237 0.098632 0.0261786 0.0434878 0.00947277 0.00422392 0 
184 0.509294 0.072152 0.0850333 0.128964 0.116665 0.0357493 0.039059 0.0087079 0.00218799 0.00218743 
185 0.750997 0.0957993 0.0419004 0.033185 0.0332272 0.0271261 0.00521479 0.00327538 0.0082268 0.00104839 
186 0.926478 0.045536 0.0075972 0.014798 0.00426636 0.000642423 0 0.000682154 0 0 
187 0.50283 0.0698058 0.0837449 0.142158 0.114902 0.0352077 0.0384672 0.00857596 0.00215484 0.00215428 
188 0.896147 0.0362549 0.0187746 0.0163882 0.0270212 0.00155306 0.00154432 0.00231617 0 0 
189 0.773699 0.0838466 0.0395082 0.036846 0.0281154 0.0229529 0.00441251 0.00277148 0.00696114 0.000887097 
190 0.636811 0.0507393 0.089831 0.0381166 0.101139 0.0261786 0.0434878 0.00947277 0.00422392 0 
191 0.260825 0.401961 0.0499059 0.122028 0.0759966 0.0620879 0.00253886 0.00804541 0.00763166 0.00897936 
192 0.882788 0.0496144 0.0326626 0.0131966 0.0163278 0.00154991 0.00154432 0.00231617 0 0 
193 0.343156 0.232772 0.0627604 0.15346 0.0955714 0.0780803 0.00319281 0.0101177 0.00959739 0.0112922 
194 0.733027 0.0960272 0.0425451 0.0490799 0.0337385 0.0275435 0.00529501 0.00332577 0.00835336 0.00106452 
195 0.502798 0.0698376 0.0837449 0.12701 0.130049 0.0352077 0.0384672 0.00857596 0.00215484 0.00215428 
196 0.333186 0.240552 0.0755776 0.148947 0.0927605 0.0757838 0.0030989 0.00982013 0.00931512 0.0109601 
197 0.852412 0.119276 0.00995244 0.00693511 0.00858101 0.000814549 0.000811615 0.00121726 0 0 
198 0.893818 0.0410922 0.0291565 0.013574 0.0167943 0.00159419 0.00158845 0.00238235 0 0 
199 0.662248 0.0495549 0.0871495 0.036974 0.0831995 0.0253971 0.0421897 0.00919 0.00409784 0 
200 0.403537 0.119696 0.0884474 0.148046 0.0619898 0.0909077 0.0556974 0.0124912 0.0186788 0.000508456 
201 0.495182 0.0708788 0.100417 0.128965 0.116665 0.0357493 0.039059 0.0087079 0.00218799 0.00218743 
202 0.66274 0.0479119 0.0969112 0.035395 0.0796338 0.0243087 0.0403815 0.00879614 0.00392221 0 
203 0.42179 0.00018784 0.140653 0.0673702 0.276226 0 8.73715e-05 0.0936856 0 0 
204 0.733027 0.0960272 0.0579296 0.0336955 0.0337384 0.0275435 0.00529501 0.00332577 0.00835336 0.00106452 
205 0.900243 0.0348687 0.0312892 0.0127304 0.0156746 0.00148791 0.00148255 0.00222353 0 0 
206 0.317688 0.251715 0.063726 0.155821 0.0970418 0.0792815 0.00324193 0.0102734 0.00974505 0.0114659 
207 0.412473 0.117984 0.0719563 0.160954 0.0610508 0.0895303 0.0548535 0.0123019 0.0183958 0.000500753 
208 0.758895 0.0867875 0.0522894 0.0304195 0.0304582 0.0248656 0.00478022 0.00300243 0.00754123 0.000961021 
209 0.352856 0.229401 0.0618237 0.15117 0.094145 0.0769149 0.00314515 0.0099667 0.00945415 0.0111237 
210 0.327649 0.248279 0.0627604 0.15346 0.0955714 0.0780803 0.00319281 0.0101177 0.00959739 0.0112922 
211 0.912831 0.0382196 0.017111 0.0120267 0.014881 0.00141257 0.00140748 0.00211094 0 0 
212 0.636811 0.0507393 0.0898313 0.053496 0.0857595 0.0261786 0.0434878 0.00947277 0.00422392 0 
213 0.764512 0.105854 0.0354542 0.0280796 0.0281153 0.0229529 0.00441251 0.00277148 0.00696114 0.000887097 
214 0.800952 0.0926112 0.0291098 0.0230548 0.0230841 0.0188455 0.0036229 0.00227553 0.00571546 0.000728353 
215 0.350836 0.231421 0.0618237 0.15117 0.094145 0.0769149 0.00314515 0.0099667 0.00945415 0.0111237 
216 0.317677 0.236342 0.063726 0.171206 0.0970418 0.0792815 0.00324193 0.0102734 0.00974505 0.0114659 
217 0.636811 0.0507393 0.089831 0.0381116 0.0857595 0.0261786 0.0588718 0.00947335 0.00422392 0 
218 0.643373 0.0623281 0.0990787 0.0359023 0.0807879 0.024661 0.0409668 0.00892362 0.00397906 0 
219 0.94141 0.0424787 0.00708835 0.00388178 0.00388616 0.000608963 0 0.000646625 0 0 
220 0.50283 0.0698057 0.0837449 0.127011 0.130048 0.0352081 0.0384672 0.00857596 0.00215484 0.00215428 
221 0.744492 0.0921044 0.040668 0.0322089 0.0343079 0.0389762 0.00506142 0.00317905 0.00798483 0.00101755 
222 0.317677 0.236342 0.063726 0.155821 0.100238 0.0914698 0.00324193 0.0102734 0.00974505 0.0114659 
223 0.507368 0.0740776 0.0850333 0.128964 0.116665 0.0357493 0.039059 0.0087079 0.00218799 0.00218743 
224 0.240525 0.25679 0.101853 0.158043 0.0837932 0.0980705 0.0281198 0.00934635 0.0234593 0 
225 0.652194 0.0507403 0.089831 0.0381116 0.0857595 0.0261786 0.0434878 0.00947277 0.00422392 0 
226 0.495182 0.0708788 0.100418 0.128964 0.116665 0.0357493 0.039059 0.0087079 0.00218799 0.00218743 
227 0.793668 0.190343 0.00705835 0.00384177 0.00384609 0.000602685 0 0.000639959 0 0 
228 0.510251 0.0687631 0.082495 0.125115 0.114125 0.0486648 0.0378931 0.00844796 0.00212268 0.00212213 
229 0.645851 0.0615849 0.0884699 0.0375342 0.0844601 0.0257819 0.0428289 0.00932924 0.00415992 0 
230 0.751763 0.0950333 0.0419004 0.033185 0.0332272 0.0271261 0.00521479 0.00327538 0.0082268 0.00104839 
231 0.636811 0.0507393 0.089831 0.0383869 0.0972773 0.0297701 0.0434878 0.00947277 0.00422392 0 
232 0.495182 0.0708788 0.100418 0.128964 0.116665 0.0357493 0.039059 0.0087079 0.00218799 0.00218743 
233 0.889169 0.0384313 0.0348408 0.0141988 0.0175463 0.00166557 0.00165957 0.00248902 0 0 
234 0.746978 0.0919861 0.0412383 0.0424843 0.0343734 0.0259467 0.00498806 0.00313297 0.00786911 0.0010028 
235 0.898104 0.0674748 0.00920124 0.00503753 0.0185533 0.000790016 0 0.000838865 0 0 
236 0.676675 0.0474786 0.0834145 0.0353894 0.0796338 0.0243087 0.0403815 0.00879614 0.00392221 0 
237 0.290027 0.216009 0.0969134 0.142439 0.104777 0.000501821 0.0953294 0.0325988 0.0142717 0.00713343 
238 0.502587 0.0700492 0.0837449 0.128357 0.128699 0.03521 0.0384672 0.00857596 0.00215484 0.00215428 
239 0.237268 0.252313 0.103608 0.160287 0.0850822 0.0995793 0.0285524 0.00949013 0.0238202 0 
240 0.636811 0.0507393 0.089831 0.0381117 0.101144 0.0261786 0.0434878 0.00947277 0.00422392 0 
241 0.40626 0.132357 0.0730627 0.148046 0.0619898 0.0909077 0.0556974 0.0124912 0.0186788 0.000508456 
242 0.566461 0.0600299 0.0952475 0.107798 0.0972209 0.0297911 0.0325491 0.00725658 0.00182333 0.00182285 
243 0.507839 0.0736065 0.0850333 0.128964 0.116665 0.0357493 0.039059 0.0087079 0.00218799 0.00218743 
244 0.514382 0.0734055 0.0837449 0.12701 0.114897 0.0352077 0.0384672 0.00857596 0.00215484 0.00215428 
245 0.803356 0.083032 0.0310722 0.0246091 0.0246404 0.020116 0.00386714 0.00242893 0.00610077 0.000777456 
246 0.403537 0.119696 0.0730627 0.163431 0.0619898 0.0909077 0.0556974 0.0124912 0.0186788 0.000508456 
247 0.748504 0.0904604 0.0464794 0.0398342 0.0317825 0.0259467 0.00498806 0.00313297 0.00786911 0.0010028 
248 0.238251 0.266714 0.103415 0.145095 0.0850822 0.0995793 0.0285524 0.00949014 0.0238202 0 
249 0.510557 0.0708886 0.0850333 0.128964 0.116665 0.0357493 0.039059 0.0087079 0.00218799 0.00218743 
250 0.651447 0.0514882 0.089831 0.0381116 0.0857595 0.0261786 0.0434878 0.00947277 0.00422392 0 
251 0.237268 0.252313 0.103415 0.16048 0.0850822 0.0995793 0.0285524 0.00949013 0.0238202 0 
252 0.517352 0.067854 0.0840484 0.135214 0.111518 0.0341722 0.0373358 0.00832373 0.00209146 0.00209092 
253 0.737072 0.0945724 0.0419004 0.033185 0.0483787 0.0271261 0.00521479 0.00327538 0.0082268 0.00104839 
254 0.733027 0.0960272 0.042545 0.0336955 0.033745 0.0429214 0.00529502 0.00332577 0.00835336 0.00106452 
255 0.42985 0.114417 0.0845453 0.141515 0.0592549 0.0868971 0.0532402 0.0119401 0.0178548 0.000486025 
256 0.317677 0.25172 0.0637326 0.155821 0.0970418 0.0792815 0.00324193 0.0102734 0.00974505 0.0114659 
257 0.495182 0.070879 0.100418 0.128964 0.116665 0.0357493 0.039059 0.0087079 0.00218799 0.00218743 
258 0.636811 0.0507393 0.104981 0.0383462 0.0857595 0.0261786 0.0434878 0.00947277 0.00422392 0 
259 0.495182 0.0708788 0.0850333 0.144349 0.116665 0.0357493 0.039059 0.0087079 0.00218799 0.00218743 
260 0.330927 0.242768 0.0731347 0.151432 0.0927605 0.0757838 0.0030989 0.00982013 0.00931512 0.0109601 
261 0.403537 0.119696 0.0730627 0.148046 0.0619898 0.0913921 0.0705765 0.0125123 0.0186788 0.000508456 
262 0.889175 0.0381829 0.0202146 0.0290672 0.0175463 0.00166557 0.00165957 0.00248902 0 0 
263 0.657352 0.0500841 0.0884699 0.0375342 0.0844601 0.0257819 0.0428289 0.00932924 0.00415992 0 
264 0.317677 0.236342 0.063726 0.155821 0.0970418 0.0946661 0.00324193 0.0102734 0.00974505 0.0114659 
265 0.892384 0.0370797 0.0195909 0.0137717 0.0315284 0.00161729 0.00161147 0.00241688 0 0 
266 0.755566 0.0881063 0.0528621 0.030848 0.0308872 0.0252159 0.00484755 0.00304472 0.00764745 0.000974557 
267 0.749801 0.0969946 0.0419004 0.033185 0.0332272 0.0271261 0.00521479 0.00327538 0.0082268 0.00104839 
268 0.405999 0.132619 0.0730629 0.148046 0.0619898 0.0909077 0.0556974 0.0124912 0.0186788 0.000508457 
269 0.748407 0.0960323 0.042545 0.0336955 0.0337384 0.0275435 0.00529501 0.00332577 0.00835336 0.00106452 
270 0.495182 0.0708788 0.0850333 0.12897 0.132044 0.0357493 0.039059 0.0087079 0.00218799 0.00218743 
271 0.495326 0.068944 0.112165 0.125115 0.113183 0.0346822 0.037893 0.00844796 0.00212268 0.00212213 
272 0.90833 0.0438899 0.0167276 0.0117298 0.0145136 0.00137769 0.00137273 0.00205882 0 0 
273 0.63814 0.0649374 0.0987046 0.0365563 0.081976 0.0250236 0.0415692 0.00905485 0.00403757 0 
274 0.748497 0.0904672 0.0545714 0.0317421 0.0317825 0.0259467 0.00498806 0.00313297 0.00786911 0.0010028 
275 0.508743 0.0727029 0.0850333 0.128964 0.116665 0.0357493 0.039059 0.0087079 0.00218799 0.00218743 
276 0.889174 0.0381836 0.0201757 0.0141808 0.0324716 0.00166557 0.00165957 0.00248902 0 0 
277 0.636811 0.0507393 0.089831 0.0382075 0.0970168 0.03021 0.0434878 0.00947277 0.00422392 0 
278 0.907026 0.0615333 0.00840101 0.0169463 0.00460582 0.000721734 0 0.00076637 0 0 
279 0.331708 0.241869 0.106378 0.141881 0.081923 0.066926 0.00273669 0.00867232 0.00822634 0.00967905 
280 0.787677 0.0903448 0.0334721 0.026388 0.0264216 0.0215702 0.0041467 0.00260452 0.00654179 0.000833657 
281 0.43215 0.139423 0.067844 0.137471 0.057562 0.0844143 0.051719 0.0115989 0.0173446 0.000472138 
282 0.36003 0.208419 0.103971 0.0259551 0.0940011 0.0679542 0.0676244 0 0.0720451 0 
283 0.907039 0.0433835 0.0173304 0.0121809 0.0150718 0.00143068 0.00142553 0.00213801 0 0 
284 0.662576 0.0492267 0.0871495 0.036974 0.0831995 0.0253971 0.0421897 0.00919 0.00409784 0 
285 0.403537 0.119696 0.0730628 0.148046 0.0625289 0.105753 0.0556974 0.0124912 0.0186788 0.000508457 
286 0.237268 0.267637 0.103476 0.145095 0.0850822 0.0995793 0.0285524 0.00949013 0.0238202 0 
287 0.360091 0.223742 0.103971 0.0259551 0.0940011 0.0679542 0.0522398 0 0.0720451 0 
288 0.636811 0.0507393 0.089831 0.0381116 0.101144 0.0261786 0.0434878 0.00947277 0.00422392 0 
289 0.900611 0.0398965 0.0207964 0.0146171 0.0180861 0.00171682 0.00171063 0.00256561 0 0 
290 0.42072 0.116745 0.0719566 0.157477 0.0601395 0.088194 0.0540348 0.0121183 0.0181213 0.000493279 
291 0.237268 0.252313 0.103415 0.145095 0.0879474 0.112099 0.0285524 0.00949013 0.0238202 0 
292 0.745568 0.0988714 0.042545 0.0336955 0.0337383 0.0275435 0.00529501 0.00332577 0.00835336 0.00106452 
293 0.738692 0.126489 0.0368724 0.0292028 0.0292399 0.023871 0.00458901 0.00288233 0.00723958 0.000922581 
294 0.305366 0.20067 0.0969134 0.142439 0.104777 0.000501821 0.0953294 0.0325988 0.0142717 0.00713343 
295 0.36003 0.208419 0.103971 0.0268274 0.108513 0.0679542 0.0522398 0 0.0720451 0 
296 0.662575 0.0492276 0.0871495 0.036974 0.0831995 0.0253971 0.0421897 0.00919 0.00409784 0 
297 0.917246 0.0505173 0.00908519 0.0169038 0.00472242 0.000740006 0 0.000785772 0 0 
298 0.636811 0.0507393 0.089831 0.0381116 0.0857595 0.0285086 0.0565424 0.00947277 0.00422392 0 
299 0.508771 0.0726749 0.0850333 0.128964 0.116665 0.0357493 0.039059 0.0087079 0.00218799 0.00218743 
300 0.652189 0.0507457 0.089831 0.0381116 0.0857595 0.0261786 0.0434878 0.00947277 0.00422392 0 
301 0.502831 0.0698049 0.0837449 0.142162 0.114897 0.0352077 0.0384672 0.00857596 0.00215484 0.00215428 
302 0.890798 0.0376286 0.019879 0.028678 0.0172883 0.00164108 0.00163517 0.00245242 0 0 
303 0.656435 0.0510009 0.0884699 0.0375342 0.0844601 0.0257819 0.0428289 0.00932924 0.00415992 0 
304 0.655684 0.0561064 0.0871618 0.036974 0.0831995 0.0253971 0.0421897 0.00919 0.00409784 0 
305 0.403537 0.119696 0.0735775 0.162915 0.0619904 0.0909077 0.0556974 0.0124912 0.0186788 0.000508457 
306 0.426038 0.11957 0.0719557 0.145803 0.0610506 0.0895303 0.0548535 0.0123019 0.0183958 0.000500753 
307 0.317677 0.236342 0.0637279 0.171203 0.0970421 0.0792815 0.00324193 0.0102734 0.00974505 0.0114659 
308 0.317678 0.251437 0.0640146 0.155821 0.0970418 0.0792815 0.00324193 0.0102734 0.00974505 0.0114659 
309 0.317984 0.251419 0.063726 0.155821 0.0970418 0.0792815 0.00324193 0.0102734 0.00974505 0.0114659 
310 0.653502 0.0604524 0.0963243 0.0348909 0.0785122 0.0239663 0.0398128 0.00867225 0.00386697 0 
311 0.418903 0.119715 0.0730628 0.148046 0.0619898 0.0909077 0.0556974 0.0124912 0.0186788 0.000508457 
312 0.237268 0.252313 0.103415 0.145095 0.0850822 0.114964 0.0285524 0.00949014 0.0238202 0 
313 0.317677 0.236342 0.063726 0.155821 0.0970418 0.0946661 0.00324193 0.0102734 0.00974505 0.0114659 
314 0.740996 0.0931612 0.0412751 0.047615 0.0327312 0.0267213 0.00513695 0.00322649 0.00810401 0.00103274 
315 0.510467 0.0709785 0.0850333 0.128964 0.116665 0.0357493 0.039059 0.0087079 0.00218799 0.00218743 
316 0.65786 0.0478029 0.0846234 0.035907 0.0952699 0.024667 0.0409668 0.00892362 0.00397906 0 
317 0.495182 0.0708788 0.0850333 0.128964 0.116665 0.0358027 0.0543476 0.00875049 0.00218799 0.00218743 
318 0.915684 0.0347382 0.0173304 0.0121809 0.0150718 0.00143068 0.00142553 0.00213801 0 0 
319 0.438113 0.112758 0.0688272 0.139464 0.0583993 0.100107 0.0524892 0.011767 0.017596 0.000478981 
320 0.495182 0.0708788 0.0850333 0.128964 0.116665 0.0372315 0.0529614 0.00870791 0.00218799 0.00218743 
321 0.502308 0.0703276 0.0837449 0.141786 0.115273 0.0352077 0.0384672 0.00857596 0.00215484 0.00215428 
322 0.329942 0.244526 0.0642201 0.15346 0.0955714 0.0780803 0.00319281 0.0101177 0.00959739 0.0112922 
323 0.893925 0.0474927 0.0226505 0.013573 0.0167943 0.00159419 0.00158845 0.00238235 0 0 
324 0.317755 0.249614 0.0657611 0.155821 0.0970418 0.0792815 0.00324193 0.0102734 0.00974505 0.0114659 
325 0.642313 0.0499735 0.103619 0.0375342 0.0844601 0.0257819 0.0428289 0.00932924 0.00415992 0 
326 0.737072 0.0945722 0.0419004 0.033185 0.0482194 0.0272853 0.00521479 0.00327538 0.0082268 0.00104839 
327 0.766362 0.0891887 0.0395061 0.0312887 0.0313285 0.0255761 0.0049168 0.00308822 0.00775669 0.000988479 
328 0.650427 0.0525081 0.089831 0.0381116 0.0857595 0.0261786 0.0434878 0.00947277 0.00422392 0 
329 0.517977 0.0698099 0.0837449 0.12701 0.114897 0.0352077 0.0384672 0.00857596 0.00215484 0.00215428 
330 0.328015 0.232761 0.0627604 0.157134 0.107047 0.0780815 0.00319281 0.0101177 0.00959739 0.0112922 
331 0.403537 0.119696 0.0730627 0.148046 0.0619898 0.0909077 0.0696569 0.0139162 0.0186788 0.000508456 
332 0.42179 0.00018784 0.156038 0.0519856 0.276226 0 8.73715e-05 0.0936856 0 0 
333 0.61954 0.0534542 0.144972 0.0334808 0.0753293 0.0229947 0.0381987 0.00832068 0.0037102 0 
334 0.678565 0.0494744 0.0822396 0.0348909 0.0785122 0.0239663 0.0398128 0.00867225 0.00386697 0 
335 0.733027 0.0960272 0.042545 0.0336955 0.0341678 0.0424682 0.0053255 0.00332577 0.00835336 0.00106452 
336 0.711268 0.0473661 0.0729877 0.0309657 0.0696796 0.0212701 0.0353338 0.00769662 0.00343194 0 
337 0.736749 0.0948958 0.0419004 0.0483364 0.0332272 0.0271261 0.00521479 0.00327538 0.0082268 0.00104839 
338 0.737072 0.0945722 0.0419004 0.0332422 0.0483208 0.0271267 0.00521479 0.00327538 0.0082268 0.00104839 
339 0.770267 0.0966863 0.0363878 0.0288185 0.0288552 0.0235569 0.00452863 0.00284441 0.00714432 0.000910441 
340 0.636811 0.0507393 0.089831 0.0394436 0.0997714 0.0262193 0.0434878 0.00947277 0.00422392 0 
341 0.643373 0.0593511 0.102056 0.0359023 0.0807879 0.024661 0.0409668 0.00892362 0.00397906 0 
342 0.744055 0.104943 0.0413595 0.0326897 0.0327312 0.0267213 0.00513695 0.00322649 0.00810401 0.00103274 
343 0.733027 0.0960272 0.0579095 0.0337156 0.0337384 0.0275435 0.00529501 0.00332577 0.00835336 0.00106452 
344 0.502826 0.0698095 0.0841396 0.141767 0.114897 0.0352077 0.0384672 0.00857596 0.00215484 0.00215428 
345 0.636811 0.0507393 0.089831 0.0381451 0.101111 0.0261786 0.0434878 0.00947277 0.00422392 0 
346 0.662709 0.0471588 0.0834145 0.0370851 0.0922238 0.0243087 0.0403815 0.00879614 0.00392221 0 
347 0.403537 0.119696 0.0730627 0.148046 0.0619898 0.0909078 0.071082 0.0124912 0.0186788 0.000508456 
348 0.502825 0.0698107 0.0837449 0.127016 0.130043 0.0352077 0.0384672 0.00857596 0.00215484 0.00215428 
349 0.657366 0.0483002 0.0991133 0.0359023 0.0807879 0.024661 0.0409668 0.00892362 0.00397906 0 
350 0.740955 0.0932023 0.0431485 0.0457415 0.0327312 0.0267213 0.00513695 0.00322649 0.00810401 0.00103274 
351 0.328015 0.232761 0.0627719 0.168589 0.0955828 0.0780803 0.00319281 0.0101177 0.00959739 0.0112922 
352 0.502831 0.0698049 0.0837449 0.142162 0.114897 0.0352077 0.0384672 0.00857596 0.00215484 0.00215428 
353 0.30526 0.200775 0.0969134 0.142439 0.104777 0.000501821 0.0953294 0.0325988 0.0142717 0.00713343 
354 0.495182 0.0708788 0.0850333 0.128964 0.117978 0.0498201 0.0390595 0.0087079 0.00218799 0.00218743 
355 0.655832 0.0498317 0.0886903 0.0462897 0.0808264 0.024661 0.0409668 0.00892362 0.00397906 0 
356 0.688946 0.0465444 0.0799865 0.033935 0.0763612 0.0233097 0.038722 0.00843466 0.00376103 0 
357 0.237268 0.252314 0.118799 0.145095 0.0850822 0.0995793 0.0285524 0.00949014 0.0238202 0 
358 0.688896 0.0465941 0.0799865 0.033935 0.0763612 0.0233097 0.038722 0.00843466 0.00376103 0 
359 0.892155 0.0373083 0.0195909 0.0282624 0.0170377 0.00161729 0.00161147 0.00241688 0 0 
360 0.893328 0.0707989 0.00960462 0.0193162 0.00525452 0.000823387 0 0.00087431 0 0 
361 0.403558 0.227861 0.0548105 0.133268 0.0829963 0.0678066 0.0027727 0.00878643 0.00833458 0.0098064 
362 0.74841 0.096029 0.042545 0.0336955 0.0337384 0.0275435 0.00529501 0.00332577 0.00835336 0.00106452 
363 0.403537 0.119696 0.0730627 0.148046 0.0619962 0.104305 0.0576781 0.0124912 0.0186788 0.000508456 
364 0.823813 0.116266 0.0506478 0.00402171 0.00396884 0.00062192 0 0.000660383 0 0 
365 0.906073 0.0409535 0.0185174 0.0130152 0.0161041 0.00152867 0.00152317 0.00228444 0 0 
366 0.647651 0.0492256 0.0871495 0.0370396 0.0980593 0.0253971 0.0421897 0.00919 0.00409784 0 
367 0.753745 0.124421 0.0333271 0.026388 0.0264216 0.0215702 0.0041467 0.00260452 0.00654179 0.000833657 
368 0.636811 0.0507393 0.089831 0.0381116 0.101144 0.0261786 0.0434878 0.00947277 0.00422392 0 
369 0.750732 0.0354867 0.0614633 0.0267724 0.0685022 0.0179172 0.0297548 0.00648137 0.00289005 0 
370 0.636811 0.0507393 0.089831 0.0381116 0.0857595 0.0261786 0.0588724 0.00947277 0.00422392 0 
371 0.517391 0.0678367 0.0959655 0.123275 0.111518 0.0341722 0.0373358 0.00832373 0.00209146 0.00209092 
372 0.502831 0.0698049 0.0837449 0.12701 0.114897 0.0352077 0.0536187 0.00857596 0.00215484 0.00215428 
373 0.721189 0.140298 0.0378826 0.0300028 0.030041 0.024525 0.00471474 0.0029613 0.00743793 0.000947857 
374 0.495182 0.0708788 0.0850342 0.144348 0.116665 0.0357493 0.039059 0.0087079 0.00218799 0.00218743 
375 0.737072 0.0945722 0.0419004 0.033185 0.0332272 0.0422776 0.00521479 0.00327538 0.0082268 0.00104839 
376 0.166633 0.186149 0.11999 0.0684375 0.319849 0.0455907 0.0624147 0.0309353 0 0 
377 0.329121 0.240283 0.063726 0.155821 0.0970418 0.0792815 0.00324193 0.0102734 0.00974505 0.0114659 
378 0.403537 0.119696 0.0737915 0.1627 0.0619914 0.0909077 0.0556974 0.0124912 0.0186788 0.000508457 
379 0.900986 0.0395208 0.0207964 0.0146171 0.0180861 0.00171682 0.00171063 0.00256561 0 0 
380 0.740445 0.108631 0.0412813 0.0326897 0.0327312 0.0267213 0.00513695 0.00322649 0.00810401 0.00103274 
381 0.768575 0.0871199 0.0383916 0.0389528 0.0284819 0.023251 0.00446982 0.00280747 0.00705154 0.000898617 
382 0.259372 0.256499 0.1042 0.140764 0.0825424 0.0966067 0.0277001 0.00920685 0.0231091 0 
383 0.51025 0.0687649 0.0826551 0.13988 0.113183 0.0346822 0.037893 0.00844796 0.00212268 0.00212213 
384 0.671086 0.0686639 0.0806474 0.0330301 0.0743249 0.0226881 0.0376894 0.00820973 0.00366073 0 
385 0.338045 0.229287 0.0618237 0.15117 0.0941464 0.0918389 0.00314515 0.0099667 0.00945415 0.0111237 
386 0.421333 0.116132 0.0708818 0.143627 0.0601475 0.103111 0.0540348 0.0121183 0.0181213 0.000493279 
387 0.737072 0.0945722 0.0419004 0.033185 0.034493 0.0410118 0.00521479 0.00327538 0.0082268 0.00104839 
388 0.412574 0.117882 0.0719557 0.145803 0.0615623 0.10417 0.0548535 0.0123019 0.0183958 0.000500753 
389 0.64765 0.0492275 0.0871749 0.0518565 0.0832169 0.0253971 0.0421897 0.00919 0.00409784 0 
390 0.317677 0.236342 0.0640456 0.166589 0.101338 0.0792815 0.00324193 0.0102734 0.00974505 0.0114659 
391 0.768618 0.0832965 0.0501378 0.0292028 0.0292399 0.023871 0.00458901 0.00288233 0.00723958 0.000922581 
392 0.233673 0.263642 0.10608 0.153814 0.0837959 0.0980705 0.0281198 0.00934635 0.0234593 0 
393 0.429551 0.114716 0.0699053 0.155154 0.0602553 0.0868971 0.0532402 0.0119401 0.0178548 0.000486025 
394 0.75171 0.0858584 0.049662 0.0430961 0.0296351 0.0241936 0.00465103 0.00292129 0.00733741 0.000935048 
395 0.510654 0.0892569 0.0812819 0.123275 0.111518 0.0341722 0.0373358 0.00832373 0.00209146 0.00209092 
396 0.495182 0.0708788 0.0852175 0.142644 0.118186 0.0357493 0.039059 0.0087079 0.00218799 0.00218743 
397 0.162691 0.174707 0.119991 0.0838216 0.319849 0.0455907 0.0624147 0.0309353 0 0 
398 0.725758 0.093685 0.0559779 0.0331741 0.047099 0.0268059 0.00513695 0.00322649 0.00810401 0.00103274 
399 0.397423 0.117882 0.0759075 0.171566 0.0616389 0.0895303 0.0548535 0.0123019 0.0183958 0.000500753 
400 0.652833 0.0485014 0.100574 0.0364302 0.081976 0.0250236 0.0415692 0.00905485 0.00403757 0 
401 0.765443 0.0960433 0.0378826 0.0300028 0.030041 0.024525 0.00471474 0.0029613 0.00743793 0.000947857 
402 0.495182 0.0708788 0.0850333 0.144349 0.116665 0.0357493 0.039059 0.0087079 0.00218799 0.00218743 
403 0.504557 0.0832309 0.0837449 0.12701 0.114897 0.0352077 0.0384672 0.00857596 0.00215484 0.00215428 
404 0.733027 0.0974059 0.0565385 0.033708 0.0337384 0.0275435 0.00529501 0.00332577 0.00835336 0.00106452 
405 0.237268 0.252313 0.103415 0.147519 0.0980433 0.0995793 0.0285524 0.00949013 0.0238202 0 
406 0.740996 0.0968474 0.0525141 0.0326897 0.0327312 0.0267213 0.00513695 0.00322649 0.00810401 0.00103274 
407 0.642314 0.0534864 0.100106 0.0375343 0.0844601 0.0257819 0.0428289 0.00932924 0.00415992 0 
408 0.372964 0.210869 0.103971 0.0259551 0.0940011 0.0679542 0.0522398 0 0.0720451 0 
409 0.773231 0.0882561 0.0378826 0.0300028 0.030041 0.024525 0.00471474 0.0029613 0.00743793 0.000947857 
410 0.290002 0.200649 0.0969134 0.142439 0.104777 0.000516008 0.1107 0.0325989 0.0142717 0.00713343 
411 0.636811 0.0507393 0.089831 0.0381116 0.0857595 0.0261786 0.0461849 0.0221603 0.00422393 0 
412 0.418884 0.119734 0.0730628 0.148046 0.0619898 0.0909077 0.0556974 0.0124912 0.0186788 0.000508457 
413 0.300751 0.197617 0.095445 0.14028 0.10319 0.000496528 0.108832 0.0323071 0.0140555 0.00702535 
414 0.338044 0.229288 0.0618237 0.151355 0.108321 0.0774788 0.00314515 0.0099667 0.00945415 0.0111237 
415 0.260019 0.244798 0.109913 0.146104 0.0825424 0.0966067 0.0277001 0.00920685 0.0231091 0 
416 0.514901 0.0728863 0.0837449 0.12701 0.114897 0.0352077 0.0384672 0.00857596 0.00215484 0.00215428 
417 0.416224 0.122394 0.0730627 0.148046 0.0619898 0.0909077 0.0556974 0.0124912 0.0186788 0.000508456 
418 0.636811 0.0553978 0.100557 0.0381116 0.0857595 0.0261786 0.0434878 0.00947277 0.00422392 0 
419 0.237268 0.252313 0.103415 0.145095 0.0850852 0.114961 0.0285524 0.00949013 0.0238202 0 
420 0.913329 0.0387477 0.0227709 0.0095011 0.011756 0.00111593 0.00111191 0.00166764 0 0 
421 0.636811 0.0513856 0.104569 0.0381116 0.0857595 0.0261786 0.0434878 0.00947277 0.00422392 0 
422 0.896863 0.035544 0.0326584 0.0131963 0.0163278 0.00154991 0.00154432 0.00231617 0 0 
423 0.657465 0.0499713 0.0884699 0.0375342 0.0844601 0.0257819 0.0428289 0.00932924 0.00415992 0 
424 0.747901 0.0965382 0.042545 0.0336955 0.0337384 0.0275435 0.00529501 0.00332577 0.00835336 0.00106452 
425 0.961457 0.0320225 0 0 0.00326032 0 0 0.00326032 0 0 
426 0.317677 0.236342 0.063726 0.155821 0.0970418 0.0946661 0.00324193 0.0102734 0.00974505 0.0114659 
427 0.652195 0.0507401 0.089831 0.0381116 0.0857595 0.0261786 0.0434878 0.00947277 0.00422392 0 
428 0.495182 0.0708788 0.0850333 0.128964 0.116665 0.0357876 0.0544053 0.0087079 0.00218799 0.00218743 
429 0.642314 0.0499706 0.103621 0.0375342 0.0844601 0.0257819 0.0428289 0.00932924 0.00415992 0 
430 0.317677 0.236342 0.063726 0.171205 0.0970421 0.0792815 0.00324193 0.0102734 0.00974505 0.0114659 
431 0.733027 0.0960312 0.0579256 0.0336955 0.0337384 0.0275435 0.00529501 0.00332577 0.00835336 0.00106452 
432 0.652184 0.0477001 0.110394 0.034891 0.0785122 0.0239663 0.0398128 0.00867225 0.00386697 0 
433 0.237268 0.252313 0.103415 0.16048 0.0850822 0.0995793 0.0285524 0.00949013 0.0238202 0 
434 0.522443 0.0714966 0.082495 0.125115 0.113183 0.0346822 0.037893 0.00844796 0.00212268 0.00212213 
435 0.304462 0.201574 0.0969134 0.142439 0.104777 0.000501821 0.0953294 0.0325988 0.0142717 0.00713343 
436 0.48768 0.0698049 0.103747 0.136991 0.115218 0.0352077 0.0384672 0.00857596 0.00215484 0.00215428 
437 0.648082 0.0637207 0.0871495 0.036974 0.0831995 0.0253971 0.0421897 0.00919 0.00409784 0 
438 0.733027 0.0960272 0.042545 0.0336955 0.0486803 0.0279861 0.00529501 0.00332577 0.00835336 0.00106452 
439 0.237268 0.267698 0.103415 0.145095 0.0850822 0.0995793 0.0285524 0.00949014 0.0238202 0 
440 0.652195 0.0507397 0.089831 0.0381116 0.0857595 0.0261786 0.0434878 0.00947277 0.00422392 0 
441 0.495182 0.0708788 0.0850659 0.144316 0.116665 0.0357493 0.039059 0.0087079 0.00218799 0.00218743 
442 0.162691 0.174707 0.11999 0.0684375 0.319849 0.0455911 0.0777989 0.0309353 0 0 
443 0.685942 0.0458741 0.0810974 0.0344063 0.0774217 0.0236334 0.0392598 0.00855181 0.00381326 0 
444 0.636811 0.0507393 0.089831 0.0381692 0.101087 0.0261786 0.0434878 0.00947277 0.00422392 0 
445 0.290002 0.200649 0.0969134 0.157823 0.104777 0.000501821 0.0953294 0.0325988 0.0142717 0.00713343 
446 0.248259 0.25244 0.113614 0.142897 0.0837931 0.0980705 0.0281198 0.00934635 0.0234593 0 
447 0.495182 0.0708788 0.0850333 0.129071 0.131943 0.0357493 0.039059 0.0087079 0.00218799 0.00218743 
448 0.887496 0.0387614 0.0204813 0.0143956 0.0329636 0.00169084 0.00168472 0.00252673 0 0 
449 0.403537 0.119696 0.0884474 0.148046 0.0619898 0.0909077 0.0556974 0.0124912 0.0186788 0.000508457 
450 0.409633 0.120824 0.0719557 0.160954 0.0610506 0.0895303 0.0548535 0.0123019 0.0183958 0.000500753 
451 0.290002 0.200649 0.112298 0.142439 0.104777 0.000501821 0.0953294 0.0325988 0.0142717 0.00713343 
452 0.237268 0.252313 0.103415 0.146295 0.0992676 0.0995793 0.0285524 0.00949013 0.0238202 0 
453 0.737072 0.0945722 0.0419004 0.033185 0.0332272 0.0271261 0.00521869 0.018423 0.00822681 0.00104839 
454 0.237268 0.252313 0.103416 0.160479 0.0850822 0.0995793 0.0285524 0.00949014 0.0238202 0 
455 0.86155 0.12343 0.00660923 0.00361797 0.00362205 0.000567577 0 0.00060268 0 0 
456 0.362089 0.226312 0.0609145 0.148946 0.0927605 0.0757838 0.0030989 0.00982013 0.00931512 0.0109601 
457 0.237268 0.267698 0.103415 0.145095 0.0850822 0.0995793 0.0285524 0.00949014 0.0238202 0 
458 0.652346 0.0494651 0.100097 0.0364303 0.081976 0.0250236 0.0415692 0.00905485 0.00403757 0 
459 0.65217 0.0507644 0.089831 0.0381116 0.0857595 0.0261786 0.0434878 0.00947277 0.00422392 0 
460 0.317677 0.236342 0.063726 0.155821 0.0970433 0.0946646 0.00324193 0.0102734 0.00974505 0.0114659 
461 0.627162 0.0499706 0.0884699 0.0526857 0.0996115 0.025782 0.0428289 0.00932924 0.00415992 0 
462 0.248811 0.248524 0.116978 0.142897 0.0837931 0.0980705 0.0281198 0.00934635 0.0234593 0 
463 0.333053 0.23635 0.063726 0.155821 0.0970418 0.0792815 0.00324193 0.0102734 0.00974505 0.0114659 
464 0.495182 0.0708788 0.0850333 0.128964 0.130707 0.0370917 0.039059 0.0087079 0.00218799 0.00218743 
465 0.495182 0.0708788 0.0850333 0.128964 0.13205 0.0357493 0.039059 0.0087079 0.00218799 0.00218743 
466 0.237268 0.252313 0.103415 0.145095 0.0850824 0.114964 0.0285525 0.00949013 0.0238202 0 
467 0.877891 0.0515725 0.0334833 0.0143702 0.0170377 0.00161729 0.00161147 0.00241688 0 0 
468 0.300433 0.205603 0.0969134 0.142439 0.104777 0.000501821 0.0953294 0.0325988 0.0142717 0.00713343 
469 0.765597 0.0939662 0.0384087 0.0304195 0.0304582 0.0248656 0.00478022 0.00300243 0.00754123 0.000961021 
470 0.885769 0.0547032 0.0208316 0.0146171 0.0180861 0.00171682 0.00171063 0.00256561 0 0 
471 0.270904 0.241196 0.0988537 0.153399 0.0813286 0.0951861 0.0272927 0.00907145 0.0227693 0 
472 0.403537 0.119696 0.0730627 0.148046 0.0619898 0.0909077 0.0556974 0.0135751 0.0329643 0.000523667 
473 0.642314 0.0499706 0.0884699 0.0526857 0.0844601 0.0257819 0.0428289 0.00932924 0.00415992 0 
474 0.462566 0.105147 0.0911951 0.130041 0.0544505 0.0798514 0.0489234 0.010972 0.0164071 0.000446617 
475 0.749061 0.0942016 0.051794 0.0312887 0.0313285 0.0255761 0.0049168 0.00308822 0.00775669 0.000988479 
476 0.721921 0.0945722 0.0570526 0.0482816 0.0332813 0.0271261 0.00521479 0.00327538 0.0082268 0.00104839 
477 0.627162 0.0499706 0.118773 0.0375342 0.0844601 0.0257819 0.0428289 0.00932924 0.00415992 0 
478 0.636811 0.0507393 0.089831 0.0381116 0.101144 0.0261786 0.0434878 0.00947277 0.00422392 0 
479 0.734181 0.110258 0.042545 0.0336955 0.0337384 0.0275435 0.00529501 0.00332577 0.00835336 0.00106452 
480 0.495182 0.0708788 0.0850352 0.143193 0.117819 0.0357493 0.039059 0.0087079 0.00218799 0.00218743 
481 0.636811 0.0507393 0.089831 0.0534962 0.0857595 0.0261786 0.0434878 0.00947277 0.00422392 0 
482 0.510527 0.0709191 0.0850333 0.128964 0.116665 0.0357493 0.039059 0.0087079 0.00218799 0.00218743 
483 0.305324 0.200712 0.0969134 0.142439 0.104777 0.000501821 0.0953294 0.0325988 0.0142717 0.00713343 
484 0.642314 0.0499706 0.0884699 0.0375342 0.0844601 0.0257819 0.0428289 0.00932925 0.0193114 0 
485 0.627162 0.0499708 0.103565 0.0527393 0.0844627 0.0257819 0.0428289 0.00932924 0.00415992 0 
486 0.73707 0.109722 0.0419048 0.033185 0.0332272 0.0271261 0.00521479 0.00327538 0.0082268 0.00104839 
487 0.647652 0.0492247 0.102075 0.036974 0.0831995 0.0253971 0.0421897 0.00919 0.00409784 0 
488 0.290002 0.200649 0.0969134 0.157735 0.104865 0.000501821 0.0953294 0.0325988 0.0142717 0.00713343 
489 0.495182 0.0708788 0.0851211 0.14425 0.116676 0.0357493 0.039059 0.0087079 0.00218799 0.00218743 
490 0.87649 0.0529732 0.032463 0.0153903 0.0170377 0.00161729 0.00161147 0.00241688 0 0 
491 0.24511 0.244781 0.105749 0.165194 0.0825424 0.0966067 0.0277001 0.00920685 0.0231091 0 
492 0.162691 0.174707 0.11999 0.0684376 0.330544 0.0502804 0.0624147 0.0309353 0 0 
493 0.290002 0.200649 0.0969134 0.142439 0.120162 0.000501821 0.0953294 0.0325988 0.0142717 0.00713343 
494 0.397423 0.148185 0.0719557 0.145803 0.0610506 0.0895303 0.0548535 0.0123019 0.0183958 0.000500753 
495 0.914699 0.0660562 0.00855038 0.00460063 0.00460582 0.000721734 0 0.00076637 0 0 
496 0.368976 0.000254203 0 1.0449e-07 0.507879 0.12289 0 0 0 0 
497 0.70813 0.045261 0.0899717 0.0288122 0.0648182 0.0197861 0.0328687 0.00715965 0.0031925 0 
498 0.656523 0.0509131 0.0884699 0.0375342 0.0844601 0.0257819 0.0428289 0.00932924 0.00415992 0 
499 0.527688 0.069369 0.0789595 0.119753 0.108332 0.0332212 0.0505282 0.00808712 0.00203171 0.00203118 
500 0.290002 0.200649 0.0978704 0.156782 0.104861 0.000501821 0.0953294 0.0325988 0.0142717 0.00713343 
501 0.414237 0.131371 0.0719557 0.145803 0.0610506 0.0895303 0.0548535 0.0123019 0.0183958 0.000500753 
502 0.374506 0.209327 0.103971 0.0259551 0.0940011 0.0679542 0.0522398 0 0.0720451 0 
503 0.403537 0.119696 0.0730628 0.148046 0.0621513 0.106131 0.0556974 0.0124912 0.0186788 0.000508457 
504 0.946892 0.0315343 0 0 0.0183624 0 0 0.00321092 0 0 
505 0.926462 0.0253498 0.0135051 0.0191868 0.0116396 0.00110488 0.0011009 0.00165113 0 0 
506 0.412604 0.133004 0.0719557 0.145803 0.0610506 0.0895303 0.0548535 0.0123019 0.0183958 0.000500753 
507 0.733027 0.096118 0.0578388 0.0336955 0.0337384 0.0275435 0.00529501 0.00332577 0.00835336 0.00106452 
508 0.495182 0.0708788 0.0850333 0.128964 0.131959 0.0358401 0.039059 0.0087079 0.00218799 0.00218743 
509 0.636811 0.0507393 0.089831 0.0381116 0.101144 0.0261786 0.0434878 0.00947277 0.00422392 0 
510 0.403537 0.119696 0.0730627 0.148046 0.0619898 0.0909077 0.0556974 0.0159001 0.0306545 0.000508456 
511 0.412574 0.117882 0.0722586 0.160571 0.0611308 0.0895303 0.0548535 0.0123019 0.0183958 0.000500753 
512 0.404948 0.13367 0.0730629 0.148046 0.0619898 0.0909077 0.0556974 0.0124912 0.0186788 0.000508457 
513 0.338044 0.229288 0.0622228 0.165696 0.094145 0.0769149 0.00314515 0.0099667 0.00945415 0.0111237 
514 0.310956 0.194899 0.0940205 0.138187 0.101649 0.000505782 0.10739 0.0316257 0.0138457 0.0069205 
515 0.656987 0.0504486 0.0884699 0.0375342 0.0844601 0.0257819 0.0428289 0.00932924 0.00415992 0 
516 0.748389 0.0960495 0.042545 0.0336955 0.0337383 0.0275435 0.00529501 0.00332577 0.00835336 0.00106452 
517 0.636811 0.0507393 0.089831 0.0381116 0.0857595 0.0266457 0.0584053 0.00947277 0.00422392 0 
518 0.887663 0.0474431 0.0313569 0.0126682 0.0156747 0.00148791 0.00148255 0.00222353 0 0 
519 0.162691 0.174707 0.11999 0.0684376 0.330019 0.0508053 0.0624147 0.0309353 0 0 
520 0.89098 0.0494546 0.0208695 0.0146171 0.0180861 0.00171682 0.00171064 0.00256561 0 0 
521 0.647652 0.0492247 0.0871495 0.036974 0.0981249 0.0253971 0.0421897 0.00919 0.00409784 0 
522 0.649986 0.0529484 0.089831 0.0381116 0.0857595 0.0261786 0.0434878 0.00947277 0.00422392 0 
523 0.403537 0.119696 0.0730627 0.148046 0.0619898 0.0909081 0.0710816 0.0124912 0.0186788 0.000508456 
524 0.237268 0.253222 0.117889 0.145097 0.0850822 0.0995793 0.0285524 0.00949013 0.0238202 0 
525 0.747228 0.0995681 0.0419004 0.033185 0.0332272 0.0271261 0.00521479 0.00327538 0.0082268 0.00104839 
526 0.884585 0.0350499 0.0459092 0.0130153 0.0161041 0.00152867 0.00152317 0.00228445 0 0 
527 0.737072 0.0945722 0.0419004 0.033185 0.0483787 0.0271262 0.00521479 0.00327538 0.0082268 0.00104839 
528 0.77584 0.0945223 0.0354578 0.0280796 0.0281153 0.0229529 0.00441251 0.00277148 0.00696114 0.000887097 
529 0.495182 0.0708788 0.0850333 0.128964 0.116667 0.0511325 0.039059 0.0087079 0.00218799 0.00218743 
530 0.642314 0.0499706 0.0884699 0.0375342 0.0869758 0.0373553 0.0438913 0.00932924 0.00415992 0 
531 0.910075 0.0415866 0.0168978 0.0118764 0.014695 0.00139492 0.00138989 0.00208456 0 0 
532 0.237268 0.252313 0.103415 0.16048 0.0850822 0.0995793 0.0285524 0.00949013 0.0238202 0 
533 0.887496 0.0387614 0.0204813 0.0295471 0.0178121 0.00169081 0.00168472 0.00252673 0 0 
534 0.495182 0.0708788 0.0850333 0.130615 0.130389 0.0357592 0.039059 0.0087079 0.00218799 0.00218743 
535 0.51791 0.0698772 0.0837449 0.12701 0.114897 0.0352077 0.0384672 0.00857596 0.00215484 0.00215428 
536 0.290002 0.200736 0.111631 0.143019 0.104777 0.000501821 0.0953294 0.0325988 0.0142717 0.00713343 
537 0.642314 0.0499706 0.103543 0.0376122 0.0844601 0.0257819 0.0428289 0.00932924 0.00415992 0 
538 0.636811 0.0507393 0.089831 0.0381116 0.0857595 0.0261786 0.0435671 0.0247781 0.00422392 0 
539 0.666052 0.0499883 0.0858679 0.0364302 0.081976 0.0250236 0.0415692 0.00905485 0.00403757 0 
540 0.495182 0.0708788 0.0850333 0.131565 0.129449 0.0357493 0.039059 0.0087079 0.00218799 0.00218743 
541 0.290002 0.200649 0.0969134 0.142444 0.120157 0.000501821 0.0953294 0.0325988 0.0142717 0.00713343 
542 0.531236 0.0658209 0.0932448 0.119753 0.108332 0.0331958 0.0362691 0.00808591 0.00203171 0.00203118 
543 0.642314 0.0499707 0.0884699 0.037538 0.0996078 0.0257819 0.0428289 0.00932924 0.00415992 0 
544 0.317677 0.236342 0.063726 0.171206 0.0970418 0.0792815 0.00324193 0.0102734 0.00974505 0.0114659 
545 0.360267 0.220109 0.107429 0.0259551 0.0940011 0.0679542 0.0522398 0 0.0720451 0 
546 0.495182 0.0765363 0.09476 0.128965 0.116665 0.0357493 0.039059 0.0087079 0.00218799 0.00218743 
547 0.740936 0.0932209 0.041275 0.0326943 0.047652 0.0267213 0.00513695 0.00322649 0.00810401 0.00103274 
548 0.237268 0.267698 0.103415 0.145095 0.0850822 0.0995793 0.0285524 0.00949014 0.0238202 0 
549 0.666851 0.0491896 0.0858679 0.0364302 0.081976 0.0250236 0.0415692 0.00905485 0.00403757 0 
550 0.502831 0.0698049 0.0837449 0.12701 0.114899 0.0501243 0.0387002 0.00857596 0.00215484 0.00215428 
551 0.636811 0.0507393 0.089831 0.0381116 0.0857595 0.026179 0.058872 0.00947277 0.00422392 0 
552 0.737072 0.0988219 0.0528022 0.033185 0.0332272 0.0271261 0.00521479 0.00327538 0.0082268 0.00104839 
553 0.636811 0.0523019 0.103653 0.0381116 0.0857595 0.0261786 0.0434878 0.00947277 0.00422392 0 
554 0.887631 0.0892792 0.0101604 0.00556196 0.00556823 0.000872544 0 0.000926507 0 0 
555 0.737066 0.0973556 0.0542744 0.033185 0.0332272 0.0271261 0.00521479 0.00327538 0.0082268 0.00104839 
556 0.237268 0.252313 0.103415 0.160419 0.0851429 0.0995793 0.0285524 0.00949014 0.0238202 0 
557 0.319553 0.24985 0.063726 0.155821 0.0970418 0.0792815 0.00324193 0.0102734 0.00974505 0.0114659 
558 0.42179 0.00018784 0.140653 0.0523936 0.291202 0 8.73715e-05 0.0936856 0 0 
559 0.748004 0.0964346 0.042545 0.0336955 0.0337384 0.0275435 0.00529501 0.00332577 0.00835336 0.00106452 
560 0.495182 0.0708788 0.0850334 0.144349 0.116665 0.0357493 0.039059 0.0087079 0.00218799 0.00218743 
561 0.636811 0.0508183 0.105137 0.0381116 0.0857595 0.0261786 0.0434878 0.00947277 0.00422392 0 
562 0.636811 0.0507393 0.089831 0.0381117 0.101144 0.0261786 0.0434878 0.00947277 0.00422392 0 
563 0.403537 0.119696 0.0884473 0.148046 0.0619898 0.0909077 0.0556974 0.0124912 0.0186788 0.000508456 
564 0.898265 0.0350636 0.0189016 0.0263287 0.016105 0.00152867 0.00152317 0.00228445 0 0 
565 0.260036 0.244781 0.100328 0.140764 0.0826225 0.111452 0.0277001 0.00920685 0.0231091 0 
566 0.275895 0.261094 0.10764 0.138829 0.0747344 0.0874683 0.0250798 0.00833593 0.0209231 0 
567 0.317677 0.236342 0.063726 0.165324 0.102924 0.0792815 0.00324193 0.0102734 0.00974505 0.0114659 
568 0.290002 0.206545 0.106402 0.142439 0.104777 0.000501821 0.0953294 0.0325988 0.0142717 0.00713343 
569 0.162691 0.174707 0.11999 0.0684377 0.33522 0.0456045 0.0624147 0.0309353 0 0 
570 0.906523 0.0570955 0.00973149 0.019599 0.00532959 0.00083515 0 0.0008868 0 0 
571 0.48768 0.0698049 0.0988964 0.131752 0.125307 0.0352077 0.0384672 0.00857596 0.00215484 0.00215428 
572 0.529332 0.0705791 0.0812818 0.123275 0.111518 0.0341722 0.0373358 0.00832373 0.00209146 0.00209092 
573 0.904974 0.0405609 0.019039 0.0133818 0.0165577 0.00157174 0.00156607 0.0023488 0 0 
574 0.495264 0.0861213 0.0850934 0.128964 0.116665 0.0357493 0.039059 0.0087079 0.00218799 0.00218743 
575 0.331147 0.189031 0.0912952 0.134196 0.113181 0.00047273 0.089803 0.0307091 0.0134444 0.0067199 
576 0.317677 0.236342 0.063726 0.155821 0.0970418 0.0792815 0.00324193 0.0102734 0.0251281 0.0114674 
577 0.737072 0.0945722 0.0439808 0.046256 0.0332272 0.0271261 0.00521479 0.00327538 0.0082268 0.00104839 
578 0.37541 0.208423 0.103971 0.0259551 0.0940011 0.0679542 0.0522398 0 0.0720451 0 
579 0.412573 0.117884 0.0719557 0.145803 0.0610509 0.104681 0.0548535 0.0123019 0.0183958 0.000500753 
580 0.636811 0.0507393 0.089831 0.0381164 0.101139 0.0261786 0.0434878 0.00947277 0.00422392 0 
581 0.368157 0.229221 0.0575304 0.140874 0.101085 0.0717823 0.00292674 0.00927457 0.00879761 0.0103512 
582 0.263905 0.248561 0.101848 0.142897 0.0837931 0.0980705 0.0281198 0.00934635 0.0234593 0 
583 0.495182 0.0708788 0.0850333 0.128964 0.130789 0.0370103 0.039059 0.0087079 0.00218799 0.00218743 
584 0.885765 0.0393577 0.0207964 0.0146171 0.0334707 0.00171682 0.00171063 0.00256561 0 0 
585 0.75222 0.0945755 0.0419004 0.033185 0.0332272 0.0271261 0.00521479 0.00327538 0.0082268 0.00104839 
586 0.317677 0.236342 0.0639853 0.170946 0.0970419 0.0792815 0.00324193 0.0102734 0.00974505 0.0114659 
587 0.290002 0.200649 0.103879 0.150858 0.104777 0.000501821 0.0953294 0.0325988 0.0142717 0.00713343 
588 0.411959 0.126659 0.0730627 0.148046 0.0619898 0.0909077 0.0556974 0.0124912 0.0186788 0.000508456 
589 0.495182 0.0708788 0.0850403 0.144337 0.11667 0.0357493 0.039059 0.0087079 0.00218799 0.00218743 
590 0.412361 0.118096 0.0721155 0.160795 0.0610506 0.0895303 0.0548535 0.0123019 0.0183958 0.000500753 
591 0.650469 0.061333 0.0871495 0.036974 0.0831995 0.0253971 0.0421897 0.00919 0.00409784 0 
592 0.636811 0.0507393 0.089831 0.0381116 0.0857595 0.0262131 0.0588379 0.00947279 0.00422392 0 
593 0.905237 0.0588941 0.0236684 0.00524861 0.00525452 0.000823387 0 0.00087431 0 0 
594 0.733027 0.0960272 0.042545 0.0336955 0.0337384 0.0275567 0.0206664 0.00332577 0.00835336 0.00106452 
595 0.303833 0.209687 0.0954452 0.14028 0.10319 0.000494218 0.093885 0.0321049 0.0140555 0.00702535 
596 0.437174 0.000188133 0.140653 0.0519856 0.276226 0 8.73715e-05 0.0936856 0 0 
597 0.317677 0.236342 0.063726 0.171206 0.0970418 0.0792815 0.00324193 0.0102734 0.00974505 0.0114659 
598 0.162691 0.174707 0.11999 0.0685646 0.335107 0.0455907 0.0624147 0.0309353 0 0 
599 0.901023 0.0394844 0.0207964 0.0146171 0.0180861 0.00171682 0.00171063 0.00256561 0 0 
600 0.437169 0.000193608 0.140653 0.0519856 0.276226 0 8.73715e-05 0.0936856 0 0 
601 0.737072 0.0945728 0.0419004 0.0332676 0.0482959 0.0271262 0.00521479 0.00327538 0.0082268 0.00104839 
602 0.636811 0.0507393 0.089831 0.0381116 0.0857595 0.0261786 0.0588724 0.00947281 0.00422392 0 
603 0.362161 0.221654 0.10399 0.0259551 0.0940011 0.0679542 0.0522398 0 0.0720451 0 
604 0.649391 0.0535437 0.089831 0.0381116 0.0857595 0.0261786 0.0434878 0.00947277 0.00422392 0 
605 0.162691 0.174724 0.133713 0.070082 0.319849 0.0455907 0.0624147 0.0309353 0 0 
606 0.237268 0.252313 0.103415 0.148157 0.097309 0.0996757 0.0285524 0.00949014 0.0238202 0 
607 0.733027 0.0960272 0.042545 0.0336955 0.0352432 0.0393786 0.00733964 0.00332577 0.00835336 0.00106452 
608 0.31911 0.250281 0.0637381 0.155821 0.0970418 0.0792815 0.00324193 0.0102734 0.00974505 0.0114659 
609 0.237268 0.252451 0.118662 0.145095 0.0850822 0.0995793 0.0285524 0.00949014 0.0238202 0 
610 0.403537 0.119696 0.0730627 0.148046 0.0619898 0.0909077 0.059004 0.0245689 0.0186791 0.000508456 
611 0.510251 0.0697893 0.093169 0.12834 0.113183 0.0346822 0.037893 0.00844796 0.00212268 0.00212213 
612 0.162691 0.190091 0.11999 0.0684375 0.319849 0.0455907 0.0624147 0.0309353 0 0 
613 0.636811 0.0507393 0.089831 0.0381116 0.101144 0.0261786 0.0434878 0.00947277 0.00422392 0 
614 0.733027 0.111094 0.0428631 0.0336955 0.0337383 0.0275435 0.00529501 0.00332577 0.00835336 0.00106452 
615 0.523647 0.0675704 0.0812628 0.130888 0.113836 0.0336769 0.0367947 0.00820309 0.00206115 0.00206062 
616 0.509954 0.0674607 0.108398 0.121488 0.109902 0.0336769 0.0367947 0.00820309 0.00206115 0.00206062 
617 0.403537 0.119696 0.0730628 0.16343 0.0619906 0.0909077 0.0556974 0.0124912 0.0186788 0.000508456 
618 0.887496 0.0387613 0.0204813 0.0143956 0.0178121 0.00169081 0.00177255 0.0175904 0 0 
619 0.755845 0.0932373 0.041275 0.0326897 0.0327312 0.0267213 0.00513695 0.00322649 0.00810401 0.00103274 
620 0.887496 0.0387614 0.0204813 0.014412 0.0329472 0.00169081 0.00168472 0.00252673 0 0 
621 0.737064 0.09458 0.0419005 0.048335 0.0332285 0.0271261 0.00521479 0.00327538 0.0082268 0.00104839 
622 0.290002 0.200649 0.0969134 0.142443 0.120158 0.000501834 0.0953294 0.0325988 0.0142717 0.00713343 
623 0.290002 0.200649 0.0969134 0.142439 0.104777 0.00144309 0.109773 0.0325988 0.0142717 0.00713343 
624 0.332121 0.237283 0.063726 0.155821 0.0970418 0.0792815 0.00324193 0.0102734 0.00974505 0.0114659 
625 0.974778 0.0252206 0 0 0 0 0 0 0 0 
626 0.737072 0.0945723 0.0419004 0.033185 0.0332272 0.0271566 0.0203359 0.00327539 0.0082268 0.00104839 
627 0.495182 0.0708788 0.0850333 0.144349 0.116665 0.0357493 0.039059 0.0087079 0.00218799 0.00218743 
628 0.510539 0.0709071 0.0850333 0.128964 0.116665 0.0357493 0.039059 0.0087079 0.00218799 0.00218743 
629 0.510249 0.068765 0.082497 0.140038 0.113183 0.0346822 0.037893 0.00844796 0.00212268 0.00212213 
630 0.771349 0.0824478 0.0363872 0.0288185 0.0288552 0.0236173 0.0176256 0.00284497 0.00714432 0.000910442 
631 0.317968 0.247197 0.0679648 0.155821 0.0970418 0.0792815 0.00324193 0.0102734 0.00974505 0.0114659 
632 0.237268 0.252313 0.103415 0.145095 0.0850822 0.103858 0.0396583 0.00949039 0.0238202 0 
633 0.317677 0.236342 0.063726 0.171198 0.0970491 0.0792815 0.00324193 0.0102734 0.00974505 0.0114659 
634 0.916211 0.0603533 0.0103103 0.00564623 0.00565259 0.000885765 0 0.000940545 0 0 
635 0.495182 0.0708788 0.0850333 0.128964 0.116665 0.0357504 0.0541507 0.00899975 0.00218799 0.00218743 
636 0.412574 0.117882 0.0871072 0.145803 0.0610506 0.0895303 0.0548535 0.0123019 0.0183958 0.000500753 
637 0.908574 0.0560545 0.00945848 0.0190572 0.00518156 0.000811951 0 0.000862167 0 0 
638 0.636811 0.0507393 0.089831 0.0381116 0.0858203 0.0415022 0.0434879 0.00947277 0.00422392 0 
639 0.885765 0.0393577 0.0207964 0.0146422 0.0334457 0.00171682 0.00171064 0.00256561 0 0 
640 0.502828 0.0698077 0.0881348 0.137772 0.114897 0.0352077 0.0384672 0.00857596 0.00215484 0.00215428 
641 0.421342 0.116123 0.0858014 0.143632 0.0601394 0.088194 0.0540348 0.0121183 0.0181213 0.000493279 
642 0.748351 0.0960879 0.042545 0.0336955 0.0337383 0.0275435 0.00529501 0.00332577 0.00835336 0.00106452 
643 0.733027 0.0960272 0.042545 0.0336955 0.0337384 0.0275435 0.00529501 0.00338042 0.0236831 0.00106472 
644 0.76549 0.0843554 0.0508841 0.0295974 0.029635 0.0241936 0.00465103 0.00292128 0.00733741 0.000935048 
645 0.510544 0.070902 0.0850333 0.128964 0.116665 0.0357493 0.039059 0.0087079 0.00218799 0.00218743 
646 0.510542 0.0709039 0.0850333 0.128964 0.116665 0.0357493 0.039059 0.0087079 0.00218799 0.00218743 
647 0.237268 0.252313 0.111892 0.152003 0.0850822 0.0995793 0.0285524 0.00949013 0.0238202 0 
648 0.317677 0.236342 0.0637892 0.171142 0.0970418 0.0792815 0.00324193 0.0102734 0.00974505 0.0114659 
649 0.403537 0.119696 0.0773864 0.159107 0.0619898 0.0909077 0.0556974 0.0124912 0.0186788 0.000508456 
650 0.423826 0.121782 0.0719557 0.145803 0.0610506 0.0895303 0.0548535 0.0123019 0.0183958 0.000500753 
651 0.403537 0.119696 0.0748169 0.161677 0.0619898 0.0909077 0.0556974 0.0124912 0.0186788 0.000508456 
652 0.902285 0.0391235 0.0204813 0.0143956 0.0178121 0.00169081 0.00168472 0.00252673 0 0 
653 0.747112 0.0973272 0.042545 0.0336955 0.0337383 0.0275435 0.00529501 0.00332577 0.00835336 0.00106452 
654 0.162691 0.174707 0.11999 0.068474 0.335197 0.0455907 0.0624147 0.0309353 0 0 
655 0.737072 0.0945722 0.0419004 0.033185 0.0332272 0.0271261 0.00521479 0.00327538 0.00822681 0.0161999 
656 0.751648 0.095148 0.0419004 0.033185 0.0332272 0.0271261 0.00521479 0.00327538 0.0082268 0.00104839 
657 0.897531 0.0502114 0.0182671 0.0128393 0.0158865 0.00150802 0.00150258 0.00225357 0 0 
658 0.733027 0.0960272 0.042545 0.0342801 0.0485384 0.0275435 0.00529501 0.00332577 0.00835336 0.00106452 
659 0.531136 0.0659204 0.0789898 0.134008 0.108332 0.0331958 0.0362691 0.00808591 0.00203171 0.00203118 
660 0.651871 0.051064 0.089831 0.0381116 0.0857595 0.0261786 0.0434878 0.00947277 0.00422392 0 
661 0.737072 0.0945723 0.0419004 0.0335206 0.048043 0.0271261 0.00521479 0.00327538 0.0082268 0.00104839 
662 0.495182 0.0708788 0.0850333 0.129356 0.131658 0.0357493 0.039059 0.0087079 0.00218799 0.00218743 
663 0.317677 0.236342 0.063726 0.171206 0.0970418 0.0792815 0.00324193 0.0102734 0.00974505 0.0114659 
664 0.321691 0.247495 0.0639435 0.155821 0.0970418 0.0792815 0.00324193 0.0102734 0.00974505 0.0114659 
665 0.50915 0.0722953 0.0850333 0.128964 0.116665 0.0357493 0.039059 0.0087079 0.00218799 0.00218743 
666 0.670272 0.0498838 0.0846234 0.0359023 0.0807879 0.024661 0.0409668 0.00892362 0.00397906 0 
667 0.64761 0.0492666 0.0871495 0.037017 0.0980818 0.0253971 0.0421897 0.00919 0.00409784 0 
668 0.403537 0.119696 0.0730628 0.163429 0.0619914 0.0909077 0.0556974 0.0124912 0.0186788 0.000508456 
669 0.237268 0.252313 0.103415 0.145095 0.0850822 0.0995793 0.0285524 0.00949018 0.0392048 0 
670 0.733027 0.0960272 0.042545 0.0336955 0.0337384 0.027947 0.0202761 0.00332578 0.00835336 0.00106452 
671 0.667525 0.0485152 0.0858679 0.0364302 0.081976 0.0250236 0.0415692 0.00905485 0.00403757 0 
672 0.162691 0.174707 0.11999 0.0684376 0.335233 0.0455911 0.0624147 0.0309353 0 0 
673 0.722279 0.109365 0.0570519 0.033185 0.0332272 0.0271261 0.00521479 0.00327538 0.0082268 0.00104839 
674 0.418518 0.120099 0.0730627 0.148046 0.0619898 0.0909077 0.0556974 0.0124912 0.0186788 0.000508456 
675 0.636811 0.0507393 0.089831 0.0534962 0.0857595 0.0261786 0.0434878 0.00947277 0.00422392 0 
676 0.768675 0.0851214 0.0364622 0.0418414 0.0289151 0.0235569 0.00452863 0.00284441 0.00714432 0.000910441 
677 0.290002 0.200649 0.0969134 0.142439 0.104777 0.000501821 0.110618 0.0326952 0.0142717 0.00713343 
678 0.740996 0.0931609 0.041275 0.0349112 0.0452814 0.0268749 0.00513695 0.00322649 0.00810401 0.00103274 
679 0.311196 0.209585 0.0940205 0.138187 0.101649 0.000486842 0.0924837 0.0316257 0.0138457 0.0069205 
680 0.744805 0.0954792 0.0516854 0.0322089 0.0322499 0.0263283 0.00506141 0.00317905 0.00798483 0.00101755 
681 0.643297 0.0595077 0.0899613 0.0381116 0.0857595 0.0261786 0.0434878 0.00947277 0.00422392 0 
682 0.636811 0.0507393 0.089831 0.0381116 0.0857722 0.0415504 0.0434879 0.00947277 0.00422392 0 
683 0.776348 0.0870105 0.0373706 0.0295974 0.029635 0.0241936 0.00465103 0.00292128 0.00733741 0.000935048 
684 0.636811 0.0507393 0.089831 0.0381124 0.10114 0.0261817 0.0434878 0.00947277 0.00422392 0 
685 0.506183 0.075263 0.0850333 0.128964 0.116665 0.0357493 0.039059 0.0087079 0.00218799 0.00218743 
686 0.899606 0.0346238 0.0182673 0.0263527 0.0158865 0.00150802 0.00150258 0.00225357 0 0 
687 0.506709 0.0747365 0.0850333 0.128964 0.116665 0.0357493 0.039059 0.0087079 0.00218799 0.00218743 
688 0.495182 0.0708788 0.0850333 0.128964 0.116665 0.0357997 0.0540157 0.00908538 0.00218799 0.00218743 
689 0.412574 0.118274 0.0867158 0.145803 0.0610506 0.0895303 0.0548535 0.0123019 0.0183958 0.000500753 
690 0.403537 0.119696 0.0730627 0.148046 0.0619898 0.0909077 0.0556974 0.0124912 0.0340634 0.000508456 
691 0.642314 0.0499706 0.0884699 0.0457186 0.0914272 0.0257819 0.0428289 0.00932924 0.00415992 0 
692 0.317677 0.236342 0.0637264 0.171205 0.0970418 0.0792815 0.00324193 0.0102734 0.00974505 0.0114659 
693 0.238332 0.266634 0.103415 0.145095 0.0850822 0.0995793 0.0285524 0.00949014 0.0238202 0 
694 0.495182 0.0708788 0.0850333 0.140051 0.120963 0.0357493 0.039059 0.0087079 0.00218799 0.00218743 
695 0.644226 0.058709 0.089831 0.0381116 0.0857595 0.0261786 0.0434878 0.00947277 0.00422392 0 
696 0.898033 0.0424746 0.0207964 0.0146171 0.0180861 0.00171682 0.00171063 0.00256561 0 0 
697 0.162691 0.174707 0.11999 0.0833557 0.320315 0.0455907 0.0624147 0.0309353 0 0 
698 0.636811 0.0507393 0.089831 0.0381116 0.0857595 0.0261786 0.0434878 0.0094738 0.0196075 0 
699 0.887355 0.038902 0.0204813 0.0151029 0.0322564 0.00169081 0.00168472 0.00252673 0 0 
700 0.662385 0.0494178 0.0871495 0.036974 0.0831995 0.0253971 0.0421897 0.00919 0.00409784 0 
701 0.652182 0.0507526 0.089831 0.0381116 0.0857595 0.0261786 0.0434878 0.00947277 0.00422392 0 
702 0.885765 0.0393577 0.0207964 0.0148794 0.0332084 0.00171682 0.00171063 0.00256561 0 0 
703 0.524447 0.0667699 0.0801038 0.135981 0.109902 0.0336769 0.0367947 0.00820309 0.00206115 0.00206062 
704 0.319154 0.25025 0.063726 0.155821 0.0970418 0.0792815 0.00324193 0.0102734 0.00974505 0.0114659 
705 0.516528 0.071259 0.0837449 0.12701 0.114897 0.0352077 0.0384672 0.00857596 0.00215484 0.00215428 
706 0.36003 0.208419 0.103971 0.0259551 0.0940011 0.0679542 0.0522398 0 0.0874297 0 
707 0.237268 0.252313 0.103415 0.150006 0.0955567 0.0995793 0.0285524 0.00949013 0.0238202 0 
708 0.237268 0.252313 0.103415 0.148117 0.0974457 0.0995793 0.0285524 0.00949013 0.0238202 0 
709 0.887493 0.0389967 0.0354005 0.0143958 0.0178121 0.00169081 0.00168472 0.00252673 0 0 
710 0.740996 0.0931607 0.041275 0.0326897 0.0327313 0.0416466 0.00513696 0.00322649 0.00810401 0.00103274 
711 0.290002 0.200649 0.0969134 0.15782 0.10478 0.000501821 0.0953294 0.0325988 0.0142717 0.00713343 
712 0.162691 0.174707 0.135371 0.0684409 0.319849 0.0455907 0.0624147 0.0309353 0 0 
713 0.403537 0.119696 0.0735766 0.162917 0.0619898 0.0909077 0.0556974 0.0124912 0.0186788 0.000508456 
714 0.237294 0.267533 0.103553 0.145095 0.0850822 0.0995793 0.0285524 0.00949014 0.0238202 0 
715 0.375339 0.208495 0.103971 0.0259551 0.0940011 0.0679542 0.0522398 0 0.0720451 0 
716 0.733027 0.0971989 0.0567314 0.0337219 0.0337384 0.0275435 0.00529501 0.00332577 0.00835336 0.00106452 
717 0.495315 0.0836994 0.087969 0.134566 0.113183 0.0346822 0.037893 0.00844796 0.00212268 0.00212213 
718 0.162691 0.174707 0.11999 0.0684433 0.335228 0.0455907 0.0624147 0.0309353 0 0 
719 0.510561 0.0708845 0.0850333 0.128964 0.116665 0.0357493 0.039059 0.0087079 0.00218799 0.00218743 
720 0.889175 0.0381828 0.0201757 0.0141808 0.0301082 0.00402896 0.00165957 0.00248902 0 0 
721 0.747134 0.104168 0.040668 0.0322089 0.0322499 0.0263283 0.00506141 0.00317905 0.00798483 0.00101755 
722 0.290108 0.215729 0.097112 0.142439 0.104777 0.000501821 0.0953294 0.0325988 0.0142717 0.00713343 
723 0.290002 0.200649 0.0971119 0.157521 0.10488 0.000501821 0.0953294 0.0325988 0.0142717 0.00713343 
724 0.733027 0.0960272 0.042545 0.0336955 0.0337384 0.042928 0.00529509 0.00332577 0.00835336 0.00106452 
725 0.403537 0.119974 0.0881662 0.148049 0.0619898 0.0909077 0.0556974 0.0124912 0.0186788 0.000508457 
726 0.403537 0.119696 0.0884474 0.148046 0.0619898 0.0909077 0.0556974 0.0124912 0.0186788 0.000508456 
727 0.237268 0.252313 0.103466 0.160429 0.0850822 0.0995793 0.0285524 0.00949013 0.0238202 0 
728 0.42179 0.00018784 0.156036 0.0519876 0.276226 0 8.73715e-05 0.0936856 0 0 
729 0.403537 0.119696 0.0730628 0.148046 0.0619898 0.106292 0.0556975 0.0124912 0.0186788 0.000508457 
730 0.480401 0.0986133 0.082495 0.125115 0.128108 0.0346822 0.037893 0.00844796 0.00212268 0.00212213 
731 0.739416 0.0947414 0.041275 0.0334535 0.0462976 0.0273164 0.00513695 0.00322649 0.00810401 0.00103274 
732 0.636811 0.0507393 0.089831 0.0381116 0.101144 0.0261786 0.0434878 0.00947277 0.00422392 0 
733 0.64765 0.0492274 0.0871495 0.036974 0.0831995 0.0253971 0.057115 0.00919002 0.00409784 0 
734 0.737072 0.0945722 0.0419004 0.0331855 0.0483782 0.0271261 0.00521479 0.00327538 0.0082268 0.00104839 
735 0.36003 0.208419 0.103971 0.0413396 0.0940012 0.0679542 0.0522398 0 0.0720451 0 
736 0.48768 0.0749376 0.0943751 0.141529 0.114919 0.0352077 0.0384672 0.00857596 0.00215484 0.00215428 
737 0.502831 0.0698049 0.0837449 0.127011 0.130028 0.0352281 0.0384672 0.00857596 0.00215484 0.00215428 
738 0.63782 0.0648158 0.0901297 0.0381116 0.0857595 0.0261786 0.0434878 0.00947277 0.00422392 0 
739 0.505802 0.0732121 0.0974203 0.125115 0.113183 0.0346822 0.037893 0.00844796 0.00212268 0.00212213 
740 0.495182 0.0708788 0.0850333 0.128964 0.121254 0.0465454 0.039059 0.0087079 0.00218799 0.00218743 
741 0.509231 0.0722149 0.0850333 0.128964 0.116665 0.0357493 0.039059 0.0087079 0.00218799 0.00218743 
742 0.162691 0.174707 0.11999 0.0684378 0.335234 0.0455907 0.0624147 0.0309353 0 0 
743 0.733027 0.0960272 0.042545 0.0336955 0.0337623 0.042904 0.00529515 0.00332577 0.00835336 0.00106452 
744 0.636811 0.0507393 0.089831 0.0381116 0.0857774 0.0415453 0.0434878 0.00947277 0.00422392 0 
745 0.4381 0.112772 0.0688272 0.139475 0.0724944 0.0860208 0.0524686 0.011767 0.017596 0.000478981 
746 0.691827 0.041808 0.0730739 0.055867 0.069692 0.0212701 0.0353338 0.00769663 0.00343194 0 
747 0.403537 0.119696 0.0730627 0.148046 0.0619898 0.0914871 0.0705026 0.0124912 0.0186788 0.000508456 
748 0.252486 0.252479 0.103415 0.145095 0.0850822 0.0995793 0.0285524 0.00949014 0.0238202 0 
749 0.259987 0.24483 0.100328 0.140764 0.0890999 0.104973 0.0277022 0.00920685 0.0231091 0 
750 0.733027 0.0960272 0.042545 0.0336955 0.0339045 0.042762 0.00529503 0.00332577 0.00835336 0.00106452 
751 0.438094 0.112778 0.0688273 0.153949 0.0584038 0.0856377 0.0524686 0.011767 0.017596 0.000478981 
752 0.42179 0.00018784 0.140653 0.0522349 0.291361 0 8.73715e-05 0.0936856 0 0 
753 0.317677 0.251724 0.0637285 0.155821 0.0970418 0.0792815 0.00324193 0.0102734 0.00974505 0.0114659 
754 0.31837 0.251034 0.0637261 0.155821 0.0970418 0.0792815 0.00324193 0.0102734 0.00974505 0.0114659 
755 0.290002 0.200649 0.0969134 0.142439 0.104777 0.000501821 0.0953294 0.0325989 0.0296563 0.00713348 
756 0.290002 0.216034 0.0969134 0.142439 0.104777 0.000501821 0.0953294 0.0325988 0.0142717 0.00713343 
757 0.36003 0.208419 0.103971 0.0259551 0.109306 0.0680344 0.0522398 0 0.0720451 0 
758 0.640794 0.0621404 0.089831 0.0381116 0.0857595 0.0261786 0.0434878 0.00947277 0.00422392 0 
759 0.632685 0.0641922 0.0889172 0.0501316 0.0831995 0.0253971 0.0421897 0.00919 0.00409784 0 
760 0.328005 0.232772 0.0627604 0.154991 0.109192 0.0780803 0.00319281 0.0101177 0.00959739 0.0112922 
761 0.305353 0.200683 0.0969134 0.142439 0.104777 0.000501821 0.0953294 0.0325988 0.0142717 0.00713343 
762 0.510563 0.0708825 0.0850333 0.128964 0.116665 0.0357493 0.039059 0.0087079 0.00218799 0.00218743 
763 0.740996 0.0931616 0.041275 0.0326916 0.0476547 0.0267213 0.00513695 0.00322649 0.00810401 0.00103274 
764 0.495182 0.0708788 0.0850333 0.128964 0.13205 0.0357493 0.039059 0.0087079 0.00218799 0.00218743 
765 0.317677 0.236342 0.063726 0.155821 0.0970418 0.0792815 0.00324193 0.0108888 0.0244084 0.0115717 
766 0.329184 0.240219 0.063726 0.155821 0.0970418 0.0792815 0.00324193 0.0102734 0.00974505 0.0114659 
767 0.743026 0.105961 0.0413705 0.0326897 0.0327312 0.0267213 0.00513695 0.00322649 0.00810401 0.00103274 
768 0.748392 0.0960474 0.042545 0.0336955 0.0337383 0.0275435 0.00529501 0.00332577 0.00835336 0.00106452 
769 0.652195 0.0507403 0.089831 0.0381116 0.0857595 0.0261786 0.0434878 0.00947277 0.00422392 0 
770 0.737071 0.0945732 0.0419004 0.0481429 0.0334207 0.0271261 0.00521479 0.00327538 0.0082268 0.00104839 
771 0.636811 0.0507393 0.089831 0.0381116 0.0857595 0.0261786 0.0437057 0.0246395 0.00422393 0 
772 0.237675 0.267291 0.103415 0.145095 0.0850822 0.0995793 0.0285524 0.00949014 0.0238202 0 
773 0.290681 0.215355 0.0969134 0.142439 0.104777 0.000501821 0.0953294 0.0325988 0.0142717 0.00713343 
774 0.733027 0.0960272 0.042545 0.0337409 0.0490776 0.0275435 0.00529501 0.00332577 0.00835336 0.00106452 
775 0.251973 0.252992 0.103415 0.145095 0.0850822 0.0995793 0.0285524 0.00949014 0.0238202 0 
776 0.290002 0.200649 0.0969134 0.142439 0.104777 0.000501821 0.095417 0.0478958 0.0142718 0.00713343 
777 0.237407 0.267558 0.103415 0.145095 0.0850822 0.0995793 0.0285524 0.00949014 0.0238202 0 
778 0.418902 0.119716 0.0730627 0.148046 0.0619898 0.0909077 0.0556974 0.0124912 0.0186788 0.000508456 
779 0.906008 0.0323839 0.0171115 0.0246844 0.014881 0.00141257 0.00140748 0.00211094 0 0 
780 0.510493 0.0709526 0.0850333 0.128964 0.116665 0.0357493 0.039059 0.0087079 0.00218799 0.00218743 
781 0.403537 0.119696 0.0730627 0.148046 0.0768937 0.0913884 0.0556974 0.0124912 0.0186788 0.000508456 
782 0.647652 0.0492247 0.0871495 0.036974 0.0981248 0.0253972 0.0421897 0.00919 0.00409784 0 
783 0.305253 0.200783 0.0969134 0.142439 0.104777 0.000501821 0.0953294 0.0325988 0.0142717 0.00713343 
784 0.403537 0.119696 0.0730627 0.148046 0.0619898 0.0910416 0.0709481 0.0124912 0.0186788 0.000508456 
785 0.403537 0.119696 0.0730627 0.148058 0.0773576 0.0909127 0.0556974 0.0124912 0.0186788 0.000508456 
786 0.510251 0.068763 0.082495 0.125115 0.128108 0.0346822 0.037893 0.00844796 0.00212268 0.00212213 
787 0.403537 0.119696 0.0730627 0.148046 0.0620057 0.106276 0.0556975 0.0124912 0.0186788 0.000508456 
788 0.160226 0.175058 0.127926 0.0698001 0.315003 0.0472995 0.071223 0.0334646 0 0 
789 0.681453 0.0465855 0.0822396 0.0348909 0.0785122 0.0239663 0.0398128 0.00867225 0.00386697 0 
790 0.657465 0.0499711 0.0884699 0.0375342 0.0844601 0.0257819 0.0428289 0.00932924 0.00415992 0 
791 0.42179 0.00018784 0.140653 0.0519856 0.276226 0 8.74422e-05 0.10907 0 0 
792 0.290002 0.200649 0.0969134 0.142448 0.120153 0.000501821 0.0953294 0.0325988 0.0142717 0.00713343 
793 0.652195 0.0507394 0.089831 0.0381116 0.0857595 0.0261786 0.0434878 0.00947277 0.00422392 0 
794 0.901141 0.0393668 0.0207964 0.0146171 0.0180861 0.00171682 0.00171064 0.00256561 0 0 
795 0.327985 0.23282 0.0778789 0.153464 0.0955714 0.0780803 0.00319281 0.0101177 0.00959739 0.0112922 
796 0.317849 0.251554 0.063726 0.155821 0.0970418 0.0792815 0.00324193 0.0102734 0.00974505 0.0114659 
797 0.495182 0.0708788 0.0850333 0.128964 0.116665 0.0357493 0.0390592 0.0240922 0.00218804 0.00218743 
798 0.510526 0.0709194 0.0850333 0.128964 0.116665 0.0357493 0.039059 0.0087079 0.00218799 0.00218743 
799 0.260335 0.252582 0.107153 0.140764 0.0825424 0.0966067 0.0277001 0.00920685 0.0231091 0 
800 0.672098 0.0458323 0.0949838 0.0344063 0.0774217 0.0236334 0.0392598 0.00855181 0.00381326 0 
801 0.733027 0.0960272 0.0425452 0.0490798 0.0337385 0.0275435 0.00529501 0.00332577 0.00835336 0.00106452 
802 0.246252 0.251086 0.116666 0.143207 0.0837931 0.0980705 0.0281198 0.00934635 0.0234593 0 
803 0.313253 0.262674 0.0627604 0.15346 0.0955714 0.0780803 0.00319281 0.0101177 0.00959739 0.0112922 
804 0.733027 0.0960272 0.042545 0.0336955 0.0337384 0.0275435 0.00529501 0.00365279 0.023411 0.00106452 
805 0.657756 0.0479071 0.0846234 0.037614 0.0935689 0.024661 0.0409668 0.00892362 0.00397906 0 
806 0.51024 0.0712058 0.0850333 0.128964 0.116665 0.0357493 0.039059 0.0087079 0.00218799 0.00218743 
807 0.330746 0.245181 0.0627604 0.15346 0.0955714 0.0780803 0.00319281 0.0101177 0.00959739 0.0112922 
808 0.636811 0.0507393 0.089831 0.0381116 0.0863689 0.0409537 0.0434878 0.00947277 0.00422392 0 
809 0.495182 0.0708788 0.0850447 0.144337 0.116665 0.0357493 0.039059 0.0087079 0.00218799 0.00218743 
810 0.418759 0.119859 0.0730628 0.148046 0.0619898 0.0909077 0.0556974 0.0124912 0.0186788 0.000508457 
811 0.437143 0.000219415 0.140653 0.0519856 0.276226 0 8.73715e-05 0.0936856 0 0 
812 0.412578 0.13303 0.0719558 0.145803 0.0610506 0.0895303 0.0548535 0.0123019 0.0183958 0.000500753 
813 0.652193 0.0507419 0.089831 0.0381116 0.0857595 0.0261786 0.0434878 0.00947277 0.00422392 0 
814 0.744805 0.0917907 0.040668 0.0322089 0.03225 0.0410341 0.00506141 0.00317905 0.00798483 0.00101755 
815 0.751001 0.0957946 0.0419004 0.033185 0.0332272 0.0271261 0.00521479 0.00327538 0.0082268 0.00104839 
816 0.162691 0.17487 0.135211 0.0684377 0.319849 0.0455907 0.0624147 0.0309353 0 0 
817 0.906878 0.0370778 0.0195909 0.0137697 0.0170377 0.00161729 0.00161147 0.00241688 0 0 
818 0.912633 0.0667442 0.00907317 0.00496868 0.00497428 0.000779473 0 0.00082768 0 0 
819 0.495182 0.0708788 0.0850333 0.128964 0.116665 0.0357543 0.0544351 0.00871141 0.00218799 0.00218743 
820 0.636811 0.0507393 0.089831 0.0381123 0.101143 0.0261786 0.0434878 0.00947277 0.00422392 0 
821 0.30076 0.197609 0.095445 0.143456 0.115166 0.000494218 0.093885 0.0321049 0.0140555 0.00702535 
822 0.514767 0.07302 0.0837449 0.12701 0.114897 0.0352077 0.0384672 0.00857596 0.00215484 0.00215428 
823 0.237268 0.252313 0.103415 0.145095 0.0850822 0.0995793 0.0285526 0.0248746 0.0238202 0 
824 0.642314 0.0499706 0.0884699 0.0375342 0.0844601 0.0257829 0.0579794 0.00932925 0.00415992 0 
825 0.495182 0.0708788 0.0850333 0.129971 0.131043 0.0357493 0.039059 0.0087079 0.00218799 0.00218743 
826 0.411583 0.118874 0.0719562 0.160949 0.061056 0.0895303 0.0548535 0.0123019 0.0183958 0.000500753 
827 0.317677 0.251726 0.063726 0.155821 0.0970418 0.0792815 0.00324193 0.0102734 0.00974505 0.0114659 
828 0.418632 0.119985 0.0730627 0.148046 0.0619898 0.0909077 0.0556974 0.0124912 0.0186788 0.000508456 
829 0.237268 0.252313 0.103415 0.145095 0.0859869 0.114059 0.0285525 0.00949014 0.0238202 0 
830 0.317677 0.236342 0.063726 0.155821 0.0970418 0.094656 0.00325204 0.0102734 0.00974505 0.0114659 
831 0.403537 0.119696 0.0730627 0.148046 0.0619898 0.106292 0.0556974 0.0124912 0.0186788 0.000508456 
832 0.372447 0.211386 0.103971 0.0259551 0.0940011 0.0679542 0.0522398 0 0.0720451 0 
833 0.29297 0.213066 0.0969134 0.142439 0.104777 0.000501821 0.0953294 0.0325988 0.0142717 0.00713343 
834 0.495482 0.0850587 0.0859377 0.128964 0.116665 0.0357493 0.039059 0.0087079 0.00218799 0.00218743 
835 0.656461 0.0534074 0.0834193 0.0488889 0.0804152 0.0243087 0.0403815 0.00879614 0.00392221 0 
836 0.730095 0.118536 0.0433389 0.0322089 0.0322499 0.0263283 0.00506141 0.00317905 0.00798483 0.00101755 
837 0.642312 0.0499725 0.0884699 0.0375349 0.0996109 0.0257819 0.0428289 0.00932924 0.00415992 0 
838 0.642314 0.0501386 0.103453 0.0375342 0.0844601 0.0257819 0.0428289 0.00932924 0.00415992 0 
839 0.427503 0.118106 0.0719557 0.145803 0.0610506 0.0895303 0.0548535 0.0123019 0.0183958 0.000500753 
840 0.248824 0.24849 0.117 0.142897 0.0837931 0.0980705 0.0281198 0.00934635 0.0234593 0 
841 0.317677 0.238795 0.0766576 0.155821 0.0970418 0.0792815 0.00324193 0.0102734 0.00974505 0.0114659 
842 0.495182 0.0708788 0.0850333 0.128964 0.116775 0.0510241 0.0390591 0.0087079 0.00218799 0.00218743 
843 0.495182 0.0708788 0.0850333 0.128964 0.116665 0.0511335 0.0390591 0.0087079 0.00218799 0.00218743 
844 0.403537 0.119696 0.0730628 0.148075 0.0772236 0.0910299 0.0556974 0.0124912 0.0186788 0.000508457 
845 0.237268 0.267665 0.103448 0.145095 0.0850822 0.0995793 0.0285524 0.00949013 0.0238202 0 
846 0.510536 0.0709097 0.0850333 0.128964 0.116665 0.0357493 0.039059 0.0087079 0.00218799 0.00218743 
847 0.317677 0.236342 0.063726 0.155856 0.112391 0.0792817 0.00324193 0.0102734 0.00974505 0.0114659 
848 0.53013 0.0648794 0.103895 0.116427 0.105323 0.0322737 0.0352616 0.0078613 0.00197527 0.00197476 
849 0.393687 0.00025228 0 1.01068e-07 0.485032 0.121028 0 0 0 0 
850 0.403537 0.119696 0.0732288 0.163265 0.0619898 0.0909077 0.0556974 0.0124912 0.0186788 0.000508456 
851 0.733027 0.0960272 0.042545 0.0336955 0.0337384 0.0300769 0.0180578 0.00341418 0.00835336 0.00106452 
852 0.302202 0.203834 0.0969134 0.142439 0.104777 0.000501821 0.0953294 0.0325988 0.0142717 0.00713343 
853 0.165876 0.186907 0.11999 0.0684375 0.319849 0.0455907 0.0624147 0.0309353 0 0 
854 0.42179 0.00018784 0.140653 0.0519856 0.29161 0 8.73715e-05 0.0936856 0 0 
855 0.302632 0.203404 0.0969134 0.142439 0.104777 0.000501821 0.0953294 0.0325988 0.0142717 0.00713343 
856 0.652195 0.0507395 0.089831 0.0381116 0.0857595 0.0261786 0.0434878 0.00947277 0.00422392 0 
857 0.290002 0.200649 0.0969134 0.142439 0.104777 0.000501983 0.110714 0.0325989 0.0142717 0.00713343 
858 0.886358 0.0541495 0.0207966 0.0146171 0.0180861 0.00171682 0.00171063 0.00256561 0 0 
859 0.315516 0.198004 0.095445 0.14028 0.10319 0.000494218 0.093885 0.0321049 0.0140555 0.00702535 
860 0.36003 0.208419 0.103971 0.0259551 0.0940011 0.0679543 0.0676243 0 0.0720451 0 
861 0.317677 0.236342 0.0672801 0.167651 0.0970418 0.0792815 0.00324193 0.0102734 0.00974505 0.0114659 
862 0.329507 0.239896 0.063726 0.155821 0.0970418 0.0792815 0.00324193 0.0102734 0.00974505 0.0114659 
863 0.412574 0.117882 0.0809722 0.151938 0.0610506 0.0895303 0.0548535 0.0123019 0.0183958 0.000500753 
864 0.317677 0.236342 0.063726 0.155821 0.112426 0.0792815 0.00324193 0.0102734 0.00974505 0.0114659 
865 0.496482 0.0849632 0.0850333 0.128964 0.116665 0.0357493 0.039059 0.0087079 0.00218799 0.00218743 
866 0.64174 0.0611947 0.089831 0.0381116 0.0857595 0.0261786 0.0434878 0.00947277 0.00422392 0 
867 0.317677 0.236342 0.063726 0.155821 0.0970418 0.0792815 0.00324193 0.0102734 0.00975201 0.0268436 
868 0.403537 0.119696 0.0730627 0.148046 0.0619898 0.106292 0.0556974 0.0124912 0.0186788 0.000508456 
869 0.290002 0.200649 0.112298 0.142439 0.104777 0.000501821 0.0953294 0.0325988 0.0142717 0.00713343 
870 0.29046 0.215361 0.0971275 0.142439 0.104777 0.000501821 0.0953294 0.0325988 0.0142717 0.00713343 
871 0.317677 0.251399 0.0640534 0.155821 0.0970418 0.0792815 0.00324193 0.0102734 0.00974505 0.0114659 
872 0.317677 0.236342 0.063726 0.155821 0.0973421 0.0942348 0.00337291 0.0102734 0.00974505 0.0114659 
873 0.642314 0.0499706 0.0884699 0.0375342 0.0844601 0.0263879 0.0573745 0.00932924 0.00415992 0 
874 0.237268 0.252313 0.103415 0.145095 0.0851769 0.114869 0.0285524 0.00949013 0.0238202 0 
875 0.642314 0.0504394 0.103153 0.0375342 0.0844601 0.0257819 0.0428289 0.00932924 0.00415992 0 
876 0.495795 0.0856507 0.0850333 0.128964 0.116665 0.0357493 0.039059 0.0087079 0.00218799 0.00218743 
877 0.237268 0.252313 0.103415 0.145095 0.0850822 0.09958 0.0433235 0.0101029 0.0238202 0 
878 0.162691 0.190091 0.11999 0.0684375 0.319849 0.0455907 0.0624147 0.0309353 0 0 
879 0.162691 0.174707 0.11999 0.0684441 0.333436 0.047382 0.0624147 0.0309353 0 0 
880 0.0399664 0.303623 0 0.328205 0 0.328205 0 0 0 0 
881 0.744412 0.0921844 0.0411894 0.0463927 0.0322507 0.0263283 0.00506141 0.00317905 0.00798483 0.00101755 
882 0.418915 0.119703 0.0730628 0.148046 0.0619898 0.0909077 0.0556974 0.0124912 0.0186788 0.000508457 
883 0.495182 0.0708788 0.0850333 0.128972 0.129289 0.0385028 0.039059 0.0087079 0.00218799 0.00218743 
884 0.734028 0.0976161 0.0458415 0.0443953 0.0332272 0.0271261 0.00521479 0.00327538 0.0082268 0.00104839 
885 0.656738 0.0506975 0.0884699 0.0375342 0.0844601 0.0257819 0.0428289 0.00932924 0.00415992 0 
886 0.495182 0.0708788 0.0850333 0.128965 0.132049 0.0357493 0.039059 0.0087079 0.00218799 0.00218743 
887 0.636811 0.0507393 0.089831 0.0534962 0.0857595 0.0261786 0.0434878 0.00947277 0.00422392 0 
888 0.397423 0.117882 0.087109 0.160953 0.0610506 0.0895303 0.0548535 0.0123019 0.0183958 0.000500753 
889 0.162691 0.174707 0.11999 0.0684893 0.335182 0.0455907 0.0624147 0.0309353 0 0 
890 0.237268 0.267698 0.103415 0.145095 0.0850822 0.0995793 0.0285524 0.00949014 0.0238202 0 
891 0.33301 0.236393 0.063726 0.155821 0.0970418 0.0792815 0.00324193 0.0102734 0.00974505 0.0114659 
892 0.362568 0.22036 0.104877 0.0259551 0.0940011 0.0679542 0.0522398 0 0.0720451 0 
893 0.317677 0.236342 0.063726 0.156973 0.109469 0.0810872 0.00324193 0.0102734 0.00974505 0.0114659 
894 0.509456 0.0719896 0.0850333 0.128964 0.116665 0.0357493 0.039059 0.0087079 0.00218799 0.00218743 
895 0.899539 0.0612808 0.0104689 0.0057331 0.0211242 0.000899392 0 0.000955015 0 0 
896 0.517981 0.0698062 0.0837449 0.12701 0.114897 0.0352077 0.0384672 0.00857596 0.00215484 0.00215428 
897 0.636329 0.0513004 0.114279 0.0364305 0.081976 0.0250236 0.0415692 0.00905485 0.00403757 0 
898 0.418919 0.119699 0.0730627 0.148046 0.0619898 0.0909077 0.0556974 0.0124912 0.0186788 0.000508456 
899 0.730098 0.0926553 0.0545108 0.0469148 0.0322499 0.0263283 0.00506141 0.00317905 0.00798483 0.00101755 
900 0.636811 0.0507393 0.089831 0.0381137 0.101142 0.0261786 0.0434878 0.00947277 0.00422392 0 
901 0.510566 0.0708801 0.0850333 0.128964 0.116665 0.0357493 0.039059 0.0087079 0.00218799 0.00218743 
902 0.317677 0.236342 0.063726 0.155821 0.0970418 0.0946661 0.00324195 0.0102734 0.00974505 0.0114659 
903 0.403537 0.119696 0.0730627 0.148046 0.0619898 0.106292 0.0556974 0.0124912 0.0186788 0.000508456 
904 0.753129 0.0959536 0.041275 0.0326897 0.0327312 0.0267213 0.00513695 0.00322649 0.00810401 0.00103274 
905 0.495182 0.0708788 0.0850333 0.131596 0.129418 0.0357493 0.039059 0.0087079 0.00218799 0.00218743 
906 0.291436 0.214595 0.0969181 0.142439 0.104777 0.000501821 0.0953294 0.0325988 0.0142717 0.00713343 
907 0.290711 0.213891 0.0983472 0.142439 0.104777 0.000501821 0.0953294 0.0325988 0.0142717 0.00713343 
908 0.187684 0.169494 0.131333 0.0663946 0.310301 0.0442298 0.0605516 0.0300119 0 0 
909 0.495182 0.0708788 0.0850333 0.128964 0.13205 0.0357494 0.039059 0.0087079 0.00218799 0.00218743 
910 0.740996 0.0935118 0.0558492 0.0326897 0.0327312 0.0267213 0.00513695 0.00322649 0.00810401 0.00103274 
911 0.240191 0.264764 0.103425 0.145095 0.0850822 0.0995793 0.0285524 0.00949013 0.0238202 0 
912 0.247763 0.257202 0.103415 0.145095 0.0850822 0.0995793 0.0285524 0.00949014 0.0238202 0 
913 0.165897 0.186287 0.120589 0.0684375 0.319849 0.0455907 0.0624147 0.0309353 0 0 
914 0.238031 0.266644 0.103706 0.145095 0.0850822 0.0995793 0.0285524 0.00949014 0.0238202 0 
915 0.749965 0.0968313 0.0419004 0.033185 0.0332272 0.0271261 0.00521479 0.00327538 0.0082268 0.00104839 
916 0.368976 0.000254203 0 1.02623e-07 0.507879 0.12289 0 0 0 0 
917 0.252122 0.252843 0.103415 0.145095 0.0850822 0.0995793 0.0285524 0.00949014 0.0238202 0 
918 0.899539 0.0612808 0.0104689 0.0057331 0.00573956 0.000899392 0 0.0163396 0 0 
919 0.327979 0.232797 0.0627684 0.168604 0.0955714 0.0780803 0.00319281 0.0101177 0.00959739 0.0112922 
920 0.885765 0.0393577 0.0207964 0.0146171 0.0180861 0.0017182 0.0169528 0.00270665 0 0 
921 0.316669 0.189753 0.119545 0.134181 0.098703 0.00047273 0.089803 0.0307091 0.0134444 0.0067199 
922 0.305007 0.201028 0.0969134 0.142439 0.104777 0.000501821 0.0953294 0.0325988 0.0142717 0.00713343 
923 0.290002 0.201556 0.11139 0.14244 0.104777 0.000501821 0.0953294 0.0325988 0.0142717 0.00713343 
924 0.733027 0.0960282 0.0579286 0.0336955 0.0337383 0.0275435 0.00529501 0.00332577 0.00835336 0.00106452 
925 0.237268 0.267698 0.103415 0.145095 0.0850822 0.0995793 0.0285524 0.00949014 0.0238202 0 
926 0.495223 0.083478 0.0877777 0.128964 0.116665 0.0357493 0.039059 0.0087079 0.00218799 0.00218743 
927 0.305296 0.200739 0.0969134 0.142439 0.104777 0.000501821 0.0953294 0.0325988 0.0142717 0.00713343 
928 0.733027 0.0960272 0.0443923 0.0471812 0.0337901 0.0275435 0.00529501 0.00332577 0.00835336 0.00106452 
929 0.733027 0.0960272 0.0560825 0.0355427 0.0337384 0.0275435 0.00529501 0.00332577 0.00835336 0.00106452 
930 0.403537 0.119696 0.0731144 0.163379 0.0619898 0.0909077 0.0556974 0.0124912 0.0186788 0.000508456 
931 0.237268 0.252313 0.103415 0.145095 0.0878266 0.112178 0.0285933 0.00949013 0.0238202 0 
932 0.290002 0.200649 0.0969134 0.142439 0.104777 0.000501821 0.0953294 0.0325988 0.0142751 0.0225146 
933 0.897356 0.0431512 0.0207964 0.0146171 0.0180861 0.00171682 0.00171063 0.00256561 0 0 
934 0.733027 0.0960272 0.042545 0.0336955 0.0337384 0.042928 0.00529502 0.00332577 0.00835336 0.00106452 
935 0.744804 0.0917918 0.0553739 0.0322089 0.0322499 0.0263283 0.00506141 0.00317905 0.00798483 0.00101755 
936 0.636811 0.0507393 0.089831 0.0381116 0.0857674 0.0407078 0.0443353 0.00947277 0.00422392 0 
937 0.403537 0.119696 0.0730627 0.163431 0.0619898 0.0909077 0.0556974 0.0124912 0.0186788 0.000508456 
938 0.196923 1.0021e-07 0.212308 0 0.590769 0 0 0 0 0 
939 0.509607 0.0718385 0.0850333 0.128964 0.116665 0.0357493 0.039059 0.0087079 0.00218799 0.00218743 
940 0.317677 0.236342 0.0646857 0.170246 0.0970418 0.0792815 0.00324193 0.0102734 0.00974505 0.0114659 
941 0.312498 0.261194 0.0610034 0.163566 0.0927605 0.0757838 0.0030989 0.00982013 0.00931512 0.0109601 
942 0.237268 0.252313 0.109556 0.154339 0.0850822 0.0995793 0.0285524 0.00949014 0.0238202 0 
943 0.748693 0.104764 0.0400787 0.0317421 0.0317825 0.0259467 0.00498806 0.00313297 0.00786911 0.0010028 
944 0.328015 0.232761 0.0627623 0.16861 0.0955714 0.0780803 0.00319281 0.0101177 0.00959739 0.0112922 
945 0.317677 0.236342 0.063726 0.155821 0.0970418 0.0946661 0.00324193 0.0102734 0.00974505 0.0114659 
946 0.636811 0.0507393 0.089831 0.0381116 0.0857595 0.0281928 0.0568582 0.00947277 0.00422392 0 
947 0.237268 0.252313 0.103415 0.145095 0.085345 0.114701 0.0285524 0.00949013 0.0238202 0 
948 0.403537 0.119696 0.0730627 0.148046 0.0619898 0.0932705 0.0687192 0.0124912 0.0186788 0.000508456 
949 0.733027 0.0960272 0.0528087 0.0388164 0.0337384 0.0275435 0.00529501 0.00332577 0.00835336 0.00106452 
950 0.365151 0.217995 0.104659 0.0259551 0.0940011 0.0679542 0.0522398 0 0.0720451 0 
951 0.651567 0.0513678 0.089831 0.0381116 0.0857595 0.0261786 0.0434878 0.00947277 0.00422392 0 
952 0.906485 0.0374709 0.0195909 0.0137697 0.0170377 0.00161729 0.00161147 0.00241688 0 0 
953 0.412574 0.117882 0.0732518 0.159658 0.0610506 0.0895303 0.0548535 0.0123019 0.0183958 0.000500753 
954 0.317677 0.236342 0.063726 0.155824 0.112424 0.0792815 0.00324193 0.0102734 0.00974505 0.0114659 
955 0.636811 0.0507393 0.089831 0.0381116 0.101144 0.0261786 0.0434878 0.00947277 0.00422392 0 
956 0.495182 0.0708788 0.0850333 0.14421 0.116804 0.0357493 0.039059 0.0087079 0.00218799 0.00218743 
957 0.290002 0.200649 0.0969332 0.157739 0.104842 0.000501821 0.0953294 0.0325988 0.0142717 0.00713343 
958 0.403537 0.119696 0.0730627 0.148046 0.0620543 0.106228 0.0556974 0.0124912 0.0186788 0.000508456 
959 0.312864 0.247912 0.0627604 0.15346 0.0957646 0.0930386 0.00319281 0.0101177 0.00959739 0.0112922 
960 0.317677 0.248657 0.0667951 0.155821 0.0970418 0.0792815 0.00324193 0.0102734 0.00974505 0.0114659 
961 0.317677 0.236342 0.063726 0.169013 0.0992344 0.0792815 0.00324193 0.0102734 0.00974505 0.0114659 
962 0.175377 0.17206 0.133324 0.0674006 0.315003 0.0448999 0.061469 0.0304666 0 0 
963 0.317677 0.236342 0.063996 0.170927 0.0970505 0.0792815 0.00324193 0.0102734 0.00974505 0.0114659 
964 0.237268 0.2553 0.115812 0.145096 0.0850822 0.0995793 0.0285524 0.00949013 0.0238202 0 
965 0.418159 0.120459 0.0730627 0.148046 0.0619898 0.0909077 0.0556974 0.0124912 0.0186788 0.000508456 
966 0.495182 0.0708788 0.0850333 0.128964 0.13205 0.0357493 0.039059 0.0087079 0.00218799 0.00218743 
967 0.403537 0.119696 0.0730627 0.148046 0.0619898 0.0918017 0.0701853 0.0124939 0.0186788 0.000508456 
968 0.305003 0.201033 0.0969134 0.142439 0.104777 0.000501821 0.0953294 0.0325988 0.0142717 0.00713343 
969 0.397423 0.117882 0.102259 0.145803 0.0610506 0.0895303 0.0548535 0.0123019 0.0183958 0.000500753 
970 0.636811 0.0507393 0.089831 0.0381116 0.0857595 0.0261798 0.0588711 0.00947277 0.00422392 0 
971 0.436204 0.116186 0.0708818 0.143627 0.0601393 0.088194 0.0540348 0.0121183 0.0181213 0.000493279 
972 0.2904 0.215635 0.0969138 0.142439 0.104777 0.000501821 0.0953294 0.0325988 0.0142717 0.00713343 
973 0.885765 0.0393577 0.0207964 0.0300017 0.0180861 0.00171682 0.00171063 0.00256561 0 0 
974 0.162691 0.174707 0.11999 0.0684376 0.335234 0.0455907 0.0624147 0.0309353 0 0 
975 0.162691 0.174707 0.11999 0.0684376 0.334712 0.0461129 0.0624147 0.0309353 0 0 
976 0.637333 0.0656017 0.089831 0.0381116 0.0857595 0.0261786 0.0434878 0.00947277 0.00422392 0 
977 0.317677 0.236342 0.063788 0.171144 0.0970418 0.0792815 0.00324193 0.0102734 0.00974505 0.0114659 
978 0.763358 0.0921919 0.0395061 0.0312887 0.0313285 0.0255761 0.0049168 0.00308822 0.00775669 0.000988479 
979 0.317677 0.236342 0.063726 0.155821 0.0970425 0.0946654 0.00324193 0.0102734 0.00974505 0.0114659 
980 0.901148 0.0393592 0.0207964 0.0146171 0.0180861 0.00171682 0.00171063 0.00256561 0 0 
981 0.237268 0.252313 0.103415 0.145095 0.0850839 0.114962 0.0285524 0.00949013 0.0238202 0 
982 0.524445 0.066772 0.0801038 0.12149 0.124393 0.0336769 0.0367947 0.00820309 0.00206115 0.00206062 
983 0.318954 0.250449 0.0637264 0.155821 0.0970418 0.0792815 0.00324193 0.0102734 0.00974505 0.0114659 
984 0.651812 0.0511228 0.089831 0.0381116 0.0857595 0.0261786 0.0434878 0.00947277 0.00422392 0 
985 0.495182 0.0708788 0.0850336 0.144349 0.116665 0.0357493 0.039059 0.0087079 0.00218799 0.00218743 
986 0.237268 0.252313 0.103415 0.145095 0.0850822 0.0996628 0.0438362 0.00950741 0.0238202 0 
987 0.885765 0.0393577 0.0207964 0.0147078 0.0333753 0.00172162 0.00171063 0.00256561 0 0 
988 0.506902 0.0745438 0.0850333 0.128964 0.116665 0.0357493 0.039059 0.0087079 0.00218799 0.00218743 
989 0.510244 0.0687706 0.082495 0.125115 0.113235 0.0493526 0.0380956 0.00844796 0.00212268 0.00212213 
990 0.650156 0.0527784 0.089831 0.0381116 0.0857595 0.0261786 0.0434878 0.00947277 0.00422392 0 
991 0.500904 0.0805418 0.0850333 0.128964 0.116665 0.0357493 0.039059 0.0087079 0.00218799 0.00218743 
992 0.642312 0.0499718 0.0884699 0.0375355 0.0996103 0.0257819 0.0428289 0.00932924 0.00415992 0 
993 0.248803 0.248511 0.101969 0.157868 0.0838525 0.0980705 0.0281198 0.00934635 0.0234593 0 
994 0.332939 0.236464 0.063726 0.155821 0.0970418 0.0792815 0.00324193 0.0102734 0.00974505 0.0114659 
995 0.412574 0.133034 0.071956 0.145803 0.0610506 0.0895303 0.0548535 0.0123019 0.0183958 0.000500753 
996 0.290002 0.216034 0.0969134 0.142439 0.104777 0.000501821 0.0953294 0.0325988 0.0142717 0.00713343 
997 0.317677 0.236342 0.063726 0.155821 0.0974303 0.0942755 0.003244 0.0102734 0.00974505 0.0114659 
998 0.636811 0.0661236 0.089831 0.0381116 0.0857595 0.0261786 0.0434878 0.00947277 0.00422392 0 
999 0.233673 0.24849 0.117 0.158049 0.0837931 0.0980705 0.0281198 0.00934635 0.0234593 0 
1000 0.403537 0.119696 0.0730627 0.149424 0.075997 0.0909077 0.0556974 0.0124912 0.0186788 0.000508456 
1001 0.317677 0.236342 0.063726 0.156128 0.112119 0.0792816 0.00324193 0.0102734 0.00974505 0.0114659 
1002 0.315363 0.198157 0.095445 0.14028 0.10319 0.000494218 0.093885 0.0321049 0.0140555 0.00702535 
1003 0.652246 0.0490889 0.100573 0.0364306 0.081976 0.0250236 0.0415692 0.00905485 0.00403757 0 
1004 0.509131 0.0723145 0.0850333 0.128964 0.116665 0.0357493 0.039059 0.0087079 0.00218799 0.00218743 
1005 0.509664 0.0717818 0.0850333 0.128964 0.116665 0.0357493 0.039059 0.0087079 0.00218799 0.00218743 
1006 0.495182 0.0708788 0.0850333 0.1304 0.130614 0.0357493 0.039059 0.0087079 0.00218799 0.00218743 
1007 0.317677 0.251726 0.063726 0.155821 0.0970418 0.0792815 0.00324193 0.0102734 0.00974505 0.0114659 
1008 0.237268 0.252313 0.103415 0.145095 0.100466 0.0995795 0.0285524 0.00949013 0.0238202 0 
1009 0.495182 0.0708788 0.0850333 0.131869 0.129145 0.0357493 0.039059 0.0087079 0.00218799 0.00218743 
1010 0.507666 0.0737792 0.0850333 0.128964 0.116665 0.0357493 0.039059 0.0087079 0.00218799 0.00218743 
1011 0.237268 0.252313 0.103415 0.145095 0.0850883 0.114958 0.0285524 0.00949013 0.0238202 0 
1012 0.733027 0.0960272 0.042545 0.0347305 0.048088 0.0275435 0.00529501 0.00332577 0.00835336 0.00106452 
1013 0.495182 0.0708788 0.0850333 0.128964 0.116665 0.0357516 0.0544413 0.0087079 0.00218799 0.00218743 
1014 0.647105 0.0558295 0.089831 0.0381116 0.0857595 0.0261786 0.0434878 0.00947277 0.00422392 0 
1015 0.885765 0.0393577 0.0207964 0.0146171 0.024915 0.0102725 0.00171063 0.00256561 0 0 
