0 4 0.234243
0 6 0.152589
0 35 0.185938
0 57 4.06414e-07
0 68 0.176911
0 81 0.111164
0 96 0.0130126
0 111 1.39548e-06
0 149 2.78268e-05
0 160 8.98857e-05
0 164 0.0882986
0 223 1.14475e-07
0 245 1.29587e-07
0 417 0.0360173
0 1713 0.0017004
0 1814 4.88606e-07
0 2196 1.31882e-06
0 2630 3.91056e-06
2 2 0.364183
2 3 0.364165
2 5 0.271652
3 3 0.33147
3 137 0.331453
3 178 0.00562374
3 179 0.331453
4 56 0.499342
4 164 0.500658
5 12 0.2
5 248 0.2
5 249 0.2
5 250 0.2
5 251 0.2
6 6 0.783275
6 23 0.209112
6 164 0.00761274
7 6 0.000152237
7 149 0.00210307
7 164 0.000180948
7 417 0.997564
8 56 0.496849
8 1210 0.503151
9 5 0.216673
9 6 0.783327
10 7 0.333334
10 8 0.333334
10 9 0.333332
11 6 1
12 6 0.980194
12 35 0.0016241
12 68 0.0181815
13 6 1
14 10 0.166666
14 11 0.166666
14 12 0.166666
14 13 0.166666
14 14 2.42866e-06
14 15 0.166666
14 16 0.166666
15 14 1
16 223 0.854857
16 471 0.145143
17 23 0.262747
17 1628 0.213342
17 1629 0.262142
17 1630 0.26177
18 17 1
19 111 1
20 18 0.205133
20 19 0.205133
20 20 0.205133
20 21 0.204268
20 22 0.180333
21 21 1
22 22 0.157409
22 111 0.140431
22 1404 0.140431
22 1905 0.140433
22 1906 0.140431
22 1907 0.140431
22 1908 0.140433
23 6 0.0012468
23 35 0.998699
23 111 5.43124e-05
24 23 0.273883
24 24 0.273862
24 25 0.273862
24 495 0.178393
25 29 0.333454
25 1381 0.333273
25 1382 0.333273
26 26 1
27 26 0.326317
27 27 0.336842
27 28 0.336841
28 29 1
29 29 0.165993
29 30 0.278002
29 31 0.278002
29 32 0.278002
30 33 0.5
30 34 0.5
31 39 1
32 4 0.0118393
32 35 0.843793
32 68 0.0468374
32 149 0.000105614
32 164 0.0974245
33 36 0.481836
33 472 0.259082
33 2034 0.259082
34 21 0.194558
34 36 0.0272802
34 37 0.194556
34 38 0.194558
34 39 0.194491
34 40 0.194557
35 41 1
36 1699 1
37 41 0.176123
37 42 0.275086
37 43 0.275086
37 44 0.273704
38 502 1
39 4 0.081725
39 6 0.0262138
39 56 0.865603
39 81 0.000514754
39 149 0.0259437
40 44 0.0353044
40 752 0.964696
41 149 1
42 45 0.33332
42 46 0.33336
42 47 0.33332
43 48 1
44 18 0.251746
44 48 0.244762
44 49 0.251746
44 50 0.251746
45 51 0.251252
45 52 0.251252
45 53 0.251252
45 54 0.246245
46 54 0.338767
46 55 0.661233
47 55 0.323946
47 56 0.319358
47 57 0.356693
47 58 3.7466e-06
48 160 0.99999
48 2196 1.04105e-05
49 58 1
50 58 0.278158
50 59 0.360921
50 60 0.360921
51 61 0.5
51 62 0.5
52 63 0.999873
52 64 0.000127186
53 64 1
54 63 1
55 63 0.00377001
55 64 0.332016
55 65 0.332107
55 66 0.332107
56 68 1
57 67 1
58 67 1
59 69 0.25
59 70 0.25
59 71 0.25
59 72 0.25
60 73 0.25
60 74 0.25
60 75 0.25
60 76 0.25
61 208 0.5
61 209 0.5
62 77 0.250017
62 78 0.250017
62 79 0.250017
62 80 0.249948
63 57 0.000553584
63 68 0.000306452
63 81 0.992306
63 417 0.00683356
64 82 1
65 83 0.249999
65 84 0.249999
65 85 0.249999
65 86 0.249999
65 87 3.79201e-06
66 80 0.725209
66 82 0.274791
67 23 0.503764
67 388 0.496236
68 394 1
69 87 0.249995
69 88 0.249999
69 89 0.250007
69 90 0.249999
70 94 1
71 91 0.250019
71 92 0.250019
71 93 0.250019
71 94 0.249944
72 95 0.25
72 96 0.25
72 97 0.25
72 98 0.25
73 97 0.340812
73 99 0.340812
73 100 0.31837
73 101 6.12126e-06
74 164 0.472432
74 1021 0.527568
75 101 1
76 111 0.166792
76 112 0.833208
77 100 0.077401
77 101 0.910116
77 102 0.0124831
78 101 0.0684495
78 102 0.477532
78 103 0.454018
79 6 0.0010208
79 103 0.766212
79 245 0.232555
79 407 0.000212173
80 6 0.0478181
80 68 0.952182
81 74 0.5
81 104 0.5
82 105 0.250087
82 106 0.250087
82 107 0.249739
82 108 0.250087
83 107 0.058631
83 112 0.941369
84 109 0.333928
84 110 0.334235
84 111 0.331837
85 109 1
86 110 1
87 74 0.305689
87 149 0.175323
87 239 0.173017
87 1040 0.172985
87 1041 0.172986
88 27 0.249968
88 113 0.250012
88 114 0.250013
88 115 0.250007
89 27 0.500485
89 480 0.499515
90 115 7.32299e-06
90 116 0.333331
90 117 0.333331
90 118 0.333331
91 119 0.333338
91 120 0.333325
91 121 0.333338
92 122 0.250931
92 123 0.250931
92 124 0.250931
92 125 0.247207
93 120 1
94 112 0.507914
94 363 0.492086
95 125 0.066047
95 126 0.933953
96 128 1
97 57 0.000174905
97 111 0.999825
98 27 1.60923e-05
98 266 0.333328
98 1116 0.333328
98 1895 0.333328
99 126 0.283338
99 127 0.358457
99 128 0.358206
100 4 0.40386
100 48 0.0424804
100 96 0.55366
101 129 1
102 129 1
103 178 0.333492
103 2109 0.332884
103 2110 0.333624
104 125 1
105 109 0.247389
105 129 0.0104302
105 130 0.247394
105 131 0.247394
105 132 0.247394
106 109 6.48853e-06
106 111 0.333276
106 133 0.333359
106 134 0.333359
107 135 0.687971
107 418 0.312029
108 137 1
109 48 0.51386
109 111 0.48614
110 137 1
111 137 0.999234
111 138 0.00076607
112 109 0.200021
112 138 0.199914
112 139 0.200022
112 140 0.200021
112 141 0.200021
113 111 0.263089
113 135 0.209629
113 136 0.263641
113 142 0.263641
114 143 0.333333
114 144 0.333333
114 145 0.333333
115 399 2.27833e-05
115 417 0.999977
116 35 0.997791
116 514 0.00220915
117 146 0.5
117 147 0.5
118 164 1
119 149 1
120 148 0.202376
120 149 0.202198
120 150 0.202376
120 151 0.202376
120 152 0.190674
121 4 0.00217412
121 393 0.997826
122 4 3.90477e-05
122 223 0.995606
122 393 0.00435447
123 513 1
124 149 1
125 152 0.994171
125 153 0.00582904
126 74 1
127 153 1
128 302 0.330546
128 502 0.351771
128 689 0.317683
129 74 0.235661
129 153 0.0642707
129 154 0.236659
129 155 0.236659
129 156 0.22675
130 156 0.927468
130 157 0.0725324
131 74 1
132 223 6.67853e-05
132 471 0.999933
133 156 0.00671359
133 157 0.993286
134 157 0.180082
134 158 0.20498
134 159 0.20498
134 160 0.204978
134 161 0.20498
135 96 0.686152
135 640 0.313848
136 96 0.477247
136 162 0.522753
137 18 0.00011389
137 160 0.343315
137 2037 0.328285
137 2038 0.328286
138 150 0.252894
138 163 0.252894
138 164 0.241318
138 165 0.252894
139 166 0.999957
139 167 4.34622e-05
140 167 0.26395
140 168 0.263962
140 169 0.263962
140 170 0.208126
141 111 0.00995278
141 170 0.990047
142 109 0.349186
142 111 0.00118818
142 170 6.7103e-06
142 171 0.324809
142 172 0.324809
143 86 0.772046
143 417 0.227954
144 35 0.000950555
144 1976 0.999049
145 68 0.000169064
145 74 0.334339
145 111 0.332808
145 173 0.332684
146 174 0.333333
146 175 0.333333
146 176 0.333333
147 74 0.164895
147 173 0.835105
148 6 0.284202
148 471 0.715798
149 492 0.249921
149 983 0.000314323
149 984 0.249921
149 985 0.249921
149 986 0.249921
150 2409 1
151 180 0.333175
151 181 0.333413
151 182 0.333413
152 81 0.029743
152 116 0.970257
153 183 1
154 227 0.504425
154 228 0.495575
155 183 0.299985
155 184 0.357172
155 185 0.342843
156 68 0.138355
156 185 0.861645
157 116 0.222503
157 180 0.231091
157 216 0.23093
157 623 0.0845458
157 674 0.23093
158 177 0.335229
158 178 0.329548
158 186 0.335224
159 633 0.666667
159 634 0.333333
160 54 0.166716
160 96 0.166421
160 187 0.166716
160 188 0.166716
160 189 0.166716
160 190 0.166716
161 96 0.19167
161 402 0.39866
161 414 0.204835
161 1909 0.204835
162 35 1.86611e-05
162 96 0.251202
162 966 0.249775
162 1563 0.249775
162 1726 0.249229
163 149 0.515015
163 239 0.484985
164 194 1
165 164 0.0517736
165 515 0.494234
165 1640 0.453992
166 35 1
167 191 0.250428
167 192 0.250428
167 193 0.250428
167 194 0.248715
168 198 1
169 199 1
170 199 1
171 195 0.333336
171 196 0.333336
171 197 0.333329
172 197 2.16114e-05
172 198 0.999978
173 46 0.250332
173 199 0.249004
173 200 0.250332
173 201 0.250332
174 202 0.5
174 203 0.5
175 119 1
176 178 0.5
176 204 0.5
177 21 1
178 21 0.495263
178 2393 0.504737
179 236 1
180 21 2.6277e-05
180 116 0.249993
180 205 0.249993
180 206 0.249993
180 207 0.249993
181 2229 0.25
181 2230 0.25
181 2231 0.25
181 2232 0.25
182 210 1
183 211 0.26064
183 212 0.26064
183 213 0.26064
183 214 0.218081
184 214 1
185 4 0.00565022
185 214 0.99435
186 35 0.344424
186 1101 0.339601
186 1346 0.315975
187 215 0.333307
187 216 0.333296
187 217 0.333305
187 218 9.25813e-05
188 109 0.208497
188 149 0.26186
188 261 0.268033
188 2203 0.26161
189 6 0.368755
189 57 0.295916
189 111 0.335329
190 57 0.250009
190 218 0.249951
190 219 0.25002
190 220 0.25002
191 221 0.999968
191 619 3.23012e-05
192 222 0.331783
192 223 0.336436
192 816 0.331781
193 27 1
194 224 0.333334
194 225 0.333334
194 226 0.333333
195 112 0.250405
195 252 0.249865
195 253 0.249865
195 254 0.249865
196 48 0.333533
196 585 0.666467
197 223 1
198 81 5.32624e-05
198 223 0.410596
198 1201 0.589351
199 712 1
200 246 0.5
200 247 0.5
201 4 2.16211e-05
201 111 0.499984
201 233 0.499994
202 6 0.486256
202 234 0.513744
203 237 0.333333
203 238 0.333333
203 239 0.333333
204 240 0.5
204 241 0.5
205 160 0.0102102
205 502 0.485647
205 689 0.504143
206 27 1
207 57 0.66741
207 229 0.33259
208 111 0.501411
208 298 0.498589
209 160 0.998411
209 688 0.00158912
210 57 1
211 111 0.421455
211 417 0.57851
211 1063 3.48357e-05
212 233 0.33333
212 234 0.333335
212 235 0.333335
213 236 0.502819
213 399 0.497181
214 223 1
215 57 0.000886633
215 706 0.999113
216 230 0.333333
216 231 0.333333
216 232 0.333333
217 57 0.166671
217 73 0.166666
217 242 0.166666
217 243 0.166666
217 244 0.166666
217 245 0.166666
218 255 0.33362
218 256 4.64039e-06
218 262 0.332754
218 2171 0.333621
219 81 0.000995872
219 111 0.00135402
219 502 0.99765
220 112 0.250014
220 256 0.249993
220 257 0.249996
220 258 0.249996
221 145 0.20486
221 149 0.204829
221 320 0.180591
221 321 0.20486
221 322 0.20486
222 259 0.208671
222 260 0.208671
222 261 0.208671
222 262 0.20865
222 263 0.165338
223 112 0.00125073
223 263 0.998749
224 112 0.281796
224 225 0.436309
224 253 0.281895
225 112 1
226 264 0.5
226 265 0.5
227 239 1
228 12 0.202559
228 262 0.202559
228 398 0.202559
228 642 0.190935
228 643 0.201389
229 266 1
230 27 0.587852
230 280 0.412148
231 27 0.470189
231 266 0.0553778
231 267 0.237217
231 268 0.237217
232 145 0.5
232 269 0.5
233 275 0.000657759
233 276 0.49571
233 277 0.503632
234 18 0.312843
234 164 0.37505
234 2776 0.312107
235 109 0.401186
235 111 0.199658
235 509 0.199579
235 510 0.199577
236 137 1
237 275 1
238 164 0.232045
238 276 0.25865
238 277 0.254645
238 310 0.254624
238 311 3.57431e-05
239 278 0.334733
239 279 0.334733
239 280 0.330534
240 270 0.249999
240 271 0.25
240 272 0.25
240 273 0.25
241 274 1
242 96 0.487995
242 1084 0.505548
242 1103 0.00645715
243 274 0.998358
243 275 0.00164182
244 164 5.74099e-05
244 239 0.999943
245 149 0.0163759
245 417 0.000260721
245 943 0.983363
246 281 0.333333
246 282 0.333333
246 283 0.333333
247 48 0.390877
247 471 0.218246
247 1986 0.390877
248 88 1
249 223 1
250 88 1
251 288 0.333333
251 289 0.333333
251 290 0.333333
252 223 0.290349
252 291 0.35476
252 292 0.354892
253 145 0.250002
253 1168 0.249999
253 2659 0.249999
253 2660 0.249999
254 293 0.200017
254 294 0.200017
254 295 0.200017
254 296 0.200017
254 297 0.199931
255 1414 0.500031
255 1705 0.499969
256 147 0.99957
256 297 0.000430211
257 145 0.499997
257 299 0.500003
258 87 0.496217
258 88 0.00756536
258 287 0.496217
259 284 0.333333
259 285 0.333333
259 286 0.333333
260 300 0.603318
260 502 0.345696
260 674 0.0509861
261 164 0.162463
261 301 0.167507
261 302 0.167507
261 303 0.167507
261 304 0.167507
261 305 0.167507
262 57 0.332753
262 1127 0.333623
262 1128 0.333623
263 742 1
264 158 0.2
264 306 0.2
264 307 0.2
264 308 0.2
264 309 0.2
265 149 0.250019
265 481 0.249994
265 1923 0.249994
265 1924 0.249994
266 23 0.497206
266 561 0.502794
267 311 1
268 311 1
269 315 1
270 312 0.25002
270 313 0.250021
270 314 0.250021
270 315 0.249938
271 316 0.25076
271 317 0.501521
271 425 0.247719
272 33 0.996848
272 164 0.00315209
273 318 0.691712
273 319 0.00213215
273 417 0.0029681
273 502 0.303187
274 638 0.500118
274 2148 0.499882
275 6 0.000826346
275 320 0.999174
276 150 0.25001
276 1776 0.249996
276 1777 0.249997
276 1778 0.249997
277 149 6.31331e-06
277 150 0.23496
277 318 0.0615677
277 319 0.233521
277 323 0.234973
277 324 0.234973
278 150 0.250179
278 799 0.249941
278 800 0.249941
278 877 0.249939
279 160 0.506838
279 298 0.215225
279 417 0.277938
280 419 1
281 399 1
282 325 0.166667
282 326 0.166667
282 327 0.166667
282 328 0.166667
282 329 0.166667
282 330 0.166667
283 35 0.00197418
283 553 0.994394
283 1657 0.00363189
284 149 1
285 56 0.201408
285 336 0.201412
285 337 0.201412
285 338 0.201412
285 339 0.194357
286 334 0.996045
286 335 0.00395455
287 335 1
288 18 0.25
288 331 0.25
288 332 0.25
288 333 0.25
289 339 1
290 502 0.336734
290 515 0.336734
290 929 0.326529
290 930 3.91636e-06
291 340 0.207738
291 341 0.207738
291 342 0.207455
291 343 0.207738
291 344 0.169332
292 344 1
293 345 1
294 342 1
295 345 0.239217
295 346 0.253594
295 347 0.253594
295 348 0.253594
296 27 1
297 417 0.326636
297 502 0.336704
297 2504 0.336659
298 27 0.170983
298 355 0.170912
298 356 0.170983
298 357 0.170981
298 358 0.170982
298 359 0.145161
299 357 8.74801e-05
299 359 0.713306
299 360 0.286607
300 355 1
301 18 0.333333
301 1438 0.333333
301 1790 0.333333
302 452 0.333419
302 465 0.333303
302 945 0.333278
303 359 0.996209
303 386 0.00379128
304 164 1
305 360 0.32581
305 361 0.337101
305 362 0.337089
306 239 0.159625
306 363 0.839236
306 364 0.00113932
307 361 6.97055e-06
307 364 0.333303
307 365 0.333345
307 366 0.333345
308 361 0.981583
308 367 0.018417
309 367 1
310 261 0.666006
310 353 0.333994
311 367 1
312 368 0.2
312 369 0.2
312 370 0.2
312 371 0.2
312 372 0.2
313 50 0.2
313 54 0.2
313 239 0.199999
313 373 0.2
313 374 0.2
314 345 0.333341
314 353 0.333329
314 354 0.33333
315 261 1
316 96 0.000102175
316 127 0.249974
316 340 0.249986
316 891 0.249964
316 1067 0.249974
317 18 0.166685
317 261 0.16657
317 349 0.166686
317 350 0.166686
317 351 0.166686
317 352 0.166686
318 81 0.875848
318 164 0.0530292
318 326 0.000108808
318 417 0.0284698
318 1541 0.000311508
318 1737 0.0422325
319 81 0.000294271
319 175 0.199955
319 988 0.199948
319 1545 0.199906
319 1546 0.199948
319 1547 0.199948
320 195 0.169387
320 245 0.169386
320 375 0.169387
320 376 0.169387
320 377 0.169387
320 378 0.153068
321 149 0.326871
321 379 0.33815
321 551 0.326872
321 1026 0.0067509
321 2348 0.0013567
322 378 0.0994018
322 379 0.900598
323 35 0.189493
323 2707 0.810507
324 175 0.882649
324 386 0.117351
325 388 0.499987
325 712 0.500013
326 110 0.249345
326 1711 0.249346
326 1712 0.249346
326 1713 0.0026183
326 1717 0.249346
327 492 1
328 175 0.0434854
328 386 0.956515
329 388 1
330 309 0.26613
330 358 0.266129
330 386 0.20159
330 387 0.26613
330 388 2.12334e-05
331 379 0.0152035
331 380 0.164133
331 381 0.164133
331 382 0.164133
331 383 0.164133
331 384 0.164133
331 385 0.164133
332 389 0.5
332 390 0.5
333 27 2.40377e-05
333 81 0.520881
333 391 0.479095
334 27 0.126609
334 81 0.000413174
334 164 0.872978
335 27 0.195439
335 320 0.201043
335 392 0.201043
335 393 0.201434
335 394 0.201042
336 27 1
337 23 0.337987
337 388 0.331036
337 395 0.330977
338 393 0.249297
338 396 0.250234
338 397 0.250234
338 398 0.250234
339 164 0.154914
339 515 0.845086
340 18 0.255358
340 164 0.233466
340 393 0.000459411
340 399 0.255358
340 400 0.255358
341 119 0.624447
341 409 0.312224
341 1931 0.0633287
342 402 0.00978165
342 502 0.990218
343 6 0.000312834
343 403 0.499673
343 404 0.499673
343 405 0.000341473
344 35 0.327791
344 405 0.33599
344 406 0.336219
345 401 0.250136
345 402 0.249592
345 407 0.250136
345 408 0.250136
346 4 0.227672
346 261 0.257443
346 360 0.257443
346 410 0.257443
347 402 0.166667
347 411 0.166667
347 412 0.166667
347 413 0.166667
347 414 0.166667
347 415 0.166666
348 306 0.25
348 422 0.25
348 423 0.25
348 424 0.249999
349 410 0.508419
349 2610 0.491581
350 223 0.305332
350 982 0.347553
350 983 0.347115
351 245 0.000250388
351 406 0.33332
351 407 0.333196
351 1262 0.333234
352 1911 0.333333
352 1912 0.333334
352 1913 0.333334
353 417 0.933939
353 419 0.0660607
354 416 0.203472
354 417 0.186215
354 418 0.203472
354 419 0.203362
354 420 0.203472
354 421 6.63262e-06
355 96 0.25399
355 1101 0.000927003
355 1408 0.358954
355 1416 0.386129
356 112 1
357 74 0.500008
357 421 0.499992
358 112 1
359 425 0.336876
359 1129 0.331562
359 1130 0.331562
360 402 0.505396
360 502 0.247248
360 1872 0.247356
361 68 2.05504e-05
361 73 0.999979
362 109 1
363 109 0.194914
363 399 0.194995
363 402 0.0251044
363 428 0.194995
363 429 0.194995
363 430 0.194995
364 402 0.733101
364 502 0.266899
365 223 1
366 149 0.249171
366 353 0.250271
366 431 0.250271
366 432 0.250286
367 707 1
368 112 0.25
368 426 0.25
368 427 0.25
368 439 0.25
369 6 0.000131802
369 111 0.50079
369 572 0.249529
369 573 0.249549
370 433 0.166667
370 434 0.166667
370 435 0.166667
370 436 0.166667
370 437 0.166667
370 438 0.166667
371 149 0.501405
371 619 0.498595
372 307 0.166667
372 418 0.166667
372 534 0.166667
372 535 0.166667
372 536 0.166667
372 537 0.166667
373 553 1
374 432 0.33332
374 440 0.33334
374 441 0.33334
375 306 0.2
375 442 0.2
375 443 0.2
375 444 0.2
375 445 0.2
376 446 1
377 446 1
378 17 0.322628
378 446 3.55518e-05
378 447 0.338668
378 448 0.338669
379 17 1
380 4 0.00058756
380 17 0.999412
381 4 0.293205
381 23 0.313078
381 675 0.393717
382 35 0.231021
382 262 0.00206928
382 2172 0.76691
383 56 0.330926
383 451 0.334558
383 1035 0.334516
384 57 0.907724
384 707 0.0922756
385 23 0.199985
385 457 0.200004
385 458 0.200004
385 459 0.200004
385 460 0.200004
386 148 0.200111
386 449 0.199998
386 450 0.199998
386 451 0.199973
386 452 0.199921
387 57 0.186406
387 453 0.203399
387 454 0.203399
387 455 0.203399
387 456 0.203399
388 149 0.201356
388 164 0.194584
388 945 0.20136
388 2742 0.20136
388 2755 0.20134
389 112 0.333328
389 502 0.000388362
389 1873 0.333371
389 1874 0.332913
390 402 0.300571
390 461 0.0858931
390 462 0.306889
390 463 0.306647
391 345 0.498772
391 891 0.501228
392 119 0.268752
392 461 0.193533
392 463 0.000211648
392 464 0.268751
392 2350 0.268752
393 393 0.351491
393 418 0.324251
393 485 0.324258
394 393 0.391184
394 1307 0.405878
394 1839 0.202939
395 96 1
396 6 0.352094
396 468 0.323953
396 469 0.323953
397 216 0.333338
397 466 0.333325
397 467 0.333337
398 223 0.332666
398 393 0.329942
398 465 0.167308
398 470 0.170084
399 6 0.30772
399 12 0.17307
399 38 0.34614
399 1407 0.17307
400 466 0.500009
400 566 0.499991
401 164 4.13264e-05
401 417 0.999959
402 471 4.11994e-06
402 472 0.333332
402 473 0.333332
402 474 0.333332
403 1721 1
404 393 0.476767
404 475 0.523233
405 481 0.219253
405 482 0.260249
405 483 0.260249
405 484 0.260249
406 164 0.429602
406 1456 0.570398
407 81 0.434375
407 391 0.565625
408 480 0.0111207
408 481 0.988879
409 109 0.001646
409 417 0.998354
410 223 0.166538
410 414 0.166692
410 476 0.166692
410 477 0.166692
410 478 0.166692
410 479 0.166692
411 74 0.146527
411 489 0.146527
411 490 0.146527
411 491 0.146527
411 492 0.146527
411 493 0.12084
411 494 0.146527
412 488 1
413 111 0.166291
413 164 0.168565
413 256 0.166286
413 399 0.166286
413 529 0.166286
413 530 0.166286
414 35 0.00622707
414 223 0.0031718
414 410 0.248421
414 414 0.248421
414 966 0.248421
414 2403 0.245338
415 35 0.150639
415 541 0.00150496
415 542 0.423928
415 543 0.423928
416 112 1
417 35 0.000418929
417 493 0.999581
418 495 0.410794
418 496 0.589206
419 497 0.200008
419 498 0.200008
419 499 0.200008
419 500 0.200008
419 501 0.199968
420 57 0.63703
420 96 0.36297
421 502 0.506266
421 503 0.493734
422 99 0.499955
422 707 0.500045
423 109 1
424 503 1
425 501 1
426 504 0.2
426 505 0.2
426 506 0.2
426 507 0.2
426 508 0.2
427 503 1
428 110 0.166736
428 340 0.166736
428 486 0.166736
428 487 0.166736
428 488 0.166325
428 511 0.166732
429 518 0.5
429 519 0.5
430 119 0.333331
430 512 0.333331
430 513 0.33333
430 514 7.69231e-06
431 514 0.499934
431 515 0.500066
432 1101 0.510845
432 1102 0.244454
432 1113 0.244701
433 56 0.333329
433 516 0.333336
433 517 0.333335
434 2068 1
435 164 1
436 27 0.378938
436 149 0.195625
436 528 0.212719
436 1883 0.212719
437 302 1
438 302 0.00713999
438 524 0.248215
438 525 0.248215
438 526 0.248215
438 527 0.248214
439 521 1
440 531 1
441 149 0.332862
441 522 0.333569
441 523 0.333569
442 18 0.166667
442 120 0.166667
442 520 0.166667
442 531 0.166663
442 532 0.166667
442 533 0.166667
443 1376 0.974851
443 2544 0.025149
444 27 0.250186
444 539 0.250234
444 540 0.250234
444 541 0.249346
445 266 0.333334
445 538 0.333334
445 544 0.333333
446 216 0.445234
446 233 0.534215
446 417 0.0205509
447 56 0.248698
447 548 0.250434
447 549 0.250434
447 550 0.250434
448 54 0.25
448 598 0.25
448 599 0.25
448 600 0.25
449 551 0.5
449 552 0.5
450 545 0.313073
450 546 0.313073
450 547 0.313073
450 1344 0.0607818
451 250 0.5
451 554 0.5
452 35 0.235095
452 555 0.254968
452 556 0.254968
452 557 0.254968
453 39 0.142826
453 340 0.142862
453 360 0.142862
453 562 0.142862
453 563 0.142862
453 564 0.142862
453 565 0.142862
454 149 0.333315
454 551 0.333342
454 574 0.333342
455 96 1
456 164 1
457 567 1
458 111 0.500198
458 2639 0.499802
459 111 1
460 112 0.199984
460 568 0.200004
460 569 0.200004
460 570 0.200004
460 571 0.200004
461 119 0.142857
461 120 0.142857
461 558 0.142857
461 559 0.142857
461 560 0.142857
461 588 0.142857
461 589 0.142857
462 388 0.499889
462 582 0.500111
463 388 0.893406
463 582 0.081095
463 583 0.025499
464 149 0.00263695
464 344 0.244663
464 417 0.0187107
464 575 0.244663
464 576 0.244663
464 577 0.244663
465 578 0.25
465 579 0.25
465 580 0.25
465 581 0.25
466 583 0.199998
466 584 0.200001
466 585 0.200001
466 586 0.200001
466 587 0.200001
467 233 0.0101932
467 643 9.82433e-05
467 681 0.328768
467 1069 0.32876
467 1429 0.328752
467 2338 0.00342824
468 417 1
469 6 5.74499e-05
469 81 0.999458
469 591 0.00048421
470 164 0.00228064
470 591 0.997719
471 88 0.333237
471 109 0.333526
471 592 0.333237
472 56 0.126095
472 164 0.369525
472 169 0.126095
472 590 0.126095
472 593 0.126095
472 594 0.126095
473 262 0.333333
473 595 0.333333
473 596 0.333333
474 301 0.49992
474 597 2.77755e-06
474 1833 0.500077
475 399 0.481709
475 417 0.518291
476 164 0.000714248
476 597 0.199848
476 601 0.199859
476 602 0.199859
476 1409 0.199859
476 1410 0.199859
477 603 0.5
477 604 0.25
477 1185 0.25
478 239 0.25
478 605 0.25
478 606 0.25
478 607 0.25
479 608 1
480 57 0.325191
480 298 0.325204
480 608 0.0243879
480 609 0.325218
481 502 0.333333
481 610 0.333333
481 611 0.333333
482 164 1
483 68 1
484 256 0.125
484 306 0.125
484 525 0.125
484 612 0.125
484 613 0.125
484 614 0.125
484 615 0.125
484 616 0.125
485 164 0.0007765
485 515 0.199845
485 617 0.199845
485 618 0.199845
485 1896 0.199842
485 1897 0.199845
486 86 0.000289118
486 619 0.000175674
486 700 0.999535
487 620 0.5
487 621 0.5
488 216 0.3327
488 234 0.3327
488 622 0.3327
488 623 0.00189912
489 149 1.95241e-05
489 619 0.000225635
489 623 0.331981
489 624 0.333887
489 625 0.333887
490 81 0.0348499
490 608 0.6535
490 1257 0.31165
491 160 0.344476
491 419 0.354792
491 541 0.123327
491 688 0.177405
492 326 0.232297
492 541 0.070811
492 626 0.232297
492 627 0.232297
492 628 0.232297
493 483 0.25
493 629 0.25
493 630 0.25
493 631 0.25
494 632 1
495 417 0.00869524
495 733 0.991305
496 417 0.25
496 635 0.25
496 636 0.25
496 637 0.25
497 81 0.522165
497 301 0.000144378
497 393 0.477691
498 492 1
499 46 0.160064
499 160 0.160106
499 169 0.160076
499 298 0.1996
499 2517 0.160076
499 2518 0.160076
500 492 0.318627
500 610 0.339761
500 638 0.339761
500 643 0.00185053
501 96 1
502 96 0.0284023
502 642 0.971598
503 94 0.200421
503 417 0.198363
503 639 0.200421
503 640 0.200374
503 641 0.200421
504 541 0.25
504 644 0.25
504 645 0.25
504 646 0.25
505 96 0.331581
505 180 0.33395
505 2759 0.334469
506 119 1
507 502 0.49852
507 649 0.50148
508 79 0.249632
508 216 0.249632
508 502 0.00147357
508 535 0.249632
508 650 0.249632
509 546 0.25
509 647 0.25
509 648 0.25
509 651 0.25
510 96 0.100074
510 327 0.128561
510 654 0.128561
510 655 0.128561
510 656 0.128561
510 657 0.128561
510 658 0.128561
510 659 0.128561
511 502 0.330052
511 652 0.334974
511 653 0.334974
512 502 1
513 23 0.327328
513 262 0.336349
513 456 0.336322
514 57 0.00267025
514 261 0.166046
514 492 0.166257
514 660 0.166257
514 661 0.166257
514 662 0.166257
514 663 0.166257
515 261 0.0401019
515 262 0.959898
516 502 1
517 262 0.162428
517 664 0.167514
517 665 0.167514
517 666 0.167514
517 667 0.167514
517 668 0.167514
518 1521 0.333335
518 1736 0.33333
518 2536 0.333335
519 27 0.230471
519 669 0.230471
519 670 0.230471
519 671 0.230471
519 672 0.0781174
520 6 0.00712982
520 672 0.99287
521 856 0.25
521 857 0.25
521 858 0.25
521 859 0.25
522 6 1
523 309 0.166667
523 630 0.166667
523 673 0.166667
523 674 0.166667
523 675 0.166663
523 676 0.166667
524 23 0.484809
524 388 0.515143
524 623 4.83263e-05
525 48 0.0736202
525 745 0.92638
526 262 0.499953
526 2156 0.500047
527 746 0.25
527 747 0.25
527 748 0.25
527 749 0.25
528 96 1
529 623 0.199985
529 677 0.200004
529 678 0.200004
529 679 0.200004
529 680 0.200004
530 35 0.0079832
530 109 0.203554
530 144 0.203912
530 298 0.00774212
530 417 0.168986
530 653 0.203912
530 681 0.203912
531 48 7.02708e-05
531 298 0.99993
532 613 0.333333
532 682 0.333333
532 683 0.333333
533 854 0.333333
533 987 0.333333
533 2650 0.333333
534 502 0.229453
534 685 0.256849
534 686 0.256849
534 687 0.256849
535 502 1
536 399 0.489334
536 502 0.0185569
536 684 0.492109
537 447 0.498716
537 641 0.0025689
537 690 0.498716
538 55 0.142962
538 126 0.142962
538 641 0.142226
538 691 0.142962
538 692 0.142962
538 693 0.142962
538 694 0.142962
539 149 0.000984087
539 1037 0.999016
540 674 0.216911
540 695 0.26103
540 696 0.26103
540 697 0.26103
541 120 0.24994
541 216 0.25002
541 623 0.25002
541 698 0.25002
542 160 0.500073
542 699 0.499927
543 12 0.250018
543 111 0.499967
543 710 0.250015
544 399 0.333333
544 701 0.333333
544 702 0.333333
545 705 0.814176
545 706 0.185824
546 57 0.61256
546 705 1.48237e-05
546 706 0.387425
547 217 0.249768
547 707 0.24969
547 708 0.249768
547 709 0.250774
548 183 1
549 81 0.0931848
549 2159 0.906815
550 99 0.199368
550 197 0.199391
550 483 0.199391
550 703 0.199392
550 704 0.199392
550 705 0.00306652
551 155 0.166667
551 388 0.166663
551 567 0.166667
551 711 0.166667
551 712 0.166667
551 713 0.166667
552 417 0.418441
552 714 0.581559
553 160 0.473249
553 715 0.526751
554 716 0.999859
554 717 0.000131879
554 2707 9.03969e-06
555 160 0.449789
555 717 0.550191
555 861 2.04483e-05
556 160 0.00131365
556 718 0.332895
556 719 0.332895
556 720 0.332895
557 96 1
558 721 0.251659
558 722 0.251669
558 723 0.251669
558 724 0.245004
559 724 1
560 12 0.333331
560 725 0.333335
560 726 0.333335
561 23 0.498713
561 727 0.501287
562 239 0.25
562 728 0.25
562 729 0.25
562 730 0.25
563 446 0.5
563 731 0.5
564 96 0.329205
564 417 0.334467
564 721 0.336327
565 57 0.199141
565 231 0.200215
565 480 0.200215
565 877 0.200215
565 2499 0.200215
566 160 7.43924e-05
566 216 0.504447
566 732 0.252087
566 733 0.117347
566 1862 0.126044
567 454 0.295655
567 456 0.295655
567 734 0.295655
567 735 0.113034
568 735 0.382044
568 736 0.617956
569 109 0.249944
569 111 0.249942
569 736 0.000224976
569 737 0.249944
569 738 0.249944
570 48 0.336145
570 712 0.331928
570 2751 0.331928
571 742 0.17452
571 743 0.351676
571 744 0.351676
571 745 0.122128
572 216 0.999726
572 2336 0.000273547
573 4 0.0273782
573 81 0.971419
573 164 0.000542033
573 1545 0.00066081
574 48 1
575 316 0.250004
575 891 0.249989
575 1138 0.250004
575 1139 0.250004
576 48 1.20208e-05
576 291 0.124998
576 430 0.124999
576 454 0.124999
576 456 0.124998
576 739 0.124998
576 740 0.124999
576 741 0.124998
576 750 0.124999
577 256 0.349321
577 751 0.349321
577 752 0.301357
578 756 1
579 27 0.200012
579 155 0.199997
579 753 0.199997
579 754 0.199997
579 755 0.199997
580 712 0.250019
580 756 0.249942
580 757 0.250019
580 758 0.250019
581 81 0.00309341
581 417 0.413468
581 502 0.194472
581 759 0.19447
581 760 0.194497
582 502 0.127186
582 801 0.872814
583 86 0.0200795
583 515 0.24498
583 674 0.24498
583 761 0.24498
583 762 0.24498
584 763 0.25
584 764 0.25
584 765 0.25
584 766 0.25
585 27 0.558889
585 2497 0.441111
586 6 0.329567
586 767 0.335217
586 768 0.335217
587 27 0.392451
587 769 0.392577
587 770 0.214971
588 770 0.998993
588 771 0.00100701
589 770 9.73791e-05
589 771 0.3332
589 772 0.333352
589 773 0.333352
590 164 0.334121
590 272 0.33294
590 1955 0.33294
591 712 1
592 120 0.166355
592 486 0.166729
592 774 0.166729
592 775 0.166729
592 776 0.166729
592 777 0.166729
593 623 0.469373
593 1404 0.530627
594 465 0.166551
594 768 0.166687
594 780 0.166691
594 781 0.166691
594 782 0.166691
594 783 0.16669
595 1931 1
596 768 1
597 23 0.333333
597 646 0.333333
597 791 0.333333
598 149 0.250513
598 383 0.250517
598 778 0.250517
598 779 0.248453
599 779 1
600 393 1
601 27 0.248984
601 265 0.250339
601 784 0.250339
601 785 0.250339
602 236 0.166667
602 786 0.166667
602 787 0.166667
602 788 0.166667
602 789 0.166667
602 790 0.166667
603 175 0.00138902
603 794 0.998611
604 175 0.993137
604 796 0.00193495
604 798 0.00492796
605 175 0.00760633
605 223 0.0431546
605 399 0.474886
605 798 0.474354
606 175 0.210584
606 794 0.00159284
606 795 0.262548
606 796 0.262562
606 797 0.262655
606 798 5.83584e-05
607 223 0.179254
607 292 0.198533
607 766 0.198606
607 792 0.198606
607 793 0.198606
607 794 0.0263153
607 795 7.97038e-05
608 81 1
609 160 0.499795
609 801 0.500205
610 111 0.147379
610 736 0.147382
610 801 1.76542e-06
610 802 0.147382
610 803 0.147382
610 804 0.147382
610 805 0.147382
610 806 0.115709
611 68 0.434221
611 806 0.100082
611 807 0.465697
612 808 1
613 399 0.25
613 809 0.25
613 810 0.25
613 811 0.25
614 812 0.979741
614 813 0.0202587
615 6 0.0845482
615 178 0.29308
615 813 0.314366
615 977 0.308006
616 56 0.504425
616 813 0.495575
617 56 1.66461e-05
617 112 0.333328
617 814 0.333328
617 815 0.333328
618 223 0.142907
618 292 0.142976
618 553 0.14295
618 987 0.142976
618 988 0.142263
618 989 0.142953
618 990 0.142976
619 988 0.969958
619 989 0.0300423
620 27 0.249815
620 817 0.250068
620 818 0.250068
620 819 0.250049
621 27 3.85946e-06
621 262 0.333439
621 816 0.333267
621 819 2.50714e-05
621 820 0.333265
622 239 0.250017
622 821 0.250017
622 822 0.250017
622 823 0.249949
623 502 0.168381
623 712 0.168384
623 824 0.168384
623 825 0.168384
623 826 0.168384
623 827 0.158084
624 827 1
625 823 1
626 192 0.166722
626 502 0.166388
626 600 0.166722
626 2388 0.166722
626 2773 0.166722
626 2774 0.166722
627 39 0.333333
627 828 0.333333
627 829 0.333333
628 291 1
629 148 0.333335
629 471 0.333332
629 1689 0.333333
630 291 0.166154
630 388 0.166125
630 475 0.16936
630 502 0.16612
630 1601 0.166121
630 1607 0.166113
630 1608 7.02819e-06
631 291 0.219254
631 475 0.780746
632 239 0.174766
632 291 0.300931
632 475 2.72056e-06
632 830 0.174767
632 831 0.174767
632 832 0.174767
633 291 0.000159163
633 833 0.33328
633 834 0.33328
633 835 0.33328
634 841 1
635 681 0.166143
635 707 0.00315115
635 837 0.166143
635 838 0.166143
635 839 0.166143
635 840 0.166143
635 841 0.166132
636 465 0.5
636 836 0.5
637 23 0.344871
637 436 0.327502
637 1806 0.327626
638 112 0.200158
638 842 0.199367
638 843 0.200158
638 844 0.200158
638 845 0.200158
639 116 0.250102
639 829 0.250102
639 846 0.250102
639 847 0.249694
640 475 0.369011
640 675 0.262047
640 848 0.368942
641 972 0.499906
641 973 0.499905
641 1213 0.000188845
642 842 1
643 88 0.125055
643 89 0.125055
643 111 0.124801
643 394 0.125055
643 849 0.124867
643 850 0.125055
643 851 0.125055
643 852 0.125055
644 10 0.500086
644 11 0.499914
645 849 1
646 847 1
647 183 0.183334
647 854 0.408333
647 855 0.408333
648 112 0.332421
648 815 0.33379
648 853 0.333788
649 27 0.264425
649 860 0.367787
649 861 0.367787
650 27 0.87616
650 862 0.12384
651 261 0.346502
651 477 0.31804
651 862 0.335458
652 111 0.961717
652 470 0.0382832
653 477 0.97204
653 863 0.0279598
654 149 0.250146
654 863 0.249557
654 864 0.250148
654 865 0.250148
655 901 0.111111
655 902 0.111111
655 903 0.111111
655 904 0.111111
655 905 0.111111
655 906 0.111111
655 907 0.111111
655 908 0.111111
655 909 0.111111
656 866 1
657 96 1
658 866 0.242807
658 867 0.252398
658 868 0.252398
658 869 0.252398
659 79 0.332758
659 83 0.335185
659 457 0.332057
660 870 1
661 48 0.251335
661 96 0.251185
661 870 0.246088
661 871 0.251392
662 93 0.251601
662 137 0.245198
662 872 0.251601
662 873 0.251601
663 829 0.333333
663 874 0.333333
663 875 0.333333
664 6 1
665 6 1
666 6 0.699165
666 877 0.300835
667 231 0.250005
667 544 0.250005
667 876 0.250005
667 877 0.249985
668 513 3.43595e-05
668 885 0.333322
668 886 0.333322
668 887 0.333322
669 513 0.124999
669 878 0.125
669 879 0.125
669 880 0.125
669 881 0.125
669 882 0.125
669 883 0.125
669 884 0.125
670 383 0.167398
670 500 0.163008
670 892 0.167398
670 893 0.167398
670 894 0.167398
670 895 0.167398
671 116 1
672 111 6.98829e-06
672 472 0.249998
672 889 0.249998
672 890 0.249998
672 891 0.249998
673 57 0.664016
673 2586 0.335984
674 500 1
675 77 0.333333
675 896 0.333333
675 897 0.333333
676 81 0.379214
676 393 0.310834
676 2775 0.309951
677 57 0.00104251
677 109 0.166493
677 759 0.166493
677 888 0.166493
677 898 0.166493
677 899 0.166493
677 900 0.166493
678 39 0.258969
678 393 0.258957
678 402 0.258969
678 1677 0.00266547
678 2508 0.220439
679 18 1
680 388 0.428451
680 2544 0.571549
681 35 1
682 55 0.200033
682 475 0.199868
682 813 0.200033
682 853 0.200033
682 910 0.200033
683 62 0.995085
683 68 0.00491517
684 344 0.24999
684 419 0.250029
684 911 0.24999
684 912 0.24999
685 27 0.989236
685 919 0.010764
686 149 0.334191
686 276 0.332901
686 1341 0.332909
687 27 0.994812
687 266 0.00518805
688 234 0.166079
688 419 0.166044
688 759 0.00407312
688 919 0.165569
688 920 0.166079
688 921 0.166079
688 922 0.166078
689 266 0.505881
689 759 0.494119
690 89 0.125
690 414 0.125
690 913 0.125
690 914 0.125
690 915 0.125
690 916 0.125
690 917 0.125
690 918 0.125
691 27 0.424483
691 111 0.286486
691 923 0.289032
692 89 0.333327
692 223 0.333337
692 924 0.333337
693 96 1
694 925 0.304937
694 926 0.304937
694 927 0.304937
694 928 0.0851902
695 928 1
696 928 1
697 929 0.0100011
697 930 0.329997
697 931 0.330001
697 932 0.330001
698 79 0.125001
698 150 0.124993
698 681 0.125001
698 812 0.125001
698 813 0.125001
698 933 0.125001
698 934 0.125001
698 935 0.125001
699 6 0.24058
699 231 0.252359
699 936 0.254701
699 2740 0.252359
700 83 1
701 854 0.218881
701 937 0.781119
702 417 0.249336
702 854 0.251023
702 936 0.24874
702 937 0.250901
703 302 0.333333
703 1898 0.333333
703 1899 0.333333
704 939 1
705 939 1
706 116 0.125
706 416 0.125
706 938 0.125
706 940 0.125
706 941 0.125
706 942 0.125
706 943 0.125
706 944 0.125
707 81 0.184969
707 762 0.271677
707 945 0.271677
707 946 0.271677
708 62 0.21132
708 149 0.262866
708 947 0.262907
708 948 0.262907
709 81 0.498105
709 2140 0.501895
710 504 0.2
710 2557 0.2
710 2558 0.2
710 2559 0.2
710 2560 0.2
711 62 6.22599e-05
711 63 0.333313
711 949 0.333313
711 950 0.333313
712 68 0.000107922
712 951 0.499946
712 952 0.499946
713 81 0.329862
713 953 0.336072
713 954 0.334066
714 954 0.00889236
714 955 0.991108
715 160 0.395651
715 953 0.604349
716 160 0.518273
716 417 0.480836
716 955 0.000891441
717 112 0.174472
717 953 6.90387e-06
717 956 0.275172
717 2344 0.275175
717 2345 0.275175
718 18 0.250023
718 145 0.24993
718 957 0.250023
718 958 0.250023
719 145 1
720 894 0.24048
720 959 0.0380794
720 960 0.24048
720 961 0.24048
720 962 0.24048
721 959 1
722 221 0.987165
722 223 1.11858e-05
722 963 0.0128234
723 221 0.002242
723 963 0.329713
723 964 0.334022
723 965 0.334022
724 145 0.2
724 265 0.2
724 414 0.2
724 681 0.2
724 966 0.2
725 96 0.495391
725 221 8.81229e-05
725 967 0.504521
726 968 0.5
726 969 0.5
727 160 0.332595
727 970 0.333703
727 971 0.333703
728 23 0.499967
728 160 6.69841e-05
728 972 0.499967
729 119 0.2
729 144 0.2
729 973 0.2
729 974 0.2
729 975 0.2
730 976 0.33333
730 1002 0.166668
730 2756 0.166668
730 2757 0.166667
730 2758 0.166667
731 115 0.0160109
731 178 0.251318
731 994 0.244224
731 995 0.244224
731 996 0.244224
732 978 0.25
732 979 0.25
732 980 0.25
732 981 0.25
733 233 0.166662
733 553 0.166691
733 1079 0.166662
733 1831 0.166662
733 2532 0.166662
733 2533 0.166662
734 17 0.249994
734 2203 0.250002
734 2307 0.250002
734 2308 0.250002
735 18 0.333333
735 601 0.333333
735 991 0.333333
736 50 0.216342
736 81 0.352367
736 164 0.000322762
736 391 0.430969
737 115 1.42823e-05
737 149 0.249909
737 383 0.249918
737 716 0.000323355
737 992 0.249918
737 993 0.249918
738 115 0.979647
738 178 0.0203533
739 27 0.564856
739 1016 0.435144
740 27 0.149286
740 55 0.212653
740 997 0.212687
740 998 0.212687
740 999 0.212687
741 160 0.999814
741 1000 0.00018644
742 1000 0.249997
742 1001 0.250001
742 1002 0.250001
742 1003 0.250001
743 160 0.199763
743 298 0.20005
743 1004 0.200062
743 1005 0.200062
743 1006 0.200062
744 48 0.200047
744 492 0.199822
744 861 0.200039
744 1007 0.200047
744 1008 0.200047
745 86 0.24817
745 160 0.248449
745 298 0.248355
745 613 0.248461
745 1058 0.00656475
746 27 0.337821
746 2186 0.331089
746 2187 0.33109
747 27 0.329122
747 239 0.167719
747 1009 0.167719
747 1010 0.167719
747 1011 0.167719
748 1013 1
749 96 0.170659
749 164 0.391134
749 2732 0.219103
749 2733 0.219103
750 320 0.200432
750 1012 0.200432
750 1013 0.19827
750 1014 0.200433
750 1015 0.200433
751 6 0.000109853
751 57 0.333184
751 418 0.333589
751 551 0.333118
752 164 0.246949
752 1017 0.251017
752 1018 0.251017
752 1019 0.251017
753 1020 0.999836
753 1021 0.000163931
754 1021 1
755 48 0.125
755 753 0.125
755 987 0.125
755 1022 0.125
755 1023 0.125
755 1024 0.125
755 1025 0.125
755 1026 0.125
756 1027 1
757 417 0.00130125
757 419 0.249675
757 1028 0.249675
757 1029 0.249675
757 1030 0.249675
758 1031 1
759 417 0.48512
759 1046 0.51488
760 86 0.256616
760 1037 0.23052
760 1038 0.256432
760 1039 0.256432
761 149 1
762 149 1
763 149 0.249987
763 383 0.250004
763 1191 0.250004
763 1192 0.250004
764 1042 0.25
764 1043 0.25
764 1044 0.25
764 1045 0.25
765 149 0.246018
765 436 0.12552
765 1031 0.000863195
765 1032 0.12552
765 1033 0.12552
765 1034 0.12552
765 1035 0.12552
765 1036 0.12552
766 1031 1
767 81 0.0355561
767 160 0.964444
768 477 0.23937
768 586 0.76063
769 1052 1
770 586 0.00424023
770 1047 0.331935
770 1048 0.331912
770 1049 0.331912
771 197 0.143147
771 477 0.143102
771 586 0.141174
771 1050 0.143147
771 1051 0.143147
771 1052 0.143137
771 1053 0.143147
772 1058 1
773 1054 1
774 183 0.249453
774 1055 0.250184
774 1056 0.250185
774 1057 0.250178
775 1054 0.999417
775 1057 0.000583137
776 12 0.142973
776 262 0.142973
776 550 0.142973
776 1063 0.142846
776 1064 0.142973
776 1065 0.142973
776 1066 0.142286
777 96 1
778 1062 0.578412
778 1063 0.421588
779 194 0.33333
779 475 0.333333
779 1762 0.333336
780 1066 1
781 111 0.00775029
781 464 0.248062
781 1068 0.248062
781 1069 0.248062
781 1070 0.248062
782 353 0.25
782 2010 0.25
782 2011 0.25
782 2012 0.25
783 1075 1
784 740 0.166909
784 1071 0.166909
784 1072 0.166908
784 1073 0.166908
784 1074 0.166908
784 1075 0.165459
785 1059 0.250028
785 1060 0.250028
785 1061 0.250028
785 1062 0.249837
785 1063 7.98208e-05
786 1253 0.25
786 1254 0.25
786 1255 0.25
786 1256 0.25
787 109 0.199845
787 149 0.200031
787 256 0.200041
787 1076 0.200041
787 1077 0.200041
788 353 0.125
788 399 0.125
788 1078 0.124999
788 1079 0.125
788 1080 0.125
788 1081 0.125
788 1082 0.125
788 1083 0.125
789 345 1
790 109 1
791 272 0.142857
791 465 0.142857
791 502 0.142857
791 741 0.142857
791 1085 0.142857
791 1086 0.142857
791 1087 0.142857
792 394 0.249889
792 1088 0.250037
792 1089 0.250037
792 1090 0.250037
793 4 0.0357143
793 96 0.0357143
793 109 0.0357143
793 149 0.0357143
793 256 0.0357143
793 272 0.0357143
793 353 0.0357143
793 394 0.0357143
793 399 0.0357143
793 465 0.0357143
793 502 0.0357143
793 633 0.0357143
793 741 0.0357143
793 1076 0.0357143
793 1077 0.0357143
793 1078 0.0357143
793 1079 0.0357143
793 1080 0.0357143
793 1081 0.0357143
793 1082 0.0357143
793 1083 0.0357143
793 1084 0.0357143
793 1085 0.0357143
793 1086 0.0357143
793 1087 0.0357143
793 1088 0.0357143
793 1089 0.0357143
793 1090 0.0357143
794 394 1
795 56 0.000109138
795 1091 0.499896
795 1092 0.499896
795 1102 9.79929e-05
796 56 1
797 636 0.142857
797 674 0.142857
797 1093 0.142857
797 1094 0.142857
797 1095 0.142857
797 1096 0.142857
797 1097 0.142855
798 111 0.690881
798 1102 0.309119
799 4 0.326798
799 1037 0.673202
800 160 0.500384
800 1188 0.499616
801 509 0.333331
801 1098 0.333334
801 1099 0.333335
802 109 0.543102
802 1100 0.456898
803 1103 0.493489
803 1299 0.506511
804 86 0.125333
804 502 0.125333
804 1104 0.125333
804 1105 0.125333
804 1106 0.125333
804 1107 0.125333
804 1108 0.125333
804 1109 0.122669
805 94 0.257107
805 109 0.228678
805 2260 0.257107
805 2298 0.257107
806 1109 1
807 6 0.00132388
807 1110 0.0483236
807 1786 0.950353
808 144 0.201597
808 486 0.201597
808 1110 0.193611
808 1111 0.201597
808 1112 0.201597
809 509 0.333168
809 1114 0.333416
809 1115 0.333416
810 1116 1
811 109 0.294808
811 417 0.344738
811 509 0.360453
812 1121 1
813 1103 1
814 1093 0.2
814 1144 0.2
814 1404 0.2
814 2413 0.2
814 2414 0.199999
815 192 1
816 109 5.08273e-06
816 1116 0.497332
816 1117 0.502663
817 116 1
818 81 0.0219673
818 111 0.978033
819 145 0.166669
819 236 0.166669
819 492 0.166615
819 1118 0.166669
819 1119 0.166669
819 1120 0.166669
819 1121 3.80408e-05
820 111 0.249992
820 1122 0.250003
820 1123 0.250003
820 1124 0.250003
821 327 0.263822
821 620 0.263822
821 1125 0.263749
821 1126 0.208607
822 57 0.0122105
822 1125 0.00130898
822 1126 0.986299
822 2440 0.000181228
823 340 0.142857
823 712 0.142857
823 997 0.142857
823 1101 0.142856
823 1131 0.142857
823 1132 0.142857
823 1133 0.142857
824 27 0.166668
824 326 0.166666
824 1541 0.166661
824 2415 0.166668
824 2416 0.166668
824 2417 0.166668
825 712 0.23753
825 1134 0.254157
825 1135 0.254157
825 1136 0.254157
826 712 0.347563
826 1189 0.326252
826 1190 0.326185
827 1137 1
828 1143 1
829 23 0.202377
829 39 0.20238
829 1140 0.20238
829 1141 0.20238
829 1142 0.190482
830 502 0.199974
830 636 0.199974
830 1143 0.00013143
830 1144 0.199974
830 1145 0.199974
830 1146 0.199974
831 464 0.2
831 1147 0.2
831 1148 0.2
831 1149 0.2
831 1150 0.2
832 1151 1
833 1151 1
834 1142 0.0565693
834 1143 0.943431
835 1307 0.286042
835 1826 0.286137
835 1835 0.015651
835 1836 0.286137
835 2262 0.126033
836 35 0.00225899
836 223 0.0811292
836 1152 0.916612
837 27 0.249987
837 1074 0.250024
837 1446 0.249995
837 1447 0.249995
838 425 0.500828
838 1153 0.499172
839 192 0.00397324
839 216 0.507908
839 1153 0.488119
840 2418 0.5
840 2419 0.5
841 1074 0.543247
841 1101 0.456753
842 39 0.200286
842 216 0.198857
842 1154 0.200285
842 1155 0.200286
842 1156 0.200286
843 27 0.199998
843 1113 0.199999
843 1157 0.200001
843 1158 0.200001
843 1159 0.200001
844 391 0.00198243
844 1164 0.249157
844 1165 0.24962
844 1166 0.24962
844 1167 0.24962
845 1160 0.997877
845 1161 0.00212282
846 1163 0.0770675
846 1164 0.922933
847 502 0.250142
847 1160 3.16427e-06
847 1161 0.24961
847 1162 0.250142
847 1163 0.250103
848 56 0.240125
848 236 0.253487
848 345 0.506388
849 707 1
850 345 0.330929
850 623 0.334534
850 1184 0.334537
851 160 0.143993
851 783 0.171201
851 1174 0.171201
851 1175 0.171201
851 1176 0.171201
851 1177 0.171201
852 541 1
853 541 1
854 686 0.25
854 1049 0.25
854 1178 0.25
854 1179 0.25
855 160 1
856 4 0.0322581
856 35 0.0322581
856 57 0.0322581
856 110 0.0322581
856 160 0.0322581
856 345 0.0322581
856 456 0.0322581
856 541 0.0322581
856 573 0.0322581
856 623 0.0322581
856 686 0.0322581
856 707 0.0322581
856 783 0.0322581
856 1049 0.0322581
856 1168 0.0322581
856 1169 0.0322581
856 1170 0.0322581
856 1171 0.0322581
856 1172 0.0322581
856 1173 0.0322581
856 1174 0.0322581
856 1175 0.0322581
856 1176 0.0322581
856 1177 0.0322581
856 1178 0.0322581
856 1179 0.0322581
856 1180 0.0322581
856 1181 0.0322581
856 1182 0.0322581
856 1183 0.0322581
856 1184 0.0322581
857 456 0.166665
857 573 0.166667
857 1180 0.166667
857 1181 0.166667
857 1182 0.166667
857 1183 0.166667
858 160 1
859 57 1
860 1168 0.166667
860 1169 0.166667
860 1170 0.166667
860 1171 0.166667
860 1172 0.166667
860 1173 0.166666
861 1070 0.361144
861 1186 0.361144
861 1187 0.277712
862 1187 0.999909
862 1188 9.12529e-05
863 492 0.415816
863 1195 0.0351407
863 1196 0.415816
863 1197 0.133228
864 356 0.25
864 804 0.25
864 1193 0.25
864 1194 0.25
865 1195 1
866 1197 1
867 215 0.111113
867 217 0.111114
867 261 0.111117
867 481 0.111116
867 712 0.111097
867 1189 0.111094
867 1198 0.111117
867 1199 0.111117
867 1200 0.111117
868 623 0.2
868 981 0.2
868 1201 0.2
868 1202 0.2
868 1203 0.2
869 144 0.5
869 1208 0.5
870 261 0.0224448
870 1204 0.977555
871 1204 0.0208395
871 1207 0.979161
872 55 0.199317
872 245 0.200441
872 261 0.196014
872 1204 0.00334472
872 1205 0.200441
872 1206 0.200441
873 502 0.167785
873 546 0.167785
873 553 0.161075
873 1939 0.167785
873 1942 0.167785
873 1943 0.167785
874 18 0.200246
874 345 0.199015
874 603 0.200246
874 1211 0.200247
874 1212 0.200246
875 57 0.492145
875 145 0.507855
876 712 1
877 23 0.165569
877 197 0.165569
877 340 0.165561
877 388 0.165569
877 712 0.00659405
877 854 0.165569
877 1209 0.165569
878 482 1
879 117 0.242954
879 233 0.24285
879 454 0.0282603
879 1213 2.86881e-05
879 1214 0.242954
879 1215 0.242954
880 454 1
881 23 0.3314
881 831 0.334305
881 1622 0.334294
882 233 1
883 553 0.0428325
883 1079 0.239322
883 1213 0.239203
883 1216 0.239321
883 1217 0.239322
884 705 0.340045
884 1218 0.340045
884 1219 0.31991
885 1219 0.00759221
885 1220 0.992408
886 1047 0.249987
886 1229 0.250004
886 1230 0.250004
886 1231 0.250004
887 262 0.333333
887 419 0.333333
887 1232 0.333333
888 1223 0.400009
888 1224 0.400009
888 2145 0.199981
889 947 0.25021
889 1225 0.249369
889 1226 0.25021
889 1227 0.25021
890 1228 1
891 1225 1
892 1219 0.0658315
892 1220 0.934169
893 541 0.247372
893 1101 0.228849
893 1220 0.0290344
893 1221 0.247372
893 1222 0.247372
894 1101 1
895 398 0.25
895 741 0.25
895 1233 0.25
895 1234 0.25
896 1235 1
897 6 0.506716
897 1235 0.493284
898 6 1
899 1236 0.202371
899 1237 0.404764
899 1238 0.392865
900 109 0.249975
900 736 0.250008
900 810 0.250008
900 1239 0.250008
901 81 1
902 216 0.2
902 502 0.2
902 758 0.2
902 759 0.2
902 1240 0.2
903 1241 0.2
903 1242 0.2
903 1243 0.2
903 1244 0.2
903 1245 0.2
904 712 0.0857502
904 1246 0.914188
904 2710 6.14686e-05
905 783 0.261171
905 1246 0.216493
905 1247 0.261171
905 1248 0.261165
906 160 0.000311477
906 1248 2.41936e-05
906 1249 0.999664
907 160 0.910995
907 1249 0.089005
908 149 0.50002
908 626 0.49998
909 741 0.25
909 1250 0.25
909 1251 0.25
909 1252 0.25
910 573 0.49643
910 877 0.50357
911 68 1
912 68 0.376113
912 1261 0.623887
913 68 0.0102456
913 245 0.0366233
913 1261 0.953131
914 35 0.00933797
914 245 0.980503
914 1261 0.0101594
915 112 1
916 1263 0.25
916 1264 0.25
916 1265 0.25
916 1266 0.25
917 6 0.120809
917 35 0.0623094
917 68 0.0387436
917 81 0.0369347
917 112 0.00120236
917 115 0.00526119
917 245 0.0130031
917 406 0.00124229
917 407 0.0115181
917 573 0.546293
917 877 0.136676
917 1260 0.00851056
917 1261 0.00881728
917 1262 0.00867961
918 23 0.142857
918 150 0.142857
918 407 0.142857
918 719 0.142857
918 1257 0.142857
918 1258 0.142857
918 1259 0.142857
919 112 0.333907
919 115 0.333065
919 1260 0.333028
920 149 0.167889
920 276 0.166451
920 626 0.166415
920 947 0.166415
920 1267 0.166415
920 1268 0.166415
921 1377 0.505545
921 1511 0.494455
922 149 1
923 112 0.487828
923 851 3.39383e-05
923 1269 0.512138
924 851 0.499984
924 1270 0.500016
925 1271 1
926 12 1
927 1269 1
928 1281 0.346826
928 1282 0.346826
928 1283 0.305183
928 1284 0.00116541
929 1279 0.471684
929 1280 0.471684
929 1283 0.0566328
930 1284 0.332586
930 1285 0.333707
930 1286 0.333707
931 12 0.17086
931 894 0.207285
931 1278 0.207285
931 1287 0.207285
931 1288 0.207285
932 94 0.111114
932 276 0.11109
932 1129 0.111114
932 1272 0.111114
932 1273 0.111114
932 1274 0.111114
932 1275 0.111114
932 1276 0.111114
932 1277 0.111114
933 223 1
934 89 0.2
934 370 0.199999
934 1293 0.2
934 1294 0.2
934 1295 0.2
935 410 0.499987
935 1879 0.500013
936 223 0.0108981
936 262 0.197739
936 1289 0.197841
936 1290 0.197841
936 1291 0.197841
936 1292 0.197841
937 500 0.333333
937 1296 0.333333
937 1297 0.333333
938 221 0.5
938 1298 0.5
939 1300 1
940 1300 0.319176
940 1301 0.340412
940 1302 0.340412
941 326 0.184362
941 391 0.185408
941 632 0.63023
942 632 0.23102
942 1303 0.38449
942 1304 0.38449
943 585 1
944 943 0.333306
944 1305 0.333347
944 1306 0.333347
945 116 0.2
945 419 0.2
945 813 0.2
945 940 0.2
945 1308 0.2
946 4 0.155143
946 81 0.163319
946 1309 0.170384
946 1310 0.170384
946 1311 0.170384
946 1312 0.170384
947 111 0.200685
947 127 0.200686
947 417 0.197258
947 1313 0.200686
947 1314 0.200686
948 81 0.144798
948 402 0.171045
948 502 0.171022
948 1315 0.171045
948 1316 0.171045
948 1317 0.171045
949 217 0.428659
949 799 0.428659
949 1318 0.142682
950 27 0.0627825
950 1318 0.937217
951 27 1
952 233 0.952457
952 457 0.0475434
953 27 0.313766
953 1319 0.343117
953 1320 0.343117
954 175 0.250011
954 223 0.249966
954 681 0.250011
954 1321 0.250011
955 79 0.25
955 1322 0.25
955 1323 0.25
955 1324 0.25
956 81 0.00258245
956 674 0.33233
956 1327 0.000426342
956 1328 0.33233
956 1329 0.33233
957 216 0.333011
957 1326 0.00135812
957 1327 0.332584
957 1330 0.333009
957 1331 3.76485e-05
958 27 0.200168
958 1325 0.200168
958 1326 0.199351
958 1331 0.200145
958 1332 0.200168
959 96 0.164898
959 160 0.167016
959 699 0.167022
959 1333 0.167022
959 1334 0.167022
959 1405 0.167021
960 164 0.166315
960 1335 0.833685
961 18 0.318216
961 164 0.0453528
961 419 0.318216
961 1336 0.318216
962 175 0.5
962 1337 0.5
963 295 0.335231
963 402 0.329538
963 608 0.335231
964 1343 0.553757
964 1344 0.446243
965 399 1
966 281 0.25
966 1338 0.25
966 1339 0.25
966 1340 0.25
967 399 0.159943
967 402 0.335182
967 430 0.168292
967 1341 0.168291
967 1342 0.168292
968 402 1
969 1347 0.5
969 1348 0.5
970 112 0.166669
970 551 0.166669
970 1057 0.166665
970 1349 0.166669
970 1350 0.166659
970 1351 0.166669
971 402 0.21626
971 1350 0.78374
972 402 0.999976
972 1057 2.44288e-05
973 119 0.333333
973 144 0.333333
973 1345 0.333333
974 48 0.25
974 1352 0.25
974 1353 0.25
974 1354 0.25
975 88 0.247896
975 586 0.247896
975 1355 0.247896
975 1356 0.247896
975 1357 0.00841472
976 1357 1
977 709 0.332437
977 1358 0.333782
977 1359 0.333782
978 96 0.974061
978 707 0.000306328
978 1211 0.0256323
979 608 0.200002
979 721 0.199992
979 1360 0.200002
979 1361 0.200002
979 1362 0.200002
980 1367 1
981 1363 0.200005
981 1364 0.200005
981 1365 0.200005
981 1366 0.200005
981 1367 0.199982
982 966 0.249999
982 1368 0.250004
982 1690 0.249998
982 1691 0.249998
983 707 0.999985
983 1367 1.47382e-05
984 707 1
985 1368 0.333328
985 1369 0.333336
985 1370 0.333336
986 515 0.166786
986 1211 0.165881
986 1371 0.166786
986 1372 0.166786
986 1373 0.166786
986 1374 0.166786
986 1375 0.000187334
987 96 0.250086
987 1376 0.249215
987 1377 0.250349
987 1378 0.250349
988 1375 1
989 111 0.199055
989 112 0.199513
989 160 0.00270863
989 721 0.199588
989 1237 0.199558
989 2470 0.199578
990 1375 1
991 1375 1
992 99 0.250021
992 502 0.249986
992 681 0.249993
992 1420 0.25
993 48 0.00130862
993 1070 0.33097
993 1379 0.33363
993 1380 0.33363
993 1902 0.000460903
994 1070 1
995 1703 1
996 1383 1
997 96 0.195961
997 112 0.40202
997 1384 0.20101
997 1385 0.20101
998 1079 1
999 145 0.2
999 1387 0.4
999 2480 0.2
999 2481 0.2
1000 733 0.232828
1000 1388 0.255724
1000 1389 0.255724
1000 1390 0.255724
1001 1391 0.251253
1001 1392 0.251253
1001 1393 0.251253
1001 1394 0.24624
1002 6 0.195057
1002 1394 0.551952
1002 1960 0.252991
1003 553 0.509796
1003 1079 1.07325e-05
1003 1386 0.490194
1004 1395 1
1005 1238 1
1006 233 0.255972
1006 1395 0.232084
1006 1396 0.255972
1006 1397 0.255972
1007 1398 1
1008 36 0.249999
1008 37 0.249999
1008 126 0.249999
1008 877 0.249999
1008 1399 4.47038e-06
1009 149 0.262313
1009 1399 0.262381
1009 1400 0.262386
1009 1401 0.212919
1010 1401 1
1011 109 0.199936
1011 624 0.200016
1011 1402 0.200016
1011 1403 0.200016
1011 1404 0.200016
1012 164 0.244152
1012 1406 0.254277
1012 1407 0.254277
1012 1408 0.247295
1013 160 0.166667
1013 1411 0.166671
1013 1412 0.166671
1013 1413 0.166671
1013 1414 0.16665
1013 1415 0.166671
1014 1416 1
1015 399 0.219453
1015 1333 0.219485
1015 1416 0.122093
1015 1417 0.219485
1015 1418 0.219485
1016 502 0.250469
1016 800 0.250358
1016 2626 0.250358
1016 2630 0.248816
1017 164 0.195761
1017 298 0.215025
1017 318 0.159112
1017 502 0.214932
1017 1419 0.21517
1018 180 0.371512
1018 223 0.256622
1018 471 0.000352445
1018 1613 0.371514
1019 96 0.285525
1019 109 0.142895
1019 265 0.142895
1019 513 0.142895
1019 1421 0.142895
1019 1422 0.142895
1020 4 0.0333333
1020 6 0.0333333
1020 48 0.0333333
1020 96 0.0333333
1020 99 0.0333333
1020 109 0.0333333
1020 145 0.0333333
1020 164 0.0333333
1020 216 0.0333333
1020 239 0.0333333
1020 265 0.0333333
1020 417 0.0333333
1020 502 0.0333333
1020 513 0.0333333
1020 551 0.0333333
1020 601 0.0333333
1020 681 0.0333333
1020 1021 0.0333333
1020 1022 0.0333333
1020 1255 0.0333333
1020 1420 0.0333333
1020 1421 0.0333333
1020 1422 0.0333333
1020 1423 0.0333333
1020 1424 0.0333333
1020 1425 0.0333333
1020 1426 0.0333333
1020 1427 0.0333333
1020 1428 0.0333333
1020 1429 0.0333333
1021 551 0.25
1021 1255 0.25
1021 1423 0.5
1022 1021 0.333221
1022 1424 0.333389
1022 1425 0.33339
1023 1726 1
1024 577 0.25
1024 601 0.25
1024 1022 0.5
1025 48 0.5
1025 1426 0.25
1025 1486 0.25
1026 216 1
1027 145 0.251135
1027 216 0.24659
1027 1427 0.251137
1027 1428 0.251137
1028 6 0.0129932
1028 164 0.987007
1029 109 0.0188939
1029 116 0.164192
1029 417 0.324336
1029 810 0.164192
1029 1430 0.164192
1029 1431 0.164192
1030 239 0.498363
1030 1510 0.501637
1031 46 0.166664
1031 1211 0.166667
1031 1432 0.166667
1031 1433 0.166667
1031 1434 0.166667
1031 1435 0.166667
1032 137 0.199997
1032 502 0.199997
1032 1976 0.200013
1032 2018 0.199997
1032 2019 0.199997
1033 1436 0.5
1033 1437 0.5
1034 1438 1
1035 1438 1
1036 149 0.142939
1036 1439 0.142843
1036 1440 0.142844
1036 1441 0.142844
1036 1442 0.142844
1036 1443 0.142844
1036 1444 0.142844
1037 96 1
1038 96 1
1039 1228 1
1040 303 1
1041 515 0.499943
1041 1228 0.000110774
1041 1445 0.499946
1042 1341 1
1043 1341 1
1044 94 0.25
1044 502 0.25
1044 1448 0.25
1044 1449 0.25
1045 192 0.25
1045 541 0.25
1045 1641 0.25
1045 1642 0.25
1046 1450 1
1047 1450 1
1048 1455 1
1049 239 0.166666
1049 405 0.166667
1049 1451 0.166667
1049 1452 0.166667
1049 1453 0.166667
1049 1454 0.166667
1050 1455 1
1051 86 0.5
1051 1427 0.5
1052 96 0.519436
1052 164 0.0594044
1052 417 0.42116
1053 96 0.000218819
1053 175 0.333253
1053 1456 2.41651e-05
1053 1457 0.333251
1053 1458 0.333253
1054 1459 0.500137
1054 1460 0.499863
1055 6 0.0396409
1055 194 0.446767
1055 1461 0.513592
1056 164 0.258696
1056 194 0.260053
1056 1461 0.221147
1056 1462 0.260104
1057 57 0.741924
1057 1463 0.258076
1058 197 0.200018
1058 236 0.199961
1058 1768 0.200007
1058 2086 0.200007
1058 2087 0.200007
1059 164 1
1060 175 0.142877
1060 1463 0.142734
1060 1464 0.142878
1060 1465 0.142878
1060 1466 0.142877
1060 1467 0.142877
1060 1468 0.142878
1061 35 0.177746
1061 1460 0.822254
1062 236 0.249997
1062 854 0.250001
1062 1469 0.250001
1062 1470 0.250001
1063 81 0.431746
1063 164 0.0301329
1063 1472 0.538101
1063 1473 1.9906e-05
1064 1473 0.998812
1064 1474 0.00118771
1065 1473 0.994752
1065 1474 0.00524818
1066 164 0.0448121
1066 1472 0.955188
1067 46 0.20008
1067 56 0.200084
1067 1474 0.199665
1067 1475 0.200085
1067 1476 0.200085
1068 1471 0.333327
1068 1472 1.34677e-05
1068 1477 0.33333
1068 1478 0.33333
1069 707 0.25
1069 1404 0.25
1069 1479 0.25
1069 1480 0.25
1070 394 1
1071 394 0.295272
1071 1412 0.352364
1071 1481 0.352364
1072 73 0.499861
1072 1482 0.500139
1073 1485 1
1074 216 0.512445
1074 732 0.170815
1074 733 0.316739
1075 96 0.00360384
1075 233 0.249099
1075 613 0.249099
1075 682 0.249099
1075 1483 0.249099
1076 417 0.245683
1076 447 0.251442
1076 1484 0.251442
1076 1485 0.251433
1077 178 0.25
1077 1382 0.25
1077 1487 0.25
1077 1488 0.25
1078 164 1
1079 57 0.253102
1079 112 0.240694
1079 1489 0.253102
1079 1490 0.253102
1080 712 0.25
1080 1491 0.25
1080 1492 0.25
1080 1493 0.25
1081 36 0.200061
1081 418 0.199769
1081 472 0.20006
1081 1494 0.200048
1081 1495 0.200061
1082 410 0.491288
1082 1496 0.508712
1083 1497 1
1084 388 0.249996
1084 585 0.250002
1084 1498 0.250002
1084 1499 0.250001
1085 1376 0.333335
1085 1500 0.333333
1085 1501 0.333332
1086 1502 0.200002
1086 1503 0.200002
1086 1504 0.200002
1086 1505 0.200002
1086 1506 0.199992
1087 233 0.333333
1087 927 0.333333
1087 1286 0.333334
1088 980 0.249999
1088 1507 0.250002
1088 1508 0.250002
1088 1509 0.249997
1089 250 0.250458
1089 288 0.250266
1089 470 0.240599
1089 1377 0.000868327
1089 1511 0.0118375
1089 1512 0.245971
1090 81 0.238797
1090 96 0.00105183
1090 149 0.14802
1090 223 0.00369039
1090 239 0.00072115
1090 288 0.0112147
1090 303 0.0108683
1090 417 0.000232495
1090 418 0.000614848
1090 470 0.320709
1090 980 0.000194636
1090 1494 0.000859612
1090 1506 0.000719327
1090 1509 0.000258158
1090 1510 0.000236307
1090 1511 0.00019193
1090 1512 0.261621
1091 393 0.333347
1091 430 0.333327
1091 1101 0.333326
1092 1529 1
1093 1521 0.335284
1093 1522 0.332358
1093 1523 0.332358
1094 1515 1
1095 640 0.166329
1095 1516 0.166734
1095 1517 0.166734
1095 1518 0.166734
1095 1519 0.166734
1095 1520 0.166734
1096 2752 1
1097 267 0.208006
1097 480 0.167977
1097 759 0.208005
1097 1513 0.208006
1097 1514 0.208006
1098 480 0.954829
1098 1404 0.000122048
1098 1529 0.0450488
1099 626 0.142857
1099 1047 0.142857
1099 1524 0.142857
1099 1525 0.142857
1099 1526 0.142857
1099 1527 0.142857
1099 1528 0.142857
1100 393 0.333273
1100 418 0.333363
1100 1530 0.333364
1101 1599 0.5
1101 1600 0.5
1102 419 0.319225
1102 1531 0.340387
1102 1532 0.340387
1103 502 1
1104 303 0.999722
1104 1535 0.000277811
1105 452 0.500065
1105 934 0.499935
1106 303 0.00480064
1106 1535 0.995199
1107 588 0.499261
1107 1535 0.00147865
1107 1536 0.499261
1108 502 0.0598454
1108 689 0.313385
1108 1533 0.313385
1108 1534 0.313385
1109 759 0.333333
1109 1537 0.333333
1109 1538 0.333333
1110 256 0.333333
1110 1539 0.333333
1110 1540 0.333333
1111 160 0.165471
1111 688 0.166904
1111 1541 0.166906
1111 1542 0.166906
1111 1543 0.166906
1111 1544 0.166906
1112 111 0.325924
1112 1219 0.337038
1112 1548 0.337038
1113 301 0.333333
1113 758 0.333333
1113 1549 0.333333
1114 1301 0.333333
1114 1550 0.333333
1114 1551 0.333333
1115 345 0.25265
1115 1552 0.310579
1115 1553 0.310579
1115 1554 0.126193
1116 1554 0.614448
1116 2479 0.385552
1117 1555 0.333333
1117 1556 0.333333
1117 1557 0.333333
1118 545 0.249972
1118 1558 0.250071
1118 1559 0.249985
1118 1560 0.249972
1119 1404 0.250017
1119 1561 0.250017
1119 1562 0.250017
1119 1563 0.24995
1120 72 0.333383
1120 1558 0.333251
1120 1559 0.333366
1121 430 1
1122 1563 1
1123 345 0.305857
1123 402 0.305857
1123 1521 0.305098
1123 1564 0.0831888
1124 1521 0.00339601
1124 1564 0.996604
1125 1565 1
1126 242 0.2
1126 572 0.199999
1126 1566 0.2
1126 1567 0.2
1126 1568 0.2
1127 1569 1
1128 457 1
1129 1044 0.225334
1129 1244 0.225334
1129 1570 0.225334
1129 1571 0.225334
1129 1572 0.0986649
1130 393 0.275562
1130 1572 0.158947
1130 1582 0.282736
1130 1586 0.282756
1131 4 0.00568559
1131 1574 0.994314
1132 1594 1
1133 1574 0.0317619
1133 1575 0.968238
1134 4 0.000111605
1134 35 0.157087
1134 1573 0.169394
1134 1574 0.16566
1134 1575 0.168959
1134 1576 0.169394
1134 1577 0.169394
1135 23 0.0300887
1135 972 0.969911
1136 23 0.675445
1136 972 0.324555
1137 23 0.159976
1137 972 0.00456009
1137 973 0.167093
1137 1578 0.167093
1137 1579 0.167093
1137 1580 0.167093
1137 1581 0.167093
1138 393 0.997112
1138 1582 0.00288763
1139 112 0.2
1139 1026 0.2
1139 1583 0.2
1139 1584 0.2
1139 1585 0.2
1140 1589 1
1141 265 1
1142 500 0.308176
1142 1590 0.691824
1143 112 0.25027
1143 500 0.249401
1143 1588 0.250269
1143 1589 0.25006
1144 265 0.209924
1144 1587 0.264044
1144 1590 0.261987
1144 1591 0.264044
1145 1592 0.499318
1145 1593 0.499318
1145 1594 0.00136472
1146 1594 0.332714
1146 1595 0.333643
1146 1596 0.333643
1147 1597 1
1148 851 0.5
1148 1598 0.5
1149 1602 1
1150 4 0.119894
1150 109 0.125733
1150 112 0.125711
1150 1608 0.125728
1150 1609 0.125733
1150 1610 0.125733
1150 1611 0.125733
1150 1612 0.125733
1151 23 0.125006
1151 1404 0.125006
1151 1585 0.125006
1151 1602 0.124955
1151 1603 0.125006
1151 1604 0.125006
1151 1605 0.125006
1151 1606 0.125006
1152 10 1
1153 6 0.00973559
1153 10 0.274686
1153 115 0.357789
1153 1614 0.357789
1154 10 1
1155 119 0.25
1155 195 0.25
1155 374 0.25
1155 1615 0.25
1156 817 0.166667
1156 1333 0.166667
1156 1616 0.166667
1156 1617 0.166667
1156 1618 0.166667
1156 1619 0.166667
1157 1920 0.99957
1157 1921 0.00043023
1158 23 0.25
1158 1022 0.25
1158 1620 0.25
1158 1621 0.25
1159 1623 0.333333
1159 1624 0.333333
1159 1625 0.333333
1160 4 0.323183
1160 223 0.338405
1160 1626 0.169206
1160 1627 0.169206
1161 1628 1
1162 23 0.250713
1162 1629 0.250297
1162 1737 0.249051
1162 1738 0.249938
1163 417 0.598451
1163 1631 0.401549
1164 1633 0.217022
1164 1634 0.782978
1165 407 0.14653
1165 417 7.20394e-06
1165 1631 0.120835
1165 1632 0.14653
1165 1633 0.146525
1165 1634 0.146512
1165 1635 0.14653
1165 1636 0.14653
1166 626 0.5
1166 1637 0.5
1167 1738 1
1168 175 0.2
1168 178 0.2
1168 179 0.2
1168 1638 0.2
1168 1639 0.2
1169 634 0.2
1169 1012 0.2
1169 1643 0.2
1169 1644 0.2
1169 1645 0.2
1170 1646 0.999294
1170 1647 0.000705695
1171 48 0.166897
1171 1521 0.166897
1171 1647 0.16688
1171 1648 0.166897
1171 1649 0.166897
1171 1650 0.165533
1172 1650 0.00439246
1172 1651 0.458008
1172 1652 0.537524
1172 1653 7.54997e-05
1173 1651 1
1174 1982 0.24908
1174 1983 0.250307
1174 1984 0.250307
1174 1985 0.250307
1175 4 0.047619
1175 48 0.047619
1175 418 0.047619
1175 517 0.047619
1175 1021 0.047619
1175 1022 0.047619
1175 1521 0.047619
1175 1646 0.047619
1175 1647 0.047619
1175 1648 0.047619
1175 1649 0.047619
1175 1650 0.047619
1175 1651 0.047619
1175 1652 0.047619
1175 1653 0.047619
1175 1654 0.047619
1175 1657 0.047619
1175 1658 0.047619
1175 1659 0.047619
1175 1660 0.047619
1175 1661 0.047619
1176 1021 0.205985
1176 1022 0.205985
1176 1646 0.176079
1176 1652 9.13049e-06
1176 1653 0.205956
1176 1654 0.205985
1177 1655 1
1178 1655 0.0141309
1178 1656 0.985869
1179 1657 1
1180 418 0.149923
1180 517 0.149923
1180 1657 0.100461
1180 1658 0.149923
1180 1659 0.149923
1180 1660 0.149923
1180 1661 0.149923
1181 57 0.195421
1181 236 0.199574
1181 1666 0.00141935
1181 1667 0.00514937
1181 1668 0.199512
1181 1669 0.199512
1181 1670 0.199413
1182 1666 0.827341
1182 1667 0.172659
1183 527 1
1184 1666 0.0039263
1184 1667 0.995431
1184 1670 0.000642485
1185 527 1
1186 27 0.522597
1186 527 0.477403
1187 236 0.199951
1187 1671 0.200011
1187 1672 0.200013
1187 1673 0.200013
1187 1674 0.200013
1188 502 0.2
1188 1662 0.2
1188 1663 0.2
1188 1664 0.2
1188 1665 0.2
1189 851 0.252603
1189 1677 0.747397
1190 1681 0.333333
1190 1682 0.333333
1190 1683 0.333333
1191 223 1
1192 851 0.180781
1192 1678 0.273073
1192 1679 0.273073
1192 1680 0.273073
1193 119 0.262193
1193 223 0.213422
1193 1675 0.262193
1193 1676 0.262193
1194 150 0.200061
1194 471 0.199755
1194 1153 0.200061
1194 1684 0.200061
1194 1685 0.200061
1195 783 0.5
1195 1688 0.5
1196 262 1
1197 12 0.200002
1197 987 0.199995
1197 1695 0.400001
1197 1696 0.200002
1198 35 1
1199 466 0.998588
1199 987 0.00141193
1200 119 0.143367
1200 144 0.143367
1200 466 0.1398
1200 1345 0.143367
1200 1692 0.143367
1200 1693 0.143367
1200 1694 0.143367
1201 130 0.126401
1201 145 0.126401
1201 515 0.115196
1201 707 0.126401
1201 1686 0.126401
1201 1687 0.126401
1201 1697 0.126401
1201 1698 0.126401
1202 1700 1
1203 1701 0.500001
1203 1702 0.499999
1204 630 0.5
1204 1704 0.5
1205 149 0.249998
1205 1706 0.250001
1205 1707 0.250001
1205 1708 0.250001
1206 1709 0.5
1206 1710 0.5
1207 110 0.514676
1207 2159 0.485324
1208 931 0.111116
1208 1101 0.111073
1208 1390 0.111116
1208 1703 0.111115
1208 1714 0.222232
1208 1715 0.111116
1208 1716 0.111116
1208 1718 0.111115
1209 344 0.200443
1209 417 0.19823
1209 583 0.200443
1209 1719 0.200443
1209 1720 0.200443
1210 1722 0.333333
1210 1723 0.333333
1210 1724 0.333333
1211 109 1
1212 96 0.972707
1212 784 0.0272934
1213 144 0.247603
1213 178 0.247603
1213 216 0.247603
1213 733 0.228995
1213 1721 0.0281975
1214 111 1
1215 38 0.5
1215 1727 0.5
1216 148 0.499858
1216 1725 0.500142
1217 504 0.25
1217 1728 0.25
1217 1729 0.25
1217 1730 0.25
1218 111 0.321162
1218 180 0.169721
1218 452 0.169671
1218 1326 0.169722
1218 1731 0.169722
1219 96 0.408886
1219 239 0.147712
1219 1732 0.147801
1219 2580 0.147801
1219 2581 0.147801
1220 23 0.191656
1220 1644 0.201614
1220 1733 0.202243
1220 1734 0.202243
1220 1735 0.202243
1221 81 0.0603452
1221 1644 0.939655
1222 465 0.333002
1222 1051 4.48771e-05
1222 1738 0.00094924
1222 1739 0.333002
1222 1740 0.333002
1223 573 0.33333
1223 1051 0.333313
1223 1741 0.333357
1224 402 0.166572
1224 502 0.166681
1224 712 0.166687
1224 1745 0.166686
1224 1746 0.166687
1224 1747 0.166687
1225 112 1
1226 112 0.235496
1226 402 0.266779
1226 471 4.71247e-05
1226 1744 0.497678
1227 1748 0.238749
1227 1749 0.253754
1227 1750 0.253745
1227 1751 0.253752
1228 119 1
1229 502 0.000584981
1229 1748 0.998871
1229 1750 0.000543679
1230 179 0.25
1230 402 0.25
1230 1742 0.25
1230 1743 0.25
1231 402 0.319654
1231 799 0.340168
1231 1752 0.340178
1232 402 0.00140787
1232 1753 0.332864
1232 1754 0.332864
1232 1755 0.332864
1233 149 0.100768
1233 379 0.227914
1233 471 0.233346
1233 1350 0.204579
1233 2673 0.233393
1234 707 1
1235 1129 0.25
1235 1756 0.25
1235 1757 0.25
1235 1758 0.25
1236 799 1
1237 36 0.022254
1237 261 0.0226948
1237 1761 0.354331
1237 1762 0.60072
1238 160 1
1239 36 0.200111
1239 1759 0.200125
1239 1760 0.200125
1239 1761 0.1999
1239 1762 0.19974
1240 160 0.199975
1240 261 0.199995
1240 345 0.20001
1240 1763 0.20001
1240 1764 0.20001
1241 332 0.227085
1241 1765 0.257638
1241 1766 0.257638
1241 1767 0.257638
1242 6 0.00738199
1242 332 0.761117
1242 674 0.231501
1243 185 0.256074
1243 227 0.256058
1243 1768 0.256103
1243 1769 0.231765
1244 1769 1
1245 707 0.5
1245 1770 0.5
1246 345 1
1247 1773 1
1248 74 1
1249 74 0.120803
1249 353 0.125628
1249 1765 0.125628
1249 1771 0.125627
1249 1772 0.125628
1249 1773 0.125432
1249 1774 0.125628
1249 1775 0.125628
1250 109 0.240178
1250 217 0.253284
1250 2154 0.253269
1250 2155 0.253269
1251 56 0.144856
1251 74 0.130024
1251 111 0.145751
1251 345 0.1421
1251 349 0.145756
1251 1033 0.145756
1251 1779 0.145756
1252 4 0.00599814
1252 35 0.000255127
1252 81 0.00234268
1252 1780 0.991404
1253 1427 0.253765
1253 1780 0.238706
1253 1781 0.253765
1253 1782 0.253765
1254 149 0.16667
1254 180 0.166658
1254 942 0.166658
1254 1783 0.166671
1254 1784 0.166671
1254 1785 0.166671
1255 81 1
1256 180 0.381317
1256 942 0.618683
1257 1786 1
1258 180 0.333331
1258 262 0.333335
1258 1613 0.333335
1259 712 0.25
1259 1787 0.25
1259 1788 0.25
1259 1789 0.25
1260 227 0.207888
1260 332 0.00249242
1260 398 0.215549
1260 674 0.142972
1260 1790 0.215549
1260 1791 0.215549
1261 112 0.333357
1261 1744 0.333281
1261 1793 0.333362
1262 68 0.99249
1262 1794 0.00751002
1263 68 0.240297
1263 1794 0.252329
1263 1795 0.253688
1263 1796 0.253686
1264 402 0.385524
1264 1792 0.409651
1264 1797 0.204826
1265 1798 0.5
1265 1799 0.5
1266 425 0.250019
1266 877 0.249945
1266 1800 0.250019
1266 1805 0.250017
1267 1801 0.25
1267 1802 0.25
1267 1803 0.25
1267 1804 0.25
1268 4 0.233141
1268 35 0.752189
1268 436 0.013474
1268 1806 0.00119554
1269 1807 1
1270 1807 1
1271 216 0.199654
1271 515 0.200086
1271 550 0.200087
1271 1865 0.200087
1271 1866 0.200087
1272 53 0.333283
1272 1810 0.333359
1272 1811 0.333358
1273 53 0.500046
1273 2723 0.499932
1273 2724 2.15834e-05
1274 831 0.250012
1274 1812 0.25002
1274 1813 0.25002
1274 1814 0.249947
1275 402 0.594277
1275 1808 0.202862
1275 1809 0.202861
1276 2352 0.501873
1276 2353 0.498127
1277 1816 0.524454
1277 1817 0.475546
1278 68 0.211536
1278 1819 0.788464
1279 1817 1
1280 1817 0.0444255
1280 1818 0.478019
1280 1819 0.477556
1281 1820 0.5
1281 1821 0.5
1282 23 0.166486
1282 149 0.166703
1282 561 0.166674
1282 2714 0.166712
1282 2715 0.166712
1282 2716 0.166712
1283 417 0.216213
1283 864 0.261262
1283 1815 0.261262
1283 1822 0.261262
1284 48 0.327369
1284 119 0.336315
1284 1823 0.336315
1285 223 1
1286 48 0.336727
1286 223 0.335087
1286 2550 0.328186
1287 417 0.249786
1287 977 0.250071
1287 1824 0.250071
1287 1825 0.250071
1288 170 0.333333
1288 1826 0.333333
1288 1827 0.333333
1289 23 0.341244
1289 1629 0.341244
1289 1738 0.317511
1290 1409 0.166667
1290 1828 0.166667
1290 1829 0.166667
1290 1830 0.166667
1290 1831 0.166667
1290 1832 0.166667
1291 1307 8.43527e-05
1291 1376 0.253445
1291 1500 0.253445
1291 1834 0.253445
1291 1835 0.239582
1292 164 0.50034
1292 290 0.49966
1293 35 0.0148739
1293 1837 0.492563
1293 1838 0.492563
1294 762 0.25
1294 1790 0.25
1294 1840 0.25
1294 1841 0.25
1295 88 0.200015
1295 295 0.199996
1295 1734 0.199997
1295 1842 0.199996
1295 1843 0.199997
1296 164 0.267357
1296 393 0.183514
1296 492 0.183514
1296 1119 0.183514
1296 2752 0.182102
1297 233 0.195909
1297 457 0.401851
1297 866 0.20112
1297 2486 0.20112
1298 1844 0.333333
1298 1845 0.333333
1298 1846 0.333333
1299 457 1
1300 942 1
1301 88 0.333364
1301 1404 0.333318
1301 1847 0.333318
1302 414 0.333423
1302 1848 0.333288
1302 1849 0.333288
1303 116 0.250064
1303 784 0.250061
1303 942 0.249811
1303 1850 0.250064
1304 88 0.333282
1304 1851 0.333359
1304 1852 0.333359
1305 1853 0.5
1305 1854 0.5
1306 138 0.33338
1306 291 0.333377
1306 414 0.333244
1307 1855 1
1308 1856 0.166667
1308 1857 0.166667
1308 1858 0.166667
1308 1859 0.166667
1308 1860 0.166667
1308 1861 0.166665
1309 320 0.25001
1309 321 0.25001
1309 502 0.249969
1309 1863 0.25001
1310 1864 1
1311 500 0.25
1311 1286 0.25
1311 1867 0.25
1311 1868 0.25
1312 112 0.142858
1312 116 0.142851
1312 465 0.142858
1312 613 0.142858
1312 1869 0.142858
1312 1870 0.142858
1312 1871 0.142858
1313 112 0.0891032
1313 1874 0.910897
1314 48 0.125001
1314 410 0.125
1314 1782 0.125001
1314 1875 0.125001
1314 1876 0.125001
1314 1877 0.125001
1314 1878 0.125001
1314 1879 0.124993
1315 10 0.333333
1315 1615 0.333333
1315 1880 0.333333
1316 27 0.162277
1316 236 0.417454
1316 1882 0.420269
1317 73 0.25
1317 109 0.25
1317 1564 0.25
1317 1884 0.25
1318 27 1
1319 27 0.143588
1319 180 0.143381
1319 784 0.139505
1319 878 0.143381
1319 1881 0.143381
1319 1885 0.143381
1319 1886 0.143381
1320 27 1
1321 27 1
1322 86 0.166665
1322 399 0.166667
1322 760 0.166667
1322 1936 0.166667
1322 2661 0.166667
1322 2662 0.166667
1323 27 0.0573764
1323 1888 0.235656
1323 1889 0.235656
1323 1890 0.235656
1323 1891 0.235656
1324 27 1
1325 1409 0.166667
1325 1735 0.166667
1325 1887 0.166667
1325 1892 0.166667
1325 1893 0.166667
1325 1894 0.166667
1326 27 0.279492
1326 44 0.279506
1326 272 0.161495
1326 1888 0.279506
1327 272 0.999964
1327 1896 3.56495e-05
1328 471 1
1329 261 0.166667
1329 851 0.166667
1329 1077 0.166667
1329 1617 0.166667
1329 1900 0.166667
1329 1901 0.166667
1330 1903 1
1331 89 0.333333
1331 154 0.333335
1331 1904 0.333332
1332 464 0.200056
1332 1146 0.200056
1332 1902 0.199777
1332 1918 0.200055
1332 1919 0.200056
1333 1330 0.333333
1333 1909 0.333333
1333 1910 0.333333
1334 1390 1
1335 502 1
1336 332 0.143894
1336 402 0.119691
1336 502 0.160838
1336 1914 0.143894
1336 1915 0.143894
1336 1916 0.143894
1336 1917 0.143894
1337 353 0.333381
1337 1921 0.333238
1337 1922 0.333381
1338 402 0.00402261
1338 515 0.32564
1338 1286 0.335169
1338 1925 0.335169
1339 515 1
1340 17 0.122332
1340 402 0.26601
1340 707 0.122332
1340 849 0.122332
1340 1622 0.122332
1340 1926 0.122332
1340 1927 0.122332
1341 768 0.333333
1341 1402 0.333333
1341 1928 0.333333
1342 353 0.25
1342 1012 0.25
1342 1929 0.25
1342 1930 0.25
1343 10 0.249794
1343 11 0.249796
1343 48 0.25059
1343 1936 0.24982
1344 217 0.166658
1344 1880 0.166668
1344 1932 0.166668
1344 1933 0.166668
1344 1934 0.166668
1344 1935 0.166668
1345 1116 0.333333
1345 1937 0.333333
1345 1938 0.333333
1346 27 0.25
1346 116 0.25
1346 1940 0.25
1346 1941 0.25
1347 160 0.993849
1347 326 0.00615076
1348 272 0.233747
1348 674 0.233778
1348 1944 0.233778
1348 1945 0.233778
1348 1946 0.0649172
1349 272 0.000165611
1349 419 0.0897895
1349 1946 0.910045
1350 23 0.168668
1350 388 0.168679
1350 419 0.156648
1350 581 0.168668
1350 1431 0.168668
1350 1947 0.168668
1351 1948 1
1352 183 0.999517
1352 1948 0.000482699
1353 388 0.168396
1353 1553 0.168408
1353 1948 0.157972
1353 1949 0.168408
1353 1950 0.168408
1353 1951 0.168408
1354 110 0.0517923
1354 1952 0.474104
1354 1953 0.237052
1354 1954 0.237052
1355 57 0.332423
1355 527 0.333788
1355 1670 0.333788
1356 27 1
1357 100 0.125
1357 126 0.125
1357 216 0.125
1357 1521 0.125
1357 1932 0.125
1357 1956 0.125
1357 1957 0.125
1357 1958 0.125
1358 54 0.250573
1358 1684 0.250573
1358 1959 0.250573
1358 1960 0.248281
1359 219 0.205301
1359 1961 0.198255
1359 1962 0.205301
1359 1963 0.205247
1359 1964 0.185897
1360 1961 0.265852
1360 1963 0.00200915
1360 1964 0.732139
1361 1972 0.200003
1361 1973 0.200003
1361 1974 0.200003
1361 1975 0.200003
1361 1976 0.199987
1362 35 1
1363 111 1
1364 111 0.2
1364 160 0.2
1364 515 0.2
1364 1968 0.2
1364 1969 0.2
1365 109 0.166816
1365 111 0.165455
1365 1370 0.166932
1365 1555 0.166932
1365 1970 0.166932
1365 1971 0.166932
1366 1977 1
1367 111 1
1368 851 0.200008
1368 1978 0.199968
1368 1979 0.200008
1368 1980 0.200008
1368 1981 0.200008
1369 148 0.333334
1369 966 0.333333
1369 1725 0.333333
1370 1977 0.955853
1370 1978 0.0441468
1371 1965 0.333334
1371 1966 0.333334
1371 1967 0.333333
1372 1982 1
1373 111 0.248128
1373 414 0.255615
1373 1987 0.248129
1373 1988 0.248129
1374 1244 0.25
1374 1553 0.25
1374 1989 0.25
1374 1990 0.25
1375 414 0.999968
1375 553 3.18873e-05
1376 1991 0.2
1376 1992 0.2
1376 1993 0.2
1376 1994 0.2
1376 1995 0.2
1377 144 0.910274
1377 1113 0.089726
1378 1648 0.169159
1378 1999 0.830841
1379 1113 1
1380 1113 0.189418
1380 1648 0.270206
1380 1998 0.270219
1380 1999 0.270157
1381 144 1
1382 111 0.249972
1382 112 0.250009
1382 356 0.250009
1382 1721 0.250009
1383 144 0.0152658
1383 1723 0.246184
1383 1996 0.246184
1383 1997 0.246184
1383 2000 0.246184
1384 96 0.494114
1384 2001 0.505886
1385 2002 1
1386 2002 0.140607
1386 2003 0.859393
1387 2013 0.5
1387 2014 0.5
1388 2008 0.999529
1388 2009 0.000470741
1389 175 0.33236
1389 1529 0.33293
1389 1815 0.332309
1389 2009 0.00240167
1390 83 0.166667
1390 261 0.333333
1390 291 0.166667
1390 2015 0.166667
1390 2016 0.166667
1391 1129 0.500965
1391 2008 0.00191888
1391 2009 0.497117
1392 175 0.142877
1392 1529 0.142631
1392 2004 0.142898
1392 2005 0.142899
1392 2006 0.142899
1392 2007 0.142898
1392 2017 0.142898
1393 414 0.12525
1393 550 0.291588
1393 553 0.291574
1393 2020 0.291588
1394 239 0.142989
1394 939 0.142997
1394 945 0.142997
1394 1585 0.142997
1394 2021 0.142997
1394 2022 0.142027
1394 2023 0.142997
1395 149 1
1396 2022 1
1397 60 1
1398 60 1.17487e-05
1398 1341 0.199998
1398 2024 0.199998
1398 2025 0.199998
1398 2026 0.199998
1398 2027 0.199998
1399 291 1
1400 291 0.117149
1400 743 0.17657
1400 1617 0.17657
1400 2028 0.17657
1400 2029 0.17657
1400 2030 0.17657
1401 261 1
1402 386 0.142857
1402 515 0.142857
1402 2031 0.142857
1402 2032 0.142857
1402 2033 0.142857
1402 2035 0.142857
1402 2036 0.142857
1403 18 0.250882
1403 712 0.245997
1403 1533 0.25156
1403 1534 0.251562
1404 147 0.5
1404 1976 0.5
1405 1585 0.2
1405 1932 0.2
1405 2039 0.2
1405 2040 0.2
1405 2041 0.2
1406 2042 1
1407 301 0.166666
1407 551 0.166666
1407 758 0.166666
1407 1404 3.76506e-06
1407 2048 0.166665
1407 2049 0.166666
1407 2050 0.166666
1408 1404 0.498489
1408 2043 0.498498
1408 2044 0.00301292
1409 509 0.248016
1409 2044 0.249649
1409 2045 0.251167
1409 2046 0.251167
1410 6 0.250981
1410 109 0.249544
1410 111 0.249931
1410 2047 0.249544
1411 509 1
1412 553 0.25
1412 2051 0.25
1412 2052 0.25
1412 2053 0.25
1413 6 0.846932
1413 471 0.153068
1414 471 0.00104839
1414 567 0.998952
1415 112 0.333333
1415 2054 0.333333
1415 2055 0.333333
1416 96 0.199842
1416 1707 0.200039
1416 2056 0.200039
1416 2057 0.200039
1416 2058 0.200039
1417 73 0.142857
1417 112 0.142857
1417 216 0.142857
1417 877 0.142857
1417 2069 0.142857
1417 2070 0.142857
1417 2071 0.142857
1418 2060 1
1419 2065 1
1420 2060 1
1421 2061 0.25
1421 2062 0.25
1421 2063 0.25
1421 2064 0.25
1422 470 0.177338
1422 515 0.177627
1422 2065 0.164737
1422 2066 0.177338
1422 2067 0.177338
1422 2068 0.125621
1423 2060 0.00229245
1423 2065 0.997708
1424 2065 1
1425 2068 1
1426 465 0.142857
1426 484 0.142857
1426 1244 0.142857
1426 2072 0.142856
1426 2073 0.142857
1426 2074 0.142857
1426 2075 0.142857
1427 96 0.0100666
1427 119 0.247483
1427 231 0.247483
1427 705 0.247483
1427 2059 0.247483
1428 154 0.252524
1428 164 0.242514
1428 502 0.252439
1428 2076 0.252523
1429 74 0.333333
1429 2077 0.333333
1429 2078 0.333333
1430 68 1
1431 233 0.333343
1431 471 0.333313
1431 2079 0.333343
1432 6 0.318479
1432 588 0.340761
1432 2080 0.340761
1433 112 0.25007
1433 393 0.24979
1433 2081 0.25007
1433 2082 0.25007
1434 864 1
1435 6 0.970008
1435 1880 0.0299915
1436 10 2.08285e-05
1436 96 0.164802
1436 1880 0.167034
1436 1932 0.167036
1436 2083 0.167036
1436 2084 0.167036
1436 2085 0.167036
1437 10 1
1438 348 1
1439 236 1
1440 150 0.124916
1440 348 0.12492
1440 1587 0.125027
1440 1623 0.125027
1440 2033 0.125027
1440 2088 0.125027
1440 2089 0.125027
1440 2090 0.125027
1441 225 0.0530775
1441 652 0.315641
1441 2091 0.315641
1441 2092 0.315641
1442 225 0.221153
1442 353 0.778847
1443 2093 0.25
1443 2094 0.25
1443 2095 0.25
1443 2096 0.25
1444 2111 0.5
1444 2112 0.5
1445 2097 0.500176
1445 2098 0.499824
1446 6 0.0122575
1446 12 0.521367
1446 96 0.00815426
1446 225 0.0588186
1446 2098 0.399402
1447 12 1
1448 2110 1
1449 2099 0.249999
1449 2100 0.25
1449 2101 0.25
1449 2102 0.25
1450 96 0.00275442
1450 236 0.166228
1450 707 0.166109
1450 2103 0.166228
1450 2104 0.166227
1450 2105 0.166226
1450 2106 0.166228
1451 2107 1
1452 12 0.499306
1452 178 0.000209203
1452 2108 0.499354
1452 2109 0.00113019
1453 417 0.411303
1453 2241 0.559945
1453 2242 0.0287522
1454 149 0.344061
1454 1101 0.311835
1454 2113 0.344104
1455 1101 0.922777
1455 1416 0.0772229
1456 175 0.2
1456 340 0.2
1456 947 0.2
1456 2114 0.2
1456 2115 0.2
1457 743 0.5
1457 1920 0.5
1458 2116 0.5
1458 2117 0.5
1459 83 0.24619
1459 1359 0.25127
1459 2118 0.25127
1459 2119 0.25127
1460 344 0.329801
1460 2120 0.335099
1460 2121 0.335099
1461 344 1
1462 548 0.5
1462 2122 0.5
1463 1553 0.25
1463 2123 0.25
1463 2124 0.25
1463 2125 0.25
1464 68 0.999196
1464 417 0.000804197
1465 2126 0.5
1465 2127 0.5
1466 57 0.199978
1466 307 0.199979
1466 353 0.200085
1466 472 0.199979
1466 2128 0.199979
1467 2129 1
1468 353 0.249898
1468 1275 0.250034
1468 2130 0.250034
1468 2131 0.250034
1469 1768 1
1470 2132 0.33334
1470 2133 0.33334
1470 2134 0.33332
1471 2134 0.0123446
1471 2135 0.987655
1472 2135 1
1473 2135 0.24858
1473 2136 0.250473
1473 2137 0.250473
1473 2138 0.250473
1474 515 0.499592
1474 2139 0.500408
1475 2140 1
1476 234 0.125
1476 957 0.125
1476 1412 0.125
1476 2141 0.25
1476 2142 0.125
1476 2143 0.125
1476 2144 0.125
1477 81 0.719719
1477 2145 0.197421
1477 2146 0.0176433
1477 2147 0.0652171
1478 2146 0.500007
1478 2147 0.499993
1479 419 0.2
1479 492 0.2
1479 1977 0.2
1479 2152 0.2
1479 2153 0.2
1480 109 0.221404
1480 223 0.0557512
1480 262 0.0121719
1480 2157 0.246769
1480 2159 0.463904
1481 301 0.250485
1481 1291 0.250485
1481 2157 0.248545
1481 2158 0.250485
1482 393 0.16639
1482 610 0.166722
1482 1555 0.166722
1482 2149 0.166722
1482 2150 0.166722
1482 2151 0.166722
1483 667 0.499998
1483 2160 0.500002
1484 2163 1
1485 1412 1
1486 48 0.166706
1486 56 0.166696
1486 1127 0.166702
1486 2594 0.166699
1486 2595 0.166706
1486 2596 0.166491
1487 502 0.997708
1487 2167 0.00229177
1488 502 0.125358
1488 1422 0.12631
1488 2163 0.116784
1488 2164 0.12631
1488 2165 0.12631
1488 2166 0.12631
1488 2167 0.126308
1488 2168 0.12631
1489 674 0.166821
1489 1412 0.165895
1489 2161 0.166821
1489 2162 0.166821
1489 2169 0.166821
1489 2170 0.166821
1490 149 0.244978
1490 613 0.2516
1490 2172 2.61811e-06
1490 2173 0.25171
1490 2174 0.25171
1491 149 0.025899
1491 399 0.00159008
1491 809 0.972511
1492 153 0.333515
1492 399 0.33297
1492 2175 0.333515
1493 417 0.496523
1493 1936 0.503477
1494 417 9.53931e-05
1494 603 0.999905
1495 417 0.269556
1495 603 0.187076
1495 2176 0.271684
1495 2177 0.271684
1496 2178 1
1497 477 0.252257
1497 2178 0.24323
1497 2179 0.252257
1497 2180 0.252257
1498 272 0.2
1498 1502 0.2
1498 1929 0.2
1498 2181 0.2
1498 2182 0.2
1499 2183 1
1500 148 0.252407
1500 1725 0.252407
1500 2183 0.242779
1500 2184 0.252407
1501 966 1
1502 966 0.233981
1502 1298 0.25534
1502 1595 0.25534
1502 2185 0.25534
1503 109 0.247454
1503 111 0.269358
1503 245 3.54462e-06
1503 2188 0.241593
1503 2189 0.241593
1504 809 0.333333
1504 2190 0.333333
1504 2191 0.333333
1505 512 0.333333
1505 2192 0.333333
1505 2193 0.333333
1506 149 1
1507 27 0.333331
1507 861 0.333335
1507 2194 0.333335
1508 12 0.5
1508 2195 0.5
1509 245 0.500747
1509 2196 0.499253
1510 160 0.598853
1510 298 0.400694
1510 399 2.51455e-06
1510 2196 0.000450421
1511 160 0.00212442
1511 1412 0.249475
1511 2427 0.249466
1511 2428 0.249466
1511 2429 0.249469
1512 111 0.200085
1512 160 0.000590214
1512 399 0.399653
1512 1079 0.199836
1512 1502 0.199836
1513 2204 1
1514 985 0.333334
1514 2201 0.333333
1514 2202 0.333333
1515 261 0.196074
1515 2197 0.200981
1515 2198 0.200981
1515 2199 0.200981
1515 2200 0.200981
1516 321 0.5
1516 1327 0.5
1517 1862 0.499999
1517 2205 0.500001
1518 452 0.333334
1518 2206 0.333333
1518 2207 0.333333
1519 150 0.333333
1519 2217 0.333333
1519 2218 0.333333
1520 2208 1
1521 57 0.199968
1521 236 0.200008
1521 1411 0.200008
1521 2209 0.200008
1521 2210 0.200008
1522 2211 0.25
1522 2212 0.25
1522 2213 0.25
1522 2214 0.25
1523 353 0.570595
1523 417 0.429405
1524 145 0.166667
1524 539 0.166667
1524 934 0.166667
1524 1513 0.166667
1524 2215 0.166667
1524 2216 0.166667
1525 239 1
1526 119 0.332789
1526 195 0.332789
1526 2221 0.00163186
1526 2222 0.332789
1527 623 0.231885
1527 2220 0.384893
1527 2221 0.383222
1528 4 0.979839
1528 2220 0.0194265
1528 2590 0.000734537
1529 79 0.165913
1529 116 0.0045198
1529 175 0.165913
1529 353 0.165913
1529 2219 0.165913
1529 2223 0.165913
1529 2224 0.165913
1530 638 0.249911
1530 975 0.25003
1530 1828 0.25003
1530 2225 0.25003
1531 1301 0.499846
1531 2227 0.500154
1532 608 0.184212
1532 1623 0.203978
1532 2226 0.203978
1532 2227 0.203853
1532 2228 0.203978
1533 2294 1
1534 116 0.333203
1534 628 0.333554
1534 2233 0.333243
1535 880 0.333333
1535 2234 0.333333
1535 2235 0.333333
1536 417 0.000681932
1536 2236 0.166795
1536 2237 0.166795
1536 2238 0.166795
1536 2239 0.166795
1536 2240 0.166795
1536 2241 0.165345
1537 342 0.200018
1537 1127 0.200017
1537 1402 0.200018
1537 2242 0.199929
1537 2243 0.200018
1538 88 0.333524
1538 2246 0.333238
1538 2247 0.333238
1539 393 0.332735
1539 2244 0.333632
1539 2245 0.333632
1540 2248 1
1541 2248 1
1542 2248 1
1543 2248 1
1544 239 0.249982
1544 2256 0.250006
1544 2257 0.250006
1544 2258 0.250006
1545 2249 0.25
1545 2250 0.25
1545 2254 0.25
1545 2255 0.25
1546 88 0.124919
1546 96 0.124924
1546 809 0.125026
1546 1743 0.125026
1546 2117 0.125026
1546 2251 0.125026
1546 2252 0.125026
1546 2253 0.125026
1547 758 1
1548 456 0.15245
1548 759 0.152449
1548 1618 0.15245
1548 2259 0.15245
1548 2260 0.15245
1548 2261 0.15245
1548 2262 0.0853003
1549 39 0.124974
1549 116 0.250008
1549 2268 0.125004
1549 2269 0.125004
1549 2270 0.125004
1549 2271 0.125004
1549 2272 0.125004
1550 39 5.98217e-05
1550 2267 0.99994
1551 39 0.000751263
1551 2267 0.999249
1552 2267 1
1553 2267 1
1554 175 0.25
1554 2045 0.25
1554 2265 0.25
1554 2266 0.25
1555 399 0.333333
1555 2273 0.333333
1555 2274 0.333333
1556 149 0.142842
1556 402 0.14286
1556 2263 0.14286
1556 2264 0.14286
1556 2275 0.14286
1556 2276 0.14286
1556 2277 0.14286
1557 96 1
1558 96 0.257278
1558 111 0.108451
1558 470 0.133301
1558 1044 0.232595
1558 2283 0.134187
1558 2284 0.134187
1559 96 0.00498704
1559 111 0.96257
1559 470 0.0324429
1560 1044 1
1561 2285 0.5
1561 2286 0.5
1562 94 0.2
1562 1210 0.2
1562 2262 0.2
1562 2281 0.199999
1562 2282 0.2
1563 2278 0.333333
1563 2279 0.333333
1563 2280 0.333333
1564 4 0.326241
1564 2287 0.33688
1564 2288 0.33688
1565 94 9.53685e-06
1565 281 0.33333
1565 2289 0.33333
1565 2290 0.33333
1566 94 0.395009
1566 294 0.201745
1566 419 0.201689
1566 628 0.201557
1567 345 0.333333
1567 1893 0.333333
1567 2291 0.333333
1568 2295 0.94788
1568 2296 0.0521196
1569 2295 0.0205078
1569 2296 0.476481
1569 2297 0.503011
1570 109 1
1571 2299 1
1572 62 0.166667
1572 614 0.166667
1572 2292 0.166667
1572 2293 0.166667
1572 2300 0.166667
1572 2301 0.166667
1573 35 3.43398e-06
1573 94 0.199976
1573 2302 0.200012
1573 2303 0.200012
1573 2304 0.199985
1573 2305 0.200012
1574 35 0.999369
1574 2304 0.000631374
1575 4 0.351924
1575 17 1.22009e-05
1575 233 0.592171
1575 399 0.0550304
1575 492 8.33115e-06
1575 2549 0.000853768
1576 233 1
1577 96 0.166125
1577 492 0.166773
1577 610 0.166775
1577 626 0.166775
1577 931 0.166775
1577 2306 0.166775
1578 417 0.0508405
1578 2309 0.316386
1578 2310 0.316387
1578 2311 0.316386
1579 502 0.999984
1579 613 1.62812e-05
1580 55 0.248373
1580 215 0.248373
1580 399 0.00650936
1580 2312 0.248372
1580 2313 0.248373
1581 96 0.248057
1581 149 0.250641
1581 2314 0.250651
1581 2315 0.250651
1582 546 0.25
1582 1026 0.25
1582 2317 0.25
1582 2318 0.25
1583 2319 1
1584 2319 0.264242
1584 2320 0.735758
1585 340 0.2
1585 1855 0.2
1585 2017 0.2
1585 2321 0.2
1585 2322 0.2
1586 116 0.5
1586 2323 0.5
1587 88 0.25
1587 2324 0.25
1587 2325 0.25
1587 2326 0.25
1588 2316 1
1589 2316 1
1590 2327 0.5
1590 2328 0.5
1591 145 0.25005
1591 397 0.250073
1591 2700 0.249803
1591 2701 0.250073
1592 1144 0.333333
1592 2329 0.333333
1592 2330 0.333333
1593 1136 1
1594 1136 1
1595 319 0.125
1595 406 0.124999
1595 605 0.125
1595 2331 0.125
1595 2332 0.125
1595 2333 0.125
1595 2334 0.125
1595 2335 0.125
1596 216 4.96673e-05
1596 851 0.250644
1596 2336 0.250631
1596 2337 0.250644
1596 2338 0.248031
1597 4 0.0102929
1597 112 0.0507257
1597 147 0.0120442
1597 2339 0.923135
1597 2340 0.0038026
1598 4 2.52744e-05
1598 2342 0.00739809
1598 2343 0.992577
1599 147 1
1600 147 0.0329412
1600 148 0.161569
1600 585 0.161569
1600 1521 0.160146
1600 2340 0.160903
1600 2341 0.161569
1600 2342 0.160371
1600 2343 0.000933476
1601 112 0.251297
1601 1026 0.246107
1601 2346 0.251298
1601 2347 0.251298
1602 6 0.12284
1602 2348 0.293915
1602 2349 0.583245
1603 86 0.882497
1603 2353 0.117503
1604 2356 0.5
1604 2357 0.5
1605 86 0.229667
1605 96 0.255721
1605 2354 0.257306
1605 2355 0.257306
1606 137 0.330733
1606 180 0.330733
1606 2349 0.00780107
1606 2358 0.330733
1607 375 0.249913
1607 1179 0.249913
1607 1425 0.249913
1607 2349 6.56538e-05
1607 2351 0.249913
1607 2352 0.000282236
1608 2366 1
1609 233 0.231613
1609 1239 0.231613
1609 2366 0.0735491
1609 2367 0.231613
1609 2368 0.231611
1610 2366 1
1611 48 0.250549
1611 402 0.498901
1611 2365 0.250549
1612 93 1
1613 2369 0.333333
1613 2370 0.333333
1613 2371 0.333333
1614 93 1
1615 2361 1
1616 515 0.0126122
1616 966 0.196794
1616 1790 0.196794
1616 2361 0.00341848
1616 2362 0.196794
1616 2363 0.196794
1616 2364 0.196794
1617 515 0.200175
1617 851 0.199956
1617 2327 0.199956
1617 2359 0.199956
1617 2360 0.199956
1618 515 0.25
1618 2372 0.25
1618 2373 0.25
1618 2374 0.25
1619 402 0.333231
1619 465 0.166692
1619 677 0.166692
1619 2375 0.166692
1619 2376 0.166692
1620 414 0.25
1620 1890 0.25
1620 2377 0.25
1620 2378 0.25
1621 457 0.12872
1621 515 0.227663
1621 943 0.12871
1621 1407 0.128727
1621 2379 0.128727
1621 2380 0.128727
1621 2381 0.128727
1622 515 0.947409
1622 585 0.0525409
1622 2382 4.9818e-05
1623 1129 1
1624 160 0.142944
1624 515 0.142322
1624 1536 0.142947
1624 2281 0.142947
1624 2382 0.142945
1624 2383 0.142947
1624 2384 0.142947
1625 640 1
1626 316 0.25
1626 345 0.25
1626 2385 0.25
1626 2386 0.25
1627 399 1.234e-05
1627 1035 0.333329
1627 1896 0.333329
1627 2382 0.333329
1628 86 0.2
1628 577 0.2
1628 1936 0.2
1628 2276 0.2
1628 2277 0.2
1629 81 0.0978975
1629 2387 0.451051
1629 2388 0.451051
1630 160 2.85398e-05
1630 2389 0.999971
1631 160 0.999907
1631 2389 9.30046e-05
1632 2390 0.333333
1632 2391 0.333333
1632 2392 0.333333
1633 1404 0.202747
1633 2393 0.189012
1633 2394 0.202747
1633 2395 0.202747
1633 2396 0.202747
1634 116 0.249827
1634 624 0.250058
1634 1625 0.250058
1634 2397 0.250058
1635 27 0.25
1635 117 0.25
1635 2398 0.25
1635 2399 0.25
1636 383 0.2
1636 1116 0.2
1636 2400 0.2
1636 2401 0.2
1636 2402 0.2
1637 6 0.902765
1637 2400 0.0542966
1637 2403 0.0429389
1638 383 0.20063
1638 1116 0.20063
1638 2400 0.197481
1638 2401 0.20063
1638 2404 0.20063
1639 502 0.125
1639 515 0.125
1639 609 0.125
1639 1707 0.125
1639 2063 0.125
1639 2406 0.125
1639 2407 0.125
1639 2408 0.125
1640 164 1
1641 81 1
1642 2409 1
1643 399 0.249992
1643 2084 0.249992
1643 2409 3.29722e-05
1643 2410 0.249992
1643 2411 0.249992
1644 393 0.142857
1644 632 0.142857
1644 877 0.142857
1644 900 0.142857
1644 947 0.142857
1644 2405 0.142857
1644 2412 0.142857
1645 149 0.43013
1645 236 0.56987
1646 149 0.286707
1646 535 0.237765
1646 2190 0.237765
1646 2424 0.237763
1647 150 0.333333
1647 2425 0.333333
1647 2426 0.333333
1648 2423 0.995021
1648 2424 0.00497892
1649 2420 0.250126
1649 2421 0.250126
1649 2422 0.250126
1649 2423 0.249621
1650 27 0.142388
1650 236 0.143516
1650 446 0.14282
1650 448 0.142819
1650 645 0.142819
1650 2556 0.14282
1650 2564 0.142818
1651 160 0.500445
1651 2430 0.499555
1652 216 0.249564
1652 546 0.249564
1652 2430 0.00174368
1652 2431 0.249564
1652 2432 0.249564
1653 120 0.252856
1653 2433 0.252869
1653 2434 0.252869
1653 2435 0.241406
1654 2435 1
1655 2436 0.5
1655 2437 0.5
1656 424 0.25
1656 573 0.25
1656 2438 0.25
1656 2439 0.25
1657 74 0.969965
1657 2440 0.0300352
1658 574 0.250458
1658 1179 0.250458
1658 2440 0.248626
1658 2441 0.250458
1659 233 0.346627
1659 588 0.326687
1659 2442 0.326687
1660 155 0.142857
1660 1707 0.142857
1660 1793 0.142857
1660 2443 0.142857
1660 2444 0.142857
1660 2445 0.142857
1660 2446 0.142857
1661 116 0.333295
1661 502 0.000121715
1661 613 0.333289
1661 2447 0.333295
1662 309 0.166667
1662 465 0.166667
1662 2448 0.166667
1662 2449 0.166667
1662 2450 0.166667
1662 2451 0.166667
1663 233 0.319488
1663 2452 0.340256
1663 2453 0.340256
1664 155 0.333333
1664 2455 0.333333
1664 2456 0.333333
1665 620 1
1666 62 0.061633
1666 705 0.242393
1666 902 0.242393
1666 943 0.211189
1666 1849 0.242393
1667 62 1
1668 2457 1
1669 197 1
1670 73 1
1671 2454 1
1672 73 7.98359e-05
1672 2458 0.199983
1672 2459 0.199984
1672 2460 0.199984
1672 2461 0.199984
1672 2462 0.199984
1673 6 9.32301e-05
1673 245 0.333267
1673 417 8.74658e-05
1673 2463 0.333276
1673 2464 0.333276
1674 175 0.111112
1674 197 0.111107
1674 573 0.111112
1674 707 0.111106
1674 2483 0.111112
1674 2487 0.111112
1674 2488 0.111112
1674 2489 0.111112
1674 2490 0.111112
1675 1057 0.333323
1675 1402 3.00217e-05
1675 1409 0.333323
1675 2471 0.333323
1676 1402 1
1677 1402 1
1678 79 0.166667
1678 398 0.166666
1678 947 0.166667
1678 2472 0.166667
1678 2473 0.166667
1678 2474 0.166667
1679 2373 1
1680 2373 1.80642e-05
1680 2475 0.999982
1681 2475 1
1682 160 0.249632
1682 2476 0.250123
1682 2477 0.250123
1682 2478 0.250123
1683 74 0.200011
1683 345 0.199957
1683 2438 0.200011
1683 2484 0.200011
1683 2485 0.200011
1684 1414 1
1685 707 1
1686 175 0.20002
1686 573 0.20002
1686 1012 0.199918
1686 2482 0.20002
1686 2483 0.20002
1687 1012 1
1688 465 1
1689 160 0.000667767
1689 2429 0.999332
1690 2465 0.199999
1690 2466 0.2
1690 2467 0.2
1690 2468 0.2
1690 2469 0.2
1691 1037 1
1692 160 0.166619
1692 1012 0.166676
1692 1855 0.166676
1692 2493 0.166676
1692 2494 0.166676
1692 2495 0.166676
1693 472 0.166667
1693 695 0.166667
1693 1192 0.166667
1693 2491 0.166667
1693 2492 0.166667
1693 2496 0.166667
1694 27 1
1695 27 0.12499
1695 240 0.125003
1695 527 0.125003
1695 739 0.125003
1695 1593 0.125003
1695 2296 0.125003
1695 2497 0.124991
1695 2498 0.125003
1696 57 0.00558498
1696 419 0.805227
1696 2500 0.189188
1697 39 0.261896
1697 1502 0.261896
1697 2500 0.214311
1697 2501 0.261896
1698 902 0.333333
1698 2502 0.333333
1698 2503 0.333333
1699 2332 0.249194
1699 2505 0.250266
1699 2506 0.25027
1699 2507 0.25027
1700 2332 0.0268433
1700 2508 0.973157
1701 2332 0.937669
1701 2505 0.0623305
1702 86 0.200414
1702 233 0.200406
1702 1677 0.198351
1702 2509 0.200414
1702 2510 0.200414
1703 2511 0.333403
1703 2512 0.333403
1703 2513 0.333194
1704 6 0.00324543
1704 231 0.100922
1704 2364 0.447776
1704 2450 0.447776
1704 2513 0.000279967
1705 231 1
1706 231 0.978901
1706 2514 0.0210993
1707 480 0.334946
1707 2514 0.330098
1707 2515 0.334956
1708 2519 1
1709 103 0.200009
1709 160 0.199962
1709 1037 0.200009
1709 2520 0.200009
1709 2521 0.200009
1710 2522 1
1711 345 0.111109
1711 393 0.222223
1711 538 0.111112
1711 1412 0.111107
1711 1617 0.222225
1711 2523 0.111112
1711 2524 0.111112
1712 502 0.333334
1712 689 0.333333
1712 2516 0.333334
1713 2530 0.490204
1713 2531 0.509796
1714 2525 1
1715 183 0.252479
1715 2526 0.18688
1715 2527 0.18688
1715 2528 0.18688
1715 2529 0.18688
1716 2530 1
1717 410 0.125
1717 430 0.125
1717 610 0.125
1717 966 0.125
1717 1716 0.125
1717 2403 0.125
1717 2534 0.125
1717 2535 0.125
1718 276 0.33332
1718 2537 0.33334
1718 2538 0.33334
1719 6 0.258414
1719 1773 0.26586
1719 1932 0.26586
1719 2539 0.209866
1720 276 0.000290206
1720 2539 0.99971
1721 2540 0.333207
1721 2541 0.333396
1721 2542 0.333396
1722 160 1
1723 419 0.999431
1723 2540 0.000569039
1724 48 0.989022
1724 2545 0.0109779
1725 48 0.234125
1725 149 0.235608
1725 388 0.0590361
1725 746 0.235617
1725 2545 0.235614
1726 2544 1
1727 12 0.2
1727 94 0.2
1727 233 0.2
1727 588 0.2
1727 2546 0.2
1728 465 0.2
1728 2362 0.2
1728 2543 0.2
1728 2547 0.2
1728 2548 0.2
1729 1328 1
1730 216 0.25567
1730 399 0.233792
1730 1327 0.255671
1730 1328 0.254867
1731 205 0.166704
1731 465 0.166704
1731 1524 0.166704
1731 2549 0.166482
1731 2551 0.166704
1731 2552 0.166704
1732 35 0.321004
1732 326 0.339152
1732 457 0.000622084
1732 2553 0.339221
1733 457 0.332768
1733 2448 0.333616
1733 2554 0.333616
1734 236 0.330926
1734 586 0.334537
1734 2579 0.334537
1735 81 0.326615
1735 111 0.168303
1735 160 0.168359
1735 430 0.336723
1736 1016 0.333333
1736 1447 0.333333
1736 1825 0.333333
1737 2555 1
1738 298 0.25
1738 2561 0.25
1738 2562 0.25
1738 2563 0.25
1739 1404 1
1740 11 0.20129
1740 294 0.20129
1740 402 0.201244
1740 700 0.20129
1740 1084 0.194886
1741 1084 0.293497
1741 2565 0.706503
1742 207 0.249757
1742 585 0.750243
1743 86 0.203161
1743 207 0.202715
1743 2565 0.187665
1743 2566 0.20323
1743 2567 0.20323
1744 2568 1
1745 119 0.159897
1745 2568 0.840103
1746 721 0.25
1746 2569 0.25
1746 2570 0.25
1746 2571 0.25
1747 119 0.288034
1747 2568 0.000983574
1747 2572 0.355491
1747 2573 0.355491
1748 456 0.250014
1748 1376 0.249959
1748 2574 0.250014
1748 2575 0.250014
1749 27 0.143841
1749 261 0.14505
1749 393 0.27596
1749 2576 0.14505
1749 2577 0.14505
1749 2578 0.14505
1750 206 0.252531
1750 1390 0.252531
1750 2582 0.252531
1750 2583 0.242408
1751 2583 1
1752 116 0.200864
1752 265 0.199784
1752 272 0.199784
1752 2584 0.199784
1752 2585 0.199783
1753 12 0.166817
1753 86 0.166817
1753 116 0.165914
1753 1402 0.166817
1753 2587 0.166817
1753 2588 0.166817
1754 262 0.200001
1754 1221 0.200001
1754 2589 0.200001
1754 2590 0.199997
1754 2591 0.200001
1755 6 0.125375
1755 178 0.437312
1755 2592 0.437312
1756 150 0.25
1756 586 0.25
1756 877 0.25
1756 2713 0.25
1757 164 1
1758 164 0.997854
1758 2594 0.00214635
1759 1127 0.00281232
1759 2596 0.0454093
1759 2597 0.951778
1760 2596 0.00106926
1760 2597 0.998931
1761 6 0.248877
1761 1974 0.250374
1761 2593 0.250374
1761 2598 0.250374
1762 164 0.195442
1762 1521 0.197321
1762 1746 0.197321
1762 2593 0.0152738
1762 2599 0.197321
1762 2600 0.197321
1763 1615 1
1764 2605 1
1765 2606 0.25
1765 2607 0.25
1765 2608 0.25
1765 2609 0.25
1766 96 1
1767 96 1
1768 23 0.166661
1768 112 0.166584
1768 164 0.000241106
1768 1080 0.166661
1768 2603 0.166661
1768 2604 0.166661
1768 2605 0.166529
1769 48 0.136934
1769 2593 0.863066
1770 48 1
1771 10 0.124964
1771 363 0.125006
1771 410 0.125006
1771 1449 0.125006
1771 1615 0.124998
1771 2556 0.125006
1771 2601 0.125006
1771 2602 0.125006
1772 170 0.974291
1772 2611 0.0257088
1773 148 0.200074
1773 170 0.199714
1773 966 0.200074
1773 1725 0.200074
1773 2611 0.200064
1774 1533 0.193225
1774 1975 0.193224
1774 1976 0.0338717
1774 2612 0.193226
1774 2613 0.193227
1774 2614 0.193226
1775 2621 0.5
1775 2622 0.5
1776 112 0.332842
1776 2623 0.333579
1776 2624 0.333579
1777 799 0.5
1777 2625 0.5
1778 150 1
1779 150 1
1780 1843 0.25
1780 2627 0.25
1780 2628 0.25
1780 2629 0.25
1781 261 0.332902
1781 2615 0.332902
1781 2616 0.332902
1781 2630 0.00129304
1782 73 0.111115
1782 112 0.11108
1782 1739 0.111115
1782 1743 0.111115
1782 2091 0.111115
1782 2617 0.111115
1782 2618 0.111115
1782 2619 0.111115
1782 2620 0.111115
1783 250 1
1784 2632 0.00245458
1784 2633 0.997545
1785 626 0.0153019
1785 2632 0.290603
1785 2635 0.694095
1786 93 0.200054
1786 206 0.200054
1786 250 0.19979
1786 626 0.200047
1786 2634 0.200054
1787 2631 0.200189
1787 2632 0.199563
1787 2635 0.19987
1787 2636 0.200189
1787 2637 0.200189
1788 57 0.248259
1788 160 0.255222
1788 1012 0.248259
1788 2638 0.248259
1789 223 0.333333
1789 2151 0.333333
1789 2640 0.333333
1790 291 0.666667
1790 1958 0.333333
1791 632 0.333333
1791 1298 0.333333
1791 2641 0.333333
1792 119 0.250006
1792 178 0.250006
1792 221 0.250006
1792 2642 0.249981
1793 223 0.997071
1793 2642 0.00292947
1794 223 0.328236
1794 1390 0.16794
1794 2643 0.167941
1794 2644 0.167941
1794 2645 0.167941
1795 81 0.0532928
1795 417 0.946551
1795 2646 0.000155851
1796 417 4.46866e-05
1796 760 0.499964
1796 2646 0.499991
1797 149 0.249996
1797 2647 0.250001
1797 2648 0.250001
1797 2649 0.250001
1798 2653 1
1799 164 0.248932
1799 397 0.250356
1799 2651 0.250356
1799 2652 0.250356
1800 232 0.0498618
1800 515 0.237583
1800 2653 0.23739
1800 2654 0.237583
1800 2655 0.237582
1801 232 0.982512
1801 2656 0.0174878
1802 402 0.167057
1802 1348 0.167058
1802 1792 0.167058
1802 2656 0.164709
1802 2657 0.167058
1802 2658 0.167058
1803 112 1
1804 164 1
1805 149 0.499998
1805 2663 0.500002
1806 48 0.142857
1806 613 0.142853
1806 905 0.142858
1806 1420 0.142858
1806 2664 0.142858
1806 2665 0.142858
1806 2666 0.142858
1807 716 0.990958
1807 2667 0.00904208
1808 353 0.194758
1808 477 0.194758
1808 716 0.0277365
1808 2667 0.193233
1808 2668 0.194758
1808 2669 0.194757
1809 1350 0.0385282
1809 2670 0.320491
1809 2671 0.320491
1809 2672 0.320491
1810 379 1
1811 4 0.0416667
1811 23 0.0416667
1811 68 0.0416667
1811 106 0.0416667
1811 149 0.0416667
1811 256 0.0416667
1811 353 0.0416667
1811 379 0.0416667
1811 471 0.0416667
1811 851 0.0416667
1811 1350 0.0416667
1811 2670 0.0416667
1811 2671 0.0416667
1811 2672 0.0416667
1811 2673 0.0416667
1811 2674 0.0416667
1811 2675 0.0416667
1811 2676 0.0416667
1811 2677 0.0416667
1811 2678 0.0416667
1811 2679 0.0416667
1811 2680 0.0416667
1811 2681 0.0416667
1811 2682 0.0416667
1812 23 0.125
1812 106 0.124999
1812 256 0.125
1812 353 0.125
1812 2674 0.125
1812 2675 0.125
1812 2676 0.125
1812 2677 0.125
1813 851 0.166667
1813 2678 0.166667
1813 2679 0.166667
1813 2680 0.166667
1813 2681 0.166667
1813 2682 0.166667
1814 399 0.392413
1814 418 0.405015
1814 2695 0.202508
1814 2717 6.3437e-05
1815 419 0.251727
1815 2616 0.249424
1815 2683 0.249424
1815 2684 0.249424
1816 541 0.00198976
1816 2696 0.99801
1817 541 0.999557
1817 1307 0.000442821
1818 586 0.255357
1818 2685 0.255355
1818 2686 0.255357
1818 2687 0.23393
1819 23 0.511762
1819 2687 0.0377939
1819 2688 0.450405
1819 2700 3.87113e-05
1820 681 0.25
1820 707 0.25
1820 2689 0.25
1820 2690 0.25
1821 180 1
1822 1307 0.333235
1822 2697 0.333383
1822 2698 0.333382
1823 2696 1
1824 180 0.249413
1824 2691 0.250194
1824 2692 0.250196
1824 2693 0.250196
1825 2694 1
1826 192 1
1827 145 1
1828 145 0.142854
1828 1152 0.142858
1828 2702 0.142858
1828 2703 0.142858
1828 2704 0.142857
1828 2705 0.142858
1828 2706 0.142858
1829 23 0.301395
1829 1134 0.349129
1829 2699 0.349129
1829 2700 0.000346885
1830 256 0.315931
1830 712 0.0522068
1830 2708 0.315931
1830 2709 0.315931
1831 712 0.00149896
1831 1382 0.199701
