0 4 0.0261333
0 11 2.2147e-05
0 16 0.290486
0 19 0.186335
0 27 0.303186
0 43 0.015445
0 92 0.000351667
0 103 0.176142
0 187 0.00175478
0 243 3.15481e-07
0 308 0.000113454
0 420 1.52264e-07
0 543 1.85767e-07
0 621 1.29832e-07
0 934 9.41351e-06
0 1056 1.12623e-07
0 1107 1.58098e-07
0 1765 1.81202e-05
0 1916 1.49921e-07
0 2005 1.25026e-07
0 2017 1.85201e-07
0 2742 1.04152e-07
2 4 0.999145
2 543 0.000100771
2 1722 0.000753774
3 2 0.00502594
3 3 0.994974
4 19 0.203528
4 27 9.41238e-05
4 103 0.796128
4 308 0.000250796
5 3 0.663788
5 923 0.336212
6 103 0.000828101
6 2515 0.999172
7 19 1
8 4 0.00220927
8 16 0.00348826
8 27 6.21409e-05
8 92 0.935222
8 103 0.0181449
8 864 0.000146094
8 1355 0.0407277
9 4 0.175606
9 18 0.159333
9 20 0.159333
9 21 0.346397
9 22 0.159332
10 5 0.333333
10 6 0.333333
10 7 0.333333
11 1983 0.333379
11 1993 0.33331
11 1994 0.33331
12 8 0.30788
12 9 0.384849
12 10 0.307271
13 10 0.0021991
13 11 0.997801
14 11 0.999998
14 92 1.84326e-06
15 11 1.09269e-05
15 12 0.250028
15 13 0.249906
15 14 0.250028
15 15 0.250028
16 13 1
17 16 0.99999
17 308 9.96665e-06
18 17 1
19 2178 1
20 115 0.0443772
20 871 0.318434
20 2082 0.318595
20 2083 0.318594
21 2 0.257394
21 3 0.253413
21 11 0.231788
21 23 0.257405
22 4 0.587657
22 24 0.000823876
22 102 6.77558e-05
22 2733 0.411451
23 24 0.251574
23 25 0.377581
23 26 0.370845
24 19 0.314187
24 24 6.20094e-05
24 27 0.0394587
24 34 0.253564
24 43 0.0714967
24 103 0.0224753
24 864 0.298757
25 43 0.000664149
25 102 0.491937
25 124 7.96649e-06
25 1009 2.181e-05
25 1183 0.507333
25 2076 3.63293e-05
26 31 0.997196
26 2838 0.00280407
27 26 0.312595
27 28 0.679107
27 29 0.00829823
28 19 0.982144
28 27 0.0105541
28 103 0.000249634
28 127 0.00705217
29 28 0.227647
29 29 0.257241
29 30 0.257607
29 31 0.257506
30 103 1
31 24 0.333277
31 32 0.333361
31 33 0.333361
32 4 0.00456968
32 16 0.17982
32 27 0.00422642
32 92 0.00120885
32 103 0.809023
32 229 0.00115226
33 34 0.333329
33 35 0.333337
33 36 0.166667
33 1316 0.166667
34 37 1
35 38 0.5
35 39 0.5
36 40 0.5
36 2280 0.5
37 27 0.0029124
37 43 0.946236
37 402 0.0508511
38 42 1
39 224 1
40 41 0.331142
40 42 0.341239
40 43 0.327619
41 43 0.0459308
41 44 0.954069
42 27 0.0687693
42 103 0.327724
42 173 0.191521
42 298 0.411986
43 243 1
44 44 0.958114
44 45 0.0418863
45 45 0.196819
45 46 0.200795
45 47 0.200795
45 48 0.200795
45 49 0.200795
46 92 0.165527
46 952 0.511878
46 1372 0.322595
47 9 0.492635
47 41 0.0147296
47 50 0.492635
48 51 1
49 65 0.256
49 1504 0.248005
49 1611 0.247991
49 1629 0.248005
50 4 0.00353344
50 16 0.000287626
50 92 0.974418
50 103 0.0215507
50 485 0.000209935
51 4 0.503716
51 1736 0.496284
52 52 0.333452
52 53 0.333452
52 54 0.333097
53 54 0.00412874
53 55 0.995871
54 55 0.440368
54 56 0.557112
54 57 0.00252056
55 473 1
56 56 0.056764
56 57 0.943206
56 58 2.96762e-05
57 57 1.14697e-05
57 58 0.333323
57 59 0.333333
57 60 0.333333
58 62 0.389289
58 1843 0.610711
59 61 0.472073
59 62 0.527927
60 103 0.999989
60 2648 1.05802e-05
61 63 0.499989
61 64 0.499991
61 65 1.95236e-05
62 65 1
63 66 0.436526
63 67 0.433537
63 68 0.129937
64 2830 1
65 224 1.30296e-05
65 510 0.999987
66 67 0.00965314
66 68 0.990273
66 69 7.372e-05
67 70 0.313509
67 71 0.686491
68 71 0.466937
68 72 0.533063
69 69 0.51454
69 70 0.485426
69 71 2.78748e-05
69 72 6.08518e-06
70 73 1
71 272 1
72 73 0.332141
72 74 0.333929
72 75 0.333929
73 62 0.405835
73 76 0.237667
73 1056 0.237665
73 1852 0.118833
74 62 1
75 77 1
76 77 0.000188406
76 78 0.995195
76 79 0.0046168
77 79 0.498838
77 80 0.501162
78 43 3.66492e-06
78 331 0.999806
78 1733 0.000190678
79 2520 0.134684
79 2521 0.432658
79 2522 0.432658
80 224 0.500533
80 666 0.499467
81 82 0.437833
81 83 0.562167
82 81 1
83 81 0.474518
83 82 0.525482
84 83 0.333196
84 84 0.333402
84 85 0.333402
85 86 0.25
85 87 0.25
85 88 0.25
85 89 0.25
86 24 0.92582
86 670 0.0741798
87 19 0.321824
87 24 0.000187586
87 90 0.338994
87 91 0.338994
88 62 0.26749
88 130 0.244161
88 1453 0.244175
88 2523 0.244175
89 4 0.470844
89 268 0.264577
89 1010 0.264579
90 92 0.255907
90 93 0.249053
90 94 0.249053
90 95 0.245987
91 92 0.522387
91 2840 0.477613
92 92 0.452884
92 95 0.00665376
92 96 0.540462
93 97 1
94 11 0.4144
94 21 0.171156
94 98 0.414444
95 4 4.91208e-05
95 320 0.999951
96 4 0.00554262
96 19 0.37994
96 27 0.611753
96 1678 0.00162912
96 1684 0.00113508
97 11 0.299061
97 49 0.467293
97 594 0.233647
98 140 0.130948
98 141 0.869052
99 103 1
100 1183 1
101 19 0.0211753
101 229 0.978825
102 68 0.124999
102 99 0.125
102 100 0.125
102 101 0.125
102 102 0.125
102 104 0.125
102 105 0.125
102 106 0.125
103 107 0.333333
103 108 0.333333
103 109 0.333333
104 110 0.250016
104 111 0.250016
104 112 0.249951
104 113 0.250016
105 114 0.398955
105 115 0.598405
105 224 4.11972e-05
105 2833 0.00259846
106 115 0.000960951
106 190 0.998922
106 331 0.000117318
107 116 1
108 117 0.5
108 118 0.5
109 119 0.5
109 120 0.5
110 121 0.333333
110 122 0.333333
110 123 0.333333
111 543 1
112 125 0.25
112 126 0.25
112 127 0.25
112 128 0.25
113 124 0.999677
113 129 0.00032261
114 124 1
115 112 1
116 129 1
117 68 0.519768
117 141 0.000710581
117 142 0.479522
118 129 1
119 19 1
120 42 0.339799
120 43 0.318422
120 344 0.014042
120 345 0.327737
121 108 1.60526e-05
121 134 0.00326105
121 956 0.996715
121 1655 7.64096e-06
122 402 0.000521542
122 2424 0.999478
123 285 0.496266
123 1099 0.503734
124 43 1
125 92 1
126 130 0.166667
126 131 0.166667
126 132 0.166667
126 133 0.166667
126 134 0.166667
126 135 0.166667
127 4 0.35667
127 136 0.321665
127 137 0.321665
128 173 1
129 138 0.503911
129 139 0.496089
130 4 0.0388728
130 139 0.00733581
130 140 0.477561
130 141 0.47623
131 92 0.499936
131 217 0.500064
132 173 0.999995
132 420 4.55138e-06
133 43 0.0518974
133 1755 0.948103
134 140 0.0114934
134 141 0.857659
134 142 0.130848
135 141 7.60934e-05
135 142 0.291577
135 143 0.00114491
135 320 0.490553
135 434 0.216649
136 143 0.33326
136 144 0.333355
136 145 0.333355
136 1220 2.88525e-05
137 147 0.333333
137 149 0.333333
137 150 0.333333
138 143 0.499996
138 148 0.500004
139 673 0.461218
139 696 0.000198861
139 697 0.538584
140 146 1
141 19 1
142 52 0.25
142 1734 0.25
142 1770 0.25
142 1771 0.25
143 77 0.333333
143 162 0.333334
143 163 0.333334
144 65 1
145 160 0.5
145 161 0.5
146 155 5.70904e-06
146 156 0.499997
146 157 0.499997
147 158 0.5
147 159 0.5
148 103 1
149 151 0.5
149 152 0.5
150 153 0.333336
150 154 0.333336
150 155 0.333329
151 140 1
152 344 1
153 167 0.453636
153 224 0.546364
154 20 0.200009
154 164 0.200005
154 165 0.199967
154 166 0.20001
154 167 0.200009
155 165 0.248727
155 168 0.254919
155 2836 0.248674
155 2837 0.24766
155 2838 2.04566e-05
156 224 0.60777
156 928 0.154731
156 2837 0.237498
157 168 0.452506
157 169 0.464163
157 2838 0.0833311
158 164 1.60093e-05
158 621 0.139828
158 714 0.172042
158 1860 0.171988
158 2339 0.172042
158 2340 0.172042
158 2341 0.172042
159 170 0.333326
159 171 0.333337
159 172 0.333337
160 4 0.253828
160 222 0.25547
160 223 0.25547
160 224 0.228121
160 2833 0.00711124
161 177 0.191164
161 673 0.426586
161 1506 0.191125
161 1519 0.191125
162 27 0.000732085
162 170 0.499642
162 2729 0.499626
163 127 0.199157
163 174 0.200219
163 175 0.200219
163 176 0.200219
163 177 0.200185
164 178 1
165 42 0.00071285
165 178 0.999287
166 42 0.333222
166 179 0.33339
166 180 0.333389
167 65 0.333343
167 2431 0.333332
167 2432 0.333326
168 11 0.155447
168 27 0.844062
168 206 0.000491037
169 130 1
170 173 0.330074
170 184 0.0143744
170 1927 0.330059
170 1928 0.325493
171 181 0.333333
171 182 0.333334
171 183 0.333333
172 102 0.25003
172 184 0.74997
173 65 0.333316
173 184 3.07652e-05
173 185 0.333327
173 186 0.333327
174 187 1
175 188 0.256612
175 189 0.257432
175 190 0.228525
175 191 0.257432
176 485 0.333477
176 510 0.333158
176 1404 0.333365
177 108 0.200008
177 192 0.200008
177 193 0.199969
177 194 0.200008
177 195 0.200008
178 92 0.000227707
178 224 0.999772
179 188 0.898167
179 193 0.101833
180 952 1
181 4 0.49527
181 224 0.0058345
181 1797 0.498896
182 92 1
183 510 1
184 196 0.25
184 197 0.25
184 198 0.25
184 199 0.25
185 224 1
186 173 0.310276
186 202 0.689724
187 146 0.333333
187 200 0.333333
187 201 0.333333
188 4 0.49869
188 202 0.50131
189 203 0.333333
189 204 0.333333
189 205 0.333333
190 206 1
191 11 1
192 11 1
193 207 0.5
193 208 0.5
194 2694 0.182852
194 2695 0.204287
194 2696 0.204287
194 2697 0.204287
194 2698 0.204287
195 250 0.333598
195 1857 0.333598
195 2076 0.332803
196 209 1
197 9 0.05
197 27 0.05
197 37 0.05
197 80 0.05
197 103 0.05
197 115 0.05
197 191 0.05
197 209 0.05
197 210 0.05
197 211 0.05
197 212 0.05
197 213 0.05
197 214 0.05
197 215 0.05
197 216 0.05
197 217 0.05
197 218 0.05
197 219 0.05
197 220 0.05
197 221 0.05
198 115 0.265828
198 209 0.202517
198 210 0.265828
198 211 0.265827
199 9 0.272567
199 80 0.000592196
199 212 0.36342
199 213 0.36342
200 80 0.249721
200 214 0.250022
200 215 0.250129
200 216 0.250128
201 35 0.729501
201 214 0.270499
202 37 0.35919
202 214 0.312363
202 1080 0.328447
203 217 0.509809
203 220 0.326282
203 622 0.163909
204 217 1
205 218 0.5
205 219 0.5
206 220 1
207 191 0.5
207 221 0.5
208 224 9.68226e-06
208 225 0.293663
208 226 0.293663
208 227 0.174918
208 2838 0.237747
209 65 0.612749
209 228 0.0161552
209 229 0.00436531
209 1935 0.366731
210 673 1
211 227 0.943768
211 228 0.0562317
212 228 0.24529
212 229 0.251525
212 230 0.251526
212 231 0.251526
212 232 0.000132694
213 232 0.327647
213 1372 0.0167126
213 2580 0.655641
214 233 0.5
214 234 0.5
215 231 0.24981
215 235 0.250063
215 236 0.250063
215 237 0.250063
216 27 0.374745
216 686 0.30427
216 985 0.320985
217 27 0.0338752
217 755 0.966125
218 231 0.259342
218 2343 0.25908
218 2344 0.25908
218 2345 0.222498
219 43 0.49207
219 1963 0.50793
220 238 1
221 238 0.999985
221 239 1.5415e-05
222 239 1
223 239 9.62167e-06
223 240 0.507186
223 241 0.492804
224 241 1
225 242 0.333333
225 243 0.333333
225 244 0.333333
226 198 0.333333
226 245 0.333333
226 246 0.333333
227 11 0.448844
227 248 0.551156
228 247 0.333374
228 248 0.333253
228 249 0.333373
229 173 0.248415
229 250 0.250528
229 251 0.250528
229 2392 0.250528
230 252 1
231 253 1
232 11 0.491234
232 896 0.508766
233 254 0.380232
233 255 0.38063
233 256 0.239138
234 256 0.617596
234 2749 0.382404
235 256 0.0370596
235 324 0.211613
235 2749 0.751328
236 257 0.490824
236 258 0.490824
236 259 0.0183517
237 259 1
238 263 1
239 260 0.333331
239 261 0.333331
239 262 0.333331
239 263 6.76438e-06
240 267 1
241 4 0.0164975
241 27 0.0237109
241 1009 0.0231372
241 2227 0.936654
242 263 1
243 11 0.200006
243 264 0.200007
243 265 0.200007
243 266 0.200007
243 267 0.199974
244 268 0.249997
244 269 0.250001
244 270 0.250001
244 271 0.250001
245 272 0.101064
245 273 0.898936
246 4 8.93352e-05
246 43 0.0634611
246 173 0.0657629
246 263 0.870687
247 308 1
248 43 0.198676
248 274 0.200331
248 275 0.200331
248 276 0.200331
248 1412 0.20033
249 187 0.250364
249 278 0.498287
249 509 0.251325
249 510 2.46238e-05
250 54 0.166703
250 255 0.166529
250 277 0.166703
250 278 0.166658
250 279 0.166703
250 280 0.166703
251 4 0.335385
251 281 0.332024
251 282 0.332024
251 283 0.000567378
252 130 0.400421
252 283 0.599579
253 285 1
254 284 1
255 108 1
256 285 0.499968
256 286 0.500032
257 24 0.337206
257 287 0.337223
257 288 0.325571
258 288 0.0570034
258 289 0.940079
258 900 0.000928907
258 2428 0.00198878
259 288 0.00110223
259 289 0.998898
260 92 0.999924
260 290 7.64319e-05
261 11 0.249974
261 290 0.249997
261 291 0.250015
261 292 0.250015
262 92 0.000727323
262 103 0.0458868
262 717 0.953386
263 293 0.25
263 294 0.25
263 295 0.25
263 296 0.25
264 561 0.999976
264 2719 2.43277e-05
265 299 1
266 2110 0.426542
266 2849 0.573458
267 297 0.250439
267 298 0.250396
267 299 0.248726
267 300 0.250439
268 4 0.489109
268 301 0.510891
269 4 0.175837
269 92 0.306735
269 2709 0.172475
269 2710 0.172476
269 2711 0.172476
270 19 0.15917
270 65 0.336323
270 302 0.168169
270 303 0.336339
271 19 0.000105003
271 27 0.0602987
271 304 0.939596
272 622 0.25
272 1160 0.25
272 1161 0.25
272 1162 0.25
273 640 0.627259
273 736 0.372741
274 308 0.999922
274 492 3.36186e-05
274 621 4.43316e-05
275 305 0.250128
275 306 0.250128
275 307 0.250128
275 308 0.249615
276 308 6.84511e-05
276 1273 0.500584
276 1274 0.499347
277 1085 0.249914
277 1379 0.250092
277 1380 0.249902
277 1381 0.250092
278 263 0.249962
278 308 0.000151311
278 309 0.249962
278 310 0.249962
278 311 0.249962
279 52 0.988881
279 103 0.00157785
279 308 0.009541
280 312 1
281 308 8.78465e-05
281 312 0.0695857
281 498 0.930326
282 312 0.00778888
282 313 0.496106
282 314 0.496106
283 19 0.48331
283 315 0.51669
284 43 0.15071
284 65 0.141709
284 92 0.282462
284 319 0.141707
284 1535 0.141707
284 1536 0.141707
285 100 0.333335
285 320 0.333329
285 321 0.333335
286 16 0.00803236
286 322 0.991968
287 379 0.174468
287 380 0.174468
287 381 0.348936
287 382 0.302128
288 154 0.536967
288 344 0.463033
289 43 0.0880727
289 1107 0.0289818
289 2473 0.882946
290 43 0.0029107
290 331 0.997089
291 112 0.000289556
291 352 0.499851
291 485 0.499859
292 383 0.24532
292 384 0.245316
292 385 0.264047
292 386 0.245316
293 316 0.333334
293 317 0.333334
293 318 0.333332
294 65 0.498743
294 323 0.501257
295 34 0.204611
295 65 0.424148
295 322 0.371241
296 332 0.333333
296 333 0.333333
296 334 0.333333
297 65 0.333301
297 335 0.33335
297 336 0.33335
298 330 1
299 103 0.000134708
299 1386 0.996735
299 1387 0.00313022
300 35 0.142857
300 324 0.142856
300 325 0.142857
300 326 0.142857
300 327 0.142857
300 328 0.142857
300 329 0.142857
301 337 0.249977
301 338 0.250008
301 339 0.250008
301 340 0.250008
302 11 0.494458
302 272 0.000467545
302 1305 0.505075
303 341 1
304 341 0.311372
304 342 0.344308
304 343 0.344308
304 344 1.2128e-05
305 337 1
306 346 0.25
306 347 0.25
306 348 0.25
306 349 0.25
307 350 1
308 92 1
309 350 1
310 19 0.364198
310 1543 0.423878
310 2131 0.211924
311 663 1
312 285 0.620316
312 354 0.279786
312 543 0.0998985
313 112 0.25
313 351 0.25
313 352 0.25
313 353 0.25
314 87 0.264936
314 354 0.470112
314 355 0.264952
315 87 5.94014e-05
315 331 0.502666
315 2304 0.497275
316 356 1
317 268 0.333331
317 356 7.12693e-06
317 357 0.333331
317 358 0.333331
318 11 1
319 359 1
320 374 0.499916
320 402 0.500084
321 27 1
322 360 0.25
322 361 0.25
322 362 0.25
322 363 0.25
323 4 1
324 108 0.00238383
324 1828 0.997616
325 364 0.25
325 365 0.25
325 366 0.25
325 367 0.249999
326 368 1
327 368 0.316183
327 369 0.341909
327 370 0.341909
328 371 0.333333
328 372 0.333333
328 373 0.333333
329 25 0.333333
329 1766 0.333333
329 1767 0.333333
330 513 0.332848
330 589 0.000474852
330 590 0.665685
330 1591 0.000991835
331 374 1
332 103 0.511085
332 407 0.488068
332 1001 0.000847069
333 375 0.25
333 376 0.25
333 377 0.25
333 378 0.249999
334 68 1
335 387 0.333333
335 388 0.333333
335 389 0.333333
336 27 1
337 2174 0.000102212
337 2175 0.99989
337 2253 7.7033e-06
338 397 0.197658
338 398 0.200586
338 399 0.200586
338 400 0.200586
338 401 0.200586
339 294 1
340 24 0.948006
340 224 0.0490252
340 374 0.00288017
340 403 8.85626e-05
341 397 1
342 397 1
343 24 1
344 390 0.142857
344 391 0.142857
344 392 0.142857
344 393 0.142857
344 394 0.142857
344 395 0.142857
344 396 0.142857
345 19 0.025
345 24 0.025
345 65 0.025
345 103 0.025
345 112 0.025
345 224 0.025
345 252 0.025
345 294 0.025
345 303 0.025
345 374 0.025
345 390 0.025
345 391 0.025
345 392 0.025
345 393 0.025
345 394 0.025
345 395 0.025
345 396 0.025
345 397 0.025
345 398 0.025
345 399 0.025
345 400 0.025
345 401 0.025
345 402 0.025
345 403 0.025
345 404 0.025
345 405 0.025
345 406 0.025
345 407 0.025
345 408 0.025
345 409 0.025
345 410 0.025
345 411 0.025
345 412 0.025
345 413 0.025
345 414 0.025
345 415 0.025
345 416 0.025
345 417 0.025
345 418 0.025
345 419 0.025
346 405 0.333367
346 406 0.333367
346 407 0.333267
347 403 1
348 65 0.333354
348 848 0.333323
348 1433 0.333323
349 224 0.0617487
349 403 0.933069
349 404 0.00518234
350 173 1
351 404 1
352 404 1
353 112 1
354 112 1
355 112 0.342729
355 408 0.657271
356 408 0.234197
356 409 0.255268
356 410 0.255268
356 411 0.255268
357 252 0.999722
357 1051 0.000277801
358 252 0.111111
358 412 0.111111
358 413 0.111111
358 414 0.111111
358 415 0.111111
358 416 0.111111
358 417 0.111111
358 418 0.111111
358 419 0.111111
359 1716 1
360 19 1
361 420 0.212703
361 421 0.787297
362 173 0.25
362 422 0.25
362 423 0.25
362 424 0.25
363 420 0.416621
363 421 0.0196927
363 425 0.563686
364 24 1
365 24 0.263444
365 106 0.368278
365 426 0.368278
366 92 0.0587569
366 231 0.313748
366 427 0.313748
366 428 0.313748
367 429 0.5
367 430 0.5
368 229 0.25
368 431 0.25
368 432 0.25
368 433 0.25
369 438 0.5
369 439 0.5
370 118 0.201922
370 367 0.201922
370 434 0.192313
370 435 0.201922
370 436 0.201922
371 65 0.499957
371 437 0.499958
371 2349 8.51789e-05
372 434 1
373 108 1
374 485 1.34504e-05
374 686 0.333329
374 2795 0.333329
374 2796 0.333329
375 187 5.44244e-05
375 308 0.347184
375 1110 0.652464
375 1365 0.000292247
375 2017 5.40976e-06
376 298 0.333502
376 2421 0.333249
376 2422 0.333249
377 442 1
378 298 0.340806
378 308 0.317311
378 440 0.339566
378 441 0.00231736
379 440 0.00220946
379 441 0.497274
379 442 0.500172
379 443 0.000344342
380 443 0.499828
380 444 0.500172
381 402 0.199994
381 445 0.200001
381 446 0.200002
381 447 0.200002
381 448 0.200001
382 224 0.0209462
382 1774 0.979054
383 730 0.966274
383 763 0.0337265
384 449 1
385 450 0.336996
385 451 0.336996
385 452 0.326009
386 54 1
387 92 0.58909
387 224 0.410911
388 48 0.329784
388 53 0.329784
388 54 0.329679
388 452 0.0107529
389 402 0.49934
389 453 0.000142506
389 2376 0.499578
389 2526 0.000939447
390 453 0.250063
390 454 0.25021
390 455 0.25021
390 456 0.249518
391 457 1
392 456 1
393 453 1
394 65 0.499905
394 457 0.000190353
394 458 0.499905
395 459 0.250016
395 460 0.250017
395 461 0.249951
395 462 0.250016
396 461 1
397 37 0.25
397 463 0.25
397 464 0.25
397 465 0.25
398 470 1
399 24 0.333333
399 466 0.333333
399 467 0.333333
400 468 0.250306
400 469 0.250307
400 470 0.249844
400 471 0.249543
401 471 0.00304104
401 472 0.996959
402 103 0.987787
402 470 0.0122131
403 103 0.973119
403 473 0.0268812
404 473 1
405 474 0.5
405 475 0.5
406 1009 0.000247341
406 1654 0.49988
406 1655 0.499872
407 1742 0.5
407 1944 0.5
408 298 1
409 477 0.922353
409 478 0.077647
410 476 0.250081
410 477 0.249785
410 478 0.250056
410 479 0.250078
411 34 0.333303
411 480 0.333348
411 481 0.333348
412 482 1
413 218 0.213445
413 331 0.213398
413 483 0.213445
413 484 0.213445
413 485 0.146269
414 34 0.497759
414 485 0.284929
414 712 0.217312
415 1272 0.199994
415 2335 0.200001
415 2336 0.200001
415 2337 0.200001
415 2338 0.200001
416 43 0.515388
416 1607 0.484612
417 331 1
418 92 0.0121366
418 173 0.452876
418 485 0.00190909
418 597 0.000567688
418 959 0.532511
419 19 0.0355069
419 486 0.241123
419 487 0.241123
419 488 0.482246
420 62 0.00463275
420 489 0.995367
421 2694 1
422 62 0.449227
422 489 0.0997466
422 490 0.22551
422 491 0.22551
422 2726 6.1122e-06
423 492 0.499819
423 494 0.500181
424 308 0.347443
424 492 3.57014e-06
424 493 0.34746
424 494 0.305093
425 494 1
426 108 0.333333
426 495 0.333333
426 496 0.333333
427 1898 0.5
427 1899 0.5
428 497 1
429 497 1
430 16 0.0205272
430 308 0.979473
431 498 0.285181
431 499 0.35741
431 500 0.35741
432 308 0.00045397
432 501 0.999546
433 87 0.249681
433 241 0.25096
433 502 0.249678
433 503 0.249681
434 241 1
435 485 0.333342
435 1159 0.333329
435 1583 0.333329
436 241 1
437 241 1
438 241 0.0538265
438 272 0.0943065
438 504 0.851867
439 502 1
440 231 0.333333
440 505 0.333333
440 506 0.333333
441 24 0.333366
441 507 0.333317
441 508 0.333317
442 511 1
443 19 0.352939
443 27 0.64698
443 511 8.11984e-05
444 184 0.674979
444 512 0.325021
445 243 1
446 523 1
447 27 0.000157141
447 380 0.49956
447 513 0.500283
448 103 0.0032591
448 287 0.332287
448 514 0.332227
448 1642 0.332227
449 515 0.603124
449 516 0.396876
450 516 1
451 517 0.5
451 1402 0.5
452 112 0.166667
452 518 0.166667
452 519 0.166667
452 520 0.166667
452 521 0.166667
452 522 0.166667
453 19 1.12394e-05
453 112 0.508697
453 524 0.491292
454 19 0.0838218
454 524 0.0783285
454 525 0.83785
455 525 0.240701
455 526 0.379649
455 527 0.379649
456 528 0.999962
456 2489 3.79877e-05
457 326 0.0490238
457 1947 6.77825e-06
457 1948 0.317073
457 1949 0.633897
458 1051 0.499685
458 1052 0.499687
458 1053 0.000628686
459 529 0.5
459 530 0.5
460 140 1
461 531 1
462 532 0.997408
462 533 0.00259206
463 532 0.000781911
463 533 0.498613
463 553 0.500605
464 1231 1
465 184 0.275301
465 344 0.174098
465 534 0.275301
465 535 0.2753
466 536 0.5
466 537 0.5
467 112 0.32088
467 538 0.19766
467 711 0.48146
468 48 0.333348
468 545 0.333305
468 1261 0.333348
469 243 0.249997
469 385 0.250001
469 539 0.250001
469 540 0.250001
470 541 0.333335
470 542 0.333335
470 543 0.333331
471 148 0.5
471 544 0.5
472 545 0.250023
472 546 0.249993
472 547 0.249992
472 1789 0.249992
473 548 0.333333
473 549 0.333333
473 550 0.333333
474 324 0.217514
474 553 0.782486
475 551 0.5
475 552 0.5
476 43 1
477 43 1
478 62 0.0488174
478 130 0.000632327
478 1331 0.000261417
478 2520 0.950289
479 324 0.24736
479 554 0.247444
479 555 0.247444
479 556 0.247444
479 557 0.0103073
480 1698 1
481 557 0.33354
481 558 0.348037
481 559 0.318423
482 559 0.0208294
482 560 0.244792
482 1225 0.244793
482 2260 0.244793
482 2261 0.244793
483 1043 0.275274
483 2139 0.174178
483 2140 0.275274
483 2141 0.275274
484 562 0.321345
484 563 0.0359656
484 564 0.321345
484 565 0.321345
485 563 1
486 1952 0.000215445
486 1953 0.000104122
486 2489 0.499902
486 2490 0.499779
487 19 9.23096e-05
487 566 0.499954
487 567 0.499954
488 19 0.18072
488 568 0.40964
488 569 0.40964
489 570 1
490 115 0.000433139
490 857 0.799629
490 1428 0.199938
491 591 0.666666
491 1193 0.333334
492 324 0.166667
492 543 0.166667
492 578 0.166666
492 579 0.166667
492 580 0.166666
492 581 0.166667
493 570 0.0285775
493 571 0.971422
494 398 0.999994
494 1985 6.05741e-06
495 551 0.4
495 572 0.6
496 11 0.170333
496 573 0.170535
496 574 0.170535
496 575 0.170535
496 576 0.170535
496 577 0.147527
497 127 0.318304
497 510 0.31833
497 577 0.0429446
497 2838 0.00211632
497 2839 0.318305
498 137 0.253246
498 2127 0.493508
498 2135 0.253246
499 65 0.467515
499 1657 0.532485
500 11 1
501 16 0.000359801
501 986 0.936372
501 1135 0.0632687
502 243 0.33384
502 331 0.332254
502 985 0.333905
503 65 1
504 11 0.125
504 26 0.125
504 510 0.125
504 582 0.125
504 583 0.125
504 584 0.125
504 585 0.125
504 586 0.125
505 102 0.250027
505 700 0.249991
505 701 0.249991
505 1972 0.249991
506 173 0.350019
506 1871 0.325026
506 1872 0.324955
507 102 0.250068
507 587 0.250096
507 588 0.250096
507 589 0.249739
508 173 0.440894
508 592 0.559106
509 513 0.752925
509 1657 0.247075
510 513 0.326741
510 579 0.336671
510 593 0.336588
511 553 0.333333
511 595 0.333333
511 596 0.333333
512 140 0.250013
512 368 0.250013
512 1643 0.24996
512 2000 0.250013
513 597 1
514 65 0.248691
514 597 0.00512094
514 598 0.248729
514 599 0.24873
514 600 0.248729
515 103 1
516 601 1
517 601 1
518 602 1
519 398 0.166667
519 399 0.166667
519 404 0.166667
519 603 0.166667
519 604 0.166667
519 605 0.166666
520 354 0.5
520 606 0.5
521 607 0.333333
521 608 0.333333
521 609 0.333333
522 610 0.666667
522 770 0.333333
523 163 0.333057
523 637 0.166768
523 2024 0.333407
523 2025 0.166768
524 611 0.333333
524 612 0.333333
524 613 0.333333
525 19 1
526 68 0.25
526 140 0.25
526 614 0.25
526 615 0.25
527 533 0.333333
527 616 0.333333
527 617 0.333333
528 479 0.333333
528 618 0.333333
528 619 0.333333
529 11 1
530 332 0.199999
530 670 0.200005
530 998 0.199999
530 2098 0.199998
530 2099 0.199999
531 626 0.333333
531 627 0.333333
531 628 0.333333
532 16 0.000253641
532 1936 0.00372315
532 1937 0.996023
533 623 0.333333
533 624 0.333334
533 625 0.333334
534 25 1
535 108 0.248528
535 217 0.502943
535 629 0.248529
536 25 3.22022e-05
536 26 0.249992
536 527 0.249992
536 620 0.249992
536 621 0.249992
537 630 1
538 631 0.25
538 632 0.25
538 633 0.25
538 634 0.25
539 635 0.5
539 636 0.5
540 25 0.333333
540 26 0.333333
540 637 0.333333
541 638 1
542 224 0.549779
542 931 0.450221
543 638 2.6806e-05
543 639 0.333324
543 640 0.333324
543 641 0.333324
544 642 1
545 163 0.999993
545 229 7.03214e-06
546 69 0.363752
546 643 0.363752
546 644 0.272496
547 163 0.00752796
547 644 0.992472
548 184 0.000197104
548 2094 0.999803
549 16 7.48018e-05
549 191 0.32388
549 1272 0.352184
549 2693 0.323861
550 184 0.200002
550 191 0.19999
550 285 0.200002
550 645 0.200002
550 646 0.200002
551 43 0.121878
551 263 0.125371
551 308 0.125127
551 647 0.125525
551 648 0.125525
551 649 0.125525
551 650 0.125525
551 651 0.125525
552 183 0.495597
552 184 0.504403
553 241 1
554 652 0.333331
554 653 0.666663
554 654 5.13938e-06
555 654 1
556 241 0.344369
556 655 0.327816
556 656 0.327816
557 657 1
558 689 1
559 27 2.03694e-05
559 52 0.0077256
559 308 0.258879
559 658 0.244458
559 732 0.488917
560 308 0.650661
560 1187 0.349339
561 659 0.25
561 660 0.25
561 661 0.25
561 662 0.25
562 663 0.250673
562 664 0.250673
562 665 0.250673
562 666 0.247981
563 224 0.227402
563 2648 0.515065
563 2649 0.257533
564 11 0.39681
564 667 0.60319
565 241 0.333333
565 668 0.333333
565 669 0.333333
566 670 0.331194
566 671 0.334394
566 672 0.334413
567 671 0.077103
567 675 0.922897
568 198 0.200004
568 771 0.400009
568 772 0.199982
568 1992 0.200004
569 674 0.0631539
569 675 0.936846
570 673 0.493161
570 674 0.506839
571 19 0.181071
571 675 0.272578
571 676 0.273175
571 677 0.273175
572 678 0.337017
572 679 0.337017
572 680 0.325966
573 229 0.0120394
573 680 0.501948
573 2445 0.486012
574 681 0.333333
574 682 0.333333
574 683 0.333333
575 1067 0.500031
575 1284 0.499969
576 140 0.63879
576 1126 0.36121
577 684 0.200518
577 685 0.200518
577 686 0.200518
577 687 0.197928
577 688 0.200518
578 163 0.615923
578 687 0.00795888
578 689 0.376118
579 48 0.200003
579 140 0.199988
579 690 0.200003
579 691 0.200003
579 692 0.200003
580 693 0.666631
580 694 5.35588e-05
580 2042 0.333315
581 43 0.997952
581 783 0.00204852
582 705 1
583 694 0.333193
583 695 0.333465
583 696 0.333342
584 694 1
585 559 0.333333
585 698 0.333333
585 699 0.333333
586 52 0.250001
586 223 0.250001
586 702 0.250001
586 703 0.249998
587 11 0.494981
587 704 0.505019
588 485 0.462157
588 705 0.0756857
588 706 0.462157
589 707 1
590 678 0.130939
590 708 0.20697
590 709 0.20697
590 710 0.20697
590 2006 0.0411792
590 2007 0.20697
591 118 0.25
591 712 0.25
591 713 0.25
591 714 0.25
592 715 0.5
592 716 0.5
593 717 0.0172663
593 718 0.505035
593 719 0.477698
594 719 0.0596131
594 720 0.940387
595 720 0.068085
595 721 0.465957
595 722 0.465957
596 11 0.33333
596 723 0.333335
596 724 0.333335
597 226 0.333333
597 725 0.333333
597 726 0.333333
598 727 0.333333
598 728 0.333333
598 729 0.333333
599 958 1
600 957 1.31549e-05
600 958 0.962183
600 959 0.0378039
601 730 1
602 43 0.000120674
602 1350 0.333293
602 1351 0.333293
602 1352 0.333293
603 730 3.01585e-05
603 731 0.47597
603 1139 0.0480301
603 1140 0.47597
604 733 0.333333
604 734 0.333333
604 735 0.333333
605 739 1
606 736 0.250219
606 737 0.250219
606 738 0.250219
606 739 0.249343
607 42 0.320953
607 345 0.320953
607 740 0.358095
608 739 0.000692785
608 740 0.227498
608 741 0.51454
608 1118 0.257269
609 124 0.302833
609 552 9.51105e-06
609 746 0.349439
609 1621 0.347718
610 226 0.499463
610 745 0.00352008
610 746 0.497017
611 226 1.79618e-05
611 744 0.334113
611 745 0.331759
611 747 0.33411
612 748 0.5
612 749 0.5
613 140 0.994058
613 750 0.00203661
613 751 0.000624716
613 752 0.00328041
614 92 0.32703
614 742 0.336485
614 743 0.336485
615 140 0.197435
615 750 0.267519
615 751 0.267619
615 752 0.267426
616 752 5.54153e-06
616 753 0.294375
616 1742 0.116867
616 2120 0.294376
616 2121 0.294376
617 314 0.49637
617 754 0.50363
618 4 0.939436
618 314 0.0518213
618 733 0.00862519
618 2756 0.000117096
619 755 0.325667
619 756 0.674333
620 243 0.332972
620 756 0.00108389
620 757 0.332972
620 758 0.332972
621 231 0.333333
621 759 0.333333
621 760 0.333333
622 11 0.000802986
622 16 0.396479
622 1775 0.301348
622 2689 0.30137
623 43 0.182308
623 673 0.163204
623 761 0.163622
623 762 0.327244
623 1941 0.163622
624 763 1
625 764 0.2
625 765 0.2
625 766 0.2
625 767 0.2
625 768 0.2
626 763 1
627 103 0.497798
627 769 0.502202
628 103 0.0122188
628 772 0.000108896
628 773 0.987672
629 241 0.324274
629 670 0.330072
629 774 0.342657
629 775 0.00299761
630 241 0.0262463
630 775 0.484949
630 776 0.488796
630 777 8.3275e-06
631 776 0.000898262
631 777 0.000114094
631 2008 0.98292
631 2009 0.0160676
632 777 1
633 11 0.248879
633 778 0.751121
634 11 0.316884
634 778 0.341488
634 779 0.341628
635 780 0.250022
635 781 0.250022
635 782 0.250022
635 783 0.249934
636 173 0.331601
636 784 0.33212
636 785 0.33212
636 786 0.00415918
637 173 0.000522878
637 663 0.334505
637 786 0.330391
637 787 0.334581
638 1281 1
639 112 0.252009
639 952 0.251922
639 1463 0.251119
639 1755 0.24415
639 2179 0.000800009
640 1742 0.335289
640 1744 0.332265
640 1887 0.332446
641 35 0.332977
641 184 0.000992726
641 663 7.61106e-05
641 788 0.332977
641 2415 0.332977
642 338 0.333333
642 1032 0.333333
642 1045 0.333333
643 790 1
644 789 0.333356
644 790 0.333288
644 791 0.333356
645 24 0.333333
645 792 0.333333
645 793 0.333333
646 797 1
647 794 0.33333
647 795 0.33333
647 796 0.33333
647 797 9.46997e-06
648 797 1
649 797 1
650 103 0.00163943
650 717 0.499079
650 798 0.499282
651 140 0.256957
651 241 0.22913
651 344 0.256957
651 799 0.256957
652 248 0.333333
652 2469 0.333333
652 2470 0.333333
653 331 0.966393
653 801 0.00148919
653 802 0.0321183
654 52 0.500002
654 804 0.499998
655 800 0.250254
655 801 0.250209
655 802 0.249283
655 803 0.250254
656 239 0.333333
656 805 0.333333
656 806 0.333333
657 102 0.25
657 371 0.25
657 402 0.25
657 2093 0.25
658 808 1
659 808 1
660 378 0.609427
660 1580 0.390573
661 807 0.724179
661 808 0.275821
662 807 1.29694e-05
662 808 0.108419
662 809 0.178314
662 810 0.178314
662 811 0.178314
662 812 0.178314
662 813 0.178314
663 152 0.500004
663 1589 0.499996
664 816 0.999927
664 817 7.32973e-05
665 817 0.333533
665 818 0.333557
665 819 0.33291
666 760 0.333333
666 814 0.333333
666 815 0.333333
667 43 0.000227213
667 819 0.00221286
667 820 0.99756
668 820 1
669 243 0.33331
669 820 5.64824e-05
669 821 0.333317
669 822 0.333317
670 243 7.78201e-06
670 823 0.499996
670 824 0.499996
671 241 0.333333
671 670 0.333333
671 825 0.333333
672 733 0.248154
672 952 0.751846
673 48 0.539998
673 826 0.460002
674 827 0.501677
674 828 0.498323
675 559 0.498334
675 828 0.0033318
675 829 0.498334
676 252 0.000445157
676 830 0.499777
676 2220 0.499778
677 318 0.261591
677 368 0.261591
677 551 0.261591
677 831 0.204926
677 2008 0.0103004
678 103 0.00214424
678 287 0.997591
678 670 0.000265236
679 831 0.0977238
679 832 0.451138
679 833 0.451138
680 1448 1
681 1463 0.75
681 2722 0.25
682 108 0.249997
682 2277 0.250001
682 2278 0.250001
682 2279 0.250001
683 11 0.110443
683 807 0.889433
683 834 0.000123618
684 11 1
685 217 0.805718
685 836 0.194282
686 11 0.0608388
686 217 0.156238
686 703 0.156284
686 724 0.156286
686 807 0.0015287
686 834 0.156264
686 835 0.156286
686 836 0.156275
687 173 0.249786
687 837 0.250077
687 838 0.250077
687 839 0.250061
688 69 0.0116781
688 103 0.484975
688 846 0.503347
689 16 0.115833
689 402 9.68588e-05
689 839 5.66239e-05
689 840 0.884014
690 402 0.499328
690 840 0.0012884
690 841 0.499383
691 842 1
692 645 0.214818
692 842 0.14073
692 843 0.214818
692 844 0.214818
692 845 0.214817
693 69 0.333332
693 846 0.333331
693 847 0.333337
694 331 0.5
694 851 0.5
695 68 1
696 31 0.249998
696 68 0.249986
696 849 0.250007
696 850 0.250008
697 322 0.1911
697 1320 0.8089
698 1297 0.955007
698 1298 0.0449925
699 65 0.339061
699 852 0.33047
699 853 0.33047
700 24 0.25
700 848 0.25
700 854 0.25
700 855 0.25
701 856 0.333379
701 857 0.333243
701 858 0.333379
702 859 0.999912
702 860 8.77785e-05
703 860 0.541635
703 878 0.458365
704 344 1
705 860 0.290339
705 861 0.354831
705 862 0.35483
706 184 0.370706
706 728 0.629294
707 35 0.333331
707 712 0.333334
707 863 0.333334
708 43 0.000170614
708 864 0.0096102
708 865 0.495137
708 866 0.495082
709 873 0.499825
709 2074 0.000409342
709 2075 0.499766
710 864 0.815007
710 866 0.184993
711 383 0.249998
711 384 0.25
711 963 0.250001
711 1699 0.250001
712 68 0.233433
712 867 0.239379
712 868 0.239378
712 869 0.234151
712 870 0.0536595
713 864 6.08463e-06
713 870 0.0445811
713 871 0.477827
713 872 0.477586
714 869 1
715 68 0.0351549
715 870 0.964845
716 873 0.333309
716 874 0.333345
716 875 0.333345
717 876 1
718 877 1
719 870 1
720 879 0.333333
720 880 0.333333
720 881 0.333333
721 882 0.5
721 883 0.5
722 884 0.25
722 885 0.25
722 886 0.25
722 887 0.25
723 24 0.500002
723 888 0.499998
724 287 0.333337
724 889 0.333331
724 890 0.333331
725 891 1
726 891 1
727 551 0.333333
727 892 0.333333
727 893 0.333333
728 894 0.5
728 895 0.5
729 936 0.5
729 1798 0.5
730 953 0.250022
730 1416 0.250022
730 1678 0.249935
730 1679 0.250022
731 518 0.333333
731 897 0.333333
731 898 0.333333
732 899 0.333333
732 900 0.333333
732 901 0.333333
733 241 0.0507406
733 670 0.311145
733 902 0.319057
733 903 0.159529
733 904 0.159529
734 778 0.992333
734 905 0.00766684
735 241 4.33327e-06
735 344 0.334488
735 905 0.331012
735 906 0.334496
736 48 0.200012
736 241 0.199952
736 907 0.200012
736 908 0.200012
736 909 0.200012
737 912 1
738 369 0.239468
738 910 0.281846
738 911 0.23935
738 912 0.239336
739 108 1
740 913 0.498132
740 914 0.501868
741 915 0.666666
741 916 0.333334
742 918 1
743 917 1
744 918 0.333083
744 919 0.333459
744 920 0.333458
745 4 0.328276
745 37 0.335862
745 1335 0.335862
746 4 0.487063
746 921 0.512937
747 102 0.520197
747 923 0.479803
748 922 0.333345
748 923 0.33331
748 924 0.333345
749 750 0.333333
749 925 0.333333
749 926 0.333333
750 108 1
751 4 0.0833573
751 102 0.916643
752 65 0.383358
752 1740 0.308321
752 1741 0.308321
753 102 0.955261
753 930 0.0447387
754 2250 1
755 688 0.250649
755 928 0.250649
755 929 0.250649
755 930 0.248052
756 927 0.333331
756 932 0.333334
756 933 0.333335
757 1344 0.00049903
757 1345 0.55387
757 1346 0.445631
758 108 0.190045
758 173 0.429913
758 1871 0.19
758 2283 0.190042
759 935 1
760 164 0.430834
760 298 0.480276
760 621 0.0888905
761 298 0.142218
761 934 0.142318
761 936 0.143093
761 937 0.143093
761 938 0.143093
761 939 0.143093
761 940 0.143093
762 941 0.333333
762 942 0.333333
762 943 0.333333
763 944 0.333353
763 945 0.333321
763 946 0.333325
764 138 0.249969
764 152 0.25001
764 663 0.25001
764 947 0.25001
765 945 1
766 946 1
767 92 0.54971
767 959 8.07942e-05
767 960 0.450209
768 765 0.496232
768 981 0.251884
768 982 0.251884
769 948 0.5
769 949 0.5
770 765 1
771 241 0.498975
771 2129 0.00199686
771 2130 0.498975
771 2131 5.23049e-05
772 950 0.99943
772 951 0.000569501
773 950 0.0147601
773 951 0.947004
773 952 0.038236
774 30 0.252548
774 952 0.242357
774 953 0.252548
774 954 0.252548
775 173 0.460481
775 956 0.078981
775 957 0.460538
776 1343 0.500225
776 1344 0.499775
777 42 0.333335
777 955 0.333336
777 961 0.333329
778 229 0.0128677
778 963 0.493566
778 964 0.493566
779 229 0.546452
779 945 0.453539
779 962 8.68566e-06
780 173 0.00945175
780 965 0.990548
781 103 0.000155171
781 962 0.499756
781 965 0.000309804
781 966 0.499779
782 103 0.00460175
782 967 0.331799
782 968 0.331799
782 969 0.331799
783 108 0.347007
783 970 0.347006
783 971 0.305986
784 1742 1
785 971 1
786 1987 1
787 973 0.841128
787 975 0.158872
788 972 0.250128
788 973 0.250095
788 974 0.250129
788 975 0.249648
789 103 0.378111
789 923 0.00067494
789 975 0.00117607
789 976 0.620038
790 3 0.0167673
790 19 7.19226e-05
790 976 0.000621412
790 977 0.982539
791 3 0.166688
791 11 0.166656
791 426 0.166664
791 970 0.166664
791 978 0.166664
791 1501 0.166664
792 42 0.431335
792 43 1.64515e-05
792 1967 0.568649
793 193 0.333297
793 979 0.333352
793 980 0.333351
794 1503 1
795 34 1
796 224 0.31783
796 983 0.31783
796 984 0.317831
796 985 0.046509
797 985 0.299178
797 986 0.350359
797 987 0.350463
798 11 0.516671
798 442 0.483329
799 127 0.996671
799 1421 0.00332934
800 1112 0.0211097
800 1141 0.978879
800 2074 1.09222e-05
801 513 0.111104
801 590 0.111098
801 988 0.111114
801 989 0.111114
801 990 0.111114
801 991 0.111114
801 992 0.111114
801 993 0.111114
801 994 0.111114
802 997 1
803 1420 1
804 995 0.250042
804 996 0.250042
804 997 0.249874
804 998 0.250042
805 163 0.49266
805 2482 0.507289
805 2483 5.09558e-05
806 1003 0.991819
806 1004 0.00818065
807 16 0.00541628
807 87 7.79725e-05
807 1001 0.497233
807 1002 0.497225
807 1003 4.68935e-05
808 224 0.0180146
808 1003 0.488352
808 1004 0.493633
809 87 0.333341
809 689 0.333334
809 1010 0.333325
810 16 0.99684
810 1002 0.0031603
811 16 0.205456
811 204 0.260481
811 224 0.271794
811 1004 0.00178826
811 1005 0.260481
812 87 0.142835
812 108 0.142861
812 999 0.142861
812 1000 0.142861
812 1006 0.142861
812 1007 0.142861
812 1008 0.142861
813 87 0.157383
813 1009 0.464929
813 1010 0.377688
814 87 0.354906
814 1010 0.128335
814 1011 0.516758
815 1011 5.18816e-05
815 1012 0.00128759
815 2529 0.998661
816 1406 0.630828
816 1407 0.369172
817 1009 2.46702e-05
817 1012 0.333268
817 1013 0.333353
817 1014 0.333353
818 402 0.249991
818 1015 0.250003
818 1016 0.250003
818 1017 0.250003
819 1018 0.333333
819 1019 0.333333
819 1020 0.333333
820 1021 0.305796
820 1022 0.305796
820 1023 0.304039
820 1024 0.0843689
821 231 2.38262e-05
821 622 0.579607
821 1024 0.42037
822 1023 1
823 231 0.333146
823 622 0.000536018
823 1025 0.333159
823 1026 0.333159
824 184 0.000228145
824 1348 0.00561466
824 1733 0.496451
824 1737 0.497701
824 1916 5.39033e-06
825 108 0.332925
825 670 0.333428
825 2118 0.333647
826 670 0.33314
826 1027 0.33343
826 1028 0.33343
827 5 1
828 5 1
829 130 1
830 130 0.018774
830 1030 0.981226
831 130 0.329839
831 1029 0.330115
831 1030 0.329234
831 1031 0.0108113
832 108 0.507953
832 1031 0.491675
832 1032 0.000371944
833 1032 0.333171
833 1033 0.333415
833 1034 0.333415
834 177 0.265418
834 673 0.203768
834 1035 0.265426
834 1036 0.265388
835 16 1
836 1037 1
837 16 0.000479978
837 1037 0.99952
838 26 1
839 385 0.499732
839 1037 0.0005341
839 1038 0.499734
840 1036 1
841 1039 0.333333
841 1040 0.333333
841 1041 0.333333
842 103 0.003485
842 1042 0.332172
842 1043 0.332172
842 1044 0.332172
843 43 0.173135
843 308 0.00268106
843 647 0.824184
844 1112 1
845 1112 0.699185
845 1139 0.300815
846 348 0.250007
846 1046 0.250007
846 1047 0.250007
846 1048 0.24998
847 1048 3.62762e-05
847 1049 0.335169
847 1050 0.664795
848 1050 0.993285
848 1053 0.0067149
849 1053 0.333051
849 1054 0.333475
849 1055 0.333474
850 902 0.333333
850 1057 0.333333
850 1058 0.333333
851 928 1
852 928 5.33904e-05
852 1059 0.48208
852 1060 0.48208
852 1061 0.0357867
853 1061 0.481183
853 1062 0.518817
854 360 0.33313
854 1062 0.000609636
854 1063 0.33313
854 1064 0.33313
855 1065 0.333187
855 1066 0.333187
855 1067 0.333175
855 1068 0.000451146
856 298 0.232138
856 538 0.231987
856 1068 0.231824
856 1069 0.232138
856 1070 0.0719123
857 1070 0.421342
857 1071 0.578658
858 287 0.333296
858 385 0.333356
858 1947 0.333349
859 1071 0.997306
859 1072 0.00269427
860 1846 0.5
860 1847 0.5
861 532 0.333349
861 1072 0.333302
861 1073 0.333349
862 402 0.25
862 1074 0.25
862 1075 0.25
862 1076 0.25
863 92 0.00972121
863 1257 0.247571
863 1258 0.247571
863 1259 0.247571
863 1260 0.247567
864 402 0.332725
864 1078 0.333638
864 1079 0.333638
865 188 1
866 11 0.499975
866 2843 0.500025
867 1077 0.333329
867 1081 0.333336
867 1082 0.333336
868 92 0.161682
868 352 0.161876
868 485 0.161877
868 1083 0.161877
868 2473 0.0289508
868 2474 0.161877
868 2475 0.161861
869 27 0.0818316
869 914 0.918168
870 1084 1
871 331 0.0821962
871 382 0.19404
871 1085 0.723764
872 326 0.213972
872 331 0.577311
872 1722 0.208718
873 485 0.333333
873 1086 0.333333
873 1087 0.333333
874 322 1
875 68 0.333333
875 1088 0.333333
875 1089 0.333333
876 24 0.145688
876 717 0.168738
876 1090 0.168672
876 2194 0.0161273
876 2765 0.168669
876 2766 0.163433
876 2767 0.168672
877 1112 1
878 16 0.00449576
878 184 0.202628
878 1606 0.202205
878 1611 0.38805
878 2197 0.202621
879 102 0.333512
879 760 0.333581
879 2333 0.332907
880 1063 0.125
880 1091 0.125
880 1092 0.125
880 1093 0.125
880 1094 0.125
880 1095 0.125
880 1096 0.125
880 1097 0.125
881 1098 1
882 43 0.309564
882 1112 0.230145
882 1495 0.230146
882 1496 0.230146
883 1099 0.5
883 1100 0.5
884 148 1
885 1101 0.333333
885 1102 0.333333
885 1103 0.333333
886 1106 0.112488
886 1107 0.887512
887 507 0.257147
887 1086 0.257147
887 1104 0.257147
887 1105 0.22856
888 1105 0.108324
888 1106 0.853436
888 1107 0.0382402
889 173 0.949882
889 1106 0.0175579
889 1107 0.0325596
890 298 0.98674
890 538 8.22228e-05
890 1107 0.0128454
890 2270 0.000332272
891 430 0.249931
891 922 0.249931
891 1107 0.000277063
891 1108 0.249931
891 1109 0.249931
892 92 0.0284929
892 241 0.249796
892 1893 0.240576
892 1894 0.240576
892 2005 0.240559
893 92 0.496573
893 922 0.167808
893 1111 0.335616
893 2679 3.05012e-06
894 92 0.500623
894 1113 0.499377
895 1114 1
896 229 0.249935
896 1114 4.41477e-06
896 1115 0.25002
896 1116 0.25002
896 1117 0.25002
897 229 1
898 543 1
899 986 0.487402
899 1119 0.51259
899 1120 7.71789e-06
900 1122 0.500051
900 1123 0.499949
901 1124 1
902 1120 0.499939
902 1121 0.499954
902 1123 0.000106894
903 590 0.337204
903 1124 0.325591
903 1125 0.337204
904 1126 0.0117579
904 1128 0.494281
904 2389 0.493961
905 140 0.267588
905 1126 0.102493
905 1127 0.315025
905 1128 0.314894
906 1129 0.5
906 1130 0.5
907 1131 0.5
907 1132 0.5
908 1126 4.93625e-05
908 1133 0.999951
909 118 0.333033
909 570 0.333033
909 1134 0.333033
909 1135 0.000901417
910 92 0.0668983
910 398 0.0853702
910 670 0.338318
910 1135 0.509414
911 92 0.355642
911 1135 0.00353416
911 1136 0.364253
911 1137 0.276572
912 1137 0.991116
912 1138 0.0088842
913 1138 1
914 11 0.0573917
914 1142 0.942608
915 243 0.999976
915 877 2.39347e-05
916 1143 1
917 1143 0.370916
917 1144 0.629084
918 1145 0.5
918 1146 0.5
919 115 0.333333
919 1149 0.333333
919 1150 0.333333
920 224 0.0694134
920 1147 0.465293
920 1148 0.465293
921 1427 0.250024
921 1436 0.499952
921 2081 0.250024
922 552 0.250033
922 899 0.250033
922 900 0.249894
922 2071 0.250033
922 2072 7.50396e-06
923 1154 0.000883788
923 1155 0.999116
924 1151 0.250052
924 1152 0.250052
924 1153 0.250052
924 1154 0.249845
925 1155 0.289186
925 1156 0.710814
926 1155 0.00480245
926 1156 0.995198
927 680 0.267317
927 1156 0.198049
927 1157 0.267317
927 1158 0.267317
928 385 0.480196
928 401 0.519804
929 1169 1
930 1181 1
931 1086 0.500012
931 1159 0.499989
932 385 0.242495
932 1163 0.252502
932 1164 0.252502
932 1165 0.252502
933 19 0.00783102
933 92 0.103028
933 385 0.03376
933 1166 0.85538
934 24 0.333303
934 1166 9.03187e-05
934 1167 0.333303
934 1168 0.333303
935 87 0.250017
935 1347 0.250017
935 1348 0.24995
935 1349 0.250017
936 231 0.166667
936 984 0.166667
936 1170 0.166667
936 1171 0.166667
936 1172 0.166667
936 1173 0.166667
937 1142 0.00774976
937 1174 0.33075
937 1175 0.33075
937 2727 0.33075
938 11 8.42841e-05
938 102 0.330645
938 407 0.331639
938 1176 0.331639
938 1177 0.00599347
939 102 0.00281369
939 308 0.000101854
939 1177 0.997084
940 1067 0.392959
940 1177 2.91423e-05
940 1178 0.393058
940 1289 0.213953
941 645 0.25
941 1179 0.25
941 1180 0.25
941 1181 0.25
942 1182 0.500002
942 1183 0.499998
943 272 0.036641
943 1184 0.32128
943 1185 0.642079
944 1185 0.00149077
944 1186 0.998509
945 513 0.499638
945 1194 0.500362
946 325 0.333337
946 326 0.333337
946 1067 0.333326
947 152 1
948 69 0.333253
948 152 0.00023977
948 1181 0.333253
948 1192 0.333253
949 285 0.5
949 1195 0.5
950 173 0.554737
950 1188 0.445263
951 243 0.000100029
951 963 0.161305
951 1188 0.0320672
951 1189 0.161305
951 1190 0.161305
951 1191 0.161305
951 1196 0.161305
951 1197 0.161305
952 229 0.49371
952 2444 0.50629
953 1210 0.353659
953 1211 0.646313
953 1212 2.79289e-05
954 108 0.479714
954 1211 0.0413011
954 1298 0.239492
954 2443 0.239493
955 4 1
956 1202 0.99985
956 1204 0.000150454
957 1204 1
958 717 0.266844
958 1202 0.199648
958 1203 0.267417
958 1204 0.266091
959 1198 0.111111
959 1199 0.111111
959 1200 0.111111
959 1201 0.111111
959 1205 0.111111
959 1206 0.111111
959 1207 0.111111
959 1208 0.111111
959 1209 0.111111
960 173 0.333306
960 1046 0.000108847
960 1212 0.33328
960 1213 0.333306
961 243 0.293953
961 1218 0.353024
961 1219 0.353023
962 118 0.333209
962 369 0.33361
962 1220 0.333181
963 1046 0.560172
963 1047 0.439828
964 1046 1
965 243 0.333849
965 1512 0.333075
965 1513 0.333075
966 11 0.492687
966 2637 0.507313
967 1215 1
968 243 0.000179684
968 1047 0.0510886
968 1214 0.237219
968 1215 0.237075
968 1216 0.237219
968 1217 0.237219
969 1221 0.5
969 1222 0.5
970 65 1
971 1223 0.333333
971 1224 0.333333
971 1225 0.333333
972 569 0.333334
972 1110 0.333331
972 1226 0.333334
973 331 0.465002
973 952 0.534998
974 231 0.142953
974 344 0.14292
974 523 0.14233
974 1026 0.142948
974 1228 0.142953
974 1229 0.142944
974 1230 0.142953
975 331 0.171593
975 952 0.743505
975 1026 0.0018865
975 1229 0.0830159
976 92 0.0517801
976 229 0.499907
976 952 0.00565536
976 1227 0.442658
977 2333 0.00169508
977 2334 0.839316
977 2488 0.158989
978 102 0.480618
978 1231 0.480327
978 1232 0.0390554
979 645 0.342614
979 1232 0.314773
979 1233 0.342614
980 298 0.463679
980 1206 0.536321
981 1206 1
982 1234 0.5
982 1235 0.5
983 1236 1
984 1237 1
985 243 0.494433
985 1238 0.505567
986 1097 0.5
986 1239 0.5
987 1240 1
988 898 0.470483
988 1240 0.0590336
988 1241 0.470483
989 1242 0.5
989 1243 0.5
990 1244 1
991 231 0.5
991 1245 0.5
992 173 0.333333
992 502 0.333333
992 1246 0.333333
993 4 0.00198774
993 241 0.993679
993 1946 0.00433354
994 1250 1
995 596 0.25
995 1247 0.25
995 1248 0.25
995 1249 0.25
996 946 0.142857
996 1252 0.142857
996 1253 0.142857
996 1254 0.285715
996 1255 0.142857
996 1256 0.142856
997 596 0.499759
997 857 0.000482399
997 1256 0.499759
998 1097 1
999 24 0.66667
999 1251 0.33333
1000 24 3.62563e-05
1000 92 0.00042901
1000 1307 0.999535
1001 65 1
1002 65 0.108254
1002 1262 0.445873
1002 1263 0.445873
1003 1264 1
1004 1265 0.666289
1004 1266 0.333144
1004 1558 0.000566237
1005 65 1
1006 263 0.0679062
1006 510 0.932094
1007 1225 0.333333
1007 1267 0.333333
1007 1268 0.333333
1008 1269 0.5
1008 1270 0.5
1009 645 0.333333
1009 1271 0.333333
1009 1272 0.333333
1010 1274 0.00275052
1010 1995 0.997249
1011 1275 0.333333
1011 1276 0.333333
1011 1277 0.333333
1012 579 0.25
1012 1230 0.25
1012 1279 0.25
1012 1280 0.25
1013 19 0.00297394
1013 294 0.50126
1013 1348 0.495605
1013 1733 0.000160907
1014 1278 1
1015 34 0.251089
1015 92 0.246696
1015 1282 0.251107
1015 1283 0.251107
1016 1284 1
1017 34 0.738408
1017 1067 0.261592
1018 31 0.142829
1018 34 0.142778
1018 907 0.142879
1018 1285 0.142879
1018 1286 0.142879
1018 1287 0.142879
1018 1288 0.142879
1019 1290 0.333333
1019 1291 0.333334
1019 1292 0.333333
1020 1293 0.5
1020 1294 0.5
1021 512 0.333199
1021 778 0.000402344
1021 1295 0.333199
1021 1296 0.333199
1022 1298 1
1023 108 0.333312
1023 1299 0.333344
1023 1300 0.333344
1024 166 0.2
1024 559 0.2
1024 1301 0.2
1024 1302 0.2
1024 1303 0.2
1025 24 0.146511
1025 733 0.853489
1026 1304 0.333334
1026 1305 0.333332
1026 1306 0.333334
1027 184 0.461768
1027 2679 0.000928875
1027 2680 0.537303
1028 1307 6.61166e-06
1028 1308 0.333381
1028 1309 0.333381
1028 1310 0.333231
1029 11 0.498777
1029 1310 0.00022743
1029 1311 0.500995
1030 622 0.498586
1030 1311 0.00282893
1030 1312 0.498586
1031 1313 1
1032 590 0.357075
1032 1314 0.357075
1032 1315 0.285849
1033 1316 1
1034 1313 0.000154984
1034 1315 0.999744
1034 1316 0.000101326
1035 31 0.257884
1035 1041 0.257884
1035 1316 0.226349
1035 1317 0.257884
1036 918 0.000631657
1036 1318 0.910533
1036 1319 0.0888351
1037 108 0.000133258
1037 1318 0.00177988
1037 1319 0.998087
1038 167 0.489648
1038 1321 0.510352
1039 1320 0.101344
1039 1321 0.439983
1039 1322 0.458664
1039 1323 9.46066e-06
1040 1358 0.556761
1040 1359 0.443239
1041 612 0.333333
1041 2191 0.333333
1041 2192 0.333333
1042 1323 1
1043 876 0.000664053
1043 1183 0.499645
1043 1324 0.499691
1044 173 0.252413
1044 1325 0.252413
1044 1326 0.252413
1044 1327 0.242761
1045 272 0.464458
1045 1327 0.0197251
1045 1328 0.515817
1046 65 0.333257
1046 1331 0.333194
1046 1332 0.333257
1046 1333 0.00029234
1047 92 0.249161
1047 612 0.25028
1047 1329 0.250279
1047 1330 0.25028
1048 11 0.31156
1048 1333 0.344071
1048 1334 0.344369
1049 1336 0.333333
1049 1337 0.333333
1049 1338 0.333333
1050 1334 1
1051 338 1
1052 11 1
1053 1313 0.333333
1053 1339 0.333334
1053 1340 0.333334
1054 268 1
1055 1341 0.5
1055 1342 0.5
1056 130 0.149515
1056 1346 0.850485
1057 1348 1
1058 1848 1
1059 43 0.482397
1059 263 0.258798
1059 2579 0.258805
1060 167 0.2
1060 294 0.2
1060 951 0.2
1060 1353 0.2
1060 1354 0.2
1061 4 0.338717
1061 1198 0.347621
1061 1355 0.313662
1062 65 0.249536
1062 243 0.247773
1062 1355 0.00141399
1062 1356 0.250638
1062 1357 0.250638
1063 1355 0.00325646
1063 1359 0.168815
1063 2500 0.827928
1064 43 0.00176714
1064 263 0.00199399
1064 331 0.995957
1064 621 0.000282067
1065 338 1
1066 338 0.249961
1066 485 0.250013
1066 1360 0.250013
1066 1361 0.250013
1067 622 0.166667
1067 765 0.166667
1067 952 0.166663
1067 1362 0.166667
1067 1363 0.166667
1067 1364 0.166667
1068 263 0.333323
1068 1365 0.166558
1068 1366 0.333415
1068 2704 0.166703
1069 229 0.519242
1069 442 0.0290219
1069 1372 0.451736
1070 1075 0.322163
1070 1367 0.322163
1070 1368 0.322163
1070 1369 0.0335119
1071 1369 1
1072 344 0.196669
1072 1370 0.803331
1073 38 0.50106
1073 1370 0.49894
1074 43 0.0812652
1074 267 0.306144
1074 344 0.305949
1074 1370 0.00049819
1074 1371 0.306144
1075 1348 0.333333
1075 1373 0.333333
1075 1374 0.333333
1076 510 3.81349e-05
1076 1697 1.71259e-05
1076 2072 0.999945
1077 231 0.333333
1077 579 0.333333
1077 1375 0.333333
1078 103 0.961062
1078 670 0.0389385
1079 1376 0.333333
1079 1377 0.333333
1079 1378 0.333333
1080 103 0.998935
1080 272 0.000183362
1080 1380 0.00084817
1080 1390 3.30574e-05
1081 250 0.25
1081 679 0.25
1081 1382 0.249999
1081 1383 0.25
1082 1384 0.415893
1082 1385 0.415893
1082 1386 0.168213
1083 1038 0.000884263
1083 1386 0.0294372
1083 1387 0.969679
1084 728 0.333221
1084 1388 0.33339
1084 1389 0.333389
1085 92 0.249901
1085 1755 0.250033
1085 1820 0.250033
1085 1821 0.250033
1086 92 0.494568
1086 1390 0.505432
1087 102 0.166667
1087 798 0.166667
1087 951 0.166667
1087 1391 0.166667
1087 1392 0.166667
1087 1393 0.166667
1088 19 0.0514301
1088 1394 0.94857
1089 19 6.96813e-06
1089 1394 0.475675
1089 1395 0.524318
1090 52 0.333333
1090 485 0.333333
1090 1396 0.333333
1091 173 0.376797
1091 1397 0.311602
1091 1398 0.311602
1092 173 0.333306
1092 1399 0.333347
1092 1400 0.333347
1093 1230 0.5
1093 1401 0.5
1094 331 0.249962
1094 1403 0.250012
1094 1404 0.250013
1094 1405 0.250013
1095 1407 0.171768
1095 1408 0.414116
1095 1409 0.414116
1096 268 0.25
1096 285 0.25
1096 1410 0.25
1096 1411 0.25
1097 670 1
1098 494 0.631161
1098 670 0.261911
1098 1414 0.106929
1099 494 0.142845
1099 670 0.142751
1099 1413 0.142881
1099 1414 0.142878
1099 1415 0.142881
1099 1416 0.142881
1099 1417 0.142881
1100 24 0.2
1100 717 0.2
1100 997 0.2
1100 1418 0.2
1100 1419 0.2
1101 1420 1
1102 127 0.0854002
1102 1421 0.909715
1102 1422 0.00488496
1103 659 0.333929
1103 1422 0.332142
1103 1423 0.333929
1104 558 0.25
1104 670 0.25
1104 1424 0.25
1104 1425 0.25
1105 385 0.333321
1105 1426 0.333321
1105 1427 0.333321
1105 1428 3.58073e-05
1106 579 0.33104
1106 1428 0.330999
1106 1429 0.337961
1107 184 0.333333
1107 688 0.333333
1107 1430 0.333333
1108 1203 0.00281196
1108 2103 0.997188
1109 48 0.333333
1109 1431 0.333333
1109 1432 0.333333
1110 68 0.333333
1110 1434 0.333333
1110 1435 0.333333
1111 26 0.5
1111 1203 0.5
1112 173 0.249099
1112 510 0.249099
1112 956 0.249087
1112 1437 0.249099
1112 1438 0.003617
1113 27 0.00282881
1113 236 0.200016
1113 1438 0.197108
1113 1772 0.200016
1113 2516 0.200016
1113 2517 0.200016
1114 1441 1
1115 43 0.249771
1115 907 0.250076
1115 1439 0.250076
1115 1440 0.250076
1116 1161 0.459502
1116 1441 0.53986
1116 1442 0.000638591
1117 1161 0.988999
1117 1442 0.0110014
1118 1161 0.0457096
1118 1442 0.744649
1118 1443 0.185326
1118 1646 0.0243158
1119 1442 6.73865e-06
1119 1443 0.200402
1119 1444 0.26653
1119 1445 0.26653
1119 1446 0.26653
1120 209 0.142857
1120 1447 0.142857
1120 2192 0.142857
1120 2215 0.142857
1120 2216 0.142857
1120 2217 0.142857
1120 2218 0.142857
1121 480 0.2
1121 559 0.2
1121 1449 0.2
1121 1450 0.2
1121 1451 0.2
1122 4 0.218632
1122 92 0.382902
1122 1517 0.398466
1123 92 0.00030888
1123 140 0.33323
1123 184 0.33323
1123 1452 0.333231
1124 1432 0.323752
1124 1453 0.323751
1124 1454 0.323752
1124 1455 0.0212794
1124 1456 0.00746556
1125 1455 0.488832
1125 1456 0.511157
1125 1457 1.081e-05
1126 184 7.63718e-05
1126 1457 0.999924
1127 68 0.333334
1127 1458 0.333334
1127 1459 0.333333
1128 1460 0.199999
1128 1461 0.2
1128 1462 0.2
1128 1463 0.2
1128 1464 0.2
1129 963 0.389347
1129 1466 0.610653
1130 963 0.985111
1130 1467 0.0148893
1131 970 0.000585557
1131 1469 0.332551
1131 1470 0.333801
1131 1471 0.333062
1132 1467 0.498627
1132 1468 0.501373
1133 310 0.993738
1133 1469 0.00383455
1133 1470 0.000114264
1133 1471 0.00231294
1134 1110 0.5
1134 1494 0.5
1135 970 1
1136 523 0.499101
1136 1472 0.500899
1137 87 0.2
1137 355 0.2
1137 551 0.2
1137 1465 0.2
1137 1473 0.2
1138 1047 0.500012
1138 1474 0.499988
1139 1474 2.34801e-05
1139 1475 0.505705
1139 1476 0.494272
1140 1476 0.144915
1140 1477 0.855085
1141 1477 0.464265
1141 1478 0.535735
1142 183 0.333319
1142 1479 0.33334
1142 1480 0.33334
1143 183 6.22855e-05
1143 184 0.999938
1144 2635 1
1145 1481 0.273244
1145 1482 0.273244
1145 1483 0.273244
1145 1484 0.180269
1146 224 0.314558
1146 985 0.157927
1146 1484 0.053736
1146 1705 0.157927
1146 1706 0.157927
1146 1782 0.157927
1147 1485 1
1148 43 0.372475
1148 69 0.366918
1148 1485 0.260607
1149 1485 1
1150 728 0.168071
1150 1486 0.168092
1150 1487 0.168092
1150 1488 0.168092
1150 1489 0.168092
1150 1490 0.159559
1151 1490 1
1152 1491 0.333333
1152 1492 0.333333
1152 1493 0.333333
1153 43 0.514465
1153 1402 0.485535
1154 285 0.333334
1154 1985 0.333333
1154 2003 0.333334
1155 1497 0.333333
1155 1498 0.333333
1155 1499 0.333333
1156 803 0.31704
1156 1500 0.68296
1157 43 0.00108686
1157 803 0.998758
1157 2612 0.000155499
1158 246 0.333334
1158 1504 0.333332
1158 1505 0.333334
1159 224 1
1160 1038 0.249829
1160 1507 0.250057
1160 1508 0.250057
1160 1509 0.250056
1161 224 0.465672
1161 480 0.267164
1161 1510 0.267164
1162 241 0.474582
1162 1502 0.500034
1162 1503 0.0253839
1163 1511 1
1164 645 0.2
1164 1291 0.2
1164 1514 0.2
1164 1515 0.2
1164 1516 0.2
1165 43 0.493912
1165 673 7.20633e-05
1165 1518 0.506016
1166 68 0.245185
1166 102 0.245213
1166 923 0.264423
1166 2464 0.245179
1167 285 2.31438e-05
1167 1520 0.999572
1167 1521 0.000404407
1168 1521 0.333243
1168 1522 0.333378
1168 1523 0.333378
1169 956 0.5
1169 1524 0.5
1170 152 0.146615
1170 369 0.146367
1170 910 0.120584
1170 912 0.146591
1170 1525 0.146615
1170 1526 0.146615
1170 1527 0.146615
1171 241 0.197615
1171 649 0.200596
1171 733 0.200597
1171 1528 0.200596
1171 1529 0.200597
1172 898 0.333333
1172 1194 0.333333
1172 1530 0.333333
1173 92 1
1174 765 0.74038
1174 981 0.259579
1174 1987 4.07594e-05
1175 173 4.24401e-05
1175 1100 0.999958
1176 1100 0.0720098
1176 1531 0.463995
1176 1532 0.463995
1177 266 0.25
1177 267 0.249999
1177 1533 0.25
1177 1534 0.25
1178 1539 1
1179 1537 0.33341
1179 1538 0.66659
1180 1538 0.000706062
1180 1539 0.999294
1181 1372 1
1182 1542 0.321027
1182 1543 0.678973
1183 1372 0.332942
1183 1540 0.333529
1183 1541 0.333529
1184 451 0.500008
1184 1542 0.499992
1185 115 0.0716608
1185 1886 0.761632
1185 1887 0.000815695
1185 1888 0.165891
1186 1561 1
1187 385 0.249998
1187 1544 0.250001
1187 1545 0.250001
1187 1546 0.250001
1188 2398 1
1189 1547 0.500151
1189 1548 0.49978
1189 1549 6.90928e-05
1190 1548 0.00939166
1190 1549 0.990608
1191 1549 0.31541
1191 1550 0.342295
1191 1551 0.342295
1192 1552 1
1193 1552 0.564838
1193 1553 0.435162
1194 285 0.346693
1194 1348 0.346693
1194 1553 0.306478
1194 1554 0.000135014
1195 956 0.250024
1195 1554 0.249927
1195 1555 0.250024
1195 1556 0.250024
1196 967 0.5
1196 1557 0.5
1197 1558 0.332955
1197 1559 0.333522
1197 1560 0.333522
1198 470 1
1199 470 1
1200 470 0.454373
1200 1561 0.545627
1201 62 0.326829
1201 87 0.326829
1201 1561 0.0195265
1201 1562 0.326816
1202 385 0.333329
1202 1562 1.3764e-05
1202 1563 0.333329
1202 1564 0.333329
1203 224 0.142857
1203 513 0.142857
1203 1229 0.142857
1203 1316 0.142857
1203 1566 0.142857
1203 1567 0.142857
1203 1568 0.142857
1204 1569 1
1205 1569 0.483896
1205 1570 0.516104
1206 224 1
1207 76 0.250001
1207 102 0.249996
1207 1571 0.250001
1207 1572 0.250001
1208 1573 1
1209 1573 0.0126944
1209 1574 0.987306
1210 285 0.250001
1210 837 0.250001
1210 956 0.249996
1210 1575 0.250001
1211 787 0.333334
1211 1576 0.333334
1211 1577 0.333333
1212 645 0.25
1212 1452 0.25
1212 1565 0.25
1212 1578 0.25
1213 37 0.00667719
1213 112 0.254092
1213 843 0.254093
1213 1579 0.254093
1213 1580 0.231045
1214 378 1
1215 378 0.255483
1215 1581 0.372258
1215 1582 0.372258
1216 1587 0.5
1216 1588 0.5
1217 1583 0.25
1217 1584 0.25
1217 1585 0.25
1217 1586 0.25
1218 558 0.5
1218 1590 0.5
1219 1591 1
1220 1592 1
1221 1255 0.333333
1221 1593 0.333333
1221 1594 0.333333
1222 112 0.164642
1222 173 0.835358
1223 1597 1
1224 173 0.109006
1224 1595 0.442521
1224 1596 0.442522
1224 1597 0.00595125
1225 183 0.5
1225 1598 0.5
1226 1589 1
1227 1599 0.5
1227 1600 0.5
1228 1601 0.333333
1228 1602 0.333333
1228 1603 0.333333
1229 224 0.327883
1229 480 0.335322
1229 1607 0.336796
1230 1604 0.142857
1230 1605 0.142857
1230 1606 0.142857
1230 1607 0.142857
1230 1608 0.142857
1230 1609 0.142857
1230 1610 0.142857
1231 1607 1
1232 1607 0.545542
1232 1611 0.0188497
1232 1612 0.435608
1233 1612 0.999643
1233 1614 0.000357282
1234 1607 1
1235 1607 0.981802
1235 1613 0.0181981
1236 1613 0.33236
1236 1614 0.333812
1236 1615 0.333828
1237 1607 0.333327
1237 1616 0.333336
1237 1617 0.333336
1238 16 1
1239 1618 0.333333
1239 1619 0.333333
1239 1620 0.333333
1240 124 0.0412534
1240 552 0.319577
1240 1181 0.319586
1240 1607 0.319584
1241 1622 0.5
1241 1623 0.5
1242 1624 1
1243 1624 1
1244 1624 0.00469408
1244 1625 0.331768
1244 1626 0.331769
1244 1627 0.331769
1245 35 0.25
1245 650 0.25
1245 663 0.249999
1245 1628 0.25
1246 1630 0.333333
1246 1631 0.333333
1246 1632 0.333333
1247 48 0.248825
1247 485 0.250392
1247 1633 0.250392
1247 1634 0.250392
1248 48 1
1249 62 1
1250 331 0.333329
1250 1635 0.333335
1250 1636 0.333335
1251 510 0.333333
1251 1637 0.333333
1251 1638 0.333333
1252 112 0.25
1252 1639 0.25
1252 1640 0.25
1252 1641 0.25
1253 1181 0.333335
1253 1229 0.33333
1253 1643 0.333335
1254 140 0.333333
1254 1644 0.333333
1254 1645 0.333333
1255 243 1
1256 1646 1
1257 1646 1
1258 617 0.166667
1258 893 0.166667
1258 1611 0.166667
1258 1647 0.166667
1258 1648 0.166667
1258 1649 0.166667
1259 552 1
1260 124 0.2
1260 1650 0.2
1260 1651 0.2
1260 1652 0.2
1260 1653 0.2
1261 1438 0.999981
1261 2526 1.9125e-05
1262 108 0.472847
1262 956 0.00286565
1262 1656 0.524287
1263 108 0.267186
1263 1926 0.244272
1263 2659 0.244271
1263 2660 0.244271
1264 62 0.0766819
1264 108 0.0019838
1264 221 0.460667
1264 1657 0.460667
1265 728 7.7936e-05
1265 1658 0.249979
1265 1659 0.249979
1265 2197 5.62095e-06
1265 2200 0.249979
1265 2201 0.249979
1266 1660 0.483007
1266 1661 0.47849
1266 1662 0.0385029
1267 1662 1
1268 25 9.00522e-06
1268 1661 0.00618657
1268 1662 0.332205
1268 1663 0.6616
1269 1128 0.333282
1269 1664 0.333359
1269 1665 0.333359
1270 224 0.318953
1270 1666 0.340524
1270 1667 0.340524
1271 1668 0.5
1271 1669 0.5
1272 137 1
1273 1672 1
1274 1670 0.333676
1274 1671 0.333677
1274 1672 0.332647
1275 137 1
1276 1673 0.5
1276 1674 0.5
1277 16 0.000946762
1277 118 9.46863e-06
1277 1675 0.499522
1277 1676 0.499522
1278 118 0.333331
1278 1172 0.166667
1278 1677 0.333334
1278 1827 0.166667
1279 187 5.7989e-05
1279 1569 0.999942
1280 43 0.215645
1280 298 0.391985
1280 1680 0.39237
1281 1681 0.250015
1281 1682 0.250015
1281 1683 0.250015
1281 1684 0.249955
1282 24 0.846851
1282 2765 9.53463e-05
1282 2766 0.153053
1283 1017 0.25
1283 1410 0.25
1283 1685 0.25
1283 1686 0.25
1284 1688 1
1285 289 0.333333
1285 1247 0.333333
1285 1687 0.333333
1286 92 0.333022
1286 1689 0.333489
1286 1690 0.333489
1287 1691 0.764246
1287 1692 0.235754
1288 1692 1
1289 16 0.476223
1289 501 0.00221035
1289 1693 0.521567
1290 502 0.00514543
1290 1530 0.497427
1290 1694 0.497427
1291 62 0.331614
1291 285 0.00413202
1291 561 0.332015
1291 1695 0.332239
1292 285 0.330561
1292 1183 0.334716
1292 1696 0.334724
1293 554 0.25003
1293 1399 0.25003
1293 1592 0.249913
1293 1697 0.250027
1294 4 0.99868
1294 285 0.00132022
1295 152 0.199331
1295 510 0.202677
1295 1700 0.19933
1295 1701 0.199331
1295 1702 0.199331
1296 740 0.333336
1296 1703 0.333336
1296 1704 0.333329
1297 263 0.999399
1297 510 0.000579128
1297 1704 2.21555e-05
1298 2178 1
1299 62 0.166628
1299 92 0.166664
1299 1707 0.166677
1299 1708 0.333354
1299 2713 0.166677
1300 118 0.000968597
1300 2515 0.999031
1301 224 0.333308
1301 1709 0.333346
1301 1710 0.333346
1302 1711 1
1303 1829 0.997666
1303 1830 0.00233446
1304 1099 0.497452
1304 2301 0.502548
1305 869 0.00231716
1305 1712 0.997683
1306 140 3.04366e-05
1306 869 0.250456
1306 1712 0.248592
1306 1713 0.250461
1306 1714 0.25046
1307 11 0.499995
1307 1715 0.500005
1308 1716 1
1309 612 0.250003
1309 1086 0.249991
1309 1717 0.250003
1309 1718 0.250003
1310 130 0.142857
1310 226 0.142857
1310 294 0.142857
1310 985 0.142857
1310 1748 0.142857
1310 1749 0.142857
1310 1750 0.142857
1311 331 0.0128217
1311 559 0.493698
1311 985 0.493481
1312 52 0.166665
1312 331 0.166673
1312 407 0.166665
1312 1722 0.166665
1312 1723 0.166665
1312 1724 0.166665
1313 43 0.310094
1313 1725 0.344953
1313 1726 0.344953
1314 140 0.333383
1314 1727 0.333566
1314 1728 0.333051
1315 140 0.975303
1315 398 0.0246972
1316 1728 0.00153994
1316 1729 0.99846
1317 2285 0.332715
1317 2286 0.333643
1317 2287 0.333643
1318 717 0.333245
1318 1432 0.333376
1318 1729 3.46581e-06
1318 1730 0.333376
1319 1719 0.2
1319 1720 0.2
1319 1721 0.2
1319 1731 0.2
1319 1732 0.2
1320 87 0.333333
1320 1734 0.333333
1320 1735 0.333333
1321 1738 0.499976
1321 1739 0.500024
1322 1738 0.87931
1322 1739 0.12069
1323 952 0.44991
1323 1463 0.55009
1324 945 0.250537
1324 1742 0.248307
1324 1743 0.250578
1324 1744 0.250578
1325 736 1
1326 294 0.25
1326 327 0.25
1326 1745 0.25
1326 1746 0.25
1327 559 0.249994
1327 952 0.25
1327 1720 0.250003
1327 1747 0.250003
1328 119 0.329388
1328 543 0.0118355
1328 1751 0.329388
1328 1752 0.329388
1329 263 0.280451
1329 328 0.280451
1329 543 0.158648
1329 1753 0.280451
1330 1754 0.529396
1330 1755 0.470604
1331 35 0.333333
1331 380 0.333333
1331 1756 0.333333
1332 1757 1
1333 173 0.273516
1333 190 0.179444
1333 1758 0.27352
1333 1759 0.27352
1334 30 0.333331
1334 1760 0.333335
1334 1761 0.333335
1335 30 2.64197e-06
1335 1592 0.249999
1335 1762 0.25
1335 1763 0.25
1335 1764 0.249999
1336 42 0.930577
1336 43 0.0686951
1336 108 0.000728054
1337 1765 1
1338 1768 1
1339 3 0.017744
1339 510 0.00990916
1339 1769 0.972347
1340 510 0.0469453
1340 1772 0.953055
1341 34 0.490446
1341 1772 0.0191073
1341 1773 0.490446
1342 11 1
1343 11 0.234752
1343 92 0.0615379
1343 1332 0.234571
1343 1780 0.234571
1343 1781 0.234569
1344 4 1
1345 92 1
1346 68 0.2
1346 1775 0.2
1346 1776 0.2
1346 1777 0.2
1346 1778 0.2
1347 92 1
1348 285 0.249764
1348 673 0.250069
1348 1742 0.250083
1348 1779 0.250083
1349 967 1
1350 62 0.917647
1350 248 1.30853e-05
1350 1843 4.27697e-05
1350 2345 0.0822969
1351 967 0.427514
1351 1783 0.572486
1352 140 0.333333
1352 382 0.333333
1352 1784 0.333333
1353 1785 0.500238
1353 1786 0.499762
1354 1786 0.000476067
1354 1787 0.499762
1354 1788 0.499762
1355 1075 0.250021
1355 2349 0.249936
1355 2350 0.250021
1355 2351 0.250021
1356 19 1
1357 1790 0.142857
1357 1791 0.142857
1357 1792 0.142857
1357 1793 0.142857
1357 1794 0.142857
1357 1795 0.142857
1357 1796 0.142857
1358 1755 0.0303255
1358 2178 0.000326795
1358 2179 0.969348
1359 1799 0.333333
1359 1800 0.333333
1359 1801 0.333333
1360 4 0.235657
1360 31 0.237735
1360 34 0.051095
1360 447 0.237776
1360 673 0.237738
1361 1775 2.37496e-05
1361 1802 0.333325
1361 1803 0.333325
1361 2690 0.333325
1362 4 0.235352
1362 327 0.254883
1362 622 0.254883
1362 1804 0.254883
1363 184 0.382628
1363 1801 0.308686
1363 1805 0.308686
1364 516 5.06737e-06
1364 952 0.250404
1364 1372 0.248773
1364 1806 0.250409
1364 1807 0.250409
1365 344 0.251626
1365 1183 0.244978
1365 1942 0.251698
1365 1943 0.251698
1366 1790 0.5
1366 1808 0.5
1367 1183 0.410702
1367 1573 0.169715
1367 1809 0.419584
1368 1573 1
1369 198 0.333329
1369 1100 0.333329
1369 1573 1.41851e-05
1369 1810 0.333329
1370 344 0.333326
1370 1811 0.333337
1370 1812 0.333337
1371 152 0.333089
1371 173 0.333424
1371 1813 0.333486
1372 1814 0.166691
1372 1815 0.166546
1372 1816 0.166691
1372 1817 0.166691
1372 1818 0.166691
1372 1819 0.166691
1373 92 0.467853
1373 1892 0.531578
1373 2822 0.00056909
1374 152 0.500297
1374 2231 0.499703
1375 1815 1
1376 134 0.166667
1376 1822 0.166667
1376 1823 0.166667
1376 1824 0.166667
1376 1825 0.166667
1376 1826 0.166667
1377 485 1
1378 92 0.00194515
1378 1830 0.498443
1378 1831 0.499612
1379 163 0.326036
1379 688 0.33693
1379 1832 0.337034
1380 1722 1
1381 218 0.494713
1381 1159 0.494713
1381 1722 0.0105736
1382 224 0.33283
1382 1722 0.00150698
1382 1833 0.332831
1382 1834 0.332831
1383 263 0.250004
1383 331 0.249987
1383 480 0.250004
1383 1835 0.250004
1384 1837 0.406601
1384 1838 0.593399
1385 1841 1
1386 354 0.125027
1386 1836 0.125027
1386 1837 0.124962
1386 1838 0.124932
1386 1839 0.125026
1386 1840 0.125027
1386 1841 0.124973
1386 1842 0.125027
1387 145 0.338938
1387 434 0.322125
1387 1844 0.338938
1388 1742 0.5
1388 1845 0.5
1389 407 7.04726e-05
1389 1848 0.499965
1389 1849 0.499965
1390 2364 0.5
1390 2578 0.5
1391 131 0.166749
1391 148 0.166749
1391 190 0.166219
1391 331 3.55695e-05
1391 351 0.166749
1391 1110 0.166749
1391 1850 0.166749
1392 69 0.33328
1392 331 0.000160971
1392 1584 0.33328
1392 1851 0.33328
1393 43 0.000555663
1393 62 0.0045865
1393 1853 0.994858
1394 275 0.333333
1394 290 0.333333
1394 1854 0.333333
1395 252 0.200005
1395 1130 0.200005
1395 1829 0.19998
1395 1855 0.200005
1395 1856 0.200005
1396 1858 0.5
1396 1859 0.5
1397 1860 0.500279
1397 1861 0.499721
1398 4 0.36846
1398 164 0.315771
1398 298 0.315769
1399 163 0.998621
1399 763 0.000532325
1399 1861 0.000846762
1400 763 0.247966
1400 1862 0.250678
1400 1863 0.250678
1400 1864 0.250678
1401 231 0.25
1401 1230 0.25
1401 1266 0.25
1401 1865 0.25
1402 663 0.493462
1402 1867 0.493462
1402 1868 0.0130764
1403 1868 1
1404 65 0.00557885
1404 1936 0.994421
1405 559 0.997833
1405 1868 0.00216689
1406 559 0.243499
1406 1130 0.378251
1406 1869 0.378251
1407 890 0.25
1407 1816 0.25
1407 1866 0.25
1407 1870 0.25
1408 327 0.12504
1408 331 0.124764
1408 485 0.124998
1408 1751 0.12504
1408 1873 0.12504
1408 1874 0.125039
1408 1875 0.12504
1408 1876 0.12504
1409 224 0.489219
1409 1877 0.510781
1410 164 0.583181
1410 764 0.00591557
1410 1877 0.00130529
1410 1970 0.409598
1411 224 0.470723
1411 652 0.529277
1412 1878 1
1413 103 0.094985
1413 1879 0.905015
1414 65 0.333021
1414 1880 0.333485
1414 1881 0.333485
1414 1882 9.38432e-06
1415 1792 0.333217
1415 1882 0.333138
1415 1883 0.333645
1416 103 1
1417 65 0.482439
1417 1882 0.517561
1418 243 0.963079
1418 1792 0.00215913
1418 2831 0.0347617
1419 103 0.299134
1419 1884 0.350433
1419 1885 0.350433
1420 229 0.341243
1420 1888 0.317448
1420 1889 0.341309
1421 115 0.208641
1421 1886 0.146096
1421 1887 0.21496
1421 1890 0.215151
1421 1891 0.215151
1422 76 0.2
1422 127 0.2
1422 1895 0.2
1422 1896 0.2
1422 1897 0.2
1423 479 0.333333
1423 622 0.333333
1423 1900 0.333333
1424 1518 0.551702
1424 1901 0.448298
1425 1904 1
1426 223 0.166648
1426 224 0.166766
1426 1902 0.166648
1426 1903 0.166648
1426 1904 0.166642
1426 1905 0.166648
1427 688 0.5
1427 1906 0.5
1428 140 0.249953
1428 229 0.250011
1428 1907 0.250018
1428 1908 0.250018
1429 43 0.00474316
1429 1899 0.497628
1429 1909 0.497628
1430 43 0.312992
1430 1910 0.343504
1430 1911 0.343504
1431 686 0.301563
1431 1761 0.349219
1431 1912 0.349219
1432 686 0.000350901
1432 985 0.444834
1432 1913 0.554815
1433 285 0.333331
1433 1915 0.333337
1433 2419 0.333331
1434 4 1.95714e-06
1434 184 0.166667
1434 275 0.166667
1434 915 0.166667
1434 1914 0.166667
1434 1915 0.166664
1434 1916 0.166667
1435 1558 0.333333
1435 1917 0.333333
1435 1918 0.333333
1436 11 1
1437 11 0.261389
1437 1919 0.738611
1438 1920 0.333333
1438 1921 0.333333
1438 1922 0.333333
1439 92 0.166631
1439 224 0.166673
1439 1517 0.166674
1439 1923 0.166674
1439 1924 0.166674
1439 1925 0.166674
1440 108 0.567019
1440 184 0.00598449
1440 512 0.426997
1441 1926 1
1442 512 0.00626854
1442 1928 0.993731
1443 1929 1
1444 1289 0.25
1444 1930 0.25
1444 1931 0.25
1444 1932 0.25
1445 173 3.60532e-05
1445 1931 0.999964
1446 226 0.615837
1446 1933 0.384163
1447 1933 0.159374
1447 1934 0.423649
1447 1935 0.416977
1448 952 0.249987
1448 1110 0.24998
1448 1937 5.85352e-05
1448 1938 0.249987
1448 1939 0.249987
1449 43 0.0663824
1449 1909 0.466809
1449 1940 0.466809
1450 1997 1
1451 986 0.3338
1451 1945 0.3338
1451 1946 0.3324
1452 362 0.250023
1452 1950 0.250023
1452 1951 0.250023
1452 1952 0.249916
1452 1953 1.46108e-05
1453 1953 1
1454 17 0.25
1454 241 0.25
1454 344 0.25
1454 1954 0.25
1455 1956 1
1456 173 0.250557
1456 1955 0.251012
1456 1956 0.24742
1456 1957 0.251012
1457 163 0.215041
1457 1960 0.784959
1458 24 0.20017
1458 1958 0.200171
1458 1959 0.200171
1458 1960 0.199318
1458 1961 0.20017
1459 2366 1
1460 1962 0.25
1460 1964 0.25
1460 1965 0.25
1460 1966 0.25
1461 513 0.5
1461 1968 0.5
1462 764 0.330847
1462 1183 0.334576
1462 1969 0.334577
1463 1970 0.90881
1463 1971 0.09119
1464 11 0.335882
1464 1870 0.335882
1464 1970 3.86566e-05
1464 1971 0.328197
1465 1559 0.901145
1465 1975 0.0988548
1466 1976 1
1467 407 8.02472e-05
1467 764 0.99992
1468 298 0.33479
1468 407 0.334765
1468 1119 0.330403
1468 1977 4.29324e-05
1469 35 0.202285
1469 1973 0.275997
1469 1974 0.275997
1469 1975 0.24572
1470 1119 0.0129399
1470 1977 0.98706
1471 622 0.166667
1471 1968 0.166667
1471 1978 0.166667
1471 1979 0.166667
1471 1980 0.166667
1471 1981 0.166667
1472 923 0.335674
1472 1429 0.32858
1472 1984 0.335746
1473 1945 0.333356
1473 1982 0.333356
1473 1983 0.333288
1474 765 0.015545
1474 981 0.245463
1474 1429 0.000163276
1474 1985 0.369414
1474 1986 0.369415
1475 765 0.000298228
1475 1987 0.332323
1475 1988 0.33369
1475 1989 0.33369
1476 494 0.475227
1476 1995 0.0495452
1476 1996 0.475227
1477 131 0.333333
1477 1998 0.333333
1477 1999 0.333333
1478 1990 0.5
1478 1991 0.5
1479 1643 1
1480 87 0.142859
1480 241 0.142844
1480 898 0.142859
1480 2001 0.142859
1480 2002 0.142859
1480 2003 0.142859
1480 2004 0.142859
1481 678 0.314409
1481 2006 0.685591
1482 2009 0.496043
1482 2010 0.503957
1483 2011 1
1484 518 0.25
1484 2012 0.25
1484 2013 0.25
1484 2014 0.25
1485 402 0.2
1485 559 0.2
1485 985 0.2
1485 2015 0.2
1485 2016 0.2
1486 898 0.327155
1486 2017 0.0185354
1486 2018 0.327155
1486 2019 0.327155
1487 2017 1
1488 140 0.333333
1488 407 0.333333
1488 2020 0.333333
1489 945 1
1490 1131 0.5
1490 2021 0.5
1491 2022 0.5
1491 2023 0.5
1492 1573 0.999231
1492 2024 0.000768556
1493 224 1
1494 510 0.251053
1494 1751 0.251059
1494 2033 0.251059
1494 2034 0.246829
1495 2034 1
1496 1559 0.333333
1496 2031 0.333333
1496 2032 0.333333
1497 163 0.111111
1497 268 0.111111
1497 339 0.111111
1497 720 0.111111
1497 2026 0.111111
1497 2027 0.111111
1497 2028 0.111111
1497 2029 0.111111
1497 2030 0.111111
1498 754 0.333344
1498 891 0.333344
1498 2035 0.333312
1499 2035 4.87945e-05
1499 2036 0.499976
1499 2037 0.499976
1500 2038 1
1501 218 0.443168
1501 2038 0.113665
1501 2039 0.443168
1502 485 0.499991
1502 2040 0.500009
1503 19 0.0736655
1503 714 0.463167
1503 2041 0.463167
1504 163 0.491506
1504 688 0.508494
1505 344 3.21879e-05
1505 2043 0.250045
1505 2044 0.250045
1505 2045 0.250045
1505 2046 0.249832
1506 2046 1
1507 344 0.00128486
1507 670 0.99825
1507 898 2.74046e-05
1507 2047 0.00043771
1508 898 0.499954
1508 2047 0.499749
1508 2048 0.000297418
1509 2048 0.249888
1509 2049 0.250037
1509 2050 0.250037
1509 2051 0.250037
1510 148 0.33333
1510 250 0.333335
1510 2052 0.333335
1511 148 4.65385e-05
1511 2053 0.999953
1512 19 0.551756
1512 689 0.019215
1512 2053 0.429029
1513 2054 0.977221
1513 2055 0.0227791
1514 2054 0.00311659
1514 2055 0.492601
1514 2056 0.504283
1515 17 0.333279
1515 2057 0.33336
1515 2058 0.33336
1516 670 0.276372
1516 2059 0.276384
1516 2060 0.276384
1516 2061 0.17086
1517 2061 1
1518 179 0.250055
1518 1985 0.249834
1518 2062 0.250055
1518 2063 0.250055
1519 494 1
1520 494 9.21646e-06
1520 2064 0.499995
1520 2065 0.499995
1521 1985 1
1522 16 0.0933561
1522 2066 0.906644
1523 2066 0.219551
1523 2067 0.26015
1523 2068 0.26015
1523 2069 0.26015
1524 2070 1
1525 2072 0.233456
1525 2073 0.383429
1525 2074 0.383111
1525 2075 4.08244e-06
1526 27 0.265538
1526 2076 0.00167589
1526 2077 0.732786
1527 2077 1
1528 11 0.322429
1528 2076 0.000102674
1528 2078 0.338734
1528 2079 0.338734
1529 103 0.000197797
1529 670 0.333266
1529 2060 0.333268
1529 2080 0.333268
1530 1436 0.000388064
1530 2077 0.999612
1531 115 1
1532 2084 0.333333
1532 2085 0.333333
1532 2086 0.333333
1533 2087 0.5
1533 2088 0.5
1534 2089 0.333321
1534 2090 0.333321
1534 2091 0.333321
1534 2092 3.74829e-05
1535 994 0.500028
1535 2092 0.499972
1536 1848 1
1537 1848 1
1538 2100 0.5
1538 2101 0.5
1539 131 0.142857
1539 519 0.142857
1539 1075 0.142857
1539 1462 0.142857
1539 2095 0.142857
1539 2096 0.142857
1539 2097 0.142857
1540 241 0.405547
1540 1954 0.594453
1541 1203 0.332714
1541 1413 0.333643
1541 2102 0.333643
1542 108 0.332019
1542 2103 0.00391931
1542 2104 0.332031
1542 2105 0.332031
1543 103 0.000750503
1543 170 0.321458
1543 798 0.356333
1543 2110 0.321458
1544 108 0.333333
1544 1727 0.166667
1544 1820 0.166667
1544 2106 0.166667
1544 2107 0.166667
1545 68 0.249999
1545 733 0.25
1545 2108 0.25
1545 2109 0.25
1546 102 1
1547 102 0.482056
1547 1030 0.517731
1547 2111 0.000212838
1548 16 0.212411
1548 2111 0.787589
1549 2112 0.5
1549 2113 0.5
1550 224 0.499948
1550 2114 0.500052
1551 131 0.200087
1551 2115 0.200087
1551 2116 0.200087
1551 2117 0.200087
1551 2118 0.199651
1552 115 0.499836
1552 2119 0.500164
1553 4 0.000975456
1553 2122 0.999025
1554 4 0.322623
1554 2123 0.339193
1554 2124 0.338184
1555 130 0.499129
1555 621 0.499385
1555 2124 0.00148537
1556 130 0.00405911
1556 1931 0.995941
1557 1461 0.333333
1557 2125 0.333333
1557 2126 0.333333
1558 250 0.500015
1558 2827 0.499985
1559 2129 1
1560 1248 0.327734
1560 2127 0.0168021
1560 2128 0.327735
1560 2132 0.327729
1561 2133 1
1562 970 0.34585
1562 2133 0.308299
1562 2134 0.34585
1563 1075 0.335305
1563 2136 0.335305
1563 2137 0.32939
1564 65 0.979786
1564 2137 0.0202136
1565 2138 1
1566 2138 0.721879
1566 2139 0.27812
1567 378 0.470364
1567 398 5.29895e-06
1567 2170 0.52963
1568 2142 0.25
1568 2143 0.25
1568 2144 0.25
1568 2145 0.25
1569 102 0.509116
1569 952 8.64786e-06
1569 985 0.00186321
1569 2149 0.489012
1570 214 0.487453
1570 298 0.512547
1571 985 0.961579
1571 2149 0.0384213
1572 2150 1
1573 952 0.499997
1573 2148 0.500003
1574 102 0.0566556
1574 1284 0.943344
1575 579 1
1576 1284 0.498187
1576 1353 0.501813
1577 112 0.199975
1577 1284 0.000126746
1577 1728 0.199975
1577 2038 0.199975
1577 2151 0.199975
1577 2152 0.199974
1578 146 0.166667
1578 559 0.166667
1578 2146 0.166667
1578 2147 0.166667
1578 2153 0.166667
1578 2154 0.166667
1579 2156 1
1580 2155 0.50436
1580 2156 0.49564
1581 2128 0.981291
1581 2156 0.016511
1581 2157 0.00219824
1582 140 0.333146
1582 2128 0.00109945
1582 2157 0.332505
1582 2158 0.333249
1583 2155 7.94157e-06
1583 2159 0.499996
1583 2160 0.499996
1584 2161 0.469565
1584 2162 0.469565
1584 2163 0.0608706
1585 2163 1
1586 2163 0.999612
1586 2164 0.000387577
1587 16 0.264922
1587 2164 0.735078
1588 883 0.333444
1588 1053 0.333444
1588 2164 0.333112
1589 2165 1
1590 2165 0.299377
1590 2166 0.350312
1590 2167 0.350312
1591 2168 0.5
1591 2169 0.5
1592 378 0.0546798
1592 1495 0.48865
1592 2171 0.45667
1593 2171 0.0213512
1593 2172 0.32625
1593 2173 0.32625
1593 2174 0.32615
1594 48 0.166667
1594 1416 0.166667
1594 1806 0.166667
1594 2176 0.166667
1594 2177 0.166667
1594 2180 0.166667
1595 187 0.992036
1595 2181 0.00796367
1596 187 1
1597 2181 0.331571
1597 2182 0.331642
1597 2183 0.331638
1597 2184 0.00514864
1598 2186 1
1599 1573 0.255337
1599 2184 0.251378
1599 2185 0.255342
1599 2186 0.237943
1600 2186 0.0686704
1600 2187 0.93133
1601 2187 0.0368813
1601 2188 0.481559
1601 2189 0.481559
1602 103 0.00326889
1602 658 0.498366
1602 2190 0.498366
1603 103 0.174947
1603 152 0.284069
1603 494 7.75146e-06
1603 2193 0.284069
1603 2194 0.256908
1604 92 0.496213
1604 1050 0.00722802
1604 1136 0.496559
1605 252 0.126017
1605 685 0.436539
1605 1605 0.436539
1605 1606 0.000905004
1606 252 1
1607 545 0.333333
1607 2195 0.333333
1607 2196 0.333333
1608 528 1
1609 1183 0.478596
1609 1611 0.0234905
1609 2198 0.497914
1610 728 0.13149
1610 928 0.434255
1610 2199 0.434255
1611 807 0.499809
1611 1138 0.000382981
1611 2202 0.499808
1612 1051 0.463447
1612 1187 0.0730972
1612 2203 0.463455
1613 1187 0.457136
1613 1255 0.000127199
1613 2204 0.542737
1614 1095 0.250015
1614 1097 0.250015
1614 1255 0.249956
1614 2205 0.250015
1615 2207 1
1616 559 0.2
1616 915 0.2
1616 985 0.2
1616 1449 0.2
1616 2206 0.2
1617 134 0.199951
1617 1100 0.200013
1617 1172 0.200012
1617 1931 0.200012
1617 2208 0.200012
1618 647 0.333333
1618 1372 0.333333
1618 2209 0.333333
1619 1020 0.5
1619 2789 0.5
1620 538 0.20402
1620 2210 0.265327
1620 2211 0.265327
1620 2212 0.265327
1621 173 0.998567
1621 2213 0.00143335
1622 231 0.333457
1622 2213 0.333086
1622 2214 0.333457
1623 243 7.30057e-06
1623 2221 0.559183
1623 2222 0.439715
1623 2224 0.00109533
1624 243 0.33373
1624 2223 0.333735
1624 2224 0.332535
1625 2221 0.0119783
1625 2222 0.980603
1625 2224 0.00741914
1626 278 0.00438825
1626 1217 0.248903
1626 2219 0.248903
1626 2225 0.248903
1626 2226 0.248903
1627 19 0.248659
1627 241 0.240539
1627 2227 6.88508e-06
1627 2228 0.255398
1627 2229 0.255398
1628 42 0.342279
1628 43 0.315443
1628 2230 0.342279
1629 140 0.333333
1629 380 0.333333
1629 2231 0.333333
1630 2232 0.5
1630 2233 0.5
1631 606 0.25002
1631 2270 0.249939
1631 2271 0.25002
1631 2272 0.25002
1632 2234 0.333333
1632 2235 0.333333
1632 2236 0.333333
1633 140 0.25
1633 2237 0.25
1633 2238 0.25
1633 2239 0.25
1634 890 0.333334
1634 2240 0.333333
1634 2273 0.333334
1635 2241 0.5
1635 2242 0.5
1636 986 0.334957
1636 2243 0.334957
1636 2244 0.330085
1637 2244 0.021126
1637 2245 0.978874
1638 2245 1
1639 2245 0.145503
1639 2818 0.854497
1640 2245 0.0750953
1640 2246 0.462744
1640 2247 0.462161
1641 131 0.25
1641 907 0.25
1641 2248 0.25
1641 2249 0.25
1642 2247 1
1643 231 0.250001
1643 2251 0.250001
1643 2252 0.250001
1643 2253 0.249996
1644 1428 0.333333
1644 2254 0.333333
1644 2255 0.333333
1645 952 0.5
1645 2256 0.5
1646 2257 0.5
1646 2258 0.5
1647 16 1
1648 2259 1
1649 2262 1
1650 112 0.231681
1650 602 0.22751
1650 2262 0.077446
1650 2263 0.231681
1650 2264 0.231681
1651 725 0.333332
1651 1691 0.333334
1651 1692 0.333334
1652 35 0.333333
1652 275 0.333333
1652 2265 0.333333
1653 92 0.248114
1653 2266 0.250629
1653 2267 0.250629
1653 2268 0.250629
1654 298 0.0110847
1654 326 0.303918
1654 1948 0.342461
1654 2269 0.342536
1655 43 0.00938338
1655 275 0.495308
1655 2274 0.495308
1656 43 1
1657 344 0.91614
1657 345 0.0838596
1658 1902 0.334711
1658 2275 0.334711
1658 2276 0.330579
1659 344 0.911733
1659 345 0.0751857
1659 2276 0.0130813
1660 928 0.5
1660 2284 0.5
1661 907 0.333333
1661 2281 0.333333
1661 2282 0.333333
1662 43 0.481116
1662 817 0.513268
1662 2304 0.00561562
1663 16 3.23284e-05
1663 1424 0.499984
1663 2672 0.499984
1664 2285 1
1665 563 0.142857
1665 668 0.142857
1665 686 0.142857
1665 2288 0.142857
1665 2289 0.142857
1665 2290 0.142857
1665 2291 0.142857
1666 2285 1
1667 2293 1
1668 2292 0.250419
1668 2293 0.248744
1668 2294 0.250419
1668 2295 0.250419
1669 140 0.142861
1669 663 0.142861
1669 771 0.142861
1669 1948 0.142837
1669 2296 0.142861
1669 2297 0.142861
1669 2298 0.142861
1670 229 0.333331
1670 2299 0.333335
1670 2300 0.333335
1671 406 0.333334
1671 2302 0.333334
1671 2303 0.333333
1672 877 3.79199e-05
1672 2305 0.333321
1672 2306 0.333321
1672 2307 0.333321
1673 243 0.497037
1673 877 0.00475522
1673 2308 0.498208
1674 173 1
1675 48 0.160556
1675 102 0.160556
1675 173 0.036668
1675 298 0.160554
1675 2309 0.160555
1675 2310 0.160556
1675 2311 0.160556
1676 543 0.481513
1676 544 0.518487
1677 4 0.0121653
1677 52 0.246959
1677 102 0.246959
1677 148 0.246958
1677 188 0.246959
1678 48 0.250089
1678 2312 0.249733
1678 2313 0.250089
1678 2314 0.250089
1679 2312 1
1680 1996 0.5
1680 2315 0.5
1681 1710 1
1682 184 0.499395
1682 533 0.49989
1682 2316 0.000714321
1683 2316 1
1684 2317 0.333333
1684 2318 0.333333
1684 2319 0.333333
1685 577 1
1686 2320 0.5
1686 2321 0.5
1687 2322 1
1688 2323 0.25
1688 2324 0.25
1688 2325 0.25
1688 2326 0.25
1689 1916 1
1690 275 0.250109
1690 1001 0.249674
1690 2327 0.250109
1690 2328 0.250109
1691 952 0.333333
1691 1759 0.333333
1691 2329 0.333333
1692 1688 0.520962
1692 2330 0.478984
1692 2331 5.44453e-05
1693 1417 0.324625
1693 2330 0.0261578
1693 2331 0.324591
1693 2332 0.324625
1694 27 0.889236
1694 65 0.105408
1694 134 0.004167
1694 354 0.0011894
1695 62 0.322257
1695 2342 0.338872
1695 2346 0.338871
1696 140 0.25
1696 1247 0.25
1696 2566 0.25
1696 2567 0.25
1697 390 0.25
1697 2346 0.25
1697 2347 0.25
1697 2348 0.249999
1698 177 0.333333
1698 2691 0.333333
1698 2692 0.333333
1699 2352 1
1700 761 0.999728
1700 2352 0.000272383
1701 19 0.123222
1701 761 0.00041844
1701 1558 0.175328
1701 2352 0.175047
1701 2353 0.175328
1701 2354 0.175328
1701 2355 0.175328
1702 689 0.0013436
1702 2356 0.998656
1703 2359 1
1704 140 0.166677
1704 480 0.166677
1704 689 2.10714e-06
1704 2357 0.166677
1704 2358 0.166677
1704 2359 0.166614
1704 2360 0.166677
1705 1688 0.25
1705 2361 0.25
1705 2362 0.25
1705 2363 0.25
1706 2001 1
1707 69 0.324501
1707 1530 0.324501
1707 1881 0.324501
1707 2001 0.0264967
1708 78 0.25
1708 1183 0.25
1708 2365 0.25
1708 2367 0.25
1709 112 0.381729
1709 421 0.206091
1709 2368 0.206089
1709 2369 0.206091
1710 163 0.195734
1710 640 0.201067
1710 952 0.201067
1710 1647 0.201066
1710 2842 0.201066
1711 92 1
1712 2375 1
1713 164 0.332657
1713 2373 0.00567908
1713 2374 0.332657
1713 2375 0.329007
1714 2377 0.333333
1714 2378 0.333333
1714 2379 0.333333
1715 2370 0.333346
1715 2371 0.333346
1715 2372 0.333307
1716 2372 0.000118893
1716 2373 0.999881
1717 229 0.333333
1717 945 0.333333
1717 2380 0.333333
1718 2381 0.333333
1718 2382 0.333334
1718 2383 0.333333
1719 173 1
1720 108 0.111111
1720 486 0.111111
1720 733 0.111111
1720 2384 0.222222
1720 2385 0.111111
1720 2386 0.111111
1720 2387 0.111111
1720 2388 0.111111
1721 108 0.360397
1721 2676 0.319801
1721 2677 0.319801
1722 1650 1
1723 217 1
1724 11 0.250023
1724 1650 0.249923
1724 2390 0.250027
1724 2391 0.250027
1725 20 0.333323
1725 2393 0.333336
1725 2394 0.333336
1725 2395 5.29735e-06
1726 140 0.339163
1726 2396 3.27646e-05
1726 2397 0.339905
1726 2398 0.320899
1727 20 1.87954e-05
1727 27 0.000932706
1727 140 0.00108974
1727 2395 0.498999
1727 2396 0.498959
1728 19 0.0333824
1728 27 0.00786632
1728 229 0.290758
1728 2399 0.333997
1728 2400 0.333996
1729 686 0.333333
1729 2401 0.333333
1729 2402 0.333333
1730 1183 0.333314
1730 2403 0.333343
1730 2404 0.333343
1731 152 0.0209861
1731 1530 0.326338
1731 1589 0.326338
1731 2405 0.326338
1732 152 1
1733 152 1
1734 2409 0.5
1734 2410 0.5
1735 2411 0.5
1735 2412 0.5
1736 1272 1
1737 48 0.0966358
1737 164 0.116979
1737 915 0.116979
1737 1272 0.201497
1737 1935 0.11697
1737 2406 0.116979
1737 2407 0.116979
1737 2408 0.116979
1738 92 0.249917
1738 716 0.250028
1738 2413 0.250028
1738 2414 0.250028
1739 4 0.0127602
1739 173 1.156e-05
1739 1834 0.493614
1739 2418 0.493614
1740 173 0.194446
1740 2416 0.268518
1740 2417 0.268518
1740 2420 0.268518
1741 103 1
1742 2423 0.904996
1742 2424 0.095004
1743 402 0.49629
1743 2424 0.00719159
1743 2425 0.496518
1744 78 0.200155
1744 187 0.199382
1744 1530 0.200155
1744 2426 0.200155
1744 2427 0.200155
1745 2428 0.333069
1745 2429 0.333466
1745 2430 0.333465
1746 2432 3.14064e-05
1746 2433 0.999969
1747 2433 1
1748 130 0.333862
1748 298 0.331802
1748 2239 0.333862
1748 2433 0.000474322
1749 2434 0.501229
1749 2435 0.49847
1749 2436 0.000300901
1750 2435 0.00274651
1750 2436 0.498477
1750 2437 0.498776
1751 985 0.25
1751 2438 0.25
1751 2439 0.25
1751 2440 0.25
1752 2441 0.499996
1752 2442 0.500004
1753 108 0.24944
1753 229 0.250183
1753 2444 0.250184
1753 2446 0.250193
1754 119 0.25
1754 2447 0.25
1754 2448 0.25
1754 2449 0.25
1755 2444 1
1756 229 1
1757 229 1
1758 1247 0.2
1758 2450 0.2
1758 2451 0.2
1758 2452 0.2
1758 2453 0.2
1759 229 0.199977
1759 2454 0.200006
1759 2455 0.200006
1759 2456 0.200006
1759 2457 0.200006
1760 220 1
1761 298 1
1762 298 0.243961
1762 2458 0.37802
1762 2459 0.37802
1763 2460 1
1764 1607 0.333333
1764 2478 0.333333
1764 2479 0.333333
1765 2460 1
1766 241 0.25
1766 836 0.25
1766 2461 0.25
1766 2462 0.25
1767 62 0.457568
1767 1843 0.542432
1768 499 0.333333
1768 2465 0.333333
1768 2466 0.333333
1769 771 0.333333
1769 1563 0.333333
1769 2463 0.333333
1770 42 0.333333
1770 2467 0.333333
1770 2468 0.333333
1771 92 0.199952
1771 102 0.200008
1771 951 0.200013
1771 1372 0.200013
1771 2471 0.200013
1772 597 1
1773 597 0.499975
1773 2476 0.500025
1774 217 0.907559
1774 2475 0.0924414
1775 114 0.25
1775 622 0.25
1775 688 0.25
1775 1060 0.25
1776 1518 0.499952
1776 2477 0.500048
1777 952 0.244885
1777 1518 0.209813
1777 1720 0.272651
1777 2472 0.272651
1778 285 0.499975
1778 1902 0.500025
1779 35 0.333333
1779 2480 0.333333
1779 2481 0.333333
1780 2483 0.999739
1780 2484 0.000261333
1781 1839 0.499565
1781 2483 0.00100103
1781 2484 0.499434
1782 2082 0.333333
1782 2485 0.333333
1782 2486 0.333333
1783 108 0.262428
1783 267 0.262428
1783 2487 0.262428
1783 2488 0.212717
1784 2489 7.98701e-05
1784 2490 0.000186921
1784 2491 0.333244
1784 2492 0.333244
1784 2493 0.333244
1785 2492 0.333333
1785 2494 0.333334
1785 2495 0.333334
1786 65 0.499725
1786 2496 0.500275
1787 65 1
1788 278 0.333333
1788 1755 0.333333
1788 2497 0.333333
1789 43 0.0615031
1789 2498 0.938497
1790 263 0.25
1790 324 0.25
1790 485 0.25
1790 2499 0.25
1791 19 0.274609
1791 27 0.143317
1791 2501 0.291037
1791 2502 0.291037
1792 1452 1
1793 184 0.333383
1793 543 0.333354
1793 1452 0.333262
1794 263 0.249955
1794 2503 0.250015
1794 2504 0.250015
1794 2505 0.250015
1795 2362 0.633038
1795 2506 0.366962
1796 184 0.166654
1796 285 0.166669
1796 2507 0.166669
1796 2508 0.166669
1796 2509 0.166669
1796 2510 0.166669
1797 92 1
1798 765 0.255669
1798 1229 0.255661
1798 1289 0.233001
1798 2511 0.255669
1799 1742 0.000144143
1799 2512 0.999856
1800 118 0.249827
1800 898 0.250058
1800 2513 0.250058
1800 2514 0.250058
1801 34 0.333116
1801 103 0.000640271
1801 208 0.333115
1801 2515 1.18874e-05
1801 2724 0.333116
1802 622 1
1803 16 0.0009404
1803 27 0.99906
1804 2520 1
1805 62 0.194306
1805 2518 0.201423
1805 2519 0.201424
1805 2524 0.201423
1805 2525 0.201423
1806 2527 1
1807 1742 0.0103725
1807 2529 0.989454
1807 2532 0.000173462
1808 2534 0.192185
1808 2535 0.807815
1809 127 0.350646
1809 407 0.324676
1809 2528 0.324677
1810 1742 0.152636
1810 2529 0.111028
1810 2530 0.154625
1810 2531 0.154624
1810 2532 0.154623
1810 2533 0.154625
1810 2534 0.11784
1811 545 0.169868
1811 807 0.170237
1811 952 0.170237
1811 2526 0.170237
1811 2527 0.14918
1811 2535 3.26585e-06
1811 2545 0.170236
1812 2536 0.333501
1812 2537 0.333501
1812 2538 0.332997
1813 68 0.994084
1813 2538 0.00591584
1814 68 0.999954
1814 2538 4.61737e-05
1815 68 1
1816 1749 0.5
1816 2539 0.5
1817 2540 0.5
1817 2541 0.5
1818 137 0.291504
1818 243 0.124856
1818 545 0.292136
1818 2832 0.291504
1819 2543 1
1820 1075 0.218383
1820 2072 0.129707
1820 2542 0.218384
1820 2543 0.215143
1820 2544 0.218384
1821 108 0.25
1821 907 0.25
1821 2546 0.25
1821 2547 0.25
1822 2548 0.333333
1822 2549 0.333333
1822 2550 0.333333
1823 404 0.25
1823 900 0.25
1823 2279 0.25
1823 2554 0.25
1824 2555 0.5
1824 2556 0.5
1825 1832 0.000518475
1825 2551 0.999481
1826 1832 0.305207
1826 2551 0.0839593
1826 2552 0.305417
1826 2553 0.305416
1827 2557 1
1828 224 0.00302654
1828 225 0.332325
1828 337 0.332327
1828 2557 0.332321
1829 173 0.944613
1829 263 0.0553868
1830 501 0.249821
1830 2558 0.25006
1830 2559 0.250059
1830 2560 0.25006
1831 263 1
1832 2563 1
1833 243 0.250084
1833 2561 0.25009
1833 2562 0.25009
1833 2563 0.249735
1834 907 0.25
1834 1099 0.25
1834 2564 0.25
1834 2565 0.25
1835 663 1
1836 35 0.25
1836 184 0.25
1836 2239 0.25
1836 2568 0.25
1837 2569 0.696141
1837 2620 0.303859
1838 2569 0.289093
1838 2570 0.355454
1838 2571 0.355454
1839 140 0.333333
1839 2572 0.333333
1839 2573 0.333333
1840 248 0.333277
1840 1030 0.333333
1840 2574 0.33339
1841 1755 1
1842 1755 0.0408745
1842 2575 0.479563
1842 2576 0.479563
1843 131 0.25
1843 2399 0.25
1843 2435 0.25
1843 2577 0.25
1844 1110 0.33359
1844 1592 0.33282
1844 2581 0.33359
1845 224 0.146892
1845 328 0.146896
1845 1183 0.145399
1845 2584 0.146896
1845 2585 0.146896
1845 2586 0.146896
1845 2587 0.120125
1846 127 1
1847 127 1
1848 2588 1
1849 2587 1
1850 2587 0.00119486
1850 2588 0.998805
1851 2588 0.0131199
1851 2589 0.49344
1851 2590 0.49344
1852 127 0.33273
1852 2591 0.333635
1852 2592 0.333635
1853 421 0.25
1853 2365 0.25
1853 2582 0.25
1853 2583 0.25
1854 127 1
1855 127 1
1856 508 0.333334
1856 2593 0.333332
1856 2594 0.333334
1857 2595 0.25
1857 2596 0.25
1857 2597 0.25
1857 2598 0.25
1858 1372 0.48964
1858 2599 0.493741
1858 2600 0.0166191
1859 224 0.00275672
1859 1372 0.00429592
1859 1890 0.486524
1859 2600 0.506423
1860 224 0.481404
1860 985 0.483931
1860 1890 0.0346649
1861 985 1.2749e-05
1861 2601 0.333329
1861 2602 0.333329
1861 2603 0.333329
1862 543 0.465349
1862 2604 0.465349
1862 2605 0.0693023
1863 952 0.539889
1863 2605 0.460111
1864 102 5.32434e-06
1864 224 0.000200684
1864 2606 0.499897
1864 2607 0.499897
1865 224 0.49985
1865 2608 0.50015
1866 62 0.245675
1866 92 0.241784
1866 1459 0.0276889
1866 2609 0.242426
1866 2610 0.242426
1867 62 0.526762
1867 1459 0.473238
1868 495 0.250175
1868 815 0.250175
1868 2611 0.249495
1868 2612 0.250154
1869 2750 0.98812
1869 2751 0.0118805
1870 2611 1
1871 686 0.2
1871 2613 0.2
1871 2614 0.2
1871 2615 0.2
1871 2616 0.2
1872 4 0.492473
1872 2617 0.507527
1873 127 0.186848
1873 268 0.203513
1873 2618 0.203213
1873 2619 0.406426
1874 65 0.255072
1874 2620 0.234443
1874 2621 0.255243
1874 2622 0.255242
1875 2623 1
1876 2623 0.996709
1876 2624 0.00329142
1877 48 0.00447247
1877 763 0.497995
1877 2624 0.497532
1878 48 1
1879 268 0.199763
1879 2625 0.200059
1879 2626 0.200059
1879 2627 0.200059
1879 2628 0.200059
1880 402 0.259052
1880 622 0.222844
1880 2629 0.259052
1880 2630 0.259052
1881 108 0.249689
1881 231 0.250104
1881 2631 0.250104
1881 2632 0.250104
1882 2633 0.49769
1882 2634 0.49769
1882 2635 0.00461941
1883 2635 1
1884 37 0.166667
1884 986 0.166667
1884 1204 0.166667
1884 2636 0.166667
1884 2638 0.166667
1884 2639 0.166667
1885 2602 0.333333
1885 2603 0.333333
1885 2640 0.333333
1886 108 0.249999
1886 1852 0.25
1886 2641 0.25
1886 2642 0.25
1887 986 0.443078
1887 2643 0.556922
1888 963 0.333333
1888 2644 0.333333
1888 2645 0.333333
1889 1455 1
1890 2646 0.5
1890 2647 0.5
1891 103 1
1892 68 0.295559
1892 2650 0.352221
1892 2651 0.352221
1893 68 0.13856
1893 2652 0.86144
1894 1168 0.333333
1894 2175 0.333333
1894 2653 0.333333
1895 173 0.25
1895 967 0.25
1895 1203 0.25
1895 2654 0.25
1896 229 0.2
1896 2655 0.2
1896 2656 0.2
1896 2657 0.2
1896 2658 0.2
1897 384 0.0743734
1897 2661 0.925627
1898 384 0.314981
1898 2661 2.00092e-05
1898 2662 0.342499
1898 2663 0.342499
1899 2171 1
1900 220 0.557723
1900 2171 0.0358353
1900 2664 0.406442
1901 2603 0.30526
1901 2664 0.084219
1901 2665 0.30526
1901 2666 0.30526
1902 4 0.0114199
1902 936 0.329527
1902 1898 0.329526
1902 2667 0.329527
1903 298 0.333324
1903 1955 0.333324
1903 2668 0.333325
1903 2669 2.73868e-05
1904 2669 0.999935
1904 2670 6.52111e-05
1905 108 0.333064
1905 2670 0.333457
1905 2671 0.333479
1906 2673 0.500006
1906 2674 0.499994
1907 167 0.332753
1907 2579 0.333597
1907 2675 0.33365
1908 2579 0.835205
1908 2674 0.164795
1909 750 0.333333
1909 1647 0.333333
1909 2678 0.333333
1910 2679 0.999829
1910 2680 0.000171076
1911 184 0.168322
1911 1372 0.332671
1911 2681 0.166336
1911 2682 0.166336
1911 2683 0.166336
1912 69 0.200871
1912 134 0.199376
1912 331 0.198079
1912 332 0.200871
1912 2684 0.200803
1913 956 0.267812
1913 2684 0.000123702
1913 2685 0.366032
1913 2686 0.366032
1914 184 0.199212
1914 275 0.200197
1914 952 0.200197
1914 2687 0.200197
1914 2688 0.200197
1915 736 1
1916 4 0.00838802
1916 231 0.330537
1916 2763 0.330537
1916 2764 0.330537
1917 580 0.333333
1917 2609 0.333333
1917 2703 0.333333
1918 229 0.186473
1918 390 0.533889
1918 432 0.27963
1918 2704 7.4638e-06
1919 798 0.128991
1919 2699 0.145168
1919 2700 0.145168
1919 2701 0.145168
1919 2702 0.145168
1919 2705 0.145168
1919 2706 0.145168
1920 2708 1
1921 4 0.180893
1921 92 0.157733
1921 2707 0.157746
1921 2708 0.0303857
1921 2712 0.157747
1921 2713 0.157747
1921 2714 0.157747
1922 1979 0.991001
1922 2716 0.0089989
1923 1979 0.0265802
1923 2716 0.97342
1924 2716 0.091001
1924 2717 0.908999
1925 1979 0.19672
1925 2526 0.267729
1925 2715 0.267729
1925 2717 9.5373e-05
1925 2718 0.267727
1926 4 0.087747
1926 103 0.424768
1926 173 0.487242
1926 2719 0.000243496
1927 4 0.436887
1927 2719 0.563113
1928 2322 0.333333
1928 2720 0.333333
1928 2721 0.333333
1929 421 0.25
1929 951 0.25
1929 1372 0.25
1929 2723 0.25
1930 1749 0.250002
1930 1755 0.250002
1930 2725 0.250002
1930 2726 0.249995
1931 4 0.000274542
1931 579 0.333187
1931 1049 0.333269
1931 2728 0.333269
1932 622 0.5
1932 2730 0.5
1933 34 0.322934
1933 479 0.338533
1933 907 0.338533
1934 140 0.333333
1934 2731 0.333333
1934 2732 0.333333
1935 19 0.251817
1935 102 0.249375
1935 298 0.249404
1935 2734 0.249404
1936 19 0.000353955
1936 68 0.999646
1937 68 0.000122214
1937 1348 0.43364
1937 2733 0.132598
1937 2735 0.43364
1938 442 0.342174
1938 457 0.342202
1938 2736 0.315624
1939 11 0.481188
1939 310 0.481421
1939 2736 0.0373913
1940 2737 0.505704
1940 2738 0.494296
1941 2738 1
1942 907 0.500805
1942 2739 0.498693
1942 2740 0.000502034
1943 11 0.332966
1943 2739 0.00140371
1943 2740 0.332648
1943 2741 0.332982
1944 4 0.502957
1944 2575 0.497043
1945 1030 1
1946 2435 0.341885
1946 2742 0.316149
1946 2743 0.341966
1947 4 2.79766e-05
1947 324 0.989853
1947 2750 0.0101188
1948 1030 0.00141568
1948 2435 0.000117411
1948 2575 1.0226e-05
1948 2744 0.499228
1948 2745 0.499228
1949 2742 0.0363463
1949 2746 0.481826
1949 2747 0.481828
1950 2458 0.5
1950 2748 0.5
1951 4 0.311927
1951 43 0.158556
1951 2750 0.0521288
1951 2751 0.15828
1951 2752 0.159554
1951 2753 0.159554
1952 4 0.000146277
1952 2754 0.499927
1952 2755 0.499927
1953 4 0.432833
1953 11 0.024411
1953 2756 0.542756
1954 2757 0.333333
1954 2758 0.333333
1954 2759 0.333333
1955 2376 0.360653
1955 2526 0.360137
1955 2760 0.27921
1956 2760 0.101614
1956 2761 0.449193
1956 2762 0.449193
1957 1684 0.4984
1957 2766 0.5016
1958 2768 0.995131
1958 2769 0.00486878
1959 285 0.016854
1959 2769 0.487657
1959 2770 0.459995
1959 2771 0.035494
1960 4 0.936537
1960 285 0.0634633
1961 4 1.1452e-05
1961 1081 0.317116
1961 2770 0.0210816
1961 2771 0.318807
1961 2772 0.342984
1962 4 0.914507
1962 1081 0.085493
1963 4 0.741474
1963 2772 0.258526
1964 4 0.00011716
1964 1056 0.249959
1964 2773 0.249975
1964 2774 0.249975
1964 2775 0.249975
1965 173 0.329188
1965 198 0.329058
1965 263 0.0125505
1965 2776 0.329203
1966 112 0.996449
1966 198 0.000441022
1966 320 0.00310955
1967 112 0.000242054
1967 320 0.332541
1967 2777 0.333608
1967 2778 0.333608
1968 78 0.25
1968 2779 0.25
1968 2780 0.25
1968 2781 0.25
1969 2239 0.547766
1969 2782 0.452234
1970 2782 0.722137
1970 2783 0.277863
1971 31 0.300364
1971 2787 0.349818
1971 2788 0.349818
1972 2783 1
1973 35 0.321163
1973 1162 0.321259
1973 2783 0.0363186
1973 2784 0.321259
1974 108 0.333338
1974 1589 0.333324
1974 2785 0.333338
1975 78 0.103048
1975 1100 0.448476
1975 2790 0.448476
1976 78 0.278037
1976 2791 0.360981
1976 2792 0.360981
1977 146 0.333333
1977 2279 0.333333
1977 2786 0.333333
1978 485 0.333324
1978 2793 0.333338
1978 2794 0.333338
1979 331 2.42568e-06
1979 491 0.170866
1979 733 0.145897
1979 1229 0.170637
1979 2262 0.170864
1979 2797 0.170866
1979 2798 0.170866
1980 4 0.255067
1980 35 0.149197
1980 87 0.149197
1980 148 0.148146
1980 2803 0.149197
1980 2804 0.149197
1981 2799 0.25
1981 2800 0.25
1981 2801 0.25
1981 2802 0.25
1982 298 0.242163
1982 570 0.252612
1982 2805 0.252612
1982 2806 0.252613
1983 154 0.323548
1983 223 0.323547
1983 390 0.0293562
1983 2807 0.323549
1984 338 0.333333
1984 2808 0.333333
1984 2809 0.333333
1985 2032 1
1986 30 0.25
1986 2810 0.25
1986 2811 0.25
1986 2812 0.25
1987 579 0.5
1987 2821 0.5
1988 2813 1
1989 2813 1
1990 154 0.333247
1990 1792 1.68519e-05
1990 2814 0.333368
1990 2815 0.333368
1991 154 0.00024936
1991 1792 0.999751
1992 65 0.333202
1992 2816 0.333205
1992 2817 0.333205
1992 2822 0.0003877
1993 229 0.25
1993 680 0.25
1993 1889 0.25
1993 2819 0.25
1994 243 1
1995 893 1
1996 398 0.333333
1996 2289 0.333333
1996 2820 0.333333
1997 2822 0.999841
1997 2824 0.000159186
1998 69 0.939312
1998 2822 0.00171388
1998 2823 0.0589745
1999 1183 0.253879
1999 1723 0.254037
1999 2823 0.238087
1999 2824 0.253996
2000 69 8.70978e-06
2000 2822 0.000342814
2000 2825 0.499824
2000 2826 0.499824
2001 2583 9.36661e-06
2001 2827 3.04499e-05
2001 2828 0.49998
2001 2829 0.49998
2002 1428 0.333393
2002 2583 0.333387
2002 2830 0.333219
2003 2831 1
2004 2838 1
2005 224 0.00464088
2005 2833 0.366714
2005 2834 0.628645
2006 224 0.350963
2006 2833 0.191962
2006 2834 0.0973988
2006 2835 0.359676
2007 510 0.192703
2007 2841 0.807297
2008 229 0.00109571
2008 2844 0.998904
2009 229 0.405659
2009 2843 4.79136e-05
2009 2844 0.187642
2009 2845 0.40665
2010 229 0.000469711
2010 285 0.333099
2010 2846 0.333216
2010 2847 0.333216
2011 24 0.333333
2011 952 0.333333
2011 2848 0.333333
2012 670 0.000357279
2012 2110 0.999643
2013 115 0.333333
2013 670 0.333318
2013 2850 0.333349
2014 115 5.00176e-05
2014 224 0.996929
2014 292 0.00302145
2015 292 1
2016 2851 1
2017 108 0.189577
2017 2362 0.0521193
2017 2818 0.189568
2017 2851 6.0112e-06
2017 2852 0.189577
2017 2853 0.189577
2017 2854 0.189577
