2 1 100 3 1
2 3 100 3 1
1 4 100 3 0.380529
2 4 100 3 0.327476
3 4 100 3 0.291995
1 5 100 3 0.317638
2 5 100 3 0.338339
3 5 100 3 0.344023
2 6 100 3 1
1 7 100 3 0.314735
2 7 100 3 0.304544
3 7 100 3 0.380721
2 0 100 4 0.938728
3 0 100 4 0.0612721
2 1 100 4 1
2 2 100 4 0.414294
3 2 100 4 0.585706
2 3 100 4 0.999554
3 3 100 4 0.000445786
1 4 100 4 0.333332
3 4 100 4 0.333334
4 4 100 4 0.333334
1 5 100 4 0.27379
2 5 100 4 0.185173
3 5 100 4 0.267246
4 5 100 4 0.27379
1 6 100 4 0.266052
2 6 100 4 0.265726
3 6 100 4 0.202169
4 6 100 4 0.266052
1 7 100 4 0.294641
2 7 100 4 0.157931
3 7 100 4 0.252787
4 7 100 4 0.294641
1 8 100 4 0.266373
2 8 100 4 0.260175
3 8 100 4 0.207078
4 8 100 4 0.266373
2 0 100 5 1
1 1 100 5 0.500027
2 1 100 5 0.499973
1 2 100 5 7.93939e-05
2 2 100 5 0.00614863
3 2 100 5 0.331257
4 2 100 5 0.331257
5 2 100 5 0.331257
4 3 100 5 1
1 4 100 5 0.355111
2 4 100 5 0.175596
3 4 100 5 0.186798
4 4 100 5 0.189098
5 4 100 5 0.093396
4 5 100 5 0.961028
5 5 100 5 0.0389718
1 6 100 5 0.0902944
2 6 100 5 0.158316
3 6 100 5 0.226118
4 6 100 5 0.223779
5 6 100 5 0.301492
1 7 100 5 0.266814
2 7 100 5 0.000494334
3 7 100 5 0.26607
4 7 100 5 0.20013
5 7 100 5 0.266491
1 0 100 6 8.4144e-06
2 0 100 6 0.367519
4 0 100 6 0.407556
5 0 100 6 0.224917
1 1 100 6 0.968461
2 1 100 6 2.05525e-05
4 1 100 6 0.0315188
1 2 100 6 0.602545
2 2 100 6 0.397285
5 2 100 6 0.0001703
1 3 100 6 0.000580385
2 3 100 6 0.371225
3 3 100 6 0.621991
4 3 100 6 0.00620344
2 4 100 6 0.0185114
3 4 100 6 0.00287205
4 4 100 6 0.978616
1 5 100 6 0.165237
2 5 100 6 0.367635
3 5 100 6 0.467015
5 5 100 6 0.000113571
1 6 100 6 0.14128
2 6 100 6 0.0992182
3 6 100 6 0.0990969
4 6 100 6 0.362568
5 6 100 6 0.0996428
6 6 100 6 0.198194
1 7 100 6 0.159798
2 7 100 6 0.106532
3 7 100 6 0.159536
4 7 100 6 0.106532
5 7 100 6 0.264629
6 7 100 6 0.202974
1 8 100 6 0.103861
2 8 100 6 0.0847414
3 8 100 6 0.110455
4 8 100 6 0.20609
5 8 100 6 0.20877
6 8 100 6 0.286083
2 9 100 6 0.397878
3 9 100 6 0.00256827
4 9 100 6 0.596141
5 9 100 6 0.00341325
1 10 100 6 0.299955
2 10 100 6 0.0554889
3 10 100 6 0.0359041
4 10 100 6 0.0894258
5 10 100 6 0.159529
6 10 100 6 0.359697
1 0 100 7 8.62146e-06
2 0 100 7 0.111766
3 0 100 7 0.393492
4 0 100 7 0.201059
5 0 100 7 0.293674
1 1 100 7 0.785563
2 1 100 7 0.213679
5 1 100 7 0.000738153
6 1 100 7 2.01596e-05
1 2 100 7 0.249501
2 2 100 7 0.261827
3 2 100 7 0.249839
4 2 100 7 0.238822
5 2 100 7 5.64872e-06
6 2 100 7 5.62411e-06
1 3 100 7 0.215253
2 3 100 7 0.265866
3 3 100 7 2.83504e-05
4 3 100 7 0.0121325
5 3 100 7 0.34367
6 3 100 7 0.16305
1 4 100 7 0.290859
2 4 100 7 0.241495
5 4 100 7 0.467646
1 5 100 7 0.403655
2 5 100 7 0.367768
3 5 100 7 0.228454
4 5 100 7 0.000122595
2 6 100 7 0.0302859
3 6 100 7 0.111342
4 6 100 7 0.364352
6 6 100 7 0.250118
7 6 100 7 0.243903
1 7 100 7 0.0412765
2 7 100 7 0.117714
4 7 100 7 0.0878599
5 7 100 7 0.19347
6 7 100 7 0.279821
7 7 100 7 0.279859
2 8 100 7 4.78004e-05
3 8 100 7 0.199988
4 8 100 7 0.200009
5 8 100 7 0.199988
6 8 100 7 0.199984
7 8 100 7 0.199984
1 9 100 7 0.179508
2 9 100 7 0.198545
3 9 100 7 0.119549
4 9 100 7 0.121087
5 9 100 7 0.144796
6 9 100 7 0.118863
7 9 100 7 0.117652
1 10 100 7 0.19145
2 10 100 7 0.091464
3 10 100 7 0.128463
4 10 100 7 0.104881
5 10 100 7 0.110709
6 10 100 7 0.171599
7 10 100 7 0.201434
1 11 100 7 0.0433016
2 11 100 7 0.082872
3 11 100 7 0.198953
4 11 100 7 0.200432
5 11 100 7 0.179058
6 11 100 7 0.194145
7 11 100 7 0.101238
1 12 100 7 0.228606
2 12 100 7 0.182166
3 12 100 7 0.118028
4 12 100 7 0.115465
5 12 100 7 0.000111135
6 12 100 7 0.123966
7 12 100 7 0.231658
1 0 100 8 2.83387e-05
2 0 100 8 0.211774
3 0 100 8 0.293966
4 0 100 8 0.0633567
5 0 100 8 0.214674
6 0 100 8 0.0749208
7 0 100 8 0.141281
1 1 100 8 0.447314
2 1 100 8 0.332121
3 1 100 8 0.0737046
4 1 100 8 0.0737046
5 1 100 8 0.0731562
1 2 100 8 0.357876
2 2 100 8 0.422713
4 2 100 8 0.219411
1 3 100 8 0.258819
2 3 100 8 0.308649
3 3 100 8 0.000262438
4 3 100 8 0.104758
5 3 100 8 0.0818779
6 3 100 8 0.0818779
7 3 100 8 0.0818779
8 3 100 8 0.0818779
2 4 100 8 0.0305499
3 4 100 8 0.270952
4 4 100 8 0.698498
1 5 100 8 0.0884799
2 5 100 8 0.265039
3 5 100 8 0.257479
4 5 100 8 0.211945
5 5 100 8 0.170623
7 5 100 8 0.00643533
1 6 100 8 0.291051
2 6 100 8 0.00739939
3 6 100 8 0.291098
4 6 100 8 0.321717
5 6 100 8 0.00199274
6 6 100 8 0.0781044
7 6 100 8 0.00863759
1 7 100 8 0.0736702
2 7 100 8 0.0136276
3 7 100 8 0.0617411
4 7 100 8 0.0619864
5 7 100 8 0.146078
6 7 100 8 0.221689
7 7 100 8 0.242281
8 7 100 8 0.178928
2 8 100 8 5.20324e-05
3 8 100 8 0.0132864
5 8 100 8 0.152036
6 8 100 8 0.277405
7 8 100 8 0.279909
8 8 100 8 0.277312
1 9 100 8 0.168248
2 9 100 8 0.0579881
3 9 100 8 0.192459
4 9 100 8 0.0968885
5 9 100 8 0.0965562
6 9 100 8 0.144681
7 9 100 8 0.0984988
8 9 100 8 0.144681
1 10 100 8 0.000373008
2 10 100 8 0.00147239
3 10 100 8 0.0123835
4 10 100 8 0.099399
5 10 100 8 0.0934933
6 10 100 8 0.295129
7 10 100 8 0.201504
8 10 100 8 0.296246
1 11 100 8 0.00130805
2 11 100 8 0.0104348
3 11 100 8 0.304498
4 11 100 8 0.000519408
5 11 100 8 0.000265167
6 11 100 8 0.00335315
7 11 100 8 0.377687
8 11 100 8 0.301934
1 12 100 8 0.1045
2 12 100 8 0.0175083
3 12 100 8 0.146231
4 12 100 8 0.206402
5 12 100 8 0.207231
6 12 100 8 0.205986
7 12 100 8 0.00480866
8 12 100 8 0.107333
1 13 100 8 0.121017
2 13 100 8 0.0538468
3 13 100 8 0.00257239
4 13 100 8 0.154909
5 13 100 8 0.153591
6 13 100 8 0.00313115
7 13 100 8 0.360034
8 13 100 8 0.150899
1 14 100 8 0.125005
2 14 100 8 0.125002
3 14 100 8 0.124997
4 14 100 8 0.124994
5 14 100 8 0.124994
6 14 100 8 0.124998
7 14 100 8 0.125003
8 14 100 8 0.125006
1 15 100 8 0.00219743
2 15 100 8 0.000128152
3 15 100 8 0.000792481
4 15 100 8 0.00400616
5 15 100 8 0.00393425
6 15 100 8 0.0012141
7 15 100 8 0.000379616
8 15 100 8 0.987348
1 17 100 8 0.113203
2 17 100 8 0.143971
3 17 100 8 0.142737
4 17 100 8 0.130174
5 17 100 8 0.139964
6 17 100 8 0.140832
7 17 100 8 0.0448885
8 17 100 8 0.144231
1 0 100 9 0.000575679
2 0 100 9 0.0727537
3 0 100 9 0.212
4 0 100 9 0.104609
5 0 100 9 0.105796
7 0 100 9 0.398467
8 0 100 9 0.1058
1 1 100 9 0.376596
2 1 100 9 0.435106
3 1 100 9 0.188298
1 2 100 9 0.535773
2 2 100 9 0.0625729
3 2 100 9 0.133845
4 2 100 9 0.133904
5 2 100 9 0.133904
1 3 100 9 0.166822
2 3 100 9 0.16673
3 3 100 9 0.166392
4 3 100 9 0.16677
5 3 100 9 0.166643
6 3 100 9 0.166643
1 4 100 9 0.499043
6 4 100 9 0.500957
2 5 100 9 0.650189
3 5 100 9 0.349771
8 5 100 9 4.04072e-05
1 6 100 9 0.000211172
2 6 100 9 0.350891
3 6 100 9 0.259895
4 6 100 9 0.268389
5 6 100 9 0.115572
7 6 100 9 0.00503683
8 6 100 9 4.76686e-06
3 7 100 9 0.137811
4 7 100 9 0.184517
5 7 100 9 0.193553
6 7 100 9 0.294059
8 7 100 9 0.190059
3 8 100 9 0.665087
4 8 100 9 0.000134015
6 8 100 9 0.000363456
7 8 100 9 0.334415
1 9 100 9 0.106351
2 9 100 9 0.106351
3 9 100 9 0.106351
4 9 100 9 0.107354
5 9 100 9 6.59771e-05
6 9 100 9 0.106364
7 9 100 9 0.125322
8 9 100 9 0.12914
9 9 100 9 0.212701
1 10 100 9 9.27607e-05
2 10 100 9 2.35674e-06
4 10 100 9 0.277393
5 10 100 9 0.179963
6 10 100 9 0.135245
7 10 100 9 0.272058
9 10 100 9 0.135245
1 11 100 9 0.00152637
2 11 100 9 0.00016996
3 11 100 9 4.69813e-05
4 11 100 9 0.0244044
5 11 100 9 0.00055353
6 11 100 9 0.00398636
7 11 100 9 0.00383284
8 11 100 9 0.581522
9 11 100 9 0.383957
1 12 100 9 0.13761
2 12 100 9 0.00146144
3 12 100 9 0.0328651
4 12 100 9 0.140214
5 12 100 9 0.137694
6 12 100 9 0.135267
7 12 100 9 0.139454
8 12 100 9 0.137731
9 12 100 9 0.137704
2 13 100 9 3.00606e-05
3 13 100 9 3.85539e-05
4 13 100 9 0.000236027
5 13 100 9 0.243799
6 13 100 9 0.753008
7 13 100 9 0.00285835
8 13 100 9 3.10097e-05
1 14 100 9 1.92445e-07
2 14 100 9 0.0381269
3 14 100 9 0.0146527
4 14 100 9 0.0929967
5 14 100 9 0.186702
6 14 100 9 0.192119
7 14 100 9 0.177021
8 14 100 9 0.11195
9 14 100 9 0.186432
1 15 100 9 0.141153
2 15 100 9 0.11662
3 15 100 9 0.0424364
4 15 100 9 0.0730328
5 15 100 9 0.124514
6 15 100 9 0.10481
7 15 100 9 0.0886904
8 15 100 9 0.141048
9 15 100 9 0.167696
1 16 100 9 6.28707e-05
2 16 100 9 6.86177e-07
3 16 100 9 2.80105e-05
4 16 100 9 8.05094e-06
5 16 100 9 1.59455e-06
6 16 100 9 5.62101e-05
7 16 100 9 0.000556453
8 16 100 9 0.499597
9 16 100 9 0.499689
1 0 100 10 4.28756e-06
2 0 100 10 0.00421489
3 0 100 10 0.202776
4 0 100 10 1.20046e-06
5 0 100 10 0.106407
6 0 100 10 0.395761
7 0 100 10 0.09238
9 0 100 10 0.198456
1 1 100 10 0.373704
2 1 100 10 0.396458
3 1 100 10 0.157674
4 1 100 10 0.0721642
1 2 100 10 0.116112
2 2 100 10 0.115148
3 2 100 10 0.242725
4 2 100 10 0.289602
5 2 100 10 0.110758
6 2 100 10 0.116146
7 2 100 10 0.00950754
1 3 100 10 0.228177
2 3 100 10 0.44672
3 3 100 10 0.0295483
4 3 100 10 0.238386
5 3 100 10 0.0123884
7 3 100 10 1.40401e-05
8 3 100 10 0.0447671
1 4 100 10 0.0882721
2 4 100 10 0.0710122
3 4 100 10 0.163743
4 4 100 10 0.136222
5 4 100 10 0.205561
6 4 100 10 0.19498
7 4 100 10 0.0705803
8 4 100 10 0.0696296
3 5 100 10 0.308886
4 5 100 10 0.0152424
5 5 100 10 0.177347
7 5 100 10 0.177397
8 5 100 10 0.321127
2 6 100 10 0.000590874
4 6 100 10 0.237712
5 6 100 10 0.27214
6 6 100 10 0.000100661
9 6 100 10 0.27251
10 6 100 10 0.216946
1 7 100 10 0.136614
2 7 100 10 0.136629
3 7 100 10 0.073244
4 7 100 10 0.133181
5 7 100 10 0.136614
7 7 100 10 0.110488
9 7 100 10 0.136614
10 7 100 10 0.136614
3 8 100 10 0.0708095
4 8 100 10 0.000489072
6 8 100 10 0.806492
7 8 100 10 0.122209
2 9 100 10 0.000382106
6 9 100 10 0.00319584
7 9 100 10 0.996422
3 10 100 10 0.00501738
4 10 100 10 0.0132543
5 10 100 10 0.000237513
6 10 100 10 0.174048
7 10 100 10 0.246856
8 10 100 10 0.174969
9 10 100 10 0.174973
10 10 100 10 0.210645
3 11 100 10 0.00120307
4 11 100 10 0.15091
5 11 100 10 0.174602
6 11 100 10 0.115537
7 11 100 10 0.20858
8 11 100 10 0.232767
9 11 100 10 0.0582005
10 11 100 10 0.0582005
1 12 100 10 0.252813
2 12 100 10 0.148939
3 12 100 10 0.051545
4 12 100 10 0.0478409
5 12 100 10 0.00452222
6 12 100 10 0.000408128
7 12 100 10 0.00032213
8 12 100 10 0.0752473
9 12 100 10 0.15868
10 12 100 10 0.259682
1 13 100 10 0.0181985
2 13 100 10 0.000454749
3 13 100 10 9.34649e-06
4 13 100 10 2.72042e-05
5 13 100 10 0.149316
6 13 100 10 0.165877
7 13 100 10 0.167076
8 13 100 10 0.160751
9 13 100 10 0.170992
10 13 100 10 0.167298
2 14 100 10 4.88116e-06
3 14 100 10 2.56649e-05
4 14 100 10 0.00018821
5 14 100 10 0.000160917
6 14 100 10 0.000223702
7 14 100 10 0.00168857
8 14 100 10 0.317638
9 14 100 10 0.340052
10 14 100 10 0.340018
1 15 100 10 0.0865367
2 15 100 10 0.086535
3 15 100 10 0.0865254
4 15 100 10 0.0845268
5 15 100 10 0.12356
6 15 100 10 0.0160538
7 15 100 10 0.172209
8 15 100 10 0.170436
9 15 100 10 0.0870817
10 15 100 10 0.0865364
1 16 100 10 0.223624
2 16 100 10 0.255144
3 16 100 10 0.00519916
4 16 100 10 0.000137355
5 16 100 10 0.000110969
6 16 100 10 5.16061e-05
7 16 100 10 5.01254e-05
8 16 100 10 0.00767466
9 16 100 10 0.250267
10 16 100 10 0.257741
2 17 100 10 0.00254306
3 17 100 10 0.317148
4 17 100 10 0.323439
5 17 100 10 0.324282
6 17 100 10 0.0277119
7 17 100 10 0.00479828
8 17 100 10 2.67948e-05
9 17 100 10 5.14026e-05
2 18 100 10 7.35711e-05
3 18 100 10 0.000558963
4 18 100 10 0.000160843
5 18 100 10 0.000203343
6 18 100 10 0.524358
7 18 100 10 0.474271
8 18 100 10 0.000124735
9 18 100 10 0.000250272
2 19 100 10 2.2316e-05
3 19 100 10 0.000145522
4 19 100 10 3.56705e-05
5 19 100 10 4.74255e-05
6 19 100 10 0.0090195
7 19 100 10 0.0801526
8 19 100 10 0.455434
9 19 100 10 0.455133
10 19 100 10 9.28127e-06
4 20 100 10 1
4 21 100 10 1
4 22 100 10 1.3477e-05
9 22 100 10 0.00021438
10 22 100 10 0.999772
1 0 100 11 1.82786e-06
2 0 100 11 0.0957403
3 0 100 11 0.144934
4 0 100 11 0.21519
5 0 100 11 0.0475018
6 0 100 11 0.237036
7 0 100 11 0.0950034
9 0 100 11 0.00403693
10 0 100 11 0.160555
11 0 100 11 5.58889e-07
1 1 100 11 0.646108
2 1 100 11 0.294204
3 1 100 11 0.0596872
10 1 100 11 1.49162e-06
1 2 100 11 0.198558
2 2 100 11 0.20103
3 2 100 11 0.284338
4 2 100 11 0.215901
5 2 100 11 0.100149
6 2 100 11 2.48661e-05
1 3 100 11 0.146715
2 3 100 11 0.222132
3 3 100 11 0.396442
4 3 100 11 0.159267
6 3 100 11 0.0752843
10 3 100 11 0.00015979
3 4 100 11 0.126561
4 4 100 11 0.253188
5 4 100 11 0.377609
6 4 100 11 0.242643
2 5 100 11 2.89903e-05
3 5 100 11 0.0742846
4 5 100 11 0.146121
5 5 100 11 0.28361
6 5 100 11 0.282845
7 5 100 11 0.142079
8 5 100 11 0.0709936
10 5 100 11 3.79583e-05
3 6 100 11 0.00237003
4 6 100 11 0.373548
6 6 100 11 0.62406
10 6 100 11 2.23688e-05
3 7 100 11 3.05722e-05
4 7 100 11 0.000238502
5 7 100 11 0.178791
6 7 100 11 0.0596022
7 7 100 11 0.238388
8 7 100 11 0.290488
9 7 100 11 0.232462
2 8 100 11 0.103687
4 8 100 11 0.147051
5 8 100 11 0.207373
6 8 100 11 0.217612
7 8 100 11 0.20743
8 8 100 11 0.116847
1 9 100 11 0.0600341
2 9 100 11 0.123155
3 9 100 11 0.104189
4 9 100 11 0.150197
5 9 100 11 0.240114
6 9 100 11 0.0109061
7 9 100 11 0.060035
8 9 100 11 0.0693956
9 9 100 11 0.110039
10 9 100 11 0.0119005
11 9 100 11 0.0600341
2 10 100 11 0.00131448
3 10 100 11 6.26573e-06
6 10 100 11 0.000373041
7 10 100 11 0.0856946
8 10 100 11 0.287036
9 10 100 11 0.226022
10 10 100 11 0.181502
11 10 100 11 0.218052
1 11 100 11 1.96976e-06
6 11 100 11 0.00107156
7 11 100 11 0.17518
8 11 100 11 0.127104
9 11 100 11 0.258819
10 11 100 11 0.350222
11 11 100 11 0.0876009
1 12 100 11 0.0514054
2 12 100 11 0.0977972
3 12 100 11 0.146913
4 12 100 11 0.0488986
5 12 100 11 0.0488986
6 12 100 11 0.043561
7 12 100 11 0.157211
8 12 100 11 0.0977972
9 12 100 11 0.0141231
10 12 100 11 0.0978021
11 12 100 11 0.195593
2 13 100 11 0.000718853
3 13 100 11 0.00067486
4 13 100 11 0.00964367
5 13 100 11 0.072278
6 13 100 11 0.0580694
7 13 100 11 0.11614
8 13 100 11 0.121235
9 13 100 11 0.227811
10 13 100 11 0.152981
11 13 100 11 0.240448
1 14 100 11 0.0752695
2 14 100 11 0.0629854
3 14 100 11 0.0012981
4 14 100 11 1.92886e-06
5 14 100 11 5.22478e-06
6 14 100 11 0.00182085
7 14 100 11 0.0140393
8 14 100 11 0.124542
9 14 100 11 0.14948
10 14 100 11 0.225822
11 14 100 11 0.344736
1 15 100 11 0.140269
2 15 100 11 0.147111
3 15 100 11 1.61512e-05
4 15 100 11 0.00396698
5 15 100 11 0.00084159
6 15 100 11 0.000394533
7 15 100 11 0.000106602
8 15 100 11 0.00048817
9 15 100 11 0.146929
10 15 100 11 0.279358
11 15 100 11 0.280519
4 16 100 11 0.0744671
6 16 100 11 5.76939e-06
8 16 100 11 8.40035e-06
9 16 100 11 0.0164069
10 16 100 11 0.909112
1 17 100 11 0.000140311
3 17 100 11 1.06682e-05
4 17 100 11 3.13508e-06
5 17 100 11 1.89602e-06
6 17 100 11 0.0321307
7 17 100 11 1.09407e-06
8 17 100 11 0.000843767
9 17 100 11 0.325799
10 17 100 11 0.314255
11 17 100 11 0.326814
2 18 100 11 5.15677e-05
3 18 100 11 4.05691e-06
5 18 100 11 0.0053938
6 18 100 11 0.42189
7 18 100 11 0.572541
8 18 100 11 9.59127e-05
9 18 100 11 2.33203e-05
4 19 100 11 0.0459287
10 19 100 11 0.954071
1 20 100 11 0.000527471
2 20 100 11 2.03031e-05
3 20 100 11 4.87823e-07
5 20 100 11 2.22188e-05
6 20 100 11 0.00147363
7 20 100 11 0.0320118
8 20 100 11 0.321923
9 20 100 11 0.321924
10 20 100 11 0.000117046
11 20 100 11 0.32198
1 0 100 12 7.22946e-06
2 0 100 12 0.0860618
3 0 100 12 0.1442
4 0 100 12 0.0761421
5 0 100 12 0.00693464
6 0 100 12 0.151629
8 0 100 12 0.00934515
9 0 100 12 0.379886
10 0 100 12 0.0447506
11 0 100 12 0.101043
1 1 100 12 0.553373
2 1 100 12 0.269396
3 1 100 12 0.17723
1 2 100 12 0.203563
2 2 100 12 0.303767
3 2 100 12 0.254488
4 2 100 12 0.096458
5 2 100 12 0.101785
6 2 100 12 0.000303474
7 2 100 12 0.0396351
1 3 100 12 0.110531
2 3 100 12 1.72751e-06
3 3 100 12 0.108582
4 3 100 12 0.327957
5 3 100 12 0.223389
6 3 100 12 0.00553598
7 3 100 12 0.109896
8 3 100 12 0.114108
1 4 100 12 0.235252
2 4 100 12 0.467259
3 4 100 12 0.243392
4 4 100 12 0.00344928
6 4 100 12 0.0219438
8 4 100 12 0.0286957
10 4 100 12 1.42541e-06
11 4 100 12 6.8202e-06
2 5 100 12 0.144149
3 5 100 12 0.160832
4 5 100 12 0.406743
5 5 100 12 0.00011113
6 5 100 12 3.58574e-05
9 5 100 12 0.144114
10 5 100 12 0.144014
1 6 100 12 2.69171e-06
2 6 100 12 0.00108618
3 6 100 12 0.0862616
4 6 100 12 0.0871279
5 6 100 12 0.341647
6 6 100 12 0.261602
7 6 100 12 0.222273
1 7 100 12 0.147536
2 7 100 12 9.67125e-05
4 7 100 12 0.283402
6 7 100 12 0.0776854
7 7 100 12 0.187818
8 7 100 12 0.151879
9 7 100 12 0.151583
2 8 100 12 1.83128e-05
3 8 100 12 0.136625
4 8 100 12 0.190472
5 8 100 12 0.268121
6 8 100 12 0.0820735
8 8 100 12 0.117838
9 8 100 12 0.13653
10 8 100 12 0.0683225
3 9 100 12 0.0635306
4 9 100 12 0.166126
5 9 100 12 0.191826
6 9 100 12 0.268324
7 9 100 12 0.176975
8 9 100 12 1.32534e-06
10 9 100 12 0.00621706
11 9 100 12 0.0634999
12 9 100 12 0.0634999
1 10 100 12 0.121278
5 10 100 12 0.118877
6 10 100 12 0.123191
7 10 100 12 0.123954
8 10 100 12 0.148746
10 10 100 12 0.121397
11 10 100 12 0.121279
12 10 100 12 0.121279
1 11 100 12 2.38826e-05
2 11 100 12 3.87634e-06
3 11 100 12 3.48938e-05
5 11 100 12 0.000209177
6 11 100 12 0.285371
7 11 100 12 0.692071
8 11 100 12 0.0222857
1 12 100 12 0.00190197
6 12 100 12 0.00054479
8 12 100 12 0.297778
9 12 100 12 0.191067
10 12 100 12 0.190616
11 12 100 12 0.190835
12 12 100 12 0.127257
3 13 100 12 2.72934e-06
6 13 100 12 0.200083
7 13 100 12 0.204374
8 13 100 12 0.405888
9 13 100 12 0.189652
1 14 100 12 1.37943e-05
2 14 100 12 2.35476e-05
3 14 100 12 5.7009e-05
4 14 100 12 0.000427136
5 14 100 12 0.000482622
6 14 100 12 0.00132924
7 14 100 12 0.000112169
8 14 100 12 0.00112002
9 14 100 12 0.140958
10 14 100 12 0.255046
11 14 100 12 0.359924
12 14 100 12 0.240506
1 15 100 12 6.23935e-05
2 15 100 12 8.15977e-06
3 15 100 12 0.000274702
4 15 100 12 0.000246632
5 15 100 12 0.135324
6 15 100 12 0.135591
7 15 100 12 0.109968
8 15 100 12 0.237103
9 15 100 12 0.00734732
10 15 100 12 0.112075
11 15 100 12 0.000392878
12 15 100 12 0.261607
1 16 100 12 0.133239
2 16 100 12 0.132696
3 16 100 12 0.00274848
4 16 100 12 0.000497827
5 16 100 12 0.00219369
6 16 100 12 0.0652061
7 16 100 12 0.0514874
8 16 100 12 0.135544
9 16 100 12 0.129119
10 16 100 12 0.0807081
11 16 100 12 0.133286
12 16 100 12 0.133274
1 17 100 12 2.51887e-05
2 17 100 12 7.6866e-05
3 17 100 12 0.00243725
4 17 100 12 0.0228312
5 17 100 12 0.0113474
6 17 100 12 0.0834306
7 17 100 12 0.109284
8 17 100 12 0.106026
9 17 100 12 0.049776
10 17 100 12 0.218613
11 17 100 12 0.20081
12 17 100 12 0.195344
1 18 100 12 0.147737
2 18 100 12 0.086791
3 18 100 12 0.0988379
4 18 100 12 0.00297634
5 18 100 12 3.11225e-05
6 18 100 12 1.73346e-07
7 18 100 12 3.25984e-07
8 18 100 12 6.55612e-07
9 18 100 12 0.0762937
10 18 100 12 0.146867
11 18 100 12 0.179764
12 18 100 12 0.260702
5 19 100 12 0.00897312
9 19 100 12 0.971014
11 19 100 12 0.0200124
3 20 100 12 0.000992506
4 20 100 12 0.0192156
5 20 100 12 1.57055e-06
6 20 100 12 0.0842029
7 20 100 12 0.114997
8 20 100 12 0.113815
9 20 100 12 0.115101
10 20 100 12 0.19885
11 20 100 12 0.117603
12 20 100 12 0.235221
1 21 100 12 1.67951e-05
2 21 100 12 9.164e-07
3 21 100 12 0.000141777
4 21 100 12 0.000138042
6 21 100 12 3.81028e-06
7 21 100 12 5.28795e-06
8 21 100 12 0.00147623
10 21 100 12 0.323378
11 21 100 12 0.337414
12 21 100 12 0.337426
1 0 100 13 3.00206e-05
2 0 100 13 0.107406
3 0 100 13 0.04778
4 0 100 13 0.201184
5 0 100 13 0.0708883
6 0 100 13 0.15154
8 0 100 13 0.101026
9 0 100 13 0.0653218
10 0 100 13 0.100919
11 0 100 13 0.0509855
12 0 100 13 0.10292
1 1 100 13 0.531613
2 1 100 13 0.202444
3 1 100 13 0.133033
4 1 100 13 0.132906
8 1 100 13 3.35874e-06
1 2 100 13 0.350875
2 2 100 13 0.264247
3 2 100 13 0.145526
4 2 100 13 0.0224296
5 2 100 13 0.0755332
6 2 100 13 0.070535
7 2 100 13 0.0705819
9 2 100 13 2.28669e-05
11 2 100 13 0.000249364
1 3 100 13 0.194424
2 3 100 13 0.489613
3 3 100 13 0.204142
4 3 100 13 0.00011459
6 3 100 13 0.111706
1 4 100 13 0.065856
2 4 100 13 0.14836
3 4 100 13 0.246255
4 4 100 13 0.296759
5 4 100 13 0.143269
6 4 100 13 0.0495854
7 4 100 13 0.0495257
8 4 100 13 0.00038959
2 5 100 13 0.000219645
3 5 100 13 0.249653
4 5 100 13 0.171512
5 5 100 13 0.576726
6 5 100 13 0.00188171
8 5 100 13 3.46957e-06
9 5 100 13 4.00504e-06
2 6 100 13 9.95595e-06
4 6 100 13 0.326582
5 6 100 13 0.519843
6 6 100 13 0.153084
9 6 100 13 0.00047653
12 6 100 13 3.987e-06
2 7 100 13 5.90372e-05
4 7 100 13 0.00250797
5 7 100 13 0.200265
6 7 100 13 0.418708
7 7 100 13 0.283751
8 7 100 13 0.0943181
9 7 100 13 1.84102e-06
10 7 100 13 2.23337e-06
11 7 100 13 0.000385723
2 8 100 13 0.00265118
6 8 100 13 0.271858
7 8 100 13 0.362775
8 8 100 13 0.362716
4 9 100 13 1.83466e-05
6 9 100 13 0.000898179
8 9 100 13 0.0122673
9 9 100 13 0.986816
4 10 100 13 4.97477e-06
8 10 100 13 0.000176024
9 10 100 13 0.621196
10 10 100 13 0.378623
1 11 100 13 0.150066
2 11 100 13 0.0809333
3 11 100 13 0.23393
4 11 100 13 0.077973
5 11 100 13 0.1559
6 11 100 13 3.22531e-06
8 11 100 13 1.4696e-05
9 11 100 13 0.06401
10 11 100 13 0.000509532
11 11 100 13 0.158683
12 11 100 13 0.0779767
1 12 100 13 0.131863
3 12 100 13 0.00149125
8 12 100 13 0.203385
9 12 100 13 0.132365
10 12 100 13 0.134745
11 12 100 13 0.131772
13 12 100 13 0.264378
6 13 100 13 0.0117228
9 13 100 13 0.220574
10 13 100 13 0.458322
11 13 100 13 0.282213
12 13 100 13 0.0271683
2 14 100 13 0.000348042
5 14 100 13 0.0431265
6 14 100 13 0.0927522
7 14 100 13 0.185528
8 14 100 13 0.185246
9 14 100 13 0.0771421
10 14 100 13 0.0966588
11 14 100 13 0.0928319
12 14 100 13 0.0873286
13 14 100 13 0.139038
1 15 100 13 0.0889636
2 15 100 13 0.0486543
3 15 100 13 0.0575343
4 15 100 13 8.65587e-05
5 15 100 13 0.0107683
6 15 100 13 0.0215111
7 15 100 13 0.135238
8 15 100 13 0.106718
9 15 100 13 0.121093
10 15 100 13 0.0955824
11 15 100 13 0.107257
12 15 100 13 0.103375
13 15 100 13 0.10322
1 16 100 13 0.0715282
2 16 100 13 0.00954105
3 16 100 13 0.0127835
4 16 100 13 2.88158e-06
5 16 100 13 0.00102882
6 16 100 13 4.47175e-05
7 16 100 13 0.129849
8 16 100 13 0.203754
9 16 100 13 0.0632268
10 16 100 13 0.117725
11 16 100 13 0.0751665
12 16 100 13 0.157303
13 16 100 13 0.158047
1 17 100 13 1.20946e-06
2 17 100 13 1.82494e-06
3 17 100 13 1.04536e-05
4 17 100 13 0.00353885
5 17 100 13 3.57208e-05
6 17 100 13 0.0182141
7 17 100 13 0.0490493
8 17 100 13 0.0731413
9 17 100 13 0.0688591
10 17 100 13 0.128789
11 17 100 13 0.213181
12 17 100 13 0.223074
13 17 100 13 0.222105
1 18 100 13 0.110683
2 18 100 13 0.110679
3 18 100 13 0.110656
4 18 100 13 0.105222
5 18 100 13 5.28854e-07
6 18 100 13 0.00136681
7 18 100 13 1.98513e-05
8 18 100 13 6.9593e-06
9 18 100 13 1.05449e-05
10 18 100 13 0.0021138
11 18 100 13 0.117655
12 18 100 13 0.22022
13 18 100 13 0.221366
2 19 100 13 2.19944e-05
6 19 100 13 3.81613e-07
7 19 100 13 3.79788e-07
8 19 100 13 1.93733e-06
9 19 100 13 0.0019494
10 19 100 13 0.146842
11 19 100 13 0.283095
12 19 100 13 0.284061
13 19 100 13 0.284028
1 20 100 13 0.688488
2 20 100 13 0.0001828
11 20 100 13 0.000121249
12 20 100 13 0.00128739
13 20 100 13 0.30992
1 0 100 14 0.000199391
2 0 100 14 0.10734
3 0 100 14 0.103468
4 0 100 14 0.0843445
5 0 100 14 0.144782
6 0 100 14 0.154027
7 0 100 14 0.0513723
8 0 100 14 0.107411
9 0 100 14 0.0513346
10 0 100 14 0.0514565
11 0 100 14 0.050396
12 0 100 14 0.0917822
13 0 100 14 0.00208603
14 0 100 14 1.10162e-06
1 1 100 14 0.42078
2 1 100 14 0.495046
3 1 100 14 0.0841481
7 1 100 14 1.37959e-05
11 1 100 14 1.18947e-05
1 2 100 14 0.148115
2 2 100 14 0.211142
3 2 100 14 0.221113
4 2 100 14 0.197318
5 2 100 14 0.0738309
6 2 100 14 0.0737036
7 2 100 14 0.0747746
8 2 100 14 3.01231e-06
1 3 100 14 0.202811
2 3 100 14 0.148005
3 3 100 14 0.102541
4 3 100 14 0.158903
5 3 100 14 0.201478
6 3 100 14 0.135424
7 3 100 14 0.0508265
8 3 100 14 1.05647e-05
3 4 100 14 0.319294
4 4 100 14 0.317102
5 4 100 14 0.256086
6 4 100 14 0.107518
3 5 100 14 2.72044e-05
4 5 100 14 0.291822
5 5 100 14 0.0822112
6 5 100 14 0.247472
7 5 100 14 0.300077
8 5 100 14 0.0783367
12 5 100 14 5.39455e-05
1 6 100 14 0.353871
4 6 100 14 0.00295806
8 6 100 14 0.643171
2 7 100 14 0.00881611
5 7 100 14 0.286837
6 7 100 14 0.42697
7 7 100 14 0.277078
11 7 100 14 0.000298705
2 8 100 14 0.938267
5 8 100 14 0.00351828
6 8 100 14 0.000703544
8 8 100 14 0.0563327
11 8 100 14 0.00117836
2 9 100 14 1.7992e-06
7 9 100 14 0.31032
8 9 100 14 0.495
9 9 100 14 0.194678
2 10 100 14 0.00051412
3 10 100 14 0.000110669
4 10 100 14 2.15163e-06
5 10 100 14 0.000372669
7 10 100 14 0.11423
8 10 100 14 0.225732
9 10 100 14 0.443672
10 10 100 14 0.172589
11 10 100 14 0.0427723
13 10 100 14 5.04305e-06
2 11 100 14 0.0231485
3 11 100 14 9.08462e-06
6 11 100 14 9.82468e-06
7 11 100 14 0.0720365
8 11 100 14 0.116003
9 11 100 14 0.210869
10 11 100 14 0.216996
11 11 100 14 0.288883
12 11 100 14 0.0720445
3 12 100 14 0.0905578
4 12 100 14 0.0929524
5 12 100 14 0.181116
6 12 100 14 0.177991
7 12 100 14 0.0910966
10 12 100 14 0.181053
11 12 100 14 0.181115
12 12 100 14 0.0040888
13 12 100 14 1.04651e-06
14 12 100 14 2.84198e-05
4 13 100 14 6.74506e-05
5 13 100 14 7.86198e-05
8 13 100 14 0.012148
9 13 100 14 0.084174
10 13 100 14 0.293035
11 13 100 14 0.103503
12 13 100 14 0.170359
13 13 100 14 0.168317
14 13 100 14 0.168318
4 14 100 14 1.05634e-05
5 14 100 14 1.4057e-05
10 14 100 14 0.291696
11 14 100 14 0.126395
12 14 100 14 0.329209
13 14 100 14 0.252675
1 15 100 14 0.0823148
2 15 100 14 7.62929e-05
3 15 100 14 0.0823138
4 15 100 14 0.000165398
9 15 100 14 0.082486
11 15 100 14 0.0826684
12 15 100 14 0.176119
13 15 100 14 0.164628
14 15 100 14 0.329228
1 16 100 14 0.0795242
2 16 100 14 8.99302e-06
3 16 100 14 0.0788241
4 16 100 14 1.83087e-05
5 16 100 14 2.08378e-06
6 16 100 14 7.46278e-07
7 16 100 14 3.38077e-05
8 16 100 14 0.00135048
9 16 100 14 0.0218824
10 16 100 14 0.0621048
11 16 100 14 0.157998
12 16 100 14 0.160105
13 16 100 14 0.279097
14 16 100 14 0.159051
1 17 100 14 0.0770348
2 17 100 14 0.00728649
3 17 100 14 0.000943383
4 17 100 14 3.65736e-05
5 17 100 14 1.26687e-05
6 17 100 14 1.1514e-07
7 17 100 14 4.20559e-06
8 17 100 14 1.4196e-05
9 17 100 14 0.0442621
10 17 100 14 0.0412324
11 17 100 14 0.192862
12 17 100 14 0.241753
13 17 100 14 0.163449
14 17 100 14 0.231109
1 18 100 14 0.171966
2 18 100 14 0.147178
3 18 100 14 0.140062
4 18 100 14 0.000718736
5 18 100 14 2.4307e-05
6 18 100 14 2.38811e-05
7 18 100 14 0.000101917
8 18 100 14 7.13114e-06
9 18 100 14 0.000504389
10 18 100 14 9.72504e-07
11 18 100 14 1.53945e-05
12 18 100 14 0.00093168
13 18 100 14 0.257495
14 18 100 14 0.28097
8 19 100 14 1.2383e-06
9 19 100 14 7.41685e-06
10 19 100 14 0.331158
11 19 100 14 1.76956e-06
12 19 100 14 7.74901e-05
13 19 100 14 0.223282
14 19 100 14 0.445473
1 20 100 14 0.0102522
10 20 100 14 6.23984e-07
11 20 100 14 0.247392
12 20 100 14 0.24745
13 20 100 14 0.247453
14 20 100 14 0.247453
2 0 100 15 0.216202
3 0 100 15 0.208751
4 0 100 15 8.06449e-06
5 0 100 15 0.0074095
6 0 100 15 0.000347788
7 0 100 15 7.54143e-06
10 0 100 15 0.0965653
11 0 100 15 0.470704
15 0 100 15 4.20911e-06
1 1 100 15 0.584657
2 1 100 15 0.251184
3 1 100 15 0.16416
1 2 100 15 0.188895
2 2 100 15 0.188126
3 2 100 15 0.192113
4 2 100 15 0.241941
5 2 100 15 0.188895
11 2 100 15 2.6878e-05
12 2 100 15 2.11911e-06
2 3 100 15 0.464094
3 3 100 15 0.535747
10 3 100 15 0.000158444
2 4 100 15 0.246932
3 4 100 15 0.356407
4 4 100 15 0.300949
6 4 100 15 0.0957126
4 5 100 15 0.385703
5 5 100 15 0.489136
6 5 100 15 0.124589
7 5 100 15 0.000571317
3 6 100 15 1.4099e-06
4 6 100 15 0.0517496
6 6 100 15 0.402062
7 6 100 15 0.2731
8 6 100 15 0.273087
5 7 100 15 0.15506
6 7 100 15 0.483805
7 7 100 15 0.361135
4 8 100 15 0.0316596
5 8 100 15 0.195622
7 8 100 15 0.301053
8 8 100 15 0.245539
9 8 100 15 0.113054
10 8 100 15 0.113073
6 9 100 15 0.410149
7 9 100 15 0.387043
8 9 100 15 0.202776
9 9 100 15 3.19025e-05
4 10 100 15 0.0990753
5 10 100 15 0.0983773
6 10 100 15 5.32625e-06
7 10 100 15 0.00560411
8 10 100 15 0.202446
9 10 100 15 0.297224
10 10 100 15 0.198191
11 10 100 15 0.0990768
9 11 100 15 0.179786
10 11 100 15 0.362737
11 11 100 15 0.00205087
12 11 100 15 0.275583
13 11 100 15 0.179782
14 11 100 15 6.20045e-05
7 12 100 15 0.124622
8 12 100 15 0.222611
9 12 100 15 0.242117
10 12 100 15 0.126233
12 12 100 15 0.0324283
14 12 100 15 0.126004
15 12 100 15 0.125984
1 13 100 15 5.06466e-05
9 13 100 15 0.999949
6 14 100 15 4.8435e-05
9 14 100 15 0.127117
10 14 100 15 0.248022
11 14 100 15 0.119944
12 14 100 15 0.145095
13 14 100 15 0.119944
14 14 100 15 0.119884
15 14 100 15 0.119944
10 15 100 15 0.0367017
11 15 100 15 0.102659
12 15 100 15 0.156502
13 15 100 15 0.234699
14 15 100 15 0.234753
15 15 100 15 0.234686
1 16 100 15 0.14765
2 16 100 15 0.14765
3 16 100 15 0.143502
8 16 100 15 0.14765
9 16 100 15 0.147527
10 16 100 15 0.147256
11 16 100 15 0.118765
3 17 100 15 0.285303
4 17 100 15 0.0231847
10 17 100 15 0.420287
11 17 100 15 0.121289
12 17 100 15 0.149937
3 18 100 15 0.00724256
7 18 100 15 0.00115893
10 18 100 15 0.378746
11 18 100 15 0.594583
12 18 100 15 0.0105365
13 18 100 15 0.00734619
14 18 100 15 0.000386546
3 19 100 15 0.0066017
10 19 100 15 9.32738e-06
11 19 100 15 0.00229822
12 19 100 15 0.259729
13 19 100 15 0.243792
14 19 100 15 0.243785
15 19 100 15 0.243785
3 20 100 15 2.31045e-07
4 20 100 15 1.30895e-05
8 20 100 15 8.08215e-06
9 20 100 15 0.000425722
10 20 100 15 0.0112151
11 20 100 15 0.255276
12 20 100 15 0.291709
13 20 100 15 0.223797
14 20 100 15 0.217516
15 20 100 15 3.9429e-05
3 21 100 15 0.000562563
4 21 100 15 2.94439e-06
10 21 100 15 0.00427261
11 21 100 15 0.00463101
12 21 100 15 0.000902725
13 21 100 15 5.35267e-05
14 21 100 15 0.989575
4 22 100 15 3.19348e-06
10 22 100 15 3.04981e-06
11 22 100 15 0.100872
12 22 100 15 0.13267
13 22 100 15 0.201623
14 22 100 15 0.161435
15 22 100 15 0.403394
1 0 100 16 1.39411e-05
2 0 100 16 0.000163748
3 0 100 16 0.107086
4 0 100 16 0.0531506
5 0 100 16 0.0362135
6 0 100 16 0.0544965
7 0 100 16 0.103108
8 0 100 16 0.107204
9 0 100 16 0.159708
10 0 100 16 0.0536854
12 0 100 16 0.1603
13 0 100 16 0.0583905
14 0 100 16 0.106479
1 1 100 16 0.736173
2 1 100 16 0.263827
1 2 100 16 0.695529
2 2 100 16 0.30444
8 2 100 16 3.16364e-05
1 3 100 16 0.340936
2 3 100 16 0.0201194
3 3 100 16 0.334387
4 3 100 16 0.304557
2 4 100 16 0.401189
3 4 100 16 0.598766
6 4 100 16 1.9228e-05
8 4 100 16 2.65274e-05
2 5 100 16 0.259105
3 5 100 16 0.295029
4 5 100 16 0.419169
5 5 100 16 0.0266913
8 5 100 16 5.38997e-06
2 6 100 16 0.133552
4 6 100 16 7.49744e-05
5 6 100 16 0.866351
8 6 100 16 1.02108e-05
9 6 100 16 1.18944e-05
2 7 100 16 0.224906
4 7 100 16 0.311324
5 7 100 16 0.46377
2 8 100 16 0.0781637
3 8 100 16 0.0781525
4 8 100 16 0.079976
5 8 100 16 0.373748
6 8 100 16 0.389956
8 8 100 16 3.2576e-06
1 9 100 16 0.116162
2 9 100 16 0.214774
3 9 100 16 0.0976873
4 9 100 16 0.131418
6 9 100 16 0.111932
7 9 100 16 0.216078
8 9 100 16 0.111935
12 9 100 16 1.44292e-05
2 10 100 16 3.80081e-06
3 10 100 16 0.00909684
4 10 100 16 0.0704316
6 10 100 16 0.136893
7 10 100 16 0.215434
8 10 100 16 0.142944
9 10 100 16 0.0714719
10 10 100 16 0.142947
11 10 100 16 0.139316
12 10 100 16 0.0714627
5 11 100 16 0.187202
8 11 100 16 0.437801
9 11 100 16 0.18756
10 11 100 16 0.187207
11 11 100 16 1.75418e-05
13 11 100 16 0.000211482
2 12 100 16 0.000195217
4 12 100 16 0.110386
5 12 100 16 0.0652705
6 12 100 16 2.20051e-06
7 12 100 16 0.0139076
9 12 100 16 0.199821
10 12 100 16 0.19986
11 12 100 16 0.409707
12 12 100 16 3.95746e-06
13 12 100 16 0.000124536
14 12 100 16 0.000722278
2 13 100 16 0.000546729
4 13 100 16 0.184792
5 13 100 16 0.0153222
6 13 100 16 0.7793
7 13 100 16 0.0169991
9 13 100 16 0.00290825
14 13 100 16 0.000131588
2 14 100 16 2.34616e-05
4 14 100 16 0.010997
5 14 100 16 0.327074
6 14 100 16 0.32695
7 14 100 16 0.333343
8 14 100 16 0.00126955
9 14 100 16 5.70063e-05
10 14 100 16 8.29173e-05
13 14 100 16 0.000203789
4 15 100 16 0.000317869
5 15 100 16 5.1264e-06
8 15 100 16 0.0746284
9 15 100 16 0.115623
10 15 100 16 0.231669
12 15 100 16 0.115551
13 15 100 16 0.115551
14 15 100 16 0.115551
15 15 100 16 0.115551
16 15 100 16 0.115551
7 16 100 16 0.0399935
8 16 100 16 0.291309
10 16 100 16 7.24906e-06
11 16 100 16 0.252001
12 16 100 16 0.415986
13 16 100 16 0.00059048
14 16 100 16 0.000112283
5 17 100 16 0.121292
7 17 100 16 0.234165
8 17 100 16 0.278992
9 17 100 16 9.61516e-06
14 17 100 16 0.121868
15 17 100 16 0.121846
16 17 100 16 0.121827
3 18 100 16 5.30712e-06
4 18 100 16 9.21814e-05
5 18 100 16 0.0392176
6 18 100 16 0.0998924
7 18 100 16 0.113639
8 18 100 16 2.48753e-06
9 18 100 16 0.18208
10 18 100 16 0.0701105
11 18 100 16 0.161875
12 18 100 16 0.228184
13 18 100 16 0.104772
14 18 100 16 1.54116e-05
15 18 100 16 0.000114281
1 19 100 16 2.08602e-07
2 19 100 16 0.000124225
3 19 100 16 7.1557e-06
4 19 100 16 3.50055e-05
5 19 100 16 5.82189e-06
6 19 100 16 3.83845e-06
7 19 100 16 0.000209435
8 19 100 16 0.0124044
9 19 100 16 0.133537
10 19 100 16 0.133679
11 19 100 16 0.199244
12 19 100 16 0.0667154
13 19 100 16 0.136713
14 19 100 16 0.111653
15 19 100 16 0.133144
16 19 100 16 0.0725249
2 20 100 16 8.44527e-05
4 20 100 16 9.74114e-06
6 20 100 16 0.00296419
8 20 100 16 0.000536674
9 20 100 16 0.156346
10 20 100 16 0.000120541
11 20 100 16 0.000117064
12 20 100 16 0.0301492
13 20 100 16 0.549664
14 20 100 16 0.000860473
15 20 100 16 0.259148
1 21 100 16 2.27426e-06
2 21 100 16 0.00018335
3 21 100 16 8.44502e-06
4 21 100 16 8.77134e-05
5 21 100 16 0.0333966
6 21 100 16 0.0396603
7 21 100 16 4.70227e-06
8 21 100 16 0.0694845
9 21 100 16 4.39452e-06
10 21 100 16 0.106595
11 21 100 16 0.109512
12 21 100 16 0.0686344
13 21 100 16 0.138094
14 21 100 16 0.161042
15 21 100 16 0.134247
16 21 100 16 0.139043
5 22 100 16 0.00369135
7 22 100 16 1.85944e-05
8 22 100 16 2.87544e-07
9 22 100 16 1.89703e-05
10 22 100 16 2.40438e-07
11 22 100 16 0.00178386
12 22 100 16 0.0968138
13 22 100 16 0.130415
14 22 100 16 0.13487
15 22 100 16 0.25277
16 22 100 16 0.379618
2 23 100 16 0.000405604
3 23 100 16 5.60563e-06
4 23 100 16 0.00278783
5 23 100 16 0.00155204
6 23 100 16 0.229559
7 23 100 16 0.24685
8 23 100 16 0.00360993
9 23 100 16 0.23438
10 23 100 16 0.226605
11 23 100 16 0.00557972
12 23 100 16 7.04869e-05
13 23 100 16 0.04612
14 23 100 16 0.00234855
15 23 100 16 0.00012631
1 24 100 16 0.156041
2 24 100 16 0.00412569
3 24 100 16 2.15362e-06
4 24 100 16 3.31813e-06
5 24 100 16 0.00315024
6 24 100 16 1.17476e-05
8 24 100 16 0.000118172
10 24 100 16 2.98398e-05
11 24 100 16 0.0494444
12 24 100 16 0.0012338
13 24 100 16 8.52825e-06
14 24 100 16 0.262907
15 24 100 16 0.261455
16 24 100 16 0.261469
1 25 100 16 0.111466
2 25 100 16 0.111466
3 25 100 16 0.111465
4 25 100 16 0.11026
5 25 100 16 1.34613e-07
6 25 100 16 0.000684417
7 25 100 16 3.21416e-06
9 25 100 16 4.11594e-06
10 25 100 16 0.000819429
11 25 100 16 0.108001
12 25 100 16 0.111444
13 25 100 16 0.111455
14 25 100 16 1.34613e-07
15 25 100 16 0.111467
16 25 100 16 0.111466
2 26 100 16 5.18905e-06
7 26 100 16 0.000116841
8 26 100 16 7.41268e-05
9 26 100 16 6.52768e-05
10 26 100 16 2.66271e-05
11 26 100 16 0.98899
13 26 100 16 0.0106769
15 26 100 16 4.54591e-05
5 27 100 16 0.0002232
8 27 100 16 7.99559e-07
10 27 100 16 3.98722e-06
11 27 100 16 0.00827158
12 27 100 16 0.330045
13 27 100 16 0.332717
14 27 100 16 0.328729
15 27 100 16 8.89118e-06
12 28 100 16 0.000329323
15 28 100 16 0.999671
2 29 100 16 0.867164
7 29 100 16 0.0492257
9 29 100 16 0.0492257
15 29 100 16 0.0343843
5 30 100 16 0.000127558
10 30 100 16 1.83716e-06
11 30 100 16 0.000162231
12 30 100 16 0.000243373
13 30 100 16 5.76771e-05
14 30 100 16 0.000389666
15 30 100 16 0.00604453
16 30 100 16 0.992973
12 31 100 16 1
8 32 100 16 1.20039e-05
9 32 100 16 5.53058e-06
10 32 100 16 1.50835e-05
11 32 100 16 0.979691
13 32 100 16 0.0201438
14 32 100 16 0.000107353
15 32 100 16 2.50059e-05
12 33 100 16 1
12 34 100 16 1
1 35 100 16 1.25357e-06
2 35 100 16 2.67432e-07
11 35 100 16 0.00339461
13 35 100 16 0.246955
14 35 100 16 0.24988
15 35 100 16 0.249884
16 35 100 16 0.249885
1 0 100 17 6.38319e-06
2 0 100 17 0.0303264
3 0 100 17 0.153912
4 0 100 17 0.0586433
5 0 100 17 0.05055
6 0 100 17 0.0587761
7 0 100 17 0.0587023
8 0 100 17 0.0292335
9 0 100 17 0.0864693
10 0 100 17 3.28543e-06
11 0 100 17 0.0287427
12 0 100 17 0.0877744
13 0 100 17 0.0892477
14 0 100 17 0.0950858
15 0 100 17 0.0880575
16 0 100 17 0.0844691
1 1 100 17 0.343769
2 1 100 17 0.338606
3 1 100 17 0.0687678
4 1 100 17 0.111291
5 1 100 17 0.0687623
6 1 100 17 0.0687623
9 1 100 17 1.39342e-05
14 1 100 17 2.88204e-05
1 2 100 17 0.292011
2 2 100 17 0.362353
3 2 100 17 0.197687
4 2 100 17 0.134503
6 2 100 17 0.000166208
7 2 100 17 0.0132423
9 2 100 17 4.64125e-06
13 2 100 17 3.21712e-05
1 3 100 17 0.0937243
2 3 100 17 0.0935704
3 3 100 17 0.174652
4 3 100 17 0.187457
5 3 100 17 0.268642
6 3 100 17 0.0995304
7 3 100 17 0.0823807
8 3 100 17 3.84519e-06
14 3 100 17 2.27366e-05
16 3 100 17 1.60657e-05
3 4 100 17 0.154668
4 4 100 17 0.275117
5 4 100 17 0.150282
6 4 100 17 0.00710452
7 4 100 17 0.275164
8 4 100 17 0.137561
11 4 100 17 6.17535e-05
12 4 100 17 3.3475e-05
15 4 100 17 8.95998e-06
2 5 100 17 0.0169826
3 5 100 17 0.0854852
4 5 100 17 0.099109
5 5 100 17 0.308307
6 5 100 17 0.190543
8 5 100 17 0.18936
9 5 100 17 0.110198
14 5 100 17 1.55901e-05
1 6 100 17 0.0547605
2 6 100 17 0.0547606
3 6 100 17 0.0547606
4 6 100 17 2.31438e-05
5 6 100 17 4.74584e-05
6 6 100 17 0.164012
7 6 100 17 0.163907
8 6 100 17 0.125821
9 6 100 17 0.0545536
10 6 100 17 0.163447
11 6 100 17 0.111312
12 6 100 17 0.0516985
14 6 100 17 0.000888105
15 6 100 17 8.84438e-06
1 7 100 17 0.657606
2 7 100 17 0.325546
3 7 100 17 4.6483e-05
6 7 100 17 0.0163117
7 7 100 17 3.3039e-05
12 7 100 17 0.000361157
13 7 100 17 1.24734e-05
14 7 100 17 8.3524e-05
2 8 100 17 0.0512034
3 8 100 17 0.0506619
4 8 100 17 0.142428
5 8 100 17 0.152171
6 8 100 17 0.249249
7 8 100 17 0.252825
8 8 100 17 0.101448
10 8 100 17 4.49012e-06
15 8 100 17 3.34091e-06
16 8 100 17 6.41942e-06
2 9 100 17 9.88848e-06
4 9 100 17 0.483658
5 9 100 17 0.484925
10 9 100 17 4.41066e-05
13 9 100 17 0.0313631
5 10 100 17 2.46263e-06
6 10 100 17 0.112676
9 10 100 17 0.351299
10 10 100 17 0.31081
11 10 100 17 0.112513
12 10 100 17 0.112692
15 10 100 17 8.25946e-06
3 11 100 17 2.24589e-06
6 11 100 17 0.0531268
7 11 100 17 0.106481
8 11 100 17 0.307519
9 11 100 17 0.315909
10 11 100 17 0.159425
11 11 100 17 0.0574743
14 11 100 17 6.29576e-05
4 12 100 17 0.000772142
6 12 100 17 3.86814e-05
8 12 100 17 0.159296
9 12 100 17 0.0113741
10 12 100 17 0.507165
11 12 100 17 0.321334
12 12 100 17 2.01522e-05
5 13 100 17 4.10378e-06
6 13 100 17 1.28864e-05
10 13 100 17 0.166121
11 13 100 17 0.436677
12 13 100 17 0.397186
3 14 100 17 0.080556
4 14 100 17 0.0657354
9 14 100 17 1.39675e-06
10 14 100 17 6.7332e-06
11 14 100 17 0.148059
12 14 100 17 0.22241
13 14 100 17 0.236025
14 14 100 17 0.161138
15 14 100 17 0.086068
1 15 100 17 0.143505
2 15 100 17 0.0215263
4 15 100 17 0.0540986
9 15 100 17 0.000216704
10 15 100 17 6.65071e-05
12 15 100 17 0.00745444
13 15 100 17 0.143786
14 15 100 17 0.195918
15 15 100 17 0.143427
16 15 100 17 0.146496
17 15 100 17 0.143506
3 16 100 17 5.24522e-06
5 16 100 17 0.0298343
9 16 100 17 0.157021
10 16 100 17 0.136763
11 16 100 17 7.84608e-06
12 16 100 17 0.0952835
13 16 100 17 0.291406
14 16 100 17 0.144838
15 16 100 17 2.95796e-06
17 16 100 17 0.144838
2 17 100 17 1.45788e-06
3 17 100 17 1.26813e-06
5 17 100 17 0.000150539
6 17 100 17 1.66195e-06
7 17 100 17 2.47219e-05
13 17 100 17 0.209183
14 17 100 17 0.256743
15 17 100 17 0.164372
16 17 100 17 0.152154
17 17 100 17 0.217368
4 18 100 17 7.35294e-05
7 18 100 17 9.91561e-06
10 18 100 17 0.0510863
12 18 100 17 0.237712
13 18 100 17 0.237741
14 18 100 17 0.23566
15 18 100 17 0.237694
16 18 100 17 2.3316e-05
2 19 100 17 8.34499e-05
3 19 100 17 0.000587774
4 19 100 17 0.000314026
5 19 100 17 7.2543e-05
6 19 100 17 0.0199923
7 19 100 17 0.0540548
8 19 100 17 0.022949
9 19 100 17 0.0238811
10 19 100 17 0.024941
11 19 100 17 0.0801651
12 19 100 17 0.079584
13 19 100 17 0.0464521
14 19 100 17 0.0773394
15 19 100 17 0.214714
16 19 100 17 0.10885
17 19 100 17 0.246019
1 20 100 17 0.0547899
2 20 100 17 1.1539e-05
3 20 100 17 2.20902e-06
4 20 100 17 9.97703e-06
5 20 100 17 0.000648927
6 20 100 17 3.8486e-06
7 20 100 17 1.04764e-05
8 20 100 17 3.67476e-07
9 20 100 17 1.10816e-05
10 20 100 17 0.000265102
11 20 100 17 0.00435285
12 20 100 17 0.0120167
13 20 100 17 0.0701527
14 20 100 17 0.13491
15 20 100 17 0.17496
16 20 100 17 0.273824
17 20 100 17 0.27403
3 21 100 17 0.002165
4 21 100 17 0.161363
5 21 100 17 0.000494841
6 21 100 17 6.28847e-05
8 21 100 17 2.49695e-06
10 21 100 17 2.6615e-06
11 21 100 17 0.000105863
13 21 100 17 0.000267645
14 21 100 17 8.68724e-06
15 21 100 17 0.00156604
16 21 100 17 0.453767
17 21 100 17 0.380195
2 22 100 17 5.14385e-06
3 22 100 17 0.0108826
4 22 100 17 0.000118744
5 22 100 17 0.165336
6 22 100 17 5.48708e-05
7 22 100 17 0.165678
8 22 100 17 0.164851
9 22 100 17 0.00177245
10 22 100 17 6.07962e-07
11 22 100 17 2.64398e-06
12 22 100 17 0.00182074
13 22 100 17 0.164521
14 22 100 17 0.165796
15 22 100 17 0.15847
16 22 100 17 0.000689312
2 23 100 17 9.04617e-06
3 23 100 17 0.000243411
4 23 100 17 7.03514e-07
5 23 100 17 2.21372e-05
6 23 100 17 3.99926e-07
7 23 100 17 5.4119e-06
8 23 100 17 0.000853727
9 23 100 17 0.0758999
10 23 100 17 0.13353
11 23 100 17 0.160562
12 23 100 17 0.159213
13 23 100 17 0.160504
14 23 100 17 4.70158e-06
15 23 100 17 0.160362
16 23 100 17 0.148791
1 24 100 17 0.25317
2 24 100 17 0.253159
3 24 100 17 0.172284
4 24 100 17 0.000242243
5 24 100 17 3.42082e-05
6 24 100 17 1.96749e-07
8 24 100 17 1.40866e-07
9 24 100 17 3.07069e-07
11 24 100 17 3.92779e-07
12 24 100 17 2.37729e-05
13 24 100 17 3.91871e-05
14 24 100 17 9.18923e-06
15 24 100 17 0.0017831
16 24 100 17 0.129217
17 24 100 17 0.190037
1 0 100 18 7.6838e-05
2 0 100 18 0.171481
4 0 100 18 0.0903854
5 0 100 18 0.0825791
6 0 100 18 0.00138051
7 0 100 18 0.000851433
8 0 100 18 1.56982e-05
9 0 100 18 0.0146747
10 0 100 18 0.0910872
11 0 100 18 0.179534
12 0 100 18 0.0461975
13 0 100 18 0.0462767
14 0 100 18 0.092583
15 0 100 18 0.0947185
16 0 100 18 0.0449212
17 0 100 18 0.0432367
1 1 100 18 0.463906
2 1 100 18 0.231032
4 1 100 18 0.231059
5 1 100 18 0.0740032
1 2 100 18 0.106136
2 2 100 18 0.0176657
3 2 100 18 0.211934
4 2 100 18 0.106299
5 2 100 18 0.250881
6 2 100 18 0.200936
7 2 100 18 0.106146
10 2 100 18 1.51836e-06
2 3 100 18 0.0149035
3 3 100 18 0.155663
4 3 100 18 0.158873
5 3 100 18 0.155452
6 3 100 18 0.155663
7 3 100 18 0.155662
8 3 100 18 0.155561
9 3 100 18 0.0482215
13 3 100 18 1.74343e-06
1 4 100 18 0.16663
2 4 100 18 0.166827
3 4 100 18 0.333277
4 4 100 18 0.166636
5 4 100 18 0.16663
1 5 100 18 0.156057
2 5 100 18 0.0806229
3 5 100 18 0.156185
4 5 100 18 0.158662
5 5 100 18 1.74316e-05
6 5 100 18 0.00876181
7 5 100 18 0.0780208
9 5 100 18 0.131679
10 5 100 18 0.152011
11 5 100 18 0.0778467
12 5 100 18 0.000136862
2 6 100 18 0.000654313
5 6 100 18 0.688412
8 6 100 18 0.310895
11 6 100 18 4.48273e-06
17 6 100 18 3.39629e-05
3 7 100 18 0.0742075
4 7 100 18 0.0743442
5 7 100 18 0.0743474
6 7 100 18 0.148673
7 7 100 18 0.0743366
8 7 100 18 0.148681
9 7 100 18 0.182265
10 7 100 18 0.0743194
12 7 100 18 0.0744467
13 7 100 18 0.0743479
14 7 100 18 3.12937e-05
6 8 100 18 0.479852
7 8 100 18 0.482817
9 8 100 18 0.0372625
11 8 100 18 5.04898e-05
14 8 100 18 1.77246e-05
4 9 100 18 5.18118e-06
5 9 100 18 0.000187774
6 9 100 18 1.9711e-05
7 9 100 18 7.77422e-06
8 9 100 18 0.566435
9 9 100 18 0.000728746
10 9 100 18 0.243291
11 9 100 18 0.189305
14 9 100 18 1.99956e-05
6 10 100 18 0.259386
7 10 100 18 0.259393
8 10 100 18 0.259488
9 10 100 18 0.129546
10 10 100 18 0.0921498
12 10 100 18 1.65381e-05
14 10 100 18 1.66764e-05
16 10 100 18 3.99063e-06
1 11 100 18 0.140516
2 11 100 18 0.140516
3 11 100 18 0.140963
9 11 100 18 0.28102
10 11 100 18 0.140566
11 11 100 18 0.15642
7 12 100 18 0.249674
8 12 100 18 0.250024
9 12 100 18 0.500262
16 12 100 18 4.01231e-05
2 13 100 18 0.00110504
4 13 100 18 7.32306e-06
10 13 100 18 0.218525
11 13 100 18 0.211763
12 13 100 18 0.211717
13 13 100 18 0.211763
14 13 100 18 0.145119
15 13 100 18 2.13412e-06
5 14 100 18 2.73439e-05
11 14 100 18 0.317685
12 14 100 18 0.207089
13 14 100 18 0.316759
15 14 100 18 0.15838
17 14 100 18 6.09833e-05
8 15 100 18 3.58515e-05
10 15 100 18 0.000425338
11 15 100 18 0.000605857
12 15 100 18 0.559393
13 15 100 18 0.000144899
14 15 100 18 0.432944
15 15 100 18 3.82477e-06
16 15 100 18 0.00644759
10 16 100 18 0.172326
12 16 100 18 0.163867
13 16 100 18 0.163844
14 16 100 18 0.163844
15 16 100 18 0.00682492
16 16 100 18 0.00160476
17 16 100 18 0.163844
18 16 100 18 0.163844
13 17 100 18 0.66602
14 17 100 18 0.333781
15 17 100 18 0.000198563
12 18 100 18 0.166567
14 18 100 18 0.167165
15 18 100 18 0.166567
16 18 100 18 0.166567
17 18 100 18 0.166567
18 18 100 18 0.166567
14 19 100 18 0.0070544
15 19 100 18 0.992946
2 20 100 18 8.30684e-05
3 20 100 18 1.37756e-05
4 20 100 18 2.14528e-05
5 20 100 18 9.72437e-07
9 20 100 18 0.00167466
10 20 100 18 0.0580161
11 20 100 18 4.38404e-06
12 20 100 18 0.165841
13 20 100 18 0.114164
14 20 100 18 0.189966
15 20 100 18 0.132045
16 20 100 18 0.112743
17 20 100 18 0.112724
18 20 100 18 0.112702
4 21 100 18 8.53726e-05
5 21 100 18 6.8597e-07
6 21 100 18 2.03269e-07
9 21 100 18 2.06497e-06
10 21 100 18 7.1871e-05
11 21 100 18 6.69242e-05
12 21 100 18 0.001187
13 21 100 18 0.191809
14 21 100 18 4.63528e-05
15 21 100 18 0.214284
16 21 100 18 0.325101
17 21 100 18 0.267345
2 22 100 18 4.12773e-06
3 22 100 18 0.000122275
4 22 100 18 0.000154611
6 22 100 18 3.32996e-07
7 22 100 18 3.46543e-06
11 22 100 18 2.12059e-06
12 22 100 18 0.00173484
13 22 100 18 5.11134e-05
14 22 100 18 0.332465
15 22 100 18 0.00370734
16 22 100 18 0.655504
17 22 100 18 0.00625113
1 23 100 18 1.95523e-06
2 23 100 18 1.68459e-07
3 23 100 18 2.9097e-07
5 23 100 18 1.03469e-06
8 23 100 18 7.88697e-06
9 23 100 18 8.83412e-07
10 23 100 18 2.33217e-06
11 23 100 18 4.71505e-06
12 23 100 18 8.81802e-07
13 23 100 18 5.81983e-05
14 23 100 18 0.00253863
15 23 100 18 0.113232
16 23 100 18 0.148998
17 23 100 18 0.293924
18 23 100 18 0.441229
1 24 100 18 9.97922e-06
5 24 100 18 4.56493e-06
11 24 100 18 4.72932e-07
12 24 100 18 1.24192e-06
13 24 100 18 0.00556656
14 24 100 18 4.05604e-07
15 24 100 18 0.04794
16 24 100 18 0.216999
17 24 100 18 0.328027
18 24 100 18 0.40145
1 25 100 18 0.200327
2 25 100 18 0.200325
3 25 100 18 0.199733
4 25 100 18 0.00103479
14 25 100 18 5.67206e-05
15 25 100 18 0.000404597
16 25 100 18 0.000553422
17 25 100 18 0.197239
18 25 100 18 0.200327
5 26 100 18 0.30263
17 26 100 18 0.69737
5 27 100 18 7.24185e-05
14 27 100 18 2.86933e-05
15 27 100 18 0.308379
16 27 100 18 0.314198
17 27 100 18 0.0630175
18 27 100 18 0.314304
1 0 100 19 0.00194281
2 0 100 19 0.0347814
3 0 100 19 0.068356
4 0 100 19 0.101861
5 0 100 19 0.0673353
6 0 100 19 0.0961682
7 0 100 19 0.0336717
8 0 100 19 0.0669516
9 0 100 19 0.106539
10 0 100 19 0.033676
11 0 100 19 0.00502423
12 0 100 19 0.0336604
13 0 100 19 0.0468749
14 0 100 19 0.0673968
15 0 100 19 0.0676555
16 0 100 19 0.000103444
17 0 100 19 0.100655
18 0 100 19 0.0673455
1 1 100 19 0.58127
2 1 100 19 0.379379
3 1 100 19 0.0391864
4 1 100 19 1.04083e-06
9 1 100 19 0.000150833
14 1 100 19 1.32435e-05
1 2 100 19 0.128366
2 2 100 19 0.128564
3 2 100 19 0.23058
4 2 100 19 0.191042
5 2 100 19 0.12853
6 2 100 19 2.09868e-05
7 2 100 19 0.0642649
8 2 100 19 0.0642649
9 2 100 19 0.0642648
12 2 100 19 0.000100441
17 2 100 19 1.33038e-06
1 3 100 19 0.152811
2 3 100 19 0.305124
3 3 100 19 0.0971166
4 3 100 19 0.228752
8 3 100 19 1.92565e-05
11 3 100 19 3.6322e-06
12 3 100 19 4.90319e-05
13 3 100 19 0.0635176
14 3 100 19 0.0762816
15 3 100 19 0.0763252
1 4 100 19 0.0657583
2 4 100 19 0.069889
3 4 100 19 0.0910427
4 4 100 19 0.0861447
5 4 100 19 0.327655
6 4 100 19 0.139737
7 4 100 19 0.0616236
8 4 100 19 0.0698849
9 4 100 19 0.00763342
11 4 100 19 3.97929e-06
16 4 100 19 0.0698735
17 4 100 19 0.010663
18 4 100 19 9.10567e-05
1 5 100 19 0.105272
2 5 100 19 0.105272
3 5 100 19 0.185666
4 5 100 19 1.53182e-05
8 5 100 19 1.28152e-05
10 5 100 19 0.105272
11 5 100 19 0.105252
16 5 100 19 1.67172e-06
17 5 100 19 0.182698
18 5 100 19 0.105275
19 5 100 19 0.105263
3 6 100 19 0.0474879
4 6 100 19 0.0383389
5 6 100 19 0.0646392
6 6 100 19 0.159722
7 6 100 19 0.24631
8 6 100 19 0.0492942
10 6 100 19 0.0492888
11 6 100 19 0.0493094
12 6 100 19 0.0491801
13 6 100 19 0.0492888
14 6 100 19 0.0492732
15 6 100 19 0.0492885
16 6 100 19 0.0492888
17 6 100 19 0.0492888
18 6 100 19 2.14434e-06
8 7 100 19 0.997304
11 7 100 19 3.62145e-05
13 7 100 19 0.000279423
16 7 100 19 0.00237988
2 8 100 19 0.00014065
6 8 100 19 0.255802
7 8 100 19 0.201508
8 8 100 19 0.257624
9 8 100 19 0.280524
14 8 100 19 1.94275e-05
18 8 100 19 0.00438184
4 9 100 19 0.0941248
5 9 100 19 0.18825
6 9 100 19 0.281604
7 9 100 19 0.104126
9 9 100 19 0.155622
10 9 100 19 0.175299
14 9 100 19 1.33302e-06
18 9 100 19 0.00097354
2 10 100 19 0.000201991
4 10 100 19 0.0714869
5 10 100 19 0.0722194
6 10 100 19 3.09841e-05
7 10 100 19 0.0722018
8 10 100 19 0.0722194
9 10 100 19 0.196122
10 10 100 19 0.0099426
11 10 100 19 0.144221
12 10 100 19 0.0722194
13 10 100 19 0.0723927
14 10 100 19 0.0715968
15 10 100 19 0.0722194
16 10 100 19 0.0717105
17 10 100 19 7.9223e-06
18 10 100 19 0.00120685
7 11 100 19 0.160436
8 11 100 19 0.289819
9 11 100 19 0.184126
10 11 100 19 0.365295
11 11 100 19 0.000271871
14 11 100 19 5.16217e-05
2 12 100 19 0.000182917
3 12 100 19 1.52918e-05
8 12 100 19 0.0195689
9 12 100 19 0.201803
11 12 100 19 0.000159536
12 12 100 19 0.327748
13 12 100 19 0.32774
14 12 100 19 0.122782
2 13 100 19 0.00175967
3 13 100 19 1.85933e-06
4 13 100 19 1.16273e-05
6 13 100 19 0.118486
7 13 100 19 0.118486
8 13 100 19 0.124621
9 13 100 19 0.0010398
11 13 100 19 0.131664
12 13 100 19 0.118456
13 13 100 19 0.118504
14 13 100 19 0.266934
16 13 100 19 2.99123e-05
17 13 100 19 6.40943e-06
2 14 100 19 0.00349366
3 14 100 19 1.20977e-06
8 14 100 19 0.00234535
9 14 100 19 0.108477
10 14 100 19 0.114319
11 14 100 19 0.218686
12 14 100 19 0.114064
14 14 100 19 0.000518394
15 14 100 19 0.215117
18 14 100 19 0.108973
19 14 100 19 0.114006
2 15 100 19 0.00629654
3 15 100 19 0.0011762
8 15 100 19 0.0634202
9 15 100 19 0.0634082
10 15 100 19 0.231101
11 15 100 19 0.190399
12 15 100 19 0.189308
13 15 100 19 0.125893
15 15 100 19 0.0702207
16 15 100 19 0.0586217
19 15 100 19 0.000155996
3 16 100 19 0.0566927
4 16 100 19 0.232078
5 16 100 19 0.154758
6 16 100 19 0.147776
7 16 100 19 0.0773667
8 16 100 19 0.0773611
9 16 100 19 7.2058e-06
10 16 100 19 4.71147e-05
13 16 100 19 0.0161861
15 16 100 19 5.26853e-05
16 16 100 19 0.0829876
17 16 100 19 0.0773594
18 16 100 19 0.0773278
2 17 100 19 7.84884e-06
3 17 100 19 0.000123295
4 17 100 19 9.12352e-05
7 17 100 19 0.0901785
9 17 100 19 0.0753689
10 17 100 19 0.301402
11 17 100 19 0.297545
12 17 100 19 0.150577
13 17 100 19 0.00119172
15 17 100 19 1.58821e-05
17 17 100 19 0.00821077
19 17 100 19 0.0752883
1 18 100 19 0.0727123
3 18 100 19 0.0697154
4 18 100 19 0.000107627
11 18 100 19 9.46397e-05
12 18 100 19 0.0739467
13 18 100 19 0.274376
14 18 100 19 0.145404
16 18 100 19 0.0727122
18 18 100 19 0.145506
19 18 100 19 0.145425
1 19 100 19 0.000294925
3 19 100 19 7.20059e-06
5 19 100 19 0.333512
6 19 100 19 0.333489
7 19 100 19 0.33157
11 19 100 19 0.000923187
12 19 100 19 0.000153185
14 19 100 19 1.72944e-05
16 19 100 19 4.6411e-06
19 19 100 19 2.8864e-05
4 20 100 19 3.44838e-05
8 20 100 19 0.0719833
9 20 100 19 0.063911
12 20 100 19 0.0719833
13 20 100 19 3.62241e-05
14 20 100 19 0.215949
15 20 100 19 0.287933
16 20 100 19 0.144056
17 20 100 19 0.0719958
18 20 100 19 0.0721174
1 21 100 19 1.38456e-05
2 21 100 19 6.85412e-07
3 21 100 19 0.00193283
4 21 100 19 0.0464869
5 21 100 19 0.0798116
6 21 100 19 8.41838e-05
7 21 100 19 0.000635712
8 21 100 19 2.07356e-05
9 21 100 19 3.71494e-05
10 21 100 19 3.96656e-06
11 21 100 19 0.0150772
12 21 100 19 6.0083e-06
13 21 100 19 0.0017557
14 21 100 19 0.116961
15 21 100 19 0.121158
16 21 100 19 0.120935
17 21 100 19 0.242361
18 21 100 19 0.131873
19 21 100 19 0.120846
1 22 100 19 0.00112606
2 22 100 19 0.0556046
3 22 100 19 0.059929
4 22 100 19 1.04247e-05
5 22 100 19 6.73516e-06
6 22 100 19 0.00593035
7 22 100 19 9.31847e-07
8 22 100 19 3.61981e-06
9 22 100 19 3.12537e-05
10 22 100 19 2.16683e-05
11 22 100 19 5.19333e-05
12 22 100 19 0.0600733
13 22 100 19 0.0612518
14 22 100 19 0.0318396
15 22 100 19 0.119025
16 22 100 19 0.18003
17 22 100 19 0.185604
18 22 100 19 0.0594143
19 22 100 19 0.180046
2 23 100 19 1.36522e-07
3 23 100 19 2.60258e-06
4 23 100 19 0.000599562
5 23 100 19 3.43269e-06
6 23 100 19 3.39219e-05
7 23 100 19 0.0200002
8 23 100 19 2.9677e-07
9 23 100 19 0.000706981
10 23 100 19 0.0231045
11 23 100 19 0.0866339
12 23 100 19 0.0759323
13 23 100 19 0.00769659
14 23 100 19 0.0757686
15 23 100 19 0.00259737
16 23 100 19 0.149067
17 23 100 19 0.152045
18 23 100 19 0.176675
19 23 100 19 0.229133
1 24 100 19 0.202216
2 24 100 19 0.137264
3 24 100 19 0.132056
4 24 100 19 0.000270601
5 24 100 19 0.0002137
6 24 100 19 2.11703e-07
7 24 100 19 2.25569e-06
11 24 100 19 4.48957e-07
12 24 100 19 7.77949e-06
13 24 100 19 1.04103e-05
14 24 100 19 0.000464818
15 24 100 19 0.0663042
16 24 100 19 0.0678127
17 24 100 19 0.000343895
18 24 100 19 0.135766
19 24 100 19 0.257266
11 25 100 19 0.110163
13 25 100 19 0.877715
14 25 100 19 0.0121227
5 26 100 19 9.21465e-07
6 26 100 19 1.41648e-06
9 26 100 19 2.91947e-07
10 26 100 19 0.000299917
11 26 100 19 0.172177
12 26 100 19 2.35568e-06
13 26 100 19 0.266726
14 26 100 19 0.27845
15 26 100 19 0.00530668
16 26 100 19 0.275807
17 26 100 19 0.00122658
18 26 100 19 1.53542e-06
11 27 100 19 5.63811e-07
13 27 100 19 1.38633e-06
14 27 100 19 1.09866e-05
16 27 100 19 0.00617524
17 27 100 19 0.330272
18 27 100 19 0.331769
19 27 100 19 0.331771
1 0 100 20 0.000135137
2 0 100 20 0.11192
3 0 100 20 0.111672
4 0 100 20 0.0376977
5 0 100 20 0.00515935
6 0 100 20 0.111438
7 0 100 20 0.0743041
8 0 100 20 0.0729615
9 0 100 20 0.000313566
10 0 100 20 0.183966
11 0 100 20 0.00251085
12 0 100 20 0.031326
13 0 100 20 0.0737316
15 0 100 20 0.0401086
16 0 100 20 0.0688949
17 0 100 20 0.0371603
19 0 100 20 0.0366999
1 1 100 20 0.489293
2 1 100 20 0.510473
4 1 100 20 0.000234703
1 2 100 20 0.388999
2 2 100 20 0.155558
3 2 100 20 0.0785534
4 2 100 20 0.0779206
5 2 100 20 0.155721
6 2 100 20 0.143248
1 3 100 20 8.31647e-05
2 3 100 20 0.0299695
3 3 100 20 0.329806
4 3 100 20 0.338973
5 3 100 20 0.301084
15 3 100 20 8.42995e-05
1 4 100 20 0.323472
2 4 100 20 0.328493
3 4 100 20 0.324477
6 4 100 20 0.0235582
2 5 100 20 0.0966174
4 5 100 20 0.329264
5 5 100 20 0.14353
6 5 100 20 0.14353
7 5 100 20 0.14353
8 5 100 20 0.14353
1 6 100 20 0.0651264
2 6 100 20 0.000207656
3 6 100 20 0.0651097
4 6 100 20 0.107721
5 6 100 20 0.130684
6 6 100 20 0.066078
7 6 100 20 0.239274
8 6 100 20 0.130253
9 6 100 20 0.195373
10 6 100 20 3.21838e-05
12 6 100 20 0.000140911
4 7 100 20 0.098639
5 7 100 20 0.20171
6 7 100 20 0.197108
7 7 100 20 0.108328
8 7 100 20 0.098554
10 7 100 20 0.0985539
11 7 100 20 0.098554
12 7 100 20 0.098554
6 8 100 20 0.299323
7 8 100 20 0.019584
8 8 100 20 0.309851
12 8 100 20 0.0719191
13 8 100 20 0.299323
2 9 100 20 2.21954e-06
3 9 100 20 1.58671e-06
6 9 100 20 2.25994e-06
7 9 100 20 0.0226179
8 9 100 20 0.139966
9 9 100 20 0.278322
10 9 100 20 2.421e-06
14 9 100 20 0.13977
16 9 100 20 0.139774
17 9 100 20 0.139771
18 9 100 20 0.13977
9 10 100 20 0.264029
10 10 100 20 0.134278
11 10 100 20 0.205004
12 10 100 20 0.132201
14 10 100 20 0.132194
16 10 100 20 0.132295
2 11 100 20 0.017173
6 11 100 20 2.43608e-05
11 11 100 20 0.10756
12 11 100 20 0.0126033
13 11 100 20 0.288883
14 11 100 20 0.288869
15 11 100 20 0.284887
3 12 100 20 0.0849541
4 12 100 20 0.0849448
10 12 100 20 0.0849638
11 12 100 20 0.148913
12 12 100 20 0.170786
13 12 100 20 0.16989
14 12 100 20 0.16989
15 12 100 20 0.0856587
5 13 100 20 0.254309
11 13 100 20 0.256604
12 13 100 20 0.255219
13 13 100 20 0.225638
14 13 100 20 0.00822959
2 14 100 20 4.52652e-05
10 14 100 20 0.285787
11 14 100 20 0.185041
12 14 100 20 0.243284
13 14 100 20 5.05877e-05
19 14 100 20 0.142898
20 14 100 20 0.142894
6 15 100 20 0.00100246
11 15 100 20 0.984083
13 15 100 20 0.0149148
7 16 100 20 0.231878
8 16 100 20 0.231878
9 16 100 20 0.464826
10 16 100 20 0.00758493
12 16 100 20 0.0349512
13 16 100 20 0.0261421
15 16 100 20 0.00273895
10 17 100 20 0.000156226
12 17 100 20 0.333179
13 17 100 20 0.332492
14 17 100 20 0.334173
14 18 100 20 0.394584
15 18 100 20 0.605417
7 19 100 20 2.62569e-06
11 19 100 20 5.41445e-05
15 19 100 20 0.122999
16 19 100 20 0.326212
17 19 100 20 0.110147
18 19 100 20 0.220294
19 19 100 20 0.220291
11 20 100 20 0.204905
12 20 100 20 0.204887
13 20 100 20 0.20489
14 20 100 20 0.182266
15 20 100 20 0.186655
16 20 100 20 0.0163959
2 21 100 20 1.8893e-05
10 21 100 20 5.20239e-05
12 21 100 20 0.000239563
16 21 100 20 0.224637
17 21 100 20 0.332164
18 21 100 20 0.221443
19 21 100 20 0.110724
20 21 100 20 0.110721
2 22 100 20 4.30488e-05
3 22 100 20 0.000566081
6 22 100 20 4.63659e-06
7 22 100 20 3.35916e-05
8 22 100 20 8.92467e-06
9 22 100 20 0.00135998
10 22 100 20 3.05506e-05
11 22 100 20 0.0960535
12 22 100 20 2.78098e-05
13 22 100 20 0.173864
14 22 100 20 0.172596
15 22 100 20 0.152264
16 22 100 20 0.00216234
17 22 100 20 0.000134344
18 22 100 20 0.000528657
19 22 100 20 0.0528505
20 22 100 20 0.347472
3 23 100 20 0.000177199
4 23 100 20 4.14509e-06
6 23 100 20 4.8261e-05
9 23 100 20 1.0137e-05
10 23 100 20 4.19645e-05
11 23 100 20 3.5919e-05
12 23 100 20 1.57184e-05
13 23 100 20 0.000253358
14 23 100 20 1.87875e-05
15 23 100 20 0.00359063
16 23 100 20 0.00260241
17 23 100 20 3.94995e-05
18 23 100 20 2.22335e-05
19 23 100 20 0.541817
20 23 100 20 0.451323
1 24 100 20 0.165831
2 24 100 20 0.165269
3 24 100 20 9.88434e-05
6 24 100 20 3.82615e-07
8 24 100 20 2.08903e-06
10 24 100 20 1.34595e-06
11 24 100 20 1.90621e-07
14 24 100 20 1.94411e-07
15 24 100 20 0.00103477
16 24 100 20 0.16737
17 24 100 20 0.167681
18 24 100 20 0.166869
19 24 100 20 3.53189e-06
20 24 100 20 0.165839
1 25 100 20 0.150606
3 25 100 20 0.0840343
4 25 100 20 0.00142824
10 25 100 20 0.000136975
12 25 100 20 8.97801e-06
15 25 100 20 0.00254181
16 25 100 20 0.000272886
17 25 100 20 0.190174
18 25 100 20 0.190266
19 25 100 20 0.190265
20 25 100 20 0.190265
1 26 100 20 1.40853e-06
2 26 100 20 1.5798e-07
3 26 100 20 2.75407e-07
6 26 100 20 7.07693e-05
7 26 100 20 4.64445e-05
8 26 100 20 2.05584e-06
9 26 100 20 8.31798e-06
11 26 100 20 8.50852e-06
14 26 100 20 3.91235e-07
15 26 100 20 0.000972397
16 26 100 20 0.045866
17 26 100 20 0.136329
18 26 100 20 0.271643
19 26 100 20 0.272577
20 26 100 20 0.272474
2 27 100 20 8.92561e-06
3 27 100 20 2.28825e-06
5 27 100 20 9.60455e-07
6 27 100 20 0.00337931
7 27 100 20 0.330927
8 27 100 20 0.332741
9 27 100 20 0.325676
10 27 100 20 0.000105682
11 27 100 20 0.00711256
13 27 100 20 3.51368e-06
14 27 100 20 2.72049e-06
15 27 100 20 1.6994e-05
16 27 100 20 3.72539e-07
17 27 100 20 8.00515e-07
18 27 100 20 2.01416e-05
19 27 100 20 1.57898e-06
1 28 100 20 4.27306e-05
2 28 100 20 6.83366e-06
3 28 100 20 0.0840715
5 28 100 20 5.29844e-06
6 28 100 20 0.0424431
7 28 100 20 0.00257402
8 28 100 20 0.000354653
9 28 100 20 0.0240055
10 28 100 20 2.30652e-05
11 28 100 20 0.844104
12 28 100 20 0.000359203
13 28 100 20 4.78543e-06
14 28 100 20 3.23515e-06
15 28 100 20 0.000105289
16 28 100 20 0.000110275
17 28 100 20 2.8964e-06
18 28 100 20 0.000155931
19 28 100 20 5.72594e-05
20 28 100 20 0.00157007
15 29 100 20 0.00147398
16 29 100 20 0.0841564
17 29 100 20 0.228592
18 29 100 20 0.228593
19 29 100 20 0.228593
20 29 100 20 0.228593
1 0 100 21 1.1815e-05
2 0 100 21 0.0341396
3 0 100 21 0.0570226
4 0 100 21 0.121106
5 0 100 21 0.0183247
6 0 100 21 0.0304089
7 0 100 21 0.0305875
8 0 100 21 0.121119
9 0 100 21 0.059245
10 0 100 21 0.0605192
11 0 100 21 0.0912956
12 0 100 21 0.0232977
13 0 100 21 0.000136408
14 0 100 21 0.0610019
15 0 100 21 0.0608099
16 0 100 21 0.0531698
17 0 100 21 0.0304042
18 0 100 21 0.0912242
19 0 100 21 0.030409
20 0 100 21 0.0257673
1 1 100 21 0.503737
2 1 100 21 0.194071
3 1 100 21 0.201455
4 1 100 21 0.100727
7 1 100 21 8.1732e-06
13 1 100 21 1.51466e-06
1 2 100 21 0.300582
2 2 100 21 0.317105
3 2 100 21 0.142347
4 2 100 21 6.53485e-05
5 2 100 21 0.150444
6 2 100 21 0.0893723
7 2 100 21 4.73721e-05
11 2 100 21 3.75986e-05
1 3 100 21 0.205257
2 3 100 21 0.291434
3 3 100 21 0.120105
4 3 100 21 0.113897
5 3 100 21 0.125114
6 3 100 21 0.144183
7 3 100 21 1.81176e-06
14 3 100 21 5.14822e-06
18 3 100 21 3.57687e-06
1 4 100 21 0.201374
2 4 100 21 0.201566
3 4 100 21 0.203751
4 4 100 21 0.191683
5 4 100 21 0.100738
6 4 100 21 0.100747
7 4 100 21 4.49891e-05
8 4 100 21 9.44094e-05
1 5 100 21 0.140344
2 5 100 21 0.140344
3 5 100 21 0.157859
5 5 100 21 0.280706
6 5 100 21 0.140344
7 5 100 21 0.140342
8 5 100 21 6.81799e-06
9 5 100 21 4.91893e-05
16 5 100 21 5.33344e-06
3 6 100 21 0.314566
4 6 100 21 0.0359133
5 6 100 21 1.98904e-05
6 6 100 21 0.0355149
7 6 100 21 0.609215
8 6 100 21 0.00477105
2 7 100 21 0.0744723
3 7 100 21 0.0744723
4 7 100 21 0.214933
5 7 100 21 0.0877393
6 7 100 21 0.13249
7 7 100 21 0.0744737
8 7 100 21 0.0745609
9 7 100 21 0.192387
11 7 100 21 0.0744723
4 8 100 21 0.122906
5 8 100 21 0.506607
6 8 100 21 0.245755
8 8 100 21 0.122511
9 8 100 21 0.00222068
3 9 100 21 0.0336302
6 9 100 21 0.286474
7 9 100 21 0.158059
8 9 100 21 0.152504
9 9 100 21 0.364481
12 9 100 21 0.0048518
4 10 100 21 3.15179e-06
5 10 100 21 0.111113
6 10 100 21 0.0280213
7 10 100 21 0.375249
8 10 100 21 0.221148
9 10 100 21 0.126819
10 10 100 21 0.1268
11 10 100 21 5.58334e-05
12 10 100 21 0.0107912
6 11 100 21 0.163573
7 11 100 21 0.163573
8 11 100 21 0.172964
9 11 100 21 0.00693908
10 11 100 21 0.166113
11 11 100 21 0.245052
12 11 100 21 0.0817865
8 12 100 21 0.0917888
9 12 100 21 0.0917888
10 12 100 21 0.09181
11 12 100 21 0.0918629
12 12 100 21 0.265999
13 12 100 21 0.366734
15 12 100 21 1.67677e-05
3 13 100 21 0.0392839
7 13 100 21 0.0645406
8 13 100 21 0.064517
9 13 100 21 0.188258
10 13 100 21 0.192169
11 13 100 21 0.129037
12 13 100 21 0.128637
13 13 100 21 0.064523
14 13 100 21 0.064517
15 13 100 21 0.064517
2 14 100 21 5.23675e-06
4 14 100 21 0.160702
5 14 100 21 0.160709
7 14 100 21 0.160661
9 14 100 21 6.82302e-06
10 14 100 21 0.0232885
12 14 100 21 0.16837
14 14 100 21 0.163288
15 14 100 21 0.160842
16 14 100 21 0.00206503
17 14 100 21 2.57505e-05
20 14 100 21 3.55683e-05
8 15 100 21 0.012396
10 15 100 21 7.41424e-06
12 15 100 21 0.0181591
13 15 100 21 0.176541
14 15 100 21 0.438894
15 15 100 21 0.176594
16 15 100 21 0.17739
18 15 100 21 5.34806e-06
20 15 100 21 1.21098e-05
9 16 100 21 0.114663
10 16 100 21 0.321537
12 16 100 21 0.00147911
16 16 100 21 0.224275
17 16 100 21 0.33804
19 16 100 21 5.10728e-06
9 17 100 21 0.00519024
10 17 100 21 2.62672e-06
11 17 100 21 0.16539
12 17 100 21 0.467449
13 17 100 21 0.158675
14 17 100 21 0.158007
15 17 100 21 0.0134674
16 17 100 21 0.0318184
10 18 100 21 0.165769
11 18 100 21 2.27347e-06
13 18 100 21 0.16904
16 18 100 21 0.00213001
18 18 100 21 0.165769
19 18 100 21 0.33152
20 18 100 21 0.165769
11 19 100 21 0.208987
12 19 100 21 0.14629
13 19 100 21 0.106996
14 19 100 21 0.107496
15 19 100 21 0.215947
16 19 100 21 0.106996
20 19 100 21 0.000293574
21 19 100 21 0.106995
8 20 100 21 4.31841e-05
12 20 100 21 2.02707e-06
13 20 100 21 0.248396
14 20 100 21 0.125808
15 20 100 21 0.243258
16 20 100 21 0.134422
17 20 100 21 0.127174
19 20 100 21 0.120897
16 21 100 21 0.000132878
17 21 100 21 0.3633
18 21 100 21 0.243127
19 21 100 21 0.121559
20 21 100 21 0.150329
21 21 100 21 0.121552
15 22 100 21 0.215216
16 22 100 21 2.41217e-06
18 22 100 21 0.128052
19 22 100 21 0.114585
20 22 100 21 0.211084
21 22 100 21 0.33106
2 23 100 21 4.72508e-07
4 23 100 21 4.14829e-05
6 23 100 21 1.00012e-06
7 23 100 21 4.80469e-07
8 23 100 21 1.60962e-06
9 23 100 21 3.67415e-07
10 23 100 21 9.89414e-06
11 23 100 21 4.44449e-06
12 23 100 21 5.79651e-07
13 23 100 21 3.47229e-06
14 23 100 21 9.02246e-05
15 23 100 21 0.00244774
16 23 100 21 0.141425
17 23 100 21 0.284895
18 23 100 21 0.284534
19 23 100 21 0.14387
20 23 100 21 0.142671
21 23 100 21 1.80782e-06
1 24 100 21 1.70563e-07
3 24 100 21 3.46299e-07
4 24 100 21 7.03919e-06
8 24 100 21 3.76426e-07
10 24 100 21 1.86205e-05
11 24 100 21 0.00018168
12 24 100 21 6.13532e-05
13 24 100 21 1.58699e-06
14 24 100 21 0.000599277
15 24 100 21 0.121952
16 24 100 21 0.249261
17 24 100 21 0.00069107
18 24 100 21 0.134444
19 24 100 21 0.118659
20 24 100 21 0.248901
21 24 100 21 0.125221
1 25 100 21 0.000423553
2 25 100 21 1.82425e-06
3 25 100 21 2.04335e-05
4 25 100 21 3.28792e-07
5 25 100 21 2.77294e-05
6 25 100 21 1.38643e-07
7 25 100 21 1.69299e-07
12 25 100 21 0.00025578
14 25 100 21 8.07707e-06
15 25 100 21 6.37125e-06
16 25 100 21 0.000953744
17 25 100 21 0.078081
18 25 100 21 0.175335
19 25 100 21 0.222269
20 25 100 21 0.209824
21 25 100 21 0.312792
1 26 100 21 0.000242512
2 26 100 21 9.97019e-06
3 26 100 21 8.09441e-05
5 26 100 21 1.85865e-05
6 26 100 21 1.50311e-06
7 26 100 21 1.10858e-05
8 26 100 21 7.05535e-07
9 26 100 21 6.56165e-06
10 26 100 21 0.000532238
11 26 100 21 0.00101876
12 26 100 21 1.64766e-05
13 26 100 21 1.23695e-05
14 26 100 21 8.8872e-06
16 26 100 21 0.00634906
17 26 100 21 3.5467e-05
18 26 100 21 0.00176319
19 26 100 21 0.227511
20 26 100 21 0.254464
21 26 100 21 0.507916
4 27 100 21 0.0250805
11 27 100 21 0.00110448
14 27 100 21 0.973613
16 27 100 21 0.000171739
17 27 100 21 3.06737e-05
1 28 100 21 0.328531
2 28 100 21 0.32883
3 28 100 21 0.328573
4 28 100 21 2.64444e-06
5 28 100 21 0.00224507
10 28 100 21 0.0112766
15 28 100 21 3.81762e-06
16 28 100 21 8.30545e-07
17 28 100 21 6.42662e-06
18 28 100 21 4.27209e-05
19 28 100 21 0.000101383
20 28 100 21 2.29627e-05
21 28 100 21 0.000363717
9 29 100 21 5.09655e-07
10 29 100 21 0.0018285
11 29 100 21 0.109236
12 29 100 21 0.229558
13 29 100 21 0.240578
14 29 100 21 0.240247
15 29 100 21 3.9353e-07
16 29 100 21 0.176331
17 29 100 21 0.00220903
19 29 100 21 9.38083e-06
20 29 100 21 1.08655e-06
11 30 100 21 6.27976e-06
12 30 100 21 2.37125e-06
13 30 100 21 7.67087e-06
14 30 100 21 2.00984e-05
15 30 100 21 3.17076e-07
16 30 100 21 0.0233505
17 30 100 21 0.241497
19 30 100 21 0.245033
20 30 100 21 0.245041
21 30 100 21 0.245042
12 31 100 21 0.999907
18 31 100 21 9.25762e-05
11 32 100 21 5.48962e-06
12 32 100 21 0.000453232
13 32 100 21 0.0793201
14 32 100 21 1.70185e-07
15 32 100 21 0.122999
16 32 100 21 0.129413
17 32 100 21 0.139929
18 32 100 21 0.139889
19 32 100 21 0.139924
20 32 100 21 0.139929
21 32 100 21 0.108138
2 0 100 22 0.0416171
3 0 100 22 0.00112946
4 0 100 22 0.0478614
5 0 100 22 0.0424983
6 0 100 22 0.048066
7 0 100 22 0.0482874
9 0 100 22 0.0952464
11 0 100 22 0.0478591
12 0 100 22 0.10544
13 0 100 22 0.0956981
15 0 100 22 0.0478589
16 0 100 22 0.0907446
17 0 100 22 0.097161
18 0 100 22 0.0957194
20 0 100 22 0.0478363
21 0 100 22 0.0469766
1 1 100 22 0.583825
2 1 100 22 0.416175
1 2 100 22 0.499839
2 2 100 22 0.499927
3 2 100 22 5.53586e-05
4 2 100 22 0.00017843
1 3 100 22 0.173123
2 3 100 22 0.347016
3 3 100 22 0.34057
4 3 100 22 0.139291
1 4 100 22 0.226167
3 4 100 22 0.580079
4 4 100 22 0.182663
5 4 100 22 0.0107826
7 4 100 22 0.000308168
2 5 100 22 0.16415
3 5 100 22 0.306341
4 5 100 22 0.199738
5 5 100 22 0.329552
14 5 100 22 0.000219302
4 6 100 22 0.641533
5 6 100 22 0.358467
1 7 100 22 1.63141e-06
3 7 100 22 9.97327e-06
4 7 100 22 0.181702
5 7 100 22 0.273672
6 7 100 22 0.362904
7 7 100 22 0.0908522
8 7 100 22 0.0908499
9 7 100 22 1.79292e-06
14 7 100 22 3.71545e-06
17 7 100 22 2.75714e-06
1 8 100 22 0.0517311
2 8 100 22 0.0679035
3 8 100 22 0.0679035
5 8 100 22 0.0679426
6 8 100 22 5.80459e-05
7 8 100 22 0.0679047
8 8 100 22 0.203688
9 8 100 22 0.133104
10 8 100 22 0.0681512
15 8 100 22 0.0679035
16 8 100 22 0.0679035
18 8 100 22 0.0679035
19 8 100 22 0.0679035
1 9 100 22 0.0913408
2 9 100 22 6.59471e-05
3 9 100 22 0.0912917
4 9 100 22 0.182606
5 9 100 22 0.178138
6 9 100 22 0.0913409
7 9 100 22 0.0911868
15 9 100 22 5.06497e-06
20 9 100 22 0.0913435
21 9 100 22 0.0913409
22 9 100 22 0.0913409
7 10 100 22 0.97567
9 10 100 22 0.0242989
18 10 100 22 3.13583e-05
6 11 100 22 0.160683
7 11 100 22 0.231314
8 11 100 22 0.211976
9 11 100 22 0.15242
10 11 100 22 0.154178
11 11 100 22 0.0894082
15 11 100 22 1.78038e-05
18 11 100 22 2.36393e-06
21 11 100 22 1.03551e-06
2 12 100 22 0.000523449
4 12 100 22 8.73273e-06
8 12 100 22 0.258968
9 12 100 22 0.0947451
10 12 100 22 0.129484
11 12 100 22 0.258975
12 12 100 22 0.127811
13 12 100 22 0.129484
6 13 100 22 4.47324e-05
7 13 100 22 1.76706e-05
9 13 100 22 0.119236
10 13 100 22 0.118062
12 13 100 22 0.218315
14 13 100 22 0.236112
15 13 100 22 0.19015
16 13 100 22 0.118062
3 14 100 22 6.68973e-05
8 14 100 22 0.152724
10 14 100 22 0.609562
13 14 100 22 0.000316651
14 14 100 22 2.4922e-05
15 14 100 22 0.237306
9 15 100 22 0.11461
10 15 100 22 0.262815
11 15 100 22 0.171393
12 15 100 22 0.0997585
13 15 100 22 0.0877245
14 15 100 22 0.0877338
15 15 100 22 0.0882407
17 15 100 22 0.0877246
11 16 100 22 0.714503
12 16 100 22 0.0265844
16 16 100 22 0.258908
17 16 100 22 4.55464e-06
6 17 100 22 0.467489
7 17 100 22 0.487787
10 17 100 22 5.77704e-05
11 17 100 22 0.022378
16 17 100 22 0.0222887
3 18 100 22 3.62672e-05
6 18 100 22 3.81422e-05
8 18 100 22 7.7251e-05
10 18 100 22 4.36836e-05
12 18 100 22 0.0570329
13 18 100 22 0.229946
14 18 100 22 0.252828
16 18 100 22 0.229946
17 18 100 22 0.230051
8 19 100 22 0.0774862
9 19 100 22 0.0774863
10 19 100 22 0.0774863
11 19 100 22 0.0774591
12 19 100 22 0.154973
13 19 100 22 0.154973
14 19 100 22 0.22516
15 19 100 22 4.23487e-06
18 19 100 22 0.154973
7 20 100 22 2.34256e-05
15 20 100 22 0.00892815
16 20 100 22 0.00257181
17 20 100 22 0.397178
19 20 100 22 0.590948
20 20 100 22 0.000306115
21 20 100 22 4.46898e-05
4 21 100 22 9.53618e-06
11 21 100 22 3.67484e-06
12 21 100 22 1.09232e-05
14 21 100 22 2.35881e-05
15 21 100 22 0.176421
17 21 100 22 0.0031041
19 21 100 22 0.205105
20 21 100 22 0.205112
21 21 100 22 0.205105
22 21 100 22 0.205105
7 22 100 22 1.26653e-06
11 22 100 22 1.50147e-06
12 22 100 22 0.04651
15 22 100 22 0.221488
16 22 100 22 0.104548
17 22 100 22 0.104711
18 22 100 22 0.104548
19 22 100 22 0.104548
20 22 100 22 0.104556
21 22 100 22 0.104539
22 22 100 22 0.104548
11 23 100 22 2.30882e-05
12 23 100 22 0.0714506
16 23 100 22 0.0711398
17 23 100 22 0.142902
18 23 100 22 0.142885
19 23 100 22 0.142897
20 23 100 22 0.142902
21 23 100 22 0.142902
22 23 100 22 0.142899
2 24 100 22 3.99143e-07
3 24 100 22 1.93678e-05
4 24 100 22 1.02613e-05
5 24 100 22 9.23054e-06
6 24 100 22 9.33637e-05
7 24 100 22 7.27864e-05
8 24 100 22 6.90265e-06
9 24 100 22 1.90984e-05
10 24 100 22 7.89954e-05
11 24 100 22 0.00260943
12 24 100 22 8.32087e-05
13 24 100 22 0.484907
14 24 100 22 0.105094
15 24 100 22 0.00125697
16 24 100 22 0.000553108
17 24 100 22 0.162006
18 24 100 22 0.000719077
19 24 100 22 4.68729e-05
20 24 100 22 0.242135
21 24 100 22 0.000278492
2 25 100 22 1.92862e-07
3 25 100 22 5.98356e-06
4 25 100 22 2.2517e-06
6 25 100 22 4.20539e-05
9 25 100 22 1.48193e-06
10 25 100 22 1.04442e-05
11 25 100 22 0.00066191
12 25 100 22 0.0296612
13 25 100 22 0.000826304
14 25 100 22 0.0832941
15 25 100 22 0.221188
16 25 100 22 0.210292
17 25 100 22 0.220731
18 25 100 22 0.110746
19 25 100 22 0.109666
20 25 100 22 0.000501682
21 25 100 22 0.0123696
1 26 100 22 0.0850567
2 26 100 22 0.0826607
3 26 100 22 0.0814907
4 26 100 22 0.000182147
8 26 100 22 1.28088e-06
9 26 100 22 6.24705e-07
10 26 100 22 5.10999e-07
11 26 100 22 1.34651e-05
12 26 100 22 0.00546732
13 26 100 22 9.08996e-06
14 26 100 22 1.74805e-06
15 26 100 22 2.77049e-05
16 26 100 22 4.68631e-06
17 26 100 22 0.000325469
18 26 100 22 0.0825634
19 26 100 22 0.0840172
20 26 100 22 0.164844
21 26 100 22 0.165322
22 26 100 22 0.248012
2 27 100 22 5.2716e-06
11 27 100 22 1.49027e-05
12 27 100 22 0.209878
13 27 100 22 0.387303
14 27 100 22 0.387317
15 27 100 22 0.000378913
18 27 100 22 0.0013671
19 27 100 22 0.013664
20 27 100 22 7.15958e-05
8 28 100 22 2.85681e-07
13 28 100 22 2.76053e-07
14 28 100 22 1.77142e-06
15 28 100 22 0.000275634
17 28 100 22 0.000907794
18 28 100 22 1.706e-06
19 28 100 22 0.394942
20 28 100 22 0.182197
21 28 100 22 0.210838
22 28 100 22 0.210835
4 29 100 22 0.00546083
12 29 100 22 0.864554
16 29 100 22 0.129197
21 29 100 22 0.000788725
15 31 100 22 8.96e-06
17 31 100 22 8.69596e-07
18 31 100 22 7.03327e-06
19 31 100 22 4.01445e-06
20 31 100 22 0.000867084
21 31 100 22 0.499555
22 31 100 22 0.499557
3 0 100 23 0.127171
4 0 100 23 0.119849
7 0 100 23 4.71712e-05
8 0 100 23 0.00229927
9 0 100 23 0.00463703
10 0 100 23 0.0685087
11 0 100 23 0.240133
14 0 100 23 0.0876852
17 0 100 23 0.114162
18 0 100 23 0.235244
19 0 100 23 0.000264565
1 1 100 23 0.167544
2 1 100 23 0.167394
7 1 100 23 0.162925
8 1 100 23 0.167394
9 1 100 23 0.167347
10 1 100 23 0.167394
1 2 100 23 0.140073
2 2 100 23 0.140177
3 2 100 23 0.159247
4 2 100 23 0.280411
5 2 100 23 0.139891
6 2 100 23 0.140199
8 2 100 23 1.95136e-06
20 2 100 23 1.84487e-06
1 3 100 23 0.248339
2 3 100 23 0.248441
5 3 100 23 0.24825
6 3 100 23 0.248339
7 3 100 23 0.00663037
4 4 100 23 0.000680826
7 4 100 23 0.333019
12 4 100 23 0.33315
13 4 100 23 0.33315
1 5 100 23 0.319836
2 5 100 23 0.319791
3 5 100 23 0.200377
8 5 100 23 0.159918
10 5 100 23 2.63577e-05
11 5 100 23 3.15995e-06
15 5 100 23 3.45289e-05
17 5 100 23 1.43025e-05
3 6 100 23 0.49188
9 6 100 23 0.507898
10 6 100 23 0.000222546
3 7 100 23 0.110809
4 7 100 23 0.355901
5 7 100 23 0.177777
6 7 100 23 0.177734
7 7 100 23 0.177778
5 8 100 23 0.322102
6 8 100 23 0.32218
7 8 100 23 0.322102
8 8 100 23 0.0335056
9 8 100 23 9.14417e-05
11 8 100 23 1.9526e-05
5 9 100 23 0.210369
6 9 100 23 0.209833
7 9 100 23 0.209833
8 9 100 23 0.369964
8 10 100 23 0.948383
9 10 100 23 0.000998337
11 10 100 23 0.00117407
14 10 100 23 0.0494447
3 11 100 23 9.69028e-06
8 11 100 23 7.90685e-05
10 11 100 23 0.250497
11 11 100 23 0.249847
12 11 100 23 0.249735
13 11 100 23 0.249735
17 11 100 23 7.4433e-06
18 11 100 23 9.10171e-05
8 12 100 23 0.499981
9 12 100 23 0.499981
16 12 100 23 2.22912e-05
19 12 100 23 1.48e-05
3 13 100 23 5.36846e-06
9 13 100 23 0.467271
10 13 100 23 0.532714
18 13 100 23 8.88294e-06
10 14 100 23 0.00138761
11 14 100 23 0.307389
12 14 100 23 0.305083
13 14 100 23 0.305083
14 14 100 23 0.0809837
17 14 100 23 7.29744e-05
2 15 100 23 5.39103e-06
10 15 100 23 0.00019035
14 15 100 23 0.333713
15 15 100 23 0.333713
16 15 100 23 0.332313
18 15 100 23 6.59646e-05
14 16 100 23 0.278624
15 16 100 23 0.441605
16 16 100 23 0.279771
18 17 100 23 1
3 18 100 23 2.06177e-06
10 18 100 23 0.0255175
15 18 100 23 0.0746471
16 18 100 23 0.179967
17 18 100 23 0.359933
19 18 100 23 0.179967
20 18 100 23 0.179967
11 19 100 23 0.141498
12 19 100 23 0.142018
13 19 100 23 0.142018
14 19 100 23 0.142018
15 19 100 23 0.142018
16 19 100 23 0.142018
17 19 100 23 0.148402
18 19 100 23 9.72314e-06
17 20 100 23 0.00149218
18 20 100 23 0.255837
19 20 100 23 0.247557
20 20 100 23 0.247557
21 20 100 23 0.247557
12 21 100 23 0.100038
13 21 100 23 0.100038
14 21 100 23 0.100035
15 21 100 23 0.100038
16 21 100 23 0.100038
17 21 100 23 0.100038
18 21 100 23 0.099678
19 21 100 23 0.100038
20 21 100 23 0.10002
21 21 100 23 0.100036
18 22 100 23 0.495228
19 22 100 23 0.504772
20 23 100 23 1
19 24 100 23 0.132549
21 24 100 23 0.173484
22 24 100 23 0.347006
23 24 100 23 0.346961
1 25 100 23 1.17546e-05
2 25 100 23 8.58364e-07
3 25 100 23 1.37199e-05
12 25 100 23 7.81443e-07
17 25 100 23 0.000101484
18 25 100 23 3.76553e-06
19 25 100 23 0.099663
20 25 100 23 0.236813
21 25 100 23 0.240257
22 25 100 23 0.184654
23 25 100 23 0.238481
3 26 100 23 1.34679e-05
11 26 100 23 0.000104276
17 26 100 23 7.39532e-05
18 26 100 23 0.000492011
19 26 100 23 0.0245783
21 26 100 23 1.9986e-06
22 26 100 23 0.974736
9 27 100 23 0.000140963
18 27 100 23 1.1423e-05
19 27 100 23 6.42096e-05
20 27 100 23 0.0409235
21 27 100 23 4.45849e-06
22 27 100 23 3.91628e-06
23 27 100 23 0.958852
8 28 100 23 3.35702e-05
18 28 100 23 0.999669
19 28 100 23 0.000297201
18 29 100 23 0.000743436
19 29 100 23 0.00639685
20 29 100 23 0.0321182
21 29 100 23 0.959399
22 29 100 23 0.00134275
18 30 100 23 0.999981
21 30 100 23 1.92357e-05
11 31 100 23 0.000901411
19 31 100 23 0.999099
17 32 100 23 2.58208e-07
19 32 100 23 0.000752301
20 32 100 23 0.241735
21 32 100 23 0.250859
22 32 100 23 0.253325
23 32 100 23 0.253328
1 0 100 24 1.07383e-05
2 0 100 24 0.000843914
3 0 100 24 0.102079
6 0 100 24 0.000143606
7 0 100 24 0.00315292
8 0 100 24 0.0499217
9 0 100 24 0.0498433
10 0 100 24 6.6389e-07
11 0 100 24 0.0503795
12 0 100 24 0.0503915
13 0 100 24 0.0504133
14 0 100 24 0.0503824
15 0 100 24 0.0996216
16 0 100 24 0.0969681
17 0 100 24 0.0519577
18 0 100 24 0.0579763
19 0 100 24 0.0503911
20 0 100 24 0.10067
21 0 100 24 0.0311698
22 0 100 24 0.0501317
23 0 100 24 0.0535517
1 1 100 24 0.526286
2 1 100 24 0.00121664
3 1 100 24 0.472497
1 2 100 24 0.502851
2 2 100 24 0.497149
1 3 100 24 0.124649
2 3 100 24 0.249299
3 3 100 24 0.127584
4 3 100 24 0.124522
5 3 100 24 0.124649
6 3 100 24 0.124649
7 3 100 24 0.124648
2 4 100 24 0.00154566
3 4 100 24 0.476202
4 4 100 24 0.434399
5 4 100 24 0.0878535
1 5 100 24 0.153282
2 5 100 24 0.156843
3 5 100 24 0.11941
4 5 100 24 0.153278
5 5 100 24 0.264339
6 5 100 24 0.152846
11 5 100 24 1.92444e-06
4 6 100 24 0.227044
5 6 100 24 0.212545
6 6 100 24 0.226926
7 6 100 24 0.333451
20 6 100 24 3.41077e-05
3 7 100 24 9.14937e-05
5 7 100 24 0.197992
6 7 100 24 0.396897
7 7 100 24 0.199316
8 7 100 24 0.205704
3 8 100 24 0.0266713
7 8 100 24 0.32718
8 8 100 24 0.646148
4 9 100 24 0.165505
5 9 100 24 0.165512
6 9 100 24 0.165505
8 9 100 24 0.167047
9 9 100 24 0.170926
10 9 100 24 0.165505
9 10 100 24 1
3 11 100 24 1.7939e-05
8 11 100 24 0.168189
9 11 100 24 0.332693
10 11 100 24 0.330939
11 11 100 24 0.168161
7 12 100 24 0.142898
8 12 100 24 0.142898
9 12 100 24 0.142614
12 12 100 24 0.285795
13 12 100 24 0.285795
9 13 100 24 0.323335
10 13 100 24 0.329052
11 13 100 24 0.173585
15 13 100 24 0.17355
23 13 100 24 0.00047847
10 14 100 24 0.362044
11 14 100 24 3.71445e-06
13 14 100 24 0.000266
16 14 100 24 0.318818
17 14 100 24 0.318818
23 14 100 24 5.10879e-05
10 15 100 24 0.0855022
11 15 100 24 0.332175
12 15 100 24 0.253962
13 15 100 24 0.170823
14 15 100 24 0.0854991
18 15 100 24 0.0719667
20 15 100 24 6.91928e-05
22 15 100 24 1.23052e-06
23 15 100 24 2.21024e-06
11 16 100 24 0.0927139
12 16 100 24 0.899839
13 16 100 24 0.000126077
18 16 100 24 0.00713711
20 16 100 24 0.000183656
11 17 100 24 0.013245
12 17 100 24 0.049204
15 17 100 24 0.0210529
19 17 100 24 0.916498
2 18 100 24 2.05334e-05
14 18 100 24 0.230958
16 18 100 24 0.385511
20 18 100 24 0.38351
13 19 100 24 0.398296
14 19 100 24 0.398296
15 19 100 24 0.199148
16 19 100 24 0.00425644
18 19 100 24 2.9733e-06
14 20 100 24 0.286215
15 20 100 24 0.286471
16 20 100 24 0.318031
21 20 100 24 0.109282
11 21 100 24 2.63527e-06
13 21 100 24 6.77469e-05
14 21 100 24 0.111916
15 21 100 24 0.111916
16 21 100 24 0.216507
17 21 100 24 0.335749
18 21 100 24 0.111916
19 21 100 24 0.111916
21 21 100 24 1.35535e-06
22 21 100 24 7.48886e-06
14 22 100 24 0.0336905
16 22 100 24 0.000397628
17 22 100 24 4.48219e-05
18 22 100 24 0.263461
19 22 100 24 0.175564
20 22 100 24 0.263381
21 22 100 24 0.0878203
23 22 100 24 0.0878203
24 22 100 24 0.0878203
3 23 100 24 1.97153e-06
11 23 100 24 1.59182e-06
17 23 100 24 0.107976
18 23 100 24 0.111499
20 23 100 24 0.111499
21 23 100 24 0.222998
22 23 100 24 0.223028
23 23 100 24 0.111499
24 23 100 24 0.111499
10 24 100 24 0.00570857
23 24 100 24 0.994291
1 25 100 24 0.0919969
2 25 100 24 0.0905743
10 25 100 24 1.2376e-05
14 25 100 24 0.00141115
15 25 100 24 0.0920009
17 25 100 24 0.092001
19 25 100 24 0.181167
22 25 100 24 0.092001
23 25 100 24 0.174834
24 25 100 24 0.184002
2 26 100 24 4.45378e-07
3 26 100 24 1.00406e-06
7 26 100 24 1.40096e-06
8 26 100 24 9.87549e-06
9 26 100 24 1.23086e-06
12 26 100 24 7.32483e-06
16 26 100 24 3.14999e-05
17 26 100 24 8.91674e-07
18 26 100 24 8.59594e-06
19 26 100 24 4.53174e-06
20 26 100 24 0.00197591
21 26 100 24 0.333144
22 26 100 24 0.330631
23 26 100 24 0.000867879
24 26 100 24 0.333314
7 27 100 24 1.16475e-05
9 27 100 24 9.31638e-06
13 27 100 24 5.94327e-07
14 27 100 24 4.69405e-06
15 27 100 24 1.52977e-06
17 27 100 24 5.21204e-06
18 27 100 24 3.40817e-05
19 27 100 24 0.00209654
20 27 100 24 9.02513e-05
21 27 100 24 0.245568
22 27 100 24 0.253938
23 27 100 24 0.249182
24 27 100 24 0.249058
10 28 100 24 6.30273e-06
12 28 100 24 7.51736e-05
13 28 100 24 0.748469
14 28 100 24 0.00126619
15 28 100 24 2.24064e-05
16 28 100 24 0.000143592
17 28 100 24 0.00210868
18 28 100 24 0.00364083
19 28 100 24 0.243728
20 28 100 24 9.06635e-05
21 28 100 24 0.000235663
22 28 100 24 0.000190127
23 28 100 24 2.31589e-05
7 29 100 24 2.66044e-06
13 29 100 24 4.73769e-05
14 29 100 24 4.66784e-06
15 29 100 24 2.69809e-06
16 29 100 24 6.32436e-07
17 29 100 24 3.66645e-06
18 29 100 24 0.000800772
19 29 100 24 0.283497
20 29 100 24 0.00197494
21 29 100 24 0.356506
22 29 100 24 0.356311
23 29 100 24 0.000848684
7 30 100 24 0.00557416
13 30 100 24 0.235764
20 30 100 24 0.0536863
22 30 100 24 0.0226765
23 30 100 24 0.682299
7 31 100 24 0.000472752
14 31 100 24 2.64621e-06
15 31 100 24 6.01221e-05
20 31 100 24 0.00231057
22 31 100 24 0.000232789
23 31 100 24 0.482464
24 31 100 24 0.514457
24 32 100 24 1
1 0 100 25 9.97891e-06
2 0 100 25 0.168368
3 0 100 25 0.0592127
4 0 100 25 0.0602487
5 0 100 25 0.000870327
6 0 100 25 0.12153
11 0 100 25 0.0604322
13 0 100 25 0.179885
14 0 100 25 0.0600253
18 0 100 25 0.0626259
19 0 100 25 0.000905795
20 0 100 25 0.0495384
22 0 100 25 0.0604323
24 0 100 25 0.115916
1 1 100 25 1
1 2 100 25 0.389681
2 2 100 25 0.320806
3 2 100 25 0.289511
16 2 100 25 2.29767e-06
1 3 100 25 3.54265e-05
3 3 100 25 0.506192
4 3 100 25 0.493735
19 3 100 25 1.37964e-05
24 3 100 25 2.46614e-05
1 4 100 25 0.0147184
3 4 100 25 0.251047
4 4 100 25 0.734235
1 5 100 25 0.00340534
2 5 100 25 6.04565e-05
4 5 100 25 0.350905
5 5 100 25 0.645629
5 6 100 25 0.030268
6 6 100 25 0.323247
7 6 100 25 0.323232
8 6 100 25 0.323233
15 6 100 25 1.98809e-05
1 7 100 25 6.8156e-05
3 7 100 25 0.140604
4 7 100 25 0.14062
5 7 100 25 0.156252
9 7 100 25 0.140597
10 7 100 25 0.14062
12 7 100 25 0.14062
13 7 100 25 0.14062
1 8 100 25 0.502787
6 8 100 25 0.497213
2 9 100 25 0.049778
7 9 100 25 0.0782779
9 9 100 25 0.435966
10 9 100 25 0.435966
18 9 100 25 1.15479e-05
2 10 100 25 0.00150016
6 10 100 25 1.35736e-05
7 10 100 25 0.199713
11 10 100 25 0.199693
12 10 100 25 0.199693
14 10 100 25 0.199693
15 10 100 25 0.199693
2 11 100 25 0.127023
7 11 100 25 0.264956
8 11 100 25 0.291101
9 11 100 25 0.142366
10 11 100 25 0.141929
11 11 100 25 0.0326254
1 12 100 25 4.49772e-06
2 12 100 25 0.000123174
3 12 100 25 0.26071
9 12 100 25 5.7632e-05
11 12 100 25 0.0329541
12 12 100 25 0.353029
13 12 100 25 0.353029
19 12 100 25 9.31387e-05
3 13 100 25 0.747576
14 13 100 25 0.251914
19 13 100 25 0.000509988
5 14 100 25 0.120283
8 14 100 25 0.223625
9 14 100 25 0.655285
21 14 100 25 0.0008076
13 15 100 25 0.000155438
14 15 100 25 0.246481
20 15 100 25 5.78443e-05
24 15 100 25 0.376653
25 15 100 25 0.376653
3 16 100 25 8.37488e-06
13 16 100 25 2.51363e-06
14 16 100 25 0.00475706
16 16 100 25 0.191396
17 16 100 25 0.200959
19 16 100 25 0.200959
20 16 100 25 0.200959
21 16 100 25 0.200959
3 17 100 25 1.92977e-05
9 17 100 25 0.168039
10 17 100 25 0.172213
11 17 100 25 0.2826
14 17 100 25 0.0410523
22 17 100 25 0.168039
23 17 100 25 0.168038
3 18 100 25 0.00283104
13 18 100 25 2.16771e-05
15 18 100 25 0.332256
16 18 100 25 0.332292
17 18 100 25 0.332292
18 18 100 25 0.000299173
20 18 100 25 8.06687e-06
4 19 100 25 0.335695
5 19 100 25 0.000867642
15 19 100 25 0.326679
18 19 100 25 0.336758
5 20 100 25 0.0767314
6 20 100 25 0.0767314
7 20 100 25 0.0767314
8 20 100 25 0.15289
9 20 100 25 0.153461
10 20 100 25 0.0767314
11 20 100 25 9.32458e-06
12 20 100 25 0.153463
16 20 100 25 0.0797876
17 20 100 25 0.0767314
19 20 100 25 0.0767314
4 21 100 25 0.000112135
5 21 100 25 0.000127162
13 21 100 25 0.175828
14 21 100 25 0.175828
15 21 100 25 0.181087
16 21 100 25 0.115355
20 21 100 25 0.175828
21 21 100 25 0.175828
22 21 100 25 8.10061e-06
11 22 100 25 1
3 23 100 25 0.000409237
13 23 100 25 0.00966755
16 23 100 25 0.146011
18 23 100 25 0.417907
19 23 100 25 0.00147861
20 23 100 25 6.52046e-06
22 23 100 25 0.42452
14 24 100 25 0.333332
15 24 100 25 0.333332
17 24 100 25 0.333332
18 24 100 25 4.3142e-06
14 25 100 25 6.09276e-06
16 25 100 25 0.201234
17 25 100 25 0.19969
23 25 100 25 0.19969
24 25 100 25 0.19969
25 25 100 25 0.19969
10 26 100 25 0.124161
11 26 100 25 0.124155
12 26 100 25 0.124162
14 26 100 25 0.124003
18 26 100 25 0.126096
19 26 100 25 0.248253
20 26 100 25 0.12917
2 27 100 25 2.17717e-05
4 27 100 25 5.93787e-07
6 27 100 25 6.50295e-07
11 27 100 25 7.98264e-07
13 27 100 25 9.15451e-05
14 27 100 25 0.00196742
15 27 100 25 3.35505e-06
16 27 100 25 1.02536e-05
18 27 100 25 0.0896864
19 27 100 25 0.000776902
20 27 100 25 0.21823
21 27 100 25 0.23019
22 27 100 25 0.230181
23 27 100 25 0.22884
2 28 100 25 6.55597e-06
3 28 100 25 6.20914e-05
4 28 100 25 0.000157831
6 28 100 25 2.17424e-05
13 28 100 25 2.35098e-05
14 28 100 25 5.08887e-07
15 28 100 25 2.1468e-06
16 28 100 25 6.84331e-06
17 28 100 25 9.87179e-06
18 28 100 25 0.440294
19 28 100 25 0.559012
20 28 100 25 3.77943e-05
21 28 100 25 5.04713e-05
22 28 100 25 8.02276e-05
24 28 100 25 0.000235073
3 29 100 25 2.25201e-05
4 29 100 25 3.5489e-05
5 29 100 25 8.64772e-07
6 29 100 25 1.10288e-07
9 29 100 25 1.26987e-06
10 29 100 25 1.37322e-06
11 29 100 25 4.32661e-07
12 29 100 25 8.66298e-07
13 29 100 25 0.000179564
14 29 100 25 0.000683945
15 29 100 25 0.102389
16 29 100 25 0.101742
17 29 100 25 0.102904
18 29 100 25 0.000132269
19 29 100 25 0.0440683
20 29 100 25 0.121097
21 29 100 25 0.102513
22 29 100 25 0.102905
23 29 100 25 0.103497
24 29 100 25 0.0120158
25 29 100 25 0.20581
12 30 100 25 1.54461e-06
14 30 100 25 0.000212269
15 30 100 25 5.40709e-07
16 30 100 25 6.70853e-07
17 30 100 25 1.47444e-05
18 30 100 25 5.58432e-05
19 30 100 25 7.33927e-06
20 30 100 25 0.00117034
21 30 100 25 0.996503
22 30 100 25 2.9686e-05
23 30 100 25 0.00197266
24 30 100 25 3.07295e-05
25 30 100 25 9.98566e-07
2 31 100 25 1.21774e-05
6 31 100 25 5.60409e-07
11 31 100 25 5.98692e-07
13 31 100 25 4.27487e-05
16 31 100 25 2.22227e-06
20 31 100 25 0.00127312
21 31 100 25 2.73565e-05
23 31 100 25 0.332051
24 31 100 25 0.333286
25 31 100 25 0.333304
3 32 100 25 0.00126597
11 32 100 25 0.000708742
18 32 100 25 0.00311744
19 32 100 25 0.991186
20 32 100 25 0.000174777
21 32 100 25 0.00354707
21 33 100 25 0.999849
22 33 100 25 0.000150645
20 34 100 25 5.68421e-07
21 34 100 25 0.0248337
22 34 100 25 0.243752
23 34 100 25 0.244114
24 34 100 25 0.244118
25 34 100 25 0.243182
25 35 100 25 1
2 0 100 26 0.0331928
3 0 100 26 0.0648085
4 0 100 26 0.0380958
5 0 100 26 0.0627193
6 0 100 26 0.0699176
7 0 100 26 0.0322994
8 0 100 26 0.0226337
9 0 100 26 0.0323843
10 0 100 26 0.0625214
11 0 100 26 0.0309989
13 0 100 26 0.0309417
14 0 100 26 0.0309215
15 0 100 26 0.0950199
16 0 100 26 0.0879256
17 0 100 26 0.0612123
18 0 100 26 0.0290831
19 0 100 26 0.032142
20 0 100 26 0.0640191
21 0 100 26 0.0225698
23 0 100 26 0.0323848
24 0 100 26 0.0318432
25 0 100 26 0.0323653
1 1 100 26 0.550755
2 1 100 26 0.229143
3 1 100 26 0.220083
13 1 100 26 1.93182e-05
1 2 100 26 0.0428315
2 2 100 26 0.235895
4 2 100 26 0.25014
6 2 100 26 0.235868
7 2 100 26 0.235251
15 2 100 26 1.29061e-05
17 2 100 26 2.65164e-06
2 3 100 26 0.131031
3 3 100 26 0.131039
4 3 100 26 0.344826
5 3 100 26 0.262069
6 3 100 26 0.131035
1 4 100 26 0.330536
2 4 100 26 0.32727
3 4 100 26 0.220163
4 4 100 26 0.122031
1 5 100 26 0.102232
2 5 100 26 0.102232
3 5 100 26 0.204343
4 5 100 26 0.206893
5 5 100 26 0.282067
7 5 100 26 0.102232
4 6 100 26 8.69847e-06
5 6 100 26 0.00317049
6 6 100 26 0.199343
8 6 100 26 0.199362
9 6 100 26 0.199385
10 6 100 26 0.199362
12 6 100 26 0.199362
19 6 100 26 8.16636e-06
4 7 100 26 0.296019
5 7 100 26 0.380979
6 7 100 26 0.296172
7 7 100 26 2.16997e-05
11 7 100 26 0.0125978
12 7 100 26 5.03754e-05
13 7 100 26 0.00155669
14 7 100 26 0.0125978
21 7 100 26 5.78875e-06
1 8 100 26 3.40972e-05
2 8 100 26 4.70586e-06
6 8 100 26 0.2915
7 8 100 26 0.291542
8 8 100 26 0.145744
10 8 100 26 0.143341
11 8 100 26 0.127315
18 8 100 26 0.000312003
24 8 100 26 0.000206591
5 9 100 26 0.141117
6 9 100 26 0.00567995
7 9 100 26 0.423896
8 9 100 26 0.282913
9 9 100 26 0.140821
13 9 100 26 0.00554421
20 9 100 26 8.46845e-06
21 9 100 26 2.06168e-05
1 10 100 26 0.158696
2 10 100 26 0.158696
3 10 100 26 0.170813
6 10 100 26 9.14528e-05
8 10 100 26 0.194313
9 10 100 26 0.158696
12 10 100 26 0.158695
4 11 100 26 0.0709662
5 11 100 26 0.0709521
6 11 100 26 0.0567018
7 11 100 26 0.0709494
8 11 100 26 0.0760213
9 11 100 26 0.162314
10 11 100 26 0.134126
11 11 100 26 0.074223
12 11 100 26 0.07094
14 11 100 26 0.00015657
15 11 100 26 0.070742
16 11 100 26 0.0709521
17 11 100 26 0.0709513
24 11 100 26 4.43081e-06
6 12 100 26 0.1229
7 12 100 26 0.122902
8 12 100 26 0.245799
9 12 100 26 0.333566
10 12 100 26 0.138332
11 12 100 26 6.8163e-05
13 12 100 26 0.0364302
14 12 100 26 4.04242e-06
10 13 100 26 0.0586096
11 13 100 26 0.885195
18 13 100 26 0.0561716
22 13 100 26 2.35152e-05
1 14 100 26 1.13286e-06
7 14 100 26 4.52899e-06
8 14 100 26 0.081996
9 14 100 26 0.081996
10 14 100 26 0.164196
11 14 100 26 0.409153
12 14 100 26 0.18062
13 14 100 26 0.0819943
16 14 100 26 4.52899e-06
20 14 100 26 3.47297e-05
11 15 100 26 1.20763e-05
12 15 100 26 0.191814
13 15 100 26 0.204773
14 15 100 26 0.307265
15 15 100 26 0.296136
6 16 100 26 4.23729e-05
10 16 100 26 0.121425
11 16 100 26 0.121425
12 16 100 26 0.24354
13 16 100 26 0.359374
14 16 100 26 0.121442
16 16 100 26 0.0326813
24 16 100 26 6.92476e-05
11 17 100 26 0.0117651
13 17 100 26 0.25074
14 17 100 26 0.147159
15 17 100 26 0.147085
16 17 100 26 0.001994
17 17 100 26 0.147085
18 17 100 26 0.147085
19 17 100 26 0.147085
21 17 100 26 3.74881e-06
4 18 100 26 1.85769e-05
5 18 100 26 8.09877e-05
12 18 100 26 0.179961
13 18 100 26 0.203672
14 18 100 26 0.407166
15 18 100 26 0.0131568
16 18 100 26 0.195927
18 18 100 26 1.87257e-05
14 19 100 26 0.273329
15 19 100 26 0.284795
16 19 100 26 0.284577
17 19 100 26 0.156983
18 19 100 26 0.000316535
10 20 100 26 4.51301e-06
14 20 100 26 4.59212e-05
16 20 100 26 0.175566
17 20 100 26 0.340042
18 20 100 26 0.484341
16 21 100 26 0.166004
17 21 100 26 0.172365
18 21 100 26 0.296823
20 21 100 26 0.192471
21 21 100 26 0.172331
25 21 100 26 5.61566e-06
7 22 100 26 0.000316853
15 22 100 26 3.54094e-05
16 22 100 26 0.00289063
18 22 100 26 0.0307508
19 22 100 26 0.00018872
22 22 100 26 0.9658
24 22 100 26 1.75694e-05
14 23 100 26 9.12638e-06
17 23 100 26 9.70248e-06
19 23 100 26 0.335009
20 23 100 26 0.332469
21 23 100 26 0.332504
17 24 100 26 0.000281742
18 24 100 26 0.370693
19 24 100 26 0.465621
20 24 100 26 6.72043e-05
22 24 100 26 0.162763
24 24 100 26 0.00057478
6 25 100 26 1.12173e-05
17 25 100 26 0.123056
18 25 100 26 0.0185813
20 25 100 26 0.357435
21 25 100 26 0.156507
22 25 100 26 0.0986844
23 25 100 26 0.123276
24 25 100 26 0.12245
3 26 100 26 1.48208e-05
13 26 100 26 3.21726e-06
16 26 100 26 3.28512e-06
20 26 100 26 0.0308547
21 26 100 26 0.0102331
23 26 100 26 0.344669
24 26 100 26 0.307111
26 26 100 26 0.307111
10 27 100 26 0.000134901
19 27 100 26 0.211481
20 27 100 26 3.03815e-06
22 27 100 26 0.224784
23 27 100 26 0.187406
24 27 100 26 0.00126651
25 27 100 26 0.187522
26 27 100 26 0.187402
2 28 100 26 6.53412e-06
3 28 100 26 4.63572e-06
5 28 100 26 8.92112e-05
8 28 100 26 1.96031e-05
9 28 100 26 3.87658e-07
11 28 100 26 9.58944e-07
13 28 100 26 2.20169e-07
14 28 100 26 0.000191279
15 28 100 26 0.000333339
16 28 100 26 4.83673e-05
17 28 100 26 0.000414618
18 28 100 26 8.22591e-05
19 28 100 26 0.271981
20 28 100 26 5.91998e-06
21 28 100 26 0.336157
22 28 100 26 0.389879
23 28 100 26 0.000259635
24 28 100 26 1.94868e-05
25 28 100 26 1.23063e-06
26 28 100 26 0.000505667
2 29 100 26 1.87973e-07
14 29 100 26 0.000282238
15 29 100 26 0.0176172
16 29 100 26 0.000202119
17 29 100 26 1.12547e-05
18 29 100 26 0.0161607
19 29 100 26 0.0858203
20 29 100 26 0.235286
21 29 100 26 0.2155
22 29 100 26 0.16043
23 29 100 26 0.0312883
24 29 100 26 0.0775295
25 29 100 26 0.079936
26 29 100 26 0.0799359
4 30 100 26 3.67403e-07
6 30 100 26 2.82205e-05
15 30 100 26 2.74439e-06
16 30 100 26 1.17337e-05
17 30 100 26 2.07836e-06
18 30 100 26 6.00737e-05
19 30 100 26 2.60034e-05
20 30 100 26 4.11239e-05
21 30 100 26 2.09267e-06
22 30 100 26 2.01207e-05
23 30 100 26 0.338823
24 30 100 26 0.223039
25 30 100 26 0.218977
26 30 100 26 0.218966
2 31 100 26 3.27078e-06
3 31 100 26 1.50806e-06
6 31 100 26 1.0182e-07
7 31 100 26 3.70768e-06
9 31 100 26 1.83908e-07
10 31 100 26 1.87123e-06
11 31 100 26 5.92534e-07
13 31 100 26 1.52152e-06
14 31 100 26 4.72176e-06
15 31 100 26 2.10261e-05
16 31 100 26 2.56326e-07
17 31 100 26 3.03301e-05
18 31 100 26 0.00122884
19 31 100 26 0.0362065
20 31 100 26 9.51943e-07
21 31 100 26 0.0972045
22 31 100 26 0.0978127
23 31 100 26 0.184303
24 31 100 26 0.194391
25 31 100 26 0.194391
26 31 100 26 0.194392
6 32 100 26 1.24587e-06
7 32 100 26 4.83071e-06
14 32 100 26 3.99478e-06
15 32 100 26 0.00174116
16 32 100 26 0.169321
17 32 100 26 0.169639
18 32 100 26 0.169797
19 32 100 26 0.105077
20 32 100 26 0.0499116
21 32 100 26 0.0986439
22 32 100 26 0.00192054
23 32 100 26 0.000124708
24 32 100 26 0.16972
25 32 100 26 0.0640934
1 33 100 26 1.88278e-05
2 33 100 26 1.654e-07
3 33 100 26 2.36871e-07
4 33 100 26 1.71415e-07
7 33 100 26 7.8772e-07
14 33 100 26 1.49065e-07
15 33 100 26 1.94724e-06
16 33 100 26 1.94717e-06
17 33 100 26 7.31841e-07
18 33 100 26 1.18763e-06
19 33 100 26 4.65035e-06
20 33 100 26 4.07679e-06
21 33 100 26 0.00094316
22 33 100 26 0.0374514
23 33 100 26 0.129469
24 33 100 26 0.125652
25 33 100 26 0.329496
26 33 100 26 0.376954
3 34 100 26 0.999099
6 34 100 26 0.000113794
21 34 100 26 2.43917e-05
22 34 100 26 3.78954e-05
23 34 100 26 1.8059e-05
24 34 100 26 0.000706675
6 35 100 26 4.59873e-06
18 35 100 26 2.40551e-07
20 35 100 26 2.90627e-07
21 35 100 26 0.00118978
22 35 100 26 0.197668
23 35 100 26 0.200309
24 35 100 26 0.200195
25 35 100 26 0.200316
26 35 100 26 0.200316
7 0 100 27 0.000734217
10 0 100 27 0.16825
17 0 100 27 0.167563
19 0 100 27 0.167873
22 0 100 27 0.00277229
23 0 100 27 0.163157
24 0 100 27 0.161401
25 0 100 27 0.16825
1 1 100 27 1
8 2 100 27 0.445468
24 2 100 27 0.554532
2 3 100 27 0.25
3 3 100 27 0.25
4 3 100 27 0.25
5 3 100 27 0.25
6 4 100 27 0.333704
7 4 100 27 0.332151
8 4 100 27 0.333703
17 4 100 27 0.000441804
9 5 100 27 1
7 6 100 27 0.0952964
17 6 100 27 0.904704
1 7 100 27 0.333335
2 7 100 27 0.33333
3 7 100 27 0.333335
2 8 100 27 0.000149734
9 8 100 27 0.99985
7 9 100 27 0.0952964
17 9 100 27 0.904703
19 10 100 27 1
10 11 100 27 0.25
11 11 100 27 0.25
12 11 100 27 0.25
13 11 100 27 0.25
4 12 100 27 0.166667
5 12 100 27 0.166667
6 12 100 27 0.166667
14 12 100 27 0.166667
15 12 100 27 0.166667
16 12 100 27 0.166667
7 13 100 27 0.00748035
12 13 100 27 4.81831e-06
18 13 100 27 0.248129
19 13 100 27 0.248129
20 13 100 27 0.248129
21 13 100 27 0.248129
7 14 100 27 0.489925
12 14 100 27 8.78344e-05
22 14 100 27 0.509987
7 15 100 27 0.346487
12 15 100 27 0.00023161
22 15 100 27 0.0653351
23 15 100 27 0.332034
24 15 100 27 0.255912
8 16 100 27 0.496353
9 16 100 27 0.496352
23 16 100 27 0.000673557
24 16 100 27 0.00662157
7 17 100 27 0.0445769
12 17 100 27 0.260629
17 17 100 27 0.00172693
23 17 100 27 0.00366205
24 17 100 27 0.689405
25 18 100 27 1
25 19 100 27 0.289093
26 19 100 27 0.355454
27 19 100 27 0.355454
11 20 100 27 1
25 21 100 27 1
10 22 100 27 1
20 23 100 27 1
10 24 100 27 1
11 25 100 27 1
19 26 100 27 1
11 27 100 27 1
19 28 100 27 1
10 29 100 27 0.584698
19 29 100 27 0.41481
25 29 100 27 0.000492129
7 30 100 27 0.000478711
9 30 100 27 3.63e-05
11 30 100 27 0.156263
12 30 100 27 0.840386
13 30 100 27 0.00283376
18 30 100 27 1.01047e-06
20 30 100 27 1.04443e-06
11 31 100 27 4.32906e-06
12 31 100 27 2.00174e-05
13 31 100 27 0.166569
14 31 100 27 0.167185
15 31 100 27 0.167185
16 31 100 27 0.167184
17 31 100 27 0.167182
18 31 100 27 0.164072
20 31 100 27 0.000600303
10 33 100 27 0.458717
19 33 100 27 0.541283
9 34 100 27 0.000433216
18 34 100 27 0.0119928
19 34 100 27 0.977685
20 34 100 27 0.00988855
18 35 100 27 0.267629
19 35 100 27 0.413414
20 35 100 27 0.318957
10 36 100 27 0.0158206
19 36 100 27 0.981252
25 36 100 27 0.00292796
16 37 100 27 2.70798e-06
17 37 100 27 6.47962e-06
18 37 100 27 0.0148315
20 37 100 27 0.984905
21 37 100 27 0.000105892
22 37 100 27 6.22608e-05
23 37 100 27 3.79544e-05
24 37 100 27 2.56988e-05
26 37 100 27 2.21051e-05
10 38 100 27 1.27366e-05
19 38 100 27 5.3546e-05
25 38 100 27 0.999934
18 39 100 27 0.000808276
20 39 100 27 0.0358299
21 39 100 27 0.192839
22 39 100 27 0.192846
23 39 100 27 0.19285
24 39 100 27 0.192851
26 39 100 27 0.191976
26 40 100 27 0.00452133
27 40 100 27 0.995479
2 0 100 28 0.0855782
3 0 100 28 0.0763749
6 0 100 28 0.0763805
10 0 100 28 0.0757823
15 0 100 28 0.0763661
16 0 100 28 0.152114
17 0 100 28 1.1141e-06
21 0 100 28 0.0763986
23 0 100 28 0.228585
24 0 100 28 0.0763992
25 0 100 28 0.0760208
1 1 100 28 0.182354
2 1 100 28 0.0951506
3 1 100 28 0.0925382
6 1 100 28 0.0925382
7 1 100 28 0.0925356
8 1 100 28 0.0925382
9 1 100 28 0.0925382
10 1 100 28 0.0915951
11 1 100 28 0.0925382
12 1 100 28 0.0756735
1 2 100 28 0.997023
2 2 100 28 0.00169572
3 2 100 28 0.000196661
23 2 100 28 0.00108454
4 3 100 28 0.993997
5 3 100 28 0.00263916
19 3 100 28 0.00336388
10 4 100 28 1
4 5 100 28 0.999248
13 5 100 28 0.000107509
15 5 100 28 6.59638e-05
19 5 100 28 0.000578932
1 6 100 28 0.195639
2 6 100 28 0.195639
5 6 100 28 0.195639
7 6 100 28 0.195639
8 6 100 28 0.195643
11 6 100 28 0.0218017
1 7 100 28 0.0144828
2 7 100 28 0.000721373
3 7 100 28 0.984609
6 7 100 28 0.000109152
10 7 100 28 2.87322e-05
23 7 100 28 4.92277e-05
2 8 100 28 0.108392
5 8 100 28 0.719877
10 8 100 28 0.00154828
16 8 100 28 0.00218726
19 8 100 28 0.167996
2 9 100 28 6.04969e-05
4 9 100 28 0.999473
19 9 100 28 0.000466715
5 10 100 28 0.0998572
6 10 100 28 0.000518947
9 10 100 28 0.0999217
10 10 100 28 0.100213
11 10 100 28 0.0999217
12 10 100 28 0.0999217
13 10 100 28 0.0999217
14 10 100 28 0.0999217
16 10 100 28 0.0999217
17 10 100 28 0.0999217
18 10 100 28 0.0999217
25 10 100 28 3.74838e-05
4 11 100 28 0.490156
5 11 100 28 0.000315739
6 11 100 28 0.487609
10 11 100 28 0.000214372
19 11 100 28 0.0216769
25 11 100 28 2.75622e-05
7 12 100 28 0.990843
10 12 100 28 0.009157
2 13 100 28 0.000102759
3 13 100 28 0.000787915
4 13 100 28 0.000197226
10 13 100 28 0.000994008
19 13 100 28 0.99779
25 13 100 28 0.000127801
5 14 100 28 0.340576
14 14 100 28 0.31869
15 14 100 28 0.340724
16 14 100 28 1.05498e-05
6 15 100 28 4.54633e-06
7 15 100 28 4.56835e-06
16 15 100 28 0.332562
17 15 100 28 0.332562
18 15 100 28 0.332562
19 15 100 28 0.00230501
6 16 100 28 0.105304
7 16 100 28 0.171898
8 16 100 28 0.210484
9 16 100 28 0.210609
10 16 100 28 0.210608
11 16 100 28 0.0910968
23 17 100 28 1
4 18 100 28 2.39279e-06
10 18 100 28 0.000573455
11 18 100 28 0.191574
12 18 100 28 0.1688
19 18 100 28 0.301454
20 18 100 28 0.1688
21 18 100 28 0.168796
2 19 100 28 0.000136956
13 19 100 28 0.999319
16 19 100 28 0.000186767
19 19 100 28 0.000357319
12 20 100 28 0.582132
16 20 100 28 3.67282e-05
22 20 100 28 0.417831
12 21 100 28 0.190619
13 21 100 28 0.364801
14 21 100 28 0.209816
15 21 100 28 0.197147
19 21 100 28 0.00136644
22 21 100 28 0.0362497
10 22 100 28 0.0214035
12 22 100 28 0.957193
25 22 100 28 0.0214035
8 23 100 28 0.000532854
10 23 100 28 1.81594e-05
13 23 100 28 0.0131125
14 23 100 28 0.493159
15 23 100 28 0.493159
25 23 100 28 1.81594e-05
12 24 100 28 0.000661497
16 24 100 28 0.00183737
20 24 100 28 0.213882
21 24 100 28 0.213888
22 24 100 28 0.141967
24 24 100 28 0.213882
26 24 100 28 0.213882
2 25 100 28 0.144999
4 25 100 28 0.171093
5 25 100 28 0.17113
17 25 100 28 0.171093
18 25 100 28 0.171093
19 25 100 28 0.170592
6 26 100 28 0.0918387
7 26 100 28 0.0918387
8 26 100 28 0.0918387
9 26 100 28 0.0918387
11 26 100 28 0.0816041
16 26 100 28 0.0918487
