2 0.643946 0.349247 0 0.00408418 0.00136145 0.00136115 0 0 0 0 
3 0.373313 0.0814985 0.187665 0.181279 0.117668 0.0113904 0.0299706 0.0131194 0.00409565 0 
4 0.990099 0.00388061 0.00212425 0.001592 0.00183411 0.000294755 0.000104601 7.08376e-05 0 0 
5 0.646904 0.175428 0.0826942 0.0491205 0.0370039 0.00670995 0.00115709 0 0 0.000981548 
6 0.936485 0.0214592 0.0148385 0.0111206 0.0128118 0.00205895 0.000730671 0.000494822 0 0 
7 0.934282 0.0559813 0.00634446 0.00222754 1.29704e-06 0.00116353 0 0 0 0 
8 0.943032 0.0524952 0 0.00268389 0.000894667 0.000894468 0 0 0 0 
9 0.540932 0.250241 0.0328319 0.114932 0.0196187 0.0342551 0.00450069 0.0026896 0 0 
10 0.53988 0.2418 0.0343241 0.135307 0.0200314 0.0211397 0.00470522 0.00281185 0 0 
11 0.38638 0.077778 0.179386 0.187987 0.112477 0.0108879 0.0286484 0.0125406 0.00391496 0 
12 0.34364 0.197773 0.125774 0.221335 0.0722052 0.00992443 0.0104892 0.00845923 0.00506186 0.00533712 
13 0.647409 0.181645 0.0716565 0.0513533 0.0386859 0.00701494 0.00120969 0 0 0.00102616 
14 0.955389 0.0407856 0.00249248 0.000875107 5.09551e-07 0.000457102 0 0 0 0 
15 0.518373 0.161725 0.16361 0.0699072 0.0623813 0.0107891 0.0084212 0.00148945 0 0.00330412 
16 0.655762 0.170735 0.0726861 0.0521433 0.0392811 0.00712287 0.0012283 0 0 0.00104195 
17 0.9784 0.0111628 0.00368256 0.00275986 0.00317958 0.000510981 0.000181334 0.000122802 0 0 
18 0.679791 0.165719 0.0647205 0.046429 0.0349763 0.00634228 0.00109369 0 0 0.000927764 
19 0.363607 0.199576 0.123868 0.203136 0.0711275 0.00977631 0.0103327 0.00833298 0.00498631 0.00525746 
20 0.669234 0.15784 0.066557 0.0613805 0.036389 0.00652094 0.0011245 0 0 0.000953898 
21 0.337389 0.196969 0.127679 0.211159 0.0869263 0.0100791 0.0106506 0.00858938 0.00513973 0.00541922 
22 0.651098 0.170343 0.080749 0.0505885 0.0381085 0.00691024 0.00119163 0 0 0.00101085 
23 0.524001 0.234688 0.0488285 0.145222 0.0194459 0.020518 0.00456683 0.00272915 0 0 
24 0.691274 0.178817 0.023778 0.0755265 0.0125912 0.0132878 0.00295757 0.00176745 0 0 
25 0.817531 0.087293 0.0443767 0.0262738 0.0197928 0.00358904 0.000618909 0 0 0.000525014 
26 0.920571 0.0682202 0.0073035 0.00256427 1.4931e-06 0.00133942 0 0 0 0 
27 0.350138 0.199604 0.127679 0.209386 0.0733161 0.0100771 0.0106506 0.00858938 0.00513973 0.00541922 
28 0.928891 0.0607445 0.00675378 0.00237126 1.38072e-06 0.0012386 0 0 0 0 
29 0.337389 0.196969 0.127679 0.211203 0.0868836 0.0100771 0.0106506 0.00858938 0.00513973 0.00541922 
30 0.93999 0.0555671 0.00289493 0.00101625 5.91737e-07 0.000530829 0 0 0 0 
31 0.532801 0.24552 0.0348561 0.137385 0.0203396 0.021465 0.0047776 0.00285511 0 0 
32 0.971395 0.0102729 0.00646808 0.00484745 0.00558464 0.000897493 0.000318498 0.000215691 0 0 
33 0.641544 0.163195 0.0694803 0.0792536 0.0375481 0.00680862 0.00117411 0 0 0.000995982 
34 0.531718 0.279421 0.031907 0.111694 0.0186207 0.019651 0.00437386 0.00261384 0 0 
35 0.52567 0.159275 0.176282 0.0688406 0.0462927 0.010625 0.00829361 0.00146688 0 0.00325406 
36 0.630682 0.198443 0.0715848 0.0513533 0.0386859 0.00701494 0.00120969 0 0 0.00102616 
37 0.956755 0.0146478 0.0100902 0.00756202 0.00871204 0.00140009 0.000496856 0.000336479 0 0 
38 0.655764 0.170732 0.0726861 0.0521433 0.0392811 0.00712287 0.0012283 0 0 0.00104195 
39 0.964628 0.0310498 0.0028166 0.00098891 5.75816e-07 0.000516546 0 0 0 0 
40 0.358062 0.0813645 0.188749 0.19558 0.117668 0.0113904 0.0299706 0.0131194 0.00409565 0 
41 0.306883 0.206001 0.210914 0.164762 0.0769817 0.0108409 0.0159536 0.00455708 0.0031061 0 
42 0.982407 0.0061997 0.00402 0.00301276 0.00347093 0.000557804 0.000197951 0.000134055 0 0 
43 0.944491 0.0312739 0.0085511 0.00640849 0.00738309 0.00118652 0.000421065 0.000285151 0 0 
44 0.308026 0.205264 0.210509 0.164762 0.0769817 0.0108409 0.0159536 0.00455708 0.0031061 0 
45 0.532802 0.24552 0.0348522 0.122004 0.0206443 0.0365449 0.00477761 0.00285511 0 0 
46 0.911076 0.0494546 0.036077 0.00222755 1.29704e-06 0.00116353 0 0 0 0 
47 0.337389 0.196969 0.142604 0.209846 0.0733161 0.0100771 0.0106506 0.00858938 0.00513973 0.00541922 
48 0.532802 0.260905 0.0348522 0.122004 0.0203396 0.021465 0.00477761 0.00285511 0 0 
49 0.922028 0.0212104 0.0148385 0.0111214 0.0275169 0.00205895 0.000730671 0.000494822 0 0 
50 0.641952 0.202121 0.0263489 0.0922126 0.0153729 0.0162235 0.00361098 0.00215794 0 0 
51 0.925555 0.0200946 0.0282843 0.0106507 0.0122705 0.00197196 0.000699798 0.000473914 0 0 
52 0.532802 0.24552 0.0348686 0.137373 0.0203396 0.021465 0.00477761 0.00285511 0 0 
53 0.529788 0.165694 0.16361 0.0698997 0.0470049 0.0107884 0.0084212 0.00148945 0 0.00330412 
54 0.310522 0.199791 0.217606 0.16233 0.0758153 0.0106767 0.0157118 0.00448804 0.00305904 0 
55 0.934852 0.0218179 0.0152882 0.0114576 0.0132001 0.00212135 0.000752812 0.000509816 0 0 
56 0.518439 0.176122 0.164532 0.0698997 0.0470049 0.0107884 0.0084212 0.00148945 0 0.00330412 
57 0.518373 0.161725 0.16361 0.0852833 0.0470054 0.0107884 0.0084212 0.00148945 0 0.00330412 
58 0.89164 0.0769448 0.0266851 0.00310601 1.80855e-06 0.00162239 0 0 0 0 
59 0.523875 0.161072 0.17628 0.0688407 0.0462927 0.010625 0.00829361 0.00146688 0 0.00325406 
60 0.544241 0.258566 0.0333146 0.116622 0.0194422 0.020518 0.00456683 0.00272915 0 0 
61 0.299915 0.19799 0.225893 0.164763 0.0769817 0.0108409 0.0159536 0.00455708 0.0031061 0 
62 0.622769 0.249074 0.0536894 0.0385149 0.0290144 0.00526121 0.000907264 0 0 0.000769623 
63 0.532802 0.245625 0.0455521 0.126584 0.0203396 0.021465 0.00477761 0.00285511 0 0 
64 0.540814 0.159283 0.161131 0.0688406 0.0462927 0.010625 0.00829361 0.00146688 0 0.00325406 
65 0.67515 0.174479 0.0629956 0.0451909 0.0340436 0.00617315 0.00106452 0 0 0.000903024 
66 0.537381 0.256219 0.0349583 0.122004 0.0203396 0.021465 0.00477761 0.00285511 0 0 
67 0.370668 0.0841435 0.187665 0.181279 0.117668 0.0113904 0.0299706 0.0131194 0.00409565 0 
68 0.299915 0.199899 0.223985 0.164762 0.0769817 0.0108409 0.0159536 0.00455708 0.0031061 0 
69 0.518373 0.162597 0.178121 0.0699007 0.0470049 0.0107884 0.0084212 0.00148945 0 0.00330412 
70 0.934228 0.0217757 0.0155234 0.0116339 0.0134031 0.00215398 0.000764394 0.00051766 0 0 
71 0.833992 0.154107 0.00775434 0.00272255 1.58527e-06 0.0014221 0 0 0 0 
72 0.532801 0.24552 0.0349346 0.137307 0.0203396 0.021465 0.0047776 0.00285511 0 0 
73 0.849502 0.0888202 0.0569473 0.00310601 1.80855e-06 0.00162239 0 0 0 0 
74 0.88724 0.100558 0.00795126 0.00279148 1.6254e-06 0.0014581 0 0 0 0 
75 0.640388 0.186109 0.0726861 0.0521433 0.0392811 0.00712287 0.0012283 0 0 0.00104195 
76 0.357142 0.205995 0.123914 0.203136 0.0711275 0.00977631 0.0103327 0.00833298 0.00498631 0.00525746 
77 0.518373 0.161797 0.178923 0.0698997 0.0470049 0.0107884 0.0084212 0.00148945 0 0.00330412 
78 0.561379 0.294437 0.0243593 0.0852719 0.0142158 0.0150024 0.00333919 0.00199551 0 0 
79 0.651119 0.165631 0.0807955 0.055233 0.0381085 0.00691024 0.00119163 0 0 0.00101085 
80 0.934542 0.0179138 0.0246958 0.00933583 0.0107556 0.0017285 0.000613403 0.000415406 0 0 
81 0.37343 0.0813814 0.187665 0.181279 0.117668 0.0113904 0.0299706 0.0131194 0.00409565 0 
82 0.371948 0.0828633 0.187665 0.181279 0.117668 0.0113904 0.0299706 0.0131194 0.00409565 0 
83 0.299915 0.199497 0.224387 0.164762 0.0769817 0.0108409 0.0159536 0.00455708 0.0031061 0 
84 0.518373 0.161725 0.163619 0.0852748 0.0470049 0.0107884 0.0084212 0.00148945 0 0.00330412 
85 0.518373 0.161725 0.16361 0.0698997 0.0623895 0.0107884 0.0084212 0.00148945 0 0.00330412 
86 0.780029 0.19657 0.0195833 0.00250632 1.45917e-06 0.00130897 0 0 0 0 
87 0.518373 0.161725 0.164393 0.0844885 0.0470174 0.0107884 0.0084212 0.00148945 0 0.00330412 
88 0.654842 0.164603 0.0694793 0.0498475 0.0522493 0.00680868 0.00117411 0 0 0.000995982 
89 0.898433 0.0753813 0.0104084 0.0142402 1.71209e-06 0.00153586 0 0 0 0 
90 0.640385 0.170727 0.0726861 0.0524085 0.0539014 0.00762202 0.0012283 0 0 0.00104195 
91 0.524236 0.160722 0.176269 0.0688407 0.0462927 0.010625 0.00829361 0.00146688 0 0.00325406 
92 0.518373 0.164217 0.176315 0.0700876 0.0470049 0.0107884 0.00842121 0.00148945 0 0.00330412 
93 0.53988 0.256951 0.0343243 0.120156 0.0200314 0.0211398 0.00470522 0.00281186 0 0 
94 0.332277 0.193988 0.143531 0.218728 0.0722052 0.00992443 0.0104892 0.00845923 0.00506186 0.00533712 
95 0.560901 0.160316 0.149783 0.0639927 0.0430326 0.00987673 0.00770955 0.00136358 0 0.0030249 
96 0.923416 0.0640655 0.00815716 0.00286398 1.66762e-06 0.00149597 0 0 0 0 
97 0.641544 0.173783 0.0735973 0.0645484 0.0375481 0.00680862 0.00117411 0 0 0.000995982 
98 0.357168 0.203766 0.126117 0.203136 0.0711275 0.00977631 0.0103327 0.00833298 0.00498631 0.00525746 
99 0.645051 0.199029 0.0263419 0.0922126 0.0153729 0.0162235 0.00361098 0.00215794 0 0 
100 0.382939 0.0801328 0.184822 0.178532 0.115885 0.0112179 0.0295165 0.0129207 0.0040336 0 
101 0.928611 0.0597757 0.00756749 0.00265695 1.54707e-06 0.00138783 0 0 0 0 
102 0.299915 0.19799 0.210509 0.164762 0.0769817 0.0108409 0.0159536 0.00455732 0.0184905 0 
103 0.357168 0.19109 0.123868 0.218061 0.0711275 0.00977631 0.0103327 0.00833298 0.00498631 0.00525746 
104 0.299915 0.19799 0.210509 0.164766 0.0923623 0.0108409 0.0159536 0.00455708 0.0031061 0 
105 0.502899 0.171822 0.188383 0.0680076 0.0456017 0.0104664 0.00816983 0.00144499 0 0.00320549 
106 0.647036 0.133035 0.118163 0.0504831 0.033948 0.00779164 0.00608198 0.00107571 0 0.00238631 
107 0.347428 0.209137 0.125744 0.206214 0.0722052 0.00992443 0.0104892 0.00845923 0.00506186 0.00533712 
108 0.518373 0.161725 0.178994 0.0698997 0.0470049 0.0107884 0.0084212 0.00148945 0 0.00330412 
109 0.337389 0.196969 0.143064 0.209386 0.0733161 0.0100771 0.0106506 0.00858938 0.00513973 0.00541922 
110 0.532801 0.24552 0.0348522 0.137389 0.0203397 0.021465 0.0047776 0.00285511 0 0 
111 0.944222 0.020903 0.0123051 0.00922198 0.0106244 0.00170743 0.000605922 0.00041034 0 0 
112 0.920154 0.0213647 0.0152882 0.0114576 0.0283515 0.00212146 0.000752812 0.000509816 0 0 
113 0.93383 0.022174 0.0155234 0.0116339 0.0134031 0.00215398 0.000764394 0.00051766 0 0 
114 0.533283 0.260423 0.0348522 0.122004 0.0203396 0.021465 0.00477761 0.00285511 0 0 
115 0.55352 0.243312 0.0343241 0.120156 0.0200314 0.0211398 0.00470522 0.00281186 0 0 
116 0.651826 0.17467 0.0726861 0.0521433 0.0392811 0.00712287 0.0012283 0 0 0.00104195 
117 0.539621 0.155729 0.169939 0.066836 0.0449311 0.0103125 0.00804968 0.00142374 0 0.00315835 
118 0.341332 0.208411 0.127679 0.209386 0.0733161 0.0100771 0.0106506 0.00858938 0.00513973 0.00541922 
119 0.373445 0.0813666 0.187665 0.181279 0.117668 0.0113904 0.0299706 0.0131194 0.00409565 0 
120 0.538489 0.150174 0.154735 0.0894855 0.0448283 0.0100178 0.00781969 0.00138306 0 0.00306811 
121 0.712079 0.155242 0.0555837 0.0398743 0.0300385 0.0054469 0.000939285 0 0 0.000796786 
122 0.349238 0.20732 0.125751 0.206214 0.0722052 0.00992443 0.0104892 0.00845923 0.00506186 0.00533712 
123 0.905455 0.0188923 0.0516172 0.00982081 0.0113143 0.0018183 0.000645268 0.000436985 0 0 
124 0.629595 0.284965 0.0357955 0.0256766 0.019343 0.00350747 0.000604843 0 0 0.000513082 
125 0.959188 0.0140858 0.0094301 0.00706731 0.0081421 0.00130849 0.000464352 0.000314466 0 0 
126 0.273703 0.163034 0.201403 0.177484 0.0852713 0.0277946 0.0408986 0.0304122 0 0 
127 0.538198 0.243482 0.0343574 0.135274 0.0200314 0.0211397 0.00470522 0.00281185 0 0 
128 0.536414 0.168128 0.158757 0.0678132 0.0456017 0.0104664 0.00816983 0.00144498 0 0.00320549 
129 0.539878 0.242035 0.0492429 0.120156 0.0200314 0.0211398 0.00470522 0.00281186 0 0 
130 0.366555 0.0814078 0.199698 0.178765 0.115885 0.0112179 0.0295165 0.0129207 0.0040336 0 
131 0.565182 0.146035 0.161575 0.063104 0.0424349 0.00973955 0.00760248 0.00134464 0 0.00298289 
132 0.824295 0.167775 0.0051768 0.0018076 1.05252e-06 0.000944179 0 0 0 0 
133 0.561599 0.170919 0.143711 0.0613984 0.0412881 0.00947632 0.00739701 0.0013083 0 0.00290227 
134 0.540796 0.1593 0.161131 0.0688406 0.0462927 0.010625 0.00829361 0.00146688 0 0.00325406 
135 0.694057 0.153541 0.0638459 0.0458016 0.0345036 0.00625657 0.00107891 0 0 0.000915227 
136 0.347427 0.193986 0.125749 0.221361 0.0722053 0.00992443 0.0104892 0.00845923 0.00506186 0.00533712 
137 0.532802 0.24552 0.0348522 0.137389 0.0203396 0.021465 0.00477761 0.00285511 0 0 
138 0.337389 0.19697 0.143063 0.209386 0.0733161 0.0100771 0.0106506 0.00858938 0.00513973 0.00541922 
139 0.554222 0.244691 0.0395843 0.114932 0.0191605 0.0202206 0.00450064 0.0026896 0 0 
140 0.137248 0.311067 0.219292 0.260431 0.0104322 0.0307602 0.0307693 0 0 0 
141 0.936603 0.0213415 0.0148385 0.0111206 0.0128118 0.00205895 0.000730671 0.000494822 0 0 
142 0.645833 0.16814 0.0715848 0.0513533 0.0538374 0.00701494 0.00120969 0 0 0.00102616 
143 0.358062 0.0813645 0.187665 0.196663 0.117668 0.0113904 0.0299706 0.0131194 0.00409565 0 
144 0.911174 0.0776174 0.0073035 0.00256427 1.4931e-06 0.00133942 0 0 0 0 
145 0.284707 0.160563 0.213502 0.174795 0.0839793 0.0273735 0.0251274 0.0299515 0 0 
146 0.299915 0.19799 0.225893 0.164762 0.0769817 0.0108409 0.0159536 0.00455708 0.0031061 0 
147 0.358062 0.0813645 0.20305 0.181279 0.117668 0.0113904 0.0299706 0.0131194 0.00409565 0 
148 0.937109 0.0208359 0.0148385 0.0111206 0.0128118 0.00205895 0.000730671 0.000494822 0 0 
149 0.21869 0.00279216 0.450313 0 0.328205 0 0 0 0 0 
150 0.337389 0.196969 0.127679 0.224771 0.0733161 0.0100771 0.0106506 0.00858938 0.00513973 0.00541922 
151 0.302233 0.211057 0.210509 0.164762 0.0769817 0.0108409 0.0159536 0.00455708 0.0031061 0 
152 0.923035 0.0477834 0.0102961 0.00771635 0.00888984 0.00142866 0.000506996 0.000343346 0 0 
153 0.933934 0.0195628 0.0242049 0.00911087 0.0104964 0.00168685 0.000598622 0.000405396 0 0 
154 0.640385 0.170727 0.0726861 0.0521433 0.0392848 0.0225038 0.0012283 0 0 0.00104195 
155 0.645445 0.168528 0.0715848 0.0514193 0.0537701 0.00701619 0.00120969 0 0 0.00102616 
156 0.940458 0.0198227 0.0140142 0.0105028 0.0121001 0.00194457 0.000690078 0.000467332 0 0 
157 0.365064 0.083241 0.199588 0.178532 0.115885 0.0112179 0.0295165 0.0129207 0.0040336 0 
158 0.526759 0.261341 0.0333157 0.116622 0.0341481 0.020518 0.00456683 0.00272915 0 0 
159 0.532801 0.24552 0.0348527 0.137388 0.0203396 0.021465 0.0047776 0.00285511 0 0 
160 0.375047 0.186304 0.120277 0.199242 0.0815641 0.00949294 0.0100332 0.00809144 0.00484178 0.00510507 
161 0.367111 0.186224 0.132844 0.208714 0.0680792 0.00935732 0.00988986 0.00797585 0.00477261 0.00503214 
162 0.366617 0.188284 0.136734 0.200166 0.0700816 0.00963254 0.0101807 0.00821043 0.00491298 0.00518014 
163 0.0279252 0.354956 0.0542354 0.317725 0.0945562 0.0996064 0.0236453 0 0.0273505 0 
164 0.543643 0.250063 0.0348522 0.122004 0.0203396 0.021465 0.00477761 0.00285511 0 0 
165 0.304458 0.208824 0.210517 0.164762 0.0769817 0.0108409 0.0159536 0.00455708 0.0031061 0 
166 0.299915 0.19799 0.210517 0.180139 0.0769817 0.0108409 0.0159536 0.00455708 0.0031061 0 
167 0.357167 0.19109 0.123868 0.218061 0.0711275 0.00977631 0.0103327 0.00833298 0.00498631 0.00525746 
168 0.664073 0.171137 0.0698169 0.0491205 0.0370039 0.00670995 0.00115709 0 0 0.000981548 
169 0.563203 0.239604 0.0333146 0.116622 0.0194422 0.020518 0.00456683 0.00272915 0 0 
170 0.347426 0.193987 0.125955 0.220495 0.0728649 0.00992443 0.0104892 0.00845923 0.00506186 0.00533712 
171 0.640385 0.170727 0.0726861 0.0675279 0.0392811 0.00712287 0.0012283 0 0 0.00104195 
172 0.365212 0.208496 0.130974 0.191692 0.0671204 0.00922553 0.00975057 0.00786351 0.00470539 0.00496126 
173 0.358062 0.0813645 0.187666 0.196662 0.11767 0.0113904 0.0299706 0.0131194 0.00409565 0 
174 0.814609 0.169509 0 0.00952975 0.00317672 0.00317601 0 0 0 0 
175 0.347428 0.193985 0.125744 0.207963 0.0856071 0.00992446 0.0104892 0.00845923 0.00506186 0.00533711 
176 0.546743 0.238196 0.0338214 0.133278 0.0197329 0.0208242 0.00463499 0.00276989 0 0 
177 0.539878 0.241802 0.0343241 0.120156 0.0200369 0.0362858 0.00470522 0.00281186 0 0 
178 0.737932 0.138136 0.0519186 0.0372452 0.0280579 0.00508776 0.000877354 0 0 0.00074425 
179 0.548132 0.245575 0.0348522 0.122004 0.0203396 0.021465 0.00477761 0.00285511 0 0 
180 0.735153 0.139539 0.0524955 0.0376591 0.0283697 0.00514429 0.000887103 0 0 0.00075252 
181 0.660984 0.161266 0.0827737 0.0491242 0.0370039 0.00670995 0.00115709 0 0 0.000981547 
182 0.532818 0.260888 0.0348522 0.122004 0.0203396 0.021465 0.00477761 0.00285511 0 0 
183 0.563034 0.265054 0.0290435 0.10167 0.0169496 0.0178875 0.00398134 0.00237926 0 0 
184 0.518373 0.161725 0.16361 0.0698997 0.0623895 0.0107884 0.0084212 0.00148945 0 0.00330412 
185 0.713418 0.137077 0.0695881 0.0413332 0.0311374 0.00564618 0.000973649 0 0 0.000825936 
186 0.226905 0.248265 0.175874 0.04896 0.247003 0.0201722 0 0.0328205 0 0 
187 0.518373 0.161725 0.16361 0.0852843 0.0470049 0.0107884 0.0084212 0.00148945 0 0.00330412 
188 0.640385 0.170823 0.0879748 0.0521433 0.0392811 0.00712287 0.0012283 0 0 0.00104195 
189 0.640385 0.170727 0.0726861 0.0675279 0.0392811 0.00712287 0.0012283 0 0 0.00104195 
190 0.518379 0.177103 0.16361 0.0698997 0.0470049 0.0107884 0.00842121 0.00148945 0 0.00330412 
191 0.341977 0.207766 0.127679 0.209386 0.0733161 0.0100771 0.0106506 0.00858938 0.00513973 0.00541922 
192 0.663198 0.190338 0.0613584 0.0440171 0.0331593 0.00601281 0.00103687 0 0 0.000879569 
193 0.337389 0.196969 0.143064 0.209386 0.0733161 0.0100771 0.0106506 0.00858938 0.00513973 0.00541922 
194 0.320813 0.19208 0.204225 0.159844 0.0762498 0.0238766 0.0154774 0.00442105 0.00301338 0 
195 0.574138 0.249426 0.0298078 0.104346 0.0173957 0.0183582 0.00408611 0.00244187 0 0 
196 0.930646 0.0253573 0.0155234 0.0116339 0.0134031 0.00215398 0.000764394 0.00051766 0 0 
197 0.507691 5.32232e-07 0 0 0.492307 0 0 0 0 0 
198 0.337389 0.196969 0.127679 0.21305 0.0850365 0.0100771 0.0106506 0.00858938 0.00513973 0.00541922 
199 0.358062 0.0813645 0.191511 0.192792 0.117693 0.0113904 0.0299706 0.0131194 0.00409565 0 
200 0.299915 0.19799 0.210509 0.164794 0.0923346 0.010841 0.0159536 0.00455708 0.0031061 0 
201 0.688472 0.157038 0.0647205 0.046429 0.0349763 0.00634228 0.00109369 0 0 0.000927764 
202 0.570962 0.226093 0.0325993 0.125086 0.0186207 0.019651 0.00437386 0.00261384 0 0 
203 0.917388 0.0217275 0.0247986 0.0109137 0.0223397 0.00177718 0.000628932 0.000425922 0 0 
204 0.640618 0.185877 0.0726873 0.0521433 0.0392811 0.00712287 0.0012283 0 0 0.00104195 
205 0.645833 0.16814 0.0867363 0.0513533 0.0386859 0.00701494 0.00120969 0 0 0.00102616 
206 0.907251 0.0795445 0.00860413 0.00302092 1.759e-06 0.00157794 0 0 0 0 
207 0.518373 0.161725 0.178994 0.0698997 0.0470049 0.0107884 0.0084212 0.00148945 0 0.00330412 
208 0.541507 0.246594 0.039261 0.125381 0.0194427 0.020518 0.00456683 0.00272915 0 0 
209 0.938386 0.0207605 0.0144146 0.0108029 0.0124458 0.00200013 0.000709795 0.000480684 0 0 
210 0.937442 0.0347936 0.00979632 0.00734177 0.0084583 0.00135931 0.000482385 0.000326678 0 0 
211 0.319182 0.201482 0.207319 0.162266 0.0758153 0.0106767 0.0157118 0.00448804 0.00305904 0 
212 0.337389 0.196969 0.127679 0.209768 0.0883112 0.0100852 0.0106506 0.00858938 0.00513973 0.00541922 
213 0.621277 0.209638 0.0712772 0.0505868 0.0381085 0.00691024 0.00119163 0 0 0.00101085 
214 0.299915 0.19799 0.225893 0.164762 0.0769817 0.0108409 0.0159536 0.00455708 0.0031061 0 
215 0.337389 0.196969 0.127679 0.209402 0.0886851 0.0100771 0.0106506 0.00858938 0.00513973 0.00541922 
216 0.555196 0.238959 0.0329463 0.126914 0.018965 0.0199318 0.00443635 0.00265118 0 0 
217 0.539934 0.164368 0.158997 0.0678132 0.0456017 0.0104664 0.00816983 0.00144498 0 0.00320549 
218 0.347413 0.194 0.125744 0.208353 0.0852174 0.00992443 0.0104892 0.00845923 0.00506186 0.00533712 
219 0.661168 0.161411 0.0824483 0.0491205 0.0370039 0.00670995 0.00115709 0 0 0.000981548 
220 0.37131 0.0835017 0.187665 0.181279 0.117668 0.0113904 0.0299706 0.0131194 0.00409565 0 
221 0.213669 0.261501 0.175874 0.04896 0.247003 0.0201722 0 0.0328205 0 0 
222 0.137249 0.311067 0.219292 0.260431 0.0104322 0.0307602 0.0307693 0 0 0 
223 0.518373 0.162174 0.178533 0.0699125 0.0470049 0.0107884 0.00842121 0.00148945 0 0.00330412 
224 0.93246 0.0317928 0.0126129 0.00945253 0.0108901 0.00175011 0.00062107 0.000420598 0 0 
225 0.358062 0.0813645 0.187665 0.196663 0.117668 0.0113904 0.0299706 0.0131194 0.00409565 0 
226 0.337389 0.196969 0.127679 0.224771 0.0733161 0.0100771 0.0106506 0.00858938 0.00513973 0.00541922 
227 0.6263 0.170024 0.11512 0.0458017 0.0345036 0.00625657 0.00107891 0 0 0.000915227 
228 0.358062 0.0813645 0.187671 0.196658 0.117668 0.0113904 0.0299706 0.0131194 0.00409565 0 
229 0.88698 0.0695565 0.0385245 0.00324304 1.88834e-06 0.00169397 0 0 0 0 
230 0.311611 0.3083 0.107782 0.176755 0.0618902 0.00850666 0.00899078 0.00725077 0.00433874 0.00457467 
231 0.337389 0.212354 0.127679 0.209386 0.0733161 0.0100771 0.0106506 0.00858938 0.00513973 0.00541922 
232 0.310522 0.195513 0.221949 0.162266 0.0758153 0.0106767 0.0157118 0.00448804 0.00305904 0 
233 0.539864 0.241816 0.0399464 0.129685 0.0200314 0.0211398 0.00470522 0.00281186 0 0 
234 0.520164 0.167142 0.173921 0.0688406 0.0462927 0.010625 0.00829361 0.00146688 0 0.00325406 
235 0.657843 0.171283 0.0715848 0.0513533 0.0386859 0.00701495 0.00120969 0 0 0.00102616 
236 0.299915 0.19799 0.225318 0.165337 0.0769817 0.0108409 0.0159536 0.00455708 0.0031061 0 
237 0.533377 0.260329 0.0348522 0.122004 0.0203396 0.021465 0.00477761 0.00285511 0 0 
238 0.548177 0.24553 0.0348522 0.122004 0.0203396 0.021465 0.00477761 0.00285511 0 0 
239 0.532801 0.24552 0.0348522 0.137389 0.0203399 0.021465 0.0047776 0.00285511 0 0 
240 0.655767 0.17073 0.0726861 0.0521433 0.0392811 0.00712287 0.0012283 0 0 0.00104195 
241 0.566588 0.253759 0.0310704 0.105737 0.0176276 0.018603 0.00414059 0.00247443 0 0 
242 0.887499 0.100451 0.00785127 0.00275659 1.60509e-06 0.00143987 0 0 0 0 
243 0.803174 0.164581 0 0.0101162 0.00337479 0.0187535 0 0 0 0 
244 0.518373 0.161725 0.16361 0.0698999 0.0623893 0.0107884 0.0084212 0.00148945 0 0.00330412 
245 0.211531 0.261909 0.177604 0.04896 0.247003 0.0201722 0 0.0328205 0 0 
246 0.70068 0.152856 0.0613584 0.0440171 0.0331593 0.00601281 0.00103687 0 0 0.000879569 
247 0.94973 0.0170166 0.0117328 0.00879305 0.0101303 0.00162801 0.00057774 0.000391254 0 0 
248 0.636187 0.180563 0.0705166 0.0507175 0.0529032 0.00691024 0.00119163 0 0 0.00101085 
249 0.537714 0.173486 0.161591 0.0631053 0.0424349 0.00973955 0.00760248 0.00134464 0 0.00298289 
250 0.358062 0.0813645 0.187665 0.181279 0.117668 0.0114108 0.0453349 0.0131194 0.00409565 0 
251 0.640385 0.170727 0.0727621 0.0671937 0.0395392 0.00712287 0.0012283 0 0 0.00104195 
252 0.518373 0.166879 0.17384 0.0698997 0.0470049 0.0107884 0.00842121 0.00148945 0 0.00330412 
253 0.675341 0.168024 0.0656194 0.0470738 0.0354621 0.00643037 0.00110888 0 0 0.00094065 
254 0.640385 0.186112 0.0726861 0.0521433 0.0392811 0.00712287 0.0012283 0 0 0.00104195 
255 0.5366 0.299874 0.0276268 0.0967108 0.0161228 0.0170149 0.00378713 0.0022632 0 0 
256 0.518373 0.161727 0.178992 0.0698997 0.0470049 0.0107884 0.0084212 0.00148945 0 0.00330412 
257 0.518373 0.161725 0.164142 0.0847519 0.0470049 0.0107884 0.0084212 0.00148945 0 0.00330412 
258 0.657633 0.173534 0.0710248 0.0505868 0.0381085 0.00691024 0.00119163 0 0 0.00101085 
259 0.649021 0.177476 0.0726861 0.0521433 0.0392811 0.00712287 0.0012283 0 0 0.00104195 
260 0.547575 0.252287 0.033813 0.118362 0.0197324 0.0208242 0.00463499 0.00276989 0 0 
261 0.273703 0.163034 0.201403 0.177488 0.100652 0.0277946 0.025514 0.0304122 0 0 
262 0.35217 0.194012 0.168742 0.146031 0.0701599 0.022869 0.0209925 0.0250227 0 0 
263 0.337389 0.196969 0.127679 0.209386 0.0887007 0.0100771 0.0106506 0.00858938 0.00513973 0.00541922 
264 0.910627 0.0781644 0.0073035 0.00256427 1.4931e-06 0.00133942 0 0 0 0 
265 0.533652 0.161831 0.16361 0.0698997 0.0470049 0.0107884 0.0084212 0.00148945 0 0.00330412 
266 0.52567 0.163157 0.172401 0.0688406 0.0462927 0.010625 0.00829361 0.00146688 0 0.00325406 
267 0.532801 0.24552 0.0348522 0.122112 0.0356162 0.021465 0.0047776 0.00285511 0 0 
268 0.518373 0.162381 0.178338 0.0698997 0.0470049 0.0107884 0.00842121 0.00148945 0 0.00330412 
269 0.535121 0.249471 0.0341588 0.118362 0.0198012 0.0356769 0.00463899 0.00276989 0 0 
270 0.208326 0.244494 0.188248 0.0492514 0.25749 0.0198667 0 0.0323233 0 0 
271 0.517818 0.184843 0.160638 0.0678132 0.0456017 0.0104664 0.00816983 0.00144499 0 0.00320549 
272 0.651119 0.165631 0.0705163 0.0505868 0.0530339 0.00691024 0.00119163 0 0 0.00101085 
273 0.539621 0.160557 0.16513 0.0668159 0.0449311 0.0103125 0.00804968 0.00142374 0 0.00315835 
274 0.522441 0.339321 0.0233546 0.0817555 0.0136296 0.0143837 0.00320149 0.00191322 0 0 
275 0.337389 0.196969 0.127679 0.209418 0.0886691 0.0100771 0.0106506 0.00858938 0.00513973 0.00541922 
276 0.539878 0.241839 0.0494382 0.120156 0.0200314 0.0211398 0.00470522 0.00281186 0 0 
277 0.645833 0.16814 0.0715848 0.0513756 0.053815 0.00701495 0.00120969 0 0 0.00102616 
278 0.53988 0.2418 0.0343241 0.120156 0.0351737 0.0211489 0.00470522 0.00281185 0 0 
279 0.675777 0.167447 0.065761 0.0470738 0.0354621 0.00643037 0.00110888 0 0 0.00094065 
280 0.533276 0.260431 0.0348522 0.122004 0.0203396 0.021465 0.00477761 0.00285511 0 0 
281 0.53753 0.162566 0.161131 0.0688406 0.0462927 0.010625 0.00829361 0.00146688 0 0.00325406 
282 0.337389 0.196969 0.142822 0.209628 0.0733161 0.0100771 0.0106506 0.00858938 0.00513973 0.00541922 
283 0.347374 0.0818336 0.223936 0.175873 0.114156 0.0110504 0.029076 0.0127278 0.00397339 0 
284 0.295371 0.195048 0.221231 0.163448 0.0760791 0.0255644 0.0157119 0.00448804 0.00305904 0 
285 0.53988 0.2418 0.0343244 0.135307 0.0200315 0.0211397 0.00470522 0.00281185 0 0 
286 0.606003 0.152419 0.129883 0.0554083 0.0372599 0.0085518 0.00667535 0.00118066 0 0.00261912 
287 0.349917 0.194223 0.132807 0.202147 0.0827894 0.00963254 0.0101807 0.00821043 0.00491298 0.00518014 
288 0.553411 0.236713 0.045997 0.116622 0.0194422 0.020518 0.00456683 0.00272915 0 0 
289 0.65728 0.17687 0.0694802 0.0498429 0.0375481 0.00680862 0.00117411 0 0 0.000995982 
290 0.935138 0.0550259 0.0064092 0.00225027 1.31028e-06 0.00117541 0 0 0 0 
291 0.377224 0.078936 0.19698 0.175876 0.114156 0.0110504 0.029076 0.0127278 0.00397339 0 
292 0.927754 0.020087 0.0136354 0.0102189 0.0252865 0.00189201 0.000671427 0.000454701 0 0 
293 0.518373 0.161725 0.16361 0.0852842 0.0470049 0.0107884 0.0084212 0.00148945 0 0.00330412 
294 0.299915 0.198116 0.225719 0.164811 0.0769817 0.0108409 0.0159536 0.00455708 0.0031061 0 
295 0.361308 0.188221 0.131181 0.21254 0.069185 0.00949294 0.0100332 0.00809144 0.00484178 0.00510507 
296 0.211531 0.248254 0.175874 0.0643446 0.247003 0.0201722 0 0.0328205 0 0 
297 0.532801 0.24552 0.0348544 0.137387 0.0203397 0.021465 0.0047776 0.00285511 0 0 
298 0.358062 0.0967489 0.187665 0.181279 0.117668 0.0113904 0.0299706 0.0131194 0.00409565 0 
299 0.572383 0.236033 0.0323881 0.11329 0.0188867 0.0199318 0.00443635 0.00265118 0 0 
300 0.358062 0.0813645 0.187665 0.181279 0.117668 0.0113904 0.0299708 0.0285039 0.00409566 0 
301 0.640385 0.170727 0.0726861 0.0521452 0.0546638 0.00712287 0.0012283 0 0 0.00104195 
302 0.926807 0.0198774 0.0275977 0.0105157 0.0121001 0.00194457 0.000690078 0.000467332 0 0 
303 0.371975 0.0828362 0.187665 0.181279 0.117668 0.0113904 0.0299706 0.0131194 0.00409565 0 
304 0.337389 0.196969 0.129151 0.223299 0.0733166 0.0100771 0.0106506 0.00858938 0.00513973 0.00541922 
305 0.289085 0.163036 0.201403 0.177484 0.0852713 0.0277946 0.025514 0.0304122 0 0 
306 0.211531 0.248254 0.175874 0.04896 0.262388 0.0201722 0 0.0328205 0 0 
307 0.263506 0.110186 0.265816 0.186736 0 0.115837 0 0 0.0579186 0 
308 0.584063 0.23225 0.0310328 0.108634 0.0181106 0.0191127 0.00425403 0.00254222 0 0 
309 0.535137 0.258569 0.0348522 0.122004 0.0203396 0.021465 0.00477761 0.00285511 0 0 
310 0.517821 0.159901 0.171862 0.0815282 0.0456018 0.0104664 0.00816983 0.00144498 0 0.00320549 
311 0.906943 0.0798527 0.00860413 0.00302092 1.759e-06 0.00157794 0 0 0 0 
312 0.658896 0.171122 0.0750094 0.0491205 0.0370039 0.00670995 0.00115709 0 0 0.000981548 
313 0.640385 0.170727 0.0726861 0.0521433 0.0546657 0.00712287 0.0012283 0 0 0.00104195 
314 0.329141 0.211054 0.122048 0.229558 0.0700816 0.00963254 0.0101807 0.00821043 0.00491298 0.00518014 
315 0.525668 0.159446 0.176113 0.0688407 0.0462927 0.010625 0.00829361 0.00146688 0 0.00325406 
316 0.137248 0.311067 0.219292 0.260431 0.0104322 0.0307602 0.0307693 0 0 0 
317 0.299915 0.19799 0.210509 0.180146 0.076982 0.0108409 0.0159536 0.00455708 0.0031061 0 
318 0.683076 0.175952 0.0590575 0.0423664 0.0319159 0.00578733 0.000997991 0 0 0.000846585 
319 0.310522 0.210142 0.207319 0.162266 0.0758153 0.0106767 0.0157118 0.00448804 0.00305904 0 
320 0.310522 0.194996 0.222466 0.162266 0.0758153 0.0106767 0.0157118 0.00448804 0.00305904 0 
321 0.560801 0.24764 0.0323636 0.11329 0.0188867 0.0199318 0.00443635 0.00265118 0 0 
322 0.640385 0.170727 0.0726861 0.0521433 0.0546657 0.00712287 0.0012283 0 0 0.00104195 
323 0.543611 0.160962 0.158726 0.0678132 0.0456017 0.0104664 0.00816983 0.00144498 0 0.00320549 
324 0.310522 0.210106 0.207356 0.162266 0.0758153 0.0106767 0.0157118 0.00448804 0.00305904 0 
325 0.337389 0.196969 0.127679 0.209386 0.0887006 0.0100771 0.0106506 0.00858938 0.00513973 0.00541922 
326 0.547029 0.246678 0.0348522 0.122004 0.0203396 0.021465 0.00477761 0.00285511 0 0 
327 0.532802 0.24552 0.0360098 0.136231 0.0203396 0.021465 0.00477761 0.00285511 0 0 
328 0.299915 0.19799 0.210509 0.180147 0.0769817 0.0108409 0.0159536 0.00455708 0.0031061 0 
329 0.920154 0.0213646 0.0152882 0.0266091 0.0132001 0.00212135 0.000752812 0.000509816 0 0 
330 0.351912 0.202968 0.136729 0.200192 0.0700816 0.00963254 0.0101807 0.00821043 0.00491298 0.00518014 
331 0.337389 0.212354 0.127679 0.209386 0.0733161 0.0100771 0.0106506 0.00858938 0.00513973 0.00541922 
332 0.338759 0.189281 0.211771 0.155211 0.072519 0.0102125 0.0150287 0.0042929 0.00292604 0 
333 0.273703 0.163034 0.201403 0.177484 0.100656 0.0277947 0.025514 0.0304122 0 0 
334 0.316886 0.210932 0.204225 0.159844 0.0746837 0.0105173 0.0154773 0.00442105 0.00301338 0 
335 0.0279252 0.354956 0.0542354 0.333109 0.094472 0.0843061 0.0236453 0 0.0273505 0 
336 0.556976 0.164236 0.149788 0.0639927 0.0430326 0.00987673 0.00770955 0.00136358 0 0.0030249 
337 0.510209 0.198703 0.156396 0.0668159 0.0449311 0.0103125 0.00804968 0.00142374 0 0.00315835 
338 0.532802 0.24552 0.0348522 0.122004 0.0205641 0.036625 0.00477761 0.00285511 0 0 
339 0.347428 0.209137 0.125744 0.206214 0.0722052 0.00992443 0.0104892 0.00845923 0.00506186 0.00533712 
340 0.371655 0.0831565 0.187665 0.181279 0.117668 0.0113904 0.0299706 0.0131194 0.00409565 0 
341 0.315169 0.198121 0.210509 0.164762 0.0769817 0.0108409 0.0159536 0.00455708 0.0031061 0 
342 0.548092 0.245614 0.0348522 0.122004 0.0203396 0.021465 0.00477761 0.00285511 0 0 
343 0.520073 0.17541 0.16361 0.0698997 0.0470049 0.0107884 0.0084212 0.00148945 0 0.00330412 
344 0.211531 0.248254 0.175874 0.04896 0.247003 0.0201722 0 0.0482052 0 0 
345 0.999999 0 0 0 0 0 0 0 0 0 
346 0.532802 0.24552 0.0348568 0.137384 0.0203396 0.021465 0.00477761 0.00285511 0 0 
347 0.547259 0.246447 0.0348522 0.122004 0.0203396 0.021465 0.00477761 0.00285511 0 0 
348 0.645832 0.168142 0.0715848 0.0665047 0.0386859 0.00701495 0.00120969 0 0 0.00102616 
349 0.212458 0.261674 0.176911 0.04896 0.247003 0.0201722 0 0.0328205 0 0 
350 0.647846 0.191044 0.0674942 0.0484188 0.0364753 0.00661409 0.00114056 0 0 0.000967525 
351 0.300873 0.212417 0.210509 0.164762 0.0769817 0.0108409 0.0159536 0.00455708 0.0031061 0 
352 0.654892 0.171605 0.0726861 0.0521433 0.0392811 0.00712287 0.0012283 0 0 0.00104195 
353 0.304316 0.208974 0.210509 0.164762 0.0769817 0.0108409 0.0159536 0.00455708 0.0031061 0 
354 0.313091 0.200198 0.210509 0.164762 0.0769817 0.0108409 0.0159536 0.00455708 0.0031061 0 
355 0.531825 0.163657 0.16361 0.0698997 0.0470049 0.0107884 0.00842121 0.00148945 0 0.00330412 
356 0.337389 0.196969 0.127679 0.210656 0.0874308 0.0100771 0.0106506 0.00858938 0.00513973 0.00541922 
357 0.942991 0.0193805 0.0132766 0.00995003 0.0114632 0.00184222 0.000653758 0.000442735 0 0 
358 0.518373 0.161725 0.16361 0.0698997 0.0470049 0.0107884 0.0084212 0.00148945 0 0.0186887 
359 0.937916 0.0206385 0.0146235 0.0109595 0.0126262 0.00202911 0.000720082 0.00048765 0 0 
360 0.936261 0.0210558 0.01506 0.0112866 0.0130031 0.00208969 0.000741576 0.000502207 0 0 
361 0.533337 0.256361 0.038861 0.122004 0.0203396 0.021465 0.00477761 0.00285511 0 0 
362 0.21869 0.00279216 0.434928 0 0.34359 0 0 0 0 0 
363 0.137248 0.299694 0.23013 0.260966 0.0104322 0.0307602 0.0307693 0 0 0 
364 0.656672 0.172453 0.0715848 0.0513533 0.0386859 0.00701494 0.00120969 0 0 0.00102616 
365 0.337389 0.196969 0.132058 0.220391 0.0733161 0.0100771 0.0106506 0.00858938 0.00513973 0.00541922 
366 0.640385 0.170727 0.0726861 0.0646468 0.0421622 0.00712287 0.0012283 0 0 0.00104195 
367 0.358062 0.0813645 0.20305 0.181279 0.117668 0.0113904 0.0299706 0.0131194 0.00409565 0 
368 0.273703 0.163034 0.201403 0.177484 0.100656 0.0277946 0.025514 0.0304122 0 0 
369 0.532802 0.24552 0.0502367 0.122004 0.0203396 0.021465 0.00477761 0.00285511 0 0 
370 0.0279252 0.354956 0.0542354 0.317725 0.0952041 0.0989585 0.0236453 0 0.0273505 0 
371 0.531822 0.238191 0.0636574 0.118368 0.0197324 0.0208242 0.00463499 0.00276989 0 0 
372 0.655156 0.17134 0.0726861 0.0521433 0.0392811 0.00712287 0.0012283 0 0 0.00104195 
373 0.935304 0.021366 0.0152882 0.0114576 0.0132001 0.00212135 0.000752812 0.000509816 0 0 
374 0.347428 0.193985 0.125744 0.221365 0.0722058 0.00992443 0.0104892 0.00845923 0.00506186 0.00533712 
375 0.919718 0.0714382 0.0057624 0.00202318 1.17805e-06 0.00105679 0 0 0 0 
376 0.553402 0.234699 0.0333147 0.131328 0.0194422 0.020518 0.00456683 0.00272915 0 0 
377 0.373431 0.08138 0.187665 0.181279 0.117668 0.0113904 0.0299706 0.0131194 0.00409565 0 
378 0.299915 0.19799 0.21166 0.17889 0.0770862 0.0108409 0.0159536 0.00455708 0.0031061 0 
379 0.273703 0.163154 0.216589 0.177563 0.0852713 0.0277946 0.025514 0.0304123 0 0 
380 0.273703 0.163044 0.216777 0.177484 0.0852713 0.0277946 0.025514 0.0304123 0 0 
381 0.640385 0.170727 0.0726861 0.0521433 0.0392817 0.0225069 0.0012283 0 0 0.00104195 
382 0.376905 0.0941804 0.182063 0.175868 0.114156 0.0110504 0.029076 0.0127278 0.00397339 0 
383 0.563621 0.239186 0.0333146 0.116622 0.0194422 0.020518 0.00456683 0.00272915 0 0 
384 0.532802 0.260904 0.0348522 0.122004 0.0203396 0.021465 0.00477761 0.00285511 0 0 
385 0.532802 0.24552 0.0353539 0.136887 0.0203396 0.021465 0.00477761 0.00285511 0 0 
386 0.352768 0.196974 0.127679 0.209386 0.0733161 0.0100771 0.0106506 0.00858938 0.00513973 0.00541922 
387 0.368738 0.207106 0.120277 0.197248 0.0690659 0.00949294 0.0100332 0.00809144 0.00484178 0.00510507 
388 0.337389 0.196969 0.127684 0.224264 0.0738179 0.0100771 0.0106506 0.00858938 0.00513973 0.00541922 
389 0.65621 0.163235 0.0841852 0.0498429 0.0375481 0.00680862 0.00117411 0 0 0.000995982 
390 0.299915 0.19799 0.210509 0.164813 0.0923147 0.0108409 0.0159536 0.00455708 0.0031061 0 
391 0.299921 0.213369 0.210509 0.164762 0.0769817 0.0108409 0.0159536 0.00455708 0.0031061 0 
392 0.352731 0.197012 0.127679 0.209386 0.0733161 0.0100771 0.0106506 0.00858938 0.00513973 0.00541922 
393 0.548181 0.245525 0.0348522 0.122004 0.0203396 0.021465 0.00477761 0.00285511 0 0 
394 0.337389 0.196969 0.143058 0.209392 0.0733161 0.0100771 0.0106506 0.00858938 0.00513973 0.00541922 
395 0.518373 0.161725 0.16361 0.0699038 0.0623854 0.0107884 0.0084212 0.00148945 0 0.00330412 
396 0.373443 0.0813686 0.187665 0.181279 0.117668 0.0113904 0.0299706 0.0131194 0.00409565 0 
397 0.640385 0.170727 0.0726861 0.0521433 0.0546657 0.00712287 0.0012283 0 0 0.00104195 
398 0.912532 0.072638 0.0096631 0.00339272 1.97549e-06 0.00177215 0 0 0 0 
399 0.532802 0.24552 0.0348522 0.137389 0.0203396 0.021465 0.00477761 0.00285511 0 0 
400 0.532801 0.24552 0.0348522 0.12208 0.0356488 0.021465 0.0047776 0.00285511 0 0 
401 0.532802 0.260858 0.0348991 0.122004 0.0203396 0.021465 0.00477761 0.00285511 0 0 
402 0.350532 0.19921 0.127679 0.209386 0.0733161 0.0100771 0.0106506 0.00858938 0.00513973 0.00541922 
403 0.538242 0.255189 0.0351269 0.122004 0.0203396 0.021465 0.00477761 0.00285511 0 0 
404 0.533536 0.26017 0.0348522 0.122004 0.0203396 0.021465 0.00477761 0.00285511 0 0 
405 0.518373 0.161725 0.178994 0.0698997 0.0470049 0.0107884 0.0084212 0.00148945 0 0.00330412 
406 0.684115 0.14997 0.0773592 0.0458016 0.0345036 0.00625657 0.00107891 0 0 0.000915227 
407 0.645833 0.16814 0.0867363 0.0513533 0.0386859 0.00701494 0.00120969 0 0 0.00102616 
408 0.540804 0.159292 0.161131 0.0688406 0.0462927 0.010625 0.00829361 0.00146688 0 0.00325406 
409 0.315279 0.19801 0.210509 0.164762 0.0769817 0.0108409 0.0159536 0.00455708 0.0031061 0 
410 0.273703 0.163034 0.201403 0.177504 0.100636 0.0277946 0.025514 0.0304122 0 0 
411 0.532802 0.24552 0.0348543 0.137387 0.0203396 0.021465 0.00477761 0.00285511 0 0 
412 0.532802 0.260905 0.0348522 0.122004 0.0203396 0.021465 0.00477761 0.00285511 0 0 
413 0.532801 0.24552 0.0348522 0.122004 0.0251848 0.0320043 0.0047776 0.00285511 0 0 
414 0.523769 0.165878 0.158726 0.0678132 0.0605271 0.0104664 0.00816983 0.00144498 0 0.00320549 
415 0.53988 0.2418 0.0343241 0.120156 0.0200319 0.0362907 0.00470522 0.00281185 0 0 
416 0.733046 0.139169 0.0595231 0.0353054 0.0265966 0.00482278 0.000831659 0 0 0.000705487 
417 0.731836 0.135484 0.0555835 0.0398743 0.0300385 0.0054469 0.000939285 0 0 0.000796786 
418 0.375865 0.102687 0.179698 0.173281 0.112477 0.0108879 0.0286484 0.0125406 0.00391496 0 
419 0.269556 0.174475 0.199591 0.188955 0.0849705 0.0273735 0.0251274 0.0299515 0 0 
420 0.546582 0.250211 0.0343634 0.120156 0.0200314 0.0211397 0.00470522 0.00281185 0 0 
421 0.935665 0.0222792 0.0148385 0.0111206 0.0128118 0.00205895 0.000730671 0.000494822 0 0 
422 0.546747 0.238191 0.0338118 0.118481 0.0279374 0.027426 0.00463499 0.00276989 0 0 
423 0.545399 0.260265 0.0328321 0.114932 0.0191605 0.0202206 0.00450064 0.0026896 0 0 
424 0.532802 0.24552 0.0367288 0.135512 0.0203397 0.021465 0.00477761 0.00285511 0 0 
425 0.531882 0.163601 0.16361 0.0698997 0.0470049 0.0107884 0.00842121 0.00148945 0 0.00330412 
426 0.532802 0.24552 0.0348522 0.137389 0.0203396 0.021465 0.00477761 0.00285511 0 0 
427 0.651119 0.165631 0.0854417 0.0505868 0.0381085 0.00691024 0.00119163 0 0 0.00101085 
428 0.370691 0.0841201 0.187665 0.181279 0.117668 0.0113904 0.0299706 0.0131194 0.00409565 0 
429 0.35455 0.215057 0.122046 0.200149 0.0700816 0.00963254 0.0101807 0.00821043 0.00491298 0.00518014 
430 0.428129 0.0864284 0.1671 0.161413 0.104773 0.0101422 0.0266862 0.0116817 0.00364681 0 
431 0.273703 0.163034 0.204512 0.18976 0.0852713 0.0277946 0.025514 0.0304122 0 0 
432 0.61353 0.238037 0.0622076 0.0445963 0.0335957 0.00609193 0.00105052 0 0 0.000891142 
433 0.211531 0.248254 0.175874 0.0489638 0.262301 0.0202546 0 0.0328205 0 0 
434 0.53089 0.164592 0.16361 0.0698997 0.0470049 0.0107884 0.0084212 0.00148945 0 0.00330412 
435 0.532749 0.156899 0.158726 0.0827383 0.0456017 0.0104664 0.00816983 0.00144498 0 0.00320549 
436 0.354591 0.201973 0.125745 0.206214 0.0722052 0.00992443 0.0104892 0.00845923 0.00506186 0.00533712 
437 0.530894 0.164588 0.16361 0.0698997 0.0470049 0.0107884 0.0084212 0.00148945 0 0.00330412 
438 0.337389 0.209679 0.130354 0.209386 0.0733161 0.0100771 0.0106506 0.00858938 0.00513973 0.00541922 
439 0.525827 0.17427 0.161131 0.0688406 0.0462927 0.010625 0.00829361 0.00146688 0 0.00325406 
440 0.358062 0.0813645 0.187665 0.196664 0.117668 0.0113904 0.0299706 0.0131194 0.00409565 0 
441 0.670773 0.156302 0.0665436 0.0618213 0.0359615 0.00652094 0.0011245 0 0 0.000953898 
442 0.539882 0.25695 0.0343241 0.120156 0.0200314 0.0211398 0.00470522 0.00281186 0 0 
443 0.574269 0.239486 0.0314716 0.110143 0.0183621 0.0193781 0.00431312 0.00257753 0 0 
444 0.61488 0.19346 0.110756 0.0418436 0.0315218 0.00571588 0.00098567 0 0 0.000836133 
445 0.340412 0.201092 0.198306 0.155211 0.072519 0.0102125 0.0150287 0.0042929 0.00292604 0 
446 0.366122 0.266015 0.159106 0.124529 0.0581838 0.00819374 0.0120579 0.00344431 0.00234763 0 
447 0.552754 0.150194 0.166204 0.0649114 0.0436474 0.0100178 0.00781969 0.00138306 0 0.00306811 
448 0.636191 0.180559 0.0852955 0.050733 0.0381085 0.00691024 0.00119163 0 0 0.00101085 
449 0.53988 0.246981 0.0442943 0.120156 0.0200314 0.0211398 0.00470522 0.00281186 0 0 
450 0.901317 0.0560001 0.01506 0.0112866 0.0130031 0.00208969 0.000741576 0.000502207 0 0 
451 0.295371 0.225294 0.207319 0.162266 0.0758153 0.0106767 0.0157118 0.00448804 0.00305904 0 
452 0.518373 0.161725 0.16361 0.0698997 0.0470049 0.0107884 0.0238058 0.00148945 0 0.00330412 
453 0.640385 0.171254 0.0875439 0.0521436 0.0392811 0.00712287 0.0012283 0 0 0.00104195 
454 0.308579 0.204711 0.210509 0.164762 0.0769817 0.0108409 0.0159536 0.00455708 0.0031061 0 
455 0.532802 0.24552 0.0404828 0.131758 0.0203396 0.021465 0.00477761 0.00285511 0 0 
456 0.564334 0.249429 0.0314638 0.110143 0.0183621 0.0193781 0.00431312 0.00257753 0 0 
457 0.579696 0.22818 0.0435405 0.105737 0.0176276 0.018603 0.00414059 0.00247443 0 0 
458 0.261813 0.106217 0.276921 0.183925 0 0.114082 0 0 0.0570411 0 
459 0.337389 0.196969 0.143064 0.209386 0.0733161 0.0100771 0.0106506 0.00858938 0.00513973 0.00541922 
460 0.481999 0.341565 0.0298078 0.104346 0.0173957 0.0183582 0.00408611 0.00244187 0 0 
461 0.53988 0.256951 0.0343241 0.120156 0.0200314 0.0211398 0.00470522 0.00281186 0 0 
462 0.524752 0.272001 0.0344028 0.120156 0.0200314 0.0211398 0.00470522 0.00281186 0 0 
463 0.630779 0.198323 0.0716084 0.0513533 0.0386859 0.00701495 0.00120969 0 0 0.00102616 
464 0.574369 0.231296 0.0328318 0.114932 0.0191605 0.0202206 0.00450064 0.0026896 0 0 
465 0.299915 0.19799 0.210509 0.170417 0.0867108 0.0108409 0.0159536 0.00455708 0.0031061 0 
466 0.337389 0.196969 0.143064 0.209386 0.0733161 0.0100771 0.0106506 0.00858938 0.00513973 0.00541922 
467 0.520314 0.177005 0.175473 0.0631039 0.0424349 0.00973955 0.00760248 0.00134464 0 0.00298289 
468 0.347428 0.193985 0.125746 0.221363 0.0722052 0.00992443 0.0104892 0.00845923 0.00506186 0.00533712 
469 0.337389 0.196969 0.127679 0.209387 0.0887004 0.0100771 0.0106506 0.00858938 0.00513973 0.00541922 
470 0.532802 0.24552 0.0348524 0.137389 0.0203396 0.021465 0.00477761 0.00285511 0 0 
471 0.337389 0.196969 0.143064 0.209386 0.0733161 0.0100771 0.0106506 0.00858938 0.00513973 0.00541922 
472 0.545391 0.245781 0.0328318 0.129424 0.0191605 0.0202206 0.00450064 0.0026896 0 0 
473 0.273703 0.163034 0.201403 0.192869 0.0852713 0.0277946 0.025514 0.0304122 0 0 
474 0.533733 0.161749 0.16361 0.0698997 0.0470049 0.0107884 0.00842121 0.00148945 0 0.00330412 
475 0.518373 0.161725 0.178994 0.0698997 0.0470049 0.0107884 0.0084212 0.00148945 0 0.00330412 
476 0.950332 0.0442224 0.0035486 0.00124591 7.25463e-07 0.00065079 0 0 0 0 
477 0.63143 0.217906 0.0254539 0.0891043 0.0148547 0.0156767 0.00348926 0.0020852 0 0 
478 0.537388 0.166656 0.159255 0.0678132 0.0456017 0.0104664 0.00816983 0.00144499 0 0.00320549 
479 0.640385 0.170727 0.0726861 0.0521486 0.0540196 0.00776371 0.0012283 0 0 0.00104195 
480 0.645833 0.183292 0.0715848 0.0513533 0.0386859 0.00701495 0.00120969 0 0 0.00102616 
481 0.52567 0.159275 0.163051 0.0820717 0.0462927 0.010625 0.00829361 0.00146688 0 0.00325406 
482 0.332277 0.207847 0.127034 0.221365 0.0722052 0.00992443 0.0104892 0.00845923 0.00506186 0.00533712 
483 0.645833 0.16814 0.0715848 0.0569178 0.0482729 0.00701495 0.00120969 0 0 0.00102616 
484 0.510522 0.173868 0.175694 0.0699842 0.0462927 0.010625 0.00829361 0.00146688 0 0.00325406 
485 0.359784 0.0950272 0.187665 0.181279 0.117668 0.0113904 0.0299706 0.0131194 0.00409565 0 
486 0.359068 0.18128 0.206792 0.150838 0.0704762 0.00992481 0.0146054 0.00417198 0.00284361 0 
487 0.518373 0.161725 0.178991 0.0699025 0.0470049 0.0107884 0.0084212 0.00148945 0 0.00330412 
488 0.273703 0.163034 0.21 0.184271 0.0852713 0.0277946 0.025514 0.0304122 0 0 
489 0.533254 0.260452 0.0348522 0.122004 0.0203396 0.021465 0.00477761 0.00285511 0 0 
490 0.316831 0.223474 0.206835 0.150838 0.0704762 0.00992481 0.0146054 0.00417198 0.00284361 0 
491 0.641544 0.177901 0.0841852 0.0498429 0.0375481 0.00680862 0.00117411 0 0 0.000995982 
492 0.310521 0.194992 0.207319 0.162266 0.0758153 0.010678 0.0308621 0.00448804 0.00305904 0 
493 0.518373 0.176657 0.164062 0.0698997 0.0470049 0.0107884 0.00842121 0.00148945 0 0.00330412 
494 0.553663 0.272192 0.0294207 0.102991 0.0171698 0.0181198 0.00403304 0.00241016 0 0 
495 0.626838 0.177901 0.0988911 0.0498429 0.0375481 0.00680862 0.00117411 0 0 0.000995982 
496 0.0279252 0.354956 0.0542354 0.317725 0.0944719 0.0864 0.036936 0 0.0273505 0 
497 0.345384 0.196029 0.125745 0.221263 0.0723074 0.00992443 0.0104892 0.00845923 0.00506186 0.00533712 
498 0.539461 0.24864 0.0333146 0.131328 0.0194422 0.020518 0.00456683 0.00272915 0 0 
499 0.522648 0.16744 0.171139 0.0688406 0.0462927 0.010625 0.00829361 0.00146688 0 0.00325406 
500 0.666652 0.167499 0.0694793 0.0498429 0.0375481 0.00680862 0.00117411 0 0 0.000995982 
501 0.58042 0.148435 0.14568 0.0622395 0.0418536 0.00960613 0.00749833 0.00132622 0 0.00294203 
502 0.546733 0.238205 0.0339056 0.133173 0.0197531 0.0208242 0.00463499 0.00276989 0 0 
503 0.566906 0.246856 0.031464 0.110143 0.0183621 0.0193781 0.00431312 0.00257753 0 0 
504 0.0279252 0.354956 0.0542354 0.317725 0.0944719 0.0843061 0.0236453 0 0.0427351 0 
505 0.915271 0.0190571 0.0406624 0.010219 0.011773 0.00189201 0.000671427 0.000454701 0 0 
506 0.669602 0.157472 0.0666267 0.0617382 0.0359615 0.00652094 0.0011245 0 0 0.000953898 
507 0.640385 0.170727 0.0726861 0.052167 0.054642 0.00712287 0.0012283 0 0 0.00104195 
508 0.299915 0.201243 0.222641 0.164762 0.0769817 0.0108409 0.0159536 0.00455708 0.0031061 0 
509 0.940157 0.0201239 0.0140142 0.0105028 0.0121001 0.00194457 0.000690078 0.000467332 0 0 
510 0.546744 0.238195 0.0342485 0.132851 0.0197324 0.0208242 0.00463499 0.00276989 0 0 
511 0.532802 0.24552 0.0348522 0.137389 0.0203396 0.021465 0.00477761 0.00285511 0 0 
512 0.366004 0.188897 0.122046 0.200769 0.0841668 0.00963254 0.0101807 0.00821043 0.00491298 0.00518014 
513 0.358394 0.0964172 0.187665 0.181279 0.117668 0.0113904 0.0299706 0.0131194 0.00409565 0 
514 0.358062 0.0813645 0.187665 0.181281 0.132734 0.0117072 0.0299706 0.0131194 0.00409565 0 
515 0.352726 0.197017 0.127679 0.209386 0.0733161 0.0100771 0.0106506 0.00858938 0.00513973 0.00541922 
516 0.530266 0.165217 0.16361 0.0698997 0.0470049 0.0107884 0.00842121 0.00148945 0 0.00330412 
517 0.34088 0.208862 0.127679 0.209386 0.0733161 0.0100771 0.0106506 0.00858938 0.00513973 0.00541922 
518 0.52465 0.184267 0.156392 0.0668159 0.0449311 0.0103125 0.00804968 0.00142374 0 0.00315835 
519 0.273703 0.163034 0.201403 0.177484 0.0852713 0.0277946 0.0408985 0.0304123 0 0 
520 0.295383 0.158167 0.210316 0.172186 0.0827259 0.0269649 0.0247524 0.0295044 0 0 
521 0.299915 0.19799 0.210509 0.180146 0.0769817 0.0108409 0.0159536 0.00455708 0.0031061 0 
522 0.295371 0.210142 0.222471 0.162266 0.0758153 0.0106767 0.0157118 0.00448804 0.00305904 0 
523 0.320813 0.19208 0.204225 0.159844 0.0746837 0.0105717 0.0303484 0.00442105 0.00301338 0 
524 0.0279252 0.354956 0.0542354 0.333109 0.0944719 0.0843061 0.0236453 0 0.0273505 0 
525 0.302164 0.211117 0.210518 0.164762 0.0769817 0.0108409 0.0159536 0.00455708 0.0031061 0 
526 0.337389 0.196969 0.127679 0.209386 0.0887007 0.0100771 0.0106506 0.00858938 0.00513973 0.00541922 
527 0.211531 0.248254 0.175874 0.0643444 0.247003 0.0201722 0 0.0328205 0 0 
528 0.337389 0.196969 0.127679 0.224771 0.0733161 0.0100771 0.0106506 0.00858938 0.00513973 0.00541922 
529 0.900377 0.0860463 0.0088465 0.00310601 1.80855e-06 0.00162239 0 0 0 0 
530 0.539571 0.15464 0.156392 0.0668159 0.0449806 0.0249688 0.00804969 0.00142374 0 0.00315835 
531 0.532802 0.24552 0.0348522 0.137389 0.0203396 0.021465 0.00477761 0.00285511 0 0 
532 0.357171 0.205952 0.123927 0.203136 0.0711275 0.00977631 0.0103327 0.00833298 0.00498631 0.00525746 
533 0.299915 0.19799 0.210509 0.180146 0.0769817 0.0108409 0.0159536 0.00455708 0.0031061 0 
534 0.640387 0.18611 0.0726861 0.0521433 0.0392811 0.00712287 0.0012283 0 0 0.00104195 
535 0.6367 0.180051 0.0706469 0.0643919 0.0390981 0.00691024 0.00119163 0 0 0.00101085 
536 0.640385 0.170727 0.0726861 0.0521433 0.0546637 0.00712485 0.0012283 0 0 0.00104195 
537 0.310522 0.210142 0.207319 0.162266 0.0758153 0.0106767 0.0157118 0.00448804 0.00305904 0 
538 0.518373 0.161725 0.16361 0.0698997 0.0623895 0.0107884 0.0084212 0.00148945 0 0.00330412 
539 0.347428 0.193985 0.140896 0.206214 0.0722052 0.00992443 0.0104892 0.00845923 0.00506186 0.00533712 
540 0.532802 0.24552 0.0348522 0.137389 0.0203396 0.021465 0.00477761 0.00285511 0 0 
541 0.532803 0.260903 0.0348522 0.122004 0.0203396 0.021465 0.00477761 0.00285511 0 0 
542 0.353867 0.19439 0.138793 0.203136 0.0711275 0.00977631 0.0103327 0.00833298 0.00498631 0.00525746 
543 0.337389 0.196969 0.127679 0.22477 0.0733173 0.0100771 0.0106506 0.00858938 0.00513973 0.00541922 
544 0.337389 0.212354 0.127679 0.209386 0.0733161 0.0100771 0.0106506 0.00858938 0.00513973 0.00541922 
545 0.923212 0.0473061 0.0104023 0.0077959 0.00898149 0.00144339 0.000512223 0.000346885 0 0 
546 0.920154 0.0213646 0.0190893 0.022808 0.0132001 0.00212135 0.000752812 0.000509816 0 0 
547 0.65188 0.174616 0.0726861 0.0521433 0.0392811 0.00712287 0.0012283 0 0 0.00104195 
548 0.366619 0.202988 0.122046 0.200149 0.0700816 0.00963254 0.0101807 0.00821043 0.00491298 0.00518014 
549 0.383468 0.18415 0.118559 0.208713 0.0680825 0.00935732 0.00988986 0.00797585 0.00477261 0.00503214 
550 0.532802 0.24552 0.0348522 0.122004 0.0203405 0.0368487 0.00477761 0.00285511 0 0 
551 0.337389 0.196969 0.127679 0.209386 0.0733161 0.0100771 0.0106506 0.00910388 0.0200098 0.00541923 
552 0.92446 0.0204033 0.0286975 0.0108029 0.0124458 0.00200013 0.000709795 0.000480684 0 0 
553 0.381293 0.0817787 0.184822 0.178532 0.115885 0.0112179 0.0295165 0.0129207 0.0040336 0 
554 0.332277 0.209137 0.140896 0.206214 0.0722052 0.00992443 0.0104892 0.00845923 0.00506186 0.00533712 
555 0.0279254 0.370341 0.0542354 0.317725 0.0944719 0.0843061 0.0236453 0 0.0273505 0 
556 0.538872 0.155339 0.156398 0.0815158 0.0449311 0.0103125 0.00804968 0.00142374 0 0.00315835 
557 0.546748 0.253116 0.0338118 0.118362 0.0197324 0.0208242 0.00463499 0.00276989 0 0 
558 0.541132 0.172004 0.154125 0.0658476 0.0442799 0.010163 0.00793302 0.0014031 0 0.00311258 
559 0.346815 0.21368 0.135168 0.197706 0.0690659 0.00949294 0.0100332 0.00809144 0.00484178 0.00510507 
560 0.638243 0.178509 0.0854393 0.0505868 0.0381085 0.00691024 0.00119163 0 0 0.00101085 
561 0.358062 0.0813645 0.187665 0.181279 0.133053 0.0113904 0.0299706 0.0131194 0.00409565 0 
562 0.640385 0.170727 0.0726861 0.0523085 0.0545005 0.00712287 0.0012283 0 0 0.00104195 
563 0.641544 0.164916 0.0971699 0.0498429 0.0375481 0.00680862 0.00117411 0 0 0.000995982 
564 0.299915 0.203254 0.22063 0.164762 0.0769817 0.0108409 0.0159536 0.00455708 0.0031061 0 
565 0.358062 0.0813645 0.187665 0.196664 0.117668 0.0113904 0.0299706 0.0131194 0.00409565 0 
566 0.640385 0.170727 0.0728351 0.0673789 0.0392811 0.00712287 0.0012283 0 0 0.00104195 
567 0.533746 0.161737 0.16361 0.0698997 0.0470049 0.0107884 0.00842121 0.00148945 0 0.00330412 
568 0.90642 0.0210474 0.0299838 0.026212 0.0130031 0.00208968 0.000741576 0.000502207 0 0 
569 0.352749 0.196994 0.127679 0.209386 0.0733161 0.0100771 0.0106506 0.00858938 0.00513973 0.00541922 
570 0.337389 0.197388 0.142645 0.209386 0.0733161 0.0100771 0.0106506 0.00858938 0.00513973 0.00541922 
571 0.299915 0.19799 0.210509 0.169983 0.0871456 0.0108409 0.0159536 0.00455708 0.0031061 0 
572 0.518373 0.161725 0.164114 0.0847799 0.0470049 0.0107884 0.0084212 0.00148945 0 0.00330412 
573 0.919657 0.0218614 0.0300643 0.011833 0.0132001 0.00212135 0.000752812 0.000509816 0 0 
574 0.337389 0.196969 0.127679 0.224771 0.0733161 0.0100771 0.0106506 0.00858938 0.00513973 0.00541922 
575 0.651195 0.118719 0.128318 0.0504834 0.033948 0.00779164 0.00608198 0.00107571 0 0.00238631 
576 0.556856 0.24945 0.0344987 0.11329 0.0188867 0.0199318 0.00443635 0.00265118 0 0 
577 0.273703 0.163034 0.201403 0.177484 0.0854701 0.0429803 0.025514 0.0304122 0 0 
578 0.518373 0.167718 0.172803 0.0700985 0.0470049 0.0107884 0.0084212 0.00148945 0 0.00330412 
579 0.518373 0.161725 0.16361 0.0698997 0.0470063 0.0261714 0.00842139 0.00148945 0 0.00330412 
580 0.510518 0.174424 0.176285 0.0688406 0.0462927 0.010625 0.00829361 0.00146688 0 0.00325406 
581 0.938321 0.0219601 0.0140142 0.0105028 0.0121001 0.00194457 0.000690078 0.000467332 0 0 
582 0.528151 0.171945 0.161131 0.0688406 0.0462927 0.010625 0.00829361 0.00146688 0 0.00325406 
583 0.518373 0.161725 0.163628 0.0852661 0.0470049 0.0107884 0.0084212 0.00148945 0 0.00330412 
584 0.352763 0.196979 0.127679 0.209386 0.0733161 0.0100771 0.0106506 0.00858938 0.00513973 0.00541922 
585 0.337389 0.196969 0.127679 0.224771 0.0733161 0.0100771 0.0106506 0.00858938 0.00513973 0.00541922 
586 0.518373 0.161725 0.16361 0.0698999 0.0623893 0.0107884 0.0084212 0.00148945 0 0.00330412 
587 0.265532 0.159057 0.239277 0.172186 0.0827259 0.0269649 0.0247524 0.0295044 0 0 
588 0.0279252 0.354956 0.0671005 0.320244 0.0944719 0.0843061 0.0236453 0 0.0273505 0 
589 0.645833 0.183292 0.0715848 0.0513533 0.0386859 0.00701495 0.00120969 0 0 0.00102616 
590 0.332277 0.199544 0.132329 0.224373 0.0722052 0.00992443 0.0104892 0.00845923 0.00506186 0.00533712 
591 0.211531 0.248254 0.175874 0.04896 0.262388 0.0201722 0 0.0328205 0 0 
592 0.518373 0.161725 0.178994 0.0698997 0.0470049 0.0107884 0.0084212 0.00148945 0 0.00330412 
593 0.337389 0.197802 0.141705 0.209912 0.0733161 0.0100771 0.0106506 0.00858938 0.00513973 0.00541922 
594 0.520621 0.174029 0.164442 0.0698997 0.0470049 0.0107884 0.0084212 0.00148945 0 0.00330412 
595 0.358062 0.0813645 0.200802 0.183527 0.117668 0.0113904 0.0299706 0.0131194 0.00409565 0 
596 0.337389 0.196969 0.127679 0.224771 0.0733161 0.0100771 0.0106506 0.00858938 0.00513973 0.00541922 
597 0.640385 0.170727 0.0726861 0.0675279 0.0392811 0.00712287 0.0012283 0 0 0.00104195 
598 0.803174 0.164581 0 0.0255008 0.00337221 0.00337146 0 0 0 0 
599 0.934958 0.022359 0.01506 0.0112866 0.0130031 0.00208969 0.000741576 0.000502207 0 0 
600 0.637507 0.193047 0.0716379 0.0505868 0.0381085 0.00691024 0.00119163 0 0 0.00101085 
601 0.27825 0.17387 0.201403 0.177484 0.0852713 0.0277946 0.025514 0.0304122 0 0 
602 0.347428 0.193985 0.125744 0.22136 0.0722107 0.00992443 0.0104892 0.00845923 0.00506186 0.00533712 
603 0.295371 0.223764 0.208849 0.162266 0.0758153 0.0106767 0.0157118 0.00448804 0.00305904 0 
604 0.337389 0.196969 0.127679 0.224771 0.0733161 0.0100771 0.0106506 0.00858938 0.00513973 0.00541922 
605 0.533745 0.161738 0.16361 0.0698997 0.0470049 0.0107884 0.0084212 0.00148945 0 0.00330412 
606 0.347428 0.193985 0.125744 0.206267 0.0873037 0.00992443 0.0104892 0.00845923 0.00506186 0.00533712 
607 0.812907 0.156717 0 0.0240225 0.00317672 0.00317601 0 0 0 0 
608 0.269556 0.162317 0.22686 0.174836 0.0839793 0.0273735 0.0251274 0.0299515 0 0 
609 0.347353 0.19406 0.1277 0.219409 0.0722056 0.00992443 0.0104892 0.00845923 0.00506186 0.00533712 
610 0.518373 0.161802 0.178809 0.0700081 0.0470049 0.0107884 0.0084212 0.00148945 0 0.00330412 
611 0.337389 0.196969 0.127788 0.224661 0.0733169 0.0100771 0.0106506 0.00858938 0.00513973 0.00541922 
612 0.358062 0.0813645 0.20305 0.181279 0.117668 0.0113904 0.0299706 0.0131194 0.00409565 0 
613 0.369386 0.0854252 0.187665 0.181279 0.117668 0.0113904 0.0299706 0.0131194 0.00409565 0 
614 0.358062 0.0813645 0.188097 0.196231 0.117668 0.0113904 0.0299706 0.0131194 0.00409565 0 
615 0.645833 0.16814 0.0715848 0.0553527 0.049838 0.00701495 0.00120969 0 0 0.00102616 
616 0.332277 0.209136 0.134881 0.212229 0.0722052 0.00992443 0.0104892 0.00845923 0.00506186 0.00533712 
617 0.518373 0.161947 0.178772 0.0698997 0.0470049 0.0107884 0.0084212 0.00148945 0 0.00330412 
618 0.661893 0.169783 0.0705163 0.0505868 0.0381085 0.00691024 0.00119163 0 0 0.00101085 
619 0.645883 0.175949 0.0788783 0.0513533 0.0386859 0.00701494 0.00120969 0 0 0.00102616 
620 0.532801 0.24552 0.0348522 0.137339 0.0203897 0.021465 0.0047776 0.00285511 0 0 
621 0.532802 0.24552 0.0348522 0.137389 0.0203396 0.021465 0.00477761 0.00285511 0 0 
622 0.352238 0.19602 0.124088 0.217801 0.0711673 0.00977631 0.0103327 0.00833298 0.00498631 0.00525746 
623 0.332277 0.193985 0.126104 0.234107 0.074256 0.00992443 0.0104892 0.00845923 0.00506186 0.00533711 
624 0.293345 0.182947 0.192517 0.169654 0.0815093 0.0265684 0.0243884 0.0290705 0 0 
625 0.918926 0.0216933 0.0155234 0.0116339 0.0134032 0.0175386 0.000764394 0.00051766 0 0 
626 0.538446 0.161651 0.161131 0.0688406 0.0462927 0.010625 0.00829361 0.00146688 0 0.00325406 
627 0.21869 0.00292707 0.450178 0 0.328205 0 0 0 0 0 
628 0.337389 0.212162 0.127871 0.209386 0.0733161 0.0100771 0.0106506 0.00858938 0.00513973 0.00541922 
629 0.640385 0.170727 0.0740765 0.0660029 0.0394157 0.00712287 0.0012283 0 0 0.00104195 
630 0.337389 0.197118 0.14209 0.210212 0.0733161 0.0100771 0.0106506 0.00858938 0.00513973 0.00541922 
631 0.526252 0.173607 0.161369 0.0688406 0.0462927 0.010625 0.00829361 0.00146688 0 0.00325406 
632 0.532804 0.260902 0.0348523 0.122004 0.0203396 0.021465 0.00477761 0.00285511 0 0 
633 0.534739 0.169834 0.158726 0.0678132 0.0456017 0.0104664 0.00816983 0.00144499 0 0.00320549 
634 0.337389 0.196969 0.1288 0.22365 0.0733162 0.0100771 0.0106506 0.00858938 0.00513973 0.00541922 
635 0.358062 0.0813645 0.187665 0.181284 0.133048 0.0113904 0.0299706 0.0131194 0.00409565 0 
636 0.640385 0.170727 0.0727101 0.0673112 0.0394737 0.00712287 0.0012283 0 0 0.00104195 
637 0.532801 0.24552 0.0350484 0.137169 0.0203636 0.021465 0.0047776 0.00285511 0 0 
638 0.65625 0.177901 0.0694793 0.0498429 0.0375481 0.00680862 0.00117411 0 0 0.000995982 
639 0.645833 0.16814 0.0715848 0.0518845 0.053258 0.00706303 0.00120969 0 0 0.00102616 
640 0.926672 0.0197202 0.0140162 0.0243897 0.0121001 0.00194457 0.000690078 0.000467332 0 0 
641 0.630682 0.183247 0.086778 0.0513567 0.0386859 0.00701494 0.00120969 0 0 0.00102616 
642 0.546748 0.238191 0.0338118 0.133288 0.0197324 0.0208242 0.00463499 0.00276989 0 0 
643 0.920151 0.0365192 0.0152882 0.0114576 0.0132001 0.00212135 0.000752812 0.000509816 0 0 
644 0.532802 0.24552 0.0348553 0.137386 0.0203396 0.021465 0.00477761 0.00285511 0 0 
645 0.897148 0.072637 0.0096631 0.0187773 1.97549e-06 0.00177215 0 0 0 0 
646 0.315297 0.197992 0.210509 0.164762 0.0769817 0.0108409 0.0159536 0.00455708 0.0031061 0 
647 0.337389 0.196969 0.127679 0.22477 0.0733165 0.0100771 0.0106506 0.00858938 0.00513973 0.00541922 
648 0.651374 0.175123 0.0726861 0.0521433 0.0392811 0.00712287 0.0012283 0 0 0.00104195 
649 0.644783 0.181714 0.0726861 0.0521433 0.0392811 0.00712287 0.0012283 0 0 0.00104195 
650 0.224919 0.287646 0.163404 0.0454629 0.22936 0.0187314 0 0.0304762 0 0 
651 0.645833 0.16814 0.0715848 0.052994 0.0521966 0.00701494 0.00120969 0 0 0.00102616 
652 0.52567 0.159275 0.161131 0.0839921 0.0462927 0.010625 0.00829361 0.00146688 0 0.00325406 
653 0.371588 0.0832233 0.187665 0.181279 0.117668 0.0113904 0.0299706 0.0131194 0.00409565 0 
654 0.211531 0.248254 0.191258 0.04896 0.247003 0.0201722 0 0.0328205 0 0 
655 0.337389 0.196969 0.127679 0.209449 0.0886382 0.0100771 0.0106506 0.00858938 0.00513973 0.00541922 
656 0.358062 0.0813645 0.187665 0.196663 0.117668 0.0113904 0.0299706 0.0131194 0.00409565 0 
657 0.310522 0.194991 0.207319 0.162266 0.0909668 0.0106767 0.0157118 0.00448804 0.00305904 0 
658 0.533623 0.16186 0.16361 0.0698997 0.0470049 0.0107884 0.00842121 0.00148945 0 0.00330412 
659 0.912496 0.0726738 0.0096631 0.00339272 1.97549e-06 0.00177215 0 0 0 0 
660 0.537303 0.162794 0.161131 0.0688406 0.0462927 0.010625 0.00829361 0.00146688 0 0.00325406 
661 0.640386 0.180251 0.0785452 0.0521433 0.0392811 0.00712287 0.0012283 0 0 0.00104195 
662 0.299915 0.19799 0.210509 0.164762 0.0769817 0.0168713 0.0253067 0.00455819 0.0031061 0 
663 0.645833 0.168141 0.086736 0.0513533 0.0386859 0.00701494 0.00120969 0 0 0.00102616 
664 0.299915 0.213374 0.21051 0.164762 0.0769817 0.0108409 0.0159536 0.00455708 0.0031061 0 
665 0.640385 0.170727 0.072717 0.067497 0.0392811 0.00712287 0.0012283 0 0 0.00104195 
666 0.640385 0.170727 0.0726861 0.0675279 0.0392811 0.00712287 0.0012283 0 0 0.00104195 
667 0.642326 0.184137 0.0727189 0.0521433 0.0392811 0.00712287 0.0012283 0 0 0.00104195 
668 0.910594 0.0745757 0.0096631 0.00339272 1.97549e-06 0.00177215 0 0 0 0 
669 0.337389 0.196969 0.127679 0.224768 0.0733187 0.0100771 0.0106506 0.00858938 0.00513973 0.00541922 
670 0.273703 0.163034 0.216787 0.177484 0.0852713 0.0277946 0.025514 0.0304122 0 0 
671 0.640385 0.170727 0.0726861 0.0675279 0.0392811 0.00712287 0.0012283 0 0 0.00104195 
672 0.529918 0.16658 0.16473 0.0688406 0.0462927 0.010625 0.00829361 0.00146688 0 0.00325406 
673 0.530154 0.159493 0.173651 0.0678132 0.0456017 0.0104664 0.00816983 0.00144499 0 0.00320549 
674 0.532802 0.245623 0.0501339 0.122004 0.0203396 0.021465 0.00477761 0.00285511 0 0 
675 0.337389 0.196969 0.142961 0.209489 0.0733161 0.0100771 0.0106506 0.00858938 0.00513973 0.00541922 
676 0.0275021 0.379868 0.0534271 0.312911 0.0930405 0.0830287 0.023287 0 0.0269361 0 
677 0.309925 0.195587 0.207319 0.165548 0.0876847 0.0106767 0.0157118 0.00448804 0.00305904 0 
678 0.286822 0.196955 0.189832 0.167195 0.080328 0.0261833 0.0240349 0.0286492 0 0 
679 0.337389 0.196969 0.139731 0.212719 0.0733161 0.0100771 0.0106506 0.00858938 0.00513973 0.00541922 
680 0.921346 0.0359711 0.01506 0.0112866 0.0130031 0.00208969 0.000741576 0.000502207 0 0 
681 0.276334 0.185253 0.207223 0.169654 0.0815093 0.0265684 0.0243884 0.0290705 0 0 
682 0.367789 0.0801317 0.184822 0.178532 0.131037 0.0112179 0.0295165 0.0129207 0.0040336 0 
683 0.337389 0.210611 0.129422 0.209386 0.0733161 0.0100771 0.0106506 0.00858938 0.00513973 0.00541922 
684 0.54266 0.251046 0.0348522 0.122004 0.0203396 0.021465 0.00477761 0.00285511 0 0 
685 0.533751 0.161731 0.16361 0.0698997 0.0470049 0.0107884 0.0084212 0.00148945 0 0.00330412 
686 0.273703 0.163034 0.201403 0.177484 0.0852713 0.0277946 0.0347673 0.0365435 0 0 
687 0.640385 0.170727 0.0726861 0.0521622 0.0546468 0.00712287 0.0012283 0 0 0.00104195 
688 0.367782 0.0806966 0.199063 0.178884 0.115885 0.0112179 0.0295165 0.0129207 0.0040336 0 
689 0.299954 0.211322 0.212522 0.164762 0.0769817 0.0108409 0.0159536 0.00455708 0.0031061 0 
690 0.299915 0.197992 0.225852 0.164802 0.0769817 0.0108409 0.0159536 0.00455708 0.0031061 0 
691 0.528451 0.167031 0.16361 0.0698997 0.0470049 0.0107884 0.00842121 0.00148945 0 0.00330412 
692 0.532802 0.24552 0.0348522 0.122004 0.0256456 0.0315436 0.00477761 0.00285511 0 0 
693 0.337389 0.196969 0.12768 0.22477 0.0733161 0.0100771 0.0106506 0.00858938 0.00513973 0.00541922 
694 0.367778 0.0801527 0.199963 0.178532 0.115885 0.0112179 0.0295165 0.0129207 0.0040336 0 
695 0.663052 0.168624 0.0705163 0.0505868 0.0381085 0.00691024 0.00119163 0 0 0.00101085 
696 0.211531 0.248254 0.175874 0.0489621 0.262385 0.0201724 0 0.0328205 0 0 
697 0.553956 0.248851 0.0333146 0.116622 0.0194422 0.020518 0.00456683 0.00272915 0 0 
698 0.347428 0.208423 0.126458 0.206214 0.0722052 0.00992443 0.0104892 0.00845923 0.00506186 0.00533712 
699 0.346007 0.195407 0.126773 0.220335 0.0722065 0.00992443 0.0104892 0.00845923 0.00506186 0.00533712 
700 0.211531 0.248254 0.175874 0.04896 0.262387 0.0201723 0 0.0328205 0 0 
701 0.532802 0.24552 0.0348585 0.137383 0.0203396 0.021465 0.00477761 0.00285511 0 0 
702 0.211531 0.263637 0.175875 0.04896 0.247003 0.0201722 0 0.0328205 0 0 
703 0.354457 0.193801 0.138793 0.203136 0.0711275 0.00977631 0.0103327 0.00833298 0.00498631 0.00525746 
704 0.930941 0.0257292 0.0152882 0.0114576 0.0132001 0.00212135 0.000752812 0.000509816 0 0 
705 0.532802 0.24552 0.0376484 0.134593 0.0203396 0.021465 0.00477761 0.00285511 0 0 
706 0.400448 0.184939 0.127385 0.18644 0.0652814 0.00897278 0.00948343 0.00764807 0.00457648 0.00482534 
707 0.337389 0.196969 0.127679 0.224771 0.0733161 0.0100771 0.0106506 0.00858938 0.00513973 0.00541922 
708 0.358062 0.0813662 0.202744 0.181583 0.117668 0.0113904 0.0299706 0.0131194 0.00409565 0 
709 0.320811 0.192082 0.219138 0.159856 0.0746837 0.0105173 0.0154773 0.00442105 0.00301338 0 
710 0.533748 0.161735 0.16361 0.0698997 0.0470049 0.0107884 0.00842121 0.00148945 0 0.00330412 
711 0.386383 0.0777749 0.179386 0.173282 0.127183 0.0108879 0.0286484 0.0125406 0.00391496 0 
712 0.358062 0.0813645 0.187665 0.181996 0.128889 0.0148377 0.0299706 0.0131194 0.00409565 0 
713 0.393377 0.180331 0.129659 0.193007 0.0671204 0.00922553 0.00975057 0.00786351 0.00470539 0.00496126 
714 0.533421 0.162061 0.16361 0.0698997 0.0470049 0.0107884 0.00842121 0.00148945 0 0.00330412 
715 0.142143 0.305792 0.219673 0.260431 0.0104322 0.0307602 0.0307693 0 0 0 
716 0.358062 0.0813645 0.187667 0.196662 0.117668 0.0113904 0.0299706 0.0131194 0.00409565 0 
717 0.510539 0.189558 0.161131 0.0688406 0.0462927 0.010625 0.00829361 0.00146688 0 0.00325406 
718 0.628658 0.212501 0.0665436 0.0477368 0.0359615 0.00652094 0.0011245 0 0 0.000953898 
719 0.912522 0.0726482 0.0096631 0.00339272 1.97549e-06 0.00177215 0 0 0 0 
720 0.358062 0.0813645 0.187665 0.196664 0.117668 0.0113904 0.0299706 0.0131194 0.00409565 0 
721 0.640385 0.170727 0.0880706 0.0521434 0.0392811 0.00712287 0.0012283 0 0 0.00104195 
722 0.358062 0.0813645 0.187665 0.181279 0.133053 0.0113905 0.0299706 0.0131194 0.00409565 0 
723 0.640385 0.170728 0.0880695 0.0521439 0.0392811 0.00712287 0.0012283 0 0 0.00104195 
724 0.0279252 0.354956 0.0542354 0.333109 0.0944723 0.0843061 0.0236453 0 0.0273505 0 
725 0.529275 0.166208 0.16361 0.0698997 0.0470049 0.0107884 0.00842121 0.00148945 0 0.00330412 
726 0.289122 0.1713 0.198351 0.174795 0.0839793 0.0273735 0.0251274 0.0299515 0 0 
727 0.358062 0.0813645 0.187665 0.196663 0.117668 0.0113904 0.0299706 0.0131194 0.00409565 0 
728 0.518373 0.161725 0.178994 0.0698997 0.0470049 0.0107884 0.0084212 0.00148945 0 0.00330412 
729 0.310522 0.194991 0.222471 0.162266 0.0758153 0.0106767 0.0157118 0.00448804 0.00305904 0 
730 0.310522 0.194991 0.207319 0.162271 0.0909616 0.0106767 0.0157118 0.00448804 0.00305904 0 
731 0.645833 0.16814 0.0715848 0.0665047 0.0386859 0.00701494 0.00120969 0 0 0.00102616 
732 0.518373 0.161725 0.16361 0.0852843 0.0470049 0.0107884 0.0084212 0.00148945 0 0.00330412 
733 0.636194 0.166181 0.0801488 0.0555203 0.0528392 0.00691449 0.00119163 0 0 0.00101085 
734 0.520394 0.179544 0.161289 0.0688406 0.0462927 0.010625 0.00829361 0.00146688 0 0.00325406 
735 0.532801 0.24552 0.0350128 0.137228 0.0203398 0.021465 0.0047776 0.00285511 0 0 
736 0.137248 0.295683 0.219292 0.260431 0.0104368 0.0461402 0.0307693 0 0 0 
737 0.289084 0.163037 0.201403 0.177484 0.0852713 0.0277946 0.025514 0.0304122 0 0 
738 0.643133 0.17084 0.0715848 0.0513566 0.053834 0.00701495 0.00120969 0 0 0.00102616 
739 0.54408 0.160493 0.158726 0.0678132 0.0456017 0.0104664 0.00816983 0.00144498 0 0.00320549 
740 0.223364 0.244606 0.188361 0.0482182 0.24326 0.0198666 0 0.0323233 0 0 
741 0.358062 0.0813645 0.187665 0.196663 0.117668 0.0113904 0.0299706 0.0131194 0.00409565 0 
742 0.517818 0.186755 0.158726 0.0678132 0.0456017 0.0104664 0.00816983 0.00144498 0 0.00320549 
743 0.337389 0.212354 0.127679 0.209386 0.0733161 0.0100771 0.0106506 0.00858938 0.00513973 0.00541922 
744 0.640385 0.170727 0.0727034 0.0675105 0.0392812 0.00712287 0.0012283 0 0 0.00104195 
745 0.898705 0.0715379 0.0098609 0.018148 2.515e-06 0.0017453 0 0 0 0 
746 0.337389 0.197746 0.142287 0.209386 0.0733161 0.0100771 0.0106506 0.00858938 0.00513973 0.00541922 
747 0.670762 0.157422 0.0795182 0.0477368 0.0359615 0.00652094 0.0011245 0 0 0.000953898 
748 0.358062 0.0813645 0.187667 0.196662 0.117668 0.0113904 0.0299706 0.0131194 0.00409565 0 
749 0.299915 0.19799 0.210509 0.180146 0.0769817 0.0108409 0.0159536 0.00455708 0.0031061 0 
750 0.533723 0.161759 0.16361 0.0698997 0.0470049 0.0107884 0.00842121 0.00148945 0 0.00330412 
751 0.51387 0.183775 0.163582 0.0688406 0.0462927 0.010625 0.00829361 0.00146688 0 0.00325406 
752 0.343738 0.197675 0.125747 0.221363 0.0722052 0.00992443 0.0104892 0.00845923 0.00506186 0.00533712 
753 0.0397472 0.358519 0.0542354 0.317725 0.0944719 0.0843061 0.0236453 0 0.0273505 0 
754 0.53988 0.256951 0.0343241 0.120156 0.0200314 0.0211397 0.00470522 0.00281185 0 0 
755 0.518373 0.161725 0.16361 0.0700591 0.0622301 0.0107884 0.0084212 0.00148945 0 0.00330412 
756 0.337389 0.196969 0.127679 0.224771 0.0733161 0.0100771 0.0106506 0.00858938 0.00513973 0.00541922 
757 0.347428 0.196946 0.137921 0.206227 0.0722052 0.00992443 0.0104892 0.00845923 0.00506186 0.00533712 
758 0.913189 0.0346521 0.0136354 0.0102395 0.0237886 0.00336934 0.000671427 0.000454701 0 0 
759 0.645833 0.183292 0.0715848 0.0513533 0.0386859 0.00701495 0.00120969 0 0 0.00102616 
760 0.661142 0.162382 0.0788089 0.0518145 0.0370039 0.00670995 0.00115709 0 0 0.000981547 
761 0.273703 0.163034 0.201403 0.177484 0.0852713 0.0277946 0.0256915 0.0456194 0 0 
762 0.518373 0.161725 0.16361 0.0852843 0.0470049 0.0107884 0.0084212 0.00148945 0 0.00330412 
763 0.640385 0.170727 0.0726889 0.0675251 0.0392811 0.00712287 0.0012283 0 0 0.00104195 
764 0.918926 0.0216933 0.0155234 0.0116364 0.0287852 0.00215398 0.000764394 0.00051766 0 0 
765 0.542897 0.170239 0.154125 0.0658476 0.0442799 0.010163 0.00793302 0.0014031 0 0.00311258 
766 0.93627 0.0210471 0.01506 0.0112866 0.0130031 0.00208969 0.000741576 0.000502207 0 0 
767 0.521968 0.163329 0.175927 0.0688433 0.0462927 0.010625 0.00829361 0.00146688 0 0.00325406 
768 0.906867 0.0355245 0.0150602 0.0262118 0.0130031 0.00208969 0.000741576 0.000502207 0 0 
769 0.510518 0.159275 0.191434 0.0688407 0.0462927 0.010625 0.00829361 0.00146688 0 0.00325406 
770 0.288627 0.163494 0.201403 0.177484 0.0852713 0.0277946 0.025514 0.0304122 0 0 
771 0.920154 0.0213646 0.0303775 0.0115198 0.0132001 0.00212135 0.000752812 0.000509816 0 0 
772 0.533041 0.260656 0.0348608 0.122004 0.0203396 0.021465 0.00477761 0.00285511 0 0 
773 0.337397 0.211485 0.128539 0.209386 0.0733161 0.0100771 0.0106506 0.00858938 0.00513973 0.00541922 
774 0.640385 0.170727 0.0726861 0.0527641 0.0540449 0.00712287 0.0012283 0 0 0.00104195 
775 0.518373 0.161728 0.176353 0.0725381 0.0470049 0.0107884 0.00842121 0.00148945 0 0.00330412 
776 0.320813 0.192094 0.219137 0.159844 0.0746837 0.0105173 0.0154773 0.00442105 0.00301338 0 
777 0.273703 0.163034 0.201403 0.192868 0.0852713 0.0277946 0.025514 0.0304122 0 0 
778 0.918926 0.0216933 0.0305069 0.012035 0.0134031 0.00215398 0.000764394 0.00051766 0 0 
779 0.299915 0.202778 0.221106 0.164762 0.0769817 0.0108409 0.0159536 0.00455708 0.0031061 0 
780 0.640394 0.185955 0.0728328 0.0521433 0.0392811 0.00712287 0.0012283 0 0 0.00104195 
781 0.273703 0.163034 0.216772 0.177498 0.0852713 0.0277946 0.025514 0.0304122 0 0 
782 0.918926 0.0216933 0.0155234 0.0268051 0.0136165 0.00215398 0.000764394 0.00051766 0 0 
783 0.532801 0.24552 0.0366709 0.13557 0.0203396 0.021465 0.0047776 0.00285511 0 0 
784 0.543104 0.265337 0.0323627 0.11329 0.0188867 0.0199318 0.00443635 0.00265118 0 0 
785 0.531938 0.163544 0.16361 0.0698997 0.0470049 0.0107884 0.0084212 0.00148945 0 0.00330412 
786 0.375742 0.200102 0.120277 0.197248 0.0690659 0.00949294 0.0100332 0.00809144 0.00484178 0.00510507 
787 0.655767 0.17073 0.0726861 0.0521433 0.0392811 0.00712287 0.0012283 0 0 0.00104195 
788 0.640385 0.170727 0.0726861 0.052175 0.054634 0.00712287 0.0012283 0 0 0.00104195 
789 0.532802 0.251541 0.0441682 0.122052 0.0203396 0.021465 0.00477761 0.00285511 0 0 
790 0.918926 0.0368045 0.0157968 0.0116339 0.0134031 0.00215398 0.000764394 0.00051766 0 0 
791 0.630682 0.18329 0.071587 0.0513533 0.0386866 0.0221657 0.00120969 0 0 0.00102616 
792 0.53275 0.160502 0.170047 0.0678136 0.0456017 0.0104664 0.00816983 0.00144498 0 0.00320549 
793 0.337389 0.196969 0.127682 0.224768 0.0733161 0.0100771 0.0106506 0.00858938 0.00513973 0.00541922 
794 0.646602 0.182523 0.0715848 0.0513533 0.0386859 0.00701494 0.00120969 0 0 0.00102616 
795 0.644852 0.181644 0.0726861 0.0521433 0.0392811 0.00712287 0.0012283 0 0 0.00104195 
796 0.273703 0.163034 0.201403 0.190617 0.0875226 0.0277946 0.025514 0.0304122 0 0 
797 0.273703 0.163034 0.203658 0.190613 0.0852713 0.0277946 0.025514 0.0304122 0 0 
798 0.651112 0.166597 0.0844825 0.0505868 0.0381085 0.00691024 0.00119163 0 0 0.00101085 
799 0.176687 0.295923 0.209662 0.248941 0.00997199 0.0294031 0.0294118 0 0 0 
800 0.395276 0.0908281 0.177098 0.17077 0.110847 0.0107301 0.0282332 0.0123589 0.00385822 0 
801 0.337389 0.196969 0.127679 0.209386 0.0733161 0.0100771 0.0106506 0.00858938 0.00514341 0.0208002 
802 0.912523 0.0726473 0.0096631 0.00339272 1.97549e-06 0.00177215 0 0 0 0 
803 0.548779 0.251086 0.0338118 0.118362 0.0197324 0.0208242 0.00463499 0.00276989 0 0 
804 0.532802 0.24552 0.0348522 0.122015 0.0357137 0.021465 0.00477761 0.00285511 0 0 
805 0.53275 0.157328 0.173219 0.0678146 0.0456017 0.0104664 0.00816983 0.00144498 0 0.00320549 
806 0.533485 0.161997 0.16361 0.0698997 0.0470049 0.0107884 0.00842121 0.00148945 0 0.00330412 
807 0.518373 0.161726 0.178822 0.0700714 0.0470049 0.0107884 0.0084212 0.00148945 0 0.00330412 
808 0.337389 0.197348 0.142127 0.209944 0.0733161 0.0100771 0.0106506 0.00858938 0.00513973 0.00541922 
809 0.920154 0.0213649 0.0152886 0.0266087 0.0132001 0.00212135 0.000752812 0.000509816 0 0 
810 0.548108 0.245599 0.0348522 0.122004 0.0203396 0.021465 0.00477761 0.00285511 0 0 
811 0.366576 0.0813443 0.184822 0.182296 0.127161 0.0113301 0.0295165 0.0129207 0.0040336 0 
812 0.299915 0.19799 0.210509 0.164762 0.0769817 0.0108409 0.0159564 0.0199389 0.00310611 0 
813 0.532802 0.25049 0.040448 0.126823 0.0203396 0.021465 0.00477761 0.00285511 0 0 
814 0.337389 0.201788 0.134424 0.213207 0.0733161 0.0100771 0.0106506 0.00858938 0.00513973 0.00541922 
815 0.359579 0.196986 0.125744 0.206214 0.0722052 0.00992443 0.0104892 0.00845923 0.00506186 0.00533712 
816 0.52567 0.16556 0.169998 0.0688406 0.0462927 0.010625 0.00829361 0.00146688 0 0.00325406 
817 0.337389 0.196969 0.127683 0.224766 0.0733172 0.0100771 0.0106506 0.00858938 0.00513973 0.00541922 
818 0.518373 0.161725 0.16361 0.0699004 0.0623887 0.0107884 0.0084212 0.00148945 0 0.00330412 
819 0.532744 0.156904 0.158732 0.0827327 0.0456017 0.0104664 0.00816983 0.00144498 0 0.00320549 
820 0.273703 0.163034 0.201491 0.188536 0.0895159 0.0277946 0.025514 0.0304122 0 0 
821 0.532802 0.249789 0.0459667 0.122005 0.0203396 0.021465 0.00477761 0.00285511 0 0 
822 0.533669 0.161814 0.16361 0.0698997 0.0470049 0.0107884 0.0084212 0.00148945 0 0.00330412 
823 0.532801 0.24552 0.0348528 0.137364 0.0203643 0.021465 0.0047776 0.00285511 0 0 
824 0.377223 0.0789751 0.196777 0.176041 0.114156 0.0110504 0.029076 0.0127278 0.00397339 0 
825 0.330745 0.189311 0.201223 0.172198 0.0735858 0.0103627 0.0152497 0.00435604 0.00296907 0 
826 0.367788 0.0801323 0.184836 0.19367 0.115885 0.0112179 0.0295165 0.0129207 0.0040336 0 
827 0.651616 0.17488 0.0726861 0.0521433 0.0392811 0.00712287 0.0012283 0 0 0.00104195 
828 0.341542 0.208201 0.127679 0.209386 0.0733161 0.0100771 0.0106506 0.00858938 0.00513973 0.00541922 
829 0.631947 0.221589 0.0613585 0.0440171 0.0331593 0.00601281 0.00103687 0 0 0.000879569 
830 0.548144 0.245562 0.0348522 0.122004 0.0203396 0.021465 0.00477761 0.00285511 0 0 
831 0.640385 0.170727 0.0727401 0.0669701 0.0397849 0.00712287 0.0012283 0 0 0.00104195 
832 0.273703 0.163549 0.216261 0.177495 0.0852713 0.0277946 0.025514 0.0304122 0 0 
833 0.518373 0.161725 0.163621 0.085273 0.0470049 0.0107884 0.0084212 0.00148945 0 0.00330412 
834 0.640385 0.170727 0.0726861 0.0557199 0.0510891 0.00712287 0.0012283 0 0 0.00104195 
835 0.338106 0.211631 0.127685 0.209386 0.0733161 0.0100771 0.0106506 0.00858938 0.00513973 0.00541922 
836 0.342723 0.20702 0.127679 0.209386 0.0733161 0.0100771 0.0106506 0.00858938 0.00513973 0.00541922 
837 0.347453 0.20229 0.127679 0.209386 0.0733161 0.0100771 0.0106506 0.00858938 0.00513973 0.00541922 
838 0.235068 0.255769 0.170624 0.0474985 0.23963 0.0195701 0 0.0318408 0 0 
839 0.518373 0.161725 0.178978 0.0699161 0.0470049 0.0107884 0.0084212 0.00148945 0 0.00330412 
840 0.352771 0.196972 0.127679 0.209386 0.0733161 0.0100771 0.0106506 0.00858938 0.00513973 0.00541922 
841 0.803174 0.164581 0 0.0255008 0.00337221 0.00337146 0 0 0 0 
842 0.273703 0.163034 0.201403 0.192707 0.0854327 0.0277946 0.025514 0.0304122 0 0 
843 0.273703 0.175136 0.204684 0.177484 0.0852713 0.0277946 0.025514 0.0304122 0 0 
844 0.536321 0.163775 0.161131 0.0688406 0.0462927 0.010625 0.00829361 0.00146688 0 0.00325406 
845 0.511218 0.305095 0.0310329 0.108634 0.0181106 0.0191127 0.00425403 0.00254222 0 0 
846 0.273703 0.163034 0.201403 0.177486 0.100654 0.0277946 0.025514 0.0304122 0 0 
847 0.295591 0.209952 0.222439 0.162267 0.0758153 0.0106767 0.0157118 0.00448804 0.00305904 0 
848 0.548155 0.245551 0.0348522 0.122004 0.0203396 0.021465 0.00477761 0.00285511 0 0 
849 0.299915 0.19799 0.210528 0.180127 0.0769817 0.0108409 0.0159536 0.00455708 0.0031061 0 
850 0.337389 0.196969 0.127679 0.224771 0.0733161 0.0100771 0.0106506 0.00858938 0.00513973 0.00541922 
851 0.532844 0.260862 0.0348522 0.122004 0.0203396 0.021465 0.00477761 0.00285511 0 0 
852 0.518373 0.161725 0.17785 0.0710435 0.0470049 0.0107884 0.0084212 0.00148945 0 0.00330412 
853 0.310522 0.196143 0.221318 0.162266 0.0758153 0.0106767 0.0157118 0.00448804 0.00305904 0 
854 0.0279252 0.354956 0.0542354 0.333081 0.0945001 0.0843061 0.0236453 0 0.0273505 0 
855 0.358062 0.0813645 0.187666 0.196642 0.117689 0.0113904 0.0299706 0.0131194 0.00409565 0 
856 0.532801 0.24552 0.0348522 0.122035 0.0309274 0.0262309 0.0047776 0.00285511 0 0 
857 0.358062 0.0869316 0.197483 0.181279 0.117668 0.0113904 0.0299706 0.0131194 0.00409565 0 
858 0.367789 0.0801317 0.184825 0.193681 0.115885 0.0112179 0.0295165 0.0129207 0.0040336 0 
859 0.372644 0.0821678 0.187665 0.181279 0.117668 0.0113904 0.0299706 0.0131194 0.00409565 0 
860 0.52567 0.159275 0.176282 0.0688406 0.0462927 0.010625 0.00829361 0.00146688 0 0.00325406 
861 0.299915 0.19799 0.210511 0.180144 0.0769818 0.0108409 0.0159536 0.00455708 0.0031061 0 
862 0.273703 0.163034 0.201403 0.177484 0.100656 0.0277946 0.025514 0.0304122 0 0 
863 0.651119 0.165631 0.0705163 0.050587 0.0524475 0.00749634 0.00119163 0 0 0.00101085 
864 0.137248 0.295683 0.219334 0.275773 0.0104322 0.0307602 0.0307693 0 0 0 
865 0.641544 0.192607 0.0694794 0.0498429 0.0375481 0.00680862 0.00117411 0 0 0.000995982 
866 0.310522 0.194996 0.222466 0.162266 0.0758153 0.0106767 0.0157118 0.00448804 0.00305904 0 
867 0.0279252 0.354956 0.0542357 0.333109 0.0944719 0.0843061 0.0236453 0 0.0273505 0 
868 0.656687 0.170387 0.0665436 0.0477368 0.0359826 0.0180654 0.00364345 0 0 0.000953898 
869 0.307011 0.187659 0.188134 0.162485 0.0780653 0.0254458 0.0233579 0.0278422 0 0 
870 0.65625 0.177901 0.0694793 0.0498429 0.0375481 0.00680862 0.00117411 0 0 0.000995982 
871 0.295372 0.167404 0.20109 0.172186 0.0827259 0.0269649 0.0247524 0.0295044 0 0 
872 0.509517 0.189996 0.167748 0.0658476 0.0442799 0.010163 0.00793302 0.0014031 0 0.00311258 
873 0.532802 0.24552 0.0348522 0.137389 0.0203396 0.021465 0.00477761 0.00285511 0 0 
874 0.915144 0.0704692 0.00937465 0.00329145 1.91652e-06 0.00171925 0 0 0 0 
875 0.337389 0.196969 0.127679 0.224771 0.0733161 0.0100771 0.0106506 0.00858938 0.00513973 0.00541922 
876 0.230199 0.253419 0.168116 0.0468 0.238567 0.0315265 0 0.0313726 0 0 
877 0.656934 0.172191 0.0715848 0.0513533 0.0386859 0.00701494 0.00120969 0 0 0.00102616 
878 0.53797 0.172927 0.148662 0.0763335 0.0424384 0.00973955 0.00760248 0.00134464 0 0.00298289 
879 0.295383 0.158167 0.195424 0.187078 0.0827259 0.0269649 0.0247524 0.0295044 0 0 
880 0.250456 0.107851 0.265816 0.186736 0 0.115837 0 0 0.0733032 0 
881 0.532802 0.260905 0.0348522 0.122004 0.0203396 0.021465 0.00477761 0.00285511 0 0 
882 0.651253 0.168192 0.0694793 0.0500644 0.051733 0.00710803 0.00117411 0 0 0.000995982 
883 0.347428 0.193985 0.140896 0.206214 0.0722052 0.00992443 0.0104892 0.00845923 0.00506186 0.00533712 
884 0.651014 0.180661 0.0705163 0.0505868 0.0381085 0.00691024 0.00119163 0 0 0.00101085 
885 0.137248 0.295683 0.219292 0.275815 0.0104323 0.0307602 0.0307693 0 0 0 
886 0.519883 0.173841 0.165368 0.0698997 0.0470049 0.0107884 0.00842121 0.00148945 0 0.00330412 
887 0.347428 0.193985 0.125744 0.207898 0.0856723 0.00992445 0.0104892 0.00845923 0.00506186 0.00533712 
888 0.652972 0.176458 0.0727612 0.0505868 0.0381085 0.00691024 0.00119163 0 0 0.00101085 
889 0.532319 0.167775 0.161133 0.0688406 0.0462927 0.010625 0.00829361 0.00146688 0 0.00325406 
890 0.560245 0.245415 0.0328365 0.114932 0.0191605 0.0202206 0.00450064 0.0026896 0 0 
891 0.299915 0.19799 0.210509 0.164762 0.0923492 0.010858 0.0159536 0.00455708 0.0031061 0 
892 0.646186 0.175874 0.068474 0.0618968 0.0387204 0.00670995 0.00115709 0 0 0.000981547 
893 0.621817 0.180053 0.0854141 0.0654954 0.0381085 0.00691024 0.00119163 0 0 0.00101085 
894 0.310461 0.195076 0.222446 0.162266 0.0758153 0.0106767 0.0157118 0.00448804 0.00305904 0 
895 0.299915 0.213375 0.210509 0.164762 0.0769817 0.0108409 0.0159536 0.00455708 0.0031061 0 
896 0.550968 0.239712 0.033821 0.123353 0.0247354 0.0202206 0.00450064 0.0026896 0 0 
897 0.373441 0.0813699 0.187665 0.181279 0.117668 0.0113904 0.0299706 0.0131194 0.00409565 0 
898 0.501915 0.30375 0.0328318 0.114932 0.0191605 0.0202206 0.00450064 0.0026896 0 0 
899 0.530708 0.155959 0.180594 0.065848 0.0442799 0.010163 0.00793302 0.0014031 0 0.00311258 
900 0.137248 0.295686 0.234673 0.260431 0.0104322 0.0307602 0.0307693 0 0 0 
901 0.372917 0.0818944 0.187665 0.181279 0.117668 0.0113904 0.0299706 0.0131194 0.00409565 0 
902 0.518373 0.161726 0.17899 0.0699031 0.0470049 0.0107884 0.0084212 0.00148945 0 0.00330412 
903 0.532802 0.24552 0.035382 0.136859 0.0203396 0.021465 0.00477761 0.00285511 0 0 
904 0.532385 0.157263 0.173651 0.0678132 0.0456017 0.0104664 0.00816983 0.00144499 0 0.00320549 
905 0.337389 0.196969 0.129985 0.217476 0.0783048 0.0100771 0.0106506 0.00858938 0.00513973 0.00541922 
906 0.640385 0.170727 0.0880705 0.0521434 0.0392811 0.00712287 0.0012283 0 0 0.00104195 
907 0.137248 0.295683 0.234676 0.260431 0.0104322 0.0307602 0.0307693 0 0 0 
908 0.273703 0.178417 0.201403 0.177484 0.0852713 0.0277946 0.025514 0.0304123 0 0 
909 0.299915 0.19799 0.210509 0.180105 0.0770233 0.0108409 0.0159536 0.00455708 0.0031061 0 
910 0.595113 0.17257 0.127813 0.0593064 0.0364753 0.00661409 0.00114056 0 0 0.000967525 
911 0.337389 0.196969 0.131746 0.220555 0.0734653 0.0100771 0.0106506 0.00858938 0.00513973 0.00541922 
912 0.36971 0.0851011 0.187665 0.181279 0.117668 0.0113904 0.0299706 0.0131194 0.00409565 0 
913 0.0275464 0.379837 0.0534137 0.312911 0.0930405 0.0830287 0.023287 0 0.0269361 0 
914 0.631037 0.196265 0.0734082 0.0513533 0.0386859 0.00701494 0.00120969 0 0 0.00102616 
915 0.559879 0.245786 0.0328318 0.114932 0.0191605 0.0202206 0.00450064 0.0026896 0 0 
916 0.541872 0.251834 0.0348522 0.122004 0.0203396 0.021465 0.00477761 0.00285511 0 0 
917 0.310522 0.201209 0.216253 0.162266 0.0758153 0.0106767 0.0157118 0.00448804 0.00305904 0 
918 0.358062 0.0813645 0.20305 0.181279 0.117668 0.0113904 0.0299706 0.0131194 0.00409565 0 
919 0.305739 0.155847 0.192523 0.184354 0.0815093 0.0265684 0.0243884 0.0290705 0 0 
920 0.358062 0.0813645 0.200755 0.183574 0.117668 0.0113904 0.0299706 0.0131194 0.00409565 0 
921 0.342243 0.206015 0.123873 0.218056 0.0711276 0.00977631 0.0103327 0.00833298 0.00498631 0.00525746 
922 0.52567 0.159275 0.161131 0.068849 0.0614353 0.0106254 0.00829361 0.00146688 0 0.00325406 
923 0.348424 0.208128 0.125757 0.206214 0.0722052 0.00992443 0.0104892 0.00845923 0.00506186 0.00533712 
924 0.640385 0.170727 0.0726861 0.052156 0.054653 0.00712287 0.0012283 0 0 0.00104195 
925 0.530286 0.165197 0.16361 0.0698997 0.0470049 0.0107884 0.0084212 0.00148945 0 0.00330412 
926 0.911007 0.0741634 0.0096631 0.00339272 1.97549e-06 0.00177215 0 0 0 0 
927 0.299915 0.19799 0.210509 0.168748 0.0883798 0.0108409 0.0159536 0.00455708 0.0031061 0 
928 0.211531 0.249429 0.190081 0.0489626 0.247003 0.0201722 0 0.0328205 0 0 
929 0.53988 0.256951 0.0343241 0.120156 0.0200314 0.0211397 0.00470522 0.00281185 0 0 
930 0.330801 0.203961 0.201222 0.157493 0.0735855 0.0103627 0.0152497 0.00435604 0.00296907 0 
931 0.295383 0.158168 0.210316 0.172186 0.0827259 0.0269649 0.0247524 0.0295044 0 0 
932 0.337389 0.196969 0.127679 0.209996 0.0880909 0.0100773 0.0106506 0.00858938 0.00513973 0.00541922 
933 0.530956 0.172891 0.159451 0.0678132 0.0456017 0.0104664 0.00816983 0.00144498 0 0.00320549 
934 0.532802 0.24552 0.0348522 0.137385 0.0203437 0.021465 0.00477761 0.00285511 0 0 
935 0.923626 0.0204357 0.0146235 0.0109633 0.027115 0.00202911 0.000720082 0.00048765 0 0 
936 0.358062 0.0813645 0.187665 0.181279 0.117668 0.0113904 0.0453552 0.0131194 0.00409565 0 
937 0.305887 0.207006 0.218801 0.160193 0.0746837 0.0105173 0.0154773 0.00442105 0.00301338 0 
938 0.337389 0.196969 0.127725 0.224443 0.0735978 0.0100771 0.0106506 0.00858938 0.00513973 0.00541922 
939 0.901952 0.0838316 0.00927727 0.00324304 1.88834e-06 0.00169397 0 0 0 0 
940 0.300029 0.154874 0.204215 0.181684 0.0803302 0.0261833 0.0240349 0.0286492 0 0 
941 0.358062 0.0813645 0.187665 0.181279 0.133053 0.0113904 0.0299706 0.0131194 0.00409565 0 
942 0.21869 0.00279231 0.450313 0 0.328205 0 0 0 0 0 
943 0.510518 0.172721 0.177988 0.0688406 0.0462927 0.010625 0.00829361 0.00146688 0 0.00325406 
944 0.273703 0.178395 0.201426 0.177484 0.0852713 0.0277946 0.025514 0.0304122 0 0 
945 0.518373 0.161748 0.178972 0.0698998 0.0470049 0.0107884 0.0084212 0.00148945 0 0.00330412 
946 0.532801 0.24552 0.0348527 0.137388 0.0203396 0.021465 0.0047776 0.00285511 0 0 
947 0.3374 0.212343 0.127679 0.209386 0.0733161 0.0100771 0.0106506 0.00858938 0.00513973 0.00541922 
948 0.358062 0.0813645 0.187665 0.196652 0.117679 0.0113904 0.0299706 0.0131194 0.00409565 0 
949 0.358062 0.0813645 0.20305 0.181279 0.117668 0.0113904 0.0299706 0.0131194 0.00409565 0 
950 0.0305416 0.376841 0.0534137 0.312911 0.0930405 0.0830287 0.023287 0 0.0269361 0 
951 0.358062 0.0813645 0.187665 0.181279 0.117668 0.0113904 0.0422872 0.0161874 0.00409565 0 
952 0.53988 0.242177 0.0490946 0.12016 0.0200314 0.0211397 0.00470522 0.00281185 0 0 
953 0.534397 0.250542 0.048736 0.118364 0.0197324 0.0208242 0.00463499 0.00276989 0 0 
954 0.347428 0.193985 0.125744 0.206214 0.0846975 0.0125835 0.0104892 0.00845923 0.00506186 0.00533711 
955 0.573759 0.231906 0.0328318 0.114932 0.0191605 0.0202206 0.00450064 0.0026896 0 0 
956 0.529858 0.165625 0.16361 0.0698997 0.0470049 0.0107884 0.0084212 0.00148945 0 0.00330412 
957 0.533682 0.161801 0.16361 0.0698997 0.0470049 0.0107884 0.0084212 0.00148945 0 0.00330412 
958 0.661232 0.16083 0.0684724 0.0528961 0.047721 0.00670995 0.00115709 0 0 0.000981548 
959 0.337389 0.196969 0.127679 0.209386 0.0733161 0.0100771 0.0106506 0.00858938 0.00513974 0.0208038 
960 0.299915 0.19799 0.21051 0.18014 0.0769867 0.0108409 0.0159536 0.00455708 0.0031061 0 
961 0.337389 0.196969 0.130253 0.222197 0.0733161 0.0100771 0.0106506 0.00858938 0.00513973 0.00541922 
962 0.539862 0.241818 0.0343254 0.135306 0.0200314 0.0211397 0.00470522 0.00281185 0 0 
963 0.532801 0.248844 0.046913 0.122004 0.0203396 0.021465 0.0047776 0.00285511 0 0 
964 0.934305 0.0216987 0.0155234 0.0116339 0.0134031 0.00215398 0.000764394 0.00051766 0 0 
965 0.347393 0.19402 0.125744 0.221365 0.0722053 0.00992444 0.0104892 0.00845924 0.00506186 0.00533712 
966 0.347428 0.194422 0.140459 0.206214 0.0722052 0.00992443 0.0104892 0.00845923 0.00506186 0.00533712 
967 0.525661 0.174436 0.161131 0.0688406 0.0462927 0.010625 0.00829361 0.00146688 0 0.00325406 
968 0.518373 0.161725 0.16361 0.0699091 0.0590551 0.0141134 0.0084212 0.00148945 0 0.00330412 
969 0.299915 0.19799 0.225893 0.164762 0.0769817 0.0108409 0.0159536 0.00455708 0.0031061 0 
970 0.651672 0.174824 0.0726861 0.0521433 0.0392811 0.00712287 0.0012283 0 0 0.00104195 
971 0.299915 0.19799 0.210509 0.180147 0.0769817 0.0108409 0.0159536 0.00455708 0.0031061 0 
972 0.358062 0.0813645 0.187665 0.196663 0.117668 0.0113904 0.0299706 0.0131194 0.00409565 0 
973 0.250456 0.110718 0.278243 0.186826 0 0.115837 0 0 0.0579186 0 
974 0.358062 0.0813645 0.187665 0.181279 0.117668 0.0113904 0.0300425 0.0284322 0.00409565 0 
975 0.586122 0.225017 0.0319069 0.111694 0.0186207 0.019651 0.00437386 0.00261384 0 0 
976 0.657661 0.164401 0.0827813 0.0493043 0.0370039 0.00670995 0.00115709 0 0 0.000981548 
977 0.529922 0.17462 0.158756 0.0678132 0.0456017 0.0104664 0.00816983 0.00144499 0 0.00320549 
978 0.299915 0.198 0.224634 0.166012 0.0769817 0.0108409 0.0159536 0.00455708 0.0031061 0 
979 0.358062 0.0813645 0.188915 0.195413 0.117668 0.0113904 0.0299706 0.0131194 0.00409565 0 
980 0.530429 0.159234 0.173636 0.0678132 0.0456017 0.0104664 0.00816983 0.00144499 0 0.00320549 
981 0.535194 0.258512 0.0348522 0.122004 0.0203396 0.021465 0.00477761 0.00285511 0 0 
982 0.358062 0.0813645 0.20305 0.181279 0.117668 0.0113904 0.0299706 0.0131194 0.00409565 0 
983 0.640385 0.186112 0.0726861 0.0521433 0.0392811 0.00712287 0.0012283 0 0 0.00104195 
984 0.299915 0.213375 0.210509 0.164762 0.0769817 0.0108409 0.0159536 0.00455708 0.0031061 0 
985 0.518373 0.162064 0.178655 0.0698997 0.0470049 0.0107884 0.00842121 0.00148945 0 0.00330412 
986 0.273703 0.163034 0.216787 0.177484 0.0852713 0.0277946 0.025514 0.0304122 0 0 
987 0.349329 0.207235 0.125744 0.206214 0.0722052 0.00992443 0.0104892 0.00845923 0.00506186 0.00533712 
988 0.53988 0.2418 0.0475745 0.122057 0.0200314 0.0211397 0.00470522 0.00281185 0 0 
989 0.518373 0.161725 0.178994 0.0698997 0.0470049 0.0107884 0.0084212 0.00148945 0 0.00330412 
990 0.510518 0.189578 0.161131 0.0688406 0.0462927 0.010625 0.00829361 0.00146688 0 0.00325406 
991 0.358062 0.0813645 0.20305 0.181279 0.117668 0.0113904 0.0299706 0.0131194 0.00409565 0 
992 0.358062 0.0813645 0.187665 0.196663 0.117668 0.0113904 0.0299706 0.0131194 0.00409565 0 
993 0.533229 0.171344 0.158726 0.0678132 0.0456017 0.0104664 0.00816983 0.00144498 0 0.00320549 
994 0.532802 0.260905 0.0348522 0.122004 0.0203396 0.021465 0.00477761 0.00285511 0 0 
995 0.640385 0.170727 0.0726861 0.0521433 0.0546657 0.00712287 0.0012283 0 0 0.00104195 
996 0.346815 0.194598 0.125744 0.206214 0.0722052 0.00992443 0.0111021 0.0229979 0.00506187 0.00533712 
997 0.645833 0.16814 0.0867216 0.0513679 0.0386859 0.00701495 0.00120969 0 0 0.00102616 
998 0.299915 0.213375 0.210509 0.164762 0.0769817 0.0108409 0.0159536 0.00455708 0.0031061 0 
999 0.525666 0.159278 0.161134 0.083989 0.0462927 0.010625 0.00829361 0.00146688 0 0.00325406 
1000 0.539874 0.256958 0.0343241 0.120156 0.0200314 0.0211397 0.00470522 0.00281185 0 0 
1001 0.644121 0.182376 0.0726861 0.0521433 0.0392811 0.00712287 0.0012283 0 0 0.00104195 
1002 0.299915 0.19799 0.222158 0.168497 0.0769817 0.0108409 0.0159536 0.00455708 0.0031061 0 
1003 0.532802 0.260905 0.0348522 0.122004 0.0203396 0.021465 0.00477761 0.00285511 0 0 
1004 0.269556 0.175689 0.213528 0.174795 0.0839793 0.0273735 0.0251274 0.0299515 0 0 
1005 0.560784 0.152352 0.154125 0.0658476 0.0442799 0.010163 0.00793302 0.0014031 0 0.00311258 
1006 0.651378 0.179229 0.0715849 0.0505868 0.0381085 0.00691024 0.00119163 0 0 0.00101085 
1007 0.53988 0.2418 0.0343241 0.135307 0.0200314 0.0211397 0.00470522 0.00281185 0 0 
1008 0.518373 0.161725 0.178994 0.0698997 0.0470049 0.0107884 0.0084212 0.00148945 0 0.00330412 
1009 0.337389 0.196969 0.127679 0.224771 0.0733161 0.0100771 0.0106506 0.00858938 0.00513973 0.00541922 
1010 0.369331 0.093741 0.184822 0.178532 0.115885 0.0112179 0.0295165 0.0129207 0.0040336 0 
1011 0.337389 0.196969 0.127679 0.224771 0.0733161 0.0100771 0.0106506 0.00858938 0.00513973 0.00541922 
1012 0.211531 0.248254 0.175874 0.04896 0.262388 0.0201723 0 0.0328205 0 0 
1013 0.651119 0.165799 0.08518 0.0506801 0.0381085 0.00691024 0.00119163 0 0 0.00101085 
1014 0.651119 0.180556 0.0705163 0.0505868 0.0381085 0.00691024 0.00119163 0 0 0.00101085 
1015 0.532801 0.24552 0.0348522 0.122281 0.0354432 0.0214698 0.0047776 0.00285511 0 0 
1016 0.373436 0.0813757 0.187665 0.181279 0.117668 0.0113904 0.0299706 0.0131194 0.00409565 0 
1017 0.373437 0.0813743 0.187665 0.181279 0.117668 0.0113904 0.0299706 0.0131194 0.00409565 0 
1018 0.358062 0.0813645 0.187665 0.181279 0.117668 0.0113904 0.0299869 0.0284876 0.00409576 0 
1019 0.52567 0.159275 0.161131 0.0839921 0.0462927 0.010625 0.00829361 0.00146688 0 0.00325406 
1020 0.358062 0.0813645 0.20305 0.181279 0.117668 0.0113904 0.0299706 0.0131194 0.00409565 0 
1021 0.337389 0.196969 0.127679 0.224752 0.0733347 0.0100771 0.0106506 0.00858938 0.00513973 0.00541922 
1022 0.533526 0.26018 0.0348522 0.122004 0.0203396 0.021465 0.00477761 0.00285511 0 0 
1023 0.273703 0.163034 0.201404 0.192867 0.0852713 0.0277946 0.025514 0.0304122 0 0 
1024 0.518373 0.161725 0.16361 0.0698997 0.0470049 0.026173 0.0084212 0.00148945 0 0.00330412 
1025 0.343643 0.214657 0.128752 0.203136 0.0711275 0.00977631 0.0103327 0.00833298 0.00498631 0.00525746 
1026 0.337389 0.196969 0.127679 0.224771 0.0733162 0.0100771 0.0106506 0.00858938 0.00513973 0.00541922 
1027 0.367789 0.082281 0.197783 0.178573 0.115885 0.0112179 0.0295165 0.0129207 0.0040336 0 
1028 0.358062 0.0813645 0.187672 0.196656 0.117669 0.0113904 0.0299706 0.0131194 0.00409565 0 
1029 0.358062 0.0816068 0.2028 0.181286 0.117668 0.0113904 0.0299706 0.0131194 0.00409565 0 
1030 0.518373 0.161725 0.178907 0.069987 0.0470049 0.0107884 0.0084212 0.00148945 0 0.00330412 
1031 0.920155 0.0365156 0.0152882 0.0114576 0.0132001 0.00212135 0.000752812 0.000509816 0 0 
1032 0.337389 0.196969 0.130748 0.221702 0.0733161 0.0100771 0.0106506 0.00858938 0.00513973 0.00541922 
1033 0.350892 0.19885 0.127679 0.209386 0.0733161 0.0100771 0.0106506 0.00858938 0.00513973 0.00541922 
1034 0.370377 0.0844341 0.187665 0.181279 0.117668 0.0113904 0.0299706 0.0131194 0.00409565 0 
1035 0.211531 0.248254 0.175874 0.0508413 0.260506 0.0201722 0 0.0328205 0 0 
1036 0.640409 0.184578 0.0741953 0.0521433 0.0392811 0.00712287 0.0012283 0 0 0.00104195 
1037 0.5343 0.259379 0.0348788 0.122004 0.0203396 0.021465 0.00477761 0.00285511 0 0 
1038 0.376617 0.0795659 0.196966 0.175868 0.114156 0.0110504 0.029076 0.0127278 0.00397339 0 
1039 0.358062 0.0819911 0.199023 0.184679 0.117668 0.0113904 0.0299706 0.0131194 0.00409565 0 
1040 0.310522 0.19808 0.219381 0.162266 0.0758153 0.0106767 0.0157118 0.00448804 0.00305904 0 
1041 0.53988 0.2418 0.0343241 0.135307 0.0200314 0.0211397 0.00470522 0.00281185 0 0 
1042 0.358063 0.0967488 0.187665 0.181279 0.117668 0.0113904 0.0299706 0.0131194 0.00409565 0 
1043 0.518373 0.161727 0.178972 0.0699202 0.0470049 0.0107884 0.0084212 0.00148945 0 0.00330412 
1044 0.273703 0.163034 0.201403 0.178072 0.100068 0.0277946 0.025514 0.0304122 0 0 
1045 0.518373 0.163257 0.176874 0.070488 0.0470049 0.0107884 0.0084212 0.00148945 0 0.00330412 
1046 0.299915 0.19799 0.210512 0.18013 0.0769952 0.0108409 0.0159536 0.00455708 0.0031061 0 
1047 0.337389 0.196969 0.127679 0.209455 0.0886318 0.0100771 0.0106506 0.00858938 0.00513973 0.00541922 
1048 0.337389 0.196969 0.129167 0.223275 0.0733242 0.0100771 0.0106506 0.00858938 0.00513973 0.00541922 
1049 0.337389 0.196969 0.127679 0.224771 0.0733161 0.0100771 0.0106506 0.00858938 0.00513973 0.00541922 
1050 0.352773 0.19697 0.127679 0.209386 0.0733161 0.0100771 0.0106506 0.00858938 0.00513973 0.00541922 
1051 0.935305 0.0213649 0.0152882 0.0114576 0.0132001 0.00212135 0.000752812 0.000509816 0 0 
1052 0.0280647 0.370201 0.0542354 0.317725 0.0944719 0.0843061 0.0236453 0 0.0273505 0 
1053 0.532801 0.24552 0.0348522 0.137389 0.0203396 0.021465 0.0047776 0.00285511 0 0 
1054 0.351916 0.217691 0.122046 0.200149 0.0700815 0.00963254 0.0101807 0.00821043 0.00491298 0.00518014 
1055 0.337389 0.196969 0.143064 0.209386 0.0733161 0.0100771 0.0106506 0.00858938 0.00513973 0.00541922 
1056 0.652234 0.174262 0.0726861 0.0521433 0.0392811 0.00712287 0.0012283 0 0 0.00104195 
1057 0.548182 0.245524 0.0348522 0.122004 0.0203396 0.021465 0.00477761 0.00285511 0 0 
1058 0.550275 0.158642 0.156392 0.0668159 0.0449311 0.0103125 0.00804968 0.00142374 0 0.00315835 
1059 0.662751 0.166724 0.0662139 0.0603682 0.0354621 0.00643037 0.00110888 0 0 0.00094065 
1060 0.52567 0.159275 0.161131 0.0688406 0.0462927 0.0257765 0.00829361 0.00146688 0 0.00325406 
1061 0.211531 0.248254 0.177771 0.0624476 0.247003 0.0201722 0 0.0328205 0 0 
1062 0.211531 0.248254 0.175874 0.0492035 0.262057 0.020259 0 0.0328205 0 0 
1063 0.917006 0.0396647 0.0152882 0.0114576 0.0132001 0.00212135 0.000752812 0.000509816 0 0 
1064 0.560624 0.250515 0.0319072 0.111694 0.0186207 0.019651 0.00437386 0.00261384 0 0 
1065 0.373444 0.0813674 0.187665 0.181279 0.117668 0.0113904 0.0299706 0.0131194 0.00409565 0 
1066 0.921346 0.0210457 0.01506 0.0112898 0.0279253 0.00208968 0.000741576 0.000502207 0 0 
1067 0.918926 0.0216933 0.0155234 0.0116339 0.0134031 0.00215437 0.0161486 0.00051766 0 0 
1068 0.636194 0.165631 0.0705384 0.0804154 0.0381085 0.00691024 0.00119163 0 0 0.00101085 
1069 0.357164 0.191591 0.134603 0.206828 0.0711275 0.00977631 0.0103327 0.00833298 0.00498631 0.00525746 
1070 0.299915 0.19799 0.210509 0.178546 0.078582 0.0108409 0.0159536 0.00455708 0.0031061 0 
1071 0.641985 0.184511 0.0726861 0.0521433 0.0392811 0.00712287 0.0012283 0 0 0.00104195 
1072 0.315249 0.19804 0.210509 0.164762 0.0769817 0.0108409 0.0159536 0.00455708 0.0031061 0 
1073 0.299915 0.198055 0.225828 0.164762 0.0769817 0.0108409 0.0159536 0.00455708 0.0031061 0 
1074 0.518373 0.161725 0.163619 0.0811656 0.0511137 0.0107884 0.0084212 0.00148945 0 0.00330412 
1075 0.358062 0.0813645 0.187665 0.196663 0.117668 0.0113904 0.0299706 0.0131194 0.00409565 0 
1076 0.926565 0.0319894 0.0146235 0.0109595 0.0126262 0.00202911 0.000720082 0.00048765 0 0 
1077 0.518373 0.161725 0.16361 0.0852843 0.0470049 0.0107884 0.0084212 0.00148945 0 0.00330412 
1078 0.520056 0.174864 0.164173 0.0698997 0.0470049 0.0107884 0.0084212 0.00148945 0 0.00330412 
1079 0.273703 0.163034 0.201403 0.192869 0.0852713 0.0277946 0.025514 0.0304122 0 0 
1080 0.652645 0.179019 0.0705278 0.0505868 0.0381085 0.00691024 0.00119163 0 0 0.00101085 
1081 0.337389 0.196969 0.127679 0.209386 0.0887005 0.0100771 0.0106506 0.00858938 0.00513973 0.00541922 
1082 0.337389 0.196969 0.136841 0.215609 0.0733161 0.0100771 0.0106506 0.00858938 0.00513973 0.00541922 
1083 0.223491 0.259172 0.173668 0.0482182 0.24326 0.0198666 0 0.0323233 0 0 
1084 0.518373 0.161725 0.163617 0.0852765 0.0470049 0.0107884 0.0084212 0.00148945 0 0.00330412 
1085 0.920154 0.0213648 0.0152882 0.0114658 0.0283434 0.00212135 0.000752812 0.000509816 0 0 
1086 0.645833 0.168467 0.0864096 0.0513533 0.0386859 0.00701495 0.00120969 0 0 0.00102616 
1087 0.337389 0.196969 0.127679 0.209386 0.0733161 0.0100771 0.0260352 0.00858941 0.00513973 0.00541922 
1088 0.546681 0.247025 0.0348522 0.122004 0.0203396 0.021465 0.00477761 0.00285511 0 0 
1089 0.358062 0.0827918 0.201622 0.181279 0.117668 0.0113904 0.0299706 0.0131194 0.00409565 0 
1090 0.358062 0.0813645 0.187665 0.196663 0.117668 0.0113904 0.0299706 0.0131194 0.00409565 0 
1091 0.137248 0.295683 0.219297 0.272586 0.0136562 0.0307602 0.0307693 0 0 0 
1092 0.532802 0.24552 0.0348541 0.137387 0.0203396 0.021465 0.00477761 0.00285511 0 0 
1093 0.518373 0.161725 0.178994 0.0698997 0.0470049 0.0107884 0.0084212 0.00148945 0 0.00330412 
1094 0.358062 0.0813645 0.187665 0.181282 0.13305 0.0113904 0.0299706 0.0131194 0.00409565 0 
