1 1 4 100 0.199937
2 1 4 100 4.79349e-05
4 1 4 100 0.800015
0 2 4 100 0.0980002
1 2 4 100 0.301738
2 2 4 100 0.000112183
3 2 4 100 0.000709993
4 2 4 100 0.59944
2 3 4 100 0.2
4 3 4 100 0.8
2 4 4 100 0.5
4 4 4 100 0.5
2 5 4 100 1
4 1 5 100 0.277144
5 1 5 100 0.722856
0 2 5 100 0.375984
1 2 5 100 2.32618e-05
3 2 5 100 0.035826
5 2 5 100 0.588167
0 3 5 100 0.0140935
3 3 5 100 1.7689e-05
4 3 5 100 0.25
5 3 5 100 0.735889
4 4 5 100 0.333333
5 4 5 100 0.666667
4 5 5 100 0.999973
5 5 5 100 2.71039e-05
1 1 6 100 0.221957
2 1 6 100 8.73309e-06
3 1 6 100 0.111259
4 1 6 100 0.311412
6 1 6 100 0.355363
0 2 6 100 0.0761273
1 2 6 100 5.07662e-06
2 2 6 100 0.113111
3 2 6 100 0.146255
4 2 6 100 0.208897
6 2 6 100 0.455604
0 3 6 100 0.112056
2 3 6 100 0.111139
3 3 6 100 0.0963464
4 3 6 100 0.111113
5 3 6 100 0.0147648
6 3 6 100 0.554581
0 4 6 100 0.00475632
2 4 6 100 0.106355
3 4 6 100 0.0020954
4 4 6 100 0.11967
6 4 6 100 0.767124
0 5 6 100 0.124913
1 5 6 100 0.00023497
3 5 6 100 0.249765
5 5 6 100 8.6861e-05
6 5 6 100 0.625
2 6 6 100 5.63545e-06
3 6 6 100 0.237255
6 6 6 100 0.762739
6 7 6 100 1
1 1 7 100 0.166667
2 1 7 100 0.0833308
3 1 7 100 0.000156787
4 1 7 100 0.113227
5 1 7 100 0.0831718
7 1 7 100 0.553447
0 2 7 100 0.119479
1 2 7 100 0.127486
2 2 7 100 0.00431616
3 2 7 100 0.146664
4 2 7 100 0.030976
5 2 7 100 0.0845096
7 2 7 100 0.486569
0 3 7 100 0.248372
1 3 7 100 0.0833335
2 3 7 100 0.000114148
3 3 7 100 0.0833334
4 3 7 100 0.00151362
5 3 7 100 0.0650423
6 3 7 100 0.0188513
7 3 7 100 0.49944
0 4 7 100 0.261557
1 4 7 100 0.0054794
2 4 7 100 1.66188e-06
3 4 7 100 0.0907222
4 4 7 100 0.0508621
5 4 7 100 0.0512724
6 4 7 100 0.0909092
7 4 7 100 0.449196
0 5 7 100 0.102638
5 5 7 100 0.199675
7 5 7 100 0.697687
0 6 7 100 0.111047
1 6 7 100 5.70421e-06
4 6 7 100 2.29224e-05
6 6 7 100 0.111152
7 6 7 100 0.777772
5 7 7 100 0.166667
7 7 7 100 0.833333
5 8 7 100 0.333333
7 8 7 100 0.666667
7 9 7 100 1
7 10 7 100 1
1 1 8 100 0.481796
2 1 8 100 0.268204
8 1 8 100 0.25
0 2 8 100 0.232438
1 2 8 100 0.230448
2 2 8 100 0.132293
3 2 8 100 0.0372561
4 2 8 100 0.0544541
5 2 8 100 0.0296909
6 2 8 100 0.000153009
7 2 8 100 0.0334202
8 2 8 100 0.249847
0 3 8 100 0.25
3 3 8 100 0.0350437
4 3 8 100 3.42091e-05
5 3 8 100 0.215811
7 3 8 100 0.125
8 3 8 100 0.374111
2 4 8 100 0.0766366
3 4 8 100 0.0347626
4 4 8 100 0.138267
5 4 8 100 0.125
7 4 8 100 0.125333
8 4 8 100 0.5
5 5 8 100 0.142851
6 5 8 100 1.78696e-05
7 5 8 100 0.285714
8 5 8 100 0.571416
0 6 8 100 0.00209857
6 6 8 100 2.36173e-06
7 6 8 100 0.256552
8 6 8 100 0.741347
7 7 8 100 0.250396
8 7 8 100 0.749603
8 8 8 100 1
0 1 9 100 8.25016e-06
1 1 9 100 0.124958
2 1 9 100 0.25
3 1 9 100 0.0423259
5 1 9 100 0.00449147
7 1 9 100 0.1544
9 1 9 100 0.423817
0 2 9 100 0.25625
1 2 9 100 0.20413
2 2 9 100 0.0593332
3 2 9 100 0.000494502
4 2 9 100 3.0062e-05
5 2 9 100 0.229903
6 2 9 100 7.45019e-06
8 2 9 100 6.21388e-05
9 2 9 100 0.24979
0 3 9 100 0.00132827
1 3 9 100 0.125
2 3 9 100 0.124944
3 3 9 100 0.0344995
4 3 9 100 2.92739e-06
5 3 9 100 0.125239
7 3 9 100 3.39758e-05
8 3 9 100 0.123654
9 3 9 100 0.465297
1 4 9 100 0.125
2 4 9 100 0.125
4 4 9 100 0.125
5 4 9 100 0.125
7 4 9 100 2.34854e-06
9 4 9 100 0.499998
0 5 9 100 0.249993
1 5 9 100 0.12407
2 5 9 100 0.125
4 5 9 100 0.125
5 5 9 100 0.000112713
6 5 9 100 0.000816937
7 5 9 100 6.8475e-06
9 5 9 100 0.375
0 6 9 100 0.00239352
4 6 9 100 0.128095
5 6 9 100 0.119358
6 6 9 100 0.0335588
7 6 9 100 0.0914579
8 6 9 100 0.000135884
9 6 9 100 0.625
0 7 9 100 0.281708
6 7 9 100 0.00543995
7 7 9 100 0.25
9 7 9 100 0.462852
6 8 9 100 5.88385e-06
7 8 9 100 0.428146
9 8 9 100 0.571848
7 9 9 100 0.333333
9 9 9 100 0.666667
0 10 9 100 0.999975
6 10 9 100 2.48075e-05
9 11 9 100 1
0 1 10 100 3.23016e-06
1 1 10 100 0.250042
2 1 10 100 0.00242056
3 1 10 100 0.00626466
4 1 10 100 0.0829382
5 1 10 100 0.161357
6 1 10 100 0.118933
10 1 10 100 0.378041
0 2 10 100 0.12259
1 2 10 100 0.188786
2 2 10 100 0.000781904
3 2 10 100 0.0993587
4 2 10 100 0.00211407
5 2 10 100 0.312621
6 2 10 100 0.106141
8 2 10 100 2.54005e-05
9 2 10 100 0.0227671
10 2 10 100 0.144815
0 3 10 100 0.166514
3 3 10 100 0.0833334
5 3 10 100 0.273379
6 3 10 100 0.145797
7 3 10 100 0.0809527
8 3 10 100 1.80651e-06
9 3 10 100 0.0833572
10 3 10 100 0.166665
0 4 10 100 0.154811
1 4 10 100 0.0751927
2 4 10 100 0.00734175
3 4 10 100 0.0830855
4 4 10 100 0.000470129
5 4 10 100 0.000273383
6 4 10 100 0.31805
7 4 10 100 0.0863855
8 4 10 100 1.06632e-05
9 4 10 100 0.0848404
10 4 10 100 0.18954
0 5 10 100 0.24171
2 5 10 100 2.95271e-05
3 5 10 100 0.000548478
4 5 10 100 0.157779
6 5 10 100 0.000448604
7 5 10 100 0.20948
8 5 10 100 0.0548649
9 5 10 100 0.086326
10 5 10 100 0.248814
4 6 10 100 0.0833466
5 6 10 100 0.083333
6 6 10 100 0.000863311
7 6 10 100 0.166624
8 6 10 100 0.0833334
9 6 10 100 0.08247
10 6 10 100 0.50003
0 7 10 100 1.84887e-06
2 7 10 100 0.0778799
4 7 10 100 0.1
5 7 10 100 0.0999484
6 7 10 100 0.0221201
8 7 10 100 0.100052
9 7 10 100 5.88797e-06
10 7 10 100 0.599992
0 8 10 100 0.166663
3 8 10 100 0.126078
4 8 10 100 0.20535
5 8 10 100 0.00190853
7 8 10 100 0.145531
8 8 10 100 0.0211355
10 8 10 100 0.333333
5 9 10 100 0.25
6 9 10 100 0.25
10 9 10 100 0.5
5 10 10 100 0.333333
6 10 10 100 0.265367
10 10 10 100 0.401299
10 11 10 100 1
10 12 10 100 1
0 1 11 100 4.53959e-05
1 1 11 100 0.00990664
2 1 11 100 0.428568
3 1 11 100 0.142857
9 1 11 100 0.418609
11 1 11 100 1.36028e-05
1 2 11 100 1.57425e-05
2 2 11 100 0.284528
3 2 11 100 0.144105
4 2 11 100 0.00117105
5 2 11 100 0.000108976
6 2 11 100 0.142841
7 2 11 100 0.000357718
9 2 11 100 0.340012
11 2 11 100 0.0868608
0 3 11 100 0.142734
2 3 11 100 0.140926
4 3 11 100 0.138049
5 3 11 100 0.00673971
6 3 11 100 0.14288
7 3 11 100 9.97879e-05
9 3 11 100 0.285084
10 3 11 100 0.000630421
11 3 11 100 0.142857
3 4 11 100 0.1484
4 4 11 100 0.132624
5 4 11 100 0.137315
6 4 11 100 0.142857
9 4 11 100 0.000970622
10 4 11 100 0.294976
11 4 11 100 0.142857
0 5 11 100 0.285714
3 5 11 100 0.142857
5 5 11 100 0.142857
6 5 11 100 0.142653
7 5 11 100 0.000203823
10 5 11 100 0.142857
11 5 11 100 0.142857
0 6 11 100 0.141212
2 6 11 100 3.57806e-05
3 6 11 100 0.142857
4 6 11 100 0.000751469
6 6 11 100 0.00160936
7 6 11 100 0.142857
8 6 11 100 0.000143774
10 6 11 100 0.427676
11 6 11 100 0.142857
3 7 11 100 0.142857
7 7 11 100 0.142857
8 7 11 100 0.142857
10 7 11 100 0.285807
11 7 11 100 0.285622
3 8 11 100 0.166667
5 8 11 100 1.26583e-05
7 8 11 100 0.166667
9 8 11 100 0.0352255
11 8 11 100 0.631428
7 9 11 100 0.0756984
9 9 11 100 0.174224
11 9 11 100 0.750078
11 10 11 100 1
11 11 11 100 1
0 1 12 100 0.00029385
1 1 12 100 0.193292
2 1 12 100 0.139516
3 1 12 100 0.105072
4 1 12 100 0.120831
7 1 12 100 3.77384e-06
9 1 12 100 0.0137227
12 1 12 100 0.427269
0 2 12 100 0.106168
1 2 12 100 0.207825
2 2 12 100 0.056244
3 2 12 100 0.157988
4 2 12 100 0.208613
6 2 12 100 0.000117471
9 2 12 100 0.0507929
12 2 12 100 0.212252
0 3 12 100 0.00405382
1 3 12 100 0.0443103
2 3 12 100 0.108252
3 3 12 100 0.0598016
4 3 12 100 0.368713
5 3 12 100 0.0619741
7 3 12 100 0.0282177
8 3 12 100 0.0660202
10 3 12 100 0.00150925
11 3 12 100 0.0537196
12 3 12 100 0.203429
0 4 12 100 0.092556
2 4 12 100 0.126635
3 4 12 100 9.25323e-05
4 4 12 100 0.211118
5 4 12 100 0.0836446
6 4 12 100 0.0636254
7 4 12 100 0.0515108
9 4 12 100 0.0764712
11 4 12 100 0.136523
12 4 12 100 0.157824
0 5 12 100 0.0762998
2 5 12 100 0.0502049
3 5 12 100 0.00268779
4 5 12 100 0.101516
5 5 12 100 0.105263
6 5 12 100 0.0179667
7 5 12 100 0.172378
8 5 12 100 0.0526316
9 5 12 100 0.0536738
10 5 12 100 0.104221
11 5 12 100 0.157895
12 5 12 100 0.105263
0 6 12 100 0.104678
2 6 12 100 0.0526316
4 6 12 100 0.0927774
5 6 12 100 0.0526316
6 6 12 100 0.0526315
7 6 12 100 0.105263
8 6 12 100 0.118947
9 6 12 100 0.00017363
10 6 12 100 0.105263
11 6 12 100 0.157429
12 6 12 100 0.157573
0 7 12 100 0.133596
2 7 12 100 0.0043096
3 7 12 100 3.30835e-06
4 7 12 100 0.000108739
5 7 12 100 0.00398033
6 7 12 100 0.0526316
7 7 12 100 0.147825
8 7 12 100 0.115314
9 7 12 100 0.116166
10 7 12 100 0.126889
11 7 12 100 0.141282
12 7 12 100 0.157895
0 8 12 100 0.0576636
3 8 12 100 0.0117897
5 8 12 100 0.0470172
6 8 12 100 0.0588222
7 8 12 100 0.0588297
8 8 12 100 0.118807
9 8 12 100 0.0588236
10 8 12 100 0.176472
11 8 12 100 0.235251
12 8 12 100 0.176524
0 9 12 100 0.205699
7 9 12 100 0.0522256
9 9 12 100 0.133333
10 9 12 100 0.256174
11 9 12 100 0.0714389
12 9 12 100 0.281129
0 10 12 100 0.0714281
10 10 12 100 0.214315
11 10 12 100 0.214279
12 10 12 100 0.499978
0 11 12 100 0.125002
11 11 12 100 0.249957
12 11 12 100 0.625041
0 12 12 100 0.249993
6 12 12 100 6.37689e-06
11 12 12 100 0.5
12 12 12 100 0.25
11 13 12 100 0.333333
12 13 12 100 0.666667
12 14 12 100 1
12 15 12 100 1
1 1 13 100 0.714285
3 1 13 100 0.142855
12 1 13 100 0.142857
13 1 13 100 2.26904e-06
1 2 13 100 0.290982
2 2 13 100 0.137687
3 2 13 100 0.426079
9 2 13 100 0.00239576
12 2 13 100 0.142857
0 3 13 100 0.153293
1 3 13 100 0.131657
2 3 13 100 0.142857
3 3 13 100 0.142857
4 3 13 100 0.142952
5 3 13 100 0.000651487
9 3 13 100 0.142386
11 3 13 100 1.80098e-05
12 3 13 100 0.143328
0 4 13 100 0.0334732
2 4 13 100 0.231933
3 4 13 100 0.298358
4 4 13 100 0.142857
5 4 13 100 0.00766404
7 4 13 100 2.90064e-06
9 4 13 100 0.000318965
10 4 13 100 2.71745e-05
12 4 13 100 0.285365
2 5 13 100 0.00124973
3 5 13 100 0.28083
4 5 13 100 0.142857
5 5 13 100 0.284465
6 5 13 100 4.44591e-05
7 5 13 100 0.00488403
12 5 13 100 0.142813
13 5 13 100 0.142857
0 6 13 100 0.28449
5 6 13 100 0.285589
7 6 13 100 0.142857
8 6 13 100 0.000125413
12 6 13 100 0.144081
13 6 13 100 0.142857
0 7 13 100 0.142854
5 7 13 100 0.285319
6 7 13 100 0.142857
7 7 13 100 0.135124
9 7 13 100 0.00811222
10 7 13 100 1.58214e-05
11 7 13 100 2.74038e-06
13 7 13 100 0.285714
5 8 13 100 0.142728
7 8 13 100 0.000131698
8 8 13 100 0.142873
9 8 13 100 0.121983
10 8 13 100 0.306569
11 8 13 100 3.61064e-06
13 8 13 100 0.285711
7 9 13 100 0.158475
8 9 13 100 0.166667
9 9 13 100 3.53503e-05
10 9 13 100 0.333334
11 9 13 100 0.00818575
12 9 13 100 0.0120347
13 9 13 100 0.321268
0 10 13 100 0.166332
6 10 13 100 7.71857e-06
8 10 13 100 0.166667
10 10 13 100 0.179039
11 10 13 100 0.154301
12 10 13 100 6.83408e-05
13 10 13 100 0.333585
0 11 13 100 0.163194
9 11 13 100 0.2
11 11 13 100 0.23644
13 11 13 100 0.400366
9 12 13 100 0.333333
13 12 13 100 0.666667
12 13 13 100 5.77812e-06
13 13 13 100 0.999994
13 14 13 100 1
1 1 14 100 0.705885
2 1 14 100 0.117647
3 1 14 100 2.93736e-05
4 1 14 100 0.0587913
14 1 14 100 0.117647
0 2 14 100 0.0652903
1 2 14 100 0.408182
2 2 14 100 0.154769
3 2 14 100 0.0112809
4 2 14 100 0.066287
5 2 14 100 0.0588422
6 2 14 100 0.0588245
7 2 14 100 3.7538e-05
8 2 14 100 0.0588392
9 2 14 100 0.00307135
10 2 14 100 0.00102991
14 2 14 100 0.113546
0 3 14 100 0.238639
1 3 14 100 0.185099
2 3 14 100 0.114366
3 3 14 100 0.0641384
4 3 14 100 0.126972
5 3 14 100 0.0933263
6 3 14 100 0.0592987
7 3 14 100 3.01755e-05
10 3 14 100 4.90928e-06
12 3 14 100 0.059091
13 3 14 100 0.00021057
14 3 14 100 0.0588236
0 4 14 100 0.216631
1 4 14 100 0.0588235
2 4 14 100 0.131123
3 4 14 100 0.11761
4 4 14 100 0.117697
5 4 14 100 0.00217026
6 4 14 100 0.0639951
7 4 14 100 0.0522399
8 4 14 100 0.0632954
9 4 14 100 2.33852e-06
11 4 14 100 0.058765
12 4 14 100 0.0588236
14 4 14 100 0.0588236
0 5 14 100 0.00845369
2 5 14 100 0.176472
3 5 14 100 0.110065
4 5 14 100 0.117647
5 5 14 100 0.0579698
6 5 14 100 0.0588236
7 5 14 100 0.136203
8 5 14 100 0.117628
10 5 14 100 0.0194495
11 5 14 100 0.0588236
12 5 14 100 0.0588236
13 5 14 100 0.0208172
14 5 14 100 0.0588236
0 6 14 100 0.117975
2 6 14 100 0.0591312
3 6 14 100 0.119
4 6 14 100 0.12283
5 6 14 100 0.0588382
6 6 14 100 0.0602198
7 6 14 100 0.147195
8 6 14 100 0.134349
9 6 14 100 0.0106862
10 6 14 100 0.000278659
11 6 14 100 0.00371685
12 6 14 100 0.0481322
13 6 14 100 0.0588236
14 6 14 100 0.0588236
0 7 14 100 0.0480001
2 7 14 100 0.0588235
5 7 14 100 0.0588236
7 7 14 100 0.120114
8 7 14 100 0.115182
9 7 14 100 0.0689978
10 7 14 100 0.0677919
11 7 14 100 0.176455
12 7 14 100 0.109341
14 7 14 100 0.176471
0 8 14 100 0.0572451
4 8 14 100 1.47889e-05
5 8 14 100 0.0588235
7 8 14 100 0.0762082
8 8 14 100 0.0577547
9 8 14 100 0.011805
10 8 14 100 0.166081
11 8 14 100 0.0479473
12 8 14 100 0.237335
14 8 14 100 0.286786
0 9 14 100 0.0625
6 9 14 100 0.0624938
7 9 14 100 0.053971
9 9 14 100 0.00848953
10 9 14 100 0.197949
11 9 14 100 0.114595
12 9 14 100 0.125
14 9 14 100 0.375001
0 10 14 100 0.138603
1 10 14 100 1.8139e-06
3 10 14 100 0.000151606
5 10 14 100 3.81563e-05
9 10 14 100 0.0141592
10 10 14 100 0.172682
11 10 14 100 0.0717228
12 10 14 100 0.0714579
13 10 14 100 0.000137619
14 10 14 100 0.531045
7 11 14 100 0.0769231
10 11 14 100 0.223414
11 11 14 100 6.40127e-05
12 11 14 100 0.0766536
14 11 14 100 0.622945
0 12 14 100 0.142857
7 12 14 100 0.142857
11 12 14 100 0.0761248
12 12 14 100 0.0367713
13 12 14 100 0.0165319
14 12 14 100 0.584858
8 13 14 100 0.2
14 13 14 100 0.8
9 14 14 100 0.499999
11 14 14 100 0.000172444
12 14 14 100 7.8859e-05
14 14 14 100 0.499749
0 15 14 100 0.5
14 15 14 100 0.5
9 16 14 100 1
9 17 14 100 1
9 18 14 100 1
14 19 14 100 1
14 20 14 100 1
0 1 15 100 1.29638e-06
1 1 15 100 0.285739
2 1 15 100 0.300964
4 1 15 100 4.89285e-07
5 1 15 100 0.0476176
9 1 15 100 1.55125e-06
11 1 15 100 7.09599e-06
13 1 15 100 2.45828e-06
15 1 15 100 0.365667
0 2 15 100 0.0512107
1 2 15 100 0.324023
2 2 15 100 0.226005
3 2 15 100 0.0115251
4 2 15 100 2.58632e-05
5 2 15 100 0.0855929
6 2 15 100 0.00151998
7 2 15 100 5.02094e-06
9 2 15 100 0.00885759
10 2 15 100 2.93727e-05
11 2 15 100 1.15173e-06
14 2 15 100 0.0460345
15 2 15 100 0.24517
0 3 15 100 0.235274
1 3 15 100 0.141212
2 3 15 100 0.193528
3 3 15 100 0.00411383
4 3 15 100 0.0937838
5 3 15 100 0.0889771
6 3 15 100 0.0086327
9 3 15 100 9.54197e-05
11 3 15 100 0.0453346
14 3 15 100 1.29144e-05
15 3 15 100 0.189035
0 4 15 100 0.096018
1 4 15 100 1.56395e-06
2 4 15 100 0.164498
3 4 15 100 0.0496607
4 4 15 100 0.161721
5 4 15 100 0.157587
6 4 15 100 0.00327044
7 4 15 100 7.03383e-06
8 4 15 100 0.0384646
9 4 15 100 0.0846724
10 4 15 100 0.0390904
11 4 15 100 6.75648e-07
12 4 15 100 1.92683e-05
13 4 15 100 0.0476191
14 4 15 100 0.00538339
15 4 15 100 0.151987
0 5 15 100 0.0485362
2 5 15 100 0.0509499
3 5 15 100 0.142856
4 5 15 100 0.0894318
5 5 15 100 0.13966
6 5 15 100 0.0476191
7 5 15 100 0.0557045
9 5 15 100 0.0952382
13 5 15 100 0.0476191
14 5 15 100 0.0919092
15 5 15 100 0.190476
0 6 15 100 0.28454
2 6 15 100 9.47652e-05
3 6 15 100 0.0926982
4 6 15 100 0.0393893
5 6 15 100 0.0526501
6 6 15 100 0.138917
7 6 15 100 0.104612
8 6 15 100 0.0476278
9 6 15 100 0.0477047
10 6 15 100 4.79623e-06
11 6 15 100 6.49231e-06
12 6 15 100 3.68396e-05
13 6 15 100 0.0012223
14 6 15 100 0.0476384
15 6 15 100 0.142857
0 7 15 100 0.0473274
3 7 15 100 0.0949398
5 7 15 100 0.0354056
6 7 15 100 0.0759863
7 7 15 100 0.10983
8 7 15 100 0.1283
9 7 15 100 0.107985
10 7 15 100 2.63117e-05
11 7 15 100 0.0668742
12 7 15 100 0.0169748
13 7 15 100 0.0782739
14 7 15 100 0.095224
15 7 15 100 0.142853
3 8 15 100 0.0131381
6 8 15 100 0.0942555
8 8 15 100 0.141234
9 8 15 100 0.140408
10 8 15 100 0.0604663
11 8 15 100 0.0226731
12 8 15 100 0.119797
13 8 15 100 0.0486139
14 8 15 100 0.073738
15 8 15 100 0.285676
0 9 15 100 0.0531734
6 9 15 100 0.0498062
8 9 15 100 0.0999114
9 9 15 100 0.103207
10 9 15 100 0.0595225
11 9 15 100 0.0872803
12 9 15 100 0.0961864
13 9 15 100 0.0979482
14 9 15 100 0.0529318
15 9 15 100 0.300033
0 10 15 100 0.0602145
6 10 15 100 0.0624536
7 10 15 100 1.4758e-06
8 10 15 100 0.0625025
10 10 15 100 0.124994
11 10 15 100 0.00133069
12 10 15 100 0.188667
13 10 15 100 0.159274
14 10 15 100 0.153033
15 10 15 100 0.187529
0 11 15 100 0.0659062
2 11 15 100 1.8972e-05
6 11 15 100 0.0666667
10 11 15 100 0.0514581
11 11 15 100 0.000760504
12 11 15 100 0.2
13 11 15 100 0.162008
14 11 15 100 0.2
15 11 15 100 0.253182
0 12 15 100 0.141312
7 12 15 100 8.44841e-05
12 12 15 100 0.0769735
13 12 15 100 0.00176132
14 12 15 100 0.23097
15 12 15 100 0.548899
14 13 15 100 0.2
15 13 15 100 0.8
0 14 15 100 0.000435306
1 14 15 100 3.8938e-05
6 14 15 100 1.43766e-05
12 14 15 100 3.92288e-05
15 14 15 100 0.999472
0 15 15 100 6.08433e-05
6 15 15 100 4.03775e-05
10 15 15 100 1.83216e-05
14 15 15 100 1.83216e-05
15 15 15 100 0.999862
15 16 15 100 1
15 17 15 100 1
0 1 16 100 2.85152e-05
3 1 16 100 0.333333
4 1 16 100 0.222222
6 1 16 100 3.46634e-06
7 1 16 100 0.111089
11 1 16 100 0.102723
16 1 16 100 0.2306
0 2 16 100 0.113168
1 2 16 100 0.159177
2 2 16 100 0.0123376
3 2 16 100 0.222223
4 2 16 100 0.267529
5 2 16 100 8.23944e-05
8 2 16 100 0.114372
16 2 16 100 0.111111
0 3 16 100 0.111246
3 3 16 100 0.110943
4 3 16 100 0.333334
5 3 16 100 0.111111
6 3 16 100 0.000166527
7 3 16 100 1.30764e-06
8 3 16 100 0.110976
11 3 16 100 0.111111
16 3 16 100 0.111111
0 4 16 100 0.265292
1 4 16 100 0.110164
3 4 16 100 0.0165473
4 4 16 100 0.219276
5 4 16 100 0.134108
6 4 16 100 0.123476
7 4 16 100 0.0312649
9 4 16 100 0.0417993
10 4 16 100 0.0255798
11 4 16 100 0.0292342
12 4 16 100 0.0029381
13 4 16 100 8.9052e-05
14 4 16 100 9.29026e-06
15 4 16 100 0.000223261
2 5 16 100 0.111111
4 5 16 100 0.222222
6 5 16 100 0.11096
7 5 16 100 0.111111
8 5 16 100 0.111111
9 5 16 100 0.111111
10 5 16 100 0.000150828
11 5 16 100 0.111085
14 5 16 100 0.111111
15 5 16 100 2.61316e-05
0 6 16 100 0.106613
2 6 16 100 0.111111
4 6 16 100 0.111072
5 6 16 100 0.000831893
7 6 16 100 0.111841
8 6 16 100 0.333347
9 6 16 100 0.10938
10 6 16 100 0.00174986
11 6 16 100 4.59584e-06
13 6 16 100 0.00276033
14 6 16 100 0.111287
15 6 16 100 1.18343e-06
0 7 16 100 0.111091
2 7 16 100 1.08862e-05
4 7 16 100 0.111111
5 7 16 100 0.1111
7 7 16 100 3.78605e-05
8 7 16 100 0.222207
10 7 16 100 0.113562
11 7 16 100 0.219112
12 7 16 100 2.02216e-05
13 7 16 100 0.000621021
15 7 16 100 0.111127
0 8 16 100 0.00107952
1 8 16 100 2.80804e-06
4 8 16 100 0.111955
5 8 16 100 1.53388e-06
6 8 16 100 0.1111
7 8 16 100 1.15959e-05
8 8 16 100 0.109181
10 8 16 100 0.111111
11 8 16 100 0.111111
12 8 16 100 0.0598437
13 8 16 100 0.110696
15 8 16 100 0.162797
16 8 16 100 0.111111
0 9 16 100 0.145234
5 9 16 100 0.0121937
6 9 16 100 0.000304849
7 9 16 100 0.0503045
8 9 16 100 0.0255792
9 9 16 100 0.110491
10 9 16 100 0.209855
11 9 16 100 0.111285
13 9 16 100 2.21574e-05
14 9 16 100 0.00107514
15 9 16 100 0.111499
16 9 16 100 0.222156
0 10 16 100 0.124994
9 10 16 100 0.125
10 10 16 100 0.0963372
11 10 16 100 0.123435
12 10 16 100 0.0227068
13 10 16 100 0.00765509
15 10 16 100 0.374667
16 10 16 100 0.125206
9 11 16 100 0.142857
10 11 16 100 0.000150439
11 11 16 100 0.285714
12 11 16 100 0.000287731
13 11 16 100 0.142415
14 11 16 100 5.35004e-05
15 11 16 100 0.142857
16 11 16 100 0.285664
0 12 16 100 0.278188
5 12 16 100 9.44937e-05
7 12 16 100 0.000211476
10 12 16 100 1.82167e-05
11 12 16 100 0.142825
12 12 16 100 0.0064502
13 12 16 100 0.0356394
14 12 16 100 0.107479
15 12 16 100 0.000490139
16 12 16 100 0.428604
14 13 16 100 0.333333
16 13 16 100 0.666667
0 14 16 100 0.249862
7 14 16 100 0.000105243
8 14 16 100 2.73763e-05
14 14 16 100 0.25
15 14 16 100 4.83096e-06
16 14 16 100 0.5
14 15 16 100 1
0 16 16 100 0.974834
10 16 16 100 1.53849e-05
12 16 16 100 8.02385e-05
15 16 16 100 0.0201728
16 16 16 100 0.0048972
16 17 16 100 1
16 18 16 100 1
0 1 17 100 2.96461e-05
1 1 17 100 0.181818
3 1 17 100 0.63634
9 1 17 100 0.0900199
17 1 17 100 0.0917924
0 2 17 100 0.186303
1 2 17 100 0.0913935
2 2 17 100 0.103378
3 2 17 100 0.272615
4 2 17 100 0.178697
5 2 17 100 0.0631785
6 2 17 100 0.0131712
7 2 17 100 9.02278e-05
8 2 17 100 0.000106009
9 2 17 100 1.25115e-05
11 2 17 100 6.75323e-05
13 2 17 100 1.32705e-06
15 2 17 100 8.42593e-05
17 2 17 100 0.0909031
0 3 17 100 0.0743123
2 3 17 100 0.0909104
3 3 17 100 0.453429
4 3 17 100 0.100537
5 3 17 100 0.0979739
8 3 17 100 0.0909092
9 3 17 100 0.000894194
15 3 17 100 8.39096e-06
17 3 17 100 0.0910253
2 4 17 100 0.0288893
3 4 17 100 0.279604
4 4 17 100 0.0917246
5 4 17 100 0.241286
6 4 17 100 0.0909092
8 4 17 100 0.131032
9 4 17 100 0.0456477
15 4 17 100 2.71465e-05
17 4 17 100 0.0908812
0 5 17 100 0.0901385
3 5 17 100 0.0909167
4 5 17 100 0.0950262
5 5 17 100 0.10723
6 5 17 100 0.0909092
7 5 17 100 0.0735993
8 5 17 100 0.178662
9 5 17 100 0.091006
10 5 17 100 0.00060443
12 5 17 100 0.0909092
13 5 17 100 8.49258e-05
15 5 17 100 1.0579e-05
17 5 17 100 0.0909026
0 6 17 100 0.180677
2 6 17 100 6.22344e-06
3 6 17 100 0.101094
4 6 17 100 0.0909397
5 6 17 100 0.00312655
6 6 17 100 0.0907828
8 6 17 100 0.171442
9 6 17 100 0.023518
10 6 17 100 2.10542e-05
11 6 17 100 0.0687912
12 6 17 100 0.0877759
13 6 17 100 5.02358e-06
14 6 17 100 0.0909121
17 6 17 100 0.0909084
0 7 17 100 0.000780042
3 7 17 100 0.00136752
4 7 17 100 0.0906319
5 7 17 100 0.0853329
6 7 17 100 0.00270049
7 7 17 100 0.0962825
8 7 17 100 0.0925163
9 7 17 100 0.102088
10 7 17 100 0.187394
11 7 17 100 0.0855971
12 7 17 100 0.0909079
13 7 17 100 0.0326548
14 7 17 100 0.0909092
16 7 17 100 0.00544763
17 7 17 100 0.0353891
0 8 17 100 0.0905257
5 8 17 100 0.0069675
7 8 17 100 0.0909092
8 8 17 100 0.0909092
9 8 17 100 0.0909091
10 8 17 100 0.266142
11 8 17 100 0.000386656
12 8 17 100 0.0909091
14 8 17 100 0.0906558
16 8 17 100 0.0907727
17 8 17 100 0.0909132
0 9 17 100 0.220716
5 9 17 100 1.59354e-06
6 9 17 100 3.05048e-05
7 9 17 100 0.0998738
9 9 17 100 0.0144849
10 9 17 100 0.564335
12 9 17 100 0.00021911
13 9 17 100 0.000129438
15 9 17 100 0.000210339
17 9 17 100 0.1
0 10 17 100 0.00290767
4 10 17 100 1.20969e-06
5 10 17 100 1.02712e-06
9 10 17 100 0.00978024
10 10 17 100 0.29419
11 10 17 100 0.00775842
12 10 17 100 0.0999344
13 10 17 100 0.0952227
14 10 17 100 0.102992
15 10 17 100 0.00186056
16 10 17 100 0.0989647
17 10 17 100 0.286387
0 11 17 100 0.11563
1 11 17 100 1.4134e-05
7 11 17 100 0.000213319
8 11 17 100 9.46336e-05
10 11 17 100 0.194655
11 11 17 100 0.0826737
12 11 17 100 0.105348
15 11 17 100 0.101334
17 11 17 100 0.400037
9 12 17 100 1.4323e-05
10 12 17 100 0.222199
13 12 17 100 9.26867e-06
14 12 17 100 0.067
15 12 17 100 0.111111
17 12 17 100 0.599667
0 13 17 100 0.142535
10 13 17 100 1.30014e-05
11 13 17 100 0.000161371
16 13 17 100 0.108906
17 13 17 100 0.748385
17 14 17 100 1
17 15 17 100 1
17 16 17 100 1
17 17 17 100 1
0 1 18 100 0.000557356
1 1 18 100 0.399839
4 1 18 100 0.00264021
6 1 18 100 0.1
7 1 18 100 0.0973502
18 1 18 100 0.399614
0 2 18 100 0.205875
1 2 18 100 0.0977776
2 2 18 100 0.0991538
3 2 18 100 0.0992492
4 2 18 100 0.0998838
7 2 18 100 0.00615729
8 2 18 100 0.085694
10 2 18 100 0.000279691
12 2 18 100 0.000111627
13 2 18 100 0.00200696
14 2 18 100 0.00381095
18 2 18 100 0.3
0 3 18 100 0.192067
2 3 18 100 0.201958
3 3 18 100 0.105963
4 3 18 100 0.100021
5 3 18 100 1.08582e-05
8 3 18 100 0.0999789
10 3 18 100 0.00019972
11 3 18 100 0.000318382
15 3 18 100 0.00185461
17 3 18 100 1.44382e-06
18 3 18 100 0.297627
0 4 18 100 0.194609
2 4 18 100 0.1
3 4 18 100 0.00540323
4 4 18 100 0.199987
5 4 18 100 0.2
8 4 18 100 0.1
16 4 18 100 0.0999999
18 4 18 100 0.1
0 5 18 100 0.299999
2 5 18 100 0.3
4 5 18 100 0.0999937
5 5 18 100 0.0173248
6 5 18 100 0.0983405
7 5 18 100 0.0826814
8 5 18 100 0.10162
17 5 18 100 3.97264e-05
0 6 18 100 0.0869304
2 6 18 100 0.188771
3 6 18 100 0.0595653
5 6 18 100 0.111229
6 6 18 100 0.0130677
7 6 18 100 0.143065
8 6 18 100 0.00155247
9 6 18 100 0.0994793
11 6 18 100 0.0972917
13 6 18 100 0.0984476
14 6 18 100 0.000259197
15 6 18 100 3.36058e-05
16 6 18 100 0.1
17 6 18 100 0.00030805
2 7 18 100 0.199945
3 7 18 100 5.55161e-05
5 7 18 100 0.1
6 7 18 100 0.0997421
7 7 18 100 1.3003e-05
8 7 18 100 0.000257998
9 7 18 100 0.078128
11 7 18 100 0.0999901
13 7 18 100 0.1
14 7 18 100 0.000300138
15 7 18 100 0.0996826
16 7 18 100 0.199997
17 7 18 100 0.0218887
0 8 18 100 0.0227401
2 8 18 100 4.08707e-06
3 8 18 100 2.07866e-05
6 8 18 100 0.0838331
7 8 18 100 0.1
8 8 18 100 0.0999891
9 8 18 100 0.0448001
10 8 18 100 2.28997e-06
11 8 18 100 0.0608863
12 8 18 100 0.104313
13 8 18 100 0.100085
15 8 18 100 0.00743137
16 8 18 100 0.200086
17 8 18 100 0.175808
0 9 18 100 0.0174748
1 9 18 100 0.000155713
2 9 18 100 3.23977e-05
5 9 18 100 7.03103e-05
7 9 18 100 0.100148
8 9 18 100 0.108077
10 9 18 100 0.271542
11 9 18 100 0.1
12 9 18 100 0.100073
13 9 18 100 0.0940637
14 9 18 100 0.00180634
15 9 18 100 0.00680868
17 9 18 100 0.0999656
18 9 18 100 0.0997817
0 10 18 100 0.099999
7 10 18 100 0.0999641
10 10 18 100 0.110477
11 10 18 100 0.134442
12 10 18 100 0.0996408
14 10 18 100 0.0882505
15 10 18 100 0.157853
16 10 18 100 0.000103287
17 10 18 100 0.101612
18 10 18 100 0.107659
0 11 18 100 0.133675
2 11 18 100 0.000353298
4 11 18 100 5.78807e-06
8 11 18 100 3.11933e-05
9 11 18 100 4.17412e-06
10 11 18 100 0.1
11 11 18 100 0.0034451
14 11 18 100 4.59478e-05
15 11 18 100 0.1
16 11 18 100 0.099999
17 11 18 100 0.199601
18 11 18 100 0.36284
7 12 18 100 0.1
10 12 18 100 0.1
15 12 18 100 0.1
16 12 18 100 0.1
17 12 18 100 0.1
18 12 18 100 0.5
0 13 18 100 0.00580391
7 13 18 100 0.142857
10 13 18 100 0.142857
15 13 18 100 0.142857
18 13 18 100 0.565624
0 14 18 100 0.200609
1 14 18 100 2.73438e-05
6 14 18 100 3.14982e-06
8 14 18 100 1.51791e-05
9 14 18 100 2.40077e-05
10 14 18 100 0.198302
12 14 18 100 2.96118e-05
13 14 18 100 0.000393966
14 14 18 100 0.000810921
15 14 18 100 0.199786
18 14 18 100 0.4
10 15 18 100 0.333333
15 15 18 100 0.333333
18 15 18 100 0.333333
5 16 18 100 5.29332e-06
7 16 18 100 0.00234878
10 16 18 100 0.330985
18 16 18 100 0.666661
0 17 18 100 0.33427
4 17 18 100 0.0508604
5 17 18 100 0.245161
13 17 18 100 1.80316e-05
17 17 18 100 0.0363529
18 17 18 100 0.333337
5 18 18 100 6.69527e-06
18 18 18 100 0.999993
18 19 18 100 1
0 1 19 100 4.75881e-05
1 1 19 100 0.636388
2 1 19 100 0.363557
3 1 19 100 3.07554e-06
6 1 19 100 2.97007e-06
15 1 19 100 1.07057e-06
0 2 19 100 0.000472966
1 2 19 100 0.182006
2 2 19 100 0.544792
3 2 19 100 0.23495
4 2 19 100 0.0343118
9 2 19 100 1.73491e-06
11 2 19 100 0.00346581
0 3 19 100 0.0046344
1 3 19 100 7.17921e-06
2 3 19 100 0.535947
3 3 19 100 0.272726
4 3 19 100 0.0909087
5 3 19 100 1.14475e-06
6 3 19 100 0.00486665
11 3 19 100 0.0909091
0 4 19 100 0.178459
2 4 19 100 0.181818
3 4 19 100 0.261672
4 4 19 100 0.0909092
5 4 19 100 0.105085
6 4 19 100 0.0909092
7 4 19 100 0.000242475
11 4 19 100 0.0909049
0 5 19 100 0.129776
2 5 19 100 0.0910646
3 5 19 100 0.288889
4 5 19 100 0.0163697
5 5 19 100 0.188737
6 5 19 100 0.0895128
7 5 19 100 0.01758
8 5 19 100 0.0871444
10 5 19 100 6.96902e-06
11 5 19 100 0.090869
14 5 19 100 5.03217e-05
0 6 19 100 0.0912846
2 6 19 100 2.9688e-05
3 6 19 100 0.0606087
4 6 19 100 0.121209
5 6 19 100 0.0909091
6 6 19 100 0.191921
7 6 19 100 0.0856709
8 6 19 100 0.0917359
9 6 19 100 0.0856066
10 6 19 100 0.0603191
11 6 19 100 5.92144e-05
12 6 19 100 2.20751e-05
13 6 19 100 1.3552e-05
14 6 19 100 0.0908431
15 6 19 100 6.59605e-05
18 6 19 100 0.0297015
0 7 19 100 0.0913536
1 7 19 100 1.49029e-05
2 7 19 100 0.00137151
4 7 19 100 0.0904862
6 7 19 100 0.181336
7 7 19 100 0.0909546
8 7 19 100 0.0722754
9 7 19 100 0.179727
10 7 19 100 0.000725236
11 7 19 100 0.000622399
12 7 19 100 0.0904666
14 7 19 100 0.000283488
15 7 19 100 0.0906185
16 7 19 100 1.73749e-06
17 7 19 100 0.0195786
18 7 19 100 0.0901837
0 8 19 100 0.26786
4 8 19 100 0.0909089
5 8 19 100 0.0807365
6 8 19 100 0.11797
7 8 19 100 0.0906542
9 8 19 100 0.0909093
10 8 19 100 0.000124284
11 8 19 100 0.0639424
12 8 19 100 0.0909093
13 8 19 100 0.0148799
14 8 19 100 6.56759e-05
15 8 19 100 0.0909093
16 8 19 100 0.000129655
0 9 19 100 0.0882013
5 9 19 100 0.0811374
8 9 19 100 0.00980359
9 9 19 100 0.0908734
10 9 19 100 0.184456
11 9 19 100 4.75319e-06
12 9 19 100 0.090979
13 9 19 100 0.0909091
14 9 19 100 3.85954e-06
15 9 19 100 0.0909091
16 9 19 100 0.0909043
17 9 19 100 0.090909
18 9 19 100 0.0909091
0 10 19 100 0.000603494
6 10 19 100 0.0897898
10 10 19 100 0.0838709
11 10 19 100 0.181818
12 10 19 100 0.0909322
13 10 19 100 0.18204
14 10 19 100 2.30558e-05
16 10 19 100 0.0917855
17 10 19 100 0.097872
18 10 19 100 0.0902593
19 10 19 100 0.0910054
0 11 19 100 0.016188
2 11 19 100 2.27267e-05
6 11 19 100 0.00297229
8 11 19 100 1.17726e-05
11 11 19 100 0.190338
12 11 19 100 0.00318465
13 11 19 100 0.0874378
14 11 19 100 0.0796309
15 11 19 100 0.00456484
16 11 19 100 0.161061
17 11 19 100 0.181883
18 11 19 100 0.0909129
19 11 19 100 0.181792
0 12 19 100 0.000568487
11 12 19 100 0.181818
13 12 19 100 0.0909091
14 12 19 100 0.090908
16 12 19 100 0.0909102
17 12 19 100 0.181818
18 12 19 100 0.0903406
19 12 19 100 0.272727
0 13 19 100 0.185337
1 13 19 100 1.36703e-06
2 13 19 100 3.0053e-05
3 13 19 100 0.0756977
10 13 19 100 0.000211303
11 13 19 100 0.0909093
12 13 19 100 0.0905499
13 13 19 100 6.91228e-06
14 13 19 100 5.66651e-05
15 13 19 100 0.00016689
16 13 19 100 0.0908965
17 13 19 100 6.88603e-05
18 13 19 100 0.102392
19 13 19 100 0.363676
0 14 19 100 0.111111
3 14 19 100 0.111117
12 14 19 100 0.111111
15 14 19 100 0.111106
16 14 19 100 0.111111
17 14 19 100 0.000594979
19 14 19 100 0.44385
3 15 19 100 0.142857
12 15 19 100 0.142857
15 15 19 100 0.142857
17 15 19 100 0.0250148
19 15 19 100 0.546414
0 16 19 100 0.166694
4 16 19 100 0.16664
12 16 19 100 0.166667
15 16 19 100 0.166666
18 16 19 100 6.01539e-06
19 16 19 100 0.333328
0 17 19 100 0.199182
4 17 19 100 0.000264788
5 17 19 100 0.2
6 17 19 100 0.00023099
9 17 19 100 0.000319482
16 17 19 100 0.2
17 17 19 100 2.55918e-06
19 17 19 100 0.4
0 18 19 100 0.333321
3 18 19 100 1.16247e-05
5 18 19 100 0.333334
13 18 19 100 0.333334
5 19 19 100 0.333304
13 19 19 100 0.333333
18 19 19 100 0.333333
19 19 19 100 2.88505e-05
13 20 19 100 0.5
18 20 19 100 0.5
13 21 19 100 0.5
19 21 19 100 0.5
0 22 19 100 0.0164771
14 22 19 100 0.977838
15 22 19 100 0.00568465
0 23 19 100 0.969726
15 23 19 100 0.0288895
16 23 19 100 0.00135701
17 23 19 100 2.71343e-05
0 24 19 100 0.959285
15 24 19 100 0.0222664
16 24 19 100 0.0133405
17 24 19 100 0.00510823
18 25 19 100 0.186694
19 25 19 100 0.813306
19 26 19 100 1
19 27 19 100 1
0 1 20 100 0.00016456
1 1 20 100 0.428566
2 1 20 100 0.357608
3 1 20 100 0.0707429
11 1 20 100 0.0714285
19 1 20 100 6.31687e-05
20 1 20 100 0.0714271
0 2 20 100 0.0721194
1 2 20 100 0.363149
2 2 20 100 0.33731
3 2 20 100 0.0478672
4 2 20 100 8.7262e-05
5 2 20 100 0.0122395
7 2 20 100 0.000210474
8 2 20 100 0.000602671
9 2 20 100 0.0713733
10 2 20 100 0.00066272
11 2 20 100 0.094306
15 2 20 100 4.94621e-05
17 2 20 100 1.43721e-06
18 2 20 100 6.39105e-06
19 2 20 100 1.47589e-05
0 3 20 100 0.227713
1 3 20 100 0.0714344
2 3 20 100 0.220224
3 3 20 100 0.133294
4 3 20 100 4.96773e-05
5 3 20 100 0.0616043
6 3 20 100 0.071374
7 3 20 100 1.00969e-05
9 3 20 100 0.0714288
11 3 20 100 0.0714317
12 3 20 100 0.0714287
14 3 20 100 3.5531e-06
16 3 20 100 2.58675e-06
17 3 20 100 1.25016e-06
0 4 20 100 0.0733937
1 4 20 100 0.115587
2 4 20 100 0.0968184
3 4 20 100 0.20959
4 4 20 100 0.0714548
5 4 20 100 0.0752767
6 4 20 100 0.0721212
7 4 20 100 0.070137
8 4 20 100 0.142862
9 4 20 100 0.00129149
12 4 20 100 0.0714287
16 4 20 100 4.77603e-06
20 4 20 100 3.42181e-05
0 5 20 100 0.0715132
1 5 20 100 0.0714286
2 5 20 100 0.0714444
3 5 20 100 0.0662657
4 5 20 100 0.0747979
5 5 20 100 0.146155
6 5 20 100 0.141159
8 5 20 100 0.142857
9 5 20 100 0.0714035
11 5 20 100 9.32255e-05
12 5 20 100 0.0714286
13 5 20 100 2.63736e-05
15 5 20 100 0.0714273
0 6 20 100 0.142718
1 6 20 100 0.0714287
3 6 20 100 0.00157064
5 6 20 100 0.13731
6 6 20 100 0.141346
7 6 20 100 0.0749719
8 6 20 100 0.216293
11 6 20 100 4.57299e-05
12 6 20 100 0.0765565
13 6 20 100 0.0443938
14 6 20 100 3.15704e-05
15 6 20 100 0.0714287
17 6 20 100 0.0051319
18 6 20 100 0.0167743
0 7 20 100 0.0714225
2 7 20 100 0.0811482
3 7 20 100 0.061709
4 7 20 100 0.071453
6 7 20 100 0.0542347
7 7 20 100 0.0886297
8 7 20 100 0.285671
11 7 20 100 2.6904e-06
12 7 20 100 0.0714286
13 7 20 100 0.0167743
14 7 20 100 0.0714286
15 7 20 100 0.0112659
17 7 20 100 0.0601636
18 7 20 100 0.0546573
20 7 20 100 1.09931e-05
0 8 20 100 0.0705858
2 8 20 100 0.0714286
4 8 20 100 1.13514e-06
5 8 20 100 0.136172
7 8 20 100 0.0715827
8 8 20 100 0.142857
11 8 20 100 0.22097
13 8 20 100 0.000842755
14 8 20 100 0.0714286
15 8 20 100 0.0712745
17 8 20 100 0.0714286
20 8 20 100 0.0714286
0 9 20 100 0.00304894
1 9 20 100 1.44745e-05
2 9 20 100 0.0714319
5 9 20 100 0.0715815
6 9 20 100 6.88523e-06
7 9 20 100 0.0713677
10 9 20 100 0.0714308
11 9 20 100 0.353853
12 9 20 100 6.09323e-05
14 9 20 100 0.0474618
15 9 20 100 0.0714897
16 9 20 100 0.0953953
17 9 20 100 1.67404e-05
20 9 20 100 0.14284
0 10 20 100 0.071426
5 10 20 100 0.0714286
6 10 20 100 0.0712726
7 10 20 100 9.19487e-06
9 10 20 100 0.0205759
10 10 20 100 0.12218
11 10 20 100 0.1432
12 10 20 100 0.143051
13 10 20 100 0.0710475
14 10 20 100 0.00300572
15 10 20 100 9.19363e-05
16 10 20 100 0.068361
17 10 20 100 0.0642846
19 10 20 100 0.0714286
20 10 20 100 0.0786365
0 11 20 100 0.133634
5 11 20 100 0.0714145
6 11 20 100 0.0714296
7 11 20 100 0.000288829
10 11 20 100 1.40816e-05
11 11 20 100 0.0787416
12 11 20 100 0.0698173
13 11 20 100 0.219408
14 11 20 100 0.0691063
16 11 20 100 3.7633e-06
17 11 20 100 0.071136
18 11 20 100 0.000719404
20 11 20 100 0.214286
0 12 20 100 0.0762444
6 12 20 100 0.0726218
12 12 20 100 0.0769231
13 12 20 100 0.257424
14 12 20 100 0.0775709
15 12 20 100 0.0809189
16 12 20 100 0.050604
17 12 20 100 0.0769232
20 12 20 100 0.230769
0 13 20 100 0.0947491
7 13 20 100 3.44838e-06
9 13 20 100 0.0117564
12 13 20 100 0.0909092
14 13 20 100 0.175388
15 13 20 100 5.07412e-05
16 13 20 100 0.0920342
17 13 20 100 0.353288
18 13 20 100 2.2452e-06
20 13 20 100 0.181818
0 14 20 100 0.199539
1 14 20 100 2.01215e-06
3 14 20 100 2.4259e-05
5 14 20 100 1.57303e-05
11 14 20 100 0.000118658
12 14 20 100 1.54182e-06
13 14 20 100 0.0999985
14 14 20 100 0.099986
15 14 20 100 0.036896
17 14 20 100 0.278602
20 14 20 100 0.284816
0 15 20 100 0.333253
4 15 20 100 7.23734e-06
8 15 20 100 7.31833e-06
14 15 20 100 0.111111
16 15 20 100 2.26918e-06
17 15 20 100 0.111289
19 15 20 100 6.08068e-05
20 15 20 100 0.444269
0 16 20 100 0.0997908
3 16 20 100 1.9046e-05
8 16 20 100 1.40618e-05
16 16 20 100 0.111111
17 16 20 100 0.122217
18 16 20 100 6.88704e-06
19 16 20 100 0.000195996
20 16 20 100 0.666645
16 17 20 100 0.111111
17 17 20 100 0.222222
20 17 20 100 0.666667
8 18 20 100 0.000203618
16 18 20 100 0.499796
20 18 20 100 0.5
17 19 20 100 1
0 1 21 100 3.14463e-05
1 1 21 100 0.333302
2 1 21 100 0.217847
3 1 21 100 0.00437509
4 1 21 100 0.111111
7 1 21 100 0.111111
9 1 21 100 0.222222
0 2 21 100 0.0962481
1 2 21 100 0.215067
2 2 21 100 0.122848
3 2 21 100 0.0134638
4 2 21 100 0.220478
5 2 21 100 1.83657e-05
7 2 21 100 0.220784
9 2 21 100 0.111093
0 3 21 100 0.322758
2 3 21 100 2.46118e-05
3 3 21 100 0.00996386
4 3 21 100 0.363657
5 3 21 100 3.13262e-05
7 3 21 100 0.111111
9 3 21 100 0.111051
16 3 21 100 0.0814028
0 4 21 100 0.108036
5 4 21 100 0.146222
6 4 21 100 0.0726701
7 4 21 100 0.149439
8 4 21 100 0.0791884
9 4 21 100 0.333333
16 4 21 100 0.111111
0 5 21 100 0.0102162
2 5 21 100 3.20001e-05
5 5 21 100 0.000322909
6 5 21 100 7.23717e-06
7 5 21 100 0.222518
8 5 21 100 0.225052
9 5 21 100 0.222222
10 5 21 100 0.0973507
14 5 21 100 0.111111
15 5 21 100 5.63834e-05
16 5 21 100 0.111111
0 6 21 100 0.00231197
6 6 21 100 0.0121888
7 6 21 100 0.111111
8 6 21 100 0.21991
11 6 21 100 0.333333
14 6 21 100 0.111111
16 6 21 100 0.209347
20 6 21 100 0.000686694
0 7 21 100 0.111111
6 7 21 100 0.111111
10 7 21 100 0.111114
11 7 21 100 0.333331
14 7 21 100 0.111111
16 7 21 100 0.0133983
17 7 21 100 0.100287
20 7 21 100 0.108537
7 8 21 100 0.222222
10 8 21 100 0.111111
11 8 21 100 0.333264
14 8 21 100 6.88597e-05
15 8 21 100 5.34558e-05
16 8 21 100 0.078843
17 8 21 100 0.143326
20 8 21 100 0.111111
0 9 21 100 0.326175
6 9 21 100 1.52548e-06
9 9 21 100 0.110174
10 9 21 100 0.111111
11 9 21 100 0.00750605
12 9 21 100 0.00786116
13 9 21 100 0.214919
14 9 21 100 1.06041e-05
15 9 21 100 6.8636e-05
18 9 21 100 2.00413e-05
19 9 21 100 0.222153
0 10 21 100 0.111081
9 10 21 100 1.15822e-05
10 10 21 100 0.11112
11 10 21 100 0.00256217
13 10 21 100 0.306895
14 10 21 100 0.111111
15 10 21 100 0.111102
17 10 21 100 1.54226e-05
18 10 21 100 0.0239056
19 10 21 100 0.111111
21 10 21 100 0.111084
0 11 21 100 0.330942
10 11 21 100 0.111111
12 11 21 100 8.89552e-06
13 11 21 100 0.00234707
14 11 21 100 0.0052347
15 11 21 100 0.216987
18 11 21 100 1.52385e-06
19 11 21 100 0.222256
21 11 21 100 0.111111
0 12 21 100 0.222106
11 12 21 100 1.02587e-05
12 12 21 100 2.20082e-06
13 12 21 100 0.111114
14 12 21 100 0.111109
15 12 21 100 0.220766
17 12 21 100 0.111101
18 12 21 100 0.11255
20 12 21 100 0.000131412
21 12 21 100 0.111111
0 13 21 100 0.125
15 13 21 100 0.250016
17 13 21 100 0.125
18 13 21 100 0.249984
19 13 21 100 0.125
21 13 21 100 0.125
0 14 21 100 0.00107107
1 14 21 100 1.09382e-05
7 14 21 100 3.17499e-05
13 14 21 100 0.125
15 14 21 100 0.25
17 14 21 100 0.125
18 14 21 100 0.123886
19 14 21 100 0.0182916
21 14 21 100 0.356708
0 15 21 100 0.125
13 15 21 100 0.125
15 15 21 100 0.125
17 15 21 100 2.14662e-05
18 15 21 100 0.249979
20 15 21 100 3.69996e-05
21 15 21 100 0.374963
13 16 21 100 0.125
15 16 21 100 0.25
21 16 21 100 0.625
15 17 21 100 0.2
21 17 21 100 0.8
10 18 21 100 7.96834e-06
11 18 21 100 7.66522e-06
19 18 21 100 0.249984
21 18 21 100 0.75
21 19 21 100 1
21 20 21 100 1
21 21 21 100 1
21 22 21 100 1
0 1 22 100 6.20691e-06
1 1 22 100 0.588229
2 1 22 100 0.0588208
3 1 22 100 0.11772
4 1 22 100 0.132473
16 1 22 100 0.102751
0 2 22 100 0.000142724
1 2 22 100 0.2938
2 2 22 100 0.117883
3 2 22 100 0.176518
4 2 22 100 0.236885
7 2 22 100 0.0571026
10 2 22 100 3.12818e-06
13 2 22 100 1.79306e-05
14 2 22 100 9.15092e-07
16 2 22 100 0.117647
0 3 22 100 0.119167
1 3 22 100 0.141439
2 3 22 100 0.0920727
3 3 22 100 0.236165
4 3 22 100 0.235389
5 3 22 100 0.0019288
6 3 22 100 0.0566744
13 3 22 100 9.23084e-07
14 3 22 100 6.22667e-07
16 3 22 100 0.0571707
17 3 22 100 0.0588236
19 3 22 100 0.00116846
0 4 22 100 0.121163
1 4 22 100 1.95878e-05
2 4 22 100 0.11774
3 4 22 100 0.238346
4 4 22 100 0.111928
5 4 22 100 0.13674
6 4 22 100 0.0222937
7 4 22 100 0.11765
8 4 22 100 0.0164703
10 4 22 100 0.058825
17 4 22 100 0.0588237
0 5 22 100 0.000586263
2 5 22 100 0.117647
3 5 22 100 0.0588276
4 5 22 100 0.117649
5 5 22 100 0.141367
6 5 22 100 0.117061
7 5 22 100 0.118062
8 5 22 100 0.152744
9 5 22 100 0.0588235
10 5 22 100 0.058409
17 5 22 100 0.0588235
0 6 22 100 0.0588826
2 6 22 100 0.0579679
3 6 22 100 0.0588236
4 6 22 100 0.0587995
5 6 22 100 0.0588236
6 6 22 100 0.118503
7 6 22 100 0.16347
8 6 22 100 0.0588236
9 6 22 100 0.235324
10 6 22 100 0.0717307
11 6 22 100 4.96045e-06
12 6 22 100 6.47866e-07
13 6 22 100 2.1955e-05
14 6 22 100 1.12048e-06
18 6 22 100 0.0588236
0 7 22 100 0.117274
5 7 22 100 0.0591136
6 7 22 100 0.274919
7 7 22 100 0.0643671
8 7 22 100 0.00384868
9 7 22 100 0.243129
10 7 22 100 0.118953
11 7 22 100 0.0595467
13 7 22 100 2.15685e-05
18 7 22 100 0.0587675
19 7 22 100 5.60345e-05
20 7 22 100 2.33181e-06
22 7 22 100 7.12606e-07
0 8 22 100 0.0586328
4 8 22 100 0.0588235
5 8 22 100 2.14054e-06
6 8 22 100 0.17739
8 8 22 100 2.78361e-05
9 8 22 100 0.176471
10 8 22 100 0.117647
11 8 22 100 0.167529
12 8 22 100 0.124666
14 8 22 100 0.00116466
16 8 22 100 0.0588236
19 8 22 100 0.0588236
0 9 22 100 0.233316
6 9 22 100 0.0588236
7 9 22 100 0.0343138
8 9 22 100 0.000879719
9 9 22 100 0.0831755
11 9 22 100 0.129461
12 9 22 100 0.169751
13 9 22 100 0.0591262
14 9 22 100 0.113474
16 9 22 100 0.058854
19 9 22 100 0.0588236
20 9 22 100 1.48587e-06
0 10 22 100 0.0840825
3 10 22 100 2.01837e-05
7 10 22 100 0.0588235
9 10 22 100 0.0588236
10 10 22 100 0.000882851
11 10 22 100 0.118706
12 10 22 100 0.17659
13 10 22 100 0.0588235
14 10 22 100 0.121638
15 10 22 100 0.0864202
16 10 22 100 0.11749
17 10 22 100 0.0588218
18 10 22 100 5.52194e-05
22 10 22 100 0.0588234
0 11 22 100 0.0679093
3 11 22 100 2.97598e-06
6 11 22 100 2.37806e-05
10 11 22 100 0.0622994
12 11 22 100 0.249991
13 11 22 100 0.125149
14 11 22 100 0.0570857
15 11 22 100 0.0165353
16 11 22 100 0.0404118
17 11 22 100 0.123649
18 11 22 100 9.08947e-05
19 11 22 100 0.000173017
20 11 22 100 0.169055
21 11 22 100 0.0251244
22 11 22 100 0.0625
2 12 22 100 1.40231e-06
12 12 22 100 0.249193
13 12 22 100 0.125408
14 12 22 100 0.000314118
15 12 22 100 3.35968e-05
16 12 22 100 0.0633438
17 12 22 100 0.0625717
18 12 22 100 0.125
19 12 22 100 0.00010529
20 12 22 100 0.187421
21 12 22 100 0.0603216
22 12 22 100 0.126287
12 13 22 100 0.25
13 13 22 100 0.0554537
15 13 22 100 0.0625101
16 13 22 100 0.00706559
17 13 22 100 8.3058e-05
18 13 22 100 0.124917
19 13 22 100 0.0625
20 13 22 100 0.125035
21 13 22 100 0.0624807
22 13 22 100 0.249954
0 14 22 100 0.125336
12 14 22 100 0.109321
13 14 22 100 0.0801954
14 14 22 100 0.000186311
15 14 22 100 0.124168
16 14 22 100 1.70941e-05
17 14 22 100 0.000337213
18 14 22 100 0.122683
19 14 22 100 0.0628475
20 14 22 100 0.124945
21 14 22 100 0.0624694
22 14 22 100 0.187494
0 15 22 100 1.21064e-06
13 15 22 100 0.0381619
14 15 22 100 0.0243382
15 15 22 100 0.0625376
17 15 22 100 9.75211e-06
18 15 22 100 0.0625203
19 15 22 100 0.187442
20 15 22 100 0.125
22 15 22 100 0.499989
0 16 22 100 1.58551e-06
16 16 22 100 0.159577
17 16 22 100 0.00708799
19 16 22 100 0.304979
20 16 22 100 0.166666
22 16 22 100 0.361688
0 17 22 100 0.111111
16 17 22 100 0.111111
19 17 22 100 0.111111
20 17 22 100 0.223529
21 17 22 100 0.109811
22 17 22 100 0.333327
0 18 22 100 0.333293
14 18 22 100 1.87379e-05
15 18 22 100 6.7319e-06
18 18 22 100 0.111117
19 18 22 100 0.22223
20 18 22 100 0.111111
22 18 22 100 0.222223
18 19 22 100 0.111099
19 19 22 100 0.22222
20 19 22 100 0.106862
22 19 22 100 0.559819
0 20 22 100 0.141226
14 20 22 100 3.68862e-05
15 20 22 100 2.28648e-05
19 20 22 100 0.0004573
21 20 22 100 0.039456
22 20 22 100 0.818801
11 21 22 100 3.3577e-06
20 21 22 100 1.8906e-05
22 21 22 100 0.999978
22 22 22 100 1
0 1 23 100 0.00617176
1 1 23 100 0.33331
2 1 23 100 0.222234
3 1 23 100 0.000361433
4 1 23 100 0.10455
5 1 23 100 0.222222
11 1 23 100 0.111111
21 1 23 100 3.93719e-05
0 2 23 100 0.301073
1 2 23 100 0.139271
2 2 23 100 0.11112
3 2 23 100 0.222219
5 2 23 100 0.114937
6 2 23 100 0.000233828
11 2 23 100 0.111147
0 3 23 100 0.116617
2 3 23 100 0.111111
3 3 23 100 0.134717
4 3 23 100 0.211887
5 3 23 100 0.314556
11 3 23 100 0.111111
0 4 23 100 0.110916
2 4 23 100 0.111282
3 4 23 100 0.111111
4 4 23 100 0.0258152
5 4 23 100 0.111111
6 4 23 100 0.308649
7 4 23 100 1.13847e-05
9 4 23 100 0.111114
10 4 23 100 0.109984
13 4 23 100 3.84238e-06
20 4 23 100 1.34117e-06
0 5 23 100 0.000955485
1 5 23 100 2.61196e-05
2 5 23 100 0.000150448
3 5 23 100 0.215033
5 5 23 100 2.48223e-05
6 5 23 100 0.334421
7 5 23 100 0.227166
9 5 23 100 0.111111
10 5 23 100 0.111111
0 6 23 100 0.00331393
3 6 23 100 0.111111
4 6 23 100 3.53421e-06
6 6 23 100 0.111108
7 6 23 100 0.222222
8 6 23 100 0.218897
9 6 23 100 0.111123
10 6 23 100 0.111111
13 6 23 100 0.111111
0 7 23 100 0.111441
3 7 23 100 0.111111
6 7 23 100 0.111095
7 7 23 100 0.111544
8 7 23 100 0.110445
9 7 23 100 5.04554e-05
10 7 23 100 0.111117
11 7 23 100 0.111111
12 7 23 100 0.110956
13 7 23 100 0.111111
19 7 23 100 1.87401e-05
0 8 23 100 0.00453634
3 8 23 100 0.111039
7 8 23 100 0.216995
8 8 23 100 0.111788
9 8 23 100 7.2192e-05
10 8 23 100 0.111111
11 8 23 100 0.222223
12 8 23 100 0.111123
13 8 23 100 0.111111
16 8 23 100 2.43959e-06
3 9 23 100 0.0344202
5 9 23 100 0.0766909
9 9 23 100 0.072585
10 9 23 100 0.113491
11 9 23 100 0.441691
12 9 23 100 0.149543
15 9 23 100 0.111087
16 9 23 100 0.000373311
17 9 23 100 0.000118752
0 10 23 100 0.218656
2 10 23 100 1.58954e-06
5 10 23 100 0.105325
9 10 23 100 4.94364e-06
11 10 23 100 0.32973
13 10 23 100 0.00354787
14 10 23 100 0.114715
15 10 23 100 0.109896
16 10 23 100 0.00578955
17 10 23 100 0.112327
20 10 23 100 5.38956e-06
0 11 23 100 0.117868
11 11 23 100 7.24556e-06
12 11 23 100 0.111111
13 11 23 100 6.5706e-06
14 11 23 100 0.444437
15 11 23 100 0.0985253
16 11 23 100 0.011173
17 11 23 100 0.216867
21 11 23 100 2.61631e-06
23 11 23 100 1.58628e-06
0 12 23 100 0.111111
13 12 23 100 0.0932579
14 12 23 100 0.366907
15 12 23 100 0.0951704
16 12 23 100 1.56305e-05
17 12 23 100 0.111111
18 12 23 100 0.000220158
20 12 23 100 0.222207
0 13 23 100 0.331554
7 13 23 100 9.19243e-05
12 13 23 100 7.05594e-06
14 13 23 100 0.111169
15 13 23 100 0.111041
16 13 23 100 1.5116e-06
17 13 23 100 0.112315
18 13 23 100 0.111125
19 13 23 100 0.111111
20 13 23 100 0.111584
15 14 23 100 0.111111
18 14 23 100 0.222222
19 14 23 100 0.111111
20 14 23 100 0.555555
0 15 23 100 0.227384
13 15 23 100 1.11977e-06
15 15 23 100 0.111111
18 15 23 100 0.111111
19 15 23 100 0.00403881
20 15 23 100 0.434779
21 15 23 100 0.000462863
23 15 23 100 0.111111
0 16 23 100 0.203805
9 16 23 100 2.84424e-06
16 16 23 100 0.0108649
17 16 23 100 0.000693272
18 16 23 100 0.000581098
19 16 23 100 0.00902113
20 16 23 100 0.115064
21 16 23 100 0.21516
22 16 23 100 0.110465
23 16 23 100 0.334342
0 17 23 100 0.221051
2 17 23 100 2.30017e-06
18 17 23 100 0.111111
20 17 23 100 1.26404e-05
21 17 23 100 0.222228
22 17 23 100 0.110035
23 17 23 100 0.33556
0 18 23 100 0.111113
19 18 23 100 0.111111
21 18 23 100 0.11137
22 18 23 100 0.111111
23 18 23 100 0.555294
20 19 23 100 0.166667
21 19 23 100 3.15923e-06
22 19 23 100 0.166667
23 19 23 100 0.666663
22 20 23 100 0.333332
23 20 23 100 0.666668
23 21 23 100 1
15 22 23 100 7.19609e-06
21 22 23 100 3.34575e-05
23 22 23 100 0.999959
23 23 23 100 1
23 24 23 100 1
0 1 24 100 5.74376e-06
1 1 24 100 0.230896
2 1 24 100 0.150912
3 1 24 100 0.0769232
6 1 24 100 0.0769232
9 1 24 100 0.00290495
22 1 24 100 0.0142991
24 1 24 100 0.447135
0 2 24 100 0.153844
1 2 24 100 0.0567539
2 2 24 100 0.0897141
3 2 24 100 0.0844357
5 2 24 100 0.00430942
6 2 24 100 0.0786036
9 2 24 100 0.0706849
12 2 24 100 7.51597e-05
13 2 24 100 3.04271e-05
14 2 24 100 6.82989e-06
15 2 24 100 0.00763037
20 2 24 100 1.84879e-06
22 2 24 100 0.0692883
24 2 24 100 0.384622
0 3 24 100 0.0836763
1 3 24 100 0.0769233
2 3 24 100 0.0774969
3 3 24 100 0.0695746
4 3 24 100 0.0891592
5 3 24 100 0.000133526
6 3 24 100 0.0769233
7 3 24 100 0.0767897
9 3 24 100 0.067133
10 3 24 100 0.00979067
12 3 24 100 7.17847e-06
14 3 24 100 0.0769017
16 3 24 100 1.72588e-05
17 3 24 100 0.000125972
18 3 24 100 1.14623e-05
19 3 24 100 1.6609e-06
22 3 24 100 0.0768219
24 3 24 100 0.218512
0 4 24 100 0.306965
1 4 24 100 0.0769565
2 4 24 100 2.43333e-05
3 4 24 100 0.0797079
4 4 24 100 0.0770804
5 4 24 100 0.0741629
6 4 24 100 3.91674e-05
7 4 24 100 0.0770804
8 4 24 100 4.28901e-05
9 4 24 100 0.0898718
12 4 24 100 0.0428722
13 4 24 100 0.018217
14 4 24 100 0.0653438
15 4 24 100 0.0143928
16 4 24 100 0.0769231
17 4 24 100 9.32162e-05
18 4 24 100 0.000137652
21 4 24 100 8.85573e-05
0 5 24 100 0.0584528
2 5 24 100 0.0769231
4 5 24 100 0.206818
5 5 24 100 0.0793542
6 5 24 100 0.0240123
7 5 24 100 0.0769231
8 5 24 100 0.0769231
9 5 24 100 0.0768845
10 5 24 100 1.68084e-06
13 5 24 100 0.000341735
16 5 24 100 0.0927669
17 5 24 100 0.0767448
19 5 24 100 0.0769284
20 5 24 100 1.18832e-06
21 5 24 100 1.24235e-06
22 5 24 100 0.0769229
0 6 24 100 0.306609
2 6 24 100 0.0457116
3 6 24 100 0.0312126
4 6 24 100 0.0769233
5 6 24 100 1.73866e-05
6 6 24 100 0.153866
7 6 24 100 0.0769232
8 6 24 100 0.153847
10 6 24 100 0.0769389
16 6 24 100 0.000837911
19 6 24 100 0.0769233
21 6 24 100 0.000155862
22 6 24 100 4.1063e-06
23 6 24 100 3.02043e-05
0 7 24 100 0.0782119
4 7 24 100 0.0678298
6 7 24 100 0.153846
7 7 24 100 0.0769232
8 7 24 100 0.229455
9 7 24 100 0.00909339
10 7 24 100 3.49928e-06
11 7 24 100 0.078272
16 7 24 100 7.25453e-06
17 7 24 100 0.152515
19 7 24 100 0.0764693
21 7 24 100 0.000450596
22 7 24 100 0.0769228
0 8 24 100 0.0769308
3 8 24 100 2.25743e-05
5 8 24 100 9.36413e-06
6 8 24 100 0.0769231
7 8 24 100 0.153835
8 8 24 100 0.00800167
9 8 24 100 0.222661
10 8 24 100 7.04511e-05
11 8 24 100 0.07692
12 8 24 100 0.0769231
15 8 24 100 0.076923
17 8 24 100 0.0769231
20 8 24 100 0.0769231
22 8 24 100 0.0769231
23 8 24 100 9.72771e-06
0 9 24 100 0.230754
4 9 24 100 0.00840219
5 9 24 100 9.3892e-05
6 9 24 100 0.0769232
7 9 24 100 0.076923
8 9 24 100 1.34254e-05
9 9 24 100 0.0769302
10 9 24 100 0.0920599
11 9 24 100 0.153847
13 9 24 100 0.0769232
14 9 24 100 0.000162415
15 9 24 100 2.19161e-06
16 9 24 100 0.0064745
18 9 24 100 0.0769232
20 9 24 100 0.068297
23 9 24 100 0.0552706
0 10 24 100 0.153215
5 10 24 100 2.60999e-05
6 10 24 100 0.0769231
8 10 24 100 6.8093e-06
9 10 24 100 0.0663544
10 10 24 100 0.010584
11 10 24 100 0.15466
12 10 24 100 0.0769409
13 10 24 100 0.0775057
14 10 24 100 0.000135652
15 10 24 100 0.0769126
16 10 24 100 0.0769667
17 10 24 100 0.0763851
19 10 24 100 0.0769231
23 10 24 100 0.0764613
0 11 24 100 0.0769227
4 11 24 100 3.89129e-05
6 11 24 100 0.0769262
7 11 24 100 8.24802e-06
10 11 24 100 0.0769233
11 11 24 100 0.0769723
12 11 24 100 0.153847
13 11 24 100 0.076922
14 11 24 100 0.0768824
15 11 24 100 0.0769233
17 11 24 100 0.00278756
19 11 24 100 0.15381
21 11 24 100 8.10563e-07
23 11 24 100 0.151036
0 12 24 100 0.0769184
2 12 24 100 0.000120224
3 12 24 100 4.94443e-05
4 12 24 100 1.87194e-05
6 12 24 100 0.0767535
10 12 24 100 0.0768684
12 12 24 100 0.076932
13 12 24 100 0.0769582
14 12 24 100 0.0769251
15 12 24 100 0.0767754
16 12 24 100 0.0769232
18 12 24 100 0.0770735
19 12 24 100 0.153828
23 12 24 100 0.153846
24 12 24 100 1.06776e-05
0 13 24 100 0.111693
6 13 24 100 0.0769232
10 13 24 100 5.84777e-06
12 13 24 100 0.0769232
13 13 24 100 0.0769232
14 13 24 100 0.0769504
16 13 24 100 0.169907
17 13 24 100 3.38706e-05
18 13 24 100 0.046868
20 13 24 100 0.000277673
21 13 24 100 0.0770628
22 13 24 100 0.0769269
23 13 24 100 0.209505
0 14 24 100 0.227697
6 14 24 100 0.0781363
10 14 24 100 0.0773193
11 14 24 100 2.54902e-05
13 14 24 100 0.0769241
14 14 24 100 0.0214599
15 14 24 100 0.0758962
16 14 24 100 0.0769231
17 14 24 100 0.0578491
18 14 24 100 0.0768884
20 14 24 100 5.86264e-05
22 14 24 100 0.0769718
23 14 24 100 0.0769276
24 14 24 100 0.0769231
0 15 24 100 0.0837701
3 15 24 100 8.29099e-05
5 15 24 100 1.6609e-05
6 15 24 100 0.0769229
12 15 24 100 0.000664941
14 15 24 100 0.073104
15 15 24 100 0.00824834
16 15 24 100 0.0810195
17 15 24 100 0.00711657
19 15 24 100 0.0622614
20 15 24 100 0.0848363
21 15 24 100 0.144444
22 15 24 100 0.0716925
23 15 24 100 0.0769232
24 15 24 100 0.228897
0 16 24 100 0.000223682
6 16 24 100 0.0769231
10 16 24 100 0.0769229
12 16 24 100 3.42954e-06
15 16 24 100 0.0711029
16 16 24 100 0.0825162
19 16 24 100 0.0183
21 16 24 100 0.153854
22 16 24 100 0.076923
23 16 24 100 0.058623
24 16 24 100 0.384607
0 17 24 100 0.166374
6 17 24 100 0.0833335
10 17 24 100 9.14149e-06
14 17 24 100 1.33523e-05
18 17 24 100 0.0833335
19 17 24 100 0.0833311
21 17 24 100 0.326347
22 17 24 100 0.00142486
23 17 24 100 0.0820616
24 17 24 100 0.173772
0 18 24 100 0.111104
4 18 24 100 0.000144772
6 18 24 100 4.83397e-06
8 18 24 100 0.00185677
9 18 24 100 0.00114923
10 18 24 100 0.00185677
14 18 24 100 0.105926
18 18 24 100 0.000120873
19 18 24 100 7.60713e-06
20 18 24 100 0.000207097
23 18 24 100 0.110956
24 18 24 100 0.666666
0 19 24 100 0.283944
14 19 24 100 0.14251
15 19 24 100 0.000351388
18 19 24 100 0.142857
23 19 24 100 0.00176566
24 19 24 100 0.428572
18 20 24 100 0.333334
24 20 24 100 0.666666
24 21 24 100 1
24 22 24 100 1
24 23 24 100 1
0 1 25 100 0.000363659
1 1 25 100 1.23083e-05
2 1 25 100 0.2976
3 1 25 100 0.4
4 1 25 100 3.7402e-05
5 1 25 100 0.00194092
7 1 25 100 4.84683e-05
12 1 25 100 1.27404e-06
25 1 25 100 0.299996
0 2 25 100 0.190572
1 2 25 100 0.00358244
2 2 25 100 0.0216512
3 2 25 100 0.484075
4 2 25 100 0.000755753
5 2 25 100 3.4458e-05
9 2 25 100 0.000111417
10 2 25 100 0.000751231
21 2 25 100 1.58623e-05
22 2 25 100 1.01214e-06
25 2 25 100 0.298449
0 3 25 100 0.202923
1 3 25 100 0.0897604
2 3 25 100 0.000232151
3 3 25 100 0.118669
4 3 25 100 0.102618
5 3 25 100 0.0110798
6 3 25 100 0.183548
7 3 25 100 4.61046e-05
8 3 25 100 0.00810457
9 3 25 100 0.0221134
11 3 25 100 3.88023e-06
13 3 25 100 0.0608957
16 3 25 100 4.16746e-06
18 3 25 100 1.14564e-06
25 3 25 100 0.2
0 4 25 100 1.27594e-05
1 4 25 100 0.0999998
2 4 25 100 1.57816e-05
4 4 25 100 0.2
5 4 25 100 0.100035
6 4 25 100 0.0116283
7 4 25 100 0.288289
8 4 25 100 2.54144e-05
9 4 25 100 0.1
14 4 25 100 0.099994
25 4 25 100 0.1
0 5 25 100 0.0642034
1 5 25 100 0.063759
2 5 25 100 0.0362428
4 5 25 100 0.0999756
5 5 25 100 0.200014
7 5 25 100 0.100011
8 5 25 100 0.10004
9 5 25 100 0.2
12 5 25 100 0.0326684
13 5 25 100 0.0015233
14 5 25 100 0.100039
22 5 25 100 0.0015233
0 6 25 100 0.200284
2 6 25 100 0.000547761
4 6 25 100 0.1
5 6 25 100 0.0997152
7 6 25 100 0.1
8 6 25 100 0.199453
9 6 25 100 0.2
10 6 25 100 0.0253419
23 6 25 100 0.0746583
0 7 25 100 0.100587
1 7 25 100 8.11418e-06
2 7 25 100 3.14978e-05
3 7 25 100 1.76644e-06
4 7 25 100 1.07579e-05
6 7 25 100 0.199393
7 7 25 100 0.1
8 7 25 100 0.1
9 7 25 100 0.1
11 7 25 100 0.1
12 7 25 100 0.1
14 7 25 100 0.0999685
23 7 25 100 0.1
0 8 25 100 0.396096
2 8 25 100 1.32946e-05
4 8 25 100 1.32946e-05
7 8 25 100 0.000118952
8 8 25 100 0.103222
9 8 25 100 0.200277
11 8 25 100 0.0999997
12 8 25 100 0.2
14 8 25 100 4.16767e-06
17 8 25 100 1.32946e-05
19 8 25 100 0.000208352
20 8 25 100 3.07565e-05
24 8 25 100 2.95721e-06
0 9 25 100 0.0967145
5 9 25 100 0.0996142
7 9 25 100 0.1
8 9 25 100 0.00180723
9 9 25 100 0.198662
10 9 25 100 0.0999021
11 9 25 100 0.0978312
12 9 25 100 0.199802
13 9 25 100 0.000198087
14 9 25 100 0.00218374
17 9 25 100 0.00328482
20 9 25 100 0.000214292
23 9 25 100 0.0997858
0 10 25 100 0.156764
5 10 25 100 0.100005
6 10 25 100 4.21208e-05
9 10 25 100 0.100012
10 10 25 100 0.100004
11 10 25 100 0.19757
13 10 25 100 0.11819
14 10 25 100 0.0106176
15 10 25 100 0.000559057
17 10 25 100 0.00248403
18 10 25 100 0.114179
23 10 25 100 0.0995046
24 10 25 100 5.53622e-05
25 10 25 100 1.3452e-05
0 11 25 100 0.106733
5 11 25 100 0.0997693
7 11 25 100 0.1
9 11 25 100 0.000232752
10 11 25 100 0.0550038
11 11 25 100 0.159606
12 11 25 100 0.00933468
13 11 25 100 0.000902477
14 11 25 100 0.000463052
15 11 25 100 0.100023
17 11 25 100 0.0681756
19 11 25 100 0.199683
22 11 25 100 7.31145e-05
25 11 25 100 0.1
5 12 25 100 0.000175401
9 12 25 100 0.00319028
10 12 25 100 0.00850914
12 12 25 100 0.388298
13 12 25 100 0.1
15 12 25 100 0.0999511
16 12 25 100 4.89318e-05
19 12 25 100 0.1
20 12 25 100 0.0998246
21 12 25 100 0.1
24 12 25 100 2.4489e-06
25 12 25 100 0.1
0 13 25 100 0.0999788
3 13 25 100 1.12001e-06
7 13 25 100 1.5193e-05
12 13 25 100 0.399998
13 13 25 100 0.100002
15 13 25 100 0.1
19 13 25 100 0.1
21 13 25 100 0.1
24 13 25 100 4.79045e-06
25 13 25 100 0.1
0 14 25 100 0.298784
12 14 25 100 0.100362
13 14 25 100 0.100017
14 14 25 100 0.1
15 14 25 100 0.100802
16 14 25 100 3.45997e-06
18 14 25 100 0.000359003
19 14 25 100 0.0999175
20 14 25 100 0.000100783
21 14 25 100 0.0999967
22 14 25 100 0.099658
0 15 25 100 0.197685
6 15 25 100 1.08249e-05
12 15 25 100 0.0999796
13 15 25 100 0.2
14 15 25 100 0.1
15 15 25 100 1.15741e-06
17 15 25 100 0.0022971
18 15 25 100 0.0999892
19 15 25 100 8.64933e-06
20 15 25 100 0.093455
21 15 25 100 0.1
22 15 25 100 0.00652501
24 15 25 100 4.76472e-05
25 15 25 100 0.1
0 16 25 100 0.168855
14 16 25 100 0.101285
15 16 25 100 0.000962803
16 16 25 100 0.0990372
17 16 25 100 0.0201374
18 16 25 100 0.201285
20 16 25 100 0.0126103
21 16 25 100 0.1
22 16 25 100 0.100433
23 16 25 100 0.0953937
25 16 25 100 0.1
0 17 25 100 0.00345335
14 17 25 100 0.111111
16 17 25 100 0.111111
18 17 25 100 0.111111
21 17 25 100 0.222222
22 17 25 100 5.67092e-05
23 17 25 100 0.218711
25 17 25 100 0.222222
0 18 25 100 0.0167259
15 18 25 100 0.0935252
16 18 25 100 0.000860099
19 18 25 100 0.111111
21 18 25 100 0.11111
22 18 25 100 0.128932
23 18 25 100 0.222222
24 18 25 100 0.0109709
25 18 25 100 0.304543
0 19 25 100 0.124999
17 19 25 100 0.125
20 19 25 100 0.125
22 19 25 100 0.125
24 19 25 100 0.125
25 19 25 100 0.375
2 20 25 100 1.64488e-06
18 20 25 100 0.125
21 20 25 100 0.125
23 20 25 100 0.125
24 20 25 100 0.124814
25 20 25 100 0.500184
0 21 25 100 0.0883648
20 21 25 100 0.0544906
21 21 25 100 0.142859
23 21 25 100 0.142857
25 21 25 100 0.571429
23 22 25 100 0.499999
24 22 25 100 6.5216e-05
25 22 25 100 0.499936
0 23 25 100 7.11489e-05
13 23 25 100 0.000689239
14 23 25 100 4.00605e-05
15 23 25 100 6.46277e-06
24 23 25 100 0.0241067
25 23 25 100 0.975086
25 24 25 100 1
25 25 25 100 1
1 1 26 100 0.410574
2 1 26 100 0.464417
7 1 26 100 2.24463e-06
26 1 26 100 0.125006
0 2 26 100 0.0151381
1 2 26 100 0.239763
2 2 26 100 0.388865
3 2 26 100 0.125113
7 2 26 100 0.000183162
9 2 26 100 1.69206e-06
25 2 26 100 0.105936
26 2 26 100 0.125
0 3 26 100 0.359147
2 3 26 100 0.125025
3 3 26 100 0.125
4 3 26 100 0.25021
5 3 26 100 0.0156026
13 3 26 100 1.5102e-05
26 3 26 100 0.125
0 4 26 100 0.00134648
2 4 26 100 8.92436e-05
3 4 26 100 0.349099
4 4 26 100 0.125
5 4 26 100 0.0244277
6 4 26 100 0.125127
7 4 26 100 0.125
9 4 26 100 0.124896
12 4 26 100 8.4303e-06
21 4 26 100 5.81177e-06
25 4 26 100 0.125
0 5 26 100 0.112793
3 5 26 100 0.125
4 5 26 100 0.00737872
5 5 26 100 0.220421
6 5 26 100 0.163101
7 5 26 100 0.126539
8 5 26 100 7.22936e-05
9 5 26 100 0.118781
14 5 26 100 0.000501451
19 5 26 100 0.000322057
21 5 26 100 9.04024e-05
25 5 26 100 0.125
0 6 26 100 0.125534
3 6 26 100 0.125
6 6 26 100 0.125
7 6 26 100 0.249312
8 6 26 100 0.000106854
9 6 26 100 0.125
13 6 26 100 4.73611e-05
17 6 26 100 0.124999
26 6 26 100 0.125
0 7 26 100 0.00113086
3 7 26 100 0.125
4 7 26 100 0.000253258
6 7 26 100 0.125
7 7 26 100 1.50524e-06
8 7 26 100 0.125002
9 7 26 100 0.124789
10 7 26 100 0.248825
17 7 26 100 0.124998
26 7 26 100 0.125
0 8 26 100 0.248812
5 8 26 100 6.07258e-06
6 8 26 100 0.125
8 8 26 100 0.249958
9 8 26 100 0.00116595
11 8 26 100 0.125
12 8 26 100 0.125
18 8 26 100 4.19941e-05
20 8 26 100 1.48215e-05
26 8 26 100 0.125
0 9 26 100 0.123755
7 9 26 100 2.46684e-06
8 9 26 100 0.120024
9 9 26 100 0.125
10 9 26 100 0.142365
11 9 26 100 0.125
12 9 26 100 0.0914639
13 9 26 100 0.108877
15 9 26 100 0.0385124
26 9 26 100 0.125
0 10 26 100 0.12399
7 10 26 100 7.29532e-06
8 10 26 100 0.000458623
9 10 26 100 0.125
10 10 26 100 0.125343
11 10 26 100 0.125021
13 10 26 100 4.2211e-05
14 10 26 100 0.25003
15 10 26 100 0.249545
22 10 26 100 0.000557394
23 10 26 100 4.60282e-06
0 11 26 100 0.000288537
6 11 26 100 0.0139298
10 11 26 100 0.125
11 11 26 100 0.249617
12 11 26 100 9.5014e-05
15 11 26 100 0.139199
16 11 26 100 0.34934
17 11 26 100 0.011461
26 11 26 100 0.11107
0 12 26 100 0.247655
10 12 26 100 0.125
12 12 26 100 0.00187101
15 12 26 100 0.14707
16 12 26 100 0.0167833
18 12 26 100 0.0310035
19 12 26 100 0.125001
20 12 26 100 0.00388149
21 12 26 100 0.120739
22 12 26 100 0.0556086
23 12 26 100 0.125
24 12 26 100 0.000386603
0 13 26 100 0.125
17 13 26 100 0.125
18 13 26 100 0.125
19 13 26 100 0.25
21 13 26 100 0.125
24 13 26 100 0.25
5 14 26 100 0.00012503
10 14 26 100 0.125
14 14 26 100 0.116967
17 14 26 100 0.125
18 14 26 100 0.125699
19 14 26 100 0.250015
21 14 26 100 0.00804718
24 14 26 100 0.245493
25 14 26 100 0.00365332
0 15 26 100 0.124993
8 15 26 100 0.125
10 15 26 100 0.125
14 15 26 100 0.125101
17 15 26 100 0.0106541
19 15 26 100 0.239252
22 15 26 100 0.125
25 15 26 100 0.125
0 16 26 100 0.237481
5 16 26 100 4.75033e-06
8 16 26 100 0.125
15 16 26 100 0.125
16 16 26 100 0.119052
18 16 26 100 0.125
20 16 26 100 0.017353
21 16 26 100 0.000136646
22 16 26 100 0.125003
25 16 26 100 0.12597
0 17 26 100 0.253755
7 17 26 100 3.79349e-06
15 17 26 100 0.125
16 17 26 100 0.125002
18 17 26 100 5.69852e-05
20 17 26 100 0.0840129
21 17 26 100 0.126892
22 17 26 100 0.000195198
23 17 26 100 0.125
24 17 26 100 0.0350815
25 17 26 100 0.125
0 18 26 100 0.124886
8 18 26 100 0.125
15 18 26 100 0.125
18 18 26 100 0.000112542
21 18 26 100 0.125
22 18 26 100 0.125
23 18 26 100 0.125
24 18 26 100 1.61783e-06
25 18 26 100 0.125
26 18 26 100 0.125
8 19 26 100 0.125
16 19 26 100 0.125
18 19 26 100 0.12495
19 19 26 100 5.01932e-05
21 19 26 100 0.125
23 19 26 100 0.25
25 19 26 100 0.125
26 19 26 100 0.125
9 20 26 100 0.125
15 20 26 100 0.00010116
16 20 26 100 0.125011
18 20 26 100 0.125
21 20 26 100 4.19645e-06
22 20 26 100 0.124888
23 20 26 100 0.125
24 20 26 100 0.124996
26 20 26 100 0.25
0 21 26 100 0.122689
9 21 26 100 0.125
16 21 26 100 0.125
18 21 26 100 0.124997
24 21 26 100 0.000536387
25 21 26 100 0.00177824
26 21 26 100 0.5
9 22 26 100 0.142857
17 22 26 100 0.142857
20 22 26 100 0.021765
21 22 26 100 0.0262674
23 22 26 100 5.16365e-05
24 22 26 100 0.0948237
26 22 26 100 0.571378
0 23 26 100 0.666302
2 23 26 100 0.000362594
17 23 26 100 0.333336
15 24 26 100 0.333333
24 24 26 100 0.333334
26 24 26 100 0.333333
0 25 26 100 0.497524
10 25 26 100 0.000187567
11 25 26 100 2.81159e-05
13 25 26 100 9.79835e-06
15 25 26 100 0.500002
22 25 26 100 0.00222959
23 25 26 100 1.84114e-05
24 26 26 100 1
26 27 26 100 1
26 28 26 100 1
1 1 27 100 0.166667
2 1 27 100 0.166667
5 1 27 100 0.5
10 1 27 100 0.166667
0 2 27 100 0.166533
1 2 27 100 0.166667
2 2 27 100 9.89178e-05
3 2 27 100 2.30542e-06
4 2 27 100 0.000196926
5 2 27 100 0.499801
10 2 27 100 0.166667
15 2 27 100 1.73751e-05
17 2 27 100 1.73751e-05
0 3 27 100 0.337756
2 3 27 100 0.18931
4 3 27 100 1.6578e-05
5 3 27 100 0.190351
6 3 27 100 0.0120098
7 3 27 100 0.103884
10 3 27 100 0.166667
25 3 27 100 4.64403e-06
0 4 27 100 0.0512905
2 4 27 100 0.510106
3 4 27 100 0.105222
5 4 27 100 0.333328
6 4 27 100 4.5588e-06
11 4 27 100 3.31712e-05
18 4 27 100 1.58026e-05
0 5 27 100 0.461906
2 5 27 100 0.166301
3 5 27 100 0.166607
5 5 27 100 0.021514
6 5 27 100 0.182961
9 5 27 100 0.000591482
14 5 27 100 2.87747e-05
16 5 27 100 8.66734e-05
27 5 27 100 4.30933e-06
2 6 27 100 0.166667
3 6 27 100 0.166667
6 6 27 100 0.166667
7 6 27 100 0.166667
9 6 27 100 0.165157
10 6 27 100 0.166667
16 6 27 100 0.00150952
0 7 27 100 6.53298e-05
1 7 27 100 0.162217
3 7 27 100 0.00444981
4 7 27 100 0.166601
6 7 27 100 0.166667
7 7 27 100 1.22171e-05
9 7 27 100 0.166719
10 7 27 100 0.333269
1 8 27 100 0.166667
5 8 27 100 0.166667
6 8 27 100 4.38348e-06
7 8 27 100 0.00609368
8 8 27 100 0.160573
9 8 27 100 0.166667
10 8 27 100 0.333311
15 8 27 100 1.80816e-05
0 9 27 100 0.00642207
1 9 27 100 0.166619
6 9 27 100 0.160214
8 9 27 100 4.73151e-05
9 9 27 100 0.170036
10 9 27 100 0.166691
11 9 27 100 0.163292
12 9 27 100 0.166667
13 9 27 100 8.30374e-06
27 9 27 100 2.39256e-06
1 10 27 100 0.166667
11 10 27 100 0.645635
12 10 27 100 0.0210031
13 10 27 100 0.166667
14 10 27 100 2.82426e-05
0 11 27 100 0.166664
5 11 27 100 2.09248e-06
8 11 27 100 1.01034e-05
10 11 27 100 2.33994e-05
11 11 27 100 0.333565
12 11 27 100 0.000162264
13 11 27 100 0.184847
14 11 27 100 0.166669
23 11 27 100 0.142998
26 11 27 100 0.00505832
0 12 27 100 0.166588
4 12 27 100 0.166667
11 12 27 100 0.166667
12 12 27 100 0.166667
13 12 27 100 0.16663
14 12 27 100 0.166667
19 12 27 100 7.65567e-05
20 12 27 100 3.64058e-05
22 12 27 100 2.02724e-06
4 13 27 100 0.166667
11 13 27 100 0.166667
12 13 27 100 0.166667
13 13 27 100 0.166692
14 13 27 100 0.166663
15 13 27 100 2.59403e-06
20 13 27 100 8.38718e-05
26 13 27 100 0.166558
13 14 27 100 0.11422
15 14 27 100 0.385191
16 14 27 100 0.166667
18 14 27 100 0.10037
19 14 27 100 4.3143e-05
22 14 27 100 0.0644909
25 14 27 100 0.00235811
26 14 27 100 0.16666
0 15 27 100 0.166553
15 15 27 100 0.333334
16 15 27 100 0.0976497
18 15 27 100 0.0691305
25 15 27 100 0.166667
27 15 27 100 0.166667
0 16 27 100 0.323885
13 16 27 100 4.20757e-05
15 16 27 100 0.165968
16 16 27 100 0.0101466
18 16 27 100 0.166667
26 16 27 100 0.166625
27 16 27 100 0.166667
0 17 27 100 0.313794
6 17 27 100 1.82056e-05
11 17 27 100 4.96748e-06
14 17 27 100 0.00010404
17 17 27 100 0.166667
18 17 27 100 0.166667
19 17 27 100 0.00750742
20 17 27 100 0.0010046
25 17 27 100 0.166667
27 17 27 100 0.177566
0 18 27 100 0.325811
11 18 27 100 6.07426e-05
13 18 27 100 6.33691e-06
17 18 27 100 0.168522
19 18 27 100 2.48835e-06
20 18 27 100 0.172241
22 18 27 100 2.19451e-06
26 18 27 100 1.89817e-05
27 18 27 100 0.333336
17 19 27 100 0.2
20 19 27 100 0.2
21 19 27 100 0.2
25 19 27 100 0.2
27 19 27 100 0.2
0 20 27 100 0.249972
16 20 27 100 2.80198e-05
20 20 27 100 0.25
21 20 27 100 0.499955
27 20 27 100 4.50884e-05
20 21 27 100 0.25
21 21 27 100 0.499995
24 21 27 100 5.34645e-06
27 21 27 100 0.25
13 22 27 100 6.70816e-06
22 22 27 100 0.249994
24 22 27 100 0.25
25 22 27 100 4.11912e-05
26 22 27 100 0.249959
27 22 27 100 0.249999
24 23 27 100 0.25
25 23 27 100 0.25
27 23 27 100 0.5
25 24 27 100 0.496657
27 24 27 100 0.503343
27 25 27 100 1
27 26 27 100 1
2 1 28 100 0.499999
4 1 28 100 0.333334
28 1 28 100 0.166667
0 2 28 100 0.00385577
1 2 28 100 1.02292e-05
2 2 28 100 0.332977
3 2 28 100 0.000135503
4 2 28 100 0.209188
5 2 28 100 0.275931
6 2 28 100 0.000531417
9 2 28 100 0.000120332
11 2 28 100 0.0098547
12 2 28 100 0.000673762
14 2 28 100 5.27959e-05
21 2 28 100 2.00212e-06
28 2 28 100 0.166667
2 3 28 100 0.166667
4 3 28 100 0.211051
5 3 28 100 0.288886
7 3 28 100 1.8296e-05
12 3 28 100 0.166667
14 3 28 100 1.8296e-05
18 3 28 100 2.62867e-05
28 3 28 100 0.166667
0 4 28 100 0.333239
2 4 28 100 6.22881e-05
3 4 28 100 3.70439e-05
4 4 28 100 0.16663
5 4 28 100 0.166698
7 4 28 100 0.166667
12 4 28 100 0.166667
2 5 28 100 0.166667
5 5 28 100 0.293179
7 5 28 100 0.206652
8 5 28 100 0.166667
9 5 28 100 4.03571e-05
13 5 28 100 0.166667
28 5 28 100 0.00012848
0 6 28 100 0.166494
2 6 28 100 0.142396
4 6 28 100 0.0242705
6 6 28 100 1.1405e-05
7 6 28 100 0.166667
8 6 28 100 0.166667
11 6 28 100 0.180684
15 6 28 100 0.00016178
17 6 28 100 0.152571
18 6 28 100 2.76457e-05
24 6 28 100 2.59578e-05
25 6 28 100 2.47358e-05
0 7 28 100 0.166642
8 7 28 100 0.166665
10 7 28 100 0.000121482
11 7 28 100 0.166713
13 7 28 100 2.49453e-05
16 7 28 100 0.166667
17 7 28 100 0.166434
24 7 28 100 6.4907e-05
27 7 28 100 0.166667
4 8 28 100 0.000156182
8 8 28 100 0.166667
10 8 28 100 0.166667
11 8 28 100 0.143105
15 8 28 100 0.0234052
16 8 28 100 0.166667
19 8 28 100 0.166666
27 8 28 100 0.166667
8 9 28 100 0.166667
10 9 28 100 0.166667
16 9 28 100 0.333333
19 9 28 100 0.166667
27 9 28 100 0.166647
28 9 28 100 1.94794e-05
0 10 28 100 0.494194
6 10 28 100 8.23626e-05
8 10 28 100 0.166665
16 10 28 100 0.172115
17 10 28 100 7.83108e-05
19 10 28 100 0.166667
21 10 28 100 7.83108e-05
27 10 28 100 0.000119975
0 11 28 100 0.166664
11 11 28 100 0.0266083
12 11 28 100 3.00597e-06
13 11 28 100 0.166667
15 11 28 100 0.140029
16 11 28 100 4.63633e-06
19 11 28 100 0.166608
20 11 28 100 0.166667
21 11 28 100 2.98615e-06
22 11 28 100 0.00284771
23 11 28 100 5.38557e-05
26 11 28 100 2.43222e-05
28 11 28 100 0.163821
0 12 28 100 0.1405
6 12 28 100 0.000360609
10 12 28 100 0.166666
15 12 28 100 0.162235
16 12 28 100 0.0250851
17 12 28 100 0.167027
19 12 28 100 0.166667
20 12 28 100 0.166667
21 12 28 100 0.000360609
25 12 28 100 0.000170478
26 12 28 100 0.00214776
27 12 28 100 0.00211314
12 13 28 100 0.000187673
15 13 28 100 0.166479
18 13 28 100 0.00350969
19 13 28 100 0.166667
20 13 28 100 0.329823
22 13 28 100 0.166667
27 13 28 100 0.166667
5 14 28 100 5.2046e-05
7 14 28 100 6.81601e-06
14 14 28 100 6.81601e-06
15 14 28 100 0.166667
18 14 28 100 5.17504e-05
19 14 28 100 0.166549
20 14 28 100 0.314806
22 14 28 100 0.185195
27 14 28 100 0.166666
11 15 28 100 3.84867e-05
15 15 28 100 0.167647
18 15 28 100 0.00182888
19 15 28 100 0.0190497
20 15 28 100 0.000154283
21 15 28 100 0.143358
22 15 28 100 0.4806
23 15 28 100 0.0016427
24 15 28 100 0.0190078
25 15 28 100 0.166667
26 15 28 100 5.94495e-06
0 16 28 100 0.129012
16 16 28 100 0.0354105
17 16 28 100 0.00226402
19 16 28 100 0.150299
20 16 28 100 0.000725336
21 16 28 100 0.00449225
22 16 28 100 0.00654073
23 16 28 100 0.168988
24 16 28 100 0.333368
25 16 28 100 0.168716
26 16 28 100 0.00018476
20 17 28 100 0.166666
21 17 28 100 8.88106e-05
23 17 28 100 0.166667
24 17 28 100 0.166667
25 17 28 100 0.333245
26 17 28 100 0.166667
0 18 28 100 0.16938
18 18 28 100 1.59292e-05
19 18 28 100 0.000370767
20 18 28 100 0.158259
21 18 28 100 3.06996e-05
22 18 28 100 0.00530648
23 18 28 100 0.166629
24 18 28 100 3.78211e-05
25 18 28 100 0.166636
26 18 28 100 0.333334
21 19 28 100 8.45716e-06
23 19 28 100 0.333324
25 19 28 100 0.0382872
26 19 28 100 0.461714
28 19 28 100 0.166666
0 20 28 100 0.166579
20 20 28 100 8.63345e-05
21 20 28 100 1.74811e-05
23 20 28 100 0.333316
26 20 28 100 0.500001
23 21 28 100 0.5
26 21 28 100 0.25
28 21 28 100 0.25
23 22 28 100 0.333325
24 22 28 100 0.332851
26 22 28 100 1.09631e-05
28 22 28 100 0.333812
26 23 28 100 1
26 24 28 100 1
0 25 28 100 0.999362
27 25 28 100 0.000637624
26 26 28 100 1
0 1 29 100 1.30859e-05
1 1 29 100 0.499969
2 1 29 100 0.25
3 1 29 100 1.77448e-05
6 1 29 100 0.25
0 2 29 100 0.486417
1 2 29 100 0.260846
2 2 29 100 0.252731
4 2 29 100 5.66272e-06
0 3 29 100 0.250052
2 3 29 100 0.250001
3 3 29 100 0.250001
5 3 29 100 7.9191e-06
6 3 29 100 0.249937
0 4 29 100 0.246528
2 4 29 100 0.249961
4 4 29 100 0.00348795
5 4 29 100 0.25
6 4 29 100 0.250011
28 4 29 100 1.16067e-05
0 5 29 100 0.235062
5 5 29 100 0.472237
6 5 29 100 0.253072
7 5 29 100 0.0395266
18 5 29 100 0.000103339
0 6 29 100 0.249983
2 6 29 100 0.25
6 6 29 100 0.5
10 6 29 100 1.69931e-05
2 7 29 100 0.249328
6 7 29 100 0.499976
9 7 29 100 0.0455596
10 7 29 100 2.41474e-05
11 7 29 100 0.205112
0 8 29 100 0.424369
6 8 29 100 0.24998
9 8 29 100 0.000350662
10 8 29 100 0.0561093
11 8 29 100 0.269192
7 9 29 100 0.24996
11 9 29 100 0.250001
12 9 29 100 4.08126e-05
16 9 29 100 0.249998
17 9 29 100 0.250001
7 10 29 100 0.25
12 10 29 100 0.25
14 10 29 100 0.25
17 10 29 100 0.25
0 11 29 100 0.25
12 11 29 100 0.188264
14 11 29 100 0.311714
17 11 29 100 0.25
20 11 29 100 2.18167e-05
7 12 29 100 0.25
8 12 29 100 0.0600681
11 12 29 100 0.0108838
12 12 29 100 0.00263858
14 12 29 100 0.208153
15 12 29 100 0.218256
20 12 29 100 0.25
7 13 29 100 0.25
11 13 29 100 0.25
17 13 29 100 0.25
21 13 29 100 0.25
0 14 29 100 0.000321321
11 14 29 100 0.249988
13 14 29 100 0.0210826
15 14 29 100 0.161595
16 14 29 100 0.00591795
17 14 29 100 0.311076
18 14 29 100 1.14668e-05
21 14 29 100 0.25
25 14 29 100 7.62779e-06
6 15 29 100 3.68967e-06
11 15 29 100 0.246542
17 15 29 100 0.25
19 15 29 100 0.242518
20 15 29 100 0.00345853
21 15 29 100 0.257478
0 16 29 100 0.000175523
20 16 29 100 0.259003
21 16 29 100 0.654835
23 16 29 100 0.085986
0 17 29 100 3.10016e-06
20 17 29 100 0.250001
21 17 29 100 4.54408e-06
24 17 29 100 0.250433
25 17 29 100 0.249559
29 17 29 100 0.250001
23 18 29 100 0.246106
24 18 29 100 0.249957
25 18 29 100 4.27008e-05
26 18 29 100 0.253894
29 18 29 100 0.25
22 19 29 100 4.88494e-05
23 19 29 100 0.000140237
24 19 29 100 0.213937
26 19 29 100 0.49986
27 19 29 100 0.0321245
29 19 29 100 0.25389
26 20 29 100 0.260086
27 20 29 100 0.239912
29 20 29 100 0.500003
27 21 29 100 0.333333
29 21 29 100 0.666667
27 22 29 100 0.333333
29 22 29 100 0.666667
0 23 29 100 0.333321
26 23 29 100 1.05588e-05
27 23 29 100 0.333334
29 23 29 100 0.333334
0 24 29 100 0.639371
3 24 29 100 1.64702e-05
22 24 29 100 6.06368e-06
24 24 29 100 0.00117542
27 24 29 100 2.41165e-05
29 24 29 100 0.359407
29 25 29 100 1
29 26 29 100 1
3 1 30 100 0.333333
4 1 30 100 0.666667
0 2 30 100 0.000214424
4 2 30 100 0.666685
5 2 30 100 0.333101
1 3 30 100 0.000570781
4 3 30 100 0.66608
5 3 30 100 0.333333
26 3 30 100 1.60863e-05
0 4 30 100 0.332884
2 4 30 100 1.1172e-05
5 4 30 100 0.00485207
6 4 30 100 0.000440554
7 4 30 100 0.333331
10 4 30 100 0.328481
7 5 30 100 0.333333
8 5 30 100 0.333333
11 5 30 100 0.333305
21 5 30 100 1.34767e-05
24 5 30 100 1.47868e-05
0 6 30 100 0.0534098
8 6 30 100 0.333334
9 6 30 100 0.0133626
10 6 30 100 0.000192092
11 6 30 100 0.266369
13 6 30 100 0.332642
21 6 30 100 0.000691045
0 7 30 100 0.313022
2 7 30 100 2.3629e-05
11 7 30 100 0.33331
13 7 30 100 0.340592
14 7 30 100 0.00652581
17 7 30 100 0.00652581
13 8 30 100 0.333333
14 8 30 100 0.333333
21 8 30 100 0.333333
0 9 30 100 0.333278
13 9 30 100 0.327455
14 9 30 100 0.333361
16 9 30 100 0.00586581
17 9 30 100 2.63083e-05
26 9 30 100 1.38645e-05
14 10 30 100 0.381636
16 10 30 100 0.28452
21 10 30 100 0.333333
26 10 30 100 0.000475823
28 10 30 100 3.45837e-05
11 11 30 100 3.12325e-05
14 11 30 100 0.333331
17 11 30 100 0.015591
19 11 30 100 0.317744
21 11 30 100 0.096211
24 11 30 100 0.237092
16 12 30 100 0.333334
19 12 30 100 0.122418
27 12 30 100 0.333334
29 12 30 100 0.210915
16 13 30 100 0.333086
18 13 30 100 0.000247781
27 13 30 100 0.333333
29 13 30 100 0.333333
16 14 30 100 4.60479e-05
18 14 30 100 0.0261354
19 14 30 100 0.307152
27 14 30 100 0.333333
29 14 30 100 0.333333
0 15 30 100 0.333246
12 15 30 100 4.8835e-05
19 15 30 100 0.333336
23 15 30 100 7.69497e-05
28 15 30 100 0.333291
19 16 30 100 0.333333
29 16 30 100 0.333333
30 16 30 100 0.333333
0 17 30 100 0.5
30 17 30 100 0.5
0 18 30 100 0.5
20 18 30 100 0.424719
25 18 30 100 0.0752806
0 19 30 100 0.496233
23 19 30 100 0.00376732
30 19 30 100 0.5
25 20 30 100 0.0579976
29 20 30 100 0.442002
30 20 30 100 0.5
29 21 30 100 0.5
30 21 30 100 0.5
29 22 30 100 1
29 23 30 100 0.000389433
30 23 30 100 0.999611
30 24 30 100 1
30 25 30 100 1
30 26 30 100 1
1 1 31 100 0.303029
2 1 31 100 0.363599
4 1 31 100 0.0396942
8 1 31 100 0.293678
0 2 31 100 0.171737
1 2 31 100 0.000385211
2 2 31 100 0.492914
4 2 31 100 4.58359e-05
5 2 31 100 0.00387477
8 2 31 100 0.166667
9 2 31 100 0.0188467
11 2 31 100 0.145457
12 2 31 100 5.81511e-05
18 2 31 100 8.92343e-06
27 2 31 100 5.66776e-06
0 3 31 100 0.168038
1 3 31 100 0.153939
2 3 31 100 0.166658
3 3 31 100 1.78437e-05
4 3 31 100 0.0357338
5 3 31 100 0.129833
8 3 31 100 0.166667
10 3 31 100 0.0127259
11 3 31 100 1.77767e-05
12 3 31 100 0.123083
13 3 31 100 0.0417028
18 3 31 100 0.00141996
23 3 31 100 0.000163614
0 4 31 100 0.166679
2 4 31 100 0.166667
3 4 31 100 0.166667
4 4 31 100 0.000321368
5 4 31 100 4.29201e-06
6 4 31 100 0.166667
11 4 31 100 0.166667
19 4 31 100 0.16614
21 4 31 100 0.000106293
29 4 31 100 8.15851e-05
3 5 31 100 0.166666
6 5 31 100 0.166667
7 5 31 100 0.166667
8 5 31 100 0.166666
11 5 31 100 0.166667
20 5 31 100 0.166667
3 6 31 100 0.166667
6 6 31 100 0.166667
7 6 31 100 0.166667
11 6 31 100 0.166667
12 6 31 100 0.166667
20 6 31 100 0.166667
0 7 31 100 0.176745
6 7 31 100 0.156475
7 7 31 100 7.95795e-05
8 7 31 100 3.1755e-05
9 7 31 100 0.166662
11 7 31 100 0.166667
12 7 31 100 0.16667
20 7 31 100 0.166667
31 7 31 100 2.78679e-06
7 8 31 100 0.166667
8 8 31 100 0.166667
11 8 31 100 0.125001
12 8 31 100 0.333333
14 8 31 100 0.0416657
20 8 31 100 0.166667
0 9 31 100 0.164853
8 9 31 100 0.166667
9 9 31 100 0.00176628
11 9 31 100 0.000318356
12 9 31 100 0.333333
15 9 31 100 0.166395
20 9 31 100 0.166667
0 10 31 100 0.166666
12 10 31 100 0.166592
14 10 31 100 7.52302e-05
15 10 31 100 0.333262
16 10 31 100 0.166667
17 10 31 100 3.945e-05
18 10 31 100 3.16622e-05
26 10 31 100 0.166667
8 11 31 100 0.166667
13 11 31 100 0.00167905
14 11 31 100 0.164987
15 11 31 100 0.333333
16 11 31 100 0.166667
22 11 31 100 9.26221e-06
26 11 31 100 0.166657
0 12 31 100 0.164656
8 12 31 100 0.165624
11 12 31 100 0.00104171
14 12 31 100 0.165722
15 12 31 100 0.166667
16 12 31 100 0.169614
21 12 31 100 2.50517e-06
24 12 31 100 4.80915e-06
26 12 31 100 0.166667
0 13 31 100 0.166741
1 13 31 100 2.8167e-05
8 13 31 100 0.166667
14 13 31 100 0.000139056
15 13 31 100 0.332992
16 13 31 100 0.326752
18 13 31 100 0.00657621
21 13 31 100 0.00010089
28 13 31 100 3.1804e-06
0 14 31 100 0.00311686
9 14 31 100 0.0113822
10 14 31 100 0.152168
16 14 31 100 0.166667
18 14 31 100 0.182222
19 14 31 100 0.151066
20 14 31 100 4.51634e-05
21 14 31 100 0.166667
26 14 31 100 0.166454
27 14 31 100 0.000212419
0 15 31 100 0.322332
2 15 31 100 6.77642e-06
9 15 31 100 9.24192e-06
12 15 31 100 0.0569254
15 15 31 100 0.109738
18 15 31 100 0.0107008
19 15 31 100 0.000255402
20 15 31 100 0.00252134
21 15 31 100 0.166667
22 15 31 100 0.164145
29 15 31 100 0.166698
0 16 31 100 0.166667
17 16 31 100 0.166667
19 16 31 100 0.166667
20 16 31 100 0.166667
21 16 31 100 0.166669
29 16 31 100 0.166663
17 17 31 100 0.166667
20 17 31 100 0.166666
21 17 31 100 0.333333
23 17 31 100 0.166667
29 17 31 100 0.166667
0 18 31 100 0.00620209
5 18 31 100 4.92714e-06
9 18 31 100 4.4147e-06
17 18 31 100 0.166658
20 18 31 100 0.166667
21 18 31 100 0.166666
22 18 31 100 0.166667
23 18 31 100 0.166667
25 18 31 100 2.71029e-06
27 18 31 100 0.160461
0 19 31 100 0.0024981
3 19 31 100 4.60698e-06
6 19 31 100 6.8271e-06
12 19 31 100 5.613e-05
13 19 31 100 2.84538e-05
15 19 31 100 4.86132e-06
20 19 31 100 0.16665
23 19 31 100 0.000487011
24 19 31 100 0.166662
25 19 31 100 0.161531
27 19 31 100 0.174968
28 19 31 100 0.280763
29 19 31 100 0.0463405
0 20 31 100 0.329383
6 20 31 100 5.01012e-05
9 20 31 100 4.72572e-06
21 20 31 100 0.166667
22 20 31 100 1.27822e-05
25 20 31 100 0.166667
27 20 31 100 0.000217311
28 20 31 100 0.166649
29 20 31 100 0.170261
31 20 31 100 8.81944e-05
14 21 31 100 4.48911e-06
21 21 31 100 0.166667
25 21 31 100 0.166667
29 21 31 100 0.166667
30 21 31 100 0.166662
31 21 31 100 0.333333
0 22 31 100 0.166667
22 22 31 100 0.166667
25 22 31 100 0.133422
27 22 31 100 0.0332451
29 22 31 100 0.166667
31 22 31 100 0.333333
0 23 31 100 0.0124887
22 23 31 100 0.2
26 23 31 100 0.0244526
27 23 31 100 4.04334e-06
31 23 31 100 0.763055
22 24 31 100 0.2
31 24 31 100 0.8
17 25 31 100 2.77797e-06
24 25 31 100 0.237776
25 25 31 100 0.0122186
31 25 31 100 0.750003
27 26 31 100 0.333333
31 26 31 100 0.666667
27 27 31 100 1
27 28 31 100 1
27 29 31 100 1
17 30 31 100 2.97172e-05
25 30 31 100 1.04392e-05
29 30 31 100 0.951085
30 30 31 100 0.0488747
31 31 31 100 1
1 1 32 100 0.199992
2 1 32 100 0.2
5 1 32 100 0.445391
7 1 32 100 0.154609
9 1 32 100 8.22474e-06
1 2 32 100 0.199999
2 2 32 100 0.2
3 2 32 100 5.56278e-05
5 2 32 100 0.399945
8 2 32 100 0.2
0 3 32 100 0.17097
2 3 32 100 0.200619
3 3 32 100 0.00428695
4 3 32 100 0.19577
5 3 32 100 0.4
6 3 32 100 3.4634e-06
9 3 32 100 0.0283447
12 3 32 100 5.51379e-06
2 4 32 100 0.2
4 4 32 100 0.200005
7 4 32 100 0.2
8 4 32 100 0.199995
10 4 32 100 0.2
0 5 32 100 3.2224e-05
3 5 32 100 0.199918
4 5 32 100 0.0809037
5 5 32 100 0.119087
7 5 32 100 0.200058
8 5 32 100 0.199993
9 5 32 100 7.76954e-06
10 5 32 100 0.2
5 6 32 100 0.2
7 6 32 100 0.399952
8 6 32 100 4.82797e-05
9 6 32 100 0.2
10 6 32 100 0.2
0 7 32 100 0.2
7 7 32 100 0.4
10 7 32 100 0.4
0 8 32 100 0.00382126
2 8 32 100 2.78371e-06
5 8 32 100 0.2
7 8 32 100 0.2
9 8 32 100 0.173431
10 8 32 100 0.371443
11 8 32 100 0.0513018
0 9 32 100 0.399944
8 9 32 100 2.11868e-05
11 9 32 100 1.8313e-05
13 9 32 100 0.599984
18 9 32 100 4.97423e-06
20 9 32 100 2.74658e-05
5 10 32 100 0.2
10 10 32 100 0.2
13 10 32 100 0.599993
14 10 32 100 6.86118e-06
0 11 32 100 0.19909
5 11 32 100 0.2
13 11 32 100 0.59999
14 11 32 100 0.000910325
17 11 32 100 9.60549e-06
9 12 32 100 0.2
13 12 32 100 0.2
14 12 32 100 0.00852836
16 12 32 100 0.189263
17 12 32 100 0.20219
19 12 32 100 0.2
25 12 32 100 3.32024e-06
31 12 32 100 1.58981e-05
0 13 32 100 0.199998
1 13 32 100 5.89081e-06
9 13 32 100 0.199994
14 13 32 100 0.200001
17 13 32 100 0.000580248
19 13 32 100 0.200001
20 13 32 100 0.199421
0 14 32 100 0.199954
10 14 32 100 0.2
14 14 32 100 0.2
19 14 32 100 0.2
20 14 32 100 0.199762
25 14 32 100 0.000237966
27 14 32 100 4.536e-05
10 15 32 100 0.2
14 15 32 100 0.2
19 15 32 100 0.2
20 15 32 100 0.199963
22 15 32 100 0.199994
31 15 32 100 3.71928e-05
32 15 32 100 6.34171e-06
10 16 32 100 0.2
15 16 32 100 0.2
19 16 32 100 0.2
20 16 32 100 0.2
30 16 32 100 0.145015
32 16 32 100 0.0549849
5 17 32 100 1.78873e-05
13 17 32 100 0.0582745
14 17 32 100 0.141725
17 17 32 100 0.2
19 17 32 100 0.199982
21 17 32 100 0.2
32 17 32 100 0.2
15 18 32 100 3.95338e-05
17 18 32 100 0.4
21 18 32 100 0.199279
22 18 32 100 0.2
28 18 32 100 0.000508174
29 18 32 100 4.12994e-06
30 18 32 100 0.000168761
32 18 32 100 0.2
0 19 32 100 0.000439693
12 19 32 100 5.92023e-06
16 19 32 100 9.06511e-06
17 19 32 100 0.4
22 19 32 100 0.203683
24 19 32 100 0.152811
25 19 32 100 0.0341805
26 19 32 100 0.00870487
28 19 32 100 0.000174446
32 19 32 100 0.199991
0 20 32 100 0.00873124
17 20 32 100 0.2
18 20 32 100 0.00824355
19 20 32 100 0.000118505
20 20 32 100 0.170678
21 20 32 100 0.00849359
22 20 32 100 0.200119
23 20 32 100 0.00337954
25 20 32 100 0.000118505
27 20 32 100 0.0177321
28 20 32 100 0.000118505
32 20 32 100 0.382268
20 21 32 100 0.2
22 21 32 100 0.2
29 21 32 100 0.200006
32 21 32 100 0.399994
0 22 32 100 0.248711
22 22 32 100 0.25
27 22 32 100 0.00128874
29 22 32 100 0.25
32 22 32 100 0.25
22 23 32 100 0.5
29 23 32 100 0.25
32 23 32 100 0.25
6 24 32 100 6.54669e-06
21 24 32 100 2.04428e-05
22 24 32 100 0.333334
24 24 32 100 0.0114586
25 24 32 100 0.321847
29 24 32 100 0.333334
25 25 32 100 0.5
32 25 32 100 0.5
0 26 32 100 0.986731
26 26 32 100 0.0132689
0 27 32 100 0.499537
18 27 32 100 2.21331e-05
20 27 32 100 0.000410699
21 27 32 100 1.92683e-05
23 27 32 100 7.66671e-06
29 27 32 100 0.500003
29 28 32 100 0.5
32 28 32 100 0.5
0 29 32 100 0.5
32 29 32 100 0.5
29 30 32 100 1
0 31 32 100 0.993984
11 31 32 100 1.6857e-05
30 31 32 100 0.00593053
31 31 32 100 6.82703e-05
10 32 32 100 1.98243e-05
30 32 32 100 0.99998
32 33 32 100 1
32 34 32 100 1
32 35 32 100 1
0 1 33 100 0.126303
1 1 33 100 0.496321
5 1 33 100 0.125
7 1 33 100 0.252375
14 1 33 100 1.727e-06
0 2 33 100 0.129665
1 2 33 100 0.495211
3 2 33 100 0.124996
5 2 33 100 0.125
7 2 33 100 0.125
8 2 33 100 9.61185e-05
9 2 33 100 9.75328e-06
13 2 33 100 1.96958e-06
19 2 33 100 1.92385e-05
0 3 33 100 0.199332
1 3 33 100 0.125
2 3 33 100 0.175668
3 3 33 100 0.125
4 3 33 100 0.125
5 3 33 100 0.125
7 3 33 100 0.125
0 4 33 100 0.11615
3 4 33 100 0.225085
4 4 33 100 0.0308193
5 4 33 100 0.377945
7 4 33 100 0.125
11 4 33 100 0.125
0 5 33 100 0.121955
3 5 33 100 0.125
5 5 33 100 0.125
6 5 33 100 0.127967
7 5 33 100 0.249999
8 5 33 100 7.85213e-05
9 5 33 100 0.125
14 5 33 100 0.125
0 6 33 100 0.249832
6 6 33 100 0.249989
7 6 33 100 0.125061
9 6 33 100 0.250022
16 6 33 100 0.125044
25 6 33 100 1.13744e-05
30 6 33 100 4.04188e-05
0 7 33 100 0.124666
5 7 33 100 0.125059
6 7 33 100 0.125
7 7 33 100 0.124942
8 7 33 100 3.4468e-05
9 7 33 100 0.375251
14 7 33 100 6.90429e-06
16 7 33 100 0.125
22 7 33 100 4.1008e-05
0 8 33 100 0.000654319
6 8 33 100 0.125003
7 8 33 100 0.125
8 8 33 100 0.124346
9 8 33 100 0.329279
10 8 33 100 0.0454249
11 8 33 100 0.124337
12 8 33 100 0.000959143
16 8 33 100 0.124852
23 8 33 100 0.000135062
32 8 33 100 9.36768e-06
6 9 33 100 0.125014
8 9 33 100 0.25
9 9 33 100 0.125004
11 9 33 100 0.160715
12 9 33 100 0.0892665
15 9 33 100 0.125
16 9 33 100 0.125
0 10 33 100 0.366403
6 10 33 100 0.125
9 10 33 100 0.125
11 10 33 100 0.250001
13 10 33 100 0.00835977
14 10 33 100 0.000232701
16 10 33 100 0.125
20 10 33 100 3.32891e-06
0 11 33 100 0.119646
7 11 33 100 0.00531951
10 11 33 100 0.125
11 11 33 100 0.125016
12 11 33 100 0.125002
14 11 33 100 0.125
15 11 33 100 0.250015
16 11 33 100 0.108136
18 11 33 100 0.0168646
6 12 33 100 0.125
7 12 33 100 2.12714e-05
11 12 33 100 0.249979
12 12 33 100 0.125
14 12 33 100 1.80898e-06
15 12 33 100 0.254672
16 12 33 100 0.120326
22 12 33 100 0.0249273
30 12 33 100 0.100073
0 13 33 100 0.243933
5 13 33 100 3.41169e-06
7 13 33 100 0.000657326
9 13 33 100 0.00491221
12 13 33 100 0.286792
15 13 33 100 0.250001
16 13 33 100 0.000120328
17 13 33 100 0.0880913
19 13 33 100 0.000453797
21 13 33 100 3.12437e-05
26 13 33 100 1.30949e-06
29 13 33 100 6.31206e-06
31 13 33 100 0.124997
0 14 33 100 0.121429
7 14 33 100 0.0053195
11 14 33 100 0.000275838
12 14 33 100 0.125004
13 14 33 100 0.122919
15 14 33 100 0.250047
17 14 33 100 6.28384e-05
18 14 33 100 1.8694e-06
19 14 33 100 0.124937
20 14 33 100 0.125
23 14 33 100 3.43094e-06
31 14 33 100 0.124999
2 15 33 100 1.75739e-06
5 15 33 100 2.0933e-06
11 15 33 100 0.12463
14 15 33 100 3.80015e-06
15 15 33 100 0.235186
17 15 33 100 0.122754
18 15 33 100 0.126642
19 15 33 100 0.127246
20 15 33 100 0.125
29 15 33 100 0.0135365
31 15 33 100 0.124998
0 16 33 100 0.249588
8 16 33 100 1.85815e-06
11 16 33 100 0.125
14 16 33 100 6.90429e-06
18 16 33 100 0.25
19 16 33 100 2.62355e-05
20 16 33 100 0.250001
22 16 33 100 0.000374114
26 16 33 100 1.33711e-06
32 16 33 100 0.125
2 17 33 100 1.40526e-06
11 17 33 100 0.124999
18 17 33 100 0.127359
19 17 33 100 0.125
20 17 33 100 0.247722
21 17 33 100 2.24908e-05
26 17 33 100 0.12492
31 17 33 100 0.125
32 17 33 100 0.124978
0 18 33 100 0.235194
8 18 33 100 0.000267577
13 18 33 100 0.00801202
17 18 33 100 2.0946e-05
18 18 33 100 0.125
20 18 33 100 0.132388
21 18 33 100 0.000485074
24 18 33 100 0.124111
28 18 33 100 0.125
29 18 33 100 2.84526e-06
30 18 33 100 3.20666e-06
31 18 33 100 0.125
32 18 33 100 0.124515
0 19 33 100 0.12499
5 19 33 100 3.31755e-06
20 19 33 100 0.124999
21 19 33 100 0.125
22 19 33 100 9.76153e-06
24 19 33 100 0.124992
28 19 33 100 0.25
30 19 33 100 8.61308e-06
31 19 33 100 0.124997
32 19 33 100 0.125
0 20 33 100 0.124791
9 20 33 100 7.5031e-06
14 20 33 100 5.29443e-05
20 20 33 100 0.125
21 20 33 100 0.264588
23 20 33 100 7.30264e-06
24 20 33 100 5.15372e-05
25 20 33 100 0.22294
26 20 33 100 0.0125585
27 20 33 100 2.02649e-06
28 20 33 100 0.125
33 20 33 100 0.125
0 21 33 100 0.212108
7 21 33 100 2.44434e-06
9 21 33 100 1.82666e-05
17 21 33 100 3.18593e-06
21 21 33 100 0.135043
22 21 33 100 0.125
23 21 33 100 0.114957
24 21 33 100 1.80214e-06
25 21 33 100 0.0336983
26 21 33 100 0.00416509
28 21 33 100 0.25
29 21 33 100 1.83866e-06
33 21 33 100 0.125
21 22 33 100 0.125
23 22 33 100 0.25
27 22 33 100 0.125
28 22 33 100 0.374999
33 22 33 100 0.125
0 23 33 100 0.375138
22 23 33 100 0.123957
23 23 33 100 0.125
25 23 33 100 1.9376e-06
27 23 33 100 0.125704
28 23 33 100 0.000149472
29 23 33 100 5.05694e-05
30 23 33 100 0.124987
33 23 33 100 0.125012
0 24 33 100 0.122905
16 24 33 100 7.12862e-05
23 24 33 100 0.375018
27 24 33 100 2.57237e-06
28 24 33 100 0.124979
30 24 33 100 0.00202293
32 24 33 100 0.125
33 24 33 100 0.25
21 25 33 100 1.98377e-05
25 25 33 100 0.125
27 25 33 100 0.233055
31 25 33 100 0.141928
32 25 33 100 2.58157e-05
33 25 33 100 0.499971
0 26 33 100 0.00208162
20 26 33 100 0.00209886
24 26 33 100 2.23535e-06
26 26 33 100 0.122908
27 26 33 100 7.74698e-05
29 26 33 100 0.000794351
31 26 33 100 0.372037
33 26 33 100 0.5
15 27 33 100 1.4316e-05
24 27 33 100 1.50109e-05
28 27 33 100 9.22072e-06
30 27 33 100 0.190518
31 27 33 100 0.354289
32 27 33 100 0.00161652
33 27 33 100 0.453538
31 28 33 100 0.392208
33 28 33 100 0.607792
32 29 33 100 0.221893
33 29 33 100 0.778107
33 30 33 100 1
1 1 34 100 1
0 2 34 100 0.914302
2 2 34 100 0.00439911
21 2 34 100 1.28789e-05
23 2 34 100 0.000782021
25 2 34 100 0.0805039
1 3 34 100 0.985136
4 3 34 100 0.000805185
10 3 34 100 0.014059
1 4 34 100 1
0 5 34 100 0.996238
5 5 34 100 0.00049259
12 5 34 100 0.00311616
26 5 34 100 7.89133e-05
29 5 34 100 7.44764e-05
1 6 34 100 1
0 7 34 100 0.999914
7 7 34 100 8.55198e-05
1 8 34 100 1
0 9 34 100 0.0213855
2 9 34 100 0.961385
23 9 34 100 4.98379e-05
25 9 34 100 0.0171795
0 10 34 100 0.992041
8 10 34 100 0.00790183
21 10 34 100 1.81477e-05
26 10 34 100 3.93571e-05
3 11 34 100 1
3 12 34 100 1
3 13 34 100 1
27 14 34 100 1
27 15 34 100 1
15 16 34 100 0.844805
17 16 34 100 0.155195
17 17 34 100 1
17 18 34 100 1
15 19 34 100 3.58552e-05
18 19 34 100 0.999922
26 19 34 100 4.1876e-05
19 20 34 100 1
19 21 34 100 1
19 22 34 100 1
0 23 34 100 0.935781
8 23 34 100 0.00259473
21 23 34 100 0.061597
26 23 34 100 2.67757e-05
19 24 34 100 1
22 25 34 100 1
0 26 34 100 0.00222948
11 26 34 100 0.000714575
24 26 34 100 0.997056
24 27 34 100 1
0 28 34 100 0.0141711
13 28 34 100 0.000134667
20 28 34 100 0.00015806
24 28 34 100 0.985536
0 29 34 100 0.998787
8 29 34 100 0.00116909
21 29 34 100 4.38003e-05
24 30 34 100 1
24 31 34 100 1
31 32 34 100 1
31 33 34 100 0.99931
34 33 34 100 0.000690188
30 34 34 100 0.023172
34 34 34 100 0.976828
0 1 35 100 1.40977e-05
1 1 35 100 0.624984
4 1 35 100 0.375
32 1 35 100 1.874e-06
0 2 35 100 0.253687
1 2 35 100 0.250579
4 2 35 100 0.370734
8 2 35 100 0.125
0 3 35 100 0.125144
1 3 35 100 0.250001
2 3 35 100 0.125
3 3 35 100 3.75521e-06
4 3 35 100 0.125001
5 3 35 100 0.124848
7 3 35 100 0.124986
8 3 35 100 0.124982
17 3 35 100 1.43552e-05
21 3 35 100 1.79348e-05
34 3 35 100 1.44464e-06
0 4 35 100 0.124378
1 4 35 100 0.125
3 4 35 100 0.218257
4 4 35 100 0.125
5 4 35 100 0.15671
7 4 35 100 0.125
8 4 35 100 0.125
9 4 35 100 2.59316e-05
13 4 35 100 3.78024e-06
18 4 35 100 6.28562e-05
22 4 35 100 0.000560307
1 5 35 100 1.34282e-05
3 5 35 100 0.125
4 5 35 100 0.249984
5 5 35 100 0.125002
6 5 35 100 0.125
7 5 35 100 0.125
8 5 35 100 0.125
23 5 35 100 0.124984
25 5 35 100 1.61016e-05
0 6 35 100 0.12641
4 6 35 100 0.249946
5 6 35 100 0.12495
7 6 35 100 7.78749e-05
8 6 35 100 0.373608
11 6 35 100 6.20507e-06
15 6 35 100 1.70883e-06
25 6 35 100 0.125
0 7 35 100 0.00341291
1 7 35 100 0.0479947
3 7 35 100 9.09084e-05
4 7 35 100 0.125
5 7 35 100 0.125
6 7 35 100 0.198493
8 7 35 100 0.124996
9 7 35 100 0.116299
10 7 35 100 0.125
11 7 35 100 4.07956e-06
12 7 35 100 0.00870961
25 7 35 100 0.125
0 8 35 100 0.00124509
2 8 35 100 0.124976
5 8 35 100 0.248744
6 8 35 100 0.125
7 8 35 100 2.36799e-05
8 8 35 100 0.124991
11 8 35 100 0.0438576
14 8 35 100 0.00141245
15 8 35 100 0.0806707
20 8 35 100 0.124075
25 8 35 100 0.125
31 8 35 100 3.50265e-06
0 9 35 100 0.124993
2 9 35 100 0.125
7 9 35 100 0.249627
8 9 35 100 0.000372514
9 9 35 100 6.63704e-06
10 9 35 100 0.125
14 9 35 100 2.16525e-06
15 9 35 100 0.125
20 9 35 100 0.124998
25 9 35 100 0.125
2 10 35 100 0.125
7 10 35 100 0.125
8 10 35 100 0.247931
10 10 35 100 0.125
11 10 35 100 0.00206933
14 10 35 100 2.91117e-05
15 10 35 100 0.125
16 10 35 100 2.91117e-05
20 10 35 100 0.125
21 10 35 100 0.124942
0 11 35 100 0.124981
7 11 35 100 0.125
8 11 35 100 0.234187
10 11 35 100 0.125
11 11 35 100 0.00576381
12 11 35 100 6.80427e-05
13 11 35 100 0.000169988
14 11 35 100 1.60278e-05
16 11 35 100 1.60278e-05
17 11 35 100 0.00999857
19 11 35 100 2.06509e-06
20 11 35 100 1.51903e-05
21 11 35 100 0.124798
22 11 35 100 0.124985
26 11 35 100 0.102051
32 11 35 100 0.0229486
0 12 35 100 0.124967
2 12 35 100 0.000109653
10 12 35 100 0.125
11 12 35 100 0.25
13 12 35 100 0.12489
14 12 35 100 0.0105461
16 12 35 100 0.000359777
18 12 35 100 0.114814
20 12 35 100 0.125
21 12 35 100 0.124212
22 12 35 100 2.47089e-06
24 12 35 100 1.87904e-06
26 12 35 100 6.63304e-05
33 12 35 100 1.45532e-05
34 12 35 100 1.62299e-05
0 13 35 100 0.12208
10 13 35 100 0.125
11 13 35 100 0.125
13 13 35 100 0.249999
15 13 35 100 0.000135538
16 13 35 100 3.22802e-06
18 13 35 100 0.124925
20 13 35 100 0.125
23 13 35 100 0.00284662
29 13 35 100 1.02913e-05
35 13 35 100 0.125
0 14 35 100 0.125
8 14 35 100 0.00296176
9 14 35 100 0.00605028
10 14 35 100 0.127962
11 14 35 100 0.125
13 14 35 100 0.23802
18 14 35 100 0.125
24 14 35 100 0.125
28 14 35 100 4.08339e-06
35 14 35 100 0.125
0 15 35 100 0.370362
8 15 35 100 0.000142113
12 15 35 100 0.125
13 15 35 100 0.129388
14 15 35 100 5.46077e-05
16 15 35 100 5.1567e-05
20 15 35 100 0.125
24 15 35 100 0.125
35 15 35 100 0.125
2 16 35 100 1.9864e-06
10 16 35 100 0.125
12 16 35 100 0.125
14 16 35 100 0.125
16 16 35 100 0.000720392
18 16 35 100 0.125
20 16 35 100 0.125
24 16 35 100 0.0937127
25 16 35 100 0.124998
26 16 35 100 0.0305662
35 16 35 100 0.125
0 17 35 100 0.130043
1 17 35 100 0.000331813
3 17 35 100 2.48992e-05
6 17 35 100 4.34439e-06
10 17 35 100 0.142858
12 17 35 100 0.139608
14 17 35 100 0.145101
16 17 35 100 0.00224347
19 17 35 100 0.0147537
20 17 35 100 0.000941406
21 17 35 100 0.128848
23 17 35 100 4.16861e-06
24 17 35 100 5.72717e-05
25 17 35 100 0.142858
26 17 35 100 0.152322
0 18 35 100 0.142857
10 18 35 100 0.142857
14 18 35 100 0.142857
15 18 35 100 0.142857
21 18 35 100 0.102647
24 18 35 100 0.0402108
26 18 35 100 0.142857
28 18 35 100 0.142856
0 19 35 100 8.44158e-06
3 19 35 100 0.000294648
5 19 35 100 0.0296291
6 19 35 100 0.0776795
7 19 35 100 0.0296119
9 19 35 100 6.67227e-05
11 19 35 100 0.00631781
13 19 35 100 0.0218568
15 19 35 100 0.292636
18 19 35 100 0.112323
21 19 35 100 0.000990156
24 19 35 100 0.000132787
25 19 35 100 0.140935
26 19 35 100 0.00192122
28 19 35 100 0.142857
29 19 35 100 0.142725
32 19 35 100 1.43871e-05
0 20 35 100 0.40281
9 20 35 100 0.142857
15 20 35 100 0.142879
18 20 35 100 3.46807e-06
20 20 35 100 6.76718e-06
23 20 35 100 2.19423e-06
24 20 35 100 0.142857
27 20 35 100 2.73951e-06
28 20 35 100 2.66213e-06
29 20 35 100 0.16857
31 20 35 100 8.21035e-06
0 21 35 100 0.142848
9 21 35 100 0.142857
15 21 35 100 0.142857
24 21 35 100 0.142857
25 21 35 100 8.83124e-06
27 21 35 100 0.142857
29 21 35 100 0.00128299
30 21 35 100 0.140858
32 21 35 100 0.141574
33 21 35 100 0.00199939
3 22 35 100 3.5681e-06
9 22 35 100 0.142857
15 22 35 100 0.142857
21 22 35 100 0.14286
27 22 35 100 0.142857
28 22 35 100 0.137794
29 22 35 100 0.00506256
34 22 35 100 0.142851
35 22 35 100 0.142857
0 23 35 100 0.0187998
8 23 35 100 5.84486e-06
14 23 35 100 0.000595891
16 23 35 100 0.121216
17 23 35 100 0.00342923
21 23 35 100 0.142981
22 23 35 100 3.81123e-06
24 23 35 100 1.88321e-06
26 23 35 100 0.141541
29 23 35 100 0.0171293
30 23 35 100 0.142854
32 23 35 100 0.125728
34 23 35 100 0.142858
35 23 35 100 0.142858
0 24 35 100 0.142857
8 24 35 100 0.000202485
11 24 35 100 8.92114e-06
18 24 35 100 0.142857
21 24 35 100 0.142857
26 24 35 100 0.142857
30 24 35 100 0.142857
34 24 35 100 0.142857
35 24 35 100 0.142646
9 25 35 100 1.68942e-06
13 25 35 100 7.99398e-05
18 25 35 100 0.142857
23 25 35 100 0.00040567
25 25 35 100 0.00040567
26 25 35 100 0.143114
28 25 35 100 0.141557
29 25 35 100 0.00040567
30 25 35 100 5.93966e-05
33 25 35 100 0.142599
34 25 35 100 0.142858
35 25 35 100 0.285656
0 26 35 100 0.166506
27 26 35 100 0.166667
29 26 35 100 0.000158402
30 26 35 100 0.166667
34 26 35 100 0.166667
35 26 35 100 0.333334
0 27 35 100 0.2
30 27 35 100 0.400001
34 27 35 100 0.200001
35 27 35 100 0.199998
0 28 35 100 0.199941
25 28 35 100 5.82704e-05
30 28 35 100 0.2
33 28 35 100 0.2
35 28 35 100 0.400001
0 29 35 100 0.25
3 29 35 100 4.38061e-06
31 29 35 100 0.249996
33 29 35 100 0.25
34 29 35 100 0.25
27 30 35 100 1.21578e-05
33 30 35 100 0.25
34 30 35 100 0.249988
35 30 35 100 0.5
33 31 35 100 0.25
34 31 35 100 0.25
35 31 35 100 0.5
0 32 35 100 0.5
34 32 35 100 0.5
0 33 35 100 9.69165e-06
34 33 35 100 0.00726017
35 33 35 100 0.99273
35 34 35 100 1
0 1 36 100 3.9862e-05
1 1 36 100 0.25
27 1 36 100 0.49996
34 1 36 100 0.25
0 2 36 100 0.25
27 2 36 100 0.5
34 2 36 100 0.25
1 3 36 100 0.25
27 3 36 100 0.25
34 3 36 100 0.25
35 3 36 100 0.2003
36 3 36 100 0.0496995
1 4 36 100 0.25
2 4 36 100 0.233479
3 4 36 100 0.0134891
9 4 36 100 0.00288001
13 4 36 100 0.000135921
16 4 36 100 1.62266e-05
27 4 36 100 0.25
36 4 36 100 0.25
1 5 36 100 0.25
3 5 36 100 0.000495216
8 5 36 100 0.00122312
9 5 36 100 0.250001
25 5 36 100 5.32485e-05
28 5 36 100 0.000174418
30 5 36 100 0.0785928
34 5 36 100 0.16946
36 5 36 100 0.250001
0 6 36 100 3.96868e-06
1 6 36 100 0.25
4 6 36 100 0.25
9 6 36 100 0.249899
13 6 36 100 0.000100783
14 6 36 100 5.99138e-06
16 6 36 100 0.000132582
28 6 36 100 0.249702
36 6 36 100 0.00015503
1 7 36 100 0.249994
4 7 36 100 0.198896
8 7 36 100 0.0324743
10 7 36 100 0.0186304
12 7 36 100 0.250001
15 7 36 100 3.43422e-06
36 7 36 100 0.250001
0 8 36 100 0.249995
1 8 36 100 0.25
4 8 36 100 4.03514e-06
9 8 36 100 4.32851e-06
12 8 36 100 0.249996
36 8 36 100 0.25
1 9 36 100 0.25
12 9 36 100 0.25
14 9 36 100 0.25
28 9 36 100 0.25
0 10 36 100 0.249997
1 10 36 100 0.247452
4 10 36 100 0.00084931
10 10 36 100 0.00127683
12 10 36 100 0.00084931
14 10 36 100 0.25
15 10 36 100 2.92435e-06
18 10 36 100 0.00084931
28 10 36 100 0.248723
0 11 36 100 0.49895
1 11 36 100 0.250001
14 11 36 100 0.250001
15 11 36 100 0.00104894
0 12 36 100 0.239354
1 12 36 100 0.204439
11 12 36 100 0.249821
13 12 36 100 0.000179871
15 12 36 100 0.0106449
16 12 36 100 0.25
20 12 36 100 0.0453071
21 12 36 100 0.000254333
13 13 36 100 0.25
16 13 36 100 0.5
19 13 36 100 0.0307524
21 13 36 100 0.2126
23 13 36 100 0.00664717
0 14 36 100 0.249995
13 14 36 100 0.25
15 14 36 100 4.24655e-06
18 14 36 100 0.25
23 14 36 100 0.25
13 15 36 100 0.25
16 15 36 100 0.25
19 15 36 100 0.25
23 15 36 100 0.25
0 16 36 100 0.24782
13 16 36 100 5.03883e-06
14 16 36 100 0.248853
16 16 36 100 0.250797
19 16 36 100 0.25
24 16 36 100 0.00214765
26 16 36 100 2.76061e-05
28 16 36 100 0.00034966
15 17 36 100 0.25
16 17 36 100 0.25
23 17 36 100 0.249951
24 17 36 100 4.95176e-05
25 17 36 100 0.25
15 18 36 100 0.25
16 18 36 100 0.25
23 18 36 100 0.230349
24 18 36 100 0.0196514
25 18 36 100 0.25
0 19 36 100 0.479159
3 19 36 100 0.000115567
8 19 36 100 0.000285437
10 19 36 100 1.32193e-05
11 19 36 100 9.04202e-05
14 19 36 100 0.00239917
18 19 36 100 0.224737
22 19 36 100 1.45703e-05
25 19 36 100 0.290006
26 19 36 100 0.00259939
30 19 36 100 0.000157581
32 19 36 100 9.73683e-05
33 19 36 100 2.95117e-06
34 19 36 100 0.000322114
18 20 36 100 0.25
19 20 36 100 0.25
27 20 36 100 0.25
35 20 36 100 0.249999
0 21 36 100 0.499981
17 21 36 100 1.80043e-05
19 21 36 100 0.250001
27 21 36 100 0.25
0 22 36 100 0.244673
18 22 36 100 0.250001
24 22 36 100 0.250001
29 22 36 100 0.0053247
35 22 36 100 0.250001
0 23 36 100 0.401325
7 23 36 100 2.49986e-05
15 23 36 100 2.62097e-06
19 23 36 100 0.094404
20 23 36 100 0.00602374
23 23 36 100 1.60154e-05
24 23 36 100 0.250001
27 23 36 100 5.80372e-06
30 23 36 100 0.247799
32 23 36 100 1.26747e-05
35 23 36 100 0.000384779
0 24 36 100 0.249995
21 24 36 100 0.249997
26 24 36 100 3.4651e-06
30 24 36 100 4.24634e-06
31 24 36 100 0.25
35 24 36 100 0.25
2 25 36 100 0.249639
22 25 36 100 0.000361193
24 25 36 100 0.249863
26 25 36 100 0.000136838
31 25 36 100 0.25
36 25 36 100 0.25
0 26 36 100 0.249801
24 26 36 100 0.250007
25 26 36 100 0.000198511
31 26 36 100 0.209783
34 26 36 100 0.0402112
36 26 36 100 0.25
2 27 36 100 0.250001
24 27 36 100 0.249615
28 27 36 100 0.000385577
34 27 36 100 0.249998
36 27 36 100 0.250001
0 28 36 100 0.386756
6 28 36 100 0.0407122
10 28 36 100 8.92083e-06
25 28 36 100 9.81774e-06
28 28 36 100 0.249998
29 28 36 100 0.071601
30 28 36 100 0.00017509
32 28 36 100 0.000714179
33 28 36 100 2.42454e-05
36 28 36 100 0.250001
0 29 36 100 0.33139
5 29 36 100 0.333335
19 29 36 100 7.86062e-05
20 29 36 100 5.01571e-06
27 29 36 100 3.2e-05
29 29 36 100 0.00125563
30 29 36 100 0.000226386
35 29 36 100 0.000342176
36 29 36 100 0.333335
5 30 36 100 0.333323
9 30 36 100 8.33094e-06
33 30 36 100 0.333204
36 30 36 100 0.333465
5 31 36 100 0.333333
33 31 36 100 0.333333
36 31 36 100 0.333333
33 32 36 100 1
33 33 36 100 0.5
34 33 36 100 0.5
34 34 36 100 1
36 35 36 100 1
36 36 36 100 1
25 1 37 100 1
25 2 37 100 1
25 3 37 100 1
0 4 37 100 0.0327941
2 4 37 100 0.425475
3 4 37 100 2.18284e-05
6 4 37 100 0.541709
0 5 37 100 0.00223167
4 5 37 100 0.00063935
5 5 37 100 1.43803e-05
7 5 37 100 0.99623
9 5 37 100 2.3264e-05
11 5 37 100 4.0235e-05
15 5 37 100 0.000800826
33 5 37 100 2.05079e-05
7 6 37 100 1
0 7 37 100 0.0199206
7 7 37 100 0.0780002
8 7 37 100 0.901244
19 7 37 100 0.000835205
0 8 37 100 1
0 9 37 100 1.79307e-05
14 9 37 100 0.999982
12 10 37 100 1
3 11 37 100 1.89119e-05
12 11 37 100 0.999981
12 12 37 100 1
26 13 37 100 0.00363522
28 13 37 100 0.996365
13 14 37 100 0.00145506
28 14 37 100 0.998545
28 15 37 100 1
26 16 37 100 1
7 17 37 100 1.61851e-05
26 17 37 100 0.991272
28 17 37 100 0.00871154
37 18 37 100 1
0 19 37 100 1
37 20 37 100 1
37 21 37 100 1
37 22 37 100 1
37 23 37 100 1
37 24 37 100 1
37 25 37 100 1
0 26 37 100 1.12454e-05
32 26 37 100 0.999989
20 27 37 100 0.00019624
29 27 37 100 0.999804
30 28 37 100 1
30 29 37 100 1
30 30 37 100 1
31 31 37 100 1
26 32 37 100 8.32955e-05
28 32 37 100 6.31682e-05
31 32 37 100 0.999854
31 33 37 100 1
0 1 38 100 0.000585643
1 1 38 100 0.331605
2 1 38 100 5.47607e-06
3 1 38 100 0.0010108
6 1 38 100 0.333333
31 1 38 100 0.000126484
32 1 38 100 0.333333
0 2 38 100 0.333242
1 2 38 100 0.325197
2 2 38 100 0.00822332
6 2 38 100 0.333333
21 2 38 100 3.36624e-06
2 3 38 100 0.0768668
3 3 38 100 0.333334
7 3 38 100 0.333332
32 3 38 100 0.256467
4 4 38 100 0.333296
6 4 38 100 3.7535e-05
9 4 38 100 0.333333
32 4 38 100 0.333333
4 5 38 100 0.333328
6 5 38 100 0.033934
